Layers weights
-0.747507540946798 -1.0892885587386207 -0.5785990933679399 0.575978917710462 -0.6499802511469559 0.7975065394400198 0.32691404170416166 -0.23898374635904748 
-0.45655983422175095 -0.4035810391395153 0.8862488273628152 0.3432247142966321 0.566634070843888 0.417425580314759 -0.3348596795202208 -0.8264324083551451 
1.1346630328388752 0.43019439108074403 -0.05206468564558903 -1.3974931603123895 -0.23560383467746304 -0.8323137775537955 0.2742429129726013 0.22450968553626607 
-0.4773185047183107 -0.9757064179809569 0.7810533913599513 -0.673180075659666 0.12601231793026174 0.4675358971291774 -0.9337549824043063 0.5760067332769007 
-0.45243687000084754 1.015579665343778 0.3111864657515232 -0.4332118757563104 -0.17382319226777274 -0.7686776642866662 -0.6025174585373972 0.055587413133074554 
0.1434723988759043 1.0225974076223447 0.17380312604459272 -0.6634559200994538 -0.2408715201996577 0.11280129342160668 0.9718235043944042 -0.05535262484477287 
0.6427936787120303 -0.7556405886321188 0.27562434814774706 0.22348686525730838 -0.425523135923607 0.2980365159871509 0.6987918412664754 -0.8291201184690392 
0.9508269101474596 0.7313925929031235 -1.131658777812881 -0.6601030102478601 -0.9585527135851205 -0.11528618557711473 0.5508788496844191 0.5996933576091985 
-0.2465082798719827 0.7126056966033313 -0.4279241797893116 -0.015754873032393125 -0.4158005548839883 -0.4216388515005354 0.09156022172848025 -0.6697433565611783 
0.007301500127646275 0.6545566397163257 -1.1113367873459858 -0.1099610210851834 -1.100875813159394 0.20069090268976827 0.2156737803909604 0.09238316209204701 
-1.0302134889098318 0.2870110908309799 -0.6349764819793499 -0.20058535133701533 0.10650930869282667 0.5452633113879861 -0.5367094622970752 -0.6463290621761524 
0.6164990678512247 0.28341125203060324 1.2053372529519673 -1.4433830365043572 -0.9997318978005716 1.0252697060569858 -0.17156702857772435 0.33866602510976856 
-1.3980415194935005 0.20864991711644829 -0.5004779425701346 -1.0243533849692075 -0.7267860514546352 1.0342060979826693 -0.5182768041634402 0.48487136239096235 
1.01317293872493 -0.006881878791686239 -0.1599100549815683 0.4412115655487418 0.3752797828451849 0.4244666383276774 -0.7454739799783784 -0.8718037704485332 
0.29389784776702016 0.7874602674834165 0.890234370977968 0.5102166888044722 -1.2884293721283797 2.092479293081399 -1.0167989079534097 -0.08853405540639339 
2.227299562363869 -0.21620762583676723 1.7137580431510093 -1.1030608555489514 -1.898100420548528 -0.8047896810774452 0.4829439854416327 -0.21255949864389226 
2.544673824589946 -2.2774271750166033 0.7494860648436206 
-0.7990414441134385 -0.045486144123214896 0.07072639131373909 
-0.21204227406751935 2.4558548096353934 -0.9844607481126303 
-0.5750368522288678 -0.06704960328627228 -0.8490070366240842 
-0.4067919098503346 3.27602685630466 -0.7674724877278549 
-1.1706292525950444 -2.10552120992929 1.8613495928697021 
-3.2481507802261165 -0.20295005797882376 1.6940782684823281 
3.105744165060489 -0.08695595289026588 -1.1508346169364443 -0.5115938867123874 -1.3753895024165939 -0.7303767296062905 -3.5630757878966466 0.36415193880800883 
0.3722148739298232 -0.5556296684433351 -1.7202528854848433 0.9171873247776163 -3.317933247875784 3.4994314661281627 -0.247447246376919 0.20223772612482735 
0.16745311338597052 -1.4888802328108055 1.7379090453286388 -0.7379092985307587 0.8266110856165089 -2.4960788328467687 -2.52533251003535 -0.6955004574030614 
0.8931654074634221 -0.13653925728407398 -2.443756162506296 -0.6862575482183213 -3.237410798294317 3.303310457216128 1.5839095619123418 0.9697549770484392 
2.052910652431464 -0.3689836115778183 0.9307368767544208 -0.09044147021728555 0.6966228576085342 -1.1557950500316252 -2.59858750568906 1.101684588775476 
-3.0883339567653834 0.16248527100631957 1.190394639241425 0.9036700963752045 1.4157078437189252 -0.45028648856473646 3.538977496148963 -1.198169934949083 
-3.0420864647940364 -0.3575766533220581 1.7740352220284923 0.8745928933006085 1.0385291179478389 -0.5197833441967427 0.34654821286709553 -0.8918573698404002 
-2.465354685838739 0.2612969847154607 1.707279598348011 -1.050230856804843 -1.7080729121561429 -6.033711708120017 0.7673346054537574 3.0681549088848543 
2.766836803670658 -2.5078386624115048 -2.34368784303816 2.1639138883207107 -1.1291385560560392 -0.9473682125205317 -1.9899049043418624 0.034974854504884606 
-2.7068974302655517 1.9328106200026194 1.9995758038776952 -0.3404272052918719 4.442955579115467 -2.448270775461722 -0.2884944746650147 -3.086184200524554 
0.6195872857223105 -0.424085420098247 1.4865568202173245 0.12068225254490131 1.129781291250933 -0.03747127329760179 -0.6003257847217184 -1.2092091662593347 
2.0472787486653776 1.9989451306188124 0.08706341182571453 -1.1942049763857514 3.024581047223363 3.0950862641669707 -1.4685040579244866 -4.691370336619591 
0.8835803817955569 -2.7271580374763604 0.8539748288703168 2.9122831197573373 0.7551550829577445 -1.8952939619427471 4.146199537307841 -1.97326937604843 
0.14854444921612095 0.6346092842109216 -1.8614845210694613 -4.13603996030715 0.06827619595566559 -2.8321885673801255 -0.018834642001711206 3.365604748147308 

Epochs: 25000	rain_dataset_len: 16