Layers weights
0.888539924686276 0.2577297421200464 0.8390333531120677 0.48511555968893194 0.22353408554204457 0.6681707121698705 0.3933516532566365 0.6093226098362082 -0.6377134563894955 -0.7667282328108653 -0.32304712645791733 0.6200704615706218 0.6628433571521556 0.814145874886357 1.0371707121969447 0.11689409261742159 -0.8146577856283246 -0.048285245569943624 -0.5571258353997555 -0.10777425159872718 0.9091274986770758 -0.9461079803451867 1.0471340574549095 -0.6501118773423681 -0.5069977074892875 -0.8816518129063295 0.6363876112477567 0.7707846819685625 -0.45363614490351917 -0.6237886721958066 -0.4122934997542178 -0.45410614449084685 0.11373318197118909 -0.9699765755580927 -0.4465870626091517 0.9275575144911572 -0.9862605541321462 0.518940982667365 -0.10924079466394618 -0.19965537464842675 0.2722260899988538 0.12045866895710922 0.1435253711802107 -0.07583316702224302 -0.16911162578160222 -0.898128077865198 0.37991706741713405 0.32670104245101356 0.8764900612772089 0.8104788086111143 0.5165830282876427 0.09760583739989041 -0.11721180372554846 -0.6801525599744759 0.9045496807112907 -0.48411658170930816 -0.8030581443560948 
0.030104257037551596 -0.9600632608865483 -0.279869892746059 0.22589582004250217 0.8602072045357287 0.3619261199742407 0.6404917118590417 -0.5216062664523721 0.9000034864887756 -0.3417202428181012 -0.17815961371073996 -0.8851563080902116 -0.9525172227088096 0.24705942705058276 -0.9528178550756793 0.1484982121655654 -0.1713636310747626 -0.8235188982267665 0.47171603748542634 -0.9482658998347078 -0.9154646648305826 0.49761249177055633 0.056897663322154166 0.8901486948179299 -0.22136780288365765 -0.35896687677118133 0.3704844191278558 0.43086674809131054 0.7364614283783933 0.6074863386119184 0.003542649640939978 -0.24454205407959526 0.8627077737968327 -0.35136806678127774 -0.02510580472337276 0.01247504302548044 -0.4647949627816394 -0.4091703905009756 -1.166005482144481 0.7168706150911013 0.3488533116592143 0.4728406300278989 -0.3266872904236988 -1.156338304854044 0.46788131010842554 0.008309655157109278 0.769483312738278 -0.16355120905671638 -0.5418691181614872 0.13930436300415128 -0.5153707148965947 0.7711392717651439 -0.45708236280052306 -1.16746742146981 -0.4591909220024835 0.25913971976100925 0.6201884882710013 
-0.9221387926444014 0.1544333564415079 0.14914339589109282 -0.5921541814391923 -0.005682223664164656 -0.946577873689139 -0.1720699493455742 0.7975186967510749 -0.8616586685408443 0.5566066903278524 0.5515094203293043 -1.0132900238738947 0.987363179775967 -0.7907758845393685 0.8138714346782085 -0.08429611860188709 -0.9340030699799884 -0.8180823920179974 0.22213576622877307 -0.1696211871509875 0.4575021494924542 0.10642571323658996 -0.17346744590587185 0.7605340732170806 0.16717044239070544 0.24066891089315923 -0.3287972831022892 0.9952936124834039 0.026572811454886693 -1.0301589962245712 -1.216708506733502 -0.7621780478902405 0.3122237240726715 -0.2981604445730348 0.6266903809898288 0.5744338538564087 0.7808618441732749 0.26518182904658383 -0.6286079141385412 0.09185301779020098 0.6248616387552044 0.6052580802208678 -0.4548499796467438 -0.13467399194196905 0.7295780701277361 0.002415297015326779 -0.39381575140477915 0.1341092023315126 -0.20663522620844188 -0.14039414747622359 -0.8469334444717613 -0.6384240687525711 0.16464658814152852 0.8343417270044896 -0.10525662332164945 0.27305001066162016 -0.5037188139829084 
-0.5098919618799631 0.040245789808774024 0.30057237690147987 -0.29301202196469234 0.11590319634357996 0.15265819810049677 0.26813594754755066 0.6551893257469718 0.4665987881055096 -0.07022111917176721 -0.2772661688415954 0.6265827699469523 -0.3315304983649846 0.155992844957199 0.47612622006863176 -1.0537344856089688 -0.23325533014290167 0.694845237610505 -0.37026174656506683 0.09212815042006069 0.05731890853437486 0.02051021024676511 1.2852913501857413 0.2884899157536279 0.019811283772847244 0.812558759739338 -0.28380614912183466 0.28721460398813525 -0.9687393736611839 -0.6407511680214574 0.7641980335564114 -0.9242069948534362 -0.815963805530723 -0.37073185549746324 0.6078290745698363 -0.5096880077733748 0.6581552255913856 0.690215083723185 -0.2539983361271541 -0.813862840452996 -0.7200721260806644 0.3559808485201035 -0.08328462629959255 0.49420347904946343 0.5251880876493193 -0.03183694736109953 0.11880240089637513 -0.6348041744656076 -0.5772772767306289 -0.3734949456540939 -0.8719463486585566 -0.16198945214891763 0.6493178600100187 0.20450214512566822 -0.20610344967969832 0.20862808299920807 -0.8199135201089521 
0.589380454208476 0.2682415538352534 0.7938238181015063 0.8271017547149829 -0.6651373308684924 -0.3820624863105752 -0.6963686686704222 0.24848728562258976 -0.23689940217451477 -0.7921829238932148 0.4091675211007513 -0.7648217037528836 -0.15002321309385888 -0.18405620732170644 -0.4082196476243291 -0.3875262128590316 -0.3444903589115056 -0.732356298527614 0.9449259598087234 0.6928954422001636 -0.14374113369876754 -0.009682798942264058 0.07036114356371187 -0.4951895589913905 0.24275121921868248 -0.8239889340810866 -0.9529291026159763 -0.21933084323504623 -0.34165807892773414 0.5037269310250675 -0.020160919038299592 0.26949578960727066 -0.38799130225838163 -0.046911728003526276 0.2854831098504389 -0.865173952910049 0.4311639725301911 0.07815676580513094 -0.8420873506086877 -0.6463901520787126 -0.48664870090207124 0.21774621671818495 -0.2964670090498336 0.5851253360827605 0.7139897664634666 -0.7197453067695454 -1.0889380421682462 0.31464179964970596 -0.9846658287942316 -0.14357048032904496 0.9909712754308775 0.48884073695146835 0.6301242451781087 -0.07319397065323509 0.15394343036661726 0.4276246962132971 0.3589868187553066 
0.9176479685372048 0.6108576919089423 0.06700568030976028 -0.8256664124896803 0.88021017641705 0.812536720833935 0.46812539760916605 -0.9590840593393062 0.23627895207883443 -0.644668304708754 0.21427996278958616 -0.5367804073457173 0.47300435220912684 -0.39992895237990034 -0.9055514694773029 -0.5478206010652485 0.6964211756461036 -0.5243858257612273 -0.9153689375573559 0.8952303351048055 1.034883472520291 -0.4478038932243832 0.9024415114515706 -0.8136351587388769 0.5568990791460777 0.9413370053528616 -0.38899207295893823 0.28379612946888166 -0.49390496007232865 0.7806245238273589 0.8683631321086881 -0.9597918868095205 0.5031348593030247 -0.8502205675090169 0.35282421991599033 -0.2279104894069176 -0.7274564622880794 -0.11452018825821646 -0.8216762824021081 -0.6084979919850428 0.9137209760203358 -0.9140821933739223 0.10301544034419186 -0.5621727343980855 0.38990613680524017 -0.14592793197525486 -0.5367397755916788 -0.266457950870105 -0.349473431189947 0.9017058494194512 -0.606785340119298 -0.5101257045263453 -0.9432395521427216 -1.0754903434338943 0.00826756041749155 1.0574223088813388 0.3187219462326643 
-0.701511133394064 -0.9752736972951488 -0.43057307003117473 0.9957072726579093 -0.4973268762415783 -0.8550793357352886 0.42847151649284954 0.04017779821818754 0.8969943768535784 0.6197555397357148 -0.7363062560944036 -0.5813095132916674 0.6085948580414389 -0.900677211753902 0.013362262762002178 -0.28575489071107163 -0.22364220995976725 -0.3069082040784572 -0.7277841106852081 0.2603539617848744 0.5489860389222335 -1.0234934518856096 0.7378221721731504 0.23039149999975145 0.056883478150140165 0.07443869149142879 -0.6803205621026247 -0.05345850984250716 0.2063998071353701 0.4623018722528735 0.422264400529215 0.5151308271639081 0.8746830426239851 -0.783511172395148 -0.2965451015161369 0.26777631791425 0.9117243918354513 -0.215434088316098 0.6385311000919014 -0.30989453701886993 0.3107814837415994 0.6785574764500186 0.5066921359096161 -0.09281259570001886 -0.005167538207359878 0.43899110330055957 0.3322628023727208 0.2952784663813989 -0.09625402776506187 0.01687729466951504 0.17414415209944356 0.1184718938865167 -0.9198417819316511 0.044266058624367444 0.018850948736306758 -0.20374881577816828 0.16636564606731366 
-0.39329680550711 -0.02733401155142845 0.9829311435481662 -0.3201805638969239 -0.2745400504176537 0.17030069394579722 0.8554980442839927 0.12490118512422434 -0.33571849964845524 -0.06681372370306216 -0.7800358288551519 -0.06445552791372978 -1.1813303900869234 -0.9568175290448602 -0.5148194803681652 -0.6650899094325623 -0.5421962512239229 0.8729142218176258 -0.7550582626816038 -0.2630905860790836 0.9749709723391615 -0.05695264642032819 -0.5420505513375655 0.7934818629207365 0.6470209661954189 -0.07205707555653396 -0.4500282964592235 1.0632711533221424 0.8874631230963888 0.09445849952679299 0.7464169658271914 0.2317192166011773 0.7886949644992218 -0.410117999850093 0.7980788642202092 -0.4296411056537954 0.6080769293457771 -0.23754193473285715 -0.5206415485898525 0.010007230244416649 -0.45164031915526315 0.15312059645417841 0.22604465918802386 0.9921232234913986 0.731504275154756 -0.00816288617239091 0.8368043431729028 0.33274674009781857 -0.37613679601041716 -0.8677362444516399 -0.27501756523815124 -0.3569626545449794 -0.6845916492954861 0.46908700484098115 -0.4255351791542714 0.821526328221924 -0.12173054867153914 
-0.0022908978055886653 0.7947002660378537 0.21854799900036692 -1.0176921068959395 -1.0700381177752663 0.6311354409808563 0.7646482156008594 0.6141966820497594 0.805995207166085 0.08285878094191501 -0.5302422382411689 0.307697036955231 0.7326712920986912 0.4723681498312568 0.021805122132577164 -0.8842781575198176 -0.8608307711591694 0.9953001900965284 0.10229517221145956 -0.9442244308836125 0.16844561609493608 -0.09953719966440724 0.4836649024510614 0.7264745479811955 -0.32334497844332466 0.18426751179599243 -0.9747301377151862 -1.0177771274065759 -0.44612580522051987 -1.2017928673959848 0.6953017662283573 0.0026131311637596546 -0.027285724895340202 -0.9602664803609995 0.8504266197868624 0.12984453601421905 -0.5788832892600677 -0.5215487648605943 -0.31933228503621375 -0.5153344000294116 0.013766874935230877 -0.6392645793924079 -0.2252614395246364 -1.1170189872830085 0.30014061137672304 -0.42690447436743906 0.669137852163372 0.39731183710611384 -0.9333332019431286 -0.46077220634895966 0.8404696461802501 -0.47171199938658726 -0.5942422002672428 0.38572108845934944 -1.0190012003084294 0.3283454214559989 0.5443355677628349 
0.005629320931334281 -0.8784199949317593 0.8234156399404067 0.465480569377463 0.15064406916778042 0.955562726585433 -0.5355714176815419 -0.4737902799241152 -0.746181246154149 -0.7775051469584109 0.6183284977067132 -0.2863566188988985 -0.050813081168640736 -0.3091191316631422 0.9265945458341498 0.452249516612731 -0.11932561906354122 -0.9607528151204288 -0.6304172481709747 0.8580883042583193 0.19099460994164097 -0.597646270711751 -0.31336374016915647 -0.5601313496152736 0.5587534841003454 -0.876087464781683 0.3690903631105007 -0.919437805746377 -0.9727931238762849 0.6747377032643926 -0.5871879914974091 -0.10639636630382991 -0.12397971875834357 0.8508887239580298 0.7507748177195794 -0.8922896422415296 -0.2697169458940568 0.2760056835253638 0.8779832431218988 -0.29237116665603247 0.06257772800520889 -0.09410231769627075 -0.18737592830358296 0.10621226037576213 0.2942100388477418 0.7167756322364366 0.5931007519888414 -0.06398385190408123 -0.4371788425436123 -0.8537045048259815 0.5384396532592797 -0.3966493181012175 -0.6209456366883255 0.14540420741425503 0.5063899852115725 -0.42734047724652086 -1.0426467244086148 
0.8935219325855173 0.6509168049048044 -0.6289888179650902 -1.059055597773423 -0.5312570872896757 0.35869631255046275 0.8969001021424778 0.8257395997918793 -0.3165734996027627 -0.019981258703755334 0.1283765151649474 0.5607567674329216 0.5814294016976793 -0.6331792632424372 0.3187993577855288 -0.24763551846283496 0.2564777713131272 0.0333166571356438 0.11543868765740783 0.8801175919879952 -0.8708894621041968 -0.22867908579463658 -0.061778628356116534 1.0366460647892124 0.0722865423335668 0.15448647984378217 -0.22260602134123442 0.040777418613708136 -0.7824281930807814 0.7664411420858828 0.6572853298237601 0.9314236684087976 -0.8996090633105516 0.7518280875925976 0.10845653504700548 -1.0535382296184852 0.2000550490027276 -0.1470813606831737 0.7386853732613812 0.6814390934953468 0.1763881267263927 -0.711367054415198 0.4967120975834327 -0.9376516523327396 0.8306135765547478 -0.14042923728198067 0.6871950233550187 -0.5128878695070684 -0.47214655743899425 -0.8309123830857947 -0.8266236528074415 -1.096000348364096 0.5497580701274735 -0.7581436694740857 0.09430056148906152 -0.20561580195716117 -0.29924447629668544 
0.3355879021304198 -0.3660620784222992 0.9661409954372941 -0.12766984024560926 0.6544012532195702 0.24489655770959337 -0.12475092989145378 0.5642843992377966 0.8412607377383075 0.6199125276602524 -0.4207004210729439 0.9708973473129837 -0.166531779696705 -0.6704344627946885 0.2128983626656359 -0.8224984564091326 0.4855401127790886 0.6371131703930188 0.21416515960044324 -0.2744062140069694 -0.7551465769365286 0.5351488738642229 0.516139767443075 0.42833513511767035 -0.42707677316083337 -0.6680265265529466 -0.4406877316510913 -0.4766712827121633 -0.5725660999338453 -0.5635026259190293 1.0816728977798653 -1.0378850353939184 -0.4828155629807014 -0.9003695092938475 0.4114566694374777 -0.23366405328000886 -0.7272210391863606 -0.4817358857642403 0.47832943192376 -0.3999250968992918 0.8414694173700366 0.7101930833145955 -0.7308744132404617 0.740395463020366 0.18172857026684375 -0.9335416707587808 -0.40870609785314155 -0.5278168602615789 0.4083199129970616 0.7703274734048122 -0.1814068210950257 -0.15641942370403097 0.03227152387554768 -0.05409123179283508 -0.06945639328152123 0.7580509713340156 -0.007054502947019559 
-0.11221552977784888 0.5249397844232853 -0.27701962278701653 -0.9514109187992084 -0.7985506923069765 -0.42172637479631386 -0.9042249586488935 -0.750965766219026 0.8040117800917139 0.38619531192108414 0.6174935835681701 -0.5785997236645192 -0.7053842948472323 0.4304607899760826 -0.784827327022226 -0.792492676155029 -0.5416385422246233 -0.5430960638510358 0.6301359226347094 -0.7569043281484801 0.8293640362976095 0.9591697086023129 0.38729571929808077 0.6613153124454972 -0.8047368092756864 -0.05459219442566199 0.48598139559612985 -0.8317971989254258 0.1037190764880395 0.328987322246744 0.18503779556221253 -0.9874058265344279 -0.8536008423270689 0.614574061109431 0.6384957670102451 -0.6565974484275154 -0.022608148631260448 -0.1225576819059379 0.6019229008460683 -0.22146464178166186 0.7825331586141191 0.34280265653193154 -0.14431218227986276 0.9859863187284017 -0.13792949724343073 0.27866790279740034 -0.21934769536557744 0.13849142389815616 0.5884956827864987 -0.6486610685290517 0.3223181111819544 -0.7398929635145103 -0.332252746832726 0.418557905188949 -0.002126946419144956 -0.4502191592813183 0.5219980488641028 
-0.12767882332600866 0.11739291680235286 -0.13819319545408226 0.585097333810551 0.33242561843462615 -0.43545633968303554 -0.34737885277828745 0.595465450159982 0.35167478547659226 -0.43634714710112665 0.7652356300235419 0.7939106665246454 0.40858325949889246 1.096146546189785 0.11178514706876648 1.0969481400632812 -0.41140926482610807 0.6581408328728631 -0.9540281227311023 0.24980026380860268 -0.5815461405567971 0.645131098602276 0.7305133020274635 0.5104118196430026 -0.2790565196813559 -0.007984062809188064 -0.1315919820513931 0.08080837233721934 0.20768645324215534 -0.4113590468086256 -0.7700684745924 0.5375935332789291 0.6121190841819781 0.05413449035610807 -0.14191705074564265 -0.6124914334640372 -0.2343702544668743 -0.8022950449638147 -0.7901549619997419 -0.8028759785041314 0.6280516974652313 -0.5299991551602992 0.6811786945246774 -0.782842154589523 0.7333363393043048 0.88148617996579 -1.079472324074121 -0.5701159247715653 -0.6344129138797101 -0.8139298140653359 0.3974910785204737 0.6712443111464851 -0.21735548417083972 -0.4168043747918713 0.5784227078105328 -0.4714710351593825 0.1511175609338527 
0.6097427954007513 -0.8926858315217383 0.8021459156079696 -0.5488503934765816 -1.2121758366161917 -0.7170318938198323 0.5530546060666444 -0.13934789448393853 -0.6604354072481524 -0.7278901715466708 -0.5574165755385838 0.40432472800760466 0.13275323972522798 0.764903175672077 -0.9562377772170118 -0.006402063716478934 0.12987622195238857 -0.3355561888607239 0.2862226208420078 -0.037319047674117645 -0.3143317820145863 -0.19901178377974874 0.8575562772649378 0.29809992160684806 -0.9960163760141867 0.8334884600979513 0.26204152825639904 -0.03475949041787732 -0.5426424930487355 -0.5172980516254372 -0.2738741265079668 0.5789397845578556 -0.20005078614106586 0.4243862123302491 0.1383903660817185 0.8131304492244292 -0.28244614793230777 -0.1555560157063034 0.1485361318635607 -0.9155249999626406 0.15975404173333008 -0.8094633274083733 0.734813863583271 1.0300186456322733 -0.7177026824852994 -0.891793758088333 0.3197934372823806 0.38262590953181036 0.4175209208291395 -0.8054003593560093 0.7897897793200512 -0.33806448762045777 0.6055450511280813 -0.4291182766897011 0.3891445267588277 0.19609081107826012 -0.5597967477238884 
0.17664492166818424 -0.16163280068324437 0.7205906163262512 -0.18830615348778812 -0.9591410956574209 0.592198364479959 -0.11650790480738747 -0.4970003719337382 -0.5612626879953293 0.2956056581024957 -0.9574419211447813 1.0372848036642583 0.5749402869337191 0.13664251894854526 -0.478593026134336 -0.5599014610213331 -0.35919650094089817 -0.06871266875330662 0.4998789629974072 0.3733833311646999 -0.9409319943470205 -0.24638188327501231 -0.2891807391218275 0.27093671658320695 -0.09365743083506306 -0.6609819599248001 0.3239488217428317 1.0593815632713801 0.19565487237313722 -0.2691879797594474 0.2615684732276534 -0.7090500889872299 -0.4304156466258058 -0.35468914814148267 0.040754036636520885 0.4859087250138589 0.3103338848423164 -0.7679438522206047 -0.5341678195444092 0.5020981932061489 0.17553762922932403 0.7981488285183529 -0.5347760335748393 -0.6706408609062667 0.6470144905309806 0.09984477454386188 0.6857547813165982 -0.9437147906943438 0.6215929257693955 -0.8961294477722059 0.5645956491866058 0.37484688696255447 0.04475891617991615 -0.9971093569839974 -0.4874741664939337 0.015223490279478221 -0.057428075476253365 
0.07702131314919414 -0.18916967619547997 0.1993270520732715 0.39014739720611913 -0.5741636475305514 -0.5668158188502682 -0.6844613104175572 0.18513469523037945 0.775048158382214 -0.22859936880601128 -0.4969157118367167 0.8622378701130363 0.010833663414984896 -0.2835081626719762 -0.44774048448593373 0.1591246753998066 0.23275919997867733 0.8862298559108903 -0.21895810003870464 -0.8464446096702863 -0.8512664293949012 -0.08827088311647797 0.1485330785676321 0.49506584127156744 -0.21271594315560716 0.17836112377613222 0.8012766302192662 -0.5994568247064508 0.9465339390414284 -0.8810018860365824 -0.9593624968733433 0.15375695176880746 -0.47410149143585945 0.5533662537664379 -0.7382181823782679 0.1559335714609701 -0.9476795529492593 -0.4104920199309602 0.8947184398707584 -0.513476745829043 0.0560256228710474 -0.8754444232313645 -0.6379642546674074 -0.9287976974839786 0.346621967168496 -0.4257596916967459 -0.40936168478537044 0.8545571826121722 -0.3608931530211159 0.8865161989044226 -0.11152632132671858 -0.6678238228573518 -0.18759552447636826 -0.2289080508706322 -0.540924826323772 -0.4403251377696693 -0.7661028908343941 
0.35463579459805783 -0.4863596316600649 -0.8910609407731283 0.07354572960523795 -1.031684163690757 0.4731536787537318 -0.12349417191617997 0.826013143949742 -0.3953498562001585 -0.6327208490385086 0.05360326135639415 0.2705813136342517 -0.05401258713424211 0.4535385867159744 0.8798871349783663 0.5805403374217222 -0.9845402368599834 0.1586599464365166 0.46308405214446813 -0.09184611418212102 0.19258689154672845 -1.037698622305108 0.08925377636895883 -0.7591776281934147 -0.6962867914561635 -0.7816987708997283 0.39971666312002263 -0.1657352398418373 -0.06776248391211719 0.3590315571023265 0.48877614200049324 -1.338863856922927 -0.16781775208273642 0.7674936910348749 0.40230144184849914 0.3616967590423912 -0.5661939564623946 -0.6395572185714374 -0.4144567126076876 -0.00498402562708496 -0.32334281528665665 -0.32482805452406716 0.47229887607332466 0.011860281800019199 -0.2729920093985037 0.1540366065399954 0.270650851295985 -0.8637657615607227 -0.5445415149535404 -0.17912979295116904 0.3302566916793426 -0.0082097924405569 0.4746410939256472 -0.2819999363825129 -0.818939332199979 -0.42012167341376916 0.8834875044144439 
-0.2437636577354072 0.07493671640720234 -0.16964829555556515 -0.8533165159460697 -0.5102471634720509 0.6840239197898335 -0.11902679629796079 -0.9038929312176479 0.22802631643333116 0.13879150354956615 -0.173904452187293 0.6319211065189834 0.9913295691920536 -0.3763386700720946 0.641500654284873 0.7446680028561192 -0.5679458152520622 -0.1964606253042369 -0.3418139158186966 -0.398032002620106 -0.3724182160815249 -0.22713047458373528 -1.487563723926009 -0.6389296293015355 -0.5123366668577258 -0.07197804697842614 -0.8825841956665459 0.9578621498844206 -0.23043812275247183 0.4587675367077104 -0.81717943732789 0.03712455018912986 -0.7420458714211984 0.14555846602103206 0.3448025909390884 -0.5752910940498063 0.24590587638166064 -0.7821426542389471 -0.6275125626028267 0.07155452989292686 -0.5574755212460971 0.4988633230688626 0.343178725094637 -0.42208997587457003 -0.15476878263266836 0.7286789559730253 0.02396938295607027 0.5810662199892751 0.8411053445078711 -0.18594641289944458 -0.2601767976246181 0.7227437617270213 0.18591497345155875 -0.3493739718905946 -0.6199888072282466 -0.8464315719417599 0.13194596885984242 
-0.15219663175304587 -0.9142112247498655 0.4514148555527422 -0.7725895813865318 0.8267691838295708 -0.18651472914595293 -0.1746803892805262 0.5813738814469637 0.8420709927383083 -0.5355492720345345 -0.39251449130072835 -0.29100473774386637 0.47074064726667203 1.0385964661119114 -0.6801492067533469 -0.03663521628955186 -0.11531030419334787 -0.92180188126166 0.4072818889161096 0.8314620729038791 1.0752120608562759 -0.03389811292167922 -0.6196478962304534 0.10828632301923542 0.5957083963638605 0.9667876942771805 -0.4117569603531488 -0.29901376646413264 0.6963845044238091 0.26088801939503464 -0.8386884667179602 0.45029636352399494 -0.6382148292056824 0.6261487239579406 -0.6930905802194811 -0.6936763782443038 -0.2336120407175413 0.5373176278308308 -0.13431029967303723 -0.9944274071844815 -0.6698448280070788 0.7052603574648264 -0.5498849713095237 -0.90528856025397 0.25868035481955953 0.4208053486374958 -0.1630110551502614 -1.0811124588086412 0.97200701528606 -0.5260594031717949 -0.18643167067350674 -0.5295276370126074 -0.37021013969440764 -1.196302556107594 0.5381053683593408 0.639981407415054 -0.25454132957318104 
-0.19096414054376076 0.6100292356377914 0.5523729712102803 0.10822123200350495 -0.5856177976487464 0.06548029292277165 -0.9257328571312239 -0.6719737554170864 0.5609641966337835 0.45523552645601884 -0.1380453690076593 0.21555345282814273 -1.076431902786879 0.9993206211922455 1.0415782274541483 0.5321258521817649 -0.35111925001625965 0.9638308246710505 -0.03887696816680508 -0.44076335299736197 -0.8532980879934599 -0.6970773988319668 -0.25668095870831126 0.6889760059594224 0.899996817864225 -0.5397183453404044 -0.9195468578574155 0.3619618447318258 -0.9208674767749764 0.6501586942657522 0.45351201914624967 -0.8110779604671148 -0.25955680180964014 0.2250019337046123 -0.13360914984987127 -0.1464351257094465 -0.17154513181292086 -0.08799583274289528 0.6467410008839681 0.6177047016464466 -0.956398869754324 0.2889633609449842 -0.7638663793747555 -0.4364631911389446 -0.29299425839632515 -0.7221165518154111 0.6990934224515977 0.5740415609597406 0.7813075360923638 -0.5486462199837208 -0.37900354116399737 0.6540724526614817 0.7052712685727608 0.30222586350778813 -1.2383353861169881 0.510633697894979 -0.8974584999415982 
0.21061840247085084 0.1392507624574717 -0.9856101334144978 -0.7794791089542253 0.9281906331254702 0.5551953918458491 -0.260138778533863 0.566212401656302 -0.07077832045164323 0.6921843904587104 0.9751833165427555 0.771212153058315 -0.4126104515297556 0.47838118546698405 -0.49706797046525214 -0.35520904302490863 0.41633844390277885 0.7090790882811957 -0.7951797820654802 0.10681231997709205 -0.7375877766797839 -0.8609344817438636 0.40570859791776154 -0.3548082227835916 0.9045086154858488 -0.42466572130722824 -0.20055828141799914 0.16092722390912934 -0.21136567594811675 -0.060223062430608786 0.013920471663438913 0.34436089679890947 -0.5559638006685759 0.024628745085749637 0.7765256518284869 0.9088411430859791 -0.23368944180993975 -1.1464135190878684 -0.03810371679695013 0.6710928391278829 -0.2714467494399795 0.8227073193885264 -0.384462868798386 0.9724858410414847 -0.7041815745734593 -0.09796889338172947 0.11395559012408149 -0.07720911484069812 -0.9885498900673526 0.8023913863336898 0.25172552181955243 0.8668708822846538 0.28523974289806825 -0.29545942503060874 0.5960856338553991 -0.33020258531504443 0.2792297778641713 
0.17062752701659845 0.09684976063850614 -0.5363887531619971 -0.185412272927195 -0.3039144614572315 0.08719801904002612 -0.524039954727925 -0.34909692667320513 -0.09307204175812633 0.732668637220004 0.1972514030765793 -0.1496671630332721 -0.06217116189789314 -0.3836133142186101 -0.7999738204761829 -0.5652271895830973 0.5245480546390777 -0.3008298057375478 -0.4049866039322718 0.5744306034869182 0.47307324338697565 -0.4270198026816962 0.033812385643396003 -0.8341336843151681 0.5061043019079541 -0.6663887355631721 0.12411985836246275 0.41429297157113787 0.34248523162312283 0.04432061448186517 -0.31649334449626554 -0.24165875734061137 0.06478418231984118 0.3535776213821853 -0.04916484941796084 -0.1721535249433655 -0.3434842834898165 0.11046724105205268 -0.3911153297406324 0.9160789789276494 -0.47183208700359325 0.2318995855302728 -0.15182511215514438 0.8573963201710493 -0.1175398158187787 0.6526475177263448 -0.21257920551171477 -0.21160832280752936 -0.5785302650450559 -0.8821650320175187 0.2918662310897857 -0.21989334565667668 -1.2981129025112919 0.6937277902614473 0.3401201065486598 -0.5978692697709949 0.2533972011214062 
-0.883854401841702 0.9244934405135208 0.8714142478277771 -0.21352244305835785 -0.3986114329991672 1.0382867688607234 -0.029476922066053415 -0.6461235529440835 -0.8216448323783028 -0.18375229701683926 0.524390485530388 0.6716598325346738 0.10334877467252386 0.725086947539314 -0.000641512977621653 0.1034463092726417 0.11339044888081373 0.5041701055603731 -0.26058306742296033 -0.7662875014602981 0.2984956757989926 1.0618165368785972 -0.15745268025005799 -0.638336794572844 0.5620928931495006 -0.8604396045291729 -0.15293016953658234 -0.4941372629990466 -0.14400643406065491 -0.6924046056545203 -0.4561507800132702 -0.3103091986766415 -0.3529840223126719 -0.3588245338781446 -0.12633544403542318 -0.22466303287040085 0.10029060225207866 0.12496619561556949 0.72798792915078 -0.15951879887856585 0.8234128527935796 0.009445766881736484 0.8169153786022196 0.020571589590040493 0.4177988436392705 0.263447500640388 0.5221541783010499 -0.928270445990704 0.008432984213888606 0.5191358946200337 -0.031087947437674845 0.33296044339392544 0.15846152018346094 -0.660057860162506 -1.2503952530090159 0.895995503761602 -0.1993035286127366 
-0.5868761992896754 0.45097817014354136 -0.08870443495638458 -0.7943047356393789 -0.4501543752890861 -0.5379431415973513 -0.5922147606762768 0.06504169957617915 -0.38313047846404547 0.3076878860356673 -0.2697388541280261 -0.26959594949768295 -0.15575541017382988 0.777660864588816 0.4217026208448056 -0.4605285921752805 0.803425558218281 0.6649753993443479 0.23282401083223903 -0.1871746390790238 -0.698581942746438 0.047287033782132094 0.19208293504638432 -0.5046546343028622 -0.9649763029790526 -0.21064417289824489 0.9815317079449191 -0.5880257495941459 -0.8065221320486232 -0.2985514597834916 -0.8261048991694067 0.7778124800749472 0.22511377077262962 -0.5477929821174821 0.6944381611360726 -0.3641578420137958 0.717544080647078 0.8248856961327842 0.30854257528452594 0.1374720319784606 -0.02720830458521184 -0.3949688998681391 0.978434877249039 0.5742845760887031 0.2697131398989152 -0.19049676856851022 0.8804254107368569 -1.1111297879791442 -0.3760525229476006 0.7564913257415795 0.05766075996492792 0.7020361604295137 -0.8369795447737851 -1.1223424072586323 -0.6082314244247996 0.02706621971337768 0.526043173862371 
-0.21219809477360219 -0.3551285970865812 0.03220507163754127 0.29155659090281527 -0.5342726953552549 -0.7442174173697701 -0.9567414818310181 -0.03405036604069502 0.5010059583921389 0.9362595807609555 0.7334356353429026 0.6114683643855426 -0.460104508338014 -0.15043078844325058 -0.8753503687156191 0.6173241500249111 0.18046024384845794 -0.707921552092651 -0.4721623081915416 0.009083847754730154 -0.8076327130202745 -0.1850356511476305 -0.5137631540924096 -0.9605325907365346 0.3960077071211452 0.3497582471854672 -0.008685351511604322 0.39454838690755967 -0.04290858833250735 0.43535761350611013 -0.10528189018150938 0.6235335641380956 -0.014743653278058932 -0.4850971924246994 -0.3575240795406498 1.125990431503718 -0.5178893475866853 -0.5010654687100976 -0.8442251874345714 -0.9422199239440862 0.2863586412179049 0.21400845456108541 -0.44438383379081814 0.5604999944303671 0.9417516767607605 -0.8032147707068424 0.47655498637171984 -0.8974149339688128 -0.039702059534747924 -0.765716791371231 -0.5726454487578185 0.9210636272096068 -0.7391599856871096 -0.03397136303381717 -0.7905414909240356 0.6410743097440593 0.005811394380648837 
0.651980761273081 0.16642244708376008 0.912891500679049 0.7939537979178464 -0.0228244555772491 0.8231697158757966 -0.6747978690545341 -0.6120175637896983 -0.6174557725233467 0.1149054488435235 -0.15097054356478967 -0.26427433308720993 0.31972896300408665 0.19147782632530622 0.13477290638993564 -0.801551360165205 -0.729407221019233 -0.6883135132514921 -0.5084429167059916 0.4067863613027526 1.0069624621103692 0.7145427272724058 -0.2948776189276179 -0.6983643585338806 -0.02304706826883285 0.5036125668707021 -0.6328843895168759 -0.7005588319891111 0.001560914239311707 -1.0060494490868057 0.6474004262515262 0.3287929112673688 0.9426850572552536 -0.9232088197315522 -0.11762766068222397 -0.6957298113096724 1.1367359406425772 -0.3520202311922313 0.150935717120048 0.573237848468452 0.08824767047396209 0.42252546198114094 -0.08154272021069953 -0.5042186896412051 -0.09436033764019974 -0.5670893014111343 0.8618428700965526 -0.19137712835417733 -0.4163720631304759 -0.1696374568627561 -0.5490770899680553 0.43263079815169486 -1.113341421142845 -0.7674109673500784 -0.14217851190915506 -0.6300549244554772 -0.5347267505127533 
0.06299853705138192 -0.1781745336765974 -0.15678669410750268 -0.42772721361881316 0.8992596346352163 -0.6534423701384775 0.41625810878076114 -0.9269627944850258 -0.6332696366895922 0.12137887908526701 -0.9489605967906263 1.1035656856657787 0.46851940203200404 -1.2074247812849457 0.40613827722793544 -0.7915698736143192 -0.6053058371041937 -0.7991598639372597 -0.3202469815884408 1.3148459524791498 -0.3643474447840534 -1.0997510230899397 0.6008075562243758 0.39191791924558367 0.9619043406595207 0.9737292860619813 0.42386024098035957 0.38015682064472806 -0.0478554843015886 0.17332993965905572 -0.3305780930628705 -0.24861558210745255 -0.9483357414972917 0.07576429447671962 -0.6971430090077158 -0.18869042865681315 0.5533901305183311 0.3802047050614121 -0.38885525988296 -0.4404759925468252 -0.42405367369352653 0.4898022026255284 0.17342996650444298 0.8805089163789884 -0.8037467794527173 0.3798148116306562 -0.46447097820328115 0.4898437443648723 -0.027714126175894194 0.1180767697131262 -0.5205911040376665 -0.19987429374954382 -1.0349810457815984 -0.19575568117930395 -0.6260812270142456 0.13424290272341222 -0.4063347929856339 
-0.47700163351620156 -0.17170316390519524 0.35519448927800124 -0.7467887209302353 -0.5636226835345577 -0.906587619065371 -0.5671888177003407 0.18528069451877924 0.23807103234860433 0.8736053418438529 0.17312448536766975 0.09885528916494665 0.5298956867894101 -0.48121786635680325 -0.46521595547131683 0.35603654485570996 -0.6104141231557971 -0.08704357993479905 -0.4410287872701255 -0.08159318186289478 0.21167377849556906 -0.15356512553266843 -0.1346627461439514 -0.651380412029549 -1.2864122946143264 0.12652340673826798 -0.10117623250935796 -0.605376794648874 -0.8771025122981048 
-1.0121725924710043 -0.35890958664281436 0.16181162585754139 -0.4492861171966511 -1.0243860824938327 0.5332018248466797 -0.6502799509706416 -1.030805610128641 0.18371317093993444 -0.9003775513940577 0.640008798597657 0.4102765494969414 -0.9893602622416768 -0.514341071050688 0.1779016277391753 0.2928954704325386 0.7180234736981542 0.2027729127468907 0.412904951251264 0.4886817557823744 0.5735138144347417 0.20974799654747023 -1.139420390966531 -0.815495988962569 -0.08074915034608604 0.03306379007135722 -0.9090274256364365 -0.37150087821576805 -0.5984310800212528 
0.19239782875547673 -0.04856571152037532 -0.611486717045789 -0.30200051468629713 0.15244730945369445 0.6956377409430463 -1.4964559584069652 -0.37271163006497243 0.8289439097363472 -0.57048860871795 0.05941367860836466 -0.22517647746577474 0.5000358641789977 -1.0001286707244963 -0.5302831936294393 0.2457814906796144 0.6082414325709333 0.03988691242902151 -0.8238261973306384 1.0592587352435583 1.156839861220409 -0.5035970412998596 -0.9332084455802637 0.07058043457979339 1.400950577648101 0.39090808847534986 0.8721396419653453 -0.5167961664466274 -1.1339067450037168 
-1.0409649564261714 0.16521157508450854 -0.32742523277609503 -1.258666348855585 -1.0240036506672325 -0.8970994544861827 -0.2653493455545301 0.2591799169326535 0.2764003746817962 -0.5555889463104497 2.1523479244444648 -0.9697172316223523 -1.3405093191752453 0.5734706176615323 -1.0441671818991372 -0.8069809265350814 -0.6872190367204969 -1.0858873223175232 0.3971242812203741 -1.4621419018625388 0.8221130466384065 0.9245879596693732 -0.9627606030722408 -0.6727072954473258 0.5552777075240775 -0.2582098941616621 -0.989234038318717 -0.8496737081392325 0.08334681948720492 
-0.34324655661238146 1.3433885978225675 -0.5781480163466636 0.14507808989735085 0.09703686260214767 1.0062336044950764 -0.5638176414655269 -1.2632645700403324 0.678081240506069 0.017685822178681677 0.058706598556205004 0.564519743715755 1.097640212289482 0.4985859306938958 0.0195899505069113 -0.2378170578951805 0.45981950496946405 1.2078471013483527 -0.19431686111704402 0.8714720601878002 0.4180424705462536 -0.956461972398656 -1.2506327804796402 1.3993870993333992 0.5827831626518742 -1.0206580989697387 -0.6838660612121948 -1.7679540203324413 0.038164447235468656 
-0.7420908670534715 -0.10920116655268505 0.4081553765461502 -0.6159009515590091 0.5795839736247155 -0.24685599924546175 0.42523982655203096 -1.0331622005580359 -0.9705720450247451 -0.23601170279828046 -0.8076023285174289 0.08532462351977359 -0.6119524005893345 -0.5702983933580237 -0.8213793512060885 -0.9378305549258589 -0.22835146107928486 -0.30403191042296035 0.48466213585580337 0.871099745459061 -0.9530203668299668 -0.9409990529614105 0.36745513747905556 -0.7444284690515539 1.0042551341188124 -0.9553702860724782 0.14013054298979494 -0.5960796046738719 0.5648961286411909 
-0.6641174238599569 -1.0245773445259867 -0.674280528378534 -0.8986240871558604 -0.7444458974766619 -0.005603287087787923 -0.22408797579269443 -0.0037440744469776 -0.45646946533566435 0.6653960442031307 -0.4635484648154946 -0.9530637459447616 -0.9281397703708633 0.5114870698382297 0.026168451893607256 -0.9980620032863116 0.4003895838307357 0.4583530443805076 0.015868547695969418 0.38362831452119894 -0.5827972847877866 0.11917122759962381 -0.3170817931788896 -0.7621974735577403 -0.5627922669524223 0.001343900780955391 -0.17575828354950457 0.4703438428035281 -0.38802082209557115 
-0.6340881560609392 0.39455127907467846 -1.696102814262 0.5247105398506734 0.5213842472611062 -0.19291646597995202 -0.14137836337493076 -1.254387104686934 -0.26523387786823216 0.8535386011769475 -1.1715392120157777 0.6727498729739952 0.009283476331174729 -0.41679642545149326 -0.8253504578408999 0.7125948817191634 0.08916286809888262 1.2349394292286753 -0.04541479193685802 -0.25150048811724024 -0.31372200552303736 -0.4493057257489819 0.040784083090968565 -0.3798592869025636 0.31223519306198355 0.8489964786461831 0.1418461247924352 0.5108724765038342 0.13565760178824607 
-0.16797050536221303 1.4513186128165045 -0.7317063837540442 -1.0817496735706358 0.5462480772636872 0.13835523155745325 -0.3059052517011741 0.20612460490917325 -0.5720816628306578 0.3816038675620577 0.06350348788169916 -1.0689844130562993 -0.2769051865254936 0.029190524397730552 0.34341929355052914 -0.93262823834071 0.6647563161714022 -1.157793707245348 -0.7432568271645907 -1.2474970086380013 -0.15236861398888085 -0.16714851799516497 -0.8956845666563167 -0.16257484201748376 -0.032100858262365896 -0.1903266634995476 0.4440875748171813 0.2438391561914005 -0.2774806385962613 
1.287211018757614 0.11309371408572157 -1.0477234107507536 -0.10849898529096341 -1.5709592402356856 -0.4610524318077044 -0.6158116229415944 -0.2496164771034245 -0.5376313192000508 0.8037747814949966 0.1415902267491871 0.6050315763777636 -1.1570070500748812 0.7747954524868351 -0.9593764353198433 -0.2116383067734707 0.0023353360492393473 -0.4749322989832731 -0.7511595345774418 0.35760953980627497 0.3858525581602305 0.06979110055637157 -1.448986233260431 -0.06441497252364416 -0.02919509190438083 -0.5541658184845449 -0.5412509917820768 0.5824252851296704 0.8407000982471435 
-0.18153782967324955 0.6151456968154467 -0.935395280015652 0.5637343202525424 0.23102829869332236 0.2066917500293561 -0.6553030292593166 -1.2019431111594583 -0.641013598779292 -0.5768726974112834 0.020923539774837432 0.6064768819694215 0.2587817628596073 -0.4946660101772437 -0.28977242273998244 0.394631909402744 0.7743972624234086 -0.28258458493689304 -0.8465429045470702 0.5120895993495326 0.49921509276222964 -0.6730793997187632 -0.7455889259671646 0.34318940832352285 0.27477538119124684 0.6807154579642846 0.7903393984005378 0.4992963757456258 -1.202116653775959 
-0.7309951922826431 -1.0864529774587812 -1.2089966210095036 0.5845079012123869 -1.482058985046607 0.2651672700397188 0.02507439418334763 -0.3965237419523208 0.5261145999857717 1.1708471792573154 0.560740073350806 0.8174651801700692 0.40437892645550655 -1.1751484944753656 -0.5565302272442841 0.3285809278114034 -0.7448797660788659 -0.3701148967345013 -0.4650115881138928 -0.8610572414359788 -0.512096173748813 -0.6206276456952258 -0.7584246415634613 0.11914089361932048 0.2621142943086111 -0.08012007734728777 -0.3941957283909045 0.7144392918039885 0.31927896213897894 
-0.0757850404739383 1.412356303538857 0.4140454318561347 -1.1582156069690541 -0.4470791991940375 0.4966714745602378 -0.2585992693588947 -0.9962814529835111 -1.1959688391800751 -0.5288477629419986 -0.042792446029352754 0.38518697858738327 -2.134898862902349 -0.5274463370604903 0.17068108987460584 1.9826589795953362 -0.19181058587598793 -0.2653318880895095 -0.03570641491136454 -0.06817641576967176 -0.7520378733989679 0.18318925652848397 -0.4898068615941754 0.13437469231037572 -0.0911227068267786 0.9390026098581311 -1.1465173495491918 1.9028900162520486 0.20421025171998178 
0.21727422101978164 -0.4345596575609835 -0.5025120355640137 -0.7018742133637339 0.46109707044168585 -0.03017164865248938 -1.0519677634792401 0.2630879256686695 0.007997029526760485 0.3445063353258738 -0.9884113729509157 0.4998680240267013 -0.6062694080408969 -0.03885995631769338 -0.0069380678872218065 -0.9012339260692337 0.5397948634723525 -0.2484299700402966 0.48624693621215587 -0.5621814511059748 -0.16225154250848117 -0.911625748619937 0.3810804253761003 -1.1722580462953773 0.6957913690396145 0.4350639141230767 -0.4628862430951952 -0.10094309082728337 -1.0010654917306612 
-0.06747666557537785 0.36739556978331006 -0.585373492957555 -1.2988491429572693 -0.12486575209285317 1.0090041318744754 -0.12416542434911705 -1.2158573648573194 0.4937385867503002 0.34917973509654954 -0.7093167052155637 -1.2259403277884808 -0.4353296576978453 1.1447972654404601 -0.04470463077028774 1.6238805833067473 0.918020119431491 -0.02899728466492204 1.1138583360045091 1.5557977238438203 0.6817641432419127 -1.4751546252995607 0.8983845179134552 -0.3841495141422305 1.1547994669182635 1.344940596211442 -0.06241941047070719 0.38852704669325194 -0.06618325417903184 
-0.5014232875699386 0.05172219477079783 -0.006958690166516708 0.33588516711953126 -1.3730446497273279 -0.48815171832502596 0.041567285785526265 -0.4192124916293427 0.3938203235570013 0.6614234901526287 0.06195687441051348 -0.3176465290381309 0.32618494375596474 -0.13717198195546645 -0.6659435109085925 0.46403590985354226 0.3907376897615908 0.37152252571955463 0.3386904405098994 -0.9897131182201947 0.4813078923503298 0.011364074598410347 -0.37723175809545373 0.11245518236114468 -0.9798157690875627 -0.13208276757131987 -0.7700539425905277 -0.8061898138488188 -0.8844029377275675 
0.23357362636441312 -0.1051962724938804 -2.6147908245178693 4.423149871577462 -2.439987451395265 0.567600635706102 -0.04066884453893405 -0.8170194486037938 0.18880144108759575 -1.3121266490784098 -0.12982131176913814 -2.2789335226024265 1.7894115921734206 -0.04584199671166 -0.938878566284659 -0.07511125647034819 0.2677241895128766 
-0.01661639646908531 -0.3074366600724669 0.45384539155045633 -0.9189131942174323 -0.8297998903898659 -0.40266683484773597 -0.13232996281940304 -1.1274870021678465 0.9710744110989269 -2.35450226667492 0.4566583446542436 -0.8341829099841911 2.6195507157205062 0.8049806784669737 3.0947792634844493 -0.30637913368930403 0.21448118639439512 
6.640939199773915 0.6871966642292664 -0.9898975591720958 
6.539699552735868 -7.059128120731955 -0.6635994025725396 
1.9481449555205375 7.9145655603445695 -4.264166019988354 
2.0690716133570235 2.257424189736164 -3.310731399147916 
4.693750816295201 4.369425128657822 -6.901600961701878 
-1.4300012303630014 -1.8829146577144045 -0.26573997751309736 
-4.434320991061079 -3.723364605463116 1.5916621762215475 
9.79159369926797 0.7015800180274527 -0.9513324969081095 
5.564052535129957 -3.0710345798638636 -4.166496244606672 
-6.222745756315805 1.5992238839916058 -1.4526920576742917 
-6.232329568091559 -0.9563788038639478 1.170945584284785 
0.005669959708532893 -9.30351404643008 0.6932323672957538 
-2.7039873600382167 4.308444779093129 -2.012021498380479 
4.537415119951786 -0.30960099203067176 -2.029668123741344 
-8.907449803620052 1.1522345268365994 6.707082174616169 
0.1539498407615496 8.273895093779007 -0.8403353118365948 
-3.731552816919756 -2.1255863721236348 2.047103440187171 -1.1473289963277231 -1.3566693605762725 -0.016913936570011008 -0.636138375797317 -5.615202769792543 -1.7931216444157199 4.083007571204471 2.8531468981520574 -1.8310944835497167 1.4033639394529347 -1.127198403654167 -0.12569424522620887 -1.4694048026718354 -1.4713728414536191 
-1.0879694608930774 0.10362929055192914 -0.9999213882806884 0.780650800226655 -0.010048044273411414 -0.8172639999875211 -0.477375938550387 0.4479585652922314 0.5483924297440643 -0.5952186049703576 0.5425971573463154 -0.13696856190144488 -0.14273926368810724 -1.0194886962951504 0.08236880416117257 -0.5229686795078873 -1.1372584944953066 
-2.2193133342720897 -2.914640661955858 -0.9969299251046319 -0.7670775973334709 -3.0531281443312204 -0.5492179131575837 1.6379912197867394 -4.096823977284658 -1.7268002421637805 1.7162081921024497 1.8965097256330086 -2.3999529039172116 -1.1121336750636421 -1.5188126972450509 -2.441740949770331 0.4802398895954999 -1.387048785661823 
-1.9682293081907745 1.8251604920913347 -1.3439790815870227 -0.946063118411139 -3.45865789893712 1.062112750927777 2.2629966698868915 -1.219038182855786 1.6402994510670412 -1.4978325578447165 0.5156293767436371 5.016081596951983 -2.382027059318561 -1.2613451758828593 -2.778206248196327 -5.094605728104779 -2.572837273908923 
2.3004193362103713 -0.8769261833408024 3.061427734493284 1.5357404466695923 1.8185744300874824 0.22705744697586672 -1.5113438984686223 2.3513340032084553 0.47364430113273 -3.9060401285693778 -3.4866476135654527 -0.8992440929609964 -1.530976396679997 1.7903646282520778 -2.3353051481327043 -1.1918749250078242 -1.2801363785165156 
1.231225493002998 -4.446814887333428 3.3318870467588937 1.4563630861621601 2.635375087152857 -1.023686310922152 -0.7831164566262946 -0.910625097900075 -2.6815378129415346 3.309951294274639 0.06820457844034046 -3.5986754258543283 3.039327720790718 0.27612585177634746 2.875005820274724 3.9708678965844286 0.8724764427045657 
-1.141418324729506 -0.9599228053641243 0.031105987360744405 -0.7946618156761609 0.6081110414886799 0.27170930690373724 -0.6976128365883718 -0.4108791536065585 0.04777014751174099 1.1177361099955825 0.4561866024361895 -0.5960685069765556 0.47208231549875 -0.8981183754586641 -0.3055548837194382 -1.3634055439589279 -1.4571179632917923 
-3.734249406348852 1.5316746451616743 1.2421281915017366 -0.2850207984023111 -1.0675179338438665 1.2060971138342225 2.6801309932956583 -5.308383437956266 -2.0596488290382586 1.8711420988463272 4.124672902532071 0.6697426456514309 0.4714790007429665 -1.0712604750062305 1.371855422377107 -1.3601252261754382 -0.9952476029834912 
-0.9858796480949015 -0.5210646376205025 -0.5113566135144263 -1.1734603006268962 -0.8965488380991128 -0.7509260729489132 0.6455247790973998 -0.2405058975324389 0.044445307981695624 0.3759912696525602 0.19818377909695106 0.21850213665982912 -0.056198932486782684 0.40469822834791985 -0.7122278835840224 0.9723715761149163 -0.8432086642621393 
-1.29388731934818 0.0534954234178008 -1.8925466822242256 -0.12893638023697754 2.1871802644978238 0.24685706638093657 -1.824129935722181 -0.8429962261104754 0.4078137482045179 -0.6326291424849491 0.24404739098170788 -1.066746145538577 -0.18735831929044303 0.3934360663590596 -1.7018990199686472 -0.9512261509506372 -1.4691185694427058 
0.0951439661263519 -2.770000426981083 -1.2488079020548473 -0.7210405731145282 0.9141882325032514 -0.4129722403549144 -2.528223709237988 0.8944043944828061 -3.846366568707669 -2.554383241907483 -3.5179777903348017 0.7855076017061036 -0.3718119712138146 -2.156441907863372 3.639934334682671 -3.0609642006747086 -2.9511448817290584 
-1.196852724196715 -0.860749693052698 -0.5078835273660653 0.1287678968578868 0.1330039112793984 -0.3861857441566415 0.08537962745841336 -1.3511279756955237 0.5667022315602308 0.5258681428245436 0.0074151794068968956 1.6146215782266347 -0.8163489430839186 -0.7828561030291233 0.7554441467967613 -2.123664285838967 0.38436679497540194 
-0.8277709253797293 -0.038868874149011974 -0.5455333585820373 -0.4265863023639786 0.507525578205354 -0.8672626961751478 -0.644296079380471 -0.5033796788415864 -0.6885893765401422 0.14498067019932673 0.30995726424052933 0.20827593841699102 -0.8845281723293785 -0.30717741935875215 0.034544226481770995 0.01930943001785436 -0.8688064492218883 
-0.6400422890360495 -0.3876885638604773 -0.45233473862914486 -0.5306091776081943 -0.045813825041400254 -0.4487400807493965 -0.7234587150004109 -1.0028622871474497 -0.23004114517336083 -0.4851672643537643 -0.19404637418492526 -0.2696428944924129 0.802249030500208 -0.872030559059258 -0.446783645735853 -0.2724991200244524 -0.9661367227116817 
-2.4368849352516437 2.8316377795380285 -3.7429702271519525 -0.39430697900940687 1.4269672910595894 -0.28631840414839965 -1.1308582947375823 -0.12264589908859658 2.241791641288243 -2.2289994594601596 -2.3208805317845305 2.958842125388876 -1.842622019507219 0.3260017312754654 -4.059661613267561 -3.307215812637404 -2.7183282089971703 
-0.9516361056370058 -0.47365274818758724 -1.6298302842370544 -1.3018619073658257 -3.7567083740134115 1.5586465688380773 3.9297517132197055 -0.23486422141765767 -0.8378443772207761 -1.3543596376070748 1.3407706386756508 1.2770992510701218 -1.21334544891318 -1.7376543973006442 1.6988410391689335 -1.8836607438125992 -1.652314821474386 
-0.7135627526454751 -0.4429653711889694 -2.7507186173860974 -1.5016787656426167 -0.846852855182776 -0.6070039181710759 0.3172059558047002 -0.06358381364509079 0.38004295891913376 -0.9708221303708753 1.039400627655914 -1.217958607368644 -2.256021768925095 -0.12794059331288568 0.01710060365430335 1.5342717929856369 0.6991518582786481 
-1.0690011815740157 0.9953105404141429 1.8020086213640407 -2.266206462941445 -4.490356367038147 -0.6791901297104237 0.5980017284453025 -1.3456709980820638 -1.072812053393503 1.7501656432596158 1.9630637330786211 0.17603863521991883 -1.2107648367916255 -1.4027402424464999 3.0105187309771733 0.6266518727729232 0.24038156400295085 
-0.810938901641407 1.0862066239295953 -1.0742860232144007 -1.3304359737702658 -1.616551273894088 0.8270121343666113 -0.07019459259928838 -1.1156811249795793 -0.42763385363187817 -1.3052383388422488 1.4044128160147835 3.3022118164885517 -1.849418423705781 0.2679395978040454 -1.1246332140875972 -4.172871745593623 -1.5520938630313144 
0.35931727022655385 -0.25798067492288906 -1.1460037309286888 0.19997910110664383 -0.9930809419792633 0.07240658390550288 0.4421439357705742 -0.6030221669404286 1.7918877540818683 -0.4414318504959371 -0.7989423439958278 2.012770164306815 -0.5561255251287076 -0.5786978089158156 -1.6013678380534684 -1.364124683166078 -1.0404933890473667 
-0.3065621394004339 -1.1536673479583857 -0.21020133244585223 1.7744594525329076 1.3301230886227355 -0.4691974178022221 0.13910948497850809 0.2481383531281637 -1.0875816967337373 -0.5719951508626417 0.1576483920929294 0.36923474243258236 -0.33532635113998976 -0.18168776074944626 -3.015729821759724 0.12956901148219577 -0.5821826126505761 
-0.06033753586509093 4.747024669890649 -1.0977227141097081 0.9659196193633209 -0.808565183740163 -0.8063430424038716 -1.482185668441577 2.070975686199605 3.405136584924365 -3.3704935111092826 -1.127606535733249 2.786990612871463 -1.627097862804473 2.881836749510471 -6.875114466921532 -2.5900544971615194 -0.8570434601954722 
1.5730811479942628 -0.2973800080963935 -0.029129222261917005 -1.571498150233462 0.8542436001374649 0.6536212049949963 -0.8119328179448667 0.42143234305847194 -2.274429252129406 -1.7179081803113578 -1.6294689029391114 0.6560766202758977 0.5803620832513444 -4.282443358486425 1.4203249993667144 -1.3458911968505356 -0.7989725398700768 
-2.4931471863859183 2.3384515523632254 -2.915611721591769 -2.797028122210711 -2.1741144429457346 -1.3393185681305404 -2.309353493762655 -1.2783787697766504 3.3287006787189113 -0.5988906719449711 -1.8727698555835728 1.9279245382114998 -1.773203015812826 1.1639658225978737 -5.402715026562848 -3.1928040603780343 -1.8158899038614884 
-4.252122372311612 -1.2046752182597171 -2.7867101058281247 -1.3326857988912366 -3.0339612650148697 1.3211956217705647 2.8210257838288606 -5.483202780277025 -0.540391952057354 2.424122311377158 3.268559987389071 2.1216656394045548 -0.965370968245004 -1.5177726242502498 -0.4658724403662393 -3.771106967547626 -2.2714989500894633 
2.610162316214495 -1.439117633652097 5.858540123156046 2.350440772706522 6.2928480216552565 -1.859140675541313 -4.374025667934588 1.744766687753242 1.0443141121957424 1.2172447367061223 -0.8633737547371427 0.02636762511412522 2.6197604447136746 1.5922499429484873 -0.9658587599918287 0.4308191703338859 -0.09921137953272283 
-1.1212822318183504 1.0101301376937797 -0.6792921610196023 -1.268445673606512 -3.3429024233546367 0.34701840894440195 1.215636111133881 -1.177551776922997 3.2387087129507033 -1.257680487118788 -1.236100120639477 4.473348769684318 -1.850228745151925 0.9985892077114673 -3.39132560634329 -4.397312167917002 -1.8936364832664858 
1.9431808772807184 3.0434180248135227 -0.7863992200412357 -0.6992939657609009 -0.1868648092631752 0.6793348412979128 0.08876106209532368 2.860489476228558 0.6511962828809078 -4.767001654322841 -1.3037522366133663 2.261262276163845 -4.4016663033469365 1.9672940525067142 -2.153942260041871 -1.0809450871496715 0.1739764126922986 
-0.9614528608224392 0.2941272841150367 -0.58167286375784 -0.3505686334446438 0.1918745999654578 -1.544878602207059 0.42556464612557354 -0.5226457610028706 0.5412389958422074 0.48758368226551785 -0.24029958724036385 -0.04653150453288047 -0.96671410159776 0.9871843364563807 -0.4682761382269247 -0.7507200650776236 -0.004539018082463326 0.2860397750629634 0.2098403476879048 -0.33849074659955347 0.8380818457676205 -1.2587958673151725 -0.03577718225200128 -0.3244330031015667 -0.2393981827284389 -0.15589319209630356 0.197349490996479 -0.8952478244889586 -1.0746784513971406 
0.30931477230117216 -0.07746967988698476 -0.5624528387393172 0.27574007551051155 0.3429520739532495 -0.38004164436566934 -0.08266223460875613 -0.2428487122098565 -0.3680229321965864 -0.7552695142990881 0.4229167604782349 -0.5651710368258701 0.5925618124978107 0.4741058801694523 0.28457847120629665 0.119337132738922 -0.0872562334289632 -1.0271916627720006 -1.0054138958640229 0.47496636029712547 0.9236960970942999 -0.9610296136036444 0.2846536897252612 -0.37534102884899007 -1.1568961603085435 -1.0300288866862397 -0.25602356557090084 -1.1872341006780611 -1.8435430814322087 
-0.39443902808137765 0.6749213894473689 -1.384620556683857 -0.6227179432778144 0.42133771148134763 -1.0140658726882648 0.02634665729762208 0.0116556965110361 0.47838122598502314 -0.10882790238184195 0.004477603367253743 -1.0105375533172154 0.7823402512418545 -0.5709105189536339 0.07980621910988883 -0.30488199783084424 -0.23077409086063616 -1.2023629086326055 0.4287885787762061 -0.2694048582330149 0.21213623497756226 -0.7812306747167835 -0.22139492118058915 -0.024864127909527037 -0.9027466370202013 -0.9982649438804295 -0.1412843823535068 -1.084334807001018 -1.098378507481523 
-2.230090896381524 0.4731612658230983 -1.2708557832503695 1.2810895740286767 1.7433683388079007 -0.09068298267983281 0.04226185213885994 -1.6451179028180343 0.8225282312231331 -1.0502111778865308 1.2116625889478987 -0.23646699286159226 0.08880694854887655 -0.7464680237263308 1.8845045407761014 -0.6884838675380203 -0.7003527676536199 -2.1479461128074773 1.0586279103473126 0.7145423498363326 -1.9551941319991557 -2.6604899683943835 -1.373899088328243 2.369038649712011 -1.6952498495209711 1.5527508687612748 1.6168659061918755 -1.0826333844539997 -2.4286371047534168 
-1.2315411064041621 -0.9183015510995414 -0.6142944199680174 2.4732694825147705 0.3961277737604765 -0.1288778820182118 -0.38798630056595695 1.65811552041811 -0.27754290851484986 0.6748944891419113 -1.766535846104823 0.530035215068427 0.43005737580346204 0.8795516612559228 0.07711164786688339 0.17069804217894669 -2.0647324331183876 0.5655174714790515 1.8941364162533985 0.4229298655451089 0.5976176840114916 1.8567596475162524 1.00334563180586 3.5528295735437445 0.45764992231676555 1.7838582305670676 0.5830948377081177 -1.1949590989201506 -3.1633330581027046 
0.45082017031965443 -0.14177308193242802 0.8157881298576439 2.503119456813143 -1.9868783795872498 -0.04364197503468259 0.4661378980521244 -2.18106545872832 -0.012413882207289435 -0.9051084482123122 -1.11604637926541 0.6689740325155356 -0.18850701805431494 -0.14865789992646647 0.36640925929586243 -0.210085884712695 -1.9482480916755165 0.9875361038835181 2.641579901377077 0.7468902968288954 1.1380859553939446 2.948597550949567 -0.007522230930469932 2.5003121741208045 1.932571744986727 1.7529790793916704 0.42332224919116623 -1.8718817138266437 -1.5058111876970928 
-2.5705977981891617 -0.4304621514816513 -2.2944386243541603 -1.3341618105153528 -2.064654119950196 1.4597526792818685 0.7012993029575384 -2.3927685151937133 -1.0800241904764354 -1.1699546457340988 -1.0657790034555192 1.3444957968511067 0.697066567000017 0.4202679635982471 1.7646702164419652 -2.6721923669993446 -0.6713890662512946 0.9019485265495395 -0.8192224177678291 1.099085322920331 1.2733079329509556 3.2878221222298096 -0.23948119616249952 3.290961463516727 2.0075151976656813 -3.0164378942811627 1.2702545734190065 -2.5697346511897585 2.2112033872461487 
-0.04947867888880102 -0.49056200637330716 -1.2461827416078644 1.7639393664831362 0.12096779776453323 -1.546650707940061 0.32481503970480946 -2.1536176119077957 -0.29906794737690595 -0.46934738166863976 -0.855867071367604 -1.0578461874928087 -0.9233196859470387 0.7543156837651668 1.5306348675738546 1.703193833812455 0.03950803213331496 1.0003276208905065 0.3528347653311113 1.446293079336564 -0.7004415313114981 -0.22505140803170914 0.23915704478368785 0.22277756140687704 -0.9735218015112299 -0.26045206624326145 1.448626309118908 -0.7340105224614853 -1.5004314334581 
-0.5472210035800309 0.5370087239269122 -0.8702950229336689 0.28791436500660184 0.05825816856964868 -0.9233861263147389 -0.8187627377264745 -1.2153137906103155 -0.984401417907722 0.8178212878502503 0.4774724366522673 0.411833098926707 0.4223390950515706 0.8860317900631618 -0.6058978111325816 -0.28630600836631825 -0.49330515448562584 -0.8620722049105501 -0.8115112884225293 0.1144579496688268 0.7768848289744226 -0.40403938463192773 -0.14169966266989037 0.3451913968119633 -0.42636985325202215 -0.6334642746306532 -0.038740810956658024 -1.42291493767237 -1.2361499649911452 
-1.2782162137176183 0.32703934407028273 -1.1598042815400547 0.6598228226691506 -1.0037898719196863 -0.751497692937302 -0.4454404134079717 -0.41137662477508097 -0.41625640687443555 0.7366706831389499 -0.8666157979504023 -0.2693823293261753 -0.8141797679849541 -0.21806825191025975 0.29539439713928484 -1.487086265333152 -1.0261399129066353 0.599544587397229 0.002951082234348511 0.0972274761384119 -0.6423413850088232 -1.4797303171665428 0.4510765343165841 -0.9889674393172355 0.3333898593767291 -0.7619332500782932 -0.3395853248417535 -0.6073583257102688 -1.3188480829250357 
0.14282313207575548 0.2556836010342885 0.7056899785345326 0.04691549972202997 -0.48683246850421724 -1.4615841299802965 0.61563675445674 -1.0898026084551575 0.5196104432729828 0.8667304846667657 0.06563209106754286 0.20988691740444043 0.9125523484150627 0.5088742726676443 0.12081943859313173 -0.5815777248821289 -0.66403745827037 -0.6136380716345532 0.6092973509825873 -0.585456262322325 -0.13436835015720752 -0.4319892770900728 -0.21190189683320987 0.24669727153093382 -1.077067681684635 0.41176983192819905 -0.784961095422384 -1.3702244633515925 -1.3987293476628622 
0.23862492112990055 0.5060007487640226 0.4392303074503118 2.885233152901105 1.5210372782936996 1.7556315358487362 -0.44414465106534323 1.06417040752841 -0.6443529381320584 -0.4979788062847441 1.4626917046504913 0.217553117150201 0.2567669868938016 0.5248150056307715 3.695347289783449 -3.2532477240383635 -0.569100788717296 -2.493829046267288 0.3289568145035719 0.11427547622551548 -1.131261440797001 1.4296336725070604 -1.6752921582541804 2.0357003642775084 1.1069865081858679 1.01241526164783 0.48933307734946707 -2.6705963420082144 -2.21160407147388 
-2.9839593741302277 -0.24555012197364415 -0.9915531484604068 2.2263468251699554 -1.036940608811621 -3.9920441982155928 0.05133567799185093 -0.7963008744159207 0.7584046784733282 -0.010782969293566449 -0.1954397909203651 -0.531998911320773 0.42867433750296097 0.174999435806161 -1.4680319570768847 0.08992111324617078 -0.7649445546510947 0.13783511475933535 0.7566957664040765 0.08749210803619929 -0.48040130108362283 0.5529487298843487 2.240370686638464 3.3153936846685794 -3.5743491509411074 2.349511210332465 1.3316707256378761 -2.6123911127801014 2.265029337550569 
2.257164669971754 -0.598269821432926 3.1496901988638455 2.6183013579937966 1.3407826431074055 -2.797303759770855 1.7040100818679496 1.2497771730833118 0.26229119308973065 -1.0250620357301279 0.14504342885997132 -0.03903315619195748 -0.2623740149594949 -0.029162466420976807 -1.4945087057514195 -1.1683863094615339 -0.1111241162595787 0.4178757410519295 0.6617704361812164 1.100545252571763 -0.8860807983316795 2.148591959603139 -0.3032798764834104 1.643585888683521 0.1600659633788309 3.6085757255771678 0.954756990295164 -1.999076671014441 -3.4476837778678404 
0.6072492550817394 0.8557550207335256 -2.066002694509662 2.3098915229699064 -0.15883562694047418 -3.295865317662689 -0.951972538933914 1.5416109497776136 0.7121665285425652 0.2788282596786458 0.0023597341738999843 0.2605969482405834 -0.15972346640743496 -0.23724908332802386 -1.8362348711732066 -0.43898104417714207 -0.5675848638056464 0.5283838019186661 1.4543828995754038 1.1258902344698747 -0.14626581951260526 1.3769868633733533 -0.24437820655308487 1.7337997852055609 -0.07562486934547247 0.789486123738347 0.7242900912706703 0.5655626581654266 -0.8916988228860339 
0.4048526680520798 -0.6080821140180301 -0.20181501517487033 2.6863118294509953 -2.276247688779939 2.537024183982184 0.7319167576983636 -1.646428442774158 0.9227708584379863 -0.15141929278855967 -0.7447418531149744 -0.05416853824149931 -0.3131058774659391 -0.5828213265247825 1.1645838620959497 -1.1693479101911302 -0.956526286753067 0.15665761683823007 0.6929789027243115 0.9421634569738278 -1.3229762878054836 4.933494370005117 -0.9778139336156829 1.6639021850886735 -0.8225428586390439 -0.11093368775190199 1.876868165821016 -1.4349104748902592 -1.9112798470288512 
0.1999466064323082 0.497731344250819 0.2842083134191036 -0.8201096972093512 -0.2785163002490409 -0.8892630733749375 0.20678246390336505 -1.435423901648398 0.5471497159629362 0.386710693449477 -0.012536102109587227 -0.3149624110761292 -0.42168201229001034 -0.3233092954532021 0.6017799561127458 -1.3523929417210419 -1.0014968760815646 -0.717842762201277 -0.30492650812125693 0.5248852012842675 -0.7922155250516609 0.11356790626451628 0.5197541048565973 -0.42980534299992584 0.3913914481017213 0.27598552863059184 -0.8756239263103311 -1.5698039914874118 -1.8094353434709523 
-0.2417083269941495 0.7290565085501014 -0.9954991836833762 0.05401064306556077 0.4416432508403457 -0.5935648503055072 -0.7199332074416706 0.20089303430555241 0.2038265690416082 -0.5840035344001264 -0.31240490609956334 -0.42462299575997703 -1.0660951731801571 0.715733288998636 0.7168246229683076 -0.2889227946016276 -0.030348337570274105 -0.2011676070946319 -0.11878508541522108 0.19935235827513953 -0.24910599466247885 -0.6492010854389945 0.4736200818238086 -1.3818333240856941 -0.933859902621963 0.04088992916601163 -0.4661685433097536 -0.6384340112713508 -2.407458986358252 
-1.0891227971623987 0.20140408859823822 0.058225848601397304 0.46759905201600976 -0.9294459474165208 -1.7099839614192636 0.8112323562843385 0.08950823124316842 0.9221785578602143 0.7285782695154075 0.7904158068425255 -0.9426616230221735 0.4575737436879393 -0.3996155845538679 -0.890284463522504 -0.8367322728226354 0.21218343169604553 0.2691094601780531 -0.5964178345387048 0.9244739039852322 -0.8249292757594394 -0.7419836345849902 0.3720562557180006 -0.8550504433267538 -0.8164642435106191 -0.7412420437995817 -0.7453996408903446 -1.9146552955208633 -0.6430816191916334 
-2.6743893226760194 0.1304598673123413 -0.4305675105839028 0.12466117808297705 2.0346551931386108 3.6646082900433337 0.021122849445421053 2.5373011153324945 -0.4868465910058014 0.8739465842431512 1.2114044940324844 -0.2683090941626952 -0.541050935814744 -0.8830157394033259 4.689952774179089 -1.654049736659052 1.412440546590252 -2.3100146210900037 -0.4714189648289363 0.029021344502856514 1.0622192616438353 0.13877185477549647 -0.7126371352468454 1.71103456289765 -1.9471222380070814 -0.057467042798622754 1.1163599196093008 -3.055184936822159 -2.057597812704421 
-2.3694188557524085 -0.24088938456299946 -1.0863379745264399 -1.814392894716938 -1.8248087449806814 -1.7894926011725734 0.09609170474018656 -1.5912423832477187 -0.6117788663948024 -0.7459927233616982 -2.646728649659024 -0.3246388892265672 0.40490472367530517 0.8840469897785969 -1.972348521034482 0.22315387828596503 0.6205691373017564 2.671544888800313 -0.063169783101 1.7656070646165218 0.5387620299172278 -3.198076240943527 1.8162670366689029 4.054006363143991 -4.4464606614588185 -0.2601522033512383 1.8752425572017692 1.346006270418641 1.8488490677973406 
-1.4979213725457934 -0.2535707726992878 -0.6359687383772884 -3.516410909904812 2.6667388993577403 -0.5009185126433838 -1.1726972349354103 2.2148413840188628 1.0507226378688361 -2.2018605660607453 -2.345602077560041 -0.01822770200810623 0.6497125747322297 -0.6893145996290273 -1.2292092999466968 0.20178381949549387 -1.6509990730397133 2.6933636457825147 -2.6621560826331145 1.0624813733772678 -0.14680696407706667 -2.9764752215409986 -0.6060325905878102 5.081736513396554 -1.3401041785851486 -3.746326671875156 2.489606808454197 1.7465879187745739 0.32575445540165354 
0.8290782260111071 0.652385659153966 -0.08515816780867086 -1.781375607246506 3.095907810168465 -1.006383696104651 0.010485509672701948 0.9848728296748994 0.14956727830655883 -2.0201720187522993 -2.3802731716953396 -0.19632871663494209 -0.07334099861442603 0.12157903974986288 -2.253703129366407 -0.4710721930064981 -0.2443959279754765 0.8564239164712192 -0.6363101559325977 1.2972824888148784 -0.6154184301911614 -4.307257279434549 -1.9830985407929966 3.409491279972068 1.922864593507801 -3.860460709392484 3.0933400871668892 1.331453152327002 1.954496024324183 
0.7162412810045332 0.7029825366172221 -0.36996597163663 1.2307996009333249 1.3224378017980756 -2.2251991414113115 -0.25606383843627123 1.5312806422030047 0.7023145630840412 1.5321806685725314 -1.6324425553013628 -0.7394856852923805 -0.5841058614137657 0.13806088080905604 2.767930835540221 1.9304635475047938 0.13784070148163466 0.7625169249267214 -2.1038461235222816 0.6650427296747428 0.31699546525477973 5.982662847858789 0.7435556168148721 1.62566539888053 -3.724252635571179 -0.6861885536895609 0.3435115795392109 0.7534367682841767 -0.6498950688373525 
-0.3791559887057031 0.08155367031036549 -1.3406039260465354 0.056182764863009084 0.11872283774400925 -0.43194817961674986 -0.04302731457957686 -0.2262428759931331 -0.34121220600746416 0.006737740019425543 0.0043566888679148754 -0.6931561224326908 0.14211673685339604 -0.941033678918174 0.6766376246633051 -0.5630471707184964 0.2622819522736255 -0.4294023852327693 -0.6371765202378725 0.14862496097708208 0.8514882046622448 -0.6108522141317758 0.44269487080783315 0.40596121914317185 -1.2723580767554281 -0.6876375619238329 -0.08315031864234493 -1.6609665656307593 -1.6370358799523397 
0.4096929157637378 0.747866318704012 -0.2968134625988257 -0.9046747571560532 -0.9560770790949384 -1.0623273570492542 -0.737079433789709 -0.48530736492919535 0.7409465776264975 -0.2536874267495933 -0.4810879104200037 -0.570993915833672 -0.9032842965473455 -0.2637946215977495 -0.06232489345141695 -0.1632809388523167 0.1305421394772699 -0.5864123781943297 -0.7838682716436814 -0.7275752924228135 -0.7461740164212928 -0.9232736366303012 -0.9485316280343108 0.6119005217574417 -0.9304203356586255 0.3701376633870477 0.13679876578759748 -0.24450001332199728 -1.6805142918315104 
0.3076455700614056 -0.05592355818642812 -0.46543809510214973 0.02761599756349619 0.006530817498112992 -1.0280689613062273 -0.3975934998954238 -0.9748704076097356 0.6297422816331895 -0.8304288681963833 -0.9102784817097914 0.6238613595208128 -0.49761972303017193 0.08327970295146739 -0.21868960428848538 -0.19024847093696415 -0.04719275862283382 0.49982556463204547 -0.07529994752893382 0.7725334796066119 -0.9099956345691856 -0.22055935599485563 -0.5367689550782114 -0.3838795570729754 -0.4566928846981423 -0.1114137631005833 -0.8628446779938095 -0.7442936440005443 -1.678163764034447 
-3.486358641438254 -0.03931906262975086 -1.2604143796938556 -3.0226798026957127 1.8315341433599248 1.0299793487447406 -0.783071291218168 -2.1903192441968504 0.25043799423166274 -0.5813930597325763 -1.385845364726048 -0.3490161782029832 0.13495318022994698 -0.682884743881075 0.27563114439401687 -0.8667973935285689 -1.898798695511902 -2.042462703885082 0.6543203113488014 1.117466946983143 0.7290719508343926 -5.37289196589493 -1.085431095699034 2.5848394948372513 -2.723450689028785 0.33355246888703594 1.7311880694444708 -1.3734457054706806 2.127484366895637 
-1.210178175872646 -0.20317990074402276 -0.6218339153218174 2.356300354728669 -2.866215816180168 -1.3011345397912617 -0.954125896466339 0.5839817424330377 -0.6327265773639666 0.8761525557976441 2.044413263806376 -0.4511406823529802 0.7007811652483923 0.009124347213107894 -0.04993885896742141 -0.28925411527343525 0.6450844031003428 -1.8438969144834723 -0.5495815055264905 -0.4773956730172882 -1.1967973677655297 -0.1797592977425415 0.48354243810287106 3.671191152844608 -1.9000012410580518 3.813540510922641 0.03741138216091953 1.1857853154380353 -0.6107260819331044 
0.2370680690027258 0.33700658728272576 1.4681852981868362 2.988142010064798 -2.5523374379697894 -0.46799995829340385 0.04779190679296077 -1.5264190795157098 0.256986165568229 -0.22019376976769475 1.9878943872057926 -0.8489515535637785 0.4419856024757642 -0.6514955071116671 0.8737243893375138 -0.585784390435966 1.6592555060164869 -2.5473069011684664 -1.2860262516715408 0.4688159583008836 -2.611207445943212 1.2993045326866035 -0.9795395790469367 1.2609032386311259 0.128723632545352 3.251404256659747 1.8678406852495673 0.010823307897018363 0.3076780839321622 
0.09919438367206983 -0.7210387071200753 -0.8230445860104941 -0.3003705232481477 -0.48747621727368184 3.4171642635091257 0.7289484497072474 -0.1874464709143584 0.5622742612215378 -1.951609057333378 1.2037423799176021 -1.0811443530672893 -0.16037530076769557 0.3872063115217365 2.6550320957653732 0.37304835140612275 2.713556276806644 -1.4892496211040853 -1.579464525960892 0.18666932412579929 -3.0231911742826796 1.105551126759819 -0.36146981804487566 1.1676295213654586 -1.7594425515931802 -3.426586191459217 0.7704943905260274 -0.5274228458909792 0.5398769011693353 
-1.9186210708008649 -0.45278107445900306 -0.7893081801489629 1.649016771443773 0.9474034059415564 -2.1140540532019885 0.16975029957021212 0.5775931592693456 0.902966261195171 0.6865937547197443 -1.3510727292259468 0.6838780252493458 -0.9411457292252399 -0.6683873189919642 1.237012622016751 -0.6339542506899752 -1.6604058120073317 -0.2404417221848352 1.0653471054081796 0.12159716395854016 0.9926163926628956 3.5648339814095453 -1.198201816898053 1.4305552614797492 2.3061318224118 0.8882625237846732 0.49865177965023655 3.225141329853311 -1.9756320546232105 
0.1614186572212725 -0.020277116094909505 -0.6844212998927813 -0.6856177921566863 0.38086448390356414 -0.6073882513964428 -0.01140766506124642 -0.7694693088060347 0.0071673371582290845 0.38275301676299056 -0.5599516570181873 -1.0338307566294183 -0.6933849251901888 -0.0051026922072638595 0.3227340855096796 -1.4069628152089744 0.47004980534924035 -0.8337672949975108 -0.005563525427894516 0.23182862985148836 -0.2171054920692457 -1.2575692294202472 0.6752553667744388 -0.46213825569693284 -0.03512702902834307 -0.6462562159528431 -0.07515377482488404 -0.5569190588448049 -1.5228714851059104 
-1.038820415025572 0.25663009190733155 0.11456468893530852 -0.5541756720991258 0.1481935446683464 -0.8245268466412388 -0.41592499489592205 -0.3123305748062729 -0.535394133248759 0.40290018301253805 0.5639401119610117 0.3088157439276866 -0.8428306866190649 -0.4810803226206939 -0.36202006598917125 -0.15945093425365628 -0.6167825970901425 -0.6999945917364796 0.8060481177804245 -0.21317277053226835 -0.9479138421326998 -0.868091308739048 -0.570169065910114 -0.7757045832018432 0.09034461602714582 -0.2835681420007168 -0.7358102428330973 -0.7267958132214324 -1.9461996054149822 
-0.3928467580732837 0.02298914227769517 -0.23951201957805987 0.029302130740282168 0.8185431850175884 -1.5949272633124063 -0.8785469465907737 -0.9216879833606775 0.9488521834852718 -0.7443202722791972 -0.9910423792839169 -0.8539387241992601 -0.9609294477936644 -0.5235722017474054 -0.33766364350017364 -0.6897196238180762 -0.5306863376071662 0.47758476861730303 0.7522044316309905 0.0938523596141369 0.5089124928356275 -1.2082145990610786 -0.8134554379929196 0.2014179763467806 0.19583118930327043 -0.6388674024385153 -0.03701064751450132 -1.5916664756345207 -0.7845526095698708 
-2.514127272496722 0.34659718620570784 -2.150248825892431 -1.594710244541681 0.1916064950433747 -1.535211457110098 -0.40356341035185617 -0.2966717812504025 -0.6064869540710723 1.0555906374330333 1.2505693224900651 -1.2007596130100266 -0.1926236591103093 -0.7106100166495878 -1.11173074545742 -0.22726386461328085 1.8747006008302178 -2.6701323782246233 1.1715155244200113 0.5801090143977864 1.1261123865954767 -4.668044634414372 -1.522990319739133 1.2821458095566742 -1.5075775898484687 3.101041688216869 1.5221736378137105 1.7416291415292187 -0.3265034030774464 
-3.2798013970973265 -0.6070143259577365 -2.1110857753082457 -0.7897945990989259 -0.3784825355912886 -0.4752356219544147 -0.37064204426500047 -2.5876599302201946 -0.30605681117321903 -2.3567599341354266 -0.8454768467123818 0.03908124660362744 0.04756971264835788 -0.6186568151429613 1.0962019051269285 1.7872451133747402 -3.1111978902119803 1.5092044448846005 -0.07470594534783598 0.2911991366547538 -2.046444064166306 1.126106351609636 1.5628822342046211 2.164915736698687 -3.4094180762696444 0.9495161548347288 1.1684875958953131 -2.1682108671804134 0.7412405676436035 
1.4306146685065222 -0.2781606752119613 2.9358706558341354 -1.7442405551054052 2.2807858442611177 0.3802871244085204 0.45600027968885226 1.2104314248283927 0.6804261100189629 0.6453806741729616 -1.5569034441644483 -1.0658051274955003 0.5401925385843548 -0.5637567859864006 0.524906921725008 2.072129305215024 0.09825423506152912 1.1222317249723364 -0.8137769449348072 0.6805200086022388 0.5892526024537682 -0.9524812110246951 -0.9881903191801745 2.1970271927945815 -2.287603575647894 -0.21342659980507578 1.5362003920178546 0.2055145719034582 -3.2079182617510904 
-1.0920975635826382 0.5588711203291137 -0.4571400917488611 0.4042961954272948 1.7125527987217675 -3.722077218083251 0.26376794065406195 0.3882231277432996 -0.6808770495303926 -0.7866292284450491 -1.1352207642709558 0.24222748749963752 -0.7268804989150291 -0.3917674543763928 -2.082605369771587 0.7474580745166205 -0.8294596558332208 1.5062950465708995 1.0965980966905782 0.17216527904595677 -0.9062163195256008 -1.0306792405995937 -0.33363431975876384 2.6579386066256827 2.434113835095477 -0.6384140619321714 1.1563685706464368 1.1259109160855696 0.8998303537839313 
0.5629751403169416 -0.36737597765878166 -2.0786349783991063 1.3712613808588574 1.5660725761837881 -2.6780159426421712 -0.5507248307475795 0.6486903288941773 0.6671487461746605 -0.11138071118392216 -1.2477321490140343 -0.44119832911580076 0.31796192581050187 -0.9968489277651401 1.2277557276818467 -0.8115542869552885 -1.341355624062062 0.5924950775002661 0.18613645549848043 -1.028825381497629 0.924334501625981 3.459452373256954 -1.50043894593198 1.7787327761028107 -1.478299504308399 0.3856608273738719 -0.028399389330584855 1.0438085652995468 -0.3071599577970832 
-0.6207733054512096 0.11497676044227813 -1.0145270524379724 -0.4815310300379647 -0.5310765679363634 -1.22885805067394 -0.41834076349081356 -0.1556173447305762 -0.8821314051209861 -0.2998362870005013 -0.9619384256651679 0.6829497918026225 0.2815569431484783 -0.060257956114943355 -0.5102179855632492 -0.8764211898729695 0.6544547200561655 -1.0222693382720085 -0.8626730382961553 0.42496181563263297 0.3883043219122291 -0.4465205836656583 0.04242744085788474 -0.7639998139962052 -0.16263130378902638 -0.03340213531442189 0.18740704169021474 -0.9992488234706799 -1.2978543226011081 
-0.8242771847228795 0.31601947788790385 -0.8286268493022214 -0.5690141831572254 -0.20394735162496033 -0.5764017451655432 -0.028533894404935818 0.3235736749342052 0.5545623967261939 0.10523749153180918 0.4955026753081537 -0.6467669188882081 0.675212038157909 0.8257096592308399 -0.5723120812930161 -1.320265965367743 0.6004588555687616 -0.39444448606435367 -0.45347358609720934 0.5129250644583101 -0.1646425815007815 -1.0445821163465738 -0.6603347733913054 -0.43719168223098065 -0.3442290904108484 -0.8776602919091755 0.5696519995969109 -0.923927466280846 -1.7037708235445632 
-0.012674517416895882 0.19800287557492208 -0.08768620080812682 -0.7715922976361156 -0.02622434290373857 -0.142115346831169 0.374070955287655 -1.3078923139823913 0.3112584084830923 0.4911166344981873 -0.26239556183008955 -0.7956111634894454 0.18939305188041836 -0.5035562584968589 -1.0727808520901108 -0.03692152426831091 -0.4586276921019176 -1.0308232232459142 -0.47618776854048583 0.8346621221604896 0.12487462879856771 0.12749268903350572 -1.220733418882824 -0.6637320902897131 -0.46750702960066687 -0.9291751668893564 0.9108873317815153 -0.7430902656387376 -1.7723551419444967 
-2.6170193564551325 0.3994974309508774 -2.227712636882896 -0.45015285929065946 0.6744310607995119 -1.1043037087539527 -0.1599135591617594 -0.3092153296430935 -0.6754322681360223 -0.3004468914494388 1.382719914328787 -1.3505640488127146 -1.0955405816754418 -0.44545129917251786 -1.2210169312172674 -1.0239601236946767 2.606878410816367 -1.816580904464591 1.0130651027613458 -0.03504977940261115 -0.748293860882736 -2.5358071327935163 -2.4979734014410306 1.149717619959743 -1.1467166798121806 2.3482996200922495 0.9986458927764159 0.951013499775068 -0.007860212840895699 
-2.022343895795073 -0.1639210654326136 -2.416679934133458 -0.5034284813085399 -1.595314001833979 0.6814663906663716 0.4189018806509367 -0.09611174255230973 -0.07420150212738652 -0.268978495586906 -0.8793583815616156 -0.3606264254339246 0.913384448461932 0.6528554546298584 2.81986854305612 1.4189258285211432 -1.2950105017052147 0.44255056717050084 0.45677549913423543 0.6354716971450296 0.6099591621345414 2.3508078425806938 2.1915027093102304 1.3364621620271553 -3.1856507396143092 -0.6762958135199377 1.240797891686101 -1.8646303936454374 0.26447653196793697 
1.1720994414691022 0.07763699351424751 1.5972544441507892 -1.2119778993364794 0.47193330540711464 0.8330822788658007 -0.20469109437046307 0.9515333077476401 -0.007839350568533845 0.7919215925167047 0.1673786053161306 0.6812188551510158 0.2618578473769205 -0.7860827347717371 3.1058129319126397 0.03338604224869137 0.40297521046587104 -1.2399918398290612 0.08598912121742118 -0.10552532483943564 0.8675416946632383 -0.012275427220792993 -0.0474123380120845 2.102627395819953 0.44180610321804836 2.3089908722710972 1.6423028569759002 -0.980342243607388 -3.963124089215105 
1.9008461162014199 0.4607466879436124 -1.910731293820378 -0.5326735971048485 0.6747347127622133 -2.1279867182713352 -0.7018723661665477 0.853550716176055 -0.7971736409942437 1.5870978742370863 1.0649772601554608 1.2901153906953584 -0.2953918304834141 0.15577903173489002 0.722397371469915 -0.6375509661040003 0.5619619136707888 -1.2799121869187409 2.2296103540869106 0.21464546290379286 1.715478042668678 0.39876271122807594 0.09245375425964918 1.2240571866189762 2.101390687699691 -1.2014606767141789 0.81138514551664 -0.22082055841697323 1.1665306202397818 
-1.5976249464422079 0.8742209327619618 -1.4815211303053493 1.7914156183278338 1.8005188148775089 -2.4016342920365714 -0.41234184938054025 2.2019381654183263 0.3579003225638764 0.26540644854980133 -1.1911027819500688 -1.1571686217710397 0.4156289159220782 -0.7379982835655868 0.16557881547876466 -1.4065871755752444 -0.7862844280483627 0.8735096937078202 0.3518764224907646 0.9049474763072721 1.204914683802186 1.5576153797184247 0.509179905477994 0.45577063052158856 -2.814213772023371 0.7392005873685807 1.1274397094892872 0.18452320358530636 -0.8192942925589097 
0.17854208438201155 0.7314821352318764 -0.12965493118023527 0.3311292567348413 -0.6232881896791684 -0.7196272967669943 -0.2700531288024012 -0.8714123640719034 0.20758153016592898 0.8118223867315306 0.33301509909046806 -0.5854588727171782 -0.8615705136742634 -0.07466878032431902 -0.08078757512175005 -1.0556863526261946 -0.6707655518945856 0.7098052041596399 -0.4554497122314118 0.1325196926089951 0.1777964304455339 -0.1756508677247019 -0.9225772376225835 -0.5752227441563872 -0.5648465442051854 -0.25714284288152167 0.10370658103891515 -0.48188165605018346 -2.1174559989088375 
0.5590298979883206 -0.014056188490814485 0.3020895257451393 -0.1302946332781552 0.9027056453634136 -1.3335816309073973 -0.18555730935424894 -0.8190140546632859 0.9642579963874301 0.3685069987989114 -0.6608530492929142 -0.6001929842134586 0.7932038510470223 0.7888967398605289 -0.042800353054420974 -0.046463579350249744 -1.0438562702956695 0.1696783714763701 0.14616233212625426 0.7415867002799476 0.023054143488854248 -0.5171424925295615 0.09435786231041463 -1.1011697898739836 -1.0287743909002542 -1.0310126165511273 -0.41305138359098564 -1.2825755597736848 -0.9287339019303759 
-0.06636708032223557 -0.5024848463046543 -1.0419544405122583 -0.7802403774577154 0.12590493632361374 -0.7017144151294408 -0.0891869570333677 -0.803649995449803 -0.9461930947389893 -0.49985641772842304 -0.4269509614158139 -0.5713487330084682 0.543618237296917 0.473367274521279 0.33130863566829655 -1.2105886632254321 -0.7017862748285268 -0.9199838870822321 -0.09286684775359746 -0.6745868587414631 0.2835308954917057 -0.9874668725427058 0.0022199984602585487 -0.7227412202616241 -0.9189586349909346 -0.5571002995966412 -0.3834648940389302 -0.49576311245878396 -1.336731125079958 
0.19634257728304103 0.8961106058262926 -0.7484330074462637 -1.1193936732562357 2.4925633854714646 -1.1162622626023835 -1.1247149377924166 1.472276996319418 1.1844089231549253 -0.29365870061069754 0.5085396174491278 -0.7641358751389182 -0.47444329484780356 -0.7643077193364463 0.4612271030636425 2.210959477239792 1.5062945543698094 -2.1678474186834706 -1.0805985915944776 1.1325556303801612 -0.6661917399347493 -5.521028842974863 -2.265289268888002 3.1977428064206475 -2.4357370690255347 1.110102441136137 0.5290509104659386 -0.7012665398240225 -0.4005765082025629 
-0.970116747856094 -0.08108927248207337 -0.42652508802351013 -0.6104857170288546 -1.7429701202893855 -1.8588794843856788 -0.9440252111972592 -0.6231320914664816 -0.07725396579205701 -0.49562124036194266 -0.9701668392357428 -0.2696031253745305 0.9701871620181686 0.011300218063303707 -0.5695064755627656 -0.3961490900900807 0.9879119195527716 3.23622426606781 -1.408578504709609 0.9940020810460309 1.1183700068261617 1.7507751399486349 -0.5876611777101246 1.7505952975898709 0.3338688913219653 -3.43819762769308 0.1569684197780032 3.146919014228323 2.7670532308267735 
-0.9399035175730415 0.4706235309960319 0.538724065153964 -0.3229222551143026 2.0282654316433613 -2.2416178873531463 -0.976704894435083 1.4841843115651263 0.7359700980243616 -1.0720074207116432 -1.0891230461946004 -0.2604950376884317 -0.5259032360618325 0.3988403174845671 -0.05276516721426881 1.6913406470980685 1.1713654227808143 2.3667207423416077 -1.319869676182962 -0.3360920581203171 -0.8366422535031804 3.08093338303691 1.664904068391463 1.4687016275718827 0.6242120306074685 -2.4980323252594387 1.2917993229581028 0.8015581960274346 1.5044415409141436 
-1.3551888346114118 0.6762865593857267 -0.038852715918228836 -0.696903839957338 1.8456317264683033 2.7499583269422176 -1.3773148629047804 1.0352374092791998 -0.6225643252659243 -2.250002870477078 -1.926892206669134 -0.8166754912535461 -0.3323380458944364 0.9369910538948227 0.9036537378273836 -0.6027050619200822 0.150597984727547 2.0850475351142808 -2.119266221109485 -0.09988350989744134 -1.3743643834601817 1.7677624614483487 1.7492264403342077 2.1448504008461358 -2.906831420748231 -2.5288752370449297 2.346581694378703 0.7813641098892455 -3.025846524853279 
0.9282362123013945 -0.32828235581048054 -0.08809016421065995 0.11280160416238078 1.6781956521394745 -1.6644077889130953 0.37490246414920886 1.851135100003693 -0.4019685221947197 0.5243204478493436 -0.47401439100906784 -0.9244559578455411 -0.31168677661549726 0.9015630192608225 0.09446008889616968 2.9312452483891183 0.6220537360781 -0.5160734548047259 -0.7520601221871875 -0.1732235380107102 -0.2730187322338461 -0.7736508372701385 -1.2207129136499317 0.907131930943336 -3.4314464123962596 0.42323280163386684 1.724078975737228 1.058842944355708 -1.2049606258461167 

Epochs: 2500	Train_dataset_len: 32