Layers weights
0.8385420443507072 0.41326194918825787 -0.9831012316575545 0.09852715463612766 -0.5050008126157441 -0.10114723463897099 -0.20016839626325564 0.11511260556805351 -0.22986475626320502 -0.6723936401086459 -0.38691403029875815 -0.10417071514836125 -0.8648347061478201 -0.8277960669259704 -0.5555536409425571 0.2710807547632601 0.1636875552465118 0.03962722127343121 0.5026543140271416 -0.7529123288867772 0.12870223582756204 0.8939361866768316 -0.3335452929896883 -0.37427148248214187 0.867317954230058 -0.1613700837393972 0.3060855456221643 -0.663515349433487 -0.7413575337882818 -0.4940370287948621 -0.78961804172991 -0.055332143314089775 -0.04783563483212405 -0.7746752477673926 -0.28288198634857964 -0.004189081330688816 0.5132338068763875 -0.17091295434940704 -0.7637569690876653 -0.31106115481558555 0.01546780110624546 0.653887556410985 -0.29585363526821284 1.0026229051479476 -1.0346159925925429 -0.06922636244742617 0.038417866008533454 -1.0871508689272997 -0.5933283460525913 0.432729089972137 -0.7087525100286738 -1.0136853643084625 0.8544443584416673 0.7805399650519748 0.04866677126479562 -0.06687895220773206 -0.4130750394356504 
-0.5378762249824782 0.7322270796831372 0.870090295960184 -0.08462037515489396 -0.20553582311192467 0.25087475213463095 -0.8373056536144736 0.2522986165705023 0.4628243357863404 0.29678370657053366 0.5169124149450335 -0.8906666108310769 -0.23970048490831006 0.3019864426270825 0.056186101620804896 -0.8489394734755898 -0.7604474499789207 -0.09178079955886953 0.36909934087940277 0.06380108870156782 0.84734999001723 0.756610242746016 -0.4098237841168749 0.7092957122253633 -0.2542269070946406 -0.9368099217494268 0.274795771065387 0.30089726963067875 -0.8573088918625843 -0.8147608172876708 0.2668283797067847 -1.2241792262066586 0.8265060650620275 -0.4949273044453897 -0.3972763123203591 -0.5164156692075043 -0.18950141296378054 1.038797771581618 -0.8026852531856945 0.23276524987465583 0.2070896321472071 0.7851447753617566 -0.9509544384087762 0.8228342765381582 0.3709103387380656 -0.7863923859847595 0.4944445923278903 -0.44519612469762987 -0.9560946224714919 0.09703386271768832 -0.3221054560829528 0.367800570999207 0.4002632726449677 0.28612832528235055 0.8469261646432811 -0.8906311693876918 -0.4594568359262861 
0.18412065885371343 0.8005045505864079 -0.3821958647675099 -0.9216179752353856 -0.44378600122690615 0.16348083829634433 0.16334612384736158 -0.9500872737421773 -0.1313838308123565 0.10815548957448362 0.3817773859953433 0.3386326005479029 0.6336565709822182 0.5274491688603787 -0.08966254457825291 0.1645394839566913 0.1478347545837706 -0.6686656562000286 -0.04902850075763232 -0.628938482433489 -0.688290855344531 0.4482245557291912 0.2001188404724796 -0.6053479516313713 -0.29729485390101185 0.38231913006452745 -0.1736516535735353 -0.7928983748228741 -0.6028482305437607 0.5422737483781442 0.49059407194956606 -0.4012516444546165 0.7126395677308459 -0.5627925765510795 -0.6852469597932498 -0.7298438631418923 -1.1468032208269106 0.1845205599211762 -0.7043793442269409 -0.12297373862310687 -0.8134767981896389 0.09322582893059983 0.5147442698123699 0.39290799888640987 0.12515922257382298 0.9241325039272512 -0.9217446477474917 -0.8436845557177601 -0.3560012996218376 0.9242744066873454 0.2706085437560257 0.07749261853592516 -0.14111176396381858 0.8400846595029261 0.05712311419870352 -0.2099671112295534 -0.6014067326878489 
-0.3492384087354201 0.16779057130279784 -0.6742354724127346 -0.004976026181058259 -0.4835766205271228 -0.21422327968097704 0.39328579353644094 0.008093054994128742 -0.42269235167121577 0.7145950059693273 -0.23721680725649352 -0.26836847285136034 0.9812262435056963 -0.3121032375055141 -0.6294647867229521 -0.3600537081527674 0.8145580636949195 0.6686520623253738 0.9799963824306142 0.2680777417667692 0.40014177220386615 -0.014675299719876791 0.22194233007000513 -0.744477321708183 0.8262182810726402 -0.5678468216772672 -0.48326017200411786 0.6065558553738322 0.38183175761280347 0.37732210676642625 -0.11476709419807858 1.1250539151803614 0.7367776443798415 0.176886715637667 0.29698164422599005 0.06135156381348725 0.2317301213078922 -0.16954696224102217 0.8139896091346032 0.14722184149628628 -0.49698869345631147 -0.3425833269757268 0.9719835621044564 0.508463997995774 0.9541948443490615 -0.49220887096842963 0.9205943056612433 -0.13090187136957243 0.5870862079375658 -0.31023316043140103 -0.7200085158482425 -0.5098226468178 -0.1499494949696133 0.7256692269606958 0.2949235728743624 0.07007645149690765 0.38165189323640886 
0.17357082493574305 -0.8114656530339819 0.03543856763986719 -0.007724364098848314 -0.8431212937684035 0.4833211374643757 -0.8048231012237426 -0.15827077146647975 -0.45321328483195855 -0.45041444315526014 -0.752335046720706 0.5277397408958802 -0.18593619007072812 0.9368029227307743 -0.3021775516258167 -0.6977213757445906 0.059988572658510986 -0.0523936148165991 0.43144810981734705 -0.999973255532927 0.1724264201906627 1.174394035275204 -0.27804745789097207 0.15378467107956292 0.9086487718561815 0.83917786277389 -0.1281115493642353 0.6373221706380789 0.710054922217578 -0.8132310373338305 -0.7017030061450165 0.6496872810012542 0.2386565490921273 0.6264309566225692 -0.3574431353093017 -0.7721077326801984 -0.3629774012561907 0.30165792483431075 -0.9326804225663253 -0.2988627518307871 0.7614740550419654 0.4952138399785362 -0.17035867087837997 0.22527169235915398 0.4259570438676201 -0.6809680722888499 -0.6088475320223055 0.1891985639905319 -0.17772131895274046 0.5655059375562881 0.6524489237251656 -0.5742734380074327 -0.23044151139566912 0.6379720475001429 0.7504135947467646 -0.16336625704642885 -0.655371270921996 
-0.07227197262960194 -0.3547497484604909 0.04961764751712683 0.12436717623896917 0.3255395978221331 -0.014419176379877505 -0.4969366919448305 0.25581792415369004 -0.7800511985009415 0.9112972176284031 0.46736167125307504 -0.3508528666955888 -0.6985402354322727 -0.7450878816911124 0.8465667927817376 -0.8248309594164066 0.664611052232301 -0.2454997123677194 0.38551999914035573 0.656594353180151 -0.49429127786765226 -0.3619373378908382 -0.09281490692838258 0.1307091642865197 0.9957820455090296 -0.6121042985429257 -0.40919127765174834 0.7140219453504913 -0.8417936655966 -0.7031370573452412 -0.3598504971537655 -0.1639445214742171 0.7046636685194241 0.19145904997317964 -0.12132045517073009 1.021359970232255 -0.32157017789092907 -0.9358478642458452 -0.36301518703797364 0.0241162623517883 -0.5795018357265382 -0.3034031646785482 0.17415413282961256 -0.7433624311873693 -0.4828349355026279 -0.47335770984097847 -0.12806502780691617 0.503836845043262 -0.7248986247612512 -0.6087674743820344 0.755113555948083 0.25367266140339906 0.0240280939037989 -0.7174179656554 0.02161751750668475 -0.3477788882053789 0.5475724679745698 
-0.7651162446771862 -0.33775128536541454 -0.5530185136585632 -0.8917785511855518 -0.6662358692362117 1.0020650685799781 1.0044048412627402 -0.7346729455083406 0.6086967806077574 -0.21352163641254251 -0.39559472167927745 0.3805422152557865 0.18000060059211626 -0.11440886067621249 0.5215605801800935 0.10316271633575173 -0.9269926360027885 0.29382485934605107 -0.3224616934427025 0.006533436633218646 -0.26084699619072305 -0.633014997320318 0.5355487198128188 -0.10051073619355864 -0.4805024976559942 0.20682996981014745 -0.887719220666014 -0.417543783991423 -0.4451760198609059 -0.028962006590647574 0.3094136451294098 0.6259526141526134 0.13285490087848895 0.10490712086066534 -0.26130344797246763 -0.09593439813980195 0.5146697326701434 -0.6651396547309422 -0.7087500998552443 -0.2948864308006565 0.05110836213637948 -0.4481567061311418 -0.16341138276221057 0.6053482665311982 -0.509907469138421 -0.32107265882117686 -0.8599762171955175 -0.6695859911178591 0.18572351945970578 -0.743895343503937 -0.47633219816623407 -0.19239754610641402 0.7416928618369757 -0.32552792314738543 -0.9336340647692216 -0.34067889816582564 -0.21289637775751852 
0.6167972280908767 0.9293776886490979 0.18306459435737898 0.7981491039947017 0.06462073699885473 -0.25636541882421027 1.113461586366684 0.3498809641606179 0.06793723290510445 -0.44405908171307185 -0.2642263943265164 -0.42797333906900437 0.6264957794060579 -0.29944801051788705 0.5454996383498701 0.30879463942330876 0.2744981706678651 -0.2827052108796586 0.6958521366607247 0.1167706697323437 -0.4772024482094934 0.15339957450192232 -0.639910802366065 0.5019829464546925 -0.23362934267466628 -0.028168912162217064 -0.44624041467341424 1.0462420152504541 0.6295605271803422 -0.09399395091734968 0.6379587674981985 0.024371153660082506 0.7215746094782083 0.7613291298228169 -0.272507383813678 0.9594805149746967 -0.44562989669637215 -0.8114033793110982 0.8412053796839098 -0.46376234154713275 0.7299302128570992 -0.6147069983236089 -0.09433511766584779 -0.8167992091390055 0.2488935341599574 -0.6156014581613726 -0.7927001243511733 -0.46922001719507156 -0.468253653414366 -0.7456957503493244 0.45613001586793955 -0.624418845276906 -0.5923553887748775 -0.9519090222135332 0.08815286194034216 0.7872434107841986 0.11195481962048713 
-0.9412039802017766 -0.8988991354669895 -0.8622011728267374 -0.4850411662956268 1.0085445618509183 1.0071916562810737 -0.5812323671155206 0.43782005367274607 -0.4199974200862109 -0.19999371549473333 0.6978859263571326 -0.8511224578649705 -0.2773975639653481 0.5547569873201273 0.6722630860804522 -0.6163980594463352 0.3161850195466285 -0.9037003714388656 0.27931514590120377 0.5697841899620892 -0.7337992684551111 0.8494653241094727 -0.6485348591271332 -1.0863220019465674 -0.9258189294701933 0.5870995485423658 -0.7346527881291396 -0.9100163441470841 0.7341748974976574 0.31687548707691277 -0.18992012035774644 -0.5490602740628472 -0.7863477982997935 0.36245545482345665 0.028939905078727346 0.10540281367277005 -0.10169593711372013 -0.8155805086681215 -0.0884121063012048 0.7879760037266763 -0.3197549532453412 0.03730145280186159 0.03942211828606612 -0.6873020103649278 -0.8006744611663 0.0015805304834889799 -0.6537500728649416 -0.26412332478471034 0.8071324953462116 0.3279544044661067 0.557453520203365 -0.47274801085632967 0.558758160451137 0.6909684318013286 0.7909920442092655 -1.0731192302465478 -0.4530668671711397 
-0.9196541700575078 -0.12913066510039162 0.48810500338567486 -0.7277798441183617 -0.8198109095232381 0.18139788377978613 0.4671821372578238 0.5336602360447837 0.9423592103627743 -0.7570633283275128 0.8600047368943622 0.9626561029923655 0.14390475971031294 -0.30109000399304625 -0.8272336860225294 0.29919309664180166 0.4712726604575914 0.8600900113391543 -0.7984341221066431 0.7376382381308599 -0.7720505476498586 0.47043585215714934 0.5489480061140313 0.7811829998041049 0.1443891067675278 0.21104953603203191 -0.6109745276775067 -0.5954264748455123 -0.7511791648471746 0.43015127333932196 -0.694798826639197 -0.7616423042636379 -0.7462793538279491 -0.7915884888438394 -0.4230134856451282 -0.5845830916321645 -0.7944171770915703 -0.34960867395619405 0.5695392186867223 -0.027124660082354275 0.6800725876532951 0.8711940861464889 -0.13298485259206605 -1.035491592908776 0.893198913936037 -0.11135295048026661 -0.4943959757943326 -0.28650997889955343 -0.7305045129927281 -0.244900312323731 -0.37951903207931625 0.5571136641074773 0.48223826619848137 0.6200798600213383 -0.32252012385493406 -0.3903193515944963 0.6166718595301074 
0.6040664680224255 0.9346823462724752 0.23326792153153253 -0.7243372477963139 -0.6664682175744915 -0.21051141834235224 0.1697730825262098 -0.4087546301290328 -0.42745081294014 -0.8353971271274485 -0.12487598446540504 -0.5997722114649562 -0.21633873953654242 1.094516706106771 0.3608553129141522 -0.3574510906796023 0.3906547581301685 0.7851985261400005 -0.4204977640911114 0.3146622026673251 -0.9276002786289443 0.1648305423315035 -0.6715111812939865 0.5760720707899203 -0.44120738445242824 0.4858907074176353 -0.24693157571635171 -0.8793451005096369 0.017261907313857842 0.7870866714080046 0.35235298252036423 -0.6935492071181124 0.9553134407192789 0.17009018625665706 0.8482888852814658 -0.973631051803465 -0.5426567562947829 0.4142901821039931 -0.43845764500966483 0.7629275377771946 0.0004866894129607058 -0.39578773777458265 -0.3923239873823192 0.19088018418853006 -0.36834730014861206 -0.9574203496465284 -0.29765032577888795 -0.7002447760399603 -0.0802495264482701 -0.5617541519430007 -0.4635658286336708 -0.7747961694888164 0.48523522839033134 0.22337733210972288 0.6325194273140392 -0.13492207192008876 0.8266245813832743 
0.023810535139503264 0.412750076735968 -0.10920142825021961 -0.9807034584734777 -0.21929345978106723 -1.2544378757455767 -0.9711253149243875 0.3784226646664423 -0.2165509742199374 0.16794737287371064 0.29771241006331084 -0.8443777578211475 -0.8251725786015677 -0.23052144550766124 -0.8151493980428074 0.7233807258764618 0.6532537649623242 -0.4763197506031345 0.5919453393572114 0.5988321804412605 0.22014293426448592 -0.18933198894718944 -0.8291490944810463 0.23901233728120916 -0.24788184617098064 0.2852674615404518 -0.7568300101867835 0.19749923975055667 0.20236868215573145 -0.5483659136711695 0.36981917931427016 0.6857495428426544 -0.8146294117256558 0.4267570018683797 -0.8675225755726823 0.631687043560545 0.7328630011031798 -0.4647795449690183 0.47235941141747545 0.336764898337197 -0.9493371850906498 0.9394590861729266 -0.33821083787922657 0.7050541280471884 -0.4904451801983838 0.6251660045014166 -0.2739928446392222 -0.33509978996222645 -0.3114825047971992 -0.9751327765797748 0.5931110959397001 0.13199830148334535 -0.3848168732805143 0.3098753675002539 0.23688593290370674 -0.3034702534844462 0.6395268181476689 
-0.5300748896580825 -0.7808518819866972 -0.7080013639374862 -0.2631571936022795 1.0468186612030608 0.8583854833054665 0.5737773228717196 0.6682399357577253 0.5856621645042372 0.1342293321715451 -0.3733628934391888 0.9236798655444987 -0.14680434369348105 -0.12235966934560048 -1.0070205669358216 0.3328358797835455 -0.39399136733548756 0.28499099916261983 -0.19785949036195039 0.07473221139323094 0.4704194626944997 0.33691131986567474 0.834814437224758 0.658624680482435 -0.8465756047324784 0.9963501483231991 0.5906949420935226 -0.7983768188162772 -0.08534001441624307 -0.3716970056323785 -0.8179145069415235 0.11694058747082002 -0.16726868632279168 -0.7099124771524428 -0.6186031039306317 -1.3882264124943955 0.7743637998690588 -0.3036703868872118 0.27868972470556064 0.7774350620505389 0.4709639060331543 -0.42888734891062597 -0.7733223923105286 0.22734766683705993 0.14805893272949713 -0.9714494263031596 0.5949748663272472 -0.6131470717259885 -0.4578527331438811 -0.6146920245250269 0.19243869534669544 -0.831498734879301 0.5041791592310759 -0.5148201385124727 0.7032034291284175 0.5102135973297752 -0.6422090955933849 
0.7327415870002534 0.9085766591119089 -0.5115352069494579 0.6360192325533798 0.01481831641665102 -1.0053024709167455 -0.49400181005204813 0.6327065962501863 0.7422988573433738 -0.6098333243876888 0.07295529990973115 -0.449182613957631 0.4160711906256151 0.8977627924839382 -0.5246114869144882 0.3827330190295828 0.2733893078359695 -0.36989235036933144 -0.8455931385946924 0.3994143099442499 -0.6308159308316313 0.08034309494553105 -0.023234444016915278 0.3958548766674656 0.3900207105676452 -0.20749352403755816 -0.060014832743486846 -0.17055433077501772 0.4928422556848937 0.7265612594984419 -0.03901357051098467 0.09938811225115671 0.7327006216701604 -0.8697423946603091 0.7485685986247614 -0.3081264091943214 0.03865860413163134 0.9419167199406081 0.10649748344043594 -0.42540700914811486 -0.16290871740129198 0.48955464928700443 0.8374384500423802 0.09686071514312812 0.06390856340269714 0.969600843061038 0.6173456788490548 0.30367182453527525 0.34042562199110993 0.9539579099811011 -0.7928030659385548 0.7419601266293181 -0.574487373616447 -0.5335711106104446 0.23208529142514153 0.2181076399222369 0.14870461396240856 
-0.16592006618534594 0.5702201713530262 0.5621325801904227 -0.3581850653074216 0.26442979254639937 0.5033768458185449 0.6045558617603602 0.45540465106659306 0.9723022237940642 0.9296109818400753 0.31079151182893705 -1.0398209857588627 -0.026856841220876147 -1.0097788398338552 -0.6326425984079647 -0.5245772590376988 0.9033392982897828 -0.17444489580680633 -0.8466921657827498 -0.10546978247180237 0.8644490671969872 0.795239308557798 -1.0046443236198435 -0.47596978237433096 -0.21057757822258094 0.9950146563670124 0.8433806051553951 0.5387433958452768 -0.9750339133216714 -0.3801389838781124 -0.112268441577604 0.558186065987894 0.790082017315122 0.9210618739312035 -0.6363527762809926 0.5723371352862918 -0.5385079181465201 0.5079521131132866 -0.4151882220474387 0.8653243649201809 -0.864688117354093 -0.15735427235011645 -0.6991913339039191 -0.34762653596805526 -0.2868444479679932 -0.4553420123042209 0.6866476780790477 -0.8371809146989306 0.0196429408179446 0.8768402347132069 -0.43143245583664513 0.6312526631074485 0.5275084483857204 -0.6333122155042878 -0.9858803248651773 0.3885722672528 0.5710924047599244 
0.5637148951343092 -0.8647067319935244 0.8675129308026719 -0.9449711525376947 0.884906929917213 -0.5614215641644696 0.3531187904022897 0.2011476956504237 -0.38792453493581647 -0.3162227482071869 -0.6462675732984837 0.42688183020176823 -0.022016105713176432 -0.33816311570181057 0.7876929129535672 -0.5390339844410336 0.694849617395962 -0.2852945415491619 0.3808744024495334 0.13372825407499656 -0.4602672115938077 0.12758099368112205 0.693946977667736 -0.03038542774037787 -0.48068275965220963 0.6420290593758633 -0.427409818412374 -0.33989231763221195 0.983027669301341 0.19028664294852393 0.836931612701421 0.3801391160054028 0.13789844706451881 0.7841237177124358 0.38392099840755134 0.033805359549447626 0.6580117021000553 0.006155560057068075 0.1506748139488429 0.5678043017095233 -0.5097764691730065 0.5724952354901012 -0.41954702862143356 1.283328972942568 -0.5164010699051592 0.23832971788101054 -1.0335675644202458 0.2132037975159495 0.8371194150164609 0.9374777325041381 0.5429804395207078 -0.9827192207873848 -0.5050431384589081 -0.384412492416348 -0.39725552385564045 -0.33008273698470864 -0.27628966967145757 
0.5735775327486166 0.5107335036722485 -0.7013268334345739 -0.05842461881653308 0.037062162895605794 -0.36208252837863797 0.5159423870146468 0.2093630787217186 -0.5144936014441197 -0.30779653638700744 -0.7863908113544951 -0.5253571775103021 -0.8995442008752756 0.5042712675636539 0.6306935279701767 0.7891229913792273 0.7279952943697539 0.6734829000653895 0.06597673399864323 -0.26663589652705516 -0.84670498948373 0.686749306770958 0.8834050281260644 0.6574732141685999 -0.35234066818714616 0.10354264289641302 0.3551736856148062 -0.29867611876868155 -0.2758763898173124 0.48270430228709005 -0.42429520381465813 0.3744729525334772 0.49977665889818135 0.4798701701805206 -0.7317023281405797 0.40804491169826246 0.45750082967978306 0.39308408651617 0.4672379258753548 -0.9053059112404918 0.5985868032959949 -0.8260567639044425 0.18490996235467594 -0.5711449332123792 -0.5353893377462636 1.0587791241104518 0.6637926468856291 -0.08036963962663357 0.10095495590979953 -0.019762786340574934 0.3949699649414502 -0.8698871608893575 -0.9852268928094186 0.7661925723813746 -0.1157140225085966 -0.08873521487187566 0.3699637150842576 
0.8810853478188128 -0.09643879830253055 0.0033515714387313267 -0.028432044673246393 0.4755848897433601 -0.833591480506558 -0.18165088449933928 -0.5722659818720507 0.7925623185815878 0.4110413303480065 0.056818513095536316 -0.6464719584209799 0.6664480460487714 -0.926566623493065 -1.0067410266743466 -0.7184665352575381 0.7102572687601509 -0.1434456766431924 0.41977772009831726 0.7085787790348147 -0.06420498183601371 0.7920938902256014 0.9429373353289612 -0.18212243128600836 -0.020281161478040488 0.040186952700066225 0.06531549423227712 0.1519373160437002 -0.3620632129826859 0.5516055567568445 -0.6203007642672347 -0.9748828568587484 0.9628353412454085 0.0503123105893124 -0.6850882897097685 -0.6531933528024206 -0.3759338031433318 0.0786398860002347 0.19884753870492874 -0.09764138405769726 -0.4164218588274955 -0.5604415008202266 0.30407751516918613 -0.20269816971641974 -0.8818858103017184 -0.7833458541787207 0.6327374536650127 0.9790860764541115 -0.3059866657599797 0.06777668239357193 -0.10375131984081531 -0.5991857504073512 0.6889909114561029 -0.5323941332887893 -0.861299573533815 0.7917577204335603 -0.9040109354902052 
0.23756988644777577 0.8406016111323997 0.43729172888436874 0.349301110534655 0.790536048882582 -1.0830585208249415 -0.4894860844514464 0.6115891381240931 0.46843337420266695 0.34342277339147276 0.9149394461774178 0.8741548626761932 0.09239554774592144 0.8955472671549604 -0.6980525531104577 -0.9340880984462605 0.17405192994066154 0.40308442390098476 0.20907947574841113 0.8164895819885991 -0.3557994043431592 0.3361258464660382 -0.00563217081152818 0.20098212444214894 -0.13874329337954272 -0.4386006499202273 0.8680514097019125 0.4202253272337722 0.2824155725700398 0.08776106953924578 -0.798912500373119 -0.5426402003649989 0.41111800444971225 0.5361213075630753 -0.5416810084835197 -0.8637999203397084 -1.082840490523389 -0.43454708914135787 0.8952284698359338 0.19869593685253115 -0.47480595213010757 -0.2711714407193937 -0.3280602446300296 -0.0894195476214878 -0.33529996092340375 0.4851842182716961 0.45052435412032477 -0.26169617241923027 -0.5965505241837021 0.3320573690886859 -0.21177569350408976 -1.004410072240951 -0.29706524271878754 0.7522731512198155 -0.9589943585862266 0.8379517645421821 -0.9793340713616965 
-0.7284456416826703 0.3657694552718529 -0.20185552332033763 0.9343548271329384 -0.6459397629079633 0.11817969154157314 -0.9387408536514933 0.5784865079893031 0.7596424345016897 0.9403864768478465 -0.8094594669307247 -0.11342435089614843 -0.817551566471274 0.384217410022468 0.4472039507328755 0.05454368188546282 -0.13103518702951744 -0.8702583175467522 0.2616414763381958 -0.02262343612776963 0.5841643976296214 0.4006075516913031 -0.02556399552325467 0.36944994845172907 0.8450696920804646 0.784065244004899 0.4230246163900335 0.21568070604637918 0.35575205789168396 -0.254745563480727 -0.9880678228065215 -0.3230253133546976 -0.8669245494646693 0.3228323131856379 0.15881548247994903 0.2180295224840147 0.43730592192366546 0.8095114819816919 -0.3477234893431566 0.8910595881306516 0.1587256388909577 0.6214232175276826 0.19327304887076568 0.31217168112742744 -0.389269856391589 -0.8358722813568931 -0.6650597966827455 -0.7125726148151058 -0.8003476266507255 0.1223058887225692 -0.13306490695301942 0.4418033978446456 -0.408587883025383 -0.1241820791281567 -0.6953500639416977 0.11886607423911466 0.4233055240506931 
0.043944712511352124 0.8883993433686936 0.3077529487859556 0.5668555914468806 -1.0799560487064148 -0.4889961196921168 0.1249660367794534 -0.05143866790579112 -0.009256372062461216 -0.3546108908129948 0.2838472733456969 0.7370046536875704 -0.15488679530246693 -0.9232848541258855 0.018457310478264884 0.2679513305619376 0.6267382978330782 -0.2782608544368512 -0.4395568148482394 -0.42551469424493354 0.38208593678114866 0.6911236761116213 -0.27635614574771117 -0.6908896778005579 0.47652107228926743 0.6053651320144573 -0.7347346255765677 -0.5440936816009584 0.5595341088616156 0.6734991571595434 -0.14822171230925854 -0.024493580193221856 0.4009910667004686 0.8159023641840837 0.07488218756574239 -0.9355338173918778 0.05438055716539467 -0.9360303131921938 -0.8420432322745195 -0.479486059946894 0.5743795471395938 -0.21079042953746652 0.3833846288484697 0.03695976834677779 -0.08165797588153603 0.817140047402366 0.3664473463849659 -0.9332539585978817 0.36805251593934596 0.5052424798219348 0.5010960719528887 -0.10977692428418698 0.5362685053439512 0.22455840119428883 -0.8380737458494018 0.07820558289112299 0.4249683450495251 
-0.36160391777522305 0.5614166578190969 -0.7523699738631697 -0.5251232831389792 -0.18575399586428024 -0.8050017507478879 -0.9472017682768356 0.507903474359355 -0.4185812386931105 0.47704959066376085 -0.5997766809572713 -0.8643839275043923 -0.7805505947164809 0.681479847849715 0.5934552986160097 0.820590753303924 -0.7433293303934219 0.029198290986175435 -0.006998879767660338 -0.44083961361374097 0.07985594915488002 -0.5100010626770394 0.9827872693069113 -0.6375260485481147 -0.29627301274343076 0.07138499357185091 -0.285751665931925 -0.2628463705086458 -0.06964746126357317 -0.8456570361102806 0.05227242173228651 -0.10572607407540813 0.5112527137955831 0.40670270738538417 -0.08880241252118903 0.8731892864372662 -1.404697337022047 -0.7287024011174917 0.3387558523109859 0.13897707471173665 0.9932347633622933 0.23982762178060568 -0.9815902510985945 0.31655252422134883 -0.6660478492891466 0.5855502393970112 -0.20886260492773154 0.7688156634785944 -0.732905997947292 -0.0008694976398735399 0.1913583442902158 -0.5052177325051309 1.027956845329198 0.23183098228697138 -0.440560278972204 0.6569134142568029 -0.6012765334276906 
-0.3269797437186128 0.9895987155335546 0.7804157388823107 0.8109386093722599 0.8877656680675797 0.7010955912726363 0.9540736470271339 0.7019926152298314 0.43687532767000703 0.18971402251160363 -0.7084122374119273 0.34180105497300883 0.5321296870791373 0.6895961494817808 0.054507944423511374 0.5351793089388186 0.7252880832589617 -0.8685572711125882 -0.5919001780073658 0.9048957857741607 -0.311851811321569 0.9362842825596623 0.23586735410048243 -0.45518018482245237 -0.3749278036793233 -0.7976965320115694 0.9627100907429906 0.9889094250418585 0.10798560298245918 0.44794754465926084 0.2750956149630681 -0.7270348976773913 0.6302645534632552 0.3224245499706986 -0.1991920717056277 -0.5711606190475547 0.9621664511240953 -0.7091408120653194 -0.3689430696904075 -0.26030602087290605 0.6795327002297538 -0.294349031258621 -0.2893409823149111 -0.32889345643153456 -0.4421170329921816 0.7126660117938377 -0.30713775050253533 0.41202978327391315 0.5668143020353684 0.22201261451398424 0.575592006743179 -0.530730487150123 -0.3696034158893294 -0.9069799499807422 -0.7975790824948182 -0.36228031395958826 -0.756607352576367 
0.6833513465759611 -0.4019195923694343 -0.9111027031862602 0.44742330797367386 -0.29755862752767115 0.7760430173055342 -0.3468826955327 -0.7609455970358878 0.3729223082430244 -0.5928309114296875 0.5811555245092264 0.3505565191555313 -0.3829341377783785 0.05603503621354967 -0.1006452907074606 0.18993978035179873 0.26567158023347215 -0.6040037963525011 -0.6050359854600267 -0.5092955019826328 0.7124726230137268 -0.41494964834985176 -0.008749597927477728 0.23969669244144048 0.06087302604757516 -0.380703681156467 0.6821260622126206 0.670785470742078 0.09414105053545152 -0.6616772134520534 0.3639520437736538 0.2564241589663432 0.0600526489318165 -0.6415164658065922 -0.25553578026440404 0.13614166054254168 -0.11345764712327212 -0.5223841342868298 -0.03846318239469497 -0.6754501352570488 0.39792686208296457 0.5586740397700218 -0.019078420776837746 -0.04282947814098073 0.6113372394540745 -0.4234927295700845 -0.9239545852625308 0.7726543947531569 0.8474785334418204 -0.6423318825557547 -0.28895472448807125 1.0006911020552474 -0.7600255759954171 -0.5649049647592557 -0.40326163587230157 -0.6303011325713692 -0.26099605186215846 
-0.7800497008979592 0.18835960568514065 0.273173641735422 -0.5633203385984734 -0.13274964239361872 -0.471445927160349 0.8168688855781238 0.6388608536161686 -0.2823622938977288 0.9366684514797137 0.4203476164456128 0.30214518905302007 0.8249456590569604 0.06484938828155329 -0.44054486446293084 0.787446439205385 -0.2949606201166224 -0.7780964292651464 -0.12499391034476415 0.4044068645157284 0.011755660178680792 0.8386200998730161 0.26918710156111103 0.3397788337740576 -0.3345209376263929 0.12811032590684013 0.14558147615531314 -1.0724703997832288 -0.32585108986720696 0.10731712392665552 0.5204800445883535 -0.2235284776184275 0.04835211207385015 0.8428097503130567 0.09264678072528287 0.08266789598585154 0.19336194385398386 -0.05814254489061996 -0.9300053001143799 0.11263053407054013 0.5597981791100384 0.9890506318941397 0.26748674822379614 -1.1717933360914894 -0.4245473737784735 -0.3348025919328904 0.30467829078715386 0.904414910945092 -0.385768848048871 -0.9229755687502266 -0.6369336796791156 -0.9871858144968328 0.06862310756120779 -1.0086821803675612 1.0011182874132551 0.09294454255550931 -1.0141192453296177 
0.07165177621285568 -0.9886224910314925 -0.5867791104654598 1.0060157133499568 0.07748092868726385 0.37459012270319453 -0.5629140864646129 -0.21070813359689855 -0.3815568152916913 -0.27911109247015364 0.325032280943955 0.1765669398491802 -0.5452356993252522 0.44014920525860957 0.6877068667080843 0.004378579727565951 -0.4044146578020633 -0.9570636835381754 -0.07749662788210321 -0.30451563255034464 0.7179046317850195 -1.0337402178427266 -0.964911449766717 -0.49314231833309335 -0.23547098825045998 -0.5061108309491442 -0.3708112941510957 0.09137101271635603 -0.8024277858186635 0.38008842445362206 -0.19775488658628498 0.6523924076944246 0.7824044044684437 0.5010792154613997 0.42862823006057016 0.7045457164630965 0.9053257395740224 -0.41116050267405346 -0.4618311210734985 -0.9370212761833202 -0.4321741621934674 0.16873085357527318 -0.4814111753790733 -0.491675929965454 0.7169921806445878 0.8285136179592736 0.44215769710765535 0.1101181108511529 -0.26134937079278386 0.6303569780675364 0.4991117677671415 1.008496063260344 0.6303112774433457 -1.1441044372028886 0.8219999645555255 0.3414367667389523 -0.9092871387206609 
-0.4900767326798072 0.8888281570931831 -0.22823131058160695 -0.3460185399176135 -0.046772144011358506 -0.2610462633795983 -0.5845885737054409 -0.27612256196683566 -0.3602245421027528 0.02406307140734132 0.3032312320134245 -0.1381646534974291 0.5237589181426109 0.6130395988603324 0.8479030222992655 0.49421265146663723 -0.32291683573075725 0.667406436739473 -0.879363165952868 0.9495479065541369 -0.8153755969701896 0.1030122283289966 -1.1514487098010666 0.6726825872495971 0.859970912535664 -0.5935549059611374 0.3367361509853264 0.07602757352570286 0.41818812150993423 -0.12066312957347472 -0.22801936620026683 -0.8135944683241859 0.00015119458998746893 -0.2009983298623641 0.37543307601122167 -0.7068131873190213 0.7397976626849553 0.2984570514823635 0.6241618877550947 -0.19587293628216587 0.04362970261605348 0.7192805514276779 -0.03350756093898255 -0.10469516578969731 0.373111030223498 1.0051509463575223 -0.25132744739731305 1.0402562824151185 -0.024913303779068974 0.4122444269427952 -0.664132460677668 0.73293254507857 0.824330366213051 -0.46060699908089064 0.3537251438649429 -0.2571607360188389 -0.4649535823942107 
-0.8610408568806551 0.18508919921213995 -0.5394963611877743 0.28378011791947005 0.1651952703978934 0.8023743157321315 0.8664819295881387 -0.054333985768671426 -0.37064416154023894 -0.6340544546899969 0.9364259939866213 0.2267348089275517 -0.2299514488937015 0.8374748348425837 -0.5272379200816699 -0.3330971462668611 0.7799469992225694 -0.6024775860377214 0.34092072721660727 0.1719015214002131 0.06479380341574321 0.6028812708866826 -1.123753547210391 0.5878789143557931 0.33091513692249097 0.41642364124773423 0.367311723468289 0.48910083735087345 0.8639936710349306 0.1814933513827283 0.6140527139518769 -0.4570923819414832 0.5095391216922662 0.8017948495224652 0.30131190766678495 -0.7153146061065436 -0.9043625150887253 0.37921218386826727 -0.786128951069943 1.1107470811397775 -0.3953610400388794 -0.20593950852806864 -0.7026092933371135 -1.0779107881971253 0.3324916312553415 0.47941081290762844 -0.12502968238071152 0.8980011276152929 0.49069081965759587 0.2286914325341416 0.1292026601169085 -0.7686218936229517 0.8014555008695067 -0.21596711433741214 0.4438906193376569 -0.5619527220344138 -0.04503745197688163 
-0.21607955745930277 -0.4277404416174578 0.5469849353522696 0.022918947549488627 0.5113320550584014 0.32169616352168734 -0.9414632512976671 0.5607610879766184 0.3968284843604635 -0.006293465830945046 -0.4035016328206939 0.3973563492658293 -0.7086375510197419 -0.9045629494878991 0.3833822445816478 -0.7304417806962046 0.37926418285638064 0.5724955655710354 0.4912956655565954 -0.3296232224595862 0.34199334064417913 0.5912705197534893 0.059811965381827946 -0.7609602630846225 0.5356428732999071 -0.15287481502126743 -0.5595567462421677 -0.6147908597677485 -0.4020472575454677 
0.4484354551369581 0.9840846309283097 0.6028028892112456 -0.36392226791981136 -1.1090749373056457 -0.8342316661286658 -0.25379533056774695 -0.18176640240069472 0.26865009056151296 -0.6556267707773472 0.01111366737624805 0.19829618247114558 -0.2994978773619542 -0.2495500380150309 0.4115287613178571 0.21181551925022363 -0.774083024550033 -0.7938652680604942 0.6015045287810069 0.3200912134983797 -1.3308150443781335 0.8089012885379558 -0.0904157758286787 0.1081841906569458 0.4389690192273031 0.4898876883732765 -1.7651330918279948 -1.1360961752912369 -0.09419046088616674 
0.4622864980029076 0.8492685397481495 1.0700195882665848 -1.032213392590882 0.41362202070541254 -0.39832904377999745 -1.1311991017224945 -0.12859565587758434 -0.2850245114595222 -0.20459843614069362 1.1204453313149794 0.4865941877803462 0.5334726633097373 0.5076965080561034 -0.4073745159246595 0.30474190111090177 0.8399554728428885 0.4628225688210024 -0.086840487183874 -0.06015674379456464 -0.8008011343691422 -0.5518014587031143 -1.3348463278383507 -1.366166720184534 1.0154357840587542 -0.9133364499128012 0.48426344491087303 1.729076011773374 0.14753625860339667 
-0.39557001504546996 0.6994491592191726 0.879790788506483 0.5014615876802461 1.1229502809920058 1.4829199470054033 -0.9642759910148815 -0.7903760782052641 -1.0631204772930023 0.39619012107029167 -0.879706947342332 1.169185565488184 -1.5535765536761228 -0.37832683463264777 0.9345517720411252 -1.2101789285694777 0.0717319506249907 0.5837512553535398 0.5101405709120254 -0.2032832107649992 -0.5698705489142762 -0.962309874981949 -0.1727407350675267 0.9896826477666197 -1.5304310901403722 0.23011863402302982 0.7556586375345887 0.2558459961838937 -0.6220640810549625 
0.2683620749367602 0.21373590141986168 -0.7067763369233572 -0.9252843924373223 -0.321839493000607 1.111169738833429 -0.1009834911379369 -0.8961153071357518 -0.023516518995523542 -0.30154080212507894 -0.648329212860155 -0.0805771713661768 0.2774545796647818 -0.6681018892300286 1.2367469305369827 1.1162271237674741 -0.04172772233101044 1.2189876564850566 0.9269500562278854 -0.06402414418073148 -0.38403674858038467 1.7731138565134041 0.25652699928599915 -0.5164023213836403 0.8954345403013961 -0.27890663825173073 -1.246236910229975 -0.7844287663156426 -0.7782349986769532 
-1.3553929835644398 -0.5853071693640639 -1.003165654453241 -0.1708069685750298 -0.40016429299694695 -0.13501028932173045 0.15812488784340004 -0.2324937484837444 -1.347404382276509 -0.2581736383522584 -0.8729641931046713 -0.6232155846516773 0.04814189580232245 0.5568826456428262 0.026438077082717792 -0.43245565304192807 -1.60308714881143 0.6916588792833978 -0.2562975898709553 0.09730870622398761 -0.27513614532338837 -0.01688829945260674 0.5251557736092036 -0.04453078321118553 1.197853161227755 0.3195671454360481 0.15093663515565797 -0.8198981976431483 -0.5546775156252317 
-0.6566405898356592 -0.3724083099139444 0.631620819157356 -0.9760013369028288 0.38169128613589864 -1.0010379459765202 0.06609713439371863 -0.8572499404776195 0.029842610608622193 0.7500831287157121 -0.9867579345298669 0.12170978309349231 0.04854126502850335 0.12060635449729254 -0.4434432168751501 -0.8921217613845767 0.002452708681299773 0.24512882389537255 0.8858608965088944 0.26379148197172336 -0.013237440758857603 -0.2980088254818408 -0.32998834038339275 0.14560858592204073 0.040351357893926236 0.12575189784387883 -0.9047217142665234 -0.4791056518617889 -0.8337054906946201 
0.9982929105032601 0.4814719062957363 -0.2839073308420128 0.31161684685593544 -1.0044378591210767 0.8058619211728367 -0.39767088245904714 0.7276015473886711 -1.1718956818550985 -1.0876910963755497 -0.07921758677130224 0.6574315914551957 -1.2310021767368546 -0.15125742716453733 -0.4516364906714334 0.9657633877204166 -0.814114992534257 0.0903819520743169 0.5607059408304382 0.42718231713513866 0.38002174005576683 0.6448972216126702 -0.07587008379594148 -0.31084296313173715 -0.8617493245006667 -0.3150857420703185 -0.652633959772088 -0.6843935514338816 0.2528062420380925 
0.5943547696986671 -0.8743838655833264 0.40819398556384073 -0.6603649418370923 0.2636353011011859 -0.12751267047607082 -0.3838883240976655 -1.0859933302015607 0.08332331602926159 0.5587933491214893 -0.5105009204007827 0.28720915851339474 1.0473948889080467 0.8088067786429388 -1.3238076496756237 0.46563863047302867 -1.554769542399485 0.6246485095105617 0.7222852235580142 -1.0545999075149262 -0.5504553523461978 0.14886108779327037 0.6464904392031876 0.3063824467135197 1.1487024153883723 -0.6549992407116864 -0.28088009083550264 -0.3428801866032107 -0.6943254053601022 
-0.5079483550181829 0.03301760814432263 -0.45787032313866644 -0.6814409774825725 -0.7438424317276395 -1.0051042012539164 0.17108273258169707 -0.5053783785914008 -0.4596327275509856 0.4966033315591382 -0.9329883391589003 0.4228280920428854 0.31106358721378874 -1.0608503494953259 -0.5952139276241843 -0.988610252537509 -0.895071644246355 0.4201869732446932 0.0792452567452182 0.03320102954308294 0.706858197978156 -0.691119774827508 0.8521685630590874 0.22860497470146174 0.5532186703504292 -0.35480277891652817 1.0466628171160584 -0.7844791032050437 0.004091568687631763 
0.09721299321923557 -0.03022889446091504 1.3952889723770312 -0.7271561575701746 0.20866135344913483 -0.2369098744502102 -0.42354075055036355 -0.8115010216936811 0.34314399512893223 -0.36686979554917815 0.38579898315647804 -0.40420706103413817 -0.7383968429854376 -0.05947433273265381 -1.0867047165698673 -0.5109536682595911 -0.2286160494632698 0.2648068903520966 0.44115581188882985 -0.17218678370848078 0.8032600317978147 0.6238879301633337 0.6077243334944529 0.6522603770483587 -0.22062489031524993 -0.6480171565454773 -0.8512554844792676 -0.056475918150225665 0.6541458006693773 
0.6969102747097238 0.5826175910807806 0.6681555704817196 -0.4674012855995467 -1.0108721833681367 -0.7913234887583047 0.8072525960256407 0.04732448199091607 -1.0824014331162415 0.7000905225760873 0.1448956298830489 -0.029537462467756063 0.5447856053084348 -0.9019919161935893 0.16906061172246983 -0.9929401973741095 -1.3617512536263274 -0.3631502528943012 0.13768259503273675 -0.4973903461938173 0.4261479897571905 -1.4054621533518104 -0.145925818869206 0.2926037750861223 -0.1920660543461885 -0.26910203412831213 0.3703767689379784 0.10561669618083201 -0.47728382020195975 
-1.0265198516561373 0.4971132812274334 -0.8111080507844652 0.37261873921777866 -0.5010087644000423 0.07910300721114856 0.48495564615846243 0.7759272588275727 0.26041057127812545 -0.11233835530796547 -0.9583676779476976 -1.3159068815423742 -0.3286370438665707 -0.2173127401545639 -0.5668752146182081 0.548639852724298 -1.2977657084704348 -0.6916533657866768 -1.0623251702780123 -0.6299249324219851 -0.309916961475032 -1.4569001864819922 1.6750406859445481 0.02492542559579748 1.0171323407409598 0.3153953308916498 -0.022905717248077714 -0.7201790863932499 0.2521816183213501 
0.213438033073097 -0.04003652400230503 -0.893087871023017 -0.24751088899816498 0.9691525424672884 0.3514302881224446 -0.9380737997756486 -1.1159079538331464 -0.9662810969942043 -0.23713743111002525 -0.19785931034759605 -0.3093744492654873 0.08518215956040649 0.18186297680225771 -0.056423454331977 -1.2661435027491281 1.1536065530099897 0.9998427073194172 -0.8104703754561905 -0.4597732998457106 -1.070416378686177 -0.682852916538376 0.2415339835493457 0.11090252186034161 0.10687975623296181 -0.6862287249263491 0.9019837948495029 -0.004789954637665879 -0.736967651463536 
1.142300450327512 -0.07839325610211305 1.11335932173952 -1.30597862137419 -0.15943574277643754 0.6163038710289043 0.8576772611836161 -0.4570749865369419 0.7167254617874724 0.7845432597458848 -0.1754958984333739 -1.2777315216665273 0.8879709435219137 -0.18536655056676132 -0.5540872608543908 -0.5259061876876286 0.9349792015159004 0.24095078756995642 -0.21455658773842354 -0.42471241875677385 -0.2434534028786971 0.505749818734682 0.6897531779280428 -0.8347267077263902 -0.4244693798483808 -0.68977033281882 0.09202322992317748 -0.5962437800230056 -0.251950903583264 
-0.645782796517784 -0.5818145647535923 -0.9149796864598955 0.18605284639283795 -0.5306317497824248 -0.9382521219615845 -0.13543186436692609 0.16457695015899865 0.39860963924425596 0.31868153702099145 -0.11180998871147267 -0.4849789691497179 0.06892524574327515 0.49021660969431896 -0.6158223833413721 0.46376552372251656 0.08624898844304156 -0.24255284759967102 -0.2566309093064833 -0.09513542166506504 0.19256088396156754 -0.5453627930279147 0.409737212827543 -0.7187132032002791 0.7520575212574662 0.656641020629274 -1.2096210941162449 -0.45158735337291545 -1.1384640278465537 
0.059828448791408695 -0.24695739676820821 0.26141736110623287 -0.8615905176764286 -2.01628392694943 0.24957425975199768 0.2581761183430773 -1.0353593709354367 2.4495608898295065 0.5769807627958516 0.20994732546275122 0.21150372580084872 1.6072998822693447 1.4075536762580816 0.8353596119746647 0.8343806342916387 0.08299797305096125 
0.5668373547267662 1.086353521250437 2.203057314216838 -0.8885920522193734 1.0254142854727306 -1.4412779876774002 -0.6008700432309215 0.06199313336252082 0.5512144144523375 -0.2685676899843269 2.497546968892041 -0.38882752884338495 -0.6930237299143858 -0.6201736062738614 1.6915358690726183 -0.48599085691916594 -2.070351491701389 
0.6173182157413456 7.952572899718986 -0.9195783931686112 
-9.419296449489888 -0.3493427005972957 0.8521114305414406 
4.727023124494621 -2.6868539266723617 0.5015273906823319 
-6.5885008880660925 6.331288134856348 -0.06235740990795453 
0.2999404207961291 -4.002810966271091 -0.022019233762376925 
3.584156191483823 2.402272613606268 -4.0625195831366545 
0.2660388184149103 -7.418111206460706 6.3611107353860055 
5.6293038892907825 0.11976589842702345 -1.02918523013754 
-7.728101125714012 -0.6017834831074507 6.7345249494871835 
3.472503157818672 -4.319358945112399 -1.817918703197124 
-6.9093483881381434 6.699063530277876 -0.0003664793802054525 
1.2299621776091454 5.945423852377063 -5.086126553508132 
-4.0553074724655245 -3.560919699354759 2.884175476656499 
0.0828918380825914 -8.598007503389457 0.23191483848359387 
0.8840134699510547 5.981762063412054 -1.4894426816622368 
-1.1424608761768222 -0.6959170694111944 -0.41478835199867864 
-2.9549118706943243 7.980720393793451 -5.271048525404843 2.7799119966036865 -0.43314675229257216 -2.7251794112235928 -2.4797071614818713 -5.646304896564239 0.6409021187864546 -2.8893916557462593 2.666887265342658 -0.9672904541256129 2.7811379696132374 -0.932625636835879 -2.2166358124350487 0.2526923961901475 -3.293800193647716 
-3.364596904153185 1.3910724170761208 -0.8059580778929659 -1.199920798620261 1.4825963921218448 -0.7617293309942244 0.1531386908611216 -1.8441855103221856 1.5139955888183332 -1.4419520055258892 -1.7999390305960075 -0.029355906369571853 1.0132139367736148 2.3458881790827246 -2.289733593835303 -0.03739047264385672 -1.0098188524255531 
1.0241087409303977 1.5209715931072119 -1.2712246389684312 2.0042147988893024 -1.9094753661194335 0.4369260051612338 0.37964831244259173 -0.720399556889056 2.696364637036608 -4.137118334545697 2.2550919205589635 1.0987370804395655 1.6270579460797088 -1.0651888029624952 1.2154836495910433 0.788758243560053 0.7943493335713135 
-0.11001895511862621 0.5710000727208948 -3.833530312436305 0.20795070598749854 -1.906220525235936 0.500356068639006 -4.669789268838915 -0.983276252208911 2.475254420773478 -1.5772071762951 0.09369405627862802 2.938776650679791 -2.2779301295963545 -0.5723564570937699 -0.2280118583736609 -0.06850785410338317 -2.3353825802161645 
1.5252019620888917 -3.178388212142047 2.1756516654648905 -3.4539722461787687 0.6495842398715407 -0.9774034079509745 2.7813147043280937 2.171770104681537 -2.1293127457239325 1.2787751851477185 -3.3424142816898983 -1.9596428110278439 -1.1485258941177963 -0.8944999738979976 1.871997030110017 -0.9930355605028761 0.58224230842525 
-0.05078604699372707 -0.026934869969914933 -0.5580753059931014 -0.9474356233800504 0.5000197006369732 -0.46137296133380545 -0.16053442770561815 -0.8391950873617208 -0.5558061969001501 -0.20400882236372303 0.4197483656944665 -1.1254063789505102 -0.26949649731356995 0.1650950667992161 0.8408048784461016 -0.5484774655353217 -0.5783165870752538 
-3.6634050966470224 1.2052891268780106 -0.7491160348493355 0.08543788849994909 0.5457173211615266 -1.1934173383015196 0.49934826984436603 -1.407240833779596 2.3924509382935604 -0.8072128941028962 -0.3365818937546593 -1.399568454864427 2.0172067637276156 2.7814976874198543 -3.512610392184602 1.1442441927017482 -1.2199721616010173 
-1.7955279513117075 0.7206951949653531 2.833522124123579 -4.5101094915271585 1.425857198590335 1.3995892368846439 2.408725601081183 0.9723244856484331 -2.438777281037388 2.2938169138150317 -4.57911807465205 0.42898856314254236 -1.6578602606592618 2.3783613315685717 -1.7278056150556698 0.21817653049183844 0.38701852279762733 
0.6731309552706606 0.11854622779393391 -0.25655367226030157 -0.11811305500067026 -1.0059811759720245 -0.7285908949716771 -0.005610829719586305 -0.49369813761028364 -0.2445536445918715 -0.6047450044584993 0.49266260693343533 0.45149048345068443 -0.8083810353028064 -0.40823135659868065 -1.0930798188081685 -0.8944906642522464 -0.8603314037454909 
-3.1205383954612365 -1.7846420016244948 -0.28149582152927427 -2.595239767785027 1.5176058053853339 -0.5881090134534621 0.024251566736814927 0.36658538923281464 -4.271023267053602 3.5674494497069213 -2.5652535682688304 -1.900981545578839 -2.1722927923079083 3.897365168228389 -3.090855659533903 0.006453393220824629 -1.0711559718042305 
-0.6032121608916109 3.8583572717712302 -2.0947814182312827 1.3000803320366696 0.3964193333403836 -0.5464024245114344 -1.9273163401058286 -2.858503601018121 2.426277192871375 -0.0908700127846089 0.10088516692792357 0.3465560706489608 2.1949011125213223 2.225395932901078 -0.574626250868622 0.6551268954986392 -0.8173700356908882 
-2.8247656421562906 3.6028425096305443 -0.608126383709893 0.5061765032430089 0.7183351639354506 -1.7336190241368241 2.4758172001843644 -2.1621593076691665 2.333408982332967 -1.7434716898988272 -1.0287649278602817 -4.052282388623452 3.3415327967205344 1.1307622502124977 -1.9900365919016498 -0.07216060293753776 -0.7749530400684365 
0.9875720363768998 1.022725464808468 -3.217385158486341 1.908830743231318 -1.523839879050688 -1.9244789392931638 -1.3203755927776855 -1.854542357908361 1.6973263443025686 -0.8338294269590056 1.9453745278112184 -1.3617553692274513 0.07016691293437552 -0.45185150082887227 0.31245380371478226 -0.3915385539898373 -1.0846198608264288 
-0.1313940936219381 -1.3983614992692603 0.4705168513998625 -3.680703562092257 -0.06108739181273627 3.1908013419835792 0.3244252176228982 -0.9821943247859187 -7.138450581157375 3.0840501291438254 -3.825364066039445 0.9558930634613718 -4.928229878831918 -0.31470697916015544 0.8163408950824393 -0.1832164347872315 -0.7212939686459977 
-0.4156266593415919 -0.276888484203196 0.7032173239002226 0.46903561479978384 0.3369298690339364 -0.258781676292968 -0.8440206910947838 0.7557678358697525 -0.2801448365481543 -1.028885262722502 0.022950859428534448 -0.9035356280900262 -1.0238989793071918 0.1619551738874803 -0.9763079592419794 0.932535975088239 -1.2432492730499092 
1.6751940765659614 -0.5683396493485028 -1.1503910691416757 1.1296491821118575 -3.032751017178611 1.1003895535307022 -1.8539274669235632 0.5181919338535033 -0.03844918723026532 -3.012499165222552 -0.17900384696806718 2.394555174721038 -1.9303179649586575 -1.084829042924215 2.0963895727202417 -1.3719323635442324 -0.25925259311536014 
0.07822149390785951 0.8553756197486977 1.655699358805474 -2.1023049781743 -0.03339863677408315 1.7761330143150318 -1.0350670616934317 0.5581678728025145 -2.0084559350764897 -2.259351404962828 -0.3707766922869044 1.377826221598869 -1.1773866258131451 -0.4289137427437274 0.5446364746043343 0.6809747653665795 -1.0069200984581672 
-0.503274422361973 -0.0007994436707940773 0.16953972383213659 -0.8237021816760975 -0.22954018130154194 -0.9415303201690308 0.11450763064758436 -0.8309659424534788 0.7946232036433859 0.894234642635722 0.5957118416439467 1.0096146455841835 -0.799951956412173 -0.5050062097427089 0.4849406376632264 -0.6827957316574108 -0.7575859479718657 
1.1374846949652473 0.39491826132689356 -0.31082128198664766 -1.0082272939942167 0.675735414403187 -0.8474333694188855 0.1495375375296994 0.04364011422924921 -1.5138156749574114 2.1528311616291598 -1.8660569260896926 -1.534568234808135 -0.9205666468209662 -2.4192172052956846 0.16919262840598503 0.11006899997864779 -1.2977333222477203 
1.9089232017550306 -1.515133735565519 -2.979177199926758 2.0351855727241577 -1.048757305265254 1.980604484627554 -4.824961305839645 -1.4568581995075047 -1.5821964419618253 -1.920603441109812 1.0945351723803012 4.395575540386079 -1.308082052931349 -1.9078162375379593 1.1970151647987892 0.5226562054579538 -1.4484500912409812 
-0.2507996805270586 -0.47385926608836776 -0.4185965615087911 -1.4416251659403787 -0.5273099635933568 1.049847651543766 0.20717800023585498 -0.5140883629629687 -0.8756664287859249 -0.7743530017718274 -0.4265745182744413 -0.4016743868848763 -0.648858886327559 0.7176609250723363 0.6688966402145986 -0.4247243034789423 0.41864207630815214 
-0.12682009530029126 -1.1943894692404675 0.4836877213325886 -0.6898933855011619 0.51755327044686 -1.8050596521741034 -0.2557551534750509 0.4848365438952909 1.4468446272827957 -0.1702837223334835 -1.8414946846748859 -0.8325689709503131 -0.6492534341812323 -0.5438799555326961 -0.9777105119141857 -1.245086916944272 -0.652220141304356 
-2.798068206324563 -0.40054797865402775 0.8136830056605001 -2.600257469227148 1.7876636912170007 -1.8745006883517863 -0.14272526243479705 1.087822507223933 2.1578705560422735 0.395177260132779 -2.168697703531092 -0.4480951558425797 1.2242319657636178 1.2661852901369373 -1.5436897233492688 -0.1242211236303033 -0.4296220940767532 
1.5012442995724964 -1.9815612106816014 -0.9088050249758215 0.9694118768506323 -0.6044618293552482 3.068502750840231 -2.7428993543505267 2.236677904010976 -3.4072763720060695 -0.46992400572986764 -0.08169494162119291 2.168351255711399 -3.101631582188997 -1.662449079100902 0.0347816129072819 0.1141211912039805 -1.4287105633280006 
0.9742586575504247 -2.6019509718688294 -0.9560330381846376 0.4584633182010784 -2.450888647428612 3.6008978844659802 -4.030027364721367 0.8977232527930166 -3.24651603404065 -1.7855599901573498 1.1244826369921168 4.510863556020012 -3.418029009753458 -0.7932139836932031 1.223979805020227 -0.2375080383868914 -3.2501108030084467 
0.004779260644774155 -1.5033798325191776 1.2027556168327251 -2.772484317586218 -1.083528382636236 2.3977557184256764 -2.990686623981759 -0.6220185955571201 -4.052202559850834 -0.8185321534786786 -2.8651884463330655 3.2436167111592216 -1.509051874590241 -0.43551058278772303 -0.0918393415876168 -0.551207407946734 -0.8848169884072223 
-0.8256818141414849 0.7776386782240086 0.091663213022011 -1.2170699655147856 0.8008126246773287 -0.5044446524340066 -1.1621869781779859 -0.37769525649141644 -0.8367629351641658 -0.42194023086276905 -0.17305985467271573 0.4785481874284953 -1.2071779260518891 -0.3488952478869597 0.0018941081617055917 -0.3973577449200967 0.27898069763733097 
-5.419209904283233 0.8811933788825669 1.2955500749053217 -3.665647259272344 3.0321255561645533 -1.8994853599008483 -0.6633431112642719 -1.346180006755201 -1.041525381047763 1.8030335585451462 -3.2294743593545054 -0.5683690671070637 1.3467947814523435 5.041480135469058 -4.4363764043145055 -0.4752188165014758 -0.16017082492490475 
-1.1731217914842902 -0.51829283996575 -1.0389859840912936 0.21342678014435223 -0.4565794866082546 0.6914157132931008 -0.08900644110450569 -0.9126564826969248 -0.46790810832035507 0.1133964396049613 -0.8342236619594063 0.5644462825229357 -0.7481972602790736 -0.33021647839928103 -0.4276551947800046 0.09305820390644857 0.24199162640505556 -0.42106067009263104 0.7077422398570925 -1.0304956680907558 -0.690976704865702 -0.051994367113801 0.5574844174419049 -0.5368510861741957 -0.5131672265677426 0.44059121484322955 0.3052331100541307 -0.003328984848012577 -1.8405246959952446 
-0.13669507509767895 0.4208097405328095 -1.0716638925095616 0.6578607290307794 -0.22410295835126673 0.9013931177276084 -1.3027570464987346 -0.2620189676842392 0.2933093668990885 -0.5484128538167931 -0.6861039914355531 -0.48217524898354536 -0.15476799563665447 0.28112390523511377 -0.8355740345693407 -0.34927917602137587 -0.3716205124400277 0.000514087613223166 -0.8703890751040148 -0.04481373007733379 -0.11921860380294749 -0.29174262364809567 -1.241706634267391 -1.2106582295204464 -0.23939504960304867 -0.7730687410707022 -0.7252582557487797 -1.0272942800003895 -1.2404331355735152 
-1.0574326159835343 -0.38176845295201844 -0.7417680499064606 0.6231946962327597 -0.2962696117038283 0.626331939171297 0.18917209319508763 -1.3104408053248335 -0.6807139895012709 -0.3556934476400427 -1.1143208731191951 -0.9572388714310595 -1.1555875674772356 -0.04456335729914164 0.18457003862422722 -1.713154365355992 -0.2008279610875411 -0.10175212173480518 -0.5393627890716935 -0.4499060043389207 0.451838966263895 -0.28050470380583226 0.12443813781865347 0.06805141982596458 0.5070213193820559 0.454753964277802 0.5866960810550889 -0.12722290602701009 -0.6103978451184718 
-2.52616196882099 1.6946462962679756 0.9111980297353912 0.3083992141644206 -1.721158851055455 0.7907120163578544 1.4383608649660582 3.6838091146186924 0.08167368131670094 -1.768884608433518 2.047904849850041 -1.109387543890578 -1.6684445904325633 2.276425640327183 -0.17633608199016929 -1.2295038829380014 -1.037738252482128 -0.8518086891314384 0.6655440993443318 -0.9083914828020515 -0.5555228278319477 0.6351473387048747 -1.377338642762755 -1.158734105663657 -0.49563995116188414 -0.15409218401464256 0.36932978679486456 0.6772769821611376 -3.070947656770517 
-2.1856584521887448 -1.1469799895682338 -0.7308238671328166 -1.9267535299788965 -1.179330664493407 0.8639138513497173 -1.0179588344908415 -1.0444808086643385 0.586487353154097 0.9812218933295782 0.8563264164084002 -1.3121387948381715 -1.0470232759544527 2.32082543189045 0.03560018400206516 -0.9183375875687614 1.5109662200179859 0.4324339597034792 1.09917868716059 2.337635274151487 0.467653504978682 0.411395555492701 -1.1646137727538837 -0.23451556460410783 -2.3570791809936757 0.807848574074101 1.0330390754558807 -2.3752163863867075 0.608222191297997 
-1.9705079364535933 -0.05897230121645056 -2.648779483016834 -2.2544100090114045 -1.8978848647141395 -0.16799323384814763 -0.8236271950096798 0.49173153310421325 -0.43805745510202587 1.4307813776111773 1.7940317013526998 -1.8990362521645527 -1.2905854512949904 0.5542605735287787 -0.48617929635840645 -0.7872087975839694 1.901937019063034 -0.06120296446768477 0.8557849617951879 2.8750350489565815 0.39412041203891934 0.06224632995395679 -1.7934702587439157 -0.567804506348679 -0.12643140686197363 -0.5300714750502133 -0.6336315469449729 2.2598587799989605 1.2785513758332807 
-1.3300238295732507 -0.6543600854834667 -2.0052722856489265 -0.2322239109869255 0.4111905079304228 -0.7946032684754669 -0.8348292218287773 1.0199005756713138 -0.36982737225847256 0.9347365970984703 -0.9444628414951521 -1.3763454652766824 -0.6396717411469854 1.1821528527326743 0.6021967718550538 -1.67170603285138 -0.4308533782013337 -0.32809231247294784 0.2238004994394494 2.070652851519181 0.4895750476395624 0.023521619830555705 -1.8641334263482086 0.6705965651771032 -0.6483058290271608 1.4432881120709369 -0.00040369464043336255 2.3738016891675877 -1.3173257098851108 
-1.4401119382419572 0.08797943098988284 -0.2622221767743125 0.4371510368102373 0.7483633481542761 -1.0253030327162511 0.08116905809230232 2.237945727791509 0.7575526049741322 -0.5256848480434176 -1.1750357904235473 -0.7099262076351719 -0.5137377080342539 0.06296210797463218 -0.6297899941883386 0.27523293290301415 0.3176141439143439 -0.07055947246387187 0.3534243351884443 -0.7447497534145566 -0.34700733293322533 -1.2482230173230413 -1.6893854788109568 -2.5397275525299623 -0.47382138145570046 -1.9890146675685392 -0.6316560102385186 -2.7651926932538062 -1.8444382398292707 
-0.4160872855162647 0.21063404398613197 -0.44652286054333507 0.6605758906438017 -0.9259484355288702 0.8778192541419274 -0.40054576390621344 -1.2872832039446929 0.6966483893672447 -0.43303388072742954 -0.6454179666836406 -0.29969538848140315 -1.6314425664566954 -0.6372120046904303 -0.6080507420545042 -0.9024682567481863 0.3356678311285672 0.6452415561743124 0.6783350684418227 0.032186208332297725 -0.2616616078668071 0.9184891690844835 -0.6820573861512562 -0.055906549951130924 -0.5173904450945399 0.3112605919059841 -0.6050473409074326 -0.5939046512327312 -0.8645700075324613 
-0.6552110466194934 -0.48298134599871984 -1.549590419831699 -0.18460101374082621 -0.938531633024058 -0.15396748607775512 -0.5632897179076737 -0.8506786275664997 -0.8431705089595664 -0.03723980335603958 0.580263877300165 -0.3616321910676058 -0.03587216785480396 -0.8679987673981844 0.6412454879900438 -1.3823691503052609 -0.40056700884392094 0.06481016169237312 -0.5329946737540014 0.6801928587634197 -0.7840816775123584 -0.2048332544364279 0.03967932952143646 -0.8491261142601237 -0.7532334279677025 0.30733740166411144 -0.9920453577086784 0.26119511581641336 -0.5758631904909007 
0.12929343744638797 0.31190804522300003 -0.5340966020613703 -0.39424040818711653 -0.5171056933019643 -0.046520310899628686 -0.9401590973443215 -0.3719462617068671 -0.5916345997094782 0.2150515228234166 -0.33699830236341516 -1.0243578754144251 -0.31152947047082724 -0.4100135084470989 0.8719788051403832 -0.3254113791284902 0.46754124183960166 -0.4372536328632667 0.7043441690708142 -1.0800457961351888 0.006324446873660993 -0.3330555941114652 0.1595893226496456 -0.3694901135920153 0.4118218537928429 -1.3325205574445114 -1.1694800437310091 -1.2767589935649624 -1.5704252959467404 
-2.7291040501719834 1.5712723230336911 -2.1496879141449305 0.5702998141452641 0.25133712077657905 0.8332124729788364 2.3201012268154266 0.31232589280852047 -0.06453203508931686 -3.306377156525627 0.6404337223748503 -0.027516843329137747 -2.423247079847477 2.265359927803504 0.8709429091191366 -1.5563252502144984 0.06914602851322794 1.0542364356417309 0.03416889952832606 0.8825659305358072 -0.25707010390741547 0.12061168875884364 -0.490187032000297 0.9072806284605541 0.6236298118267455 3.166598521677909 -0.7809828318884154 1.3774865142407708 -1.6510213927534156 
-0.7993765848019199 -0.4097434761217919 -2.431654142067576 -0.13108375711950804 1.3650833822354493 0.14741032734234205 0.6368741792138074 0.5111971047474002 0.5690761139163054 1.9067343187929398 -1.3750339727685772 0.6988631813315047 -1.9158664730540589 3.4225210631131584 -0.633228170568783 -0.3099416577261698 0.7392348447249386 -1.0426978048508657 0.5387615213726844 -1.0685693566872152 0.2154347020434671 -0.18029610973190008 -0.7410016610684567 -0.046864317517479596 -1.7154258829009172 -0.15737241891907724 -0.7616349037273561 1.7768433407953341 -2.619832398797401 
-1.5355166659520083 -0.373639863234747 -1.87022575574003 -3.4469451646351508 0.07579047299204789 0.03748183737224998 -0.41201174484142833 -3.354260530020656 0.35262437048766376 -0.6429956300356829 -1.9578843225978608 -1.694080166440461 0.07522609120686304 0.5634890563444711 -0.3724176611882077 0.280020662076273 0.20069372519206777 0.5259620866935181 1.3882760485104582 -0.4208003396516433 -0.1900388219391571 -0.12612668583114445 -1.1416326101855494 -1.5888839672271293 2.4334324036103676 -0.6328934542554038 -0.30595112465421465 -0.996312992067162 2.7773582414932485 
-2.5156821455297447 -0.21312581125538954 -0.6312836494713345 -2.0526313147258386 -0.3918923384641641 0.7249775257241989 -0.13069838235271244 -2.3626467654708914 0.7746054060368256 -0.9346451198615318 -1.0325238708856246 -2.898806258044868 1.0324588846391416 1.652995508835716 0.23360388945414648 0.3586852782299423 -0.6295109585404202 -0.05921202324825995 1.2316189670407218 -0.3258689859240688 -0.9398365962982007 0.39958845699243734 -1.0327177888371137 -1.261139694104383 -1.7304853176069195 -1.6174230914088208 0.7124460827835056 -0.7997604073336321 1.9409103580530593 
-1.2197696782218312 0.10115163096792001 -0.578698361392382 -0.6437494250293676 1.537321526589109 0.02212631357283219 -1.0008989648954865 -0.1413647497614461 -0.7891805324689946 -0.9209352948421525 -0.655417915900901 -2.3178933552606757 -1.2878350576036544 2.265366606442398 -0.4461425019309504 1.5960480923757683 -0.2965510984372855 -0.183251124006961 -0.5067444693374814 -2.046548122002841 0.9568585031197219 -1.1677868514233163 -1.6187298827445948 -0.09183566509781217 -1.1018273146307498 2.2080837101309956 0.6428601642193827 1.427977998919073 -0.9967162852565054 
0.0004385560652973212 -0.05413834786105183 -0.5245408869534526 -0.7160227578750102 -1.4512083503122997 -0.943829066621708 -0.8694520441660367 -1.0940462815569587 0.2913285912230021 0.625684656349542 0.15408205908060213 0.034241921166829815 -1.7724555223217855 0.25470274960242295 0.5819649106137409 -1.476707931537074 -0.48592213353522057 0.12732964071996727 0.07991533608739931 -1.2256257723122082 0.06514819010876578 0.8342419864561937 -0.4849474293737962 -0.7199441644663903 -0.9596160462584609 -0.9065674929352189 -0.6134660103010656 0.142334704887702 -0.669956831038993 
-0.3333652619891391 -0.6741959663307854 -1.1308931428195839 -0.2765722810159653 -1.409929218291469 -0.2812148219310675 -0.03217160394498053 -0.7987988091892546 0.08289018064270313 0.43263125809438435 0.3978882494629326 -0.2760128333749899 -0.9633503374317953 0.475050954756818 0.34509003128689336 -1.3297195625977212 0.8131748545799334 -0.20559352852861815 -0.6975796133316143 -0.6813493961962852 -0.7160936918126483 -0.6746221436582377 -0.27449570987337407 0.18206320831727224 0.6882504400866062 0.12239327122902663 0.12448772205763192 0.2803649103807284 -0.7369387689205674 
-0.25657393523021343 -1.1217489809698296 -0.17748312802443042 -0.30978206218909704 -0.33285474458719533 -0.43209668780309896 -0.5012452754207586 -0.36649206231424314 -0.9705617471387661 0.4381536557974392 -0.1427486359429271 -0.05719427174634135 0.21690784933183502 0.20358943404005922 -0.8985163074162419 -1.0429538337568989 0.8427483873472515 -0.17470545657665668 0.43496911877211114 0.25529185842394847 0.9221929086156017 -0.5849914221455439 -0.8059740219013601 -0.48172497011188836 -0.6389389655043195 -0.7923665790655707 -0.21981327961903652 -0.06412705149547444 -2.008759898749639 
0.9345474907041329 1.1668759072711108 1.7068897900168973 -1.058994845920049 -0.4556202174786662 0.7748645347999709 0.9286884065858735 0.8456314521686369 0.30804976326043837 -0.7621786563132813 0.6238865655063509 2.9411087671300224 -0.2995062109664627 2.0935267394735364 0.30699269304799415 -2.6590237668360377 0.16527465995775617 -0.8993979218518666 0.06840907048053853 -1.0573644485934721 0.5172964399651535 0.07224670573915354 -0.27575239920964834 0.25470114626197804 -1.1325967515082658 2.423118174656247 0.17263355394668967 -1.5844229486010069 -1.0538999686933221 
3.1149241902805618 -2.5439499048522527 -1.1315873381668076 0.8754318532727885 2.242977337503897 0.26771347510997817 1.7864120306787619 -1.039837440882661 0.6898068538331813 2.4424542507810894 -0.5923562693767844 -3.4522419365454993 0.349208544711328 1.277331191149626 0.05682818364854516 -1.2130711575541009 -0.7930033631321286 -0.5262208010394426 0.963006895326756 0.05189108644073161 -0.7760689818621606 1.3009728022683256 -0.20424802782070445 1.1808854063299243 -2.440571158919987 -1.345388633670614 -0.5626753905564941 -2.235365224069902 1.007237108441397 
2.615856987273206 0.8387975027828826 -0.9359651589491836 2.2972852280702067 -1.554440922533134 0.21211040244829174 -0.7084406276054604 0.3451943460170402 -0.0229363511065757 -1.9757458250606046 1.3239813836142178 -2.1583968546479553 -3.5515387934146165 1.417480313801755 0.3544720028710666 -1.7086248303918894 1.2406463409362167 0.670691958138223 0.46150846064645856 1.9139998907767897 0.8547260775098705 0.5757221779165569 1.7389724440382899 -0.08115798971690387 -0.8355450049535542 -2.9695847696653104 0.09152783058558221 -3.187617695862032 1.4053929805582341 
2.090531945991601 0.1595866555268293 -2.097437510296921 0.9525411865442694 1.8319226735107368 0.5493482292628685 1.5914006840867794 -0.003005651293163348 -0.685129844962318 -3.5786564225255266 2.001585545908593 -2.8847754338808578 -0.22733815304722543 -1.2543681966430127 -0.26480817020689645 -2.304136308375583 1.3218780055396362 0.8168468778743807 0.658801825211078 3.088874800043079 -0.6542908109929342 0.792861477730344 0.8495455736693723 -0.5564562322393714 -1.1089230872162856 2.6046602847477143 -0.5195586257918432 -1.1666356263731124 0.4386674983992557 
-0.11869935479392693 -0.9150089150179758 0.8283740056535859 -1.4935369613577334 0.8879553829412161 0.09348308068856552 -2.5712321629300403 1.7389142163807922 0.527297766753205 -2.6572533094693425 -1.0631893842747584 1.273771691093299 -0.6637187964031314 0.8867583116683285 0.9161656668857977 1.0435796053114932 -0.4507518027373712 -0.11599016236958132 -0.5419258490403279 -2.381220680317243 0.7433492448216641 0.2788811533482606 -1.2397254697548594 -0.4768650632680923 -2.3888083499047994 0.1679482614349804 -0.3594912372876944 -2.9851479033495276 0.8946012946205111 
-0.023188080486335808 0.4434769048724747 -0.38810468604987103 0.3462293445183557 -0.9195720856193942 0.007466563004760459 -0.5005769655725225 -1.0121281770023225 -0.3214547205801196 0.6648761694375448 -0.4682740112497671 -0.13800034577927425 -1.5898402107850749 0.6332436668902425 0.39540751211698394 -0.7691488274511513 0.5088425571001265 -0.5559170569640454 0.5576118280749066 0.4149332326854747 -0.9230776014303653 -0.0026658108805624955 -0.8384082751756258 -1.0433520465056931 0.1525459399756687 -0.8657630323692433 0.2266021809728234 -0.4355173157252781 -1.1031340419451132 
-0.17296236311290994 -0.9058647153613222 -0.5522229716964386 -0.47099185681150985 -0.5639611253856176 0.6148514700735039 0.35734612469834776 -0.05459351830156153 0.7742225461306501 -0.17076320043807786 -0.6848197700048662 -0.11143920820189604 0.12504215443706773 -0.45711786822083084 -0.9963229212027852 -1.3327799284387272 -0.4739930653628922 0.06990251788117306 0.29453238003893306 0.14798741143692518 0.6581354779234171 -0.35268820802197554 -0.2345592968439952 -0.949318728454635 0.7118670210969116 -0.6619664020985694 -0.3276261697744195 0.265806431750619 -1.658125842956141 
-0.08647485691106875 -0.31980174349518103 -0.9416500159730918 -0.3778655374025641 -0.7913354623006985 0.9288235423523447 -0.6381979901112232 -0.958650900488813 -0.8074819930497642 -0.35162915610855416 0.33983826672347645 0.04330715655430947 -1.2784982969571939 -0.41495585053392087 -0.5564616514868747 -0.3969024666340544 0.7294728519406037 0.1953254710839315 -1.0558191095374703 -0.19949122003812098 -0.16690419364951756 0.33057043778740935 -1.1040793835839964 -0.3678441722249365 -1.1201850627625949 -1.0022990226549526 -0.732653790885383 -1.0270654233729817 -0.6048820864646804 
2.9570444073888544 0.6470907480148369 -2.559260683310196 0.14704548902904452 -0.4586034727617557 0.9699541953410638 0.07608852947996408 1.404826160513701 0.4864328716951182 -0.8273050273720475 1.919452840401881 0.3820609757797206 1.115359348644184 -0.6720437383653269 0.20589372613958593 -0.8369570150874492 -0.7162084360675777 -0.8967407710883776 0.9154112487043005 -1.5210360658654452 0.8166848055352981 -0.34750252027744294 -0.4114455426747952 -1.0589531335747089 -2.3730162171799116 0.7997453351458514 0.5458196650666636 2.481818917849816 0.7646774112583642 
-2.025964043217273 2.8297478494365516 2.24888964886121 1.525519897534785 -1.9374741504427095 -0.004685622066811594 1.2979299868522682 -1.9612923412199412 0.34063075980990654 1.6262462660777157 -2.8712971276467574 -0.8591591141035358 -0.6994896637562021 4.802270809794368 0.29413339873576566 -0.392979865750713 -3.1878474287555525 0.356222087038463 0.692866926374694 -2.1719417048706586 0.8784954255060062 -2.7078057491142045 1.4363516064729287 1.3469314193494877 -1.04360757179568 1.6136955797137549 0.3691321945083267 -2.312809341334019 1.1193591405821048 
-1.1570022465425809 0.13094107175790634 2.006729260350786 -0.2766066771275708 -1.4496620762819992 0.5325666556782648 3.9055223685291667 3.1759937703602703 0.8462541057479123 0.0931065218745481 -0.6882322674749314 -2.8917652490988655 1.893404634377699 2.475519380724413 -0.8046467593629387 -0.3780050023765638 -0.020844922889783676 -0.8576607648192882 0.1826175138380111 -2.3223443845769327 -0.47840889109619367 -1.2242478704108013 -2.499484441761278 1.6521257107506817 0.9650895168534165 -1.1502679393975628 -0.9864350953783229 1.5739537831486416 -1.5821272979075578 
-2.4249524752159477 -1.4638758081583327 0.7522841283989506 -0.9201651410579426 1.15453094391513 -0.6317535857640151 0.16841943914820534 1.6181152011186974 0.0735298573141004 -1.5331239294528056 -2.0134759387350276 2.5679018325957648 -1.2348394246778274 0.2248027248894207 -1.044365272221326 -1.2718029639147457 0.2807670736164044 -0.8016755074930795 -0.5195255567256447 -1.9143175298871276 -0.35113773323499864 0.6407269187044891 -1.911085886823896 -1.767247046952078 1.7184072339909062 -0.12080451567806762 0.8238522069580536 -0.9289885570588359 -1.4096425207491328 
2.5857242528821183 0.4808637466874008 0.21125812958987158 -2.550602493557584 -1.7461828608100722 0.5819185247654436 0.4854299212361355 0.06205957047341207 -0.6981742712248007 -1.3564797175267747 -0.01908820872926677 -1.4661958780727045 1.4933067633481873 2.6514120416624225 -0.6875015920888616 1.7999860854927698 0.3887248490749179 -0.6302894907233098 0.026307634428952977 -2.774986407845213 1.05956819928781 -0.8006382168953159 -1.1657689373069982 -0.480225121750035 -2.097537614712582 1.2947954680274274 -0.24002535013424384 -1.1784113647884433 1.2881657355151312 
-1.3926462513371534 0.37407677938464845 -0.4610182050425437 0.2482670542647915 -1.2590166970327286 0.2272074377000511 -1.1464535031457233 -1.0879747438802112 0.1989726982481346 0.7131958464158773 -0.2546515597853026 -0.8680278954034303 -0.9091982012577577 0.4069928372426654 -0.6030152479734598 -0.8821706072166626 0.277833566835324 -0.08411810978603183 -0.1861674636135411 -0.09881223299804029 0.9627769871165857 0.5212245020853458 -0.316062995150597 -1.117853229565493 0.23269147557508266 -0.4875644212129386 0.5787369169665518 -0.924034343928599 -0.5010655089251811 
0.21718293745504086 0.016322249409865368 -0.8893926345340067 0.3930023842275148 -0.9762304881017884 -1.0537105878163773 -0.9007438436685885 -0.11697063964491508 0.667682510862003 0.1733969627333301 0.34737100038438207 -0.1991982000164865 -1.0732918435550445 -0.4971301693294427 0.5202639062038606 -1.8378277672100556 -0.2607612987302117 0.0375372067757859 -0.3961754781252538 -1.1565002917362748 0.1603106107829436 0.17398005901516347 -0.9232416082423586 0.1966154307263875 0.04808653238063263 -1.2627117155662841 -0.33572754761523116 -0.3610356081432558 -0.5143462193079991 
-0.5769466342570125 -0.9238160139287502 -0.5596377111502748 0.3689229034776605 -0.25538922271039927 -0.221849369477141 -0.7101670389208463 -0.1607524051354474 -0.4799949437569434 -0.6537233671096944 0.37209133552212426 -0.06713588552676966 -0.5098896213630977 -0.8056718727927009 0.35696925403534746 -0.5188268720544067 -0.8302714416839667 -0.6318610974252522 -0.29729889042288893 -0.012715268431383485 -0.05894642980186729 0.2063520898004908 -0.12852116741369055 -0.33973813264163033 0.08597507770370608 -0.6297162097086892 0.4002777501455092 0.4276384818010356 -1.705117800232941 
2.670353265585903 1.9991357816393414 -0.49721710964585 0.1927572690698348 -1.874433490091625 0.4136365503592497 1.1205110572736265 -0.28831877477568296 0.911146761061959 -1.193286550079687 -1.4175079849522962 1.1412211813595572 3.0358046923597164 -0.6542083073804178 -0.4587653654084938 0.16487247495579044 -1.4684336848091202 0.31576860779461924 0.11394914950791293 -1.8156632842548068 -0.19600795232253834 -0.6385084332074916 1.1868097665472555 0.15129121589194086 0.8028349464026208 -0.7788950819181597 0.44448912824090137 2.013540680630696 -1.2131338914479646 
-1.0002953810479271 0.8449968136070335 -2.0541478530423456 0.9164248071966995 1.8349546790890594 -0.34893554262775295 2.081808120004965 2.0336760485830356 0.6878640736243109 1.9130350201309105 -0.8834645581416611 -2.084176668737086 -0.5889342497234579 0.2504118496238605 0.07708276762586194 1.0949598634122955 0.8446751173404147 -0.8654368503218328 0.7487012701546917 0.04794747641828265 -0.07707944137415744 -0.5143066106019776 -0.42657341082415723 -0.9453365819070406 -0.9286831142889586 -1.878129580989112 0.2412893000922354 1.8290584673369554 -1.8913137972382992 
2.250898692198305 -3.0021156769727586 -1.021573150180905 0.5569426894893392 0.9039733009620862 -0.8962801231202714 0.21883827543553086 -1.0405668388798401 1.000272463108159 -2.140037932465172 -1.3935071101361083 0.4342360425365453 -2.2249927634493476 -1.314464670206941 0.39870551215779787 -1.7215615843323615 -0.8602241212945567 -0.04987805910079311 1.1313823923426718 1.0870355715657738 -1.3433093280670954 1.5818177741973023 -1.44464605177721 -0.5719041264040706 0.9537423530458924 -4.832785735455496 -0.6482839921342057 -1.2423064533121133 2.7679279925029294 
-1.4697394645434922 -0.5839702589876749 -2.2257812551028597 0.9632920407882609 0.35431882740776344 0.4513225674827278 -0.6078813238215136 -1.4675090651983784 0.8488746671016808 -1.743130101634876 0.020939213102133567 -2.774047101656803 0.5060708937703975 -0.1957963379681641 0.9971147390769587 0.28213261352374897 -0.8500545439794408 0.7808434405532174 0.5644694349813824 -0.4481997149049029 -0.6557363019689603 -0.4652245234179116 -0.021648674869994586 -1.0587188148973108 -1.9191102493954961 -1.8811750063868373 -0.29701679141795767 -1.085341078710076 2.576605539076029 
3.5568606756358117 -0.6274026164983655 0.41218528466627186 -1.6059463278375246 -0.8464025582168336 -0.687922748360556 -0.6722682077157062 0.4076049930657779 -0.06960472062158421 -1.2002285934608452 -0.7184555914729277 -0.33192227596411894 1.0757477406191178 3.0567817144972715 0.5097874574273985 1.1374566167392446 0.37449294332092764 0.46688920034137943 -0.30358044372352944 -3.433610183329526 -0.2066483588556945 -0.8323405415402473 -1.4394792520590483 0.2008620834943786 -1.8110535947536335 1.373512387667873 0.8156312379886976 -2.568499515925186 0.4777157514340309 
0.5088339339256936 0.5417480740598741 -0.7966628231630579 0.6038533493881365 0.28524376478820235 0.5551575378807748 -1.007354058772289 -0.8506414604132527 -0.7051966619487553 -0.06301376819520385 0.168437683075122 -0.7715354438818278 -0.745640700089438 -0.5423053905964019 0.8028445707430393 -0.7889297944403102 0.056956746011392216 -0.7188846810387532 0.6436607201572004 -1.0713244667596649 0.08962585291668551 -0.0070212491111294574 -0.24850230180773558 0.38385946946237637 0.6861756502945715 -0.8940379804326412 0.32781519470619314 -0.8735264318262694 -1.5857384011085636 
-0.75791809792485 0.3912680617080534 -0.8813793045537544 0.7147310977435078 -0.8926092856527832 0.4599756194436051 0.11041378732462082 -0.44474892122214116 0.3009002377195083 -0.7332175334121338 0.013244880698949963 -0.07791872524621295 -0.8454557602282443 0.2611823274788192 -0.1157519348087265 -1.6185625260504897 0.6855524063148537 0.5988080404708257 -1.0885358600130821 0.45025897475615617 0.6741306147735397 0.2178835769409228 -1.450909570727123 -0.8024886090781475 -1.1644000966632813 -0.025667027971483142 0.4547186661507371 -0.9012230077821823 -0.5670210027156356 
-0.07052162697999022 -0.3387403183738628 -1.1994032354688817 0.8433284145914347 -0.33396743279996133 0.07014804700643029 -0.7746963347376952 0.20011866619141092 0.9472360789867669 -0.3876684065202531 -1.1023670100973413 0.5275449844106266 -0.31510060110360055 -0.4580609475239366 -0.11967493399192844 -0.2589819828871062 -0.5896334794143452 0.27629462594946286 -0.4686198256550466 0.38663791659827673 0.38586134024262003 0.78319065828416 -0.9092207188331678 0.2152579908715252 -1.1785921862041582 -0.7850246110223861 -0.5409967405869776 -0.8710138937813379 -1.5403349762904845 
2.825326399545457 2.489380369835284 -1.3380443350662004 2.0224823959263825 -1.1195171933583383 -0.8768304869732312 3.3388892100604544 0.35148243190425504 0.47128799681105094 -2.799520557823295 -0.552480824249301 -1.3747849898613065 2.456479764599678 1.9942712048212765 -0.012201621056969545 0.8957618116940718 -0.9771924338148998 0.19900920055196888 0.9331857441674941 -2.1272935761670593 0.017511342237386898 0.7600116773736386 -0.512352174588575 -0.6541563808760066 0.9248295976046158 1.6632295235781203 -0.3621680826175036 1.2603162174469635 -0.6659212591276964 
-2.6578731927874033 -2.8449352321260117 1.880839030042344 -0.44336799290006007 -0.34915491703835555 0.264479360066156 -1.620762108225438 1.4800057235835367 0.024571255941786187 3.282267752674052 -0.024475812901254557 2.0245287038045907 -1.0348889306361821 1.5323035520983779 -0.33587423445493025 -1.337652129562023 1.2619657782994895 0.18417709891540646 -0.2613774168821486 -0.34198711380846786 0.4387871223967525 0.0036127568506661325 -0.8918188278317679 -1.6496243598680689 -1.4044154340149377 -2.0127864970236664 0.1978293293263677 -0.9622333623760339 -1.4076341862202493 
-0.996210222031845 0.6987110273441367 -1.345663043594454 -1.1580772416840588 -2.764725266467646 -0.018760429152788624 0.46894156663729547 -0.9326366665442423 -0.22256839022686792 0.23405404352259307 -1.466273879154166 -0.1599856528690851 -1.0689418556792156 -0.2488880167213174 -0.8649918163173124 -1.5677837160302586 0.1535907811815144 -0.27852583082200566 0.4839863490747499 1.6351336812974686 0.6117393061536894 -0.13912257437616607 -1.113156676400043 1.764565367240877 1.8503580617212732 -1.9483516266276477 -0.43984158668262324 -0.5130946649724641 -0.7824212518098168 
-3.888582947734235 -0.22525121707532625 -0.30048377982526436 0.26562025910587345 -2.1302761868005486 0.8754148799060497 -1.0628260931973872 -0.08271993810819986 -0.6666851691320783 -1.297284683115727 0.32910723166995304 3.022540930054647 -0.08748717558674632 2.121092595952271 0.025138916725260276 1.522820997298229 -1.145217529142458 -0.45944322021496553 1.6114927623669912 0.5105269417748458 0.05545993311263795 -0.899285204634018 0.40091248730254575 -2.3572935799056745 -1.105789240748814 -0.9427742648370631 0.5248474854277271 -1.1335799974599554 0.18957277215818255 
2.692271876142377 -0.0736262707155151 -1.7023653169109023 -2.6506177507571733 0.22837042043340325 -0.6525380256173452 1.9171148285501325 1.0302561537022696 -0.3612391903415393 -1.240845748056002 -1.0081647766064519 -0.7356554481368749 0.8292574231791394 1.6031241351645646 -0.0604758978468472 1.8378010925302215 -0.231697161771967 0.20524305771070606 0.6801645403548185 -2.0473170776793372 0.2735225587735714 -0.2163287130229791 -1.113149636562943 0.7208192963369373 -2.214841936862821 0.9135839803257385 -0.14215371323996773 -2.670591372728328 0.8065441622925023 
-0.03976534902866407 -0.4308106515559138 -1.5373115568131006 0.14029443983479573 -1.3592082935943315 0.6242572038132133 0.12903467843410446 -0.43708920410876384 -0.937251020508787 0.08857701325819152 -0.3510614372556925 -1.1642797117038308 -1.0018998972236357 -0.46100969075860104 0.5380515481672148 -0.4785731600705308 0.2741509584858036 -0.8054601724678278 0.014303688701668519 -0.30105702625186903 -0.43494712299045807 -0.809120510898695 -0.053731392049990216 -0.2846096976336891 -0.4332385040409684 0.17344089118668776 0.28258171752140476 -0.03908225838403428 -0.34028645832827825 
0.14598000051081117 -0.07219443336624087 -0.8979161686973542 0.03548342484779692 -0.13269919360408272 -0.30777203411557186 -0.8589035692458927 -1.472167079042884 -0.7567757027721944 -0.8315957365739122 0.5574812387807909 -0.5638934299157198 -1.4886563359184557 0.3598529992510038 -0.49906126079135565 -1.5672991776767657 0.041943170225409596 0.09473098034805494 -1.1422677790643831 -0.9938642042934615 0.10263503131626066 -0.594137976880197 -0.13795765206487354 -0.4592716223004478 -0.09576293710862203 -0.8333050470940208 -0.07860566417070669 -0.2624454433369919 -0.41984811487760976 
-0.5269250818249428 -1.0700489861484466 -1.3229843913505939 0.5236951400416431 -0.9982298533838372 -0.2371606603467549 -0.418071227949877 0.19913723774187495 0.41830648225916234 -0.9343617708677576 -0.08755482545984035 0.5082085124700676 -0.5818343633552006 -0.4382434843504743 0.7070147949663262 -1.0393140031290442 -1.0030008894980997 -0.9424724448366258 -0.9703831005397967 0.5412120246661934 0.7695024531147563 -0.3390843650907511 0.09052060946184887 0.3630890792993875 -1.0625761097439141 0.21757224638787181 -0.11718447399470289 -0.44394308158117474 -1.0015545657002065 
0.7953524057765515 1.4416642847545642 -0.7950543851672177 -1.232538715744226 2.354566294832115 0.9615027512344022 1.8169152497284105 0.6027113055569845 -0.13910590138244663 -2.611860954263197 0.4016855263690323 1.574536088791704 -1.5553237529875634 -0.4691306746974928 0.45055561244840286 -2.5648375193608874 0.1923162641062915 -0.8865761624282531 0.21775164329889296 -0.4478669450906033 -0.09875557878034753 0.7878499887987238 0.3270649707800031 -0.42239609398576855 -0.5727683140004983 -1.1531533281359383 0.5432104455743083 -1.5409051599822443 -1.288786260129322 
1.3435723163785296 0.022469354035404333 0.24133062814685194 2.3237050322990904 -3.4079831357184966 0.2235865928183838 -3.025951080053389 3.446168731856527 0.9309332949881975 -3.43101402897497 0.851563746531989 -2.3124234789033475 1.09765702731448 2.1062454807668898 0.8145226169908991 0.41635654893289176 -2.346065345008903 1.1575430345587845 0.6281620487394548 0.46764289205865245 -1.190880754826093 0.3900059015037758 1.9744993919411942 -0.36441954680054717 0.03939995693722211 2.6382086110575944 0.7449934998392315 0.884973059510577 -0.5431011249157384 
-1.6846990487179005 0.3736701399202031 -1.073855714410523 1.7090010598988634 -3.694202494255086 -0.31928967739012093 -1.4906833859969735 4.512827158037449 -0.13667903735467468 -0.5491986631750864 0.8577574009778761 -1.3985775705359682 0.7212736276059137 -1.8421764520955013 0.5426250153676279 1.515666413061499 0.38514789063995225 0.7139884849367102 0.45515827912632095 -1.175342756353671 -0.004662106460687005 -0.303881807411184 0.42533218753991253 1.710542278736035 -1.1701923458389079 -0.11369840129768038 0.4602757058028577 -1.6173945385751718 1.7561201800918065 
2.919687846050536 2.133494227106324 -0.029496780483146846 0.7753955715628557 0.9951127420997409 -0.35984700712825424 -2.0815796998723672 5.1190682648647226 -0.2331238179033411 -0.927484382734918 0.6096444068895244 -1.9475690599155684 0.8038470303880095 -2.24816248115593 -1.0515323645018364 -1.5792382792954203 -2.090269369275634 -0.21212299485720565 -0.02067238883807328 -0.24362311044270515 -0.12841612565400778 -0.555184827995578 -1.5586883638492068 3.6662529260954413 0.10122505187872452 -0.748773014276297 0.06231009594306274 -0.8099705832047956 -1.423464452839531 
1.3322028961878354 -0.20291786784661345 2.1579622897745767 1.189037242909494 1.6985521111002002 0.3632692287787692 2.3537094119354323 -0.27726782655702814 -0.04876156714359806 -1.03117819528643 -2.373715403780741 -0.1130319800993967 -0.5044384348269947 0.2620464821183342 0.774122246257581 1.1977591865748904 -2.12103914507523 0.691813378047343 1.1625765717192496 -1.4386943066430473 -0.48947590923515877 -0.026194290222845678 -1.3205147190775572 -2.4096428807686023 -1.0865667217840913 -3.9810844191954495 0.06262774231740863 -1.966408914062318 -1.251340364331799 

Epochs: 2500	Train_dataset_len: 32