Layers weights
-0.3734914841551491 -0.5946616406578902 0.5492307295443579 -0.3461165239994689 -0.8666392021387336 -0.6813566480677121 -0.7812322276793755 -0.9953501587681974 0.7473855619165408 0.3143146711713243 0.19325589037287538 0.031780453667945664 -0.39710575303863466 -0.5196984484547633 0.3012804277465294 -0.8957863799309632 0.8728936361171364 0.7574189737221788 -0.01783141252758491 0.496264004586557 0.12180771323717217 0.2728577388793708 0.11707833340236869 0.3013857307208012 -0.12100598423615772 0.8189434963893829 0.6284217941801309 0.4872926039520212 -0.7662397507684395 0.14365885357688807 -0.15535789141411713 -0.43259714141000827 -0.2647251822190231 0.9582280759186961 0.20878988594516135 0.6773500105565884 -0.4393724149920502 -0.2803928730427793 0.716062860789453 0.029706896989679946 -0.24257778691887832 0.1296869976840591 0.11728731192750219 0.9240230117280654 -0.5109980170739615 0.9122049886168142 0.23178033543174412 -0.23166180305813308 -0.8300267702558783 0.11977294634877356 -0.24959719917325485 -0.23420843483740955 -0.965809917043548 -1.1123310799099866 0.5605939764475526 0.3756157885465744 0.5193810044061256 
-0.3427502982913786 0.993985513789541 0.9409969798098599 -0.3236451774602626 0.45255789407986957 0.4033852663885118 -0.0026791945475401688 -0.27481623965271973 -0.39113558946305327 0.028576095060020457 0.46664283221170333 -0.13661831471584668 -0.2743236970512253 -0.7951419255754227 0.014934488664702442 0.2201717201908112 -0.8807036535679671 0.1543805754832248 0.4097883225020982 0.5284550631345478 -0.5227441217855467 -0.6325055226468366 -1.119802092179854 -0.24536911789172972 -0.38572549385952226 0.5536312545821847 -0.10624716509941856 0.9027432658190727 -0.5182556879619039 0.804347889558651 1.2218418473237955 -0.31452370127873963 0.42543576854410037 0.7657388529290627 0.5602635400382847 -0.24165045661048243 0.6965034023662823 -0.8071315825853312 -0.5463209569272724 -0.11714409963959957 -0.8508087921594187 0.4561556732485328 0.49808049512130714 -0.21592832229394449 -0.7082516986346284 -0.6659077967965162 0.4929915005653968 1.0090364741654019 -0.8157935829627514 0.8358233291001456 0.14852016510567556 1.1200358710179026 -0.640196401615161 -0.7504896541387442 0.6534138831145793 -0.22864662078052098 -0.47965032723351714 
-0.6137051957713195 0.09787505885799234 -1.6193305023396363 
-0.7339586144105951 -0.34457541268787817 -1.534361158883611 
-0.4313262139204978 0.28810367680036025 -1.7088695206119837 
0.488966861942329 1.1521349342205138 -1.5637919163680098 
-2.351761427193134 -0.8992819114443322 0.13638321249638874 
-1.8373733818598745 -0.22809186325134714 0.1262447898287202 
-1.629351686872741 0.19487662305031234 -0.3788800955625524 
-0.8393824843949443 -0.4038839877859123 -0.9557590371541492 
-0.8934462957402008 0.13134630510830683 -1.5710184766404176 
-0.09458236233495187 -0.29673855652727377 -1.8028056731288058 
0.04263077133429497 -0.8178093714155872 -1.865268687171956 
-0.054135115545371114 1.1421129603412206 -0.8523045052672221 
-1.1031773365080966 -0.42873133999203117 -0.2820812317516074 
-0.9483423914405326 -0.8915314628494962 0.10391336770028407 
-0.5979070350995729 -0.45651282619113553 -0.5664958242667282 
-2.111277310095472 0.8437441796086456 -0.18587091730347025 
-0.7437277615228508 0.28820903759820826 -1.6136266483136337 
-0.6279154493339855 0.6112619693154533 -1.7374026427950218 
-0.1332945579584807 -0.17318106629982138 -1.7898843659899486 
1.0175737053198852 0.8008952618135454 -0.787598625065632 
-0.27423211535045006 -0.4726503554132947 -0.13062151595235458 
0.2617725102551634 -1.326663276230157 -0.07912376173485719 
0.6480840687137751 -1.1168145212663687 -0.041085438330147245 
-0.3293210601088241 0.32825668522771795 -0.21406335404111224 
-0.7982470428198336 -0.1275917154736528 -1.535526832713875 
-1.4430353598040924 0.5021550955958172 -1.5794994472233725 
-0.8912820248221568 0.4060526857880193 -1.6183035094652254 
1.792694474118932 0.17143485415383236 -0.928437223495833 
-0.54863178152002 0.006687752147072855 0.050667824893829295 
-0.7248930441836873 1.2717600081859441 -0.22435203201394308 
-0.3210373815178405 1.572527360582325 -0.873426949091278 
0.592558782325525 -0.5297181944206942 -0.21045105959279314 
-0.052353764446341884 -0.11084211707883102 -1.8475371647807062 
0.09373612699799361 0.3993668842092509 -2.039469892386139 
-1.3932624206111444 0.3412586776287238 -1.5348488289252267 
2.3030843556638496 -0.19857360192526466 -1.1005160805329486 
-0.648284814525115 1.687074780832048 -0.6316663795571499 
0.21111788701197853 -0.7773258247884289 -0.1436305128589347 
-0.13775258587206599 -0.7854587261628556 -0.2527422101929462 
0.6013504986470835 0.2542528467801512 -0.4556889103001021 
-1.0509220006370203 -0.16721392143071884 -1.4914769056364414 
-0.8319496585199535 0.045628804711026774 -1.5516062534425719 
-0.9188162359034516 -0.7956875568058123 -1.4756041914879314 
1.656080669208806 0.2970622338850204 -0.8117580512789829 
-1.0540062841160096 0.7231297663722283 -0.3406239494072712 
-0.22873923797427498 -0.09753424326858115 -0.6302833135885346 
0.2408818320064997 -0.41501218612894614 -0.5499687816910612 
-0.007673037615874231 0.5914385099096306 -0.28493552151353596 
-0.3754268933286752 -0.06697314450191283 -1.6789531825862631 
-0.8835661692530661 -0.49345974272052656 -1.5286345964038772 
-0.10911832966132869 -0.5612523545517348 -1.7820492959284435 
1.3133003078497192 0.8328818048716873 -1.318062551314823 
-0.08579466046739737 -1.1397744074672627 0.3800793755990454 
-1.0055701632980383 -0.5856298815040808 0.973459108796211 
-0.6947151117331574 0.5585353308397275 -0.018397123245104292 
0.5273038805311975 0.730780364078389 -0.8296283230362483 

Epochs: 250	Train_dataset_len: 32