Layers weights
0.35169142464221426 0.8223645442188683 0.8381476920988931 -0.09577145714673752 1.1592968838683628 1.5205834820215938 -0.5195687880146127 -0.7511832023301392 -0.8325857458575661 -0.5033662734158333 0.6442637943325344 0.8559852471189734 -0.9214025383069309 0.6640016046610074 -0.8443293333143496 -0.9081570061600647 -0.41129476746801585 -0.6747815714302774 0.6906073648017965 -0.9505254962944035 -0.17165048761572133 0.5190938704179232 0.03330259666056999 -0.20319773871773103 0.524586168569406 -0.09428800717041264 0.1431077029780108 0.15980099367083622 0.32932038393449525 -0.8614515800697622 -0.5545380409249582 -0.9956468332442224 -0.5864821000194769 0.327921456968598 0.5598751605376964 -0.04370938810950372 0.38531913588571404 -0.3344435070108537 -0.5215939952820735 -0.8027471861159756 0.2219103901334305 0.45282753055565284 0.4406224681087867 -0.0014189805650012734 0.8599427597925166 -0.5059575329802688 0.2990451205522602 -0.7623745440245262 -0.16750615981143624 -0.46845723650814586 0.3239965072963331 -0.32209384890296194 -0.052122992595464 0.023932963337922365 0.14213276651285012 -0.2960872570036873 0.46666204659376 
0.8386476053470395 0.7892023555717422 -0.6618008199671466 -0.0830225340368 -0.1695843303794705 -0.5435013964078327 -0.8623833596478663 -0.21556853220961844 -0.9467024699345548 -0.5027824569939643 0.08686008842406245 1.1985503999518072 -0.33868931181689743 0.12814995978685076 0.04252624655450005 -0.5898543790892575 -0.3960071429660408 -0.8484203886548112 0.8605521935778022 -0.2729818433500397 -0.7669268391280942 -0.4725611318439589 1.3190417932208331 0.1721294203867883 -0.6342175708198596 0.07494350135422989 -0.10316293372817364 -0.6628466497269554 -0.20241603902657604 -0.6053906500082241 -0.59497871022193 -0.570955605222742 -0.5060159233989205 -0.8272429225451885 -0.0006163861525094738 0.6610871186160395 -0.1151366076984019 0.33836495917129455 -0.37519523019893114 0.2600374204820333 0.9778401069772433 0.4606826862780402 0.3365641398321697 0.6566930639415736 -0.6331970340311177 0.07021813270635636 -0.5437193491193141 -0.29158409436276633 -0.35132317658023515 -0.2707049873829137 0.17982135350592032 0.3763655613206366 -0.6187549875996127 0.36220345108617513 -0.8658082647306957 -0.22505856794787776 1.307311563052045 
-0.36909471196055954 -1.399659860327588 -1.71778183906327 
-0.9980775005300379 -1.2906310825283955 -1.6451217918220633 
-0.9005548577693429 -1.3181506099581517 -1.6494898614278597 
-0.6822258305676606 0.7489534368922794 -1.1568911986452075 
1.354156405387701 -0.4346015713377069 -1.0756421530133162 
2.3091211660581594 -1.1488639047918447 -1.032839769402364 
0.3934268476775536 -2.5701047512378437 -0.07776783363543967 
-1.83190688204027 -2.4855717393873618 0.030024744276627324 
0.18024200148027777 -0.7172363695188331 -2.0632017027740956 
0.03689852244808392 -0.8238134119987295 -1.9561893387348448 
0.00510029627639404 -1.3629187919195884 -1.8493582432305808 
-0.5536341169257513 0.2706322972319405 -0.463975314724584 
1.4075841177452189 -3.330182854649009 -0.365326162961354 
1.643793252866756 1.423881073378935 -2.304433639164068 
-1.5327993770107358 -1.080896240882621 -0.1707599833820311 
-2.177104692340983 -4.021859934316768 1.2643788477535156 
-0.9204734812029219 -0.31833216598784797 -1.9482549222305072 
-0.27497508617599736 -0.1278922687372838 -2.1767341279062022 
-0.09618273327524847 -0.4040506107071244 -2.062388194976023 
-1.3210636504539686 0.5201496138933158 0.11011033661882268 
0.16463207235108185 -1.8425795732245123 0.3548086436594313 
0.23823672026648068 -0.10443890385357923 -0.39339955037652635 
-0.025890673123228073 0.933516144453294 -0.49193707752225035 
-3.4267687235051096 -2.584345940399682 1.8949598378469306 
-0.9444574315540994 -1.1261827994298006 -1.6738972509265988 
-1.0083430267072033 -1.029904821387035 -1.6853470202713168 
-0.20433958168170954 -0.7466029537857589 -1.881836900857512 
-3.1798894724732856 2.983369034418408 -0.914993334638418 
-0.6169435847990602 -1.2220725639571375 0.6136732222780963 
-0.7120900916644607 -0.43883166683412705 0.26634476278569547 
-1.0121637526897682 -0.9939201878311772 0.23553020590849305 
-5.339747349328585 -0.09833343965555283 0.9601695478211851 
-0.17841680278607766 -1.204201115143457 -1.7963495546286161 
-0.35207377416095376 -0.721800405446768 -1.84783296644426 
0.103771232237298 -1.5702429669170868 -1.8800559883444075 
-3.412244347164356 3.4390809309463317 -0.9343880066401732 
0.3751772601303791 -1.8634526053430143 0.11298939640837136 
-0.27250714188854197 -0.26098202524851916 -0.08626496347741404 
-0.524809399639897 -0.4332889898179125 -0.15864855286708357 
-6.559305280962046 -0.29277123657990284 1.1818262576372431 
-0.42702701921799857 -0.4866448249320021 -1.9256137136666016 
-0.7937278217284949 -1.147326956612683 -1.6814103938070717 
-0.15120572225986093 -0.8812003742252176 -1.8626563683147321 
-2.8930416889980437 2.6539136474442078 -0.5275240929281921 
0.6894521663671679 -2.9903677737729613 0.312925866294878 
0.5948528192508135 0.39827045567314573 -1.2617527128332098 
-0.3836757044814244 0.02606559892020857 -0.45916152159527845 
-5.470244683061306 -0.49769889487310975 1.0306699313398946 
-0.49749151776332906 -0.5833118055582458 -1.8679747913757234 
0.25073185838853035 -1.0216346120123 -2.030395056928637 
0.016394948030254805 -0.9428829457070426 -1.9186929534860075 
-0.9720879999998244 1.0950864363238133 -0.6263232852144052 
-0.8085929201116799 -0.8832222726659902 0.7520899485148991 
0.29072808667471295 -1.7712746696622739 1.2699576626184976 
-0.7257502833378182 -1.934245597477065 1.1510713365910938 
-3.5747129025627076 -0.27836690204299863 0.49308126105731737 

Epochs: 250	rain_dataset_len: 32