Layers weights
-0.0962956724461499 0.44512884353625415 -0.7658681041613169 -0.023366999473703017 0.7126962270785773 0.4224450778182522 0.7561269250940893 -0.1679028230796018 -0.3270379194559794 0.9866579800984223 0.5056336656876341 0.0014652688832049396 0.5875540854273369 -0.7200917045769912 -0.9567453655679402 0.5547436258109121 -0.7959319396503091 0.008485077265427465 -0.7553432393864645 -0.07637696265645968 0.1424664114837129 -0.7391016107784004 0.7614914643973583 0.05220564697613805 0.11427450105805703 0.24942601299112432 -0.5123349415698819 -0.1063882354559236 -0.4461668065697636 0.5729517778279924 -0.002254553436412665 0.33438714073094433 0.44646006133317084 -0.0009858142298209138 -0.8862414534721594 0.6152231003712615 -0.8191450285841326 -0.5083875203612552 -0.34098893191421265 0.3015110481714362 0.7842455239736885 -0.293086276868356 -0.5229325651398931 0.6448408203996145 -0.3143393179862436 -0.6497057673175023 -0.6549253205947598 0.17465725069575905 0.8743682320231274 -0.8127058121367696 0.3915039166542127 0.658648094107666 0.24486322550826645 0.8122632400407972 -0.8281116125374341 0.2073220972794067 0.25293722727832624 
0.45526649977349787 -0.560533120280378 0.34975132446223967 0.3949656520268607 0.02587058201089244 -0.7571259612863257 -0.6714423162506834 0.9783692164063521 -0.5201011514864309 0.8143276862936624 0.23460435028113924 -0.9749548449626618 0.44755389490165015 0.5045078373404128 -0.02243459006961742 0.8335232223814905 -0.6046169548896461 0.4808451088310115 0.7469331510853559 0.4096495837319889 -0.033223871180867594 -0.9822874919830209 0.6880938349142932 0.5976817490114019 0.612494929634523 0.44560351632171 0.6446245765060208 0.7702734932867431 -0.6603848050822856 -0.9088467942632847 0.6945150547049579 0.43103782261910667 0.14756164570070185 -0.8890897779650442 0.24864294139908183 0.5405439423948357 0.9940565338366254 -0.6788241715336325 -0.4003111964865286 0.2371118906290879 0.6577473737677366 -0.2728656407198673 -0.5479275566320359 0.3679908765977657 -0.7448299321181431 0.669897510558953 -0.7330144742199873 0.27067987457067044 -0.9237660874665214 0.0011267429937633633 0.14920905592596911 -0.09120864006450173 0.2306479366456684 -0.6013163178531148 -0.56351183688699 0.07097688930757108 0.013133105937858694 
0.3956069654041767 0.4078992750692776 -0.7738894164751551 -0.6244006832343293 -0.3439373209212348 0.8159875378480187 -1.0572772659631167 -0.157768282906595 0.23983894331595557 0.5677246852352296 0.5116665697116762 -0.9681344428747732 0.9507790241017654 0.27473579118812597 0.7473024498673279 -0.11133490098969925 -0.44770373011033704 0.36229417686215815 0.11876984146745784 0.43983488445308205 -0.8931877824334976 -0.3675906516323506 -0.039014659585976705 -0.47945618559705677 -0.9348624891723634 -0.840219387513427 -0.6614536940311062 0.09057891667367406 0.6993011884575847 -0.836622847256541 -0.9075041076071401 0.41874949434452857 0.8005170025969037 -0.8775950492511886 -0.9504529249142384 0.2893033062879324 0.8815973266651483 -0.06978332826199612 -0.5293023644696877 0.6273814470115088 0.4193455309882823 -0.3800295265739084 0.8887706114323453 0.865996073259503 0.029463979473144327 -1.0232585641196155 -0.7887078542780287 -0.71313773890847 0.5020545473033282 -0.3035261249702572 0.07281502973100262 -0.8948687650594348 0.33313988298939395 -0.018069400004546852 0.3039146747981013 0.8157287645223593 0.42897334052588515 
0.9470489016609256 0.23181828640007796 0.7716676169317547 -0.661727052511405 -0.437193786311921 0.9717227190265013 0.04735919137799923 -0.4366183792477924 0.7298442446238473 0.7775516446912418 0.019697645767364325 0.12132292052818916 -0.5123738447275727 0.5778998807860576 0.8346914011635562 0.30691868231002944 -0.3110146868484467 0.7597813608014383 -0.08617899287532182 0.24257239407997908 -0.22054365439082246 0.083726795569893 -0.7205637406892218 0.979925440213297 -0.7392796679963687 0.4670325336389647 0.8935277716097256 -0.5028426283270921 0.31589395714091884 0.6685914978812844 -0.6540295771900811 -0.7991200077956818 -0.9408905345503236 -0.30541542744020256 0.8399666722759305 -0.36056838526596163 0.2546779958129544 -0.042937400102219817 -0.2921066722598253 0.10307077346608479 0.4802169277887225 0.7574018159969329 0.8045562142495788 0.20459208522807987 -0.23551118958828332 -0.15805359272772365 -0.176226173915558 -0.17239225157640195 -0.06562393220532492 -0.9682211768819304 -0.6038985713186817 -0.9020334549137455 -0.1734631478516603 0.4668197327104995 0.34128996235762343 -0.43665512228472725 -0.09995583107963096 
0.009397076271952631 -0.4628795183406136 -0.7856155741445454 0.4764228373362618 0.060208540624456415 -0.3896043868554526 0.2310555198125285 0.32736391901861817 -0.27153220366354724 0.531440480181012 0.47227077046842236 -0.4337519797897778 0.945066714779951 -1.103085213215387 -0.30596530477360034 -0.33924295752000966 -0.17227763893901882 -0.531319414659003 -0.761506784412534 0.8411983477061483 0.60123414951138 -0.07911466369735805 0.284125227872776 -0.9317775643648412 -0.6336590531065436 0.6098324469199781 -0.7485295219158274 0.9314341669161758 0.41736344561835237 0.20068544936663546 -0.21950285269153189 -0.039731985606725494 -0.123340510601057 0.8853103030329648 -0.20958750455512876 -0.4437698349778088 0.14337773929839753 -0.025311742461455292 -0.42606378468765016 -0.005949417634613846 0.4246133172964224 -0.8467016985225062 0.8777579372493294 0.7463074459501513 -0.3904585119613284 0.22771889264488432 0.5677076277146829 -0.7179845439969995 0.7318477405044197 0.31716578759347724 -0.9598962102281767 0.3932896007739721 -0.6298400287246433 -0.3315810270986779 -0.5122726233374533 -0.669756797871759 0.8363379447600224 
0.1644747208945394 0.5822394408984088 0.5756257963051041 0.7135736653867694 0.46843304068838404 -0.07625628188324267 -0.8519076595895627 -0.8305177539054704 -0.7297197289597579 0.5317789102965111 0.6430337726159734 -0.9024983248484381 0.47932428295368984 0.5062441676150747 1.0127423090489291 0.163459681474911 0.297309785551249 -0.41537469470395694 -0.7612488483224069 0.734821390482806 0.42942902089841073 -0.6942641757974172 -0.6433905835474105 -0.3717623242258639 -0.6894543131906208 0.1942703912445387 -0.5142041823384593 -0.9954023475989401 -0.07275866684317385 0.5514966817797854 0.977455217082477 0.3013885332915478 -0.32632321826977306 -0.959083430548417 -0.8095544420311183 0.2787929207396673 -0.3407809614857433 -0.9229977434136942 -0.6018942295994244 -0.4184398395250761 0.7508474599832142 -0.2783667165780368 0.8924380714984959 -0.5116210082038881 0.048014012625379264 0.10001067564524992 0.15504642363338084 0.6675924263922214 0.777957834297899 -0.3522519823250043 0.5984497733740088 -0.34684163896644726 -0.04821984360755349 0.8679163192867929 0.978111500519516 0.5931889229984391 -0.2225224314688392 
0.4507921766992957 0.8887559280440192 -0.7351682792714234 0.46816985053394355 -0.8000114136418829 -0.371977344698152 -0.18053006965168933 -0.8503082672225439 0.7587753824554107 0.571891114702566 -0.5328330068797715 -0.8732544005276698 -0.461356474765 0.15792414043059919 0.25233691559338967 -0.7719637790790512 -0.29397352362012064 0.3716971675225944 0.292293400405331 -0.20471418585259174 0.44673121826348683 0.7189448919014353 0.21932424270667633 0.27894838148409973 0.05648414056274054 -0.23804133133703886 -0.42131151378435416 -0.6954936329255004 -0.05738160583946616 0.030457311671034652 0.07524646164348606 0.29194650363557745 -0.8488627791085228 0.9746303060463037 0.246913709932433 0.13830543511429796 -0.2451886358206058 -0.11773250811827773 -0.26725715368196323 0.06973441737211486 -0.6482414388630018 -0.3460422317548937 -0.9126084092163382 -0.2530016990009568 -0.9592458185654779 -0.4485541589732072 -0.8368225084765989 0.649281884137304 0.21110758497585747 -0.7951257044139741 0.5439036458887199 0.13087528077033128 0.39726158421541274 0.3894700780210197 -1.0249399653498013 0.8850160622926602 0.8354549890891153 
-0.23987332558217722 -0.40288645360721986 0.2514443234117496 -0.9235075547614623 -0.9659164820885623 -0.5266933009587083 0.6268801806229338 -0.9590282073292862 0.9127333929785588 0.6797427356057479 -0.8218732128272144 0.5166391527625707 0.01079056737007903 -0.9307862824528825 -0.145107865661554 0.5074203954783659 0.32968402679286624 0.2649110175788203 -0.17419962664998878 0.8562878754215555 -0.39771897552101215 -0.09799663689793517 -0.8635293820937399 -0.23337697976524052 -0.6303927748668294 -0.6667325265012247 0.09926959811293123 -0.8716832429751691 0.3218582637420189 0.6601461113843855 -0.7014250934031796 0.5514353018821408 -0.8353938651332529 0.08824427161150838 -0.13759968343502282 -0.17838071696592722 -0.00872764943370825 -0.10343563568635908 0.44194450252426515 0.2178319448794684 -0.8768547599133119 -0.17772768013236684 0.3235550557314273 0.8396854368366743 -0.2812762499417796 0.737518847241233 -0.21162202214442036 -0.5125162411484021 -0.4107615812941652 0.9753987959899231 -0.3190575126400321 0.10595260289819379 -0.7749598327514307 -0.17077324140943337 0.13802891090903516 -0.7866462218361646 -0.728540572990374 
-0.7212788218472239 0.9347990828927195 -0.16804137838605615 0.579080255152959 -0.34536720879163085 -0.30357639231348005 0.1361819441762367 -0.12197264659600011 0.0646200817687188 0.9043813932420339 0.6338378013065102 0.9143785344290465 -0.8536044845655448 0.24315758537737825 0.012031099441411766 -0.17645720512393243 -0.23303381681571578 -0.2178523193068964 -0.813318261340122 0.4632350400598152 -0.3304193091551827 -0.15857881913839303 0.7315893461294954 -0.45712784474996865 -0.5481966462277423 -0.7710067912661127 0.20537228958478715 0.7253588222251132 -0.4165509340496507 0.9490732205079903 -0.9102823177139114 -0.15280776999509238 0.5703779501962949 0.0021187678255123465 -0.9865318368009359 0.7892944377112193 -0.09993752829037905 0.9294613514242168 -0.36968431280885544 0.8476828349110432 0.6116736088007375 0.5810016889837162 -0.30103696136872937 0.8473437555379636 -0.51355064896375 0.9911429661353864 -0.9097836380587221 0.18913957126145556 -0.4269569145689305 0.3215141572059532 0.31167515499665477 0.42858593541331647 -0.7972614270196952 0.44872171512619935 -0.28061558309229306 -0.13105154410529307 -0.6336439730917578 
-0.19332188875048462 -0.2112428394206376 0.6452039372591256 -0.38647997329805356 -0.5393481125040527 0.5728391516181824 0.32640891168773184 -0.8680139610560504 -0.07160787319095396 0.9911918455998345 -0.1251129104355202 1.0309526297037206 0.6471299792220652 0.8365571263489912 -0.7706433570552822 0.3787314057090966 -0.4457304438558709 0.08358126793162346 0.32377823594624133 0.6064795994456587 0.735046371617666 0.4244120808348095 -0.7977609005731355 -0.12699931829708527 0.34285820490088437 -0.22523973417174936 0.6091009766187299 0.12628377760592333 -0.8669225375216948 0.6283821280880052 -0.15161822218193816 0.06987974517796741 -0.8769300008368417 -0.35114763219450773 0.8621676440696766 0.6502541998333716 -0.45155975182821007 0.6273860853218417 -1.0132779199706514 0.5017624300981178 -0.9276323319176858 -0.4679288411119642 0.45022740932988636 0.12823244912617723 0.8078604923267152 0.04193193541094154 0.9803937082282288 -0.4092400190823447 -0.007912846769241533 0.6955362878838707 0.5777949769413662 -0.33426643552744334 0.7893197200815727 0.6789050412924467 0.39495247208417805 -1.0297744988763082 0.34022042596295066 
-0.7003469824387853 -0.3329055335758013 0.9767851854392833 0.22162910388503543 0.019965151255582896 0.7105882543698152 -0.8127566416781966 -0.8789026926608388 -0.7152905730719576 -0.7831400889583804 -0.06338355220205094 0.817976190570614 0.4267274473361411 0.9222225303416938 -0.11820675278334582 0.17788283142634861 -0.2117080195684775 0.41458548099322545 0.3275272858404681 -0.1903478265978744 0.20305039973740843 -0.6722486801812299 -0.38713722923381316 0.8261023848386595 -0.053696664075620903 -0.8807700013105397 0.1656540712300263 -0.324958822892713 -0.39814880004758635 -0.38213724757847684 -0.6465997215903837 -0.779081816938056 0.5667937870165316 -0.49641288093483493 0.5208823487126861 0.9133736622113645 -0.1346205887176232 0.23337714966013062 -0.1673494323756885 0.21852858388301374 -0.48547803202577855 0.970816267233221 0.0013436925900616181 0.5075069895539195 1.1028116186580683 0.8837788053388692 -0.7198811542925354 -0.19415649416187242 -0.0532540912621422 0.9687052164523695 0.16569155146153247 -0.12852424786794867 -0.11005495545141943 0.6075296478856929 -0.13669447892993142 0.6578766412962043 -0.07725482949375241 
-0.48938259382625615 0.7080352902380651 0.7854247626433066 -0.49026228932332183 -0.25266098104174234 -1.0228551031705515 -0.8436581877582187 -0.6191294996087434 -0.8589900104981341 -0.5666389780192413 0.009053299894067557 -0.1013701996909506 0.9516686101463371 0.38493577686616315 -0.46192600948001444 0.1740574031714666 0.6448243150073214 -0.3664380517381658 -0.3279313625163689 0.3424250834460298 0.6514345103224911 0.6858242767106378 -0.4081158675634524 0.6145724672139119 -0.7614190551642566 0.36387018262835524 0.8670243764040686 -0.878842388701271 -0.20781821220609123 -0.18980940686165626 -0.47902364336416087 0.4887735830482073 -0.700600065667643 -0.832392569013898 -0.2845378684239237 -0.9306592563386751 0.3271438178030733 -0.6360879360681186 -0.8224355974205082 -0.7209278271640642 0.48839778738224093 0.799265803048967 0.9437983748966585 -0.4500889646170143 0.2941669426914403 -0.06266721060339706 -0.41503343465802855 0.6431214043295637 0.8621295021616684 -0.5292734551156719 -0.5754959150906116 0.3736796959719797 -0.30820137291091654 0.17969506085704695 0.4081991010479469 0.49288854555563677 0.6329447316110328 
0.774884007225709 -0.825628418349734 0.4078750217864806 -1.0587381660337416 -0.00929875525757607 -0.2568681157639089 -0.9682161511530285 -0.7164136700499065 0.6973447003635596 -0.6523598619924902 0.6336653846794726 0.07196556169621154 -0.6446715915031671 0.5189176583050393 -0.8499661685691321 0.3047947708508757 0.105826930377662 0.3169205175978791 -0.5364492145711592 0.23157784063978626 -0.9407695967087231 0.6468054787123414 -0.43771907874664373 0.6706641865872662 -0.355422080473883 0.41845805701218786 0.49399036986165545 0.36962914403353825 0.6650823000504132 -0.8259077365338324 -0.8165477003172807 0.4549421815926417 0.059273241188428694 -0.4577595816422031 0.43450279966340943 0.5660872865491985 0.5560704129595739 -0.3738464792681697 0.19982193972648812 0.7381319249593162 -0.3480266432856278 0.9382161230275536 0.43340453963079395 0.24622055447168587 -1.050501308041317 0.16110435134410198 0.9724490575838423 -0.8677392434099788 -0.7864183043782513 0.6981243036763465 -0.7322036894661559 -1.0413353310023326 0.5231923010646694 0.8423338774127509 0.18672072657027575 -0.7843531869087214 0.2524046054484039 
-0.5062178652161655 0.24667428611163866 0.4140757045681449 0.2048745228262137 -0.7334345991622104 -0.67227606738266 -0.821168720874931 0.01088730476245305 -0.8732677284448718 0.6792493091450365 -0.5083287494183337 -0.07337692286952495 -0.8961202568145048 0.6063984396602256 0.4643267784571608 1.0461496710868987 0.8726723125550426 -0.6216398297203147 -0.1672004586652156 0.22375935515079495 -0.69975920415541 0.06384927831521621 -0.4164007123333556 -0.9405998259765908 -0.33631864372700093 -0.14061651725857183 -0.3145736307018887 0.5023785034881071 -0.6188743608511571 -0.25997362578666744 -0.08960463157561956 -0.9487391385901857 -0.4571530616024768 0.7713794749988443 -0.014589095055905332 0.36128299208978665 -0.8652022463779958 -1.0284841075879254 -0.8679189877704176 0.23116523639677877 0.702883263724879 -0.9097277132884025 -0.7569946347446057 -0.4804892427799865 -0.8413446746285801 0.38113715305903495 -0.271465084086713 0.25307479282823536 0.2539117177050121 0.48661580777982816 -0.9187857797076584 -0.8284256854350729 0.6132141433901851 -0.8717109052456593 -0.8955433581970892 0.6635540228610691 0.40800517697896244 
-0.8329576014846007 0.42809189438057427 0.8229509621021507 -0.1745033457291232 -0.15858411729355312 -0.9256928887797469 0.6781101276116651 -0.7096817440169759 0.18840936462192448 -0.552913437722274 -0.43086660264306764 0.3699862402518103 -0.8188742415189716 0.9695694658284617 0.5325094715061481 -0.057528217224237975 -0.4935429212564699 -0.48833401653919606 0.5392813994572399 0.06734129743835814 0.42465152026472236 0.1439522385207465 0.8147398189908264 -0.40284400082874605 0.060455491735655675 -0.58426349161812 -0.8217077269737028 0.5332377034868498 0.9552926070692267 -0.5256469748154818 0.06144855776857636 0.7157907468918019 -0.8974490162352435 -0.9166787006416024 0.8088381292289915 -0.36667950843485275 -0.219773779620373 -0.9224677231656393 0.6827388588026909 -0.5760546146513288 0.8739488243693017 0.6287926451644126 -0.5537818892626181 1.0038128254285055 0.39285365561816527 -0.005254244588389813 -0.7426956139370302 -0.18144062856637655 -0.07421167297943887 0.7980011005505541 0.46152637780625794 0.2934963605393907 0.8374026387685244 0.3127040971103309 -0.6771537215202641 -0.8872922468288424 -0.1959912383334875 
0.622133573998205 -0.8048120071307219 0.3834742083391447 1.0075754352033441 0.34484313124480137 1.0683147313712344 -0.4700092961854073 0.5118105815879137 0.010867982564987555 -0.09763850701596866 0.05200281317153577 0.12174309915581018 0.8140359779213643 -0.8383152849265763 -0.23229966849956107 -0.09622852159404573 -0.9629391937744471 0.8297682811764955 0.2886806680922718 0.8812607066099701 -0.29119310262033227 0.2698055125806131 -0.4030377226473448 0.021638043197716634 0.7279100334592858 -0.6591247875561197 -0.5636342538046646 0.4085159601985489 -0.32021068830157634 0.647377349810964 0.08905246829378075 0.4306899111415493 0.22687713941120813 0.744815518178034 -0.21578570470249048 0.9626058575685186 -0.36580808178223123 -1.1364198259808247 -0.39356761836245124 -0.2242518187725555 -0.8581756126334765 -0.14571802983939053 0.523777911109403 0.6351729650754109 -0.27559589606708135 -0.6352250204229685 -0.23734502857579537 -0.6260125826893652 -0.33280651533139416 0.5493536209200762 -0.22217885721186903 -0.14767479356903074 -0.41188227799129484 -0.4786058480725197 0.23283522151724775 0.3887298782945551 0.33930821052178134 
0.5897179491889062 -0.9403460498960681 -0.029846183442041374 0.5699617543346488 0.7747619962076048 0.9080088549259112 0.5103224191142538 0.4870469464767322 0.6285473947194287 0.4562798697307193 -0.10116855870029084 -0.7807792940201993 -0.707291235592964 0.46057812527361486 0.08324474238712219 0.48234334309601745 0.8941879496862994 0.7555075868950416 0.15013306502498547 0.05274558827624295 -0.8394449787711749 0.7475363581747743 -0.5440339579236515 0.5851388210442914 -0.4065051334607679 -0.5406259880788002 -0.7059212551824525 -0.202254715492719 0.14153317007055252 0.5901590160995559 0.8733182178573703 -0.48176014895506514 -0.9531229516372328 -0.5861689804392016 0.41905524985817477 0.2552647443919772 -0.34666898270842605 -0.12614747359568731 0.17721713659533858 0.21702455366738374 0.46766525003972714 -0.3402504700029574 -0.10122795492383108 0.9109527743618061 -0.0878153563920911 -0.0020641182849818695 0.9428733266007141 -0.5166907721466496 0.4446981177359095 -0.15408260104047744 -0.45791723250190386 0.8339714653768943 0.2052631734423442 0.3400736864998225 0.9843706866758112 -0.9559435983546984 -0.22812980009047326 
-0.7277991630065561 0.37006439818757264 0.6760512464339514 0.508861964067163 -0.3799346509285463 0.9594318515687665 1.0054977318049934 0.06441937774238997 0.3732496205498481 -0.3127961604004761 0.08172315124822616 -0.12421045853464717 -0.4999260108707535 -0.3286494633358925 0.8060011350754432 0.42860888480793435 -0.6267312304554813 0.35272703159106666 -0.6337405068021871 0.8368948697850218 0.06544885051808348 0.6596484621458218 -0.025018887508380244 0.19784392219010696 -0.4924548966377711 -0.9156878570747997 -0.9203675947738619 0.31120281608757344 0.8948169249632696 0.03469799190416352 0.5567223285045472 -0.9153945586431622 -0.1003741153523725 -0.1564358033512554 0.9126270611078187 -0.3870811324938932 -0.5575383392010718 -0.24728692671118283 0.061664392611409984 -0.4664439545045702 -0.2730085860883631 -0.634243524669754 0.9630512582971895 -0.7801678913788229 -0.4917965055054852 -0.05711855324123144 -0.2631786836932437 -0.19342656660827595 -0.29500013930813007 -0.6768666087667041 0.07443206516332812 -0.121600445201111 -0.9960832783052733 0.32429783297146614 -0.587451254907836 0.5901775285680982 0.4696794849189986 
0.29299649339880385 -0.7812374585646444 -0.11024104936215284 0.4371876051945364 0.9033891415632269 -0.5951292918268699 0.09014014395081776 0.9303018376705052 0.7189898297703574 0.3630327971346208 0.2891858499611437 0.7760206620766069 -0.4418894068291243 -0.9490965340028577 -0.3079486359487859 -0.48570117391136497 0.4414292416226251 -0.8518327624031583 -0.6697267942962142 -0.7254098773586285 -0.12054861112113 0.5629144204624176 0.23853620148806318 -0.31973173361559376 -0.5806697125196372 -0.5584980402714834 0.4372091213263998 0.4267178801158919 0.18072916571625555 -0.8300867220044286 -0.12528136151365651 0.26466624098174935 0.7874391490265964 -0.5629844589373212 0.398756516317315 -0.17535796075261847 0.6945953844554714 -0.19721931555429265 0.4510936358251447 -0.8023777034182327 -0.36648773003047697 -0.5007923020227771 -0.7740094355594802 0.9381155819956752 0.7339313093714335 0.12101182306151238 -0.7081799308163147 -0.3339738423960574 -0.7757491955382083 -0.9747221164966142 0.8200270647732553 0.8672543643765007 0.3273016805976135 -0.05075006348230409 -0.00930221038224746 0.29665929964886545 -0.6667448940368066 
-0.8414443567046495 0.25157937353022053 -0.46282712951389215 0.2509124834421423 0.5715219124220436 0.37295310141340715 0.9195210217270657 0.2882901168722165 0.2695516254303414 0.5396824731491925 0.7101762711008068 -0.8757449728431457 0.6878286301764622 0.3210595687258314 0.1724876781419344 -0.6974648764485559 -0.8327741010157865 0.15634615307751476 -0.49988158204127275 -0.9972911720970965 0.008102432545256602 0.370694474857201 0.18832877693815894 0.8972372779096116 -0.79267877464853 0.3493340253845689 0.621233420402616 -0.29307635259959797 -0.7571679235381716 0.6480590887719457 -0.9181474777738674 0.4518911828405351 0.39435622484057054 0.6815806227627126 0.8244399847367521 -1.0098409363272969 0.678231010932727 0.06586934131165435 -0.9195621290328949 -0.1027489213206177 -0.34450248862276367 -0.1242468805039223 -0.7812359725709546 0.5998522265941956 0.5756359437585226 0.07073888777636932 0.8325471898782281 0.20205814041136008 0.23119944628651745 0.10642933773543928 0.16749787162634466 0.28802325423268305 -0.373024118154219 0.8479266988530019 -0.32117435058743915 -0.23748821676815043 -0.021604423184116744 
0.7298563908820992 -0.6144169347453408 0.7475697032050792 -0.8420699716939581 -0.3168543180264626 0.729877198931705 -0.11698271910988686 -0.8959243518472767 0.3892766482894361 0.003869202699265717 0.42678690181703716 0.5306978074076003 -0.36243744092280283 0.4720518355154851 -0.29784007772652643 -0.7900272930478717 -0.5118529663231961 0.5916685945641358 0.13661964207176647 -0.5137201180881394 0.7257297520202114 -0.41524228721116263 -0.414694407908381 -0.6038730533129852 0.2454443897353249 -0.8153133322458679 -0.33644901451138653 0.8308814440554141 -0.08675314492833917 0.832214099293791 0.4799943525599817 0.6867620606872729 -0.14296129772317268 0.32967760780770305 0.2762116727930364 0.7535300372751181 -0.15987888600437028 -0.6584035723584867 -0.6239097531030298 0.8941844615204402 0.9404427422405333 -0.9230581476867283 0.06758465838857619 -0.6123292556988125 -0.7118107433871925 0.32417491507377644 0.1025566279232111 0.519539429517956 0.2963808281322551 0.022931016037640806 -0.5103778191180806 -0.5617473917867553 -0.895462562887984 -0.797628597016677 -0.5472068441959554 -0.9262596489462719 -0.7952043862640192 
-0.7573471693296696 0.21961339435414362 -0.010951604716126884 -0.27693364461298026 0.7310695443250905 0.9031544729461513 0.9138453075229946 -0.6398530786285366 -0.7580093426592884 -0.5811913392772325 0.9556096917463863 -0.9233694054133321 -0.039479608793680454 -0.7286397571912523 -0.38073264576012306 -0.9931748549386658 0.49242826659171457 -0.37105055527690123 0.9954058216358832 0.7995321758274777 -0.06973503526689982 -0.2112705941684072 0.09799061491830646 0.05537477854914777 -0.32762780743191144 0.621763882349041 0.4388272760270431 0.11506581026400257 -0.21844138185906642 -0.19866236530033293 -0.956317237398906 0.13363723547357967 0.3175692162179129 0.5531572241095088 0.6677541491095784 0.44947117902740225 -0.42801255555843076 0.05503346577621754 -0.5270031079709284 -0.29326666060648543 0.7700857057148529 -0.8602739826238148 0.0029543561857825473 -0.050777074248473164 0.9469810529407011 0.7917007118027009 0.48088945784415166 -0.0660303097698425 0.6278640714915142 -0.5562392864909311 -0.18443987016811558 0.05579673406589074 0.7321006502269248 -0.026136341576967554 0.813555335312887 0.06650886454919311 0.8216720990589568 
-0.28563207217215014 0.3861588196204391 0.8639755681043289 -0.10868041998943273 0.5705683551280645 -0.5979586051607836 0.05823554422392624 -0.27229452725955944 0.9828682746848796 -0.4728779387528741 0.4126321390952905 -0.26369261508843306 1.010169886796083 -0.5751887144188298 0.4894878640413529 -0.49668452521225215 -0.3982526196812437 -0.7840030756552192 -0.017444475365480328 0.42560365247678567 -0.7206548404264196 0.4516875585662983 0.6524800130034809 -0.385328165704088 0.35154935742356486 0.009116741405618578 -0.8814329929760494 -0.5453061931506996 -0.04872253155379057 0.34551608243038584 -0.4530034762452367 0.3291848430589474 0.11188419322964482 -0.49416225571923156 -0.10888037500240433 -0.5066118308218206 -0.3842966098217911 0.6033942595804092 -0.3981622430848443 -0.8074336357438499 0.3113901305629341 -0.5521046838044965 0.9888653461980434 -0.8989595275135973 -0.6555034185400478 0.37115541286487047 0.30435600768468934 -0.6733223134521499 -0.16758611752290586 -0.4985355748108018 -0.9307328772116019 -0.6386871601838016 1.0430322518582784 0.8536586863176586 0.4975549006154419 -0.6503051767933674 -0.7521382744102053 
0.38552411726455116 -0.7195155040165739 -0.3186844002431122 -0.2732692306014339 0.5736666729359251 0.3824821504834108 -0.07411687778801843 -0.9093192809893214 -0.03522140667186813 -0.9757886272319249 -0.2666694439321502 0.5557604421051148 0.3578934385903714 -0.2203421154413586 0.005432487621548408 -0.9281788028259099 -0.8364972394384194 0.776674755419291 -0.7937548624298731 0.576880750801156 -0.33255098332788857 0.5029108436060873 0.9572721393188324 0.3773700770431059 -0.9803157464883261 0.5797055050429898 0.3252957795920688 -0.9631378092553681 0.14871559420418717 0.516608729480361 -0.7321384591854764 0.8795303748362963 -0.7344655836878995 0.36668612207629714 0.3516612552205898 0.7254932838667395 -0.036074230964904114 -0.6989079617073818 -0.8438093721954262 0.6594893001615169 0.5525951879043798 -0.6306413003104752 -0.0284452726166895 0.0563211382777048 -0.5136588930810269 -0.019164708007459674 0.5189749799745017 -0.8275577212928161 -0.6023057558704863 0.09347980768514064 -0.7903060041948666 0.2602065835320778 -0.9133943076086339 -0.5396758560978926 -0.5709198874148603 -0.5917347513313829 -0.18426119817457057 
-0.29964735837430756 -0.29463270719138035 0.6387289533017322 -0.14300687084819544 -1.023588587693607 0.6287135454405051 -0.41990219874196766 0.6599401595450527 -0.3549442647886216 0.1615222997480179 0.4657875762817778 -0.9029941176258256 0.4457265287247864 -0.33846859075981967 -0.6279768874826532 0.8723689548357516 -0.43050422835653257 0.8148890663747328 -0.3447297580429216 0.0029150526251423958 0.7969777309199305 -0.11457036183042392 0.5554720356136025 0.5418280025596156 -0.3715160264157851 -0.604099291713766 -0.029818003569688445 -0.6218563076860018 -0.33402786967160947 0.6680873989996264 0.7517436151113527 0.805100279614948 0.4320516766493556 -0.5574264693379223 0.5104028076570446 0.9403826807309602 0.47129824989847413 0.49161305843328335 0.1828510052921624 -0.9189763589420714 0.31058477540266316 -0.37701199393622087 0.17308819024624134 -0.004087991427581524 0.10055561172478698 0.008347525823277737 -1.0445898339315522 0.7610471228862432 0.08850227990597359 0.5017567597277977 -0.12430304641039447 0.9447908696637658 -0.3158844194104434 -0.769070199594349 0.8782005288715974 0.18571968323989543 0.1774876326803805 
0.6940944135463325 0.511054028892838 -0.5243229134843845 -0.13753927393363788 -0.6714243664620836 -0.7728221851910362 0.8931291960780214 -0.3688691651699739 0.7494104898840985 0.38136614679701464 -0.05952263987734896 -0.8790651580287319 0.9194246836173885 0.7800950814352031 -0.0756579236274921 0.7965903782065498 -0.1334462174776807 0.9344197944724366 -0.792863908313779 0.13507843533041528 -1.0777893169134727 0.10820669193221677 0.962579028895056 -0.7427357117951414 -0.3322678271382635 0.6779795154711139 -0.6592056728422448 0.31578529073245704 -0.46607753170629446 0.07107590572150072 -0.4950287271259554 0.10799869836011443 -0.7156700068591391 0.4227524194394219 -0.6624130587302688 0.5923906398862737 -0.22339670210093018 -0.2872086880963396 -0.6287054596725987 0.6930271174416964 -0.8627209789839503 -0.6296596435650295 -0.9946791572462554 -0.9305813609739095 0.46030030979369146 0.8829733628684063 -0.9431792082926639 -0.4994460557919438 0.45075165124982286 -0.7844060844972875 0.3564025115744667 -0.9207033808914424 -0.0685774920355437 -0.6929056723046682 -0.8037482302371572 0.45911914355776173 -0.7860278098396362 
-0.286624528273294 0.48355852632049623 0.42614813879558877 0.8422779226839385 0.7003273646162207 0.164766711497052 -0.2560369005996113 0.6287144226584876 0.07750263506259736 -0.35984874967755 -0.1862563935778172 -0.2631933289752913 -0.48755346880592837 -0.7171293433655509 0.09821285442743907 0.08189493788949014 0.6631205508669715 0.8717755645292802 -0.08895895601472703 0.19393012564546994 -0.2717419612872975 0.5564038525427992 -0.8000221822130004 -0.8437009846649949 0.8967407459806844 -0.7072001850410301 -0.23413869163634327 0.9779507182374924 0.848069210888995 0.1922715284435926 0.9084210985238499 0.5986629133271023 -0.16164885531363327 0.7791294509957047 0.3269175211411297 0.7871789154223895 -0.5673390125859418 0.11498588576703275 0.49712853999270884 -0.7698199844918913 -0.556324116356927 -0.024236781173572863 0.006029424039252662 0.8989059321101774 0.5373237571434487 -1.033397526218638 0.4026506423020361 0.4196096402192594 0.5770090859008348 -0.5839513453200502 0.7208846977350636 0.20245384340414477 0.04927337904013685 -0.5886655416701079 -0.08849189053013054 0.6188608723479645 -0.260001097519689 
0.8991554985809773 0.5808789407787156 0.9018700221079969 0.9382808027756044 0.9030767095662412 -0.8553646044260693 -0.3474168858923968 0.42023777696180575 -0.9270941164001207 0.8651990931262412 -0.7852681101291317 -0.42869147424676285 -1.00012172016336 -0.47386208225208176 -0.780531224757241 -0.8686213674724057 0.4703971186432916 -0.23991256888556456 -0.2891962819942493 0.6197473533047452 -0.0132093920007769 0.529492154041813 0.3980420568632087 0.09930356598154282 -0.5195910060965265 0.8235998187927147 0.4841473858943983 -0.321578389566146 -0.46428873666692594 -0.7932024568387934 0.36621865050555547 -0.7241653641363491 -0.37792308590376456 -0.26315695208765844 0.31448242359718437 -0.4822720829485834 0.09091429864991196 0.6989126534166993 -0.39121683475443286 0.03954670000114772 0.7069627392398374 -0.3043633893522033 0.7228423435291833 -0.005706235666650416 -0.10069536483067236 0.19820867055643285 0.4956278112382972 -0.9323984361861025 -0.9451953869914422 -0.48870497383707945 0.786439367042099 0.7902695430554981 -0.06829040767780374 0.6156724175098794 0.5824179881589645 -0.7035746567713947 0.9796342181932309 
-1.039664504892355 -0.625582838749292 -1.0159207538152921 -0.6314033397943869 -0.09213273432649348 -0.20767907515314088 0.3392092413551206 -0.6073842927237937 0.9231868564575273 0.45464732619450904 -0.9515173060760523 -0.543831348185201 -0.38981716722999415 -0.7403029700929226 -0.3114154538538581 0.12934273006862368 -1.0057470443817424 -0.7422765817119026 -0.8430720039834586 0.3754141416260573 0.5407173126178392 -0.6699349106585931 -0.5642717713313834 0.39990605060455464 -0.8011253718514332 -0.6808451782413847 0.6452476323621029 0.6124665520764887 -0.3672289350062298 
0.09834687457886336 -0.509693441242995 0.17166397459216218 -0.6656765904859407 1.007606718967147 0.6351516810637272 0.6150571299626366 -0.06838442180815672 0.42774927950555597 -1.0065359850395132 0.6608124443468594 -1.0456904559170443 -0.19912247183656248 -0.15274549660569867 0.1391665305362185 -0.8550056864591369 -1.012176576770645 0.1326184577184614 -0.8624018766526234 -0.5373104767473185 -0.12466649186638899 0.1983488213365961 0.8317267731613561 0.5101856866583516 -0.3000951999060136 -0.3043508030452146 -0.6666489440384493 0.8901600203694872 -0.318829856728491 
0.5257870267761469 0.24723252647933286 0.2943829949093704 -0.1868881585678353 -0.7503987967877292 0.5076232022068174 0.7547320314423168 0.23277501696105846 -0.13257202149561043 0.4333745202821188 -0.4010579582339108 -0.9722101065411456 0.6943762555331352 0.09080170524734467 0.9045006324799775 -0.8036571251791624 0.7452117899111295 0.17778672567324788 0.9254087626954627 0.23689450252731437 0.6233960901223012 0.3030948709672587 0.5631793470116264 0.08716885220939556 0.6075756825623251 0.1708981729541603 0.561672379291215 0.91282384569135 0.6126598860695736 
0.4537040932104083 1.2482312839574805 -0.5387415266398483 -0.879636308108016 -0.5868334319192847 0.04254591693030001 -0.8788057480794341 -0.6111184564064939 1.1357436149937346 0.823991407892431 -0.7693772726513675 -0.5937620049816579 -1.2901861000906194 -0.6901270433989594 0.9501596107882596 -0.13501011520405878 -0.7731293356683794 0.6644113058970971 0.4930124943091155 -0.8639936940174464 -0.3452493210326288 -0.5130095354221547 -0.10595172139076617 1.1490888338887808 -0.42447524165592015 -0.2057225158227092 -0.7722709277486499 -0.6964720213010827 0.48844386027634157 
0.40605056314209226 -0.00231309080795821 -0.08005739146872545 0.8402277381486014 0.07755149344924969 0.028824763936193758 0.8438101473488664 -0.13495799384334842 -0.2043573746584448 -0.700545663398881 -0.2729101935168216 0.17056954871160784 0.39249375743955744 0.4326098485171871 -0.43630531568007647 0.32344374862367214 -0.7995896113763893 0.5785499990348526 0.01703812319147862 0.014443013415781858 -0.38399736323110045 0.35276641772999 1.0110635496413394 -0.42233439794443844 -0.6024943925682035 0.610386237817933 -0.1514164218194212 -0.6297233860421801 0.5437972526537246 
0.5454367832717404 -1.0153778535681093 -0.514107884466121 -0.7064675752923536 -0.8769091145104946 -1.2288672374144833 1.4324144216484997 -0.8533011223946075 0.4258250236447706 -0.6872468969327827 -0.5242839765988457 0.1624252694046175 -0.07319049843701694 -0.36562194612951976 0.14946390608915625 -0.900398095367844 -1.1066171810302068 -0.3182456431073236 0.4606175315944641 0.050297406187712355 0.19206488968193858 0.14848761571361851 0.31905314668818685 -0.6145907226582168 0.8394070111739937 0.3390847598351301 0.7125281955558019 -0.042234048819717256 0.8944831573328341 
0.2878375394357194 0.5167815978620968 -0.09217073899031941 -1.328539415348183 -0.25839236926162146 -0.3210260387604909 -0.038013322224038026 -0.4417335171547681 0.61435259534544 -0.8252573677561263 -0.37206350436007574 0.23434601326586807 -0.17640229044481642 -0.7783849176326384 -0.7640877193383883 1.0819644749156485 0.651274933484495 -0.4939858621072316 0.8919208759311749 -1.027539254615514 0.4750567748398399 0.1717394078568261 0.08297138838361667 0.6655544947303995 -0.3920930451038428 0.8309546600839998 0.7787655626069132 -0.3041230200957415 -0.9169710246378894 
0.08648829934200938 1.1766485483248281 0.8607681678041893 0.25157873456488183 0.07380108142164932 0.19627438546289547 0.8839899758304374 0.5648108898678912 -0.5571060613097759 -0.5337559594790598 -0.5134077342662356 -0.40047085913137775 0.9726466084154084 -1.035847386941342 0.5562588088042472 0.030862225185001518 -0.6805424996411166 -1.0738145594083048 -0.039642776588469576 -1.0210158826638747 -0.4452015474853244 0.49602041504838373 -0.5850537152446874 0.5140371005287213 0.42207079633282063 -0.33410492975453987 -0.791041560117884 0.6346094709652182 -0.2752900644637424 
-0.4227451827226625 0.9787400082202131 0.6059797130998505 0.7563306565655824 0.8193070347683862 0.25962068629002566 -0.6396542569213677 1.1113851674774584 1.0984806072750233 -0.9238792366802117 -0.3247400676103202 0.4509100878610061 -0.43149268573175553 -0.6580018117892101 0.9015774212951632 0.9981882004302634 0.46001634968520533 -0.3923114096870803 -0.44717624952308876 -0.0534982097450685 0.12375288559957522 0.7412483285866132 -0.7474688069599156 -0.6467880494499307 0.2756785350616252 -1.0354767348122433 0.6951119357726605 -0.5643347893135681 -0.7940538362677401 
0.0031766580646365996 0.5946654242124051 0.6390092200469031 -0.42665681358373503 0.25052083059316 0.19837257297466446 -0.9336934012044903 -0.2082674066657279 -0.8016043452057413 -0.18045571066165325 -0.39712922303844933 -0.12868384801512925 -0.3235524000375044 -0.6684556470884342 -0.9467044828535149 -0.25762331613144973 -0.770809788013238 -0.8186434746746165 0.21651411179954022 -1.075209832685042 0.47603433806381656 -0.16686089092422227 0.21866484609290032 0.8051930559125375 -0.4994728264402635 -0.5101394593259858 0.10677575469376475 0.7572539282209586 0.5134398258563222 
-0.11481761915884227 -0.024755971514637 -0.7857246942080649 1.022879334656531 -0.8905553801336623 0.5188565041672607 0.26896533369723485 0.7848664499117977 0.5779298847381025 -0.37543940555909117 0.3381267895056648 -0.9697394399904211 -0.5313873762182234 0.21851952721349704 0.552005890812995 0.592495293759206 -0.6511585805740198 0.653688604143092 -0.8979706911422423 -0.7774912732332713 -0.035553808931464086 0.31939476359277597 0.4677552913608862 -0.6005053028572174 0.42006145132019057 0.7291490956737375 -0.5962415549079542 -0.15375988578156194 -0.047671051251625504 
0.3484503614825635 -0.7266653675889415 0.2584843576814906 -0.3475360310166225 -1.0685431958365832 -0.22097405379655652 0.006685775480277248 -0.5490237166795697 0.2981980329367255 0.3930076342834964 0.5677650969234204 -0.8713520340817505 -0.6142783113985695 -0.44756896210243774 0.293497554655641 -1.1036523890179768 0.11484300675099338 0.29603646555534363 -0.8545406285360817 -0.4965819402771316 -0.32117926203884195 -0.970518739859941 0.3572479356410587 0.13874434170032693 -0.6837212559869508 -0.07333860648445678 0.5263265190769952 -0.6887739700672462 -0.22723840301811046 
-0.49665685106912494 -0.9879042795639653 -0.7101880434073164 0.6479686496467861 -0.04059861514472718 0.029178313231164137 -0.3725986407649853 -0.7519515194875516 0.4261351684156919 0.5904630772951232 -0.5994587579126569 -0.05459755633585126 0.2448487643395322 0.3107973133608894 0.07201012818567497 0.07546737079042568 -0.12110463541463995 -0.07470616525790048 -0.24498920845668096 0.37148164448129745 -0.7442515574551004 -0.899468740200027 -0.45044021183817906 0.5964488059024873 0.3210982337846024 0.41798380449732414 -0.4671238159883333 0.5538964856434754 -0.5433744227898241 
0.04956965042843204 -0.6206268651207129 0.3379649811591797 0.3424185115169417 -0.5768257234705093 -0.39110070405723313 0.5629447075912036 -0.9179049940327365 0.07850912229730328 0.43505943093144206 0.2902245154816743 -0.17691922344615096 0.4905272478790543 0.6391780566023317 -0.7426260128956521 -1.1954182289530624 0.6771266183481534 0.5647478696274784 -0.36377232759605826 -0.6556531766438665 -0.032652981900097175 -0.2617307282536976 -0.6012771081520235 0.38933287948067646 -1.0452204928911 0.28444738518977297 0.6402371688616011 -0.5600616094806079 -0.7471247502971238 
-0.5607983891920294 -0.24707993016064958 0.6277871626800919 -0.09253986205845632 -0.24007472126482055 0.8367341094145755 -0.9734550556835624 0.04700378240617056 -0.2752906986636579 0.346815441861352 0.3215553989927636 0.5093545330776592 -0.13756449001439502 -0.5306311665613902 0.4150719746172234 0.4957240367599855 -1.0394745890701214 0.6189177032585806 1.0104187499386883 0.08809961125823336 0.7010084514600188 0.41321377883312954 0.6478688902266995 -0.08978213026540477 0.6027833377171015 0.2939007598218027 -0.3969442627727352 -0.645328140184458 0.7137513803345207 
-0.5384311381516288 0.6473882177054868 -0.09617802100011776 -0.8251791021544865 -0.08593332904554381 -0.47617779310060504 1.1007086525796639 -0.79194231536128 0.13280276185090908 0.965070342224548 0.05556580690221177 0.7856002743745704 -0.8933885764405287 -0.6834360866357819 -0.7257896210664366 -0.7518607633181136 0.1741266628180577 -0.8744609245516564 -0.3513588723749798 -0.12965592865487685 1.0634503270242586 -0.358595605752396 0.26801288235579823 -1.0922625215651227 1.1045492755850415 -0.7374608088605832 -0.3351465268668955 0.8338930129447911 -0.14531042706035993 
0.6950733659890282 0.11449193562047204 0.8780787998028269 0.9113913348831233 -0.24751820004298067 -1.4362233794599857 -0.7465350123259703 -0.7172374242305061 -1.004426423308464 -0.8385480381327158 0.99318763594318 -0.7278459231762258 0.38246859200808975 -0.05324842840770876 -0.46981215319732256 -0.8787827833416003 1.0061296016367498 
0.9038114496071877 -0.42201311377456935 -0.7291718377201534 1.610191342118255 -0.32385514512538366 -0.5647812704018101 0.5012218128525219 0.23143848856795238 1.8063221541708077 0.27020001265475463 0.34013316922355535 0.13390553091559781 -0.31634534937456815 -0.14147159671084802 -0.5025634439273697 -0.6349869684408681 -0.6559633856530129 
-3.7402846607344795 0.5166080914282384 2.403556789454418 
1.17242485439821 3.986133901208643 -1.3247082365309717 
-0.8768049036293548 2.768226741387011 -1.0575010800518216 
3.7418987891335993 -0.011131502884648066 -1.0611993191685556 
0.7464773292611715 -4.335475716055849 2.635906220537323 
-1.7209524156644822 2.1974370830139787 -0.11130826059045741 
-0.201369624211012 -0.5605919450249491 -0.5715651918577062 
-4.074699903972644 1.5219021583594126 0.3988458045167198 
1.979610735302814 -1.6646764500924167 -0.6300688791817829 
-3.857755372500756 -2.8938178232510934 3.0184651943556364 
-2.8481936168788815 -2.613093164853801 2.1425009417695495 
-0.9346980615992442 5.130178071724159 -0.6272522197084721 
3.00551105311162 -3.51472845628608 0.16452905732104306 
4.447185713804483 0.32477757105883126 -0.961849027259753 
1.546386387501234 2.1623463757869836 -1.3606370896078956 
3.627995793683865 0.510937278830885 -2.6675964248341013 
1.4434423778364958 -1.9903115969246035 -0.577692593089094 -2.3647079826875355 -0.7790894598842965 0.04670425025566867 0.3794539818842144 3.0311706495933435 0.03076980463933706 1.8832548236767093 2.1286899727560473 -2.1662206124240266 -0.18517195906224154 -4.101089455640634 -2.42961464419624 -0.22036739948801623 -1.3438206616327137 
0.33305172424345053 0.40999424205209795 -0.7855629723765682 0.14715717071807483 -0.7893690280264741 0.24803270823127194 -0.755930960578246 -0.5225712033909183 -0.7337785122149967 -0.44294388033779764 -0.3453067008159469 -1.0166575549963528 0.00010874225421692566 0.2881218197335795 -0.42913461400861835 -0.8102940766516951 -0.6387390861608271 
-1.3996350658689227 -0.5654808001075106 1.1051675056063477 0.7597702996624967 -1.644812758794961 -0.4589589332521195 -0.2984189597054273 -1.1231539722343775 0.09505601728813581 -2.2471542538061566 -1.462936789528383 1.2721342978402774 -0.4645951985444926 0.15022358924935683 1.339044983703901 1.8278593637529799 -1.4663542613017566 
0.2129702476602814 -3.3931685467804997 -2.2624962325611127 0.07325545373734571 1.890658889049722 -1.3129780147786383 1.0660013360633414 0.14283066098952615 0.4018918721978116 1.4026073864932034 2.7910575325606537 -4.037057728551553 1.485790108799891 0.7085540189979174 -1.3625652080302517 -0.06599969995444005 -0.869758505602609 
-0.0598012069525051 -0.9175216178937198 -1.2618297661640068 -0.346980689220693 -0.4038092919732872 0.5373718612912911 0.7088850448974137 -0.7556879023263321 -0.8019159054353289 0.37082439244671334 -0.819664890920017 0.08270460792057086 -0.5634357659561344 0.40593664174166005 -0.19983322797924205 -0.0879247488450915 -0.15548562062185686 
-0.5695594438040895 0.8770911377576625 -1.2947895490525416 1.0462910616636676 -0.29004877836797355 -0.4586920677358331 -0.640473918686794 -0.3735378886929346 0.9511256200256903 -2.289122566879536 -1.6427581759840573 0.46360959458060225 1.0297712801605554 1.4093378073435845 0.8646078171925194 1.1372546008931603 -0.39067895559302274 
1.7069096432557824 -1.6635596808526478 -0.48621015224869507 -2.3251207324521914 1.6531944761463029 -0.06313737109591518 -0.5270029818752889 0.8292863972853476 -0.6465477698672334 5.531782340285188 3.6963569098632734 0.1776860930591055 -0.6778939550439599 -2.5932157305463144 -2.3369707917458937 -1.8503262854528462 0.29438411912662343 
-1.4599970853282007 0.4813406205064677 1.1078801565759977 -0.6957789773973091 -4.276933562159526 0.354354160826262 -0.6807066212197447 0.25968561728149536 -0.6451201146451349 -2.955935292849936 -0.9370752890363635 0.7434968105696478 -1.6989677641404444 0.6039682811934876 -0.05220460716353735 1.383206176207273 -0.03048445031931449 
-2.6714155255424554 -0.9811642804530424 0.7901676370971782 1.228466516377416 -1.8709619418562526 -1.2979228270837755 -1.0913869926638013 -1.0664378917658945 0.6310385930992872 -3.37294905565001 -2.273731199873481 0.32211937949199754 0.5000866712723185 -0.8052328818515507 1.4971609745487693 3.287901254184284 -0.8539929711198933 
0.7601655123821232 -0.42207287107942004 -2.5524511237079093 1.363709188459704 4.577830755629946 -1.5940418357713133 -0.330288408209383 -1.7261961785434814 1.1462151584471705 1.5084240347920173 1.3556292410652568 -2.045643725186556 2.0268640985248236 1.4719984929906273 -0.47597897328902683 -1.9972101306241095 1.0055956917594624 
-2.152421642826923 -1.7110038988889436 -2.3624843394854547 1.5151086527227173 3.9159438730900886 -1.506038414546896 0.8769244067209212 -2.245242000293584 0.8710526642463389 -0.08505719601560718 2.381223456708354 -0.9490062056704291 2.908399073141137 1.2527882699009525 -0.4074767108992423 1.8334433663603318 1.0000557763138054 
0.5800344274136924 -0.5216165208902257 1.7382656599286062 0.15608494320882182 -3.770806067239045 1.284649748750907 -0.8988045853227706 0.9118720450136605 0.34493357511323736 -2.6259054843399943 -2.343262629039791 0.44316973703493817 -1.1158556420566297 0.5051328142374447 1.0156829247909105 -0.7324859362951884 -0.5331145020000402 
2.4057913594068925 -0.11888242884390232 0.788138491907666 -2.5833400220212415 -0.06231120816935513 1.4983330890497966 0.41854821306030315 1.196967472296691 -1.2436251087355084 2.799324946670352 1.0620278635385716 -0.8827575470919197 -1.701636394115069 -2.9491604539125884 0.24185236705320542 -1.201425298179268 0.2886665010671216 
-2.627877518040177 1.179751134292242 -1.3971413277706515 0.717112832913413 1.3268322113075932 -0.9526466350870745 -0.46771666058814393 -0.6662573389321779 0.22835026050327606 -2.395695346409228 -2.469693589162401 -0.9724826822974799 1.7828232415631293 -0.7817922122760211 -0.0445376380844861 0.9036445012554712 -0.8017886907098076 
-1.3430035614360145 0.3643769252089742 -0.9552611101442318 0.672696616082081 0.11660745157673053 -1.4050013160547654 -0.14775090037908234 -2.194693553317863 0.6098924295782342 -0.42877003543772335 0.5868424257331165 -0.924207391778844 2.572445697443139 1.4417350533892972 -0.8593591359609586 -0.48251839356158793 -0.23760087397940732 
1.5808233038142618 -1.0426234556919067 2.2000985331044847 -1.6493649663262278 -2.9287089262609234 1.754036467867972 0.1344948585864691 3.575823381607158 0.2051254427153444 -1.0038273126709831 -0.04471076962599103 0.7328407533275337 -2.932312990360897 -2.8385045046803374 0.6285140650371368 -0.8703158610837348 -0.609496775068212 
1.064115097509358 -2.310367203825622 -0.9759219405152884 -1.5156510274768205 0.6132655848860333 -0.7294544009920781 0.1838226761845456 -1.8980743331067644 -0.9610729079788691 1.7630773053580302 2.229382263354715 -2.313297228503383 0.8149995821231778 0.12518872139481577 -2.2617999902731407 -2.727921705305788 -0.3703050460704088 
-3.2253520043863073 -2.4166203838713414 -2.1485960084975915 1.9594332090178783 0.9426744070458327 -1.9828303159261325 0.48796868922647385 -3.4842955051124753 1.3220017500517334 -0.9470121423511914 0.25413065947268865 -4.366618344647579 3.4868895312470967 0.45830111350540365 -0.8749125873691497 0.9628845355382305 -0.6088495441826941 
0.46991887935618354 -0.1472680036356929 -0.006269999751943915 -0.23243682445731226 -0.9692403341127369 0.33165977285899473 -0.8062426742994223 0.7587283746650431 0.3134291340190713 -0.28165903893026145 -0.3251260383231187 -0.778655987741682 -0.038407033376225405 0.06127990442356432 1.383892203690382 -0.9150739245899354 -0.916116397787674 
-3.8386948329571045 -0.8216920063780233 -1.1940924473263748 0.44909696002558264 0.5875617339163894 -2.2551186006321977 0.022555228804944427 -1.0560175436748458 1.787657986943174 -2.6060896186224025 -1.8026145615768105 -2.472915390682274 0.524122065272969 0.4798582749546657 -0.7213422962236983 2.5062549209846363 -0.5092784512272828 
0.026791693015204537 -1.5694868331601932 0.7042454458661147 -0.7580345889011707 0.9770400167369151 0.002615049227160119 0.10105102621443914 -0.5426943741952639 -0.7185370574690426 0.4891547736955701 0.767259136504594 -1.726500320186522 0.7031912955205161 -0.3030773166567089 -1.0956021391278015 -1.18700847527965 -0.6536996649872622 
0.5528047034094357 0.7213651648944267 0.1338905986278522 1.226484041793168 -2.1398418011362637 1.2543206152864441 0.7184344981178223 -0.22193625382850515 -1.9183660663599125 0.029078496183069163 -1.107875074707176 1.012272119687312 -3.366174115713979 1.3501610430536402 0.6395526748403356 0.5310689520301469 -0.23686794597533953 
1.9435342424524011 -2.0625756473024994 0.4168528877223008 -3.6792629372531938 -0.7810425552743184 1.109093171668148 -0.21167906563359654 3.5585081036467052 -0.7253435588422038 0.9349152584798971 0.6428716413340128 1.8853566122571137 -2.17238808279813 -2.6150934978549625 -1.364235199173717 -2.051439290549937 -1.2035727104403129 
-0.9255157258222575 -0.29578761625433364 -0.19344808396833119 0.3007083348353037 -0.8959986961583313 -0.11843870950805109 -0.49030976496667183 -0.6757945945205636 1.124773889801327 0.40613622329708354 1.0044688927613932 0.9765968542649874 -0.3830283450441463 0.49415305840698576 -0.6292307316332253 -0.5796299785174357 0.5474412366705362 
-0.30814514561300155 -3.222138681561081 -1.2817196464780791 -0.20662918514436157 1.6376145350992195 -2.2859822544357176 0.038349343195709366 -1.5611417147325726 2.069829597679199 0.44733993873721994 0.5596724514056363 -4.143357571514659 3.3973801250797853 0.5028696775881484 -1.1303790050669953 -1.0995379788290622 -1.136073467920836 
-0.5316430528190995 1.6060994569208071 1.730315247625451 1.6587254030529748 -2.8347422654994365 1.1712934084718687 0.025358727165415235 -1.5019142655599182 0.0633375942450702 -4.095875151348864 -2.5297905772184683 0.4620247450993518 -1.7934385033583682 2.1505227101225937 1.2346873202132786 1.4681444997807713 -0.06527602629022095 
3.8931425823421164 -0.9991041963751792 1.0211051758317533 -1.7353810516583072 0.6119969917950197 0.8453643994773758 0.2157648355225261 1.8719161445257706 -0.9937259189553586 2.119462778462162 2.38355267599381 0.6615117199812707 -1.60200912569808 -0.1801760407648512 -0.9450342673224762 -2.5952411593213665 0.5251818121608705 
-0.7396746918024988 -1.4356530645824837 -2.2085981239266808 1.5316921392348872 2.333800065213567 -1.1735485516011313 -0.6409898375584572 -2.7504325293143097 1.1962208294758192 1.4642832158224108 1.178463001262791 -2.9653108926564724 2.5358056329071004 0.6129926340517209 -0.44750674481265473 -0.7939360118405104 -0.6302467051546389 
-0.8498532805220328 -0.5222285501437018 0.1891153490850935 0.6879144288575776 0.3374684214307363 0.14553011563025392 -0.08414301314307009 0.41869545738135117 -0.725239252955412 -0.6268940754278387 -0.6042777753393895 0.3387459040739642 0.008645987297402138 0.2472099186012423 -0.22091770561152607 0.1671155958988987 0.21906380152037785 0.171518312100876 -0.4637961043472994 -0.009344948952144317 -0.9470249128330567 0.14472333632929324 0.060714049500228004 0.004797988119537291 0.207218939048293 -1.614266004180562 -1.3442697088819473 -1.2062443944216092 -1.353711696611703 
-0.12388708584237458 0.023314002388122538 0.6111987646850066 0.7303842385211075 -0.22534676528778252 -1.2269548810569537 -0.09984069287749132 0.2185571294496161 -0.9921219671761952 -0.4137835326961942 -0.7614089136062471 0.32062461267167924 0.3552278071189936 -0.5480014734758357 -1.1480767171463462 0.23988540283226695 -0.7119463703040557 0.6212026947140725 -0.08608927586535221 -1.0244477399928869 0.8296655054285201 -0.6809785238969763 -1.0949794006245317 -0.9559288146560809 0.4815479901656876 -0.37109367312115743 -1.2183257447079587 -0.1826403798325822 -0.43215752616210795 
-0.32124483761161704 -0.19797829193563368 -0.3786400681727672 -0.7478263763761791 -0.7891326207937868 -0.12485611647460708 -0.4712803598350188 -0.8255406277675104 -0.48722559654849423 -0.7344950365558246 0.21862309284729495 0.64201968839258 0.45792303165297 -1.346613816959312 -0.5301547047477245 -1.0510714460079527 -1.2912380402110195 -0.44704469468522084 -0.6329703908459003 0.4948282183631677 0.130802979234816 -0.7255255754912957 -0.9964237746332663 -0.6255484455492734 0.4075064578886822 -0.6479367699360024 -0.5689905068234676 -0.08505024807716052 -0.5546579574174804 
0.20421879296913123 -0.8947263627323355 0.6264417750352881 0.5913006121082075 -0.45238956714533496 0.34477771306153154 -2.092295736590319 0.5179046306900289 -0.020207429708822385 -2.752251308020574 -1.91359624896366 0.7852586264210898 -1.3567679369639611 -0.3782023901752268 -0.7784330846765378 -0.7319357929301199 -0.8312292051830549 0.22313067219314614 0.50484417778869 -0.5186495392097583 -0.24706886988001672 0.5965304650711946 -4.343660196093267 0.6773670762204201 -0.8992338252746787 0.688318298036162 0.6432593815856219 -1.505138157158892 0.15363807477655528 
-0.7587129451073873 -0.8960086114302914 1.8112569379224193 -0.052893951105402084 0.6675591354321228 0.5617196306511016 4.572096126372259 0.22348988273413062 5.650212009249683 -2.31264449226766 0.024700721953046293 -0.2771264314241501 -3.355708105024646 0.44746912098534447 0.37558567678911475 -0.4202293915452958 -2.5549888391478497 -0.13861240607809752 -0.9113521405395724 0.9682114369656104 -1.8840903173043277 -1.3752321103705267 -1.5722005911311119 -0.35200391744768794 0.6629244285880673 -1.1955900699456228 1.7980464333175619 -0.044619285147137894 -1.9880603996049413 
-1.2148324489120443 -0.2016398406766062 0.7725222491107635 -0.3827420656779531 -0.7461980229499822 1.8387619020820825 -2.7960261055279663 0.9394262226685939 0.6245989562460394 -2.2100949770857725 0.34949374591030474 1.071826435812499 -2.4189029470260466 2.114977552317443 1.1523891391681582 -1.3299585833704304 -2.0212952165946283 3.526048062311646 0.26361571004821277 0.8224128089672414 0.1889463118891618 -1.6709155670950682 -1.530509783831789 0.5421688426794283 0.18462320771073826 -0.7798199167763905 -1.3593510853239439 3.515032240895903 -1.5930125677156801 
-1.481990060845614 0.7043132126738504 0.4968054850832549 -1.5973655303857528 -0.4127802264565323 0.6108943639605697 -2.7989061858571254 2.1661584145065373 1.742532968692827 -1.1254614710895676 0.336061469169817 -0.045765198609272605 -0.4342608693096227 0.9814278398934111 1.0972880414966069 -1.080237143376975 0.1250157866556903 -4.764462965377079 0.873892628734286 -2.2789575905119928 -0.5871289026638213 -1.8171621978017811 -0.9274389690980223 0.595657298850706 0.26727112332118613 -1.4542000208085542 -1.1691300091390062 2.5856612365794294 -0.42669616654980164 
-1.2153577189348361 0.8875528280200204 1.065516051980358 1.5485944960268014 0.6247771758584639 -0.6162153642202807 -0.8283251903311626 1.7701862509258572 1.5469983661575593 -2.09898160656057 1.2013777678433943 -0.41435981869047817 1.1734234364016547 -0.8167886247193447 -1.9786419553344754 -1.0198158743140526 0.5077724456407137 -0.1537733049745084 -0.1623077245581989 -0.40102394872742375 0.3189493101853431 -0.6321277619322647 -2.3619816445274266 0.6743112977371784 -2.6878415223149585 -1.2798197350854081 -0.5934683482023371 1.5203774929111284 -0.45167947866571145 
-0.5454104965881644 0.5564408781365743 -0.4640702763736057 0.5677281906731556 -0.6898336118673096 -0.8621295255298157 -0.5286770072698765 0.153494594425952 0.6400232241146231 -1.2699330296080036 -0.052825430608288246 -0.8899933896353395 0.3794159275405069 0.320792785240156 -0.21513275933542547 0.19188948246880308 -0.42934007247422434 -0.8674901584984746 0.5278275831332366 -0.38950173947323885 0.3155815631260352 -0.5724677358986826 -1.0838206063805185 0.41091858235816064 -0.7149273983819867 -0.9231546118290505 -0.11996542925697017 -0.5924005562103386 -0.9911134802718193 
0.10730402784854665 -0.4296748672876168 0.13272368294402803 0.46589467959965175 0.04541975403179601 -0.8383854554936755 -1.2605909945263845 -0.17622400400660623 0.6913059883011458 -1.2972863746861871 -0.06586581478260382 -0.45940353332899075 0.0010674545702777088 0.1934619220557238 -0.7143698505937646 0.7256328352201168 0.0827378664961294 -1.000907253990975 0.7906637552322674 0.5596586204742535 0.8818826646906164 -0.8934792866227746 -1.3490337005154425 -0.3490288938364977 0.5609059954131543 -0.9768537689280002 -0.28161224790797024 -0.6482601586295511 -0.3375999019609808 
-0.8755010140401643 0.46393923032601664 0.5733392593151246 -0.506654656326603 -0.6338882450370121 -1.005859412699874 0.6117934417543069 0.5084971795054344 -0.2772837994467918 0.5512490740640992 -1.0959709602095125 -0.8648784235846847 -0.9251688506573792 -0.21863143334925553 -1.017085567750362 0.06315605113102013 0.5762365018214681 -0.483890264917275 -0.28957631958367763 0.047900033168083576 -0.9499702654526712 -0.7948839180498716 -0.5429176810028564 0.4184420767546635 0.5618643705130529 0.647864476003946 -0.9274920440505958 -0.6503997974226399 -1.3046177475144478 
-0.7928482194158862 0.7329918670263419 1.4736913877842912 -0.9363886358440198 -0.8106210564578374 0.8183123122451946 -3.7110259576230713 0.831307841869275 3.4904065313625035 -1.725497914593376 0.021235151515904716 2.340459155443385 -0.021354555787510728 0.8286249207553975 -1.3768980005966776 0.4422260153957622 -0.8536981509534041 0.9510938475295716 -0.12956620978894132 0.21196084758374273 -0.5263654366612317 0.5407258558735514 -1.0987944962062028 -1.1022072251998913 -1.0990587384870056 1.7007755093436503 -1.7931418765855303 -2.1241237033827245 -0.9941998839209989 
-0.23158757248054482 0.5793208891911626 -0.9766741147166013 -4.5952985864475435 -0.3096214561466112 0.9845680361175462 2.3144746305485273 2.1618411071326586 -0.4213387713829687 -2.0677131152891235 2.2937595910023494 0.6791476345805533 -0.3453315149061416 -0.9583014078013462 0.7418986163454587 -1.5125789897614461 -3.3678439127982545 -2.749336743965528 0.29342512065137066 -0.8665200405851952 -0.812868887164828 0.04437103430696705 -2.626175991762802 0.06793390957626605 -0.6177170653160153 -3.218574846964684 -1.3225344790153295 3.192141221167245 0.7855100101157834 
-1.1871065508105976 0.49763093355207266 -1.4491632448552998 -0.25720133410183166 -0.40164335660928563 -1.241285118036148 -3.7215181782860296 2.657206834354258 0.578552188368961 -0.9095347054881796 3.656797351032299 2.0366726093637193 3.846662996711471 1.4940416270710406 -1.4732578271424885 -3.807429530162931 -3.5383620407092624 3.7613188978219694 0.604304455516651 1.6518576496902675 -1.2319293865235879 -0.3241782544459058 1.1707054790836604 0.2134684455612864 -0.39413352088319176 -3.005406567555861 -0.3104512650992005 -1.7284469498435315 0.40298484864956824 
-0.6081298477007646 -0.5336122324803944 0.7355729817153345 -0.17874119656563034 -0.2020935633180665 0.6033649454410069 2.5978263154700874 1.8247948068737327 1.4830136925581336 -2.28771115986984 2.7794998819095187 0.2720502499924854 -0.07788638309115473 -2.04787746725318 -2.4665199722883413 -3.4943377503989064 -3.105925116012771 4.250283219236998 -0.39071656519287856 -0.9423732045892799 -1.2538109009611447 -1.3267314800857324 -0.1290139019648544 0.7773511872637068 0.329910090725605 -2.3162745802448548 1.6242530846182281 -3.4001402480551715 -1.3808887737457656 
-1.1612229729749093 0.2681745943483199 1.177169203329321 -2.013838717647914 -0.45896385541310386 -0.09814584816284681 -1.6302819069899481 -0.8691983439474097 3.0231733213192276 -0.23596600338346432 0.47538430046916147 -0.2005045332492412 -1.3527300602083185 0.5195958264858339 0.5270172704109639 -1.0425063360352307 -0.4654626129606252 -2.6533589645581386 -0.15178562594237635 -1.083559223814666 -0.2315015075362493 -0.8964466439544977 -1.5772924000429076 -0.26824382792319806 -1.9363951703085136 1.6000802882607317 -3.0071865889138167 -0.3248416746475297 -0.42067832075295203 
-0.577382847677639 0.7229079906416833 0.3753619459335507 -0.26104920443262636 0.925015212778158 -0.8715297528614042 -1.0212395497210498 0.2852699359006221 -0.7289310071339801 -0.6495384423169459 -0.634214943564129 0.6031375136986674 -0.07864261172005496 0.285049904156701 -0.4067497414347745 -0.6052774110133257 0.26353892168079446 -0.28525061714915234 -0.3270046625974976 0.6208873138276902 -0.43638828749763253 -0.03698524347528854 -0.719277385690336 0.07601947711110256 0.32325058556708575 -1.2897278366282394 -0.2845452877408042 0.11799102311529555 -0.8522744130501291 
-0.1479029200596072 -0.0674533988387122 0.6699064217700041 -0.8624811432413746 -0.6625736350055627 -1.2665999606154787 -0.5851412599608312 -0.03364568740109188 -0.37414031795791 -0.9391321930969175 -0.3228136880138875 0.49202501474340155 -1.0155018638106754 -0.5703009172326171 0.27054193878021376 0.677643323391745 0.6273186513699505 0.8099015304820995 -0.8848693079784961 -0.9259104002403364 -0.8297309443835719 0.520721334051927 -0.5016271644530923 -0.6981423629950638 0.6916447720876201 -1.448324075622961 -0.8290245754149357 -0.7631519798914532 -0.6961491306961467 
-0.9227451840200408 -0.8609131858268898 0.4759070427760513 -0.8936959256100664 -1.004791611219043 -0.20759757132790888 -0.985306065640114 0.20854183554898909 -0.41870290672322646 -0.10855534911537697 -0.48275923288087125 -0.38730716317814434 0.691442346690738 0.03189466143169978 -0.9530856421360899 -1.063434732068783 0.24267259108209455 0.47592972086357666 0.6670343250381376 0.8553091956306015 0.9833702862802663 -0.9660198559862712 -0.05874103145487058 -0.8041546326919432 -0.23554609356834735 -0.4504472894839064 -0.05870332659733806 -0.7101311339657588 -0.8852843124278351 
-0.08825116388365012 -0.7024570007257313 3.1722261387352844 1.1081570728710664 0.32401403423497643 0.9425248387467635 2.7090822420180007 1.0349478531655876 2.013377463935609 3.8179442306265736 -6.51270402816053 4.424591374995759 -1.831699477812841 -1.2188185945411258 0.9483233775859863 0.06475506233388181 -0.5142431979815842 -6.348266735076579 0.8917652242485453 -1.241223092689491 1.4905892832482959 -0.13846242455371752 -2.0937205157974144 0.05946044233615209 2.8624670965193113 0.15479648936911955 -0.40432598099649975 -0.34880492867776247 -0.5161488226683146 
4.769670256537216 -0.08106459674817962 -0.44237650144969776 -3.1849716426298826 0.4074127537462599 0.0370945499731642 0.08018071764550148 3.0015274129998115 -0.06515119092465721 -3.4605512689799727 4.252241182795578 -1.5015634810778378 -1.9115344247409145 -0.8242809242670244 0.3353179096967959 -0.6879288593517868 -1.8522371720832145 -3.5021403713021706 -0.38427219996411194 -1.552768994305483 0.5422947360556014 -0.5846304090584524 4.342505232826256 -0.19035640533523593 -0.8216716900484676 -3.4042687329545185 -1.4266460198718418 3.4650217958578895 1.6229140953367147 
5.222118850850357 -0.11109711994751277 -0.40576784226754176 2.515623598878501 0.13242798623080684 -3.2615999286016675 3.075640058529609 0.4745129677675444 0.7277607354956059 -1.9442744472222169 0.778334031061955 3.810976828147924 -1.502870596463086 1.0948584381792827 -1.5235157749383623 -0.04612211576448464 2.1010664065194513 2.929398969411039 0.13544891830871372 3.014501267306505 1.1712892614860972 -0.16186395857200256 1.634587258602791 0.8651845430799547 2.672194003582347 1.2589451600674793 -4.213243405767792 -3.6131670090945422 -1.5014687393094024 
3.641292355350685 -0.7420738859026283 3.0033060365796236 -3.1322278134676016 -0.15902363409132683 -1.4378157486718188 2.7567153400258193 2.666811104126467 2.253982499453252 -3.8875377004390215 1.1051838287114506 0.09143466193572138 -1.9527565666915596 1.6784817480295113 0.2691614364045502 2.079602402406329 3.5072264147732812 5.6275610021645015 0.5180872199200917 -4.282797200122118 1.2287982547527572 -1.9023842364997559 2.4606156085703135 0.1355341212690404 -0.18408605014959795 1.4548389187979498 -0.5930092987732907 0.5841120864381624 -1.2204202080601911 
-2.8438799422813155 0.8428725813837649 2.3874108974968364 1.0148083046658625 0.6157550625761163 -1.6343234088614507 1.634155038224339 0.9787301670923094 2.7069576090190717 3.5392275904103645 -2.1982627022244303 -1.5048188292251576 3.0297759225650047 -0.47856536784571196 -2.127956737180691 -3.0573084873487515 0.48479567054226275 -3.9608681227751914 -0.11516250235103141 -0.5436120436614409 1.178429716891922 1.361492940976411 -0.8683729411189361 -0.9369223231351893 1.4340710341262703 0.3635660538955296 -3.2239649415546325 0.33678608831661605 -0.028262918546701266 
-1.1866767853760696 -0.36387410593348085 0.636949879963158 -0.6285472773901896 0.3749011988125911 -0.6356430829539342 -1.224391601254527 -0.6036386704296401 0.14036274230369145 0.15766159984426414 -1.4034830712797435 -1.1635495917044916 -0.616685175841793 -1.1088524005912912 -1.2046483842140419 0.28836072534408524 0.34373123744722417 0.3472143556039701 0.15076988892036877 -0.2749792611312298 0.73728250429078 -0.460026444239932 -0.040080367131976984 0.7343640168532511 0.17106776809378635 -0.3554284536081825 -0.9829641687012952 0.38771339256282955 -0.15056257088211872 
0.23956085591522056 -0.9599140338843262 -0.017429295466374208 0.6912769406114634 -0.6622126583380963 -0.823291290541015 -0.30655571017007127 0.6432470145367484 -0.008665453968508072 -0.7587910096077214 -0.07793345081112701 -0.517252098608736 -1.1455648572906334 -0.5950549629123942 -0.893220036288658 -0.383318287052221 -0.4120305789963719 -0.26632177789201433 -0.427279847901055 -0.4367071225628757 0.1310772687707375 -0.9190976811649506 0.024410818904049645 0.18234274859001742 0.2985644576682515 -0.015867607161564486 0.3242391645456069 -0.22203578607456903 -1.4080642671730896 
-0.1420557159673652 0.0006540367166237993 -0.15710221418579426 0.17991115275197467 0.8750677927348807 -0.32683320164841373 0.5419612431591758 -1.108180922857517 0.7378718369073922 -0.787422332253049 -0.6226496559243566 0.6845400090441667 -0.9583429932651377 -0.7561566600909986 -0.456695556526743 -0.5032453795152522 -0.19742351889609688 0.0901369170245325 0.3358269354289142 0.7571461122161105 0.5836067948443494 -0.6848930085024184 -0.4309991279798504 -0.748025204437089 -0.8488090766833488 -0.8857933629784565 -0.7330005151791882 -0.185234190405116 -0.17407552241592683 
2.5098105284922325 0.30340048022236726 -0.7990353773126987 -1.729173065375594 -0.5186750055870302 1.6676254484701623 -1.968089624434477 1.8637741371501968 -0.639968133368533 -0.705060352653226 -4.782466230247542 1.6913321632853164 1.320606851952265 -0.6454793259876077 1.1189309330403812 2.931751980298419 -1.2087683037279682 -1.983774481256486 0.052383828091732684 -2.074014086147308 0.5290245211049681 -0.11128458639237654 3.924102743705352 0.09137983514856951 -1.2679759276733928 0.15008683660674435 -0.5052281028364825 3.1712177521355382 1.9721370211089848 
-3.1401855671091017 -0.9774058544522204 1.6570734674689929 2.4379346770184416 0.7491334507058985 -1.657027640000024 1.733299491053055 -2.4277057498484984 -0.4485943745182516 -0.9448822752918072 3.7886886442885723 2.817048590272561 -0.30903656822282216 -1.9526681360003433 2.1512691847904226 -3.564979601314894 -4.1611080911782725 -5.2292417015358845 0.658757859469053 -3.4762514382331675 -0.40204127448039356 1.5017605344984144 2.256998513347066 0.9881778469374853 3.466738733597089 1.501528780129635 -4.7478459816286485 -3.0035414938320897 0.9875797573286185 
-1.104233243671403 0.809484527945609 0.42660402404401 5.638012430515943 0.07062215177600631 0.09633691368166934 -2.5729687282823757 0.8577583354794209 1.8750326689709085 -0.8310784399923118 4.381881799610802 1.036315687692175 1.4572738493010235 -0.6691084366119482 -3.183325531162118 -2.892286425123371 -1.6823078881775346 -1.147690322522878 -0.6168352933708853 -3.921099462096577 -0.3339029292649516 1.6383286489143725 -5.161121239552381 -0.022530923557944657 -0.8810903633460079 2.9421019528821764 -2.4448890312935183 -2.1287305184640735 0.48683716520288356 
-3.3597880986715314 -0.11360347959895271 -1.4926529921995892 1.9010514618553513 -0.2537117010969708 -2.4347495938946926 -5.016933179605885 -0.3979490196087651 0.8495136861056994 -1.818785690585023 4.61325353393164 0.19358344978949324 2.8949970262926623 -4.269638565246514 1.2089885802019487 -0.09114445536683373 5.17472962458597 -1.474132202724563 0.711562609027213 -1.5003422897349803 0.018985903980274166 0.8356073982027994 -2.480787485995764 -0.7791851042943044 1.4315283968517463 2.862728455945812 -0.8691065757116028 -2.1393228374801687 -1.1364615097902664 
-1.1507498165044618 -0.23945752868695044 1.2824702908184973 -1.4583421607593257 -0.3087635109589491 -1.8079713505156438 4.300008158694993 -0.13257698691835745 2.31005204160586 1.571652296122032 0.7318359844407564 -0.0567094767221831 2.7637228794071946 0.9974543730276493 -0.5994570834202763 -0.14916384550927084 -0.15476653487070613 -1.7855752274805314 -0.16703033187085328 -1.1300592322746332 -0.5902523371175129 1.5798846843808676 -0.9213304413849982 0.8461855805871729 -3.1646018783501915 -0.8936867766449261 -2.6279448911129144 -2.4400397840015255 -1.130218037848831 
-0.4611486820993381 0.08098082321315579 -0.7072784420834585 0.8155448490877637 0.39809100385154256 -1.0333034161573134 -1.1476208730237507 0.6312970781723177 -0.36264427754369744 -0.963072534688336 -1.1768580709922403 -0.32981902785835754 0.5202025755206318 -0.8765731256955178 0.3345900987019318 -0.9403343925854949 -0.100074186746988 -0.09368587514570693 -0.5187786641401653 -0.8869678615062695 -0.2966759297687158 -0.6101127535617742 0.23199212251620774 -0.5752157028987176 0.18648265800024283 -0.24296627229376172 -0.06545120441329967 0.021272910514339716 -0.7657851764196506 
-0.7627499506088371 -0.021309962553315485 -1.0300736054652992 -0.8875434990082306 0.9593877799705856 -0.9121480895127293 -0.6041176771746949 -0.6203931713234895 0.44478975898609213 0.2742117734094449 -0.739305768527325 -0.11485559189745162 -0.6412019596428761 -0.16251331241932007 -1.174487421865233 -0.6443575548083875 -0.9034350222348114 -0.32233500404024684 -0.6347007877360544 0.718764612743989 -0.12531830061402474 0.16096975588745127 -0.928804404318063 -0.3595468728263805 -0.39538867113054876 0.35450546366506525 -1.0918628802062376 0.13957918316686427 -0.7213039103970827 
0.2977358952951248 -0.14053782369338452 0.6421423994913561 -0.504499339400532 -0.2542709417123834 -0.4747042351762261 -0.8419356522068752 -0.2733946935036726 -0.05238731134552147 -0.8673110702420527 0.20652809331003788 -0.48992528824293063 -1.106554166139672 -0.2640386238152404 0.4537932319158074 0.13952259887652332 -0.1709276059185289 -0.7320588380918767 0.6823638052130226 0.7310552919405345 -0.056848894974554344 -0.729376984417493 0.3239938749102768 -0.06215147049041546 -0.3389046724331217 -0.8504170920929253 -0.44061190441949777 -0.15795037317925542 -1.2571766310066261 
2.188566682217894 -0.2510349693459867 -0.8615052183433113 -0.7703796258135965 0.8393584561391432 0.5194149696098308 -0.15993024643109321 1.955448757166531 -0.8723158777351957 -1.5903065538778012 -1.3699606583935868 0.6178810075527145 -0.2784198978585911 -0.7562290485030728 -1.8057356412962462 1.7272699354586951 -0.4999490203716917 -1.763924710380646 -0.03266672017317105 -0.2702313613659445 0.33625111429204474 2.443545148877706 0.2706267113522609 -1.0512207062376524 -0.6341779918364095 0.31715411672023247 3.1343551869932376 -4.279477637623924 0.19484107098906903 
0.9776485317378574 -0.04143118265976223 -1.049257666182195 1.996553416526376 0.15952532550554072 1.0378339100321474 -4.114838026950372 1.1646645013574997 0.1975884392540766 -3.2035859530792794 3.9471769812030204 2.1543545526676926 -0.6217748403574007 -0.8854281972786161 -0.18989791132491854 3.0958284889485816 1.0178198332107806 -3.62987425714603 -0.21973989582410453 -1.1121839864090166 -0.37696617559193396 -1.3995165415360598 0.33213677219080034 -0.050363263387080213 -5.26766367736612 -2.011775092691685 0.26297546270673916 4.3265603296624136 -0.6108517442647665 
-2.6307870201681673 -0.6485767064948214 1.3393277742953622 3.1529049495961994 0.25344230673747536 0.899647276675046 -4.816607664858297 2.8224943076253894 1.6955989729000147 -0.5092053644528731 -0.31647827729215966 -1.3239695723145377 3.204761590530284 -0.16898384393947097 -1.6638387362103986 -2.0843104387393963 0.36388943860118655 -2.1173112087912034 -1.101404770354332 1.9403508805681238 1.6289603045184606 1.3300781510518238 5.288265239933533 -0.01183840288490119 4.806337678128652 -4.717222570508099 -1.211705862758775 -2.080268610026848 0.6293586679502046 
1.359862388760589 -0.18399413831775122 1.5525653062486269 1.0411429583109957 -0.7845242165943678 -0.019260579767290335 2.2079197414917284 0.2641890086399347 0.5697777353608776 -1.3208152202413674 1.7856311579930317 2.786940730631229 -2.298238165169193 -2.050204437440206 -2.7353243421484765 -5.803328497774717 1.1267392811060166 5.411133219134438 -1.1179478688497992 -0.19212057054220083 0.17886056447751425 0.6872282528146693 1.6971103230174467 -0.7219902148455076 -1.1415902230905712 -2.8074244662005876 1.6692958534869846 -4.129822163464658 -0.3685254270949908 
-1.3001618191497102 0.7467737526061101 1.501123576912038 -1.2784813874864922 -0.5526529283854095 -1.571879544039154 3.7460931517518805 0.35856070647051075 3.3683080035321664 2.0638567129103347 0.5286275769633347 -1.2702295254728184 2.5476516694033653 0.7349416652911458 -1.0609866604200828 -0.7109919839118333 -0.3274047061392766 -1.6020581887432652 -1.2778589950448898 -0.25635229923203107 -1.1739917011603271 2.0371055539128404 -0.7662014052723366 1.189784040566297 -3.072832834933109 -3.316083353409249 -2.3733337876237743 -3.2029433713791935 -0.044713226104300445 
0.5122319847117665 -0.14479106454673293 0.24764337808176742 0.47634677926427477 -0.9874117028400106 -0.11265068607539241 -0.10239157703610255 0.26747069669200557 0.2262358139042802 -1.0897911991289713 -1.1968709692067687 -0.09292508044777104 -0.5333034144719628 -0.35783800248039593 -0.161980654433461 0.48665354474991845 0.28259947265490565 0.014663952523258219 -0.6916747417779978 -0.12277125875089165 -0.6868952177919456 0.005890879688372962 -0.5759915940260137 0.45644107430823105 0.7330135586635109 -1.530589688951461 -0.34552096286396217 -0.9134310308874156 -1.4536154841712743 
0.5289058274645126 0.47276079721999736 -0.9260720769700859 -0.11171636578565158 -0.36911931482737453 -1.0588917181832487 0.2915432640756264 0.2247381025755856 0.05733493910663127 -1.2439480395438707 0.6728906889477023 0.1800608947651898 -1.1978464183194473 -0.8401041699634197 -1.0833341369347678 0.5246787547589484 -0.14660011333884082 0.6603334934724402 0.6994468035868899 0.3007675488524054 -0.977180800777638 0.3828125191984844 -1.2677506211240148 -0.6778723841066496 -0.9866643146878296 -1.2551531562887073 -0.3018029285115762 -0.3778525389830789 -0.9800612331125039 
-0.7316751475277685 0.051922696677797295 0.4196208401824049 -0.24314291448328818 0.7795082584734025 -1.323372482793194 -0.06148237139714977 0.039473281325255655 0.3316560950400549 -0.07028961411085599 -0.09177828756503989 -0.07717683200585407 -0.1497557362151548 -0.1628301586889345 0.5901118780597436 0.3425107092653315 -0.1963762204027496 -0.2506489975697619 0.19918765016777606 -0.13862640904991944 -0.3187521861795464 0.04242750090237557 -1.2470457874368397 -0.1087568065262912 0.3285616552877372 -1.2012924122773838 -1.1190153336718165 -0.794409932562753 -1.0725290876979128 
2.213188502283538 -0.48950007890292174 -1.029457239932461 -1.1680225312659893 -0.18094438296078488 0.9791439428317675 -0.014828292700385711 0.5596584118026366 -1.278853881370348 -0.5359355068155892 -1.1521482532397727 0.8041107818443815 -1.2823079580132248 -1.3548134079768457 -0.9163754934518902 2.049354062211918 0.4127226573721286 -2.083142681090725 0.71403296299704 -0.7730161307297322 0.932425301604952 2.503546091390019 -0.15137953333583073 0.35218085191177195 -1.7661576574880113 1.4962858551470075 1.214127447729742 -3.4204908663088096 0.6646121300547804 
-0.22687631542148243 0.49272155373371884 0.7910774519078997 -1.0522575552552451 -0.5314490028574256 -0.2780483753649053 0.28008877542904376 2.1553360053082535 -0.4745275489009757 -1.5262870956717205 0.7203853432104408 0.7183526987581398 0.40851683382723614 -1.7306690315602093 0.4454401623065 -1.8635688726499813 0.05030681492310535 -4.731821222380149 0.04812001619065061 -0.9542616423386485 0.44258220122607433 -1.1332241675493417 -3.67857449224886 0.5140185051392282 -0.23406712091747237 -0.7299953716456514 -1.8337139273667644 4.663797349047345 0.08795655240528925 
-0.3509006009090381 -0.19777578848523947 1.7135352669611905 2.9022680373781125 -0.016322675665807314 1.0965008371711782 -2.5502256014191897 2.5732793037409922 0.5437765927706905 -2.143730267079231 -0.19337224495750982 0.344377124921932 -1.6921187748299524 -0.07593447656232243 -0.9013687820713485 1.9048050597828103 -0.3290373331389946 0.6517864134908263 -0.14390721097853645 1.1675366870198596 0.25948005062530394 -0.8214280602101703 -0.5372496892433392 -0.8706598944944479 2.4844233320615734 -1.6986425684897615 -1.351142302985472 -0.68245279610107 -0.4234726369130792 
-3.4782638495735894 -0.12002417096792017 0.6795883505137439 0.17556816428603703 0.4419142196061357 -1.3627046550930997 3.913409032384907 0.13331682396721034 2.290635789176867 -0.7083234182831215 -4.14637486364188 -0.21928244097189772 -0.2616360653637476 -1.9813150858400284 -0.028324828573621258 -4.366210371274156 1.1985269126100302 2.137650255483178 -0.4400052577089474 -0.34265459572897944 0.5018034725054624 2.003445699625801 -4.370229870075004 1.2081738187358775 3.1216765932716535 0.21616276683023367 0.2731092482263558 -3.5152264533051447 0.654624741073214 
-0.8370470206828684 -0.9746670620869916 2.7174177431971422 -0.4146312205874672 0.8622485781994547 -0.9578577668559133 4.283608006507999 -0.2620176644181082 3.178478202070428 0.22775094188388786 2.836668260553985 -0.8380868126357648 -1.0683058178181786 -0.02171966655783734 -0.46243687350528145 -0.4648258671638267 -0.6504610507721951 -2.456694048912994 -0.9469855401056355 -0.7368738733667551 0.2544337286167651 0.8026794066504024 2.3943199752557813 -0.5473021686265103 -3.8551355471673365 -3.7558275032041135 -1.2310277744185356 -1.6337138280005976 0.0510468139498551 
-0.6083364575756953 0.5673918982838447 -0.9661294113099638 0.49762060419806964 0.6971097715298794 -0.01043991207584106 -0.3674534500450618 -1.0481203325847286 -0.8089659830488106 -1.4484353193502557 -0.9572882159124255 -0.39832178278597136 -0.009506322518482598 0.41673429686175184 -1.1426875317794725 0.46584734511323145 0.32220549902876283 0.6257216552713182 0.3406487472040599 -0.5424626046609314 0.45862969115155255 0.28499782677141594 -0.206912057652609 -0.520941769496418 0.3457294948465678 -0.40947262833231435 -1.6932744091674252 0.5361676869077009 -0.8666690455620942 
0.5118310948166862 0.8862804660056706 -0.30043266978234523 -0.581318942121074 -0.9030009493702605 -1.451812233950451 -0.6760883502319281 0.5463798808497491 0.3423591683135983 -0.44155320251376967 -1.0007711041737972 -0.6415847557696173 -1.109986499425585 0.17433551914262882 -0.6107467123019674 0.3326184851631152 0.455470615374596 -0.7621491057501708 0.5007357591505665 0.7383933571189041 -0.7847177779491255 -0.14837311185164642 -0.9279146866972557 0.24925021731484667 0.7708570885485604 -0.772519604905802 -0.4824075345800231 -0.9958550276866696 0.05059119467445031 
-0.4002201047672031 0.5764983014081749 -0.6026334320757575 -0.05554245034481317 0.3660927858133709 -0.7734019255731821 -1.0208403083809767 -0.22344177389737807 0.31350770165014313 -0.955741390398263 0.28416565278585915 -0.2261909321107661 -0.01946368343819008 0.2246259446305516 -0.12919384735638886 0.3437756064201288 0.017575353309695913 -0.2879673225274908 0.12782149434125942 -1.2609451004305126 -0.5834495577047335 0.30028896577577435 -0.2519273875088392 -0.19686639813966847 -0.6376156527830228 -0.14466387134319617 -0.7987933242867107 0.33751876667775615 -1.623503385468523 
1.2638699737949024 -0.47710709508046834 -0.2586146264374137 -1.0890812058391182 0.7168162222170369 0.9639524973835932 -0.85548594977078 1.408248946783824 -0.1680484619220236 -3.630407085238463 -1.067740583741126 1.9981930272466346 -1.3648384689209072 -1.3052092892002038 -1.406786781096634 1.0645683943099833 -1.0310076567149253 0.28786455075416234 0.47396037103188243 0.6144134560265405 -0.09899302437942241 1.0757018302370234 2.2698580784065827 -1.045873634392613 -0.11229567636765264 0.08620979830751076 -0.6287890483549656 -0.28035157639407354 0.6064064281925882 
4.5255889837821535 -0.22055201357011112 2.6037971845472976 -1.216646196282094 0.5536321952293135 1.194456786457381 1.2386681582843428 0.4971156280718817 -0.0105412472841354 4.562243045250928 -0.9685918492806108 -1.9946272826644065 -3.67225178895812 0.22022433189824991 0.7405120770038186 -2.0021382729867017 1.8674691409643707 0.8301042622718503 -0.812245679550713 -6.74389821378564 0.8141127216889616 3.6993271905114637 1.5209630233643459 0.04841813593057371 2.7901938261458175 -1.3659548821032577 -4.04006221987865 -4.468304984139963 0.7426378362741366 
2.006812467832057 0.475510874356043 1.039031098639562 3.011827449521665 -0.4735769507366037 -1.4909271796427115 0.7588763760548536 -0.13360678039905172 0.6271677598389956 0.8815739075318952 3.066992752590319 -0.9179733366837294 0.7836329109013178 -1.9353334684568138 -0.0587556339377879 -3.594854862262144 -0.05962329170395624 -1.0270496425470497 -0.9770493243044721 0.6806872035371592 0.5798433786863424 0.701399801467278 -4.233100078027339 1.6354057629982912 1.7896699561270477 -0.14429622920815463 2.9244428517784993 -3.5591943218515096 -0.6503232708768992 
3.2642885362248077 0.7911457300941638 2.9607516292238407 4.152412118101556 0.5398718414922059 1.132056745930412 -5.152949371972631 1.6236873181390865 3.5490965485688433 4.125979470960832 1.161341590991603 -2.917077649536859 -2.082686707655527 -3.430432809323819 -1.5367662266249502 4.969306446023305 0.09048190487477653 -2.5282696593772154 0.48446229192769386 -1.6944250020674785 0.3459411531721391 1.670374568828949 -0.19917306691370706 -1.180070406427767 -2.7455327321124376 -4.397544219740819 0.5653459374484151 1.5721543541290055 -1.562978418368404 
-0.9029281860126832 0.9139519707156174 -0.023370326506607864 1.6573686641933516 -0.4800659696007763 0.03800590627258827 1.1080653438131878 -1.1365801217601992 2.73837299243125 -5.198370947554784 2.9790102474504647 1.4348301053752646 4.260527683113105 -1.248928246804664 -0.33684772767600946 -0.5332708285056752 2.5377467842729335 -2.6800398122681273 0.01883431571380658 -0.26729789407675125 -0.6064882457427889 1.452645005867916 -4.966796204140007 1.0392587291048243 -1.4420840846014795 -5.69340236114912 0.7655844542399767 -4.022614262968707 0.6426520013460871 

Epochs: 10000	Train_dataset_len: 32