Layers weights
-0.743438042841958 -0.9349023879668303 -0.604442161622051 -0.2366859939776562 0.8017116480181312 -0.43753395839562115 -0.20228361289831576 -0.3800091385561295 -0.8411119972468533 0.8386092640477609 0.9936152398860227 -0.6511387213106451 -0.7967802448426543 -0.06779169565136259 0.6604543040401593 -0.5305737586531941 0.7654257866430256 -0.6725648184266619 0.4312163053468907 0.6146587417755945 -0.022929750726933974 0.06904718805830656 0.21501388796748613 0.5722682821362204 0.7100914054789471 0.3235585615691039 0.3760846690837685 0.14120725707272103 -0.3666310164697806 -0.7580644756523831 0.9125070266944005 0.008641582652838566 -0.9117869346374075 -0.7963987699061441 -0.6399659139622527 -0.21354466453113738 0.33274432020581374 0.6568501747558394 -0.4739075286157461 -0.39746734947388473 0.2248241844942125 0.2804169965452834 -0.31179864614120856 -0.5673101245994586 0.4179468041120007 -0.2058471696408688 0.5723080216044599 -0.7588904919960796 -0.18449097743403575 -0.7199069382423633 0.2373466737836738 0.02922132640439528 -0.3382226385021876 -0.7860101314492465 0.7103865466251396 -0.22363147809843206 0.3321157657908609 
0.37811999629422277 -0.06590485613577157 0.09374871720884115 0.5168146250781308 -0.8129859983954743 -0.08389649676716746 -0.26066844593187005 -0.28757026390408413 -0.5756768004538644 -0.7854227214266214 -0.44888356850304123 0.30239115949819295 0.5080600294888622 0.13501407257835618 0.14254246529017847 -0.6058096960349849 0.044285965491509316 0.7119843592487918 -0.6105168988779852 -0.5652631197689735 -0.01491553126516473 0.04967936817510774 -0.8613306239866044 0.9119620593407499 -0.892208941699727 -0.6709358311342866 0.7931117606042035 0.5515940234158244 0.58242687602557 -0.3927370145195114 -0.470990149963504 -0.8324427298590773 0.6524923547188195 -0.5264417661285867 0.24003244625001674 -0.8934942247907547 -0.9437363427900648 -0.043372422031905306 0.8938082420461492 0.9668028731525391 0.05820822279845528 -0.8943284658683546 -0.20126188744561824 -0.6265088900255783 0.4863120704385854 0.41927252847222984 0.8620684315916217 0.3334746186751804 0.413019559438526 0.677841903871075 0.8555984139532355 0.5897345074931846 -0.9701811814944803 -0.6834543070153314 -0.42395646074840676 0.5949014392280525 0.04581465064355343 
0.05575015962746055 -0.2985201440798946 0.6885441692398662 0.4958676691413053 -0.09638621243635395 -0.6114559946404814 -0.4223804618635239 -0.7441432898545014 0.2157347683226909 -0.6510307257795565 0.692893310029786 0.620292882124065 0.904902828038189 -0.7324656730886615 -0.8059501274413072 0.3130082343469875 -0.839490124545502 0.2655508554557311 -0.36751446377657615 0.34621735156340744 -0.7547930988707923 0.21560629330295264 -0.0009088150071704747 -0.48322143973179826 0.037667273841574644 -0.9896956749366403 0.6660384199423255 -0.08012976346411188 0.3613204895108354 0.14581995341287626 -0.32664152730774676 -0.7891659001683434 -0.8085241321679735 0.6405635537299985 0.0610485750399421 -0.8686916785234187 -0.06718277929487834 0.5630522217066379 -0.5014289345994686 0.46726209359069526 0.8138864197676217 0.21585222001839166 0.884262654241037 0.04946794347004522 -0.5510286231720122 -0.9009997694656046 0.1712414826500925 0.14499534854461227 -0.8129375018983769 -0.16518735242218874 0.5326821281196481 -0.9358502827064216 0.8507312020120679 0.7229001986029678 -0.09040159957849973 0.4027255133016579 -0.49223117489411705 
-0.33130952733948127 0.8110475297289184 0.6132058151903443 0.9004627114168807 -0.6586808028955758 -0.30440052387134825 -0.5243511755655664 0.6509654528743505 -0.7204881137011483 0.38053272545431294 -0.31376819042351145 -0.21693311411570024 0.8038115026575199 -0.20021959357021668 0.38719352608681173 -0.9282915143470826 -0.9883634146490927 -0.7257333452708179 0.21156000997375246 0.34195471316170256 0.012676498252891872 -0.8214498273599886 0.08731124392902608 0.4690132898821419 -0.38669826428406306 0.907119220458128 -0.9727965766139997 0.3874568081489661 -0.12331404086759945 0.8085102111173139 0.23927336098774 0.08672832584195524 -0.6789560369521628 -0.25728009629707005 -0.334661568943893 0.6962681014185989 0.7246362290935757 -0.17747388704497793 0.20789178883182047 0.4662551850333221 -0.5262137140898959 -0.5717938812177668 -0.7196581249430474 -0.08338450486079052 0.22720581770744092 -0.2923321149192794 -0.4640268901692763 -0.9098198980129847 0.6643228532024246 -0.8586378994342576 0.17652775394976583 -0.722588989806806 -0.3203205779061473 0.6960610296577515 -0.5322346771812833 -0.06686001076455043 -0.9622244446692032 
0.036726326291986355 -0.6621905714621854 -0.9153553987697847 0.22908636687363435 -0.7835440505266975 -0.4170659102826715 -0.2744864053676421 -0.07015445285690142 0.3899632287539849 -0.3554196164663963 0.3179999158980886 -0.9385919153089588 -0.12768227709292831 -0.3104455694335156 -0.7130810295530718 0.8628000709048571 -0.7035973295716018 -0.1041154464450198 -0.17482786211226542 0.8881631522087539 -0.28385251869419537 0.8581840299986153 -0.4998593232295278 -0.8619835133087942 -0.24161264600847354 0.7680141672065277 -0.7907518473910167 -0.9086360649096736 0.9047666678436443 -0.3113232082492451 -0.998808542408019 -0.9726677968324157 -0.8444100971417963 0.025361134540741848 -0.12833449306300215 0.21104730047963705 -0.750989342413556 -0.522213381784132 -0.6788722305236213 0.011120680483970984 -0.4371402440861747 0.8048331206038997 -0.2315049591973235 -0.5193355255032609 -0.6126583909641101 0.13175852258668086 0.35874946422597953 0.24139381513495312 -0.11397985589747717 0.5466689098705217 0.46861982161856486 -0.8334285202437971 -0.29008101506412315 -0.13006039059883623 -0.6514454321362049 0.5986967703519577 -0.45280016633681636 
0.08551966599251926 0.675825275972959 0.8285478945558618 0.40872012555376425 0.3274959117033218 -0.917984760691212 0.39939208168067825 0.40992989831101023 -0.4501022355268527 -0.9693955862780801 -0.4763133481505055 0.6236555664529468 -0.13827058955567015 -0.18897423646419786 -0.6614217882101541 0.9151122515933446 -0.4433938524842116 -0.14267568103310801 -0.2627893588793826 -0.16033043625512458 0.8848096377824901 -0.9541396728663816 0.692521992038939 -0.4896184690255037 -0.9628263790366594 -0.8228659044025566 0.8453168688364745 -0.14414220314051254 -0.30290317641335973 0.03062322093457506 0.6786670754007607 -0.9626234376641127 0.25562705314089107 -0.05766420824814955 -0.311412824454647 -0.1646004894745398 -0.2257724859176369 0.4870637954232188 -0.10670503158180039 0.6156452627098956 -0.23319337427302567 -0.9223031272316473 0.1277750491474885 -0.8719799107375177 -0.8010568588278686 -0.3530289399288799 -0.07509676673860416 0.33191451354456675 -0.16993893270466653 0.9374602828712149 0.4305684780139094 0.47051512296653536 0.7194543604615334 -0.7636168864602735 0.49978327577105913 0.33145892058403453 -0.11441511525520631 
-0.3969271640556422 -0.025610105815071282 -0.6167610123558376 0.7257669636422854 -0.2719383897124949 -0.820698443849854 0.9338683829451084 -0.8629267042609843 -0.6399104344929114 0.07218715778358598 -0.999752382501266 0.6872516392414493 0.5270577181280797 -0.9303146744835407 0.6204275238629842 -0.2133384387668899 -0.8615367736723973 0.6068338306345029 0.8514153481580524 -0.2018053605670904 0.5810009465293946 -0.6928506317906514 0.07971684976312274 -0.5990455109255318 0.5316179681843758 -0.2597836653154886 0.7355822851429348 -0.359448087969745 -0.6277361177695957 -0.1290002868901707 0.7785685841607378 -0.6231860549962788 0.16011721919640687 0.15833402690719578 -0.6056302144168675 0.680443113424487 0.5946010411897587 -0.8076961192658579 -0.2631655934037428 -0.3305121587010541 -0.21174061465859917 -0.7057446105212357 0.6902511059844281 -0.34592348627821123 -0.8748895664477653 0.8536144955018719 -0.29003435382199055 -0.19287905018358206 0.019868880350851992 -0.8121621330481961 -0.24280420386393353 0.5145626912012495 -0.007658806364778297 -0.07388488430462013 0.3194215891678809 0.07566707688142883 -0.13806947916908544 
-0.5287062977661745 0.5083278144237102 0.005189553275241066 -0.25566824858990284 0.7265085999963491 0.31374373333155164 0.679252540893254 -0.39581022171744845 0.7627589308052063 0.15253961027366447 0.8466667170839348 0.042825315256110066 0.8978473663185544 0.0011785279308735262 -0.6793053324942371 -0.8590490872272937 -0.07851545202018251 0.5180511914401891 0.9710311639093931 -0.6566276465149173 0.4946188924054336 -0.9864338570152428 -0.6770063427380769 0.5367532578032467 0.7252294899821714 0.10355702356463015 -0.322308324798819 0.9662247767557778 0.7595086269341376 -0.25119307554039805 -0.06902434182766758 0.2205019932679236 0.449697287159708 -0.26220802007631927 -0.721363979078792 -0.6453427551235474 -0.011302132538518117 0.7349824118287599 0.725702621611489 -0.8642563705770193 0.10322679845029992 -0.11550833645823189 -0.14605359710875243 -0.22755856504605593 0.17127373756159658 0.9980789712419212 0.5901346078414237 -0.304156123798334 -0.47618484648749715 0.06155336660503319 -0.14421789825793208 -0.9793990615137397 0.6205177548343555 -0.7053059164967207 -0.07548145983518137 0.33974728399843196 0.06515236645898527 
0.9346264995475844 0.6211423154153359 0.2106792973920093 -0.3552940126648187 -0.7453643149122126 0.6123803174167928 0.9022907788159427 -0.07769827787161478 0.761022827551683 0.808878640019105 -0.4714658926150399 -0.91260098435337 -0.7892883309648022 -0.9600857984049346 0.7422101918402035 0.7041600378243843 0.9558709232521647 -0.885482996373365 0.7614031743043115 -0.6727055041015106 -0.35908659204147897 -0.12926663045950149 -0.26904735645060746 -0.4707866465870247 -0.5389923314580545 -0.6358576898800856 0.1845610722333948 -0.15972888063800716 -0.18779009332586452 -0.8607045268464274 -0.4031001156650588 0.39815088813589966 0.4857713783086557 0.012108416263589161 0.7001426003485449 0.20347230876929492 -0.8979352262018528 0.8223142087977893 0.5020675818673911 -0.15321899393570235 -0.36308652345162806 -0.6354768982885295 -0.48356906625086116 0.9210056594870792 0.4064421073551759 0.04277513364337633 0.5811596229319175 -0.42682588778857083 -0.5015223165676024 0.11503206698977508 -0.29318952396212294 0.6249011537356098 -0.698671469259122 -0.4506388725956102 -0.380786047427431 -0.3557261437827745 0.6325028280222857 
0.27279992645280027 0.18252567928800922 -0.36392188313459406 -0.7562462724561316 -0.34181797843548894 0.2885935032896709 -0.21167437005575884 0.3547523248357904 0.4458833265789308 0.6910074022520947 0.03921177249993457 0.4536961396146643 -0.06252540312906203 0.7288799138863592 -0.6623571301048954 -0.20349797443837353 -0.5709610617309795 0.23956724191901113 -0.11895780124096778 0.18973138350290372 0.5704046389668873 -0.579695537845123 0.8539695581991501 0.38950797986112784 -0.6018197640884775 -0.9283459046553175 -0.25398551916030443 0.7794558661736958 -0.03417751721799448 0.4157097711954852 0.10646141963860527 0.14468819166909364 0.571376025519738 0.6533260520462165 0.762734061161805 0.4842570591180062 -0.5938781522820672 -0.6373575572764844 0.4182912342587452 0.990196864130988 0.47432403605561535 -0.5780034377656564 -0.05615843740616766 -0.10607557935572857 -0.6279247498821668 0.10137203075914886 -0.07576107946002193 0.26502361340204383 -0.9991617848159444 -0.31164028732294446 -0.9018512938414767 0.21452016554958603 -0.4079787794067419 0.04677109780035754 0.8568762804263885 0.6167127311184399 0.7323551851895125 
-0.9921859115510998 -0.621496351183314 -0.49137493873328797 -0.7835521054376585 0.05050925562901461 0.304120413084724 -0.8513234670960255 0.25376144204397333 0.6328817123753832 -0.15872824482340797 0.8373292511666939 -0.13063520147674906 0.0830506648964466 -0.8730709607981869 -0.649173884758467 0.35555440129136656 0.09990456402544035 0.44883476500340036 -0.3641486928475035 0.48444013146928366 0.8976244522837478 0.799380337996821 0.42316325267115007 0.05187563895186244 -0.7091959227599143 -0.6707424217267637 0.3416162822230464 0.8095538926537064 -0.47169690973974304 -0.46152905111333853 0.34471101598623133 -0.983177713369956 -0.911104342782677 0.5955491468580933 -0.1340561368630495 -0.025821537650553797 0.6578581203853162 0.9701890539966406 0.11927025094051966 -0.2834764303991123 -0.3471235854209942 0.3903731399742545 0.8955668789337032 0.40480662179488114 -0.8017741693774667 0.4634735367001696 -0.8220886592635477 0.9319696379557655 -0.23611682781630194 -0.033438704715380796 -0.04321300081509838 0.7800407885095494 -0.4159475981030592 0.5105942818425732 -0.9627004895311491 -0.8373782829487125 -1.0061126293520688 
0.6062261228155561 0.673111811978659 0.9355601103836739 0.27014044987748903 0.14732617786307298 -0.14214012702732826 -0.5733208241804499 -0.74450387877953 0.9627812724441747 -0.16458936170337446 0.8454175491596019 -0.05149205299950942 0.4064795572361781 0.35426042108814954 -0.10106497688016755 -0.7694588267952398 0.7940337641490247 -0.8071842654254275 -0.46891639107448935 0.8454134449778352 -0.9266600627015675 0.6764226012789885 0.6188278666657143 -0.8658456921092362 -0.09213572689919625 0.6923739276044338 0.11158562476169975 -0.7654897391522335 -0.7666950021327229 0.29697255539350653 -0.3083698717899116 0.3720600420966327 0.813168384457005 -0.9280062656033359 -0.16347819182729983 0.5077132025972272 0.419833724454945 -0.9314184795651601 -0.4986609970576502 0.6871090585166975 0.044005314510861204 0.7313255102568594 -0.7585161933467786 -0.34391403067436155 0.004697917508465831 0.24294593091363295 -0.775543537361431 0.6272161075367149 0.5844811043102887 -0.9155587560393377 -0.40537509349122125 -0.20550938387902318 -0.6927388162676511 -0.416422247998605 0.22763704105902705 -0.728420318363438 -0.28913647651909724 
-0.6162200050394535 0.796845058657387 -0.1680199095588455 -0.09826667055653807 0.25070922928676287 -1.0112261980817006 0.6867848149323651 0.6604595731775363 0.7369046474297654 -0.9792723511340709 -0.32667043652827754 0.14869987683889802 0.26669940893390376 0.23112130916118856 0.6088811922254164 -0.807849507098687 0.3680196261203281 -0.9562270336013832 -0.24315468653670513 -0.29268131296532224 -0.0844249763760213 0.36785931168565733 0.8205710467984216 -0.6196951008460113 0.3670633290533507 -0.7480877951656144 0.6176697042276307 0.8326602143761102 0.2810404122391768 -0.3945839190807877 -0.018782852704628983 0.4913317588302005 0.26778387185950625 0.9485965999259505 -0.17871797500451025 -0.7092680079398228 0.3052311565194331 0.4896438626992412 0.5909504520531669 0.656866617475521 -0.6015399622278628 0.32763935912923414 -0.9503655518027612 0.4101833737511038 -0.7856870639784514 0.2223256695245078 -0.3308599616062738 0.6264624202150931 0.37912044602230544 -0.9555358064062691 -0.4692856053354302 -0.009471749199017956 -0.45927369523098255 -0.8183562928991609 0.4699612896721563 -0.13436933390658096 -0.7479924507796079 
-0.051991580942823745 -0.5146029617671113 0.3767254907025628 0.029522195460072682 -0.7401223355189421 -0.7060724062771686 0.5259172757912397 0.018848062768500432 0.9070646255295747 -0.8302101915260245 0.29967941765307193 0.48137895081805937 0.8688204715683379 0.3090866072457627 -0.8701878515774888 -0.7034821418397912 -0.33528033163409865 0.7371359477662793 0.3539797893514878 -0.3557668713395336 0.5488199049098352 0.8151178550896946 0.9363807803439572 -0.07812405276235607 0.8918060065482425 0.7893379171779351 0.40156667559033954 0.31282106453136277 0.19490680801804877 0.010057284810817097 0.7894327248274339 -0.046768686867882665 -0.7045246545709098 -0.47259801273391777 -0.5922553400050194 -0.5878983786947742 0.57884133419011 -0.42047468264139976 0.41811744729575345 -0.518974927004105 -0.03611800029372292 -0.39927943999527593 0.19336580942994996 0.4943921350512577 -0.47026968306041766 -0.34555203106379667 -0.11641840359211517 0.3686818834541526 0.18511124857772843 0.6379328931024437 0.016710585050138338 -0.5196899615682572 -0.5635132273773354 0.8473502518244143 -0.45874132749247337 0.1599156150458393 0.2770370188578052 
0.8859195686837236 -0.22276303442565148 -0.1938923859577717 0.8230566768631785 -0.268226958763374 0.32631399685671497 0.6282597699524797 -0.3996070566943229 0.0031303578769892315 -0.8463672806854354 -0.1427599277292253 0.07225986130694687 -0.9368984044915143 -0.8121639779904354 -0.5353026821269962 0.05313328241151787 0.4450806762718771 0.19980012749708376 0.9369976101402788 0.369108647715691 0.17458330514682985 -0.6336032845024145 0.8528025586789771 -0.11049703286998423 -0.3781622155348401 0.8449461850158264 0.7425563966192663 -0.6200751272803968 0.23169799919491654 -1.0054619022573998 -0.5615940415001955 0.527532891854578 -0.07991808133793343 -0.10463831238121335 0.8339278588222683 -0.3672613286643633 -0.7793542776824698 0.1406737433100638 0.43766843926898946 -0.396956452907534 0.40584568301235424 -0.35223118184933244 -0.06685336577070511 0.6151226842640685 0.296929901354281 -0.9393964039458191 -0.49183855166897644 0.4479714995566481 -0.47845609254238486 -0.9480403940689932 0.937579372923399 0.783763761229464 -0.31134977107712253 -0.19516409230148507 0.22416723702210065 -0.9408021931538505 0.522102406007106 
0.17990601104116122 0.2501007418647041 0.06636531333965756 -0.16216318904844185 0.9278475279450235 0.13743826515163482 -0.8551486627264574 -0.9728086395340615 0.28242333775271944 -0.46541232495022533 -0.5441738971001278 0.4045597589424053 0.5286079945143831 0.9590367249231788 -0.09925954801018166 0.8232370661125089 -0.3431615674876045 -0.04690366400676127 -0.17484812146670392 0.9012764232758146 -0.05187114276476218 0.6278407824597192 -0.7028690136313582 -0.7367795914532257 -0.097827831408839 0.9292742682201864 0.5922879237150473 -0.8750379828740108 -0.015830273795678224 -0.3949810110530639 0.6364098929402139 0.4767736002142938 0.5668989057465752 -0.8243804208004737 0.8308337014052156 -0.22188805440182222 -0.6143500346809797 0.4556427217783319 -0.6166993767875681 0.3353222399214297 -0.3043496941653945 0.7539050540050527 0.028844122369421132 -0.6870456184408583 0.3542766369719041 -0.34366380382034006 0.6882575452212364 0.1777479241453698 -0.5386836356716964 0.5505246657609908 -0.17443258199080414 0.30656111955652565 0.38297420779852454 -0.25859139617017274 -0.31863069865850596 0.9086026628115803 0.25139820149120484 
-0.4336866372405803 -0.6139336908424895 0.5880065866935957 0.6429245590738485 -0.08368960969072171 0.1891204247032646 -0.4355099554677202 0.6687858156676454 0.6657336078528848 0.6295643964288626 -0.19579860805526805 0.22000714298267193 0.8946238204286245 0.2863961454295574 0.8122488011953313 -0.0906153976692729 -0.7591215370764512 0.3134174823724363 0.11619438631543155 0.6679516242265524 -0.9131477953015618 0.5128369559979125 0.22028240521891154 0.8037688013555842 0.4040459059400512 -0.45616484292863246 0.42561755255124356 -0.9667517465550971 0.02050898159859956 0.3624255352825025 -0.6845580052179769 0.3563696670382439 0.6958240001999774 -0.22851974942323494 -0.2072223493307077 -0.7577983885890853 -0.7836209677269236 -0.8614682492072369 0.058582880966170335 -0.11078587010524857 0.3423586192362935 0.9925733791091451 -0.05063099615093836 -0.6960670008941211 0.9412833659033797 -0.2100125411799573 0.8759817799240945 -0.6787870002398461 0.01800619293800998 -0.27920904393858637 0.14447608323891825 -0.6320245238577659 0.5269198825750886 0.9179200314204616 -0.8501404421587732 -0.4408306412268762 -0.21448792818576262 
0.1551758780344734 0.17952006625807182 0.5003166048683483 -0.9193250839563061 -0.015964387547561954 -0.03770097896437174 0.14105745688290428 -0.9262793804256414 0.9817309051385881 0.9303252747903481 -0.2989503460597911 0.8921591331192211 0.3261584646086829 -0.8899588416619498 -0.05487343038634932 0.17983746572577158 0.8591858565869548 0.6722410314390066 0.5448393093299824 -0.510602336291922 -0.5976510492941898 0.5682248126369981 -0.1452220908375783 -0.8727967643551796 0.5890591117494952 -0.2568180958608901 0.8650968232338043 0.36366136016561174 0.015386021858928954 0.6711338870080172 -0.5955179954470613 -0.6581691960875118 0.9092002456665973 0.25278053474476714 -0.07393175702639354 -0.6434893279244147 0.23331210420648213 0.270681722789958 -0.35258741232358953 -0.06420358659671634 0.5122263223626811 0.315132872490405 0.04806178332476341 -0.2544438148327052 -0.13429716553362525 -0.2003068591706225 -0.03725558248439584 0.32830347765403606 0.020686515267894334 0.5503159886618803 -0.0222832527663408 -1.0015333525440513 -0.2883867334397337 -0.798785099913542 0.19519520185699268 -0.9219263685381452 0.32496274272953996 
-0.7846363790644948 -0.7191625964855504 0.8047688098626953 -0.9403869852512973 0.572222044800392 0.27150325262160757 -0.9390751613096627 0.2239073422936706 -0.24416581953272165 -0.8723528080615741 -0.7279915978631626 0.6383989519802058 -0.24453106394726776 0.4715764288020628 -0.7490687388190597 -0.8839538972338296 -0.545014276375918 -0.264787502883322 -0.7033781612616767 0.4805796681182058 0.1475065568344259 -0.24532690859485093 0.8536122807241214 -0.21021759284134245 0.5228602571019498 -0.17130685474881813 0.7614912413372925 -0.807671173929963 -0.8127281664747126 -0.5478563948203311 -0.4482466329902775 0.35099047272667405 0.1857924672031035 -0.9327550048732862 -0.19598522470514457 0.7503918785338369 -0.963967528383872 0.2698119880899779 -0.5922172475151862 0.9895863553388541 0.6437991556927223 0.3698175996603206 0.08947295383749276 0.5666208280220681 -0.39294514325303237 -0.23932027104581544 0.4179637856396989 0.073332308182708 -0.788360882372205 0.9047440963787639 -0.3996342608595973 -0.7956130848608927 0.7974155223352734 -0.6408722840169687 -0.2749814104550478 -0.12365819274881068 0.9281515967833629 
0.8727522192881183 0.34630359358901996 -0.8583444166790444 -0.8016508788677319 -0.029105801642240935 0.45521209930224504 -0.21237963523039902 -0.9020509104059908 0.9872740340849249 0.08450883605923387 -0.9287552620480581 0.6526457244278024 0.7411275013249173 0.930499752166431 0.025487930326740803 0.9614995761760848 -0.46344716177358425 -0.0347801075776224 -0.8718968091544215 -0.4957821904643941 -0.9968277194263216 0.42076504607301807 -0.7342831280642864 -0.7430610491260681 -0.20015946892396608 0.7274129902937951 0.4767858285914053 -0.6095459946579533 -0.6702036616995569 -0.27760420676694136 0.06595265740122398 0.6589046041235215 -0.075533451064421 -0.8569249156480978 0.060891532886052424 0.6410478720472366 -0.2263316508259058 -0.953869543609688 0.24793920164998245 0.8663700486330899 0.6553621030011241 -0.3227382684493916 -0.6607623634391224 -0.46093703218815785 -0.7146961430433652 -0.47929726144850643 0.13690646501980566 0.35233208386778664 -0.004939142045148115 0.7093650609290527 0.7565151017831633 0.21881185302288844 0.30907088459548976 0.14267331665886415 -0.27859863232200666 -0.8097034447093158 0.8210744754796965 
-0.6254797836247656 0.7960362770299125 -0.09479814995914726 -0.674189562114806 0.25568791929297713 -0.2829326769127325 0.6103719731126138 0.49755362459061697 0.003257117810422816 -0.8855004665391435 0.3430231558363377 0.3448680015179892 -0.39838385153186684 0.6009422400898239 -0.04483766896664708 0.6641531756329863 0.4742486265408665 -0.09709247278393662 -0.521220093125423 -0.5458644994186819 0.09827556506979052 0.356762045381561 0.4076056360155047 0.4327205549603391 -0.1970451634291568 0.5489999194297386 0.5352982505128421 0.2788934368705365 0.9404821022131136 -0.08494119470739929 0.7813126124834318 -0.03349560684912231 0.7725303715592879 0.8384917469137949 -0.9828554368364315 0.009044678887783394 -0.6407160860115211 -0.06189945912714067 0.36971660961006986 -0.4458356908432367 0.6171833400311402 -0.7101644233115914 -0.15560481816355964 -0.7180403908992145 -0.17611652673648115 -1.0073648132580517 -0.623898179476486 0.32657558436418843 0.08721183174151559 -0.6385584494532592 0.9782618234518177 0.7979219457328005 -0.7914186074909868 0.20156988508262902 0.1953930759146785 -0.8376399533870381 0.009451539680064359 
0.45314849178073 0.9285658019221585 0.831128537580105 0.7525485007879169 0.5221473541213592 0.7928562552736045 -0.2271457636081436 0.3166407738000222 0.7267763027711109 0.31722828909990386 0.27740107227620303 -0.34784613468409503 -0.42313464511896604 0.5562435410223407 0.41573306165808166 0.8075188874074156 -0.8154437757174648 0.04140293885245416 -0.5027192466745509 -0.8693662304602152 -0.8104658980813224 0.4663076763078126 0.9273922005861938 0.6420713270620748 -0.4925318216574337 -0.24218650649472906 -0.9889545412683198 -0.7009189204177602 0.000699122074632063 -0.06243027995166496 -0.1287510978560615 0.6889133512419859 0.3597806875469014 -0.148949409712136 0.71432806890752 0.5038941124284226 -0.4299248704229421 0.21246900540485958 -0.9277235263616715 -0.5031135115521904 0.8958838870645955 -0.12246630439839357 -0.6238322481392327 -0.022458059204853734 0.020175622061611075 -1.0275909493300113 -0.17357054724283108 0.8817784290295475 0.2917070404509654 0.8774506427650821 0.5699125927425517 0.0993416293691178 0.716502932158074 -0.11161958407376046 -0.8428782614337265 0.8240885585301807 -0.3348847397578413 
-0.6366612280528432 -0.30148123322327147 -0.7462741242331097 -0.07637772486911946 0.0031602676028076584 -0.6803667053264532 -0.3134395066371784 0.31465361171992307 -0.12086936978152685 0.35522112510262294 -0.6357491790305867 -0.2863391382469679 -0.9309740955275233 -0.3557919484393066 -0.44535673006379484 0.9030975343997578 0.30516039992970456 0.2472889298784433 -0.8568359628236515 -0.5947199415868047 0.6611155381352591 0.291439229784813 0.5401959708169063 0.9936719913722779 0.9086254593227954 0.04729831522188643 0.07113669373009923 0.5802739296506115 -0.3417997244814802 0.949345170630015 -0.21890814635542327 -0.5991447592279121 0.7859220311054673 -0.5559188242452899 -0.45412521069418155 0.7733632328199173 0.911563146867972 0.9283758565474313 0.305111338598444 0.024759572840394307 0.5303999255286227 -0.49331277317097566 0.78488541249689 0.7644029354351031 -0.654454894517783 -0.8300319381525832 0.2764538796671039 0.4159575245314535 0.9386512694295523 -0.4801617272204526 -0.5407776622447489 0.5777736006591067 -0.7994771021568717 -0.06975727369629282 0.59040708945981 0.06423970491480135 -0.8709539476585788 
-0.19849066967733853 0.6486712608246945 -0.9209676542441689 -0.8393860149970562 -0.6652135402557477 -0.2449978856774692 0.6470717187126921 0.11045930051987973 -0.8843347237057224 0.6493895657200124 -0.6761693587226523 0.924426708550246 -0.8957609943784671 -0.7547878988706056 0.17289822163006124 -0.09596799494038814 0.4082571694074353 0.9257078343911189 0.7064730698100792 0.47627926888269334 -0.8334975226048035 -0.11164317251299857 -0.40074915806741546 -0.3380165514491977 -0.28287996920783365 -0.2675088076099188 0.43818011723531836 -0.7801217467240863 0.05249151985571336 -0.06705824459458033 0.937318932649601 0.7580470823334661 0.3571899282546642 -0.41686604944621 0.003107835759909472 0.28249575745315436 -0.09689772005615621 0.14490472304427246 0.07919920019043755 -0.9275699807763296 0.16655002853329415 -0.9206112907736153 0.5167961911694054 0.9917462562318976 0.8685947533857289 0.008678620629314506 -0.7825675471610316 0.9750028359780861 0.5232085811600948 -0.7585368526201135 -0.47630384839392326 0.2012359971641545 0.9417748736232587 0.20123925673811538 0.7138016954724146 0.17933779633259966 -0.15986110149685911 
-0.8227039746041742 -0.32311617513540014 -0.315514688504565 -0.4348253123512147 -0.825123750206412 -0.9795622319649692 -0.7473808302631686 0.8425994988961978 0.0836430253062932 -0.7262784965303122 -0.2590418942634194 -0.4458209757483383 -0.3378384577195978 -0.6972739936007081 -1.0738071048110842 -0.5847126649189587 -0.8136293966345676 -0.5422904031154778 0.24681143537151962 -0.8540227283348563 0.2647732313071287 0.4870160298520163 -0.7506773861937766 0.09541255808061175 -0.20540079355338037 0.1574406720684871 -0.3372075077174408 0.7142201357483073 0.8656737824784639 0.8692198365246631 0.8554528333754404 0.781405407303609 -0.7503328268919436 -0.433294468050027 -0.532591979437611 -0.012041842438928658 0.4575798283511998 -0.5316374058060321 -0.08216133796846081 -0.6300847231764253 -0.49260652804819727 -0.7008606059402676 0.9261345583945659 -0.7906976662610584 0.7962115559692604 -0.9581490881013669 0.48713413357534724 0.8537873702224346 0.9587325159240194 -0.4560928278261671 -0.300949271549219 0.5525565581029147 0.7951427959804804 0.7400328240737094 -0.9556539212672746 0.43460841551218626 0.09688476711508025 
-0.7908264093903774 -0.6790880131041424 0.036143365122654814 0.9012266733089174 -0.9861198395792065 -0.5885749008822041 0.9579028055657058 0.2896183242658031 -0.09347515152849795 -0.0781213695191969 0.1692887349465353 -0.9230921772695206 0.09657607184888597 -0.8211738497193314 -0.7244263364779839 0.6980583482586501 -0.6199598060210711 -0.9754643154354479 -0.6275556212217175 -0.011435736559512417 -0.5590048239011949 -0.7817901302957286 0.14661353147898024 -0.12752138753430758 -0.8672898369112509 -0.15630277138704374 0.6896775047726988 0.7086489716551692 -0.8066922380305804 -0.07937670911562068 0.1900785175660472 0.14010197429556873 0.4964962942968123 -0.2993702924426356 0.6054598670231066 -0.5228004304437777 0.8408829957996236 0.04139879669272169 -0.4752095938689022 -0.8071837377419291 -0.48799719409161524 0.21484354075524315 -0.3419989381844635 -0.6383683444636549 0.21162092915498737 0.28574615402350884 0.48585033412103495 -0.9857396109272296 -0.47509486453815897 -0.15407258002518653 0.15641908866317356 0.5841885499931991 -0.20242615175079368 -0.3485580321204838 -0.28626560833901543 -0.834384914704165 -0.7489272623051333 
0.8417259840267739 0.16164093402564128 0.21133437549736378 0.06770335826345629 0.013723380534808037 -0.3648496120503771 0.8908250392434267 0.595222186909053 -0.8764509342990192 0.38763636555798286 0.48892367981641005 -0.29685365490072163 -0.09771591164144247 0.9915294162511848 -0.29427621631273093 -0.14842857448685404 0.2677212518723624 0.8894088809752811 -0.6824461183957062 0.6927417616962017 -0.031109953643899707 -0.7878905697962105 0.7777741824518121 -0.05298294588308757 0.25933775022177685 0.557716101016263 0.8325626242781239 0.3395935490555145 0.06394914630379377 -0.019458782181815033 0.6993536225614696 0.5112742247208307 -0.7948679583602636 0.015687326754956876 0.20481175514867656 -0.9932781197007166 -0.33982459910894713 0.5789670532400689 0.26255900557898776 -0.5153760866124976 0.9812249953120202 -0.4140571801295594 -0.519554770324852 -0.11074637643883409 0.1570392839476839 -0.1341748047983018 -0.6951217640465651 -0.877927812363197 0.31951075440999444 -0.8792912532318486 0.11275088832835323 -0.55165560779279 0.9401118681479881 -0.7717677025057502 -0.15742326107993368 0.7751789800356358 0.654064275384014 
-0.43852476713156663 -0.9067180589293544 0.09225717179336423 -0.39431189525878196 0.8439751852279704 -0.8916576082683335 -0.34554743593869564 0.32404699219365046 0.19789866220333763 0.22190582836549333 -0.6343453394645076 -0.6934732398673973 0.6112958808648978 0.7463637880711799 0.7547779139001844 -0.97725315916056 0.9237075887105775 -0.8684925214346173 -0.057389805327218824 0.11380174980996 -0.1904523625950726 -0.25494975012528504 0.34928918995414265 -0.9170703898804974 -0.9970958696182908 0.28764339297871233 0.6272797369275651 0.21676036379048952 -0.0598755717364048 0.6175066109132518 -0.9303544730135984 -0.3563199344860859 -0.9574050532124454 -0.8541903460930937 0.05939274782169912 0.01585708807954551 -0.3484621244703917 -0.046846845078548485 0.95434073194279 0.781414723854338 0.7920605327461847 -0.4070180246756687 0.5341627588924893 0.4497925676164142 0.4376940118335683 0.8223406217383268 -0.7792016738774444 -0.14815353732408815 -0.2482042365530004 0.0851313399604885 -0.3822418149731115 0.3192802601416388 -0.8303009497295794 0.7977227933365947 -0.8596243253920148 0.9494571045335628 0.5484041429986647 
0.2746486047892527 0.6465215684723908 0.6383261096893815 -0.12652300469311956 0.030446583338429287 -0.8180709053873211 -0.8830583008502446 -0.9365042581253895 0.3854256953952644 0.5570927380971562 -0.32929121618136836 -0.6471921358469963 0.4467034856039663 0.022053098759910038 0.1958105384562628 0.4155455123493831 0.2031885096629258 0.9654728419825986 -0.5294781739006118 0.007360441486498385 -0.05071556091182418 0.5795640716969652 0.584891335818362 -0.566253874965669 0.12928595750511507 0.8993755693322227 0.4275247703064793 -0.44363696679648124 0.4017169636293085 -0.13330886362330457 0.09701931589391716 -0.826263825877367 -0.3398695849539761 0.6268608371242435 -0.825062933403405 0.537113371381147 -0.6213284765787127 0.015538670144168069 -0.8447057047614175 -0.8795381265373844 -0.5726980216530546 0.0251217813126261 -0.7022058042950188 0.598330700919008 -0.6423408517406197 0.26885861305949954 -0.05388711571636923 0.5876560819900624 0.43545939710192183 0.7437833909229292 -0.7372526341987471 -0.5501169994469025 0.19791033651673087 -0.8356673842422678 -0.1306326118625847 0.41660779312214585 0.02761312508162368 
-0.2714878976892736 0.02139481656621256 -0.143124684080689 -0.9938866589098765 -0.6283191100378718 -0.9789038426685057 0.7090358644954281 0.4667659890023774 -0.9227865963961646 0.05552421061830981 0.6879816012052238 0.6696350890068256 -0.6567052190415558 0.7703667855564295 -0.5619367168135324 -0.9365347353360758 0.22231080707337325 0.4568544032090305 0.5311104957406179 -0.29927384582180433 -0.7788682342719769 -0.9224019215246818 0.6422111634893461 0.548761784200662 -0.2343058790381527 -0.5215815092865521 -0.1474623538411497 0.6834651362353062 -0.4028280287503184 -0.9154114702851202 -0.834019179819995 0.6670893651777636 -0.28002648281638365 0.03222004085954211 0.6453119349737813 0.5989259635810391 -0.5273865902094642 -0.9236446532533918 -0.6125829462325967 0.8528537484925282 -0.005048703511580266 0.2541840428818296 0.9568583001074897 0.13416988206700226 0.0007321209747487584 -0.7705034635721552 -0.7439978029008268 -0.009608558830416556 0.02580617573842159 -0.3588200148841103 -0.7249946933302045 0.855895031729589 -0.25142776989337234 -0.1402630517109664 0.7064297740697211 0.6301883854796091 0.8356951815761355 
-0.8239752236968161 0.37368122183571995 0.17736822860085733 -0.07215603819604675 0.5112357695600012 -0.3476555262330781 0.7009377187073006 0.7357115541572148 -0.7141603797421754 -0.7801467080548885 0.80953425853283 -0.3679197737531621 -0.8957466986904703 -0.10670126508179675 -0.9314847711567213 0.762469528265635 -0.5038563454977294 0.31609879079823044 0.9220229105993831 0.36472933925035317 0.1128358657654474 -0.8191414177085817 0.3416333754361399 0.8199673580552076 -0.3304369442652828 -0.5639286323683068 -0.008714164307093597 -0.4671916643763509 -0.7989959102833707 -0.8098896691068352 -0.4009540828092035 0.018789515005746722 0.8777514743153303 -0.038165210031300356 -0.6919512961766301 -0.8425072075535901 -0.4032904650282825 1.0258392594779238 0.1592513876577725 -0.3429458577946445 -0.9036073042065782 0.9045579103731765 -0.6099460778600989 0.1792069676546824 -0.874400016616578 1.0125814955387955 -0.45473820720711755 -0.8278458179809083 0.4602463779805466 0.38241139988155237 -0.675325223718416 0.27767994599884027 0.8334341682285448 0.5038588434293518 0.4277317229538176 0.3281129471219295 0.1650305734252595 
-0.29134247663833124 -0.799795380723525 0.5506132568547946 -0.8766305733277857 0.4717706467533035 -0.3814105211113646 -0.293555852036518 -0.7636660009596011 0.8823705353407048 0.6422384044081717 0.731472701735131 0.8513031901528121 -0.6333972756937919 -0.923806708534674 0.6480439805547349 0.0077926151949128716 -0.5220852831021161 -0.426086003757967 0.2697579223787445 0.2473321698986035 -0.6418131408999174 0.4092938959707266 -0.05199369162685743 -0.6977994016059165 -0.8238381694030688 0.5658091540453394 -0.48612507207766886 -0.34477617960724544 -0.4689845417188165 0.6804553312813431 -0.8210072638072334 -0.7965608112298008 0.5917974479821495 -0.9290916441952362 -0.17299900109000177 0.9576442568595686 -0.9336751874264229 -0.6315924301772234 0.3866849784698768 0.6524363584445074 -0.9282098749764731 -0.2113947147660873 -0.8161721052683097 -0.003906471726337666 0.18942926089581405 0.05293170573733797 -0.5140286259006339 0.6845648335823938 -0.004399978407685579 0.0480594721909271 0.8572536006114297 -0.29334917714517506 -0.06786959468039457 0.8373239540565535 0.8360416128935735 -0.1848795882232858 0.12000779872089483 
0.8299606320701811 -0.6132716872327442 0.2877548007807855 -0.3263041187453243 -0.14064907179496228 0.2543565556106057 -0.9941116078314178 0.9686409191344164 0.252286619372988 0.327264512690451 0.5430295592896774 0.19621869727694638 0.9426217277242531 0.97239336219018 -0.6603631204427406 -0.6446178403111296 -0.8413545625408843 0.9122013783951597 0.049207639986112994 0.2823476449953327 0.9961915836955447 0.8007782065934872 0.9499941460526893 -0.8194979001033139 -0.07047445819465059 0.29705832897199125 -0.4210114904956386 0.4576670679339673 -0.06606931392652297 0.03766047478511375 -0.3346642376316791 0.6737139849397779 0.20456002297508613 0.9435839179151857 -0.8648520527181862 0.890759355228972 -0.44247921915388366 -0.39701445657543327 -0.027962692854008583 -0.9824637032339737 0.44669044961730364 0.23052060134721009 0.5680097834166522 -0.9337115926732635 0.3206395032715355 0.48465403381146666 -0.3120244437831327 -0.7335912406544367 0.01742681204265839 -0.20945152966581904 -0.04133342646136784 -0.6863429146016763 -0.7795992857091965 -0.11716028168817945 -0.00105666221395676 0.12174080456483218 0.5152403518814882 
-0.935108177854268 -0.48134348386426806 0.45530436668564667 0.6435718405629997 -0.8039976611132618 0.41950375142154595 0.513085527902027 0.08162901944188007 -0.7653441816403619 -0.1944716129333326 -0.24688025786154078 0.28456143455948535 0.021940955394048882 0.7149862528007903 0.20979252777346818 -0.8763542487896122 0.16537719761928615 -0.5372635420163387 -0.8599363821866712 -0.7469841170802012 -0.4451168984613465 -0.07889805181488058 1.002873302125868 -0.47057052317751863 0.888043748088398 0.11752145917083223 0.8186032968233217 -0.31418240852337265 0.16840402255587153 -0.21316381184218117 -0.40302081443451176 0.06494652396828725 0.7001169571769734 -0.8620852912632317 -0.5935200164847869 0.1281593307099349 -0.9819920189891812 -0.6881132703513798 -0.31433363649359464 -0.6515029550134217 0.16559938047688516 0.9801433340172059 -0.8192830601965702 0.06802355185719165 0.337908541060097 0.513475186333486 -0.9208174209389713 -0.1050008866335778 0.5398216187796043 0.17781258476307804 0.40129560810952625 0.17136845246690385 0.11200231879656077 0.21302614163326183 0.6035255495165432 -0.8148802337045276 0.09732469155352727 
-0.955094888087445 0.05404678964839471 -0.05176444623802956 -0.878423776404032 0.2521388976724144 -0.18646378319702644 0.26154441175031434 0.4863962414829549 -0.9633626002969653 0.12282576998186467 -0.9114688770650146 0.8796700692985469 -0.7818490895896582 -0.012678327843169197 0.23823152005957407 0.1410447944489909 0.3267107069822899 0.5971373900903247 -0.3092768824658143 -0.7276630646167861 0.24407793905395056 0.8028383627664087 0.21779080731269684 0.0633165424269822 -0.08535164494282554 0.17110214781923005 -0.9531426079349274 0.6016905626568639 -0.7149610376280184 -0.5228006018338215 0.2923395771829328 -0.009764992104526993 0.5781350074962952 -0.9643681363274004 -0.10505650569738156 0.19577976181322684 0.7932335350661711 0.3174500495338227 -0.24651674603359705 -0.5866018552088126 0.9227358714383378 0.6622230710689792 0.7962059820081642 0.007306758872803216 0.7171700140917611 -0.9844204185027619 -0.4056447204469147 -0.9325109194732668 0.9566805643582432 0.015476755255331875 -0.25772883134517177 0.24972124803816773 -0.040947700911733685 -0.7991687388525507 0.8177969621151836 -0.047984725730132564 -0.9106848962503901 
-0.3205478499459773 0.012362476568220204 -0.890944055811284 -0.06481649599133141 0.33059091751958936 0.2599738350848376 0.8848275553253836 -0.38271405645911505 0.43508519950074453 -0.46873373871248947 -0.6991042799382792 0.5071662845130845 0.035112695240705205 -0.9877211962954064 0.5191853933976439 0.17398406997981664 -0.2055445908750111 0.14099763959008516 0.751506859140137 -0.2851007137074584 -0.2717947589878213 -0.42450524643587767 0.525953959717663 0.7198968399440756 0.8772012541993164 0.7247098243985672 0.25952709687185127 -0.25108084772321226 0.2437650453022624 0.7287075766548722 0.03356363505661768 0.8083932156549689 0.12752649237127445 0.707730350227233 0.3098504892114402 0.06992880551470071 -0.38336560744681164 0.47463304441569004 -0.7119076239130663 -0.7281615424445311 -0.668048517464988 -0.6603907460119616 -0.718884852383616 0.4774148215087721 -0.49550935959057024 -0.07812063407137092 -0.25919644595033026 0.7154107837849908 -0.4195451849206091 0.6767381142173967 0.22722938770835377 -0.8274754572112326 -0.9709813229601804 0.5631294827417545 0.5627496023070546 -0.30035460404348907 -0.059600859803861754 
-0.728046289139842 0.016957148425607915 0.4562961170852595 0.7977167278649077 -0.10538697629507414 0.7188702370906529 -0.893043170785926 -0.8601181071205178 -0.9570765695449373 -0.11772874847680925 -0.6804249532223055 -0.11289191258840045 -0.78923040744074 0.5708782627014045 0.1106044865412427 0.5075123488753995 0.5356500217885567 0.5568428649241925 0.2630224659402063 -0.9697242738169363 0.8568937290581047 -0.4666813761779974 0.008379837952596161 0.20531760422308354 -0.02354116705204623 -0.6365749575695172 0.17240264802716054 -0.17769376962408018 -0.4082646160240969 -0.9596514827853329 0.3633345911713816 0.3498944107938822 0.42774418654871793 0.02832564342835453 -0.8905778852303539 0.9085148477210963 -0.7363188699657807 0.6446240909872071 -0.43501980812238283 0.3875452233689364 0.815541510007129 0.6265393048033583 0.11451669040852974 -0.17250105146636285 -0.5863778424458238 0.48588215876679186 -0.7387722268937064 0.5693512301800882 -0.8947159073830653 -0.24083291852068234 -0.8802255031630497 0.17785857391030416 -0.7565825425446694 -0.5502824353357642 0.5107646696999791 0.24847622671674494 0.06485843726727886 
-0.4384451463008052 0.09318711556480452 -0.7810480031890172 -0.14302767184069276 0.5191690671032242 0.47802497170567493 0.06167905916944401 -0.22694853820701644 0.06074042759976339 -0.6907253536857088 0.3839141492186935 -0.8749254235126522 0.5893458986655444 -0.056245911377244204 0.6198246968267964 -0.7250617967478582 -0.2091223289130435 -0.8446465050312397 0.8658752621870205 -0.7649954331959751 0.30507160057178306 0.05621128866539436 0.10337432146162437 -0.7074356281874301 -0.5561760775205558 0.2749336557897797 -0.29831992909149996 0.5388895074860162 -0.4288334578525088 0.3561883912792058 -0.8972374593979485 0.3433394706288343 0.6013412298372676 0.9210615593966609 -0.9266109598211665 -0.8384160955212495 -0.6910813595319324 0.4251438462036535 -0.4219345970002605 0.4112201500192187 0.14100117634201248 -0.07843840377459 -0.02938460697325107 -0.173970946797012 -0.9452770264602017 -0.0303819443176787 -0.31880158791833174 0.6986748729192648 0.5035763272904912 0.06049806289022519 -0.8574532627780731 0.004079322926436539 -0.15124504780720147 -0.43265977458099925 0.02197103037991263 -0.9980425949143742 0.9420696891533978 
0.1317664850933422 -0.925142017630608 -0.38697430361718244 0.8047927149387158 -0.9248467342929694 -0.10259391399486885 -0.7098711718686029 -0.24884923093011044 -0.06601005950513694 0.17222348062974224 -0.5053067872456762 -0.33792699437767004 0.3174330336905938 -0.33831957867811197 -0.6783952263872287 0.5481247850308547 -0.06301315457474743 -0.7445892779423477 0.18564965295962677 -0.5927454826479658 0.3636168169341241 -0.048161820813689235 -0.5403719769133946 0.23639075077903857 -0.23660589168871216 0.48873507204406264 -0.4943516722005221 0.06013539984003702 0.5567344382996218 -0.9007238647211854 -0.876649116464236 0.6357148580412175 0.7923293898237396 0.21973618011562657 -0.13491980715445528 -0.7067213087644295 0.05164388843414339 0.9277577019413749 0.6908032842771499 -0.3895395978363122 0.25945573384949117 -0.8934835128443792 -0.690332905452381 0.9809224456109298 -0.8527939214550131 -0.52380441165622 -0.4569207459380959 -0.776473295969114 -0.766270546514056 -0.42807325293160337 -0.4144275987435486 0.1281906269711306 -0.024935816104990936 -0.6321451836120253 -0.4875754810723958 0.21268290515006094 -0.6184604708083388 
-0.6025357139892082 0.35993265348272474 -0.2526516157143295 -0.024498666864794672 -0.043446047804850375 0.43736119553646974 0.636982229923633 -0.053254653200579954 -0.01061874425121645 -0.48587454823441334 -0.7129260996913189 0.5804630583130281 -0.7992683023033857 -0.49433273283907125 0.25548620244274717 0.4344793930045649 -0.3702720497509455 0.7748848051604438 -0.4474315905194646 0.38863803412296877 -0.6342160723753304 0.8161709664333467 -0.5460669283931477 -0.10064160883477 0.00036892613877403946 0.760145251256211 -0.4872119926076517 0.5802595666286684 -0.49955406269023733 -0.35765390406259007 -0.8380132739910604 0.904745654674571 -0.4433637642920718 -0.4287116136059843 0.632191652632967 0.6522055026960665 -0.04871792630957531 -0.3776809456731633 -0.3008969086662887 -0.6986142858313164 -0.17434754470246316 0.3146347950709081 0.23057219615316904 0.03302346248338182 -0.5507502780451994 -0.26868387997552845 0.9827164373703794 -0.19817568853280665 0.9108274995321524 -0.5731786337738076 0.8580569331833539 0.7475863415229498 0.509597898823888 0.3164823459929688 0.12329421298672855 0.30080913826917166 -0.8314868405703374 
0.512399123976746 0.29648527729299423 0.7517971439480053 0.30226232832368666 0.39043248074997133 0.7035895681274525 -0.13778034281824839 -0.5745501023123737 0.5132682999330622 0.282477918636185 0.06497279472019502 0.4379989049974564 0.9990966706810771 -0.16475432774300106 0.7159718287932575 0.8107002394258354 -0.8927003379086402 0.39368049574612396 0.6848132143444909 -0.27574491963095926 0.8487237013566514 -0.19965360818462297 0.268109139577843 0.42622574801095464 -0.6334843217307868 0.050342411205183346 0.5215160860508696 -0.5211683054967644 0.5890265143371525 0.9951425970952317 0.4701456538930923 -0.02432735468372703 -0.35475577838130445 0.5182497736033982 -0.09437799461917518 -0.6241830995891129 -0.6207509304783572 0.15130158613055794 0.5434252008694899 0.8875633898315685 0.6233881088073991 0.07245768864760493 0.8096490026191459 0.4815837979911824 0.6471725069240499 0.30762952365561536 0.6216824248200975 0.9023371862260892 0.2650202128820174 0.5456213290832954 0.7738544466102295 -0.815913054713926 0.8034710527646879 0.6750430411855812 0.6404205696982151 -0.12309318631108143 0.15632714258610467 
0.5737530552512513 -0.3693258971547959 0.9814226269476805 0.4511298962930691 0.4792634184274389 0.05323630779193081 0.7659241891373652 -0.4751550480064827 0.37139772162329177 0.5173497393911051 -0.3542727512402115 0.9363969003925727 -0.48389907493864304 0.37717935485635334 -0.9751101776823501 -0.483473628824472 -0.7350514203005747 -0.1426610008000293 0.4509352308704968 -0.05035146565440911 0.32524476951369946 0.5235369004127278 0.786025952587153 -0.7715341234714792 0.839019370389404 0.4066313653114093 0.08011774548134354 -0.3067690022784061 -0.18933739633826047 0.13649729865885962 -0.8851398530707061 0.08716508718881806 0.9588844671271699 -0.6455128579652034 0.27000602219562864 -0.7513570628647679 -0.8025542132082885 -0.8141177665144046 0.9800590465800613 0.6788262096255627 -0.7665806014986418 -0.11038511232189396 -0.28942381922850746 -0.43750246045342656 0.4404448715766662 -0.8369247726199751 0.9742848099703164 0.028802602639539477 0.9723322631977769 0.038541979210392485 -0.6041963381951014 -0.28144489761455643 -0.24226056560698048 -0.5822899407936329 -0.21842951506272532 0.48491258173257784 0.08282823765616955 
-0.8762619024988232 -0.06612824595217615 -0.06887499357648541 0.2363647281404231 0.11368717925501316 0.3343181606040257 0.7517606083656062 -0.9227184391501635 0.4551926333418632 0.5788593242100168 -0.3929198259404376 -0.05126357705408655 0.4906705994050285 0.3931867566527682 -1.0077861560112633 0.9679039103946294 0.7477302084942756 -0.5038132322031983 -0.36295875337483086 0.1049729229187987 -0.010725395764300672 0.41314581649138676 -0.855434714504874 -0.5281566569731968 0.5814896354262862 -0.824600173123291 0.12670573175109334 0.4000364128703653 -0.5611152023697139 -0.04020373829954739 -0.7726593789041049 -0.49253961578858113 0.5620244538184389 0.29487617932405974 -0.5364724649304753 0.6216241443442946 -0.8414227847531155 0.44265055354407296 0.7960703865642764 0.45724786974692455 -0.7915740370316184 0.9839352115909537 0.6905951330120728 -0.1922913351383851 -0.7901137833766188 -0.16469074442032156 0.054152666085283935 0.1949483262789747 0.5047631108919912 0.8353307685914733 -0.8031657447981797 -0.76234806798831 -0.3561935328723771 -0.3541574641676422 -0.23191443403020393 -0.6413370599425275 -0.7887047516450014 
-0.1375434512892828 0.4132491785064576 0.5823016700208161 0.2429984545352544 0.2321803893912463 -0.827283910280715 -0.2748720635033908 -0.5565803637660612 -0.293593396563242 0.26513298400089624 -0.5938351619897186 0.9466997927594291 0.19585385949920614 0.11883109703352837 0.24368919798179128 -0.09043853440563832 -0.18607788140125248 -0.06531240813700134 -0.389389198641545 0.4764813693526693 -0.0804293259009224 0.03457896963294725 0.6603046665054444 0.31565554945694374 0.5727287772455825 -0.40374221354214623 -0.9193172504780922 0.13858443082543737 0.5204731027411387 0.44454003581459417 0.2692423908161621 0.042981152341053805 0.05083768222882479 -0.46273621027982514 -0.14726675402805656 0.5713897789803632 0.35603430577177897 0.7469470701686037 -0.8033627565839547 0.8087945422995724 -0.43565476679496706 0.8828664286404266 0.8742338861428174 -0.8675131251948475 0.022039783199684738 -0.8457553177735713 0.6463057137113191 0.28235041310724207 0.824877015886273 0.5784979813806503 0.8208095098053978 -0.08010824419341935 0.6263743322237086 -0.750781905135871 0.7622208136463648 -0.5705271548972255 -0.049582542052501906 
-0.588167113891428 0.9911862743983557 -0.8152311144563849 -0.5001910609358091 0.2134333014894697 0.30165454040196293 0.9800576110117675 -0.4020483658636933 -0.6902987723431377 -0.981147318708697 0.5076850939509059 0.8248549347309219 -0.5341445182196841 -0.794313129958897 -0.15259339188478127 -0.511583023471899 0.8590980233387955 -0.07750102994563934 0.7262043779741465 -0.3689923640286517 0.5545854360822573 -0.5677422745254541 -0.23580371646078968 0.51804915884431 0.2414625081965005 -0.8046618977182103 0.11379025578701873 -0.8183659638988849 0.19818517114523215 -0.10026232776121458 0.6927594499602 -0.7008454214025173 0.828202336354884 0.17844406161734683 -0.7510541573796075 -0.8343565407728565 0.9260820564460679 -0.26135699448648747 -0.7775023750065083 -0.2580005396959763 -0.5561060118824828 -0.6670895346565033 -0.5027677149844751 -0.40003387270819435 0.15470380173353734 -0.01518033017409499 -0.8194201970776803 0.5629721575657077 -0.697386828159489 -0.7021108258241593 0.32484889694845775 -0.7355281419500986 0.736326886784619 0.28224993304900375 -0.460811215970167 0.8272450190526316 0.17189143020865424 
0.02885309112888268 0.2363813834014694 0.3679271690060968 0.7060800837203322 0.9873917908766553 -0.3460732181717708 -0.9407076306230235 0.7613558231283769 0.6256735916983922 0.32632527049139193 0.4261955571265006 -0.2688469472987438 0.8238840270316211 0.8372300382966532 0.49006865290616264 -0.7285763692278974 0.43797791335597447 0.9285373932773457 0.47672600008285526 -0.18978668720821149 -0.5184000311999015 -0.4265381713568097 0.8180293835671755 -0.8053001978991055 -0.533998175559079 -0.5275411976332953 0.4512335066869013 0.4053489221437401 0.8750326663001579 0.3380291062171259 0.7766169282115817 -0.07812187382311585 -0.368212415885381 -0.8866676267237532 0.1548267173472797 -0.7291894356906884 0.3735628621973605 -0.27200081656067354 -0.12643751321836744 -0.0869345607812835 -0.5823404205214233 0.8131877336795781 0.2557948900684588 -0.8302821377636588 0.4881113963379444 -0.18431726944560123 -0.25764230042501385 0.7670059356671733 -0.8843340532125774 0.9233278559882956 -0.24665578952518064 0.5904665897437665 -0.8148983150284701 -0.36156055709546503 -0.37341745520454445 0.41887598396148024 -0.45825152499107125 
0.8606694933268395 0.5873392874887027 -0.9066146415198775 -0.1438826609028451 -0.3428518892046476 -0.374655037284375 0.30546297737583056 0.37928361669175686 0.972283325794495 -0.24097367354510246 -0.9844263387087722 0.7300584835276721 -0.18451823325422348 -0.931475645279246 -0.5490428401853371 -0.8692654277684669 0.8722304669964798 -0.09071806035665864 0.04521438546762169 0.8410182813740048 -0.910561375568374 -0.5532588308190164 0.20234710382301682 -0.3505304529511211 -0.861389191575676 0.8564214944070894 0.832021460453459 -0.5140529352745001 0.46049485170002263 -0.9644961726157177 0.5378816960944253 0.05711728095568329 0.6422346382387676 0.4378477804597505 0.31420640410803324 -0.5958654383402584 0.0478585009433122 0.339689099594136 0.02378911007395014 -0.5975242364743553 0.13179658463078625 0.6920030980119345 -0.6495306464359447 0.34871244935937296 0.287321012912645 0.3899087376356834 -0.21206656040899455 0.8224994810395346 0.539035307451897 0.7542625028337067 0.6482505553214206 -0.28891534187679846 0.4334208671526599 -0.1256387968943579 0.032720416138829325 0.9003074218292453 0.6321255838914501 
-0.5532331118340679 -0.06103650434651686 -0.17245473820105195 0.42654252647203417 0.7967956642349128 0.15726631485394094 0.6993316519013223 -0.5081233207677089 0.9722866155629997 -0.7015781109530801 0.06740390588512546 0.6824841139031079 0.25139999936994173 0.18086696501488958 0.20125377923148757 0.5236522931758893 0.11848621907952617 0.5592844022550407 -0.6771588930769306 -0.8102730884986503 0.6482185268955096 -0.304836610026797 0.20053234369294698 0.47316088570917364 -0.5068425930196987 -0.3010770176418438 -0.7812922209993425 0.4500220216802908 -0.4876256572234832 0.38837385956269 0.789960957677435 0.8045885427497372 0.0029077366850613906 -0.5064770658748023 -0.7172380988794496 0.6655947668268808 -0.9836757022889218 0.6494169408735483 -0.3247333174909409 0.9612520755560252 -0.46386858711747037 0.0677813082916725 -0.49565440040249875 0.3921388507200573 0.4047138647323558 -1.0071420060065948 0.5720157388379818 -0.0886529659355455 -0.5450416793096551 0.8490761485130991 -0.694085889985822 0.2774781592184301 0.1345116746943854 0.08508221310575469 0.6023881158678731 0.7849979578849041 0.5308851649449164 
0.2702833820120678 0.07550026776734198 0.025193066143603948 0.36767929234958135 -0.19640431922308207 -0.24689669812335718 -0.11865697695720433 -0.1151325083883544 -0.4762971422690023 0.0442861333145268 -0.1852423431637895 -0.8350311273367939 0.9731624795429494 0.14141161944121985 0.3163781242982183 0.6793223875350547 -0.9609313784578188 0.6576853816313317 0.8906672315989483 -0.21117127503222347 -0.27392526778314136 -0.1257308550185306 -0.4043118611346506 -0.7298808827219248 0.9721324905579996 -0.40582025192136495 -0.5525548016791868 -0.36155818465208983 0.06784280602234018 -0.3255427151932312 -0.9693633682867723 0.02381514021470676 0.8747470207672667 -0.5583322021567616 -0.1392193453933126 0.5025243806590092 0.3457514703539081 0.8578751527470917 -0.3205417231688924 -0.30462682280121706 -0.9360041611004613 -0.30599283572082725 -0.8727510148240516 0.544223531946116 0.7825941729775915 -0.8845286191854763 0.2724242393285787 0.24371196589307523 0.488529969194037 0.34080262321727917 0.7216066117430415 -0.08034842924912873 0.12316389602622488 0.5861277720142536 -0.3795132753528096 0.06921373675870363 -0.9160367324331774 
0.5321271724322161 -0.8043008307040709 0.4777271230860132 0.8660997354964566 0.7674101613096614 0.6281527971410151 0.1705655948982455 -0.1817679806128089 0.0335903856222699 0.5663083855066902 0.9809654136822314 -0.9355919144836681 0.7512216503776677 -0.27719016286230974 0.0012003829417573735 -0.7727881177191369 -0.5341897024024167 -0.5808048119038973 -0.4878675532806691 0.5946620560889058 -0.6740942749167985 -0.5980560818578047 0.23990505476080848 -0.27097595583489437 0.8217829614663632 0.518168855477098 -0.9788702162333611 -0.829441054640746 -0.07016479443360163 0.7079018549450052 -0.986107786659157 -0.3776907904860449 0.18895892781648782 0.5750520499017977 -0.899537244002983 -0.7277403254116919 -0.8123389337619243 -0.4685850407336409 -0.6866870813309872 -0.3645979546535997 -0.9791439514634006 0.279549769081894 -0.41571968376475743 -0.2360428501155837 0.9297280363149583 0.11322186357569886 0.3415496232521622 -0.34229775986981886 -0.4386586933337522 0.14703676002521915 0.4621345958216878 0.04521719118797292 0.2025420627150861 -0.8441962480829139 0.525645434612436 -0.10243973129035426 0.2407675010625096 
-0.0738947471091953 0.7554174247538832 -0.1436754883111977 -0.3215819711069254 0.5561544361144983 -0.3339654308725622 0.19094589853816182 0.5136183400651227 -0.7970236236541561 0.5474462205980022 -0.3090466308908133 -0.30322170156668776 0.1590735627557997 -0.7472601923770881 -0.8475001471567154 -0.13132200446637837 0.48581824065639645 0.10454623783482497 0.18248828834175534 0.5160028492074471 -0.6886391602452788 -0.46417346962068406 0.4161396104220874 0.840640137556469 -0.16982931353827269 0.3404837203469737 0.31058383499314535 -0.3485455194815546 0.11753021316803841 -0.832730167427141 0.06202910188729224 0.33629387291678675 0.6319547696507521 -0.8182896111518811 0.5386504730204835 0.715652047635731 0.23178349273870158 0.5716930909386553 0.6537939751942207 0.12205844287056578 0.34207028909612514 0.4841976473196823 0.37827738400287725 -0.5839737342621611 -0.8393939453043152 -0.6220494587546788 -0.7922321597597254 -0.18782797776246543 0.594268118360932 0.830005431048318 -0.8825333264265611 0.3774859202007197 0.45847093969456376 -0.07146847545529916 0.5848703811465477 -0.8694192422044933 0.7776065623477219 
-0.2912630351275336 0.6889250216525049 0.5449103499748833 1.0044059045915907 0.25405448039349265 -0.5577329018156422 0.7511217305683907 0.9885149394127524 0.6455872571390886 -0.42701852687996533 0.5913024407318026 -0.020579361520877353 0.249734728148341 -0.0795519428898939 0.9161348217165087 0.23181366264710693 0.5304278201507047 0.6792800854200769 -0.6724658479602768 -0.06703957515639064 0.9836878988597204 0.3770051494769641 -0.9987120848458206 -0.6047515531349241 -0.8800926014766666 0.47017355464900734 -0.26291315446176067 0.8502728669434887 0.16161500498051892 -0.6385087043053636 -0.08333917621621134 0.47666085881383136 -0.2942695039108181 -0.8093890529329366 0.9732848514137482 0.49337923592720884 -0.5529330879870347 0.5624494310031699 0.26635570221076077 -0.8269752987332845 -0.4294455354721345 -0.4264509083397683 -0.1448025782017468 0.18241954457897586 0.679572693663682 0.43763358887627646 -0.915100427028064 -0.08367976294793385 -0.5652597109973669 -0.2951538655960435 -0.3366494419525574 -0.4001958816203688 -0.8255240147354344 0.36282231334416504 0.6389422384024579 -0.11671887047848964 0.6514144260791255 
-0.30107004081558086 -0.28196793460130176 -0.4031842947936235 0.7906061660493665 -0.5416186018549198 0.2586513374542235 -0.8426143149515266 0.17079804906940735 0.4861340701267769 0.57314915929106 -0.4923230495804498 0.54557483762212 -0.4360728781524732 -0.6436177885159285 0.7880235760818968 -0.43278497920588244 -0.025253448094223696 0.9685833859146644 0.9672771951444259 -0.6838196381266548 0.41216823675608294 0.2777482997808037 0.7789361994340125 -0.5380598796759216 -0.948738203985686 0.3498403387109321 0.5059811886511167 -0.7276436770844636 -0.49770781653560886 0.32334215222459406 0.8243773658420971 0.7996642832501432 0.9648596114957144 -0.48935833208272017 0.3149855834828157 0.48637036608801415 0.619660317997143 0.5913943685366781 -0.7070582178363222 -0.6086487429264222 0.8094573371026257 0.9033567001891971 -0.09405287682213004 0.6792467098082157 -0.4118018746728943 -0.7514840109916368 -0.4515461738930311 0.03283519978486023 0.33133377093284877 0.8430095538488831 0.7867905828333575 0.22778989207136488 0.30237399895411193 0.5096810108878335 0.9307588911396184 0.12457203914287539 0.953185328263522 
0.344801013956749 0.012744526639896003 -0.3593197202953069 0.9280071396359082 -0.5396259609423941 -0.8084376661698375 0.3226798498924405 0.4364366004603119 -0.9416051716006117 -0.7335441238484106 0.7333831276324376 -0.12513694084629579 0.15745349304480535 -0.39961316182294987 -0.42985129106867953 -0.07323403076557285 0.29151747531977024 -0.8333461394766286 -0.012644241896103914 -0.5688328814354741 -0.6363789718731171 -0.7404449493568994 0.03697540020125609 -0.7953378234765839 0.7370433146147275 0.851235664806137 -0.30557601553237435 0.9178880906751764 -0.3982096513796816 0.39461568556196125 -0.7207327856889095 -0.15622386177981323 -0.8686658379662313 -0.2936204852377322 -0.6523307183569107 0.09023356708523077 -0.3263540429202335 0.23989634378306637 0.8702982140796741 0.5808394482552447 -0.8286984199222431 -0.9056698306623276 -0.3485309424859657 0.3504438290434762 0.3728298953233178 0.32068531400620554 -0.3297760184066467 0.4244414957384355 -0.5025583995303458 -0.8167032355564634 -0.24504659457113975 0.4409842448390873 0.6255643372953149 -1.0042156114388396 -0.059445493645404635 -0.6426237975971091 0.9696902637134069 
0.9305778999283298 0.5276158811295093 -0.6622862671483039 -0.08664140348980805 -0.18192799599335255 0.20837397025007778 0.24103867464418804 0.9246506025348388 -0.2808641967140011 0.6731649489179539 0.6304130745431098 0.5522031395730916 -0.6221477825729942 0.18922207417554326 0.16753431008283873 -0.6153951269431666 -0.5286852934857087 0.280771615113522 -0.4361390396250153 -0.6232221274306553 -0.900319257013394 -0.4266837110806883 0.2909258163276592 -0.6359235450801249 0.16540163625883442 0.6676428458191805 0.022231609746694136 -0.8754687317395335 0.40079821114048964 0.5394494104031623 -0.39625569592560284 -0.2738404060959466 -0.10658376732719854 -0.549602204704835 -0.5198135316963199 -0.3303666357395978 0.31478965029340455 -0.8937579605857077 -0.4788083048342981 1.0159437673922864 0.36099958504188634 -0.9958765189047678 0.547035007192074 -0.4013634912826123 -0.6308295546815137 0.6780535917944877 -0.049769812888902455 -0.2770526676602371 -0.37639148986401394 0.72917506656681 0.09742394796536447 -0.2272268422985287 0.3899413539120589 0.4701092043168612 -0.1425172677781929 0.31579402429221937 -0.8154461753273903 
0.5554593341036427 -0.8697289421418735 -0.38891362780864225 -0.8571476798867592 -0.8178947941756866 -0.66138697701938 0.07968653606117322 -0.44548468582447553 -0.9156529925588974 -0.000861224693475382 -0.8991189024023689 0.6824896625562766 0.6495766662044359 -0.08291936258769632 -0.7017381908693741 -0.6123571784336688 -0.8833258342413202 0.6322610310692696 -0.6559753825114598 -0.7953518271042571 0.33562499052687245 -0.508183545840257 -0.8700612372935328 0.040136930748157516 -0.41268863829732405 -0.964062540325024 0.35337032027112936 -0.9543636765782585 -0.2297453388592738 -0.7446327506787476 0.9382390450671569 0.038953569004509185 -0.055921773672852115 0.620947361886556 -0.41662134554940655 0.43569748894246974 -0.5005962237800172 0.8300505284651337 0.21362095103449905 0.5152174343422845 0.8565565789734788 0.783970732311424 -0.4490061399869394 -0.9551673555195435 -0.7364817192263386 -0.9935811882696076 -0.45501155966333184 0.6052459038942907 0.12006782524521653 -0.2739678346187435 0.5910163824783339 0.14884548266582825 0.42951749297304126 0.7501127925489336 -0.4411189531254788 0.8616706730180587 -1.0069765585654913 
-0.09476299826803548 -0.05486345372909643 0.04888583150440689 0.655718195346429 0.8887828274655082 -0.9118194469894731 -0.5322641962849812 0.787011931774856 -0.6846748190813101 -0.35529958693862806 0.5292956439519636 -0.09538821301178649 0.6574352456860617 1.0377016389145948 0.5748975107061193 -0.948871895786822 -0.09554610002635835 0.8201832210945833 -0.8697083863511235 0.7618979598016349 0.018628772556979364 -0.9180574500442541 -0.30685120359400603 -0.46298750306529635 0.977567786365751 -0.11295799016292299 0.6867554593539731 0.03255273763320669 0.9015764594452976 -0.5590800779404691 -0.6508107008415697 -0.06297271215955445 0.4565524722812965 -0.011856790499081619 0.15944367593562062 -0.28046439724138567 0.7558456240483716 0.435212600790375 -0.6043013046371358 0.12404534019872535 0.1821342937762132 0.4114135680938182 -0.25856082938086555 -1.1068921756511647 -0.00867594099384839 -0.8291393290256912 -0.29283249828190444 -0.963534974113374 -0.12750225486410682 0.7341744266674958 -0.12036263966535204 0.5071277890340363 -0.23484028694154685 -0.5572545622232894 -0.28044841458932185 0.4624900542482782 0.5533315177637286 
-0.8107646193399247 -0.21177182942450146 -0.03749587378926753 0.2807607358447238 0.20443511718465426 0.9430336416013907 0.47147983725258225 -0.5905137755767522 -1.049045242897604 -0.13114602115194735 -0.5775030245135185 0.8606450391043011 0.5935566856885417 0.03257571761015971 0.7868725651114493 -0.6833339139051745 0.8121010371183854 -0.9839655385737788 0.04300737407541027 -0.12487062889801925 0.6840857867146654 1.040635502223517 0.5022114104625535 0.816998073156369 -0.22550280639040657 -0.7652650616361069 0.0861322641498252 0.24710873786446322 -0.9628098605713669 0.21527661393615083 0.37979510272117845 -1.0887036184635142 0.03005790053589462 0.015293527658997481 0.02390911284083827 -0.1967399438280997 0.9457068596795151 0.1281457667387012 -0.4061653201325109 -0.020267380151559704 -0.8431154847740275 0.7131754003442938 -0.5119758510591574 -0.3754800160713101 -0.20543829374530742 -0.4364924764891571 -0.7841562884388733 -0.17994796409282474 -0.21379637771962506 -0.2666421836451824 0.1844230273360922 0.432829280848076 -0.7929042790143114 0.1231070270051353 -0.29678844140787886 0.44824089010149265 0.42490952421213124 
1.0382004350112202 0.29543426981543786 -0.5906870452315343 0.20506008156184236 0.9799592243563511 0.10480858026006713 -0.13959167284895818 -0.8965102906590562 -0.7036244294039526 -0.5667717898787988 -0.12055058601054391 -0.9044007710781965 -0.2979235683133632 0.8020737671133985 -0.6978089298285686 -0.5418701631986766 0.6564155054628256 -0.7914588621531848 -0.2585598810919938 1.046757506139912 -0.05885196153964097 0.8056181366317557 -0.7000362403428487 -0.7172983088098263 0.4211455849859916 0.0500696662552362 -0.035309598317181286 0.25236340318595846 0.6765277743766278 -0.3920540732606377 0.7475248877881434 -0.839333346690778 0.2704894226549804 0.5308459433034919 0.37811394140648014 -0.6785876314951619 0.8510515070654585 0.921502392375114 0.6892272038236051 -0.3224169207821479 -0.11125681744261641 0.6751606145749723 0.0198258655877677 -1.065804964534992 -0.08633352902269528 -0.08889127286157143 0.6407007296292286 -0.604336653985652 -0.1896739967307991 -0.11468042958308962 0.31544672728523027 -0.7947260400934768 0.9830049831237264 -0.7579536897546297 -0.4516441160896072 -0.06375869736296443 0.6261129228898386 
0.6548726938612006 -0.48763993477341727 -0.001833788754582627 -0.5240870816640779 0.804585087854501 0.8723601221770773 0.5493549037597597 -0.8170925745449557 0.6511100308956624 0.45768648176540677 -0.4806645921955308 -0.8111983151369271 0.15596903205258345 -0.595463121694202 -0.698774480820247 -0.6318795106018448 -0.4655536665010694 -0.17020458862232343 0.7193343709450873 0.6542269902851113 0.4775056853699661 -0.062440760450152136 -0.7238295072817438 0.18745838838000184 0.6584894099681193 0.09041703385681632 0.7920425627029346 -0.0655239879524851 0.3623550308547877 -0.28290723765109077 0.19442220909554178 0.6235937551840446 -0.2678394356113104 0.11439325667127366 -0.7666109566468177 0.5163397725107346 0.8729418138730789 0.9418459524846344 0.06321042998683966 0.5421868266126002 -0.12002331651161771 0.5957036721519721 0.8651355174893247 -0.5748984353560599 0.8336752470634846 0.7011452799311201 0.7629267835026728 -0.5888356349535399 0.8312317457053094 0.6460402460423185 0.9992224032443745 -0.5397237750633987 -0.798834324850059 -0.854554360504564 -0.47899422573188627 -0.23623729983370453 -0.002277013527711598 
-0.4161792809524796 -0.8504618769375086 0.8843612415240337 -0.9170864086663904 0.14294179060418322 0.9600609066921174 -0.743959651962484 -0.5033364738764666 -0.18833058097943794 0.7050053381722101 0.3031218879920479 -0.014439428858938846 0.5030639291536233 0.5032562013343724 -0.7177822479378854 0.40407254777370544 0.38231004862828716 0.8677982339029351 -0.4018359418473639 -0.43419299141150436 0.05940554883513408 0.7468930961227377 0.8902755677749876 0.8773281414485853 -0.16428744184617416 -0.3548194997253172 -0.3726249885968763 -0.17973181540530567 0.8649429347150766 -0.731993348846361 0.8917942556486834 0.7053763751041923 0.9604873498309299 -0.4305357131873794 0.6225683028336189 -0.5193431588302949 -0.7853107520871271 -0.5585223982091103 -0.579832899735237 0.8303124508601284 -0.7147795065511295 0.7867009073940368 0.5961906766760775 0.23895960906256528 -0.3966546271853757 0.7954436151894937 0.8770684730637682 0.39496272349380024 0.1082102792588153 -0.5963459949612159 -1.0170527337627477 -0.757888968557841 -0.809878628787682 -0.4895634073994359 0.03576846786404769 -0.8231324975837903 -0.3657301985184534 
-0.7305132965333593 -0.8310071145108071 -0.6897104091629429 0.012586933846383848 0.6272866077243725 0.4476634340875157 -0.11634461764455041 -0.7620988047798816 0.21561511171339526 -0.6209429041382626 0.09458135286868032 0.6729637064193672 0.7090135211833867 0.6987859717581082 -0.0735017657955905 -0.9816910322189206 -0.3786684889702663 0.1323220352593321 -0.8798102682681617 0.2467406590588716 0.7300064448675146 -0.7784980818082795 -0.7159392835097642 0.22200367202739102 0.049652035157037484 -0.9682968270900203 -0.9224948596592719 -0.7740073429382678 -0.37199867339991355 -0.9577371738005801 -0.9756520588077972 0.8173163384306629 0.5888025734999448 -0.20176798844920915 -0.545447085858583 -0.5733531947407191 -0.9692342484881018 0.5553299867665588 -0.8888526169273654 -0.5087811635823615 -0.10623523590245279 0.32590085644708777 0.07944546710660128 0.02178607514265539 0.7319059182613348 0.9698618664086278 -0.16863458917488616 -0.457702178476042 -0.25761112947989095 0.12996801236471014 0.606561865944476 -0.8056342593993976 0.1873120222908465 0.07669752015708733 -0.390164965444826 0.10249756847199658 -0.8914870286711845 
0.40857384918704603 0.877435760357226 -0.27180594455440166 -0.7407367806310216 -0.9798147807283994 -0.02827134476020564 -0.200218499677709 -0.9850155098155893 0.4164245033145825 -0.8976272557826719 -0.5153121473869743 1.0512647180870331 -0.847323308327339 0.8156250649298704 -0.10001663142174254 -0.4442008940370082 -0.9083864149878836 -0.5534437264626302 0.8499768662448338 -0.8373482251360271 -0.10963970471237337 -0.8324183146531026 0.42481846594554906 1.0742844999898418 -0.6089009265257455 0.3356879914670797 -0.8642977883456263 0.020662679551960095 0.7705500145885453 0.38624737297435535 -0.6306191227926539 0.5586215523905967 0.9227882603422757 -0.7616217414844983 -0.6245565966166737 -0.4358623571577631 -0.1953436743817909 0.2936345505937004 0.6818948410869986 -0.4222506329949892 -0.6908500203829145 -0.26396017617362977 0.34712240717383896 -0.9051590375543961 -0.5906814967129366 0.6507966833284121 0.8583188060533393 0.833363255761789 0.5042864560580287 -0.5110222406396111 0.9110002740274391 0.6716820701533592 0.8452940241646152 0.4060740107808364 -0.4959237133027273 0.48679578945238444 -0.1267892074131147 
-0.4083784096475079 0.29771575615899437 -0.6549174694269181 0.4069326934182776 -0.5644035406783487 -0.523419131678278 0.2785571362483558 -0.5916945538559235 0.8156728660668946 0.30182093115041936 0.49088702541116486 -0.08815310730152412 0.5543799778728251 -0.5213328374730225 -1.048378654851345 0.2831115587506923 1.0071670993600976 -0.7023166041077555 0.306613828439174 0.680624322679394 0.10695737874252378 -0.851172889245113 1.0244992664269144 0.4017641980013544 -0.9720996836174313 -0.3341352499028446 0.23817017924146253 -0.1692465740237482 -0.38239489453148073 -0.1574832361157246 0.5361599035150597 0.4664592331879124 -1.1156664630830684 -0.3512901331422722 -0.08777852588881363 -0.6572186380354855 -0.055053073751470595 -0.4305172271893963 -0.7837493975840281 0.542148257337588 0.9906717195795085 0.6357734166577409 -0.8877866868511911 -0.7970140751366985 -0.363142849282148 0.8467353805440238 0.7784638950137097 0.07694387366670355 0.6396439138062714 -0.3718374150417865 -0.6548714426290471 0.6437497613072192 0.8388932042126541 -0.5393563612119615 0.12397717058958174 0.2591041725719187 -0.7550173895445333 
-1.5816985055540518 0.3680833999949599 0.5032236146366292 -0.6218984466388898 -0.5678490734072555 -0.5016153823505645 -1.1659471150940466 1.074168119068618 0.4688160903092852 
0.9119894219304923 -0.9010394161865217 1.6463526619742521 0.7399549593606497 -0.57863129200091 0.5683210505893811 -1.0151944778062794 0.10013448605122705 -0.06428722551993821 
0.846520149511908 -1.4514317625046107 0.37569784185768745 
2.8429808928205045 -0.5082301752841492 -0.4169044242548627 
-2.163371742067794 -1.2160515217038956 1.4715335462082912 
-1.493600627523452 0.6052676211750355 -0.34028388826383776 
1.4230441397860845 -1.3523841258264813 -0.8072978817572388 
-0.5769759353293571 -3.465907315892122 1.198204416341954 
-2.1290954154473893 -0.18207636579586112 1.366879648827186 
-2.5252296397227565 2.0639100453571846 0.1728235213628359 
-1.545033962663451 -1.2245866515130506 0.7872308907131421 0.8286552393839562 -0.4881098503907161 1.0555589078240577 -0.25846307782716077 0.7187823896549914 -0.8025264495549881 
-0.67788078557771 -0.5683048221253291 0.3235897274822273 -0.5261862487846446 0.5973151873720739 -0.33049590908915855 -0.29127317567462 0.5479280654949108 -0.5433641144309044 
0.43813482753243604 -0.5691060307988632 0.025662714963599353 0.27669312226357595 0.47603631783692235 1.4564436349126986 -0.7738905620394573 0.6140250550183916 -1.3706483213392526 
-0.3826006549550258 -1.1624452356460862 0.1286332668018159 -0.5515982565323414 0.38534021515694855 -0.3095163522939277 1.008175465916872 1.5680827567055018 0.3659083161399319 
-0.7120384336594752 -0.10200637667618861 0.1936993645386953 -0.3100097697901179 -1.163636505915402 -1.1685441634477702 -0.06299342697511985 1.7149711215322243 -0.7296840251709047 
0.25947220739396115 0.41038084944215814 -1.462747890034107 0.4409313500214057 -0.3196200567726561 -1.4673539879909785 -0.8963625322372787 0.26493371824531575 -0.10744931248185298 
-0.8031261435321367 -0.21937515193790544 -0.7777505689458803 -0.964924161813314 0.8587130315036183 -0.6248763535271551 0.7408301766568758 -0.560998788390417 -0.48694769462947 
-0.72438057292272 -0.9285358757745187 -0.8702610219558192 -0.9211104734153196 0.3051791038532716 -0.5983841771802119 0.014788546869396008 -0.32905682885044296 0.1790919728406632 
-1.2127507379982356 0.49436433161878235 -0.23474719727502108 -0.7475592677740249 0.4137199955241342 -0.8474747583267537 -0.5584022451390194 0.08653761316726165 -0.40958317965906293 
-1.0962126568784885 -1.034288408448777 0.21514368135878173 -0.5399854434551932 0.978421824910395 -0.4330779295752585 -0.7911506054360676 -0.19653899583759885 0.057285380964252355 
-0.13388632620116375 -1.1327007246815695 0.20374364394431932 0.6014252113576176 -0.5856415950979804 0.25359789471693067 0.08042275526303327 -0.7469426026563148 0.25889170258758976 
0.44269700879489293 -0.10069166941803319 -1.5145339652046115 -0.7486328184102655 -0.046104145234534405 -1.7632125374373695 -0.8647151195899462 -0.046116554962246356 0.6207322977050878 
-1.4273891056064911 -0.3968783677313834 0.9298250960877421 -0.3762646529378553 0.16207469691298063 -1.1107591441067781 0.9786834349714956 -0.1341307330944405 -1.0164033575294344 
-0.6115488773509852 0.43725216133655015 0.8715903007848559 -0.3900812521573816 -0.6663356722834416 0.6307820007455573 0.9326292852182857 -1.1651943187441596 -0.8961526165773663 
-0.07878584023366927 0.6426019419915795 -0.38585224637584326 -0.20232874493395217 -0.704637240915651 -0.03194864664652512 -0.8386516417679523 0.9333193300133055 -0.4947602024366147 
-0.3792840620992985 0.37765123844990145 0.8222324242520788 -0.37737735203504275 0.6028781942118415 0.23811537572755914 0.6318860122542455 -1.2448272110282792 -1.1953405234463192 
0.36621487807477887 -0.5154703198590335 1.0944807230332874 -0.04106668456445339 0.5228093537874653 2.1728942851495296 -0.8995585951215926 -0.8832346893029742 -1.5308604377754405 
0.7883560309316138 0.2550310550651473 0.692663143432967 -0.05820147744855417 0.6979109933686676 0.8984706059666644 -0.3469592957217045 -2.037477345594411 -0.06511487081469003 
-0.8053787348475812 -0.6155231928639474 -0.41456515430024166 -0.9641544128540784 0.2284872802567603 -0.3538178620471371 -0.4567781236863118 0.21276576541145475 -0.7645102055715026 
-1.234075203984812 -0.6875118878660089 1.1851801453446873 0.8338899351054768 0.3724094708226452 0.8218454464420387 0.5567679314071127 0.2854621675343016 -1.7008894930645115 
-0.9120978718754008 0.14172728067338214 0.26050292712143985 -0.6969823507821368 -1.2747319608112733 -1.5977535888058687 -0.8552794692884075 -0.12420424621448796 0.9480262159339702 
-0.6953170313729593 -0.45207022469823843 0.7238485590079158 -0.6022239722816632 -0.29686307651723753 0.575240634090513 1.023999111376317 -0.6227344112065176 -0.5190333282389564 
-0.3553507824214048 -0.8401253431099973 0.5375276894729079 0.25194636719388525 0.30172822882483646 -1.1401949247314875 -0.9380431936221815 0.6135310902339648 -0.5926764508179854 
0.7512992854706718 -1.5966563405675993 0.12999488680198995 -0.5172353794026975 -0.012296087379553901 1.1679480579761523 0.9015996785175429 -0.24535701959891007 -1.1669295526814982 
-0.6880030029231616 -0.9534028920006615 -1.4730326608087987 -0.03399834452266234 0.38990421597531144 -2.1378081822867494 -0.04250461498333497 0.5979708701495423 0.7626356106605318 
0.37793074007333266 -0.17509139273880298 1.1314406280355436 -0.7282041588497101 -0.44771313120906053 1.6133643529098831 0.11261408326067475 -0.4101194288232658 -1.6210361568940634 
0.8564953337597379 0.04411598285329576 -0.6432187166532922 -0.5757195918715788 0.7960503992154253 1.7710006357828048 -0.875037367256497 -2.0383472024938323 -1.518915981396063 
-0.4682784591021625 -0.06828372761069786 -0.3485148840233934 -0.7331858417869245 -1.0658986168001645 0.24294927381397652 -0.32840122828139906 0.05034288604608021 -0.24084897013148143 
-0.4425485588119286 -0.011473991069653581 0.9791223005885691 0.5570577655104022 0.11002399247497051 1.0332981879685865 -0.2867241054279919 -0.14560339979171746 -1.1710347767154212 
0.544076158324131 0.4232885985458923 -0.19357565883581926 0.48223489548051657 1.25846958028575 -1.260637078028845 -1.540728473853676 -1.7133941930485084 -0.29191027521991775 
-0.1090531351803478 -0.7987471313914887 -0.06252027857866048 0.544025377846875 -0.6929541953641443 -0.5191460047803236 -0.15489309664590767 -0.3327690598691734 -0.2001805253581816 
-0.2870869631416303 -1.2618812580956873 0.6893236018373651 -0.46817468607845386 0.7291416280044477 1.327164026058484 0.711623328081946 0.3949901414328749 -1.3636034682774962 
0.783129268890981 0.026893186017268037 0.12451546126693477 -0.8611000082228646 0.8560223727127103 0.5721250081247228 0.3829758999139314 -1.3086794929947994 0.15144134505875656 
-0.2390180723985362 -1.614641547779133 0.6775298256990334 -0.17727277962333665 -0.858094298011624 -1.2953375190756382 0.906970756547427 0.608234483433222 -0.811874509218352 
-0.6693320835905381 -2.2581956829346694 1.0266590922867118 1.1592918080532004 -0.5413325729573811 -1.2958996597638177 0.3208476647408201 1.709032894598964 -0.14912348976994758 
-0.8191642123694582 0.38534793650301075 -0.1841678779982526 0.39684746203713545 0.26201949162343785 -0.5405329757795893 -0.20040394822039215 -0.7026585440893729 -0.8420520630127658 
0.2174463855755393 0.5699427804137882 -1.165570305630842 -0.2134533884333896 0.18611593458626774 0.4760615322657195 -0.665767918268685 -0.26537267650405494 -1.303594364181601 
0.3676290037382426 -0.007122952363813419 -1.208548085374435 1.0012525057230317 -0.9780598571651864 -0.9346702081101524 0.311135775285882 -0.37241029811447635 -0.358900210274954 
-0.7900095273596975 0.18467517822465399 -0.7079761721572866 0.37934802787282756 0.45467758388349466 -0.26328830117866325 -0.7631349758916445 0.5102136438323999 -1.1918583140257006 
-0.7223033937057072 -1.1514110807691191 0.6386948784580542 0.5061432521674724 -0.41102798040429417 -1.076156408207089 0.13591306294431943 0.518271608683008 -0.9241786637412003 
0.14206388826006142 -0.9205501181482447 0.6843489511277775 -0.41546008344202606 0.6818206646108194 -0.6446094943143529 0.7673052935054118 -0.999121774278043 -0.6885748018831451 
0.21980086180590064 -1.886194906789185 0.8726509326944473 0.6014033605562323 0.15302295485464704 0.5934763588497156 0.3476709303358357 0.6551845961295646 -1.8383441865365915 
-0.6038216308234626 -1.9771585974606403 0.6389846682953783 1.008801271839196 -0.4084850667050502 -2.1624740804951115 1.5370796217663913 1.632983497832563 -0.9676222534366419 
0.12317459350408694 1.3381259551448312 -1.7009027216888708 -1.428807920334452 0.7464606519024768 -0.7572734806448524 -2.1658096306499077 -2.229158924170291 -0.06489683061230211 
-0.11310968918549669 1.1078011946223376 -0.7579015179720754 -0.47923814936641257 -1.0978851502297857 -0.8541916149951564 -0.7946849742518917 -0.17329224313053518 0.16275116539054305 
-0.5519691330816859 -2.636898337425191 1.5957552374234494 1.1699581589580703 -0.3062086382205821 0.5799486625975889 0.8822365132355311 0.909816083685968 -2.2047495627443365 
-0.1945998287367601 0.4510356817127302 -0.7885828043096886 0.5169855283509328 0.7716204430210581 1.3087951981731298 -1.8312895443524657 -0.745375671369096 -1.0750861522266202 
-0.8007954514759311 -0.22212569474887495 -0.08641685975745479 -0.3573403887790936 0.4257796737252658 0.7400786154306708 -0.8601293451888271 0.6239525604962085 -1.088550899835029 
0.21814298463632803 -0.9390964336211427 0.35308758608894836 -1.071482942293046 -0.5296641392831295 1.5333057905765004 0.5176961497626671 -1.2464975997675927 -0.558566844309358 
-1.6428220759416257 -0.3710751668608335 0.09397066372213217 0.7799164831169387 0.36403662991267377 -1.0417857809609565 0.5355117593704332 0.7807711417310338 -1.046272656449596 
-0.3410517570414754 -0.799658067015887 0.31230684869910347 -0.35655504374632946 0.13914585272032917 -1.925998646511554 0.657065988621347 0.5929626035788078 -0.38399144374842853 
-1.0057132633240349 0.0036802156061336933 0.371041053834935 1.0041017932076577 0.012689728139482484 -0.5475278556073895 -0.28443324836420614 0.5821536809154775 -1.17861743124464 
0.7832975908314145 0.6022205089377813 -0.168238316496023 -0.05220755861574798 1.3386925593899444 1.6060597818074442 -0.892259301066577 -1.9897694303193199 -1.7581951562446143 
-0.17335468982685812 -0.013809797831188998 -0.5117802331975169 -0.19484544239732904 -0.45623749164051686 -0.8372847699731489 0.7389084776243229 -0.8268128716298979 -0.3560676471773899 
0.8827766352672823 -0.4398981873457771 1.6505143994295393 -0.22973524403856313 -0.10792541452632808 2.6504139279236796 1.5109610677323424 -1.161351229737887 -0.35848717739038644 
0.4051648194915902 0.36863643829164044 0.7234045583882978 -0.4653215933093217 -0.281681689783542 0.5577599867635148 -0.2796782377127479 0.009481016611423363 -0.5385354836129048 
-0.49738947654916954 0.30915824974446315 -0.4779192191647656 -0.4672332250163464 0.47886459731207925 0.28341898355423334 0.6605953081321108 -0.5494915100695935 -0.8582538197094461 0.7251039191498282 -0.0892304978416191 0.20513561216492396 0.42200138627804 -0.6421292531791771 -0.5631083575008757 -0.8868566202279351 -0.9331477206220976 -0.5643844414985746 0.4032523692828263 -1.0362793438632818 -0.1104617755406059 0.7892602423750449 0.05306990743838114 0.6596462225470253 0.021461967891401645 0.7297280415213774 -0.9126693422451403 0.20714490528955906 -0.6993406813919792 -0.8485177279459957 0.8601568087714078 -0.18017573702242204 0.5100417298801047 -0.7443881220582406 -0.05611651713489041 -0.6619566230828081 -1.0220976442507268 -0.9825355482986812 0.842155487625858 -1.0170712355089029 -0.6688362451342283 -0.4459541615301478 -0.8379308711065206 0.49206561981089153 -0.8507133073089953 -0.1800983210193092 -0.4825797941747209 -0.05686319521714838 0.01944981149799964 -0.6016968404499772 -0.38067396507624757 0.9424244800314026 0.887340465447915 0.5911052459074481 0.03905032224298334 -1.0657117773215896 -0.35305874363950834 
0.05048687533064896 0.871590093074556 0.5682225361803115 -1.2740088749540401 0.7303555840732125 -0.6735064882867031 0.576525364742368 -0.9532772056106129 -0.5719386110318746 -0.4913643078824663 -0.5203452849823921 0.07509496688860413 -0.12995134521955895 -0.6749778474218354 0.5020783904834991 0.8530984227587003 0.6764059354304268 -0.572957711829533 0.4350709025406533 0.6242550888089988 -0.15527064265321472 -0.6630991167213302 -0.9490475176060477 0.23709118155317774 0.42872667815826465 -0.1982523851988113 -0.48168025294874567 0.8461078475717059 -1.075022876641052 -0.8141676129668896 -0.4406328754710333 -0.6104787469564978 -1.1077558222467423 -0.4302574444256591 -0.30745171193071885 0.6764328329004473 0.8712001735580763 -0.5265977026388617 -0.951136762443402 0.2416913909623138 -0.11343539714576735 0.6902005367646096 -0.6135062153695428 -0.3313025360575156 0.43976601402374127 0.352933710608229 -0.7265467046708549 -0.8519384908606855 -0.7874580892766561 -0.5924155511014307 -0.946899158122427 -0.20080807451053162 -0.947773444680018 -0.19547422626981997 0.6212422063787264 -1.2569759831434568 0.3732356607142091 
-0.05986828404732939 -1.0197033736030403 -0.3213286179411428 -1.18096137738296 -0.7954276072127028 0.48275275143999874 0.23735490216948094 -0.23943136930671474 -0.7147114013639966 0.2335637150615754 -0.1282773621518568 0.04041519896901458 0.3815659135287485 -0.9702061226681974 -0.15402846881254767 -0.8940537728038043 -0.6354489818013692 0.4998305661781635 -0.9535566178898922 -0.7415541172339165 -0.14292794941117562 0.03240294308415337 -0.4212479217797493 0.6441686265297626 -0.5872618694130507 -0.3298384003892899 -0.004422001927442182 -0.8679037767242543 0.6275637112944298 0.7487068528824895 0.5934620866041552 0.6399568648155715 -1.231426170349285 -0.649981940151377 -0.39744302486979305 -0.628525301788488 0.11658103857844994 -0.4734788374511548 0.682938011630387 -0.8712694470342316 -0.1751237633025332 -0.7628243745893099 -0.41989151811850206 -0.7943951221289515 0.279137807891994 0.47678425472530916 -0.39411215481377476 -0.6505784711735694 0.42079573989163266 -0.4653885227955078 -0.06023605831895941 -0.8438136157811651 -0.505759931093667 -0.37705993783737923 -0.6019648610574377 -0.05011298821760491 0.3424408626098771 
0.26328853819649456 -0.7197657945092859 -0.09831184507436415 -0.6414124194093364 -1.079423322536713 -1.1478419966165507 -0.8618317565358962 0.6511496787156864 -0.3598633941915972 -0.8488024208443535 0.26839245019084074 0.02883734657100111 0.6462281886563753 0.952623748014528 -0.6219154801811982 0.4885827921001929 0.8261477609161123 -0.2669383925687023 0.29719978741677017 -0.36614099922524385 -1.4837271307814237 -0.734893276629257 0.1496508462730128 0.6763414177055185 -0.3503471173106474 1.3209558292658568 2.24031778580631 -0.07385928397384878 0.07899915951209002 -0.8975456684787818 -0.19412261303260087 -0.2851717388245638 0.21311748799645416 -0.26478861697148914 -1.2875380815202526 -0.34600378758214284 0.3848522066846035 0.680058551464736 -1.0245102430376147 0.11825312979876387 -0.3456794246168413 0.20524072993848577 -0.2131153452255917 0.06430499686647283 -0.8088157772503153 -0.8524082558456283 1.3770179341446867 -0.01525476385798042 -0.22795043117126926 -1.1074345673523012 -0.12719423411284284 0.1887629105677752 0.9584699409039344 -0.7597317369456368 -0.004708213243503861 -0.41979384784292884 -1.5832605163598596 
-0.4286493676054824 -0.6710388675350327 -0.25027965579307776 -0.6078102956469722 -0.10040827988391815 0.12033269187326993 -0.8779212816569898 0.8650530450015548 -0.35620667785562415 0.6106652511395892 -0.30244301450516314 0.3263823563510517 0.09602363819737587 -0.011187393795935521 1.0294845531448007 -0.440462311584516 -0.1164684064474202 -0.999599868374993 -0.447596082932965 -0.4774284576592906 -0.12602991151396584 0.4335894652039432 0.2166462905325328 0.43137069135951567 -0.63922525349602 -0.06176243547217499 0.3575203678825867 -0.7822588851076852 0.8994744145206577 -0.45464483553706264 0.7848568471850935 -0.47294383423537645 -0.6674987245800135 1.039935084481179 0.756659515624622 -0.07307890592324426 0.08497641787821905 -0.3363817812237946 -0.150722656733853 -0.7363494026064579 0.3472497567184678 0.9506964311038416 0.3845730119819791 0.6381139285858097 0.14509551324365236 -0.10614953408693303 1.376560275059567 0.2948447969631653 0.027145374051554996 -0.7205318787897788 0.24957454064483323 -0.7403081098654363 0.9720714689375755 -0.3625701233521798 -0.9752126453661386 0.43753235029403026 0.03010736139290234 
0.5757113210211272 0.6405076986443465 0.15906007307843106 -1.0302429339992927 0.4413142321054512 0.4847255408669022 0.6862463996786901 -0.3599975373360029 0.7610149758493743 -0.5646851013809467 0.41048316503880644 0.15144434474773294 1.318666537036178 -1.2880812069059326 -0.1967472177178279 -0.5418393982120154 -1.8855154876735372 -0.8527512132808174 -0.008110120399101816 -0.14650412856442283 -0.0001868020992388847 -0.004470881842790953 0.8175466393449354 -0.8246130665308548 1.0294833194616224 -1.2320920755320728 -0.8094802927166543 0.8407522756023522 -1.452404244245301 -0.3724182635590116 0.8505956767212447 -0.09330647485385747 -0.6707381670610242 -0.21066445459252603 -0.3059872164498326 0.6488466368478621 -0.6323900600286987 0.9977800271323822 -0.17916604355369273 -0.15261720821351507 0.8453309517698934 0.8185062429941364 0.8210701388227247 -0.19633780023348418 0.7898916293361633 0.9513202047299979 0.36496681136140574 0.506807389999253 -0.5993573211595031 0.5111827261186507 1.2907038997883145 0.2110606419626783 0.2247947697601527 -0.356349019335797 -2.83945490583894 -0.7082465343628851 -0.19868347052797036 
0.8761972259595142 0.20696557017549752 -0.6363302866732632 -0.9826586160731925 -0.4086225847269635 -0.699059872596932 0.006995820701348903 0.47032850968954315 -0.6355639401446499 -0.13189042496933678 0.20282989289225717 -0.43190273558682635 1.1224458132818151 -0.6880060894208688 -1.105192580014104 0.6837280408072995 0.1130286354797934 -1.5099904247783267 0.2029973569148306 0.5564512909941781 0.48554009246752533 -0.7049006243610976 0.20168455094286486 0.7333873376980633 -0.3079748813076431 -1.2396259850498237 -0.35516094121377606 -0.12256575017338087 -0.9467788672464889 0.7120149126326439 0.34197235434975065 -0.7388637143083456 -0.5922740652347565 0.2851267840945116 -0.10312220666998659 -0.12655865558076096 0.7476209956198406 0.6312490905528003 -0.7652790219351144 0.02638906779440433 -0.4055943945019192 0.07706435078254291 1.1329834840705677 -0.7212626847206721 -0.36863004243380726 0.6504257995464626 0.6509843550747084 0.5202513406330274 -0.6478421765476585 0.26238615917407626 1.6189910787809412 0.5944291989699984 0.7626238006035136 0.2190426871759385 -0.9056146440374314 -1.0678510549814573 -0.6508370694852261 
0.3717017819157256 -0.17066623641711673 -0.11838036594324462 -1.6099841346591461 0.5741672304227974 -0.1744610628958222 0.9370855786401336 -0.28302225449285756 -0.6290483814627079 -0.8870551844862574 -1.1947130596032436 0.8038368280909368 0.7170654573560225 -0.10963251616243434 -0.9521175099560633 0.5549447582488776 0.08452693206764714 -0.5046601471573267 -0.1411089501224044 0.5075971297824476 -0.36290730406137944 -0.47579339588451064 0.09507087726536939 0.2356493420217069 -0.9633875892617866 0.46650100937295375 1.6964197159238363 -1.0518017441121337 0.626541951202564 1.0014781457174355 -0.35976923547252143 -0.521641781751814 -0.7778786265088112 -0.01990790320202988 -0.6510964909980337 -0.013489703483795454 -0.28904051938315756 0.6501498509703161 -0.19224284734234484 -0.3391269760665363 -0.7229554353610923 0.45883140306852666 -0.8266274634694698 0.7758744998294882 -0.6025803035191265 -0.6460267818969527 0.22288968864341138 0.6154174980528002 0.3035578483525069 -0.9228371639800258 -0.11583170998820387 -0.7092255387296355 0.14472800485981238 -0.20673000578374917 -0.01683546862299167 0.3516942993082769 -1.3123916726175917 
-0.21608457493098873 -1.0861868970455189 0.6139038763320503 0.3493987992335486 -0.7802600912290983 -0.8987547291330541 -0.2484047928369777 -0.23529322732295785 -0.1466243990836954 -0.14621675684020452 -0.3925372249801481 -0.0896010929401529 -0.22031006342458284 0.38546430787232444 -1.1943767664682519 0.11316752754356169 0.12542698734160243 -0.27178398891553907 -0.9846368346102531 0.6407648896309245 0.8013225041241546 0.6208221272060693 0.42019192126417715 -0.6556323050695979 0.4489385706969794 -0.28227755696863 -0.23994720909519726 0.6394872509371329 -0.4706002902312122 -0.9787009427990032 -0.7300368996271058 -0.8461517732035091 0.07093506518154934 -1.0279654006177172 0.7262979519343564 -0.4253612860818027 -0.3946258014001395 0.13385892895656992 0.8102717681795071 -0.2561639589761269 0.5119625292198857 -0.9034596586922057 -0.2927176163401006 -0.761292814040538 0.3333319437342723 -0.1742411884450235 -0.017431928406408406 -0.5114118211117054 -0.2112635857509831 -0.7482889539804952 -0.10882268632680642 -0.9600623366158879 0.4594104903136894 0.7347793886509837 -0.7431523671379657 0.34019035156533284 -1.1355532497555723 
0.08984019448116472 -0.5225665350786904 -0.053387606197442504 -0.48659483066120157 0.5056791091995039 0.11679754898696776 0.06665702884691108 0.7945249088102335 -0.1801500289671383 0.7026714172191403 -0.8845614175497815 -0.16956360155758113 0.3501059263575071 -0.14676922137140666 -0.6348596620443929 0.03669691181481529 -0.20093439829586326 -0.5727575267929406 -0.6904425872000716 0.6721536727292705 0.3944262711800665 -0.6179062746395672 0.3314257153867529 -0.026326510432606767 0.1156117268154243 0.024527330462948655 -0.09519981419281968 -0.7604663825684196 0.15998484292683354 0.47141366493993336 -0.5271017837750039 0.09443034693317273 -0.8190092056346305 -0.00355379008523838 -0.4507156814990819 0.7882661363837737 0.5798401492414814 0.6614555979726067 0.44236254522081764 0.25175151815301433 -1.0098339385861945 0.008964596563151775 0.45848822616975354 0.6531079096001776 0.0031774578726493047 -1.045926877138765 0.8085389158027323 0.363829073033722 -0.5890708330770863 0.2987639211354748 -0.00281066889551295 0.5157575999769297 0.48251826677854803 -0.03090076219982059 -1.0506990386699833 -0.7949413574080183 -0.958192502207338 
-0.7144037325120123 0.5420408869164778 0.24677075477267882 -0.9992194369963184 -0.4653487425055942 0.09036158590928813 0.0163315455368585 -0.1966879216955506 0.5472834736837574 0.5082862096135897 -0.17295361604739934 -0.9752236239942095 -0.0712130512505899 0.37466239054340367 0.523880856322399 -0.8915668041122771 0.40922346788719566 -0.8165737780191465 -0.47114457740560634 0.7291709279357476 -0.4561363980940639 0.30379260838346883 0.4279119765575793 0.3855319462204403 -0.7480922060331152 -0.3774806736179142 -0.6725394159439599 -0.6702862708402351 -0.008577558827477714 0.23150503207829265 -0.13888213953128614 -0.1492276858999877 -2.9925107735549186e-05 -1.0150461099145336 0.4279866255428693 0.11965623932804734 -0.5598515343016778 -0.13565353266928173 -0.7695344289693028 -0.8216799126961204 -0.34086180472988387 -0.15301284565514645 0.25292676641219136 -0.027958808417277808 0.8229250706237136 -0.3580280311906826 0.07246867187871031 0.20422527770712215 0.3340882746568152 -0.7784424032121651 -0.8328175071936903 0.5960062529505614 -1.034525905476816 0.5569422725619334 -0.3195585218912822 -1.0378334084360845 -0.18968254333956225 
-1.062091056912592 -0.6469066122849025 0.7125984594171666 -1.4317655895384596 -1.3814248659174517 -0.7258025902222772 0.6022611604986126 -0.43760260040028204 0.8016282992244059 0.18558852609288956 -0.3552573261628062 -0.4064582612614264 0.28016439453963515 0.4236977109610876 -0.9430940485826932 1.028394583004249 1.084553499962511 0.17837558478132928 -0.01444906205091402 0.22633952528869128 -0.9122194773147947 -1.0629968068401994 -1.0901159518745118 -0.8434505269437199 -0.5438972505442731 0.29238480840541275 1.5973697773822104 0.15844161150898417 0.7157772196999999 -0.6266743486586664 -0.45991364908889104 0.25642948540338967 -0.7291079102048449 -0.8260030853885774 -1.3044912802380333 -0.4886779748713428 1.1539986061309624 0.19590370933619705 -0.22470372479691295 -0.336938108860493 -0.7959548218461899 -0.025076564253489374 -0.17770577998029896 0.10293900802512448 0.34103902256061097 -0.9739329264626595 0.3736446371999005 0.887089294659024 0.2869636491842761 -0.4202296837901293 0.3879089469468779 -0.3417624319057311 1.8373536923931335 -0.8316935626799448 0.15503210667528153 0.8325686208852238 -1.048628267054533 
0.18704891882341526 0.46340318943327746 0.2880651182094439 0.10437357716560668 0.4014550218781261 -0.7218117810100931 -0.07691760651784496 -0.4548880010552654 -0.4083968019232295 -0.1459816523515733 -0.681616266832491 -0.9730576952789868 -0.30576468966458087 -0.042461833869523874 -0.9758719069713925 -0.7974183729936134 -0.2651636952463983 -1.1721472362987133 -0.04257222447876839 1.0775699870252884 -0.5135240206470563 -0.23517052204520544 0.847941742162485 0.3557444055289388 -1.202798968768993 -0.8949053128349216 -0.04299422486896544 0.4362084602963825 -0.48920963777004617 -0.000604355822743959 0.44111291349148835 0.49017833899669405 -1.1335448544529372 -0.24518107004452105 -0.34646804567847567 0.21304724329185426 0.6911446941774733 -1.0786250128142847 -0.17309405572841316 -0.2213724113706766 0.8183965825392686 0.11621058288450445 1.1595009956069782 0.09092851609075675 -0.32058777203400896 1.2937326430671992 -0.2570323995353689 0.8120049740181065 -1.1007737229102212 1.3649491824325697 -0.17224914406465683 1.0164945315483718 -0.6866441203445935 0.35884757616880175 0.6939543021979837 -1.3686947982035453 -1.1896311994664934 
-0.06428246797663394 -0.3522767642489701 0.051488408107942266 -0.13193111596985252 0.0977436354422374 -0.09333701645914654 1.0329470284436466 -0.383843361753359 -0.6357063169625491 0.7149289347939549 -0.17190350283074463 0.8256312091331017 -0.11601956014595464 -0.6222602720418549 -0.12070855757684704 -0.7600304127251165 0.2807865747130961 0.2673470220569974 0.5983048771515223 -1.1259851625772943 -0.9462525164775927 -1.2617331686519755 0.5142777616153857 0.2534274433994965 -0.07424492179980548 -0.873877391799229 1.4127122474947378 -0.75153050227916 -1.1451337019208292 0.19888727362008451 -0.564694862093909 -0.07105219886574377 -0.5104460238399506 -0.476839599727105 1.1724698573236627 -0.1628620198446877 0.357510921517598 -0.15742920669406982 0.19623093811178915 -0.4353466998479418 0.06000987737515156 -0.16253317928584954 1.4369981593926846 0.36864662649658747 0.21290671159943741 -1.9293890241023048 0.6742004274959377 -0.45153906417861417 -0.9760674005749821 0.1376434876842616 1.1527576365915064 0.22373058255443387 0.6628741516982203 -0.31517283341033214 -1.008227335769047 -0.6266925995036434 0.5385590928190159 
