Layers weights
0.08134587717878983 -0.6841220839174771 0.6830130070672316 -0.8804923341667917 0.8709383001777692 -0.5860347204137342 -0.7391344257369211 -0.8078498075161186 -0.2204004211269599 0.4452834650490729 -0.9642342379444093 -0.137846022244255 0.12891636857088348 0.5778461909141176 0.7271457216240061 0.9127552944637468 -0.42462654382139386 -0.23191147642994214 -0.4693051939024795 -0.5422929269043402 0.38086505595830283 0.9869275661166099 -0.05616646158419821 0.8840100603962837 0.9874131538151596 0.8053997937226938 -0.8400578068699289 -0.9808510139746115 0.20635919838740915 0.27709842600938855 0.5756501039819262 0.9671913717235672 -0.6859872028543352 -0.32176185803136037 -0.5034164933174767 -1.0010648019257051 -0.895495479583225 0.8901280112826464 -0.868361665466302 0.8003956337506762 0.9234932232001514 -0.20590360076485825 -0.27565441313950023 -0.9061617962899983 0.07102297517649142 0.527445508208662 -0.24304227014689306 -0.8381123002716396 -0.9411345915550349 0.8443434824977787 0.4074113180204946 -0.1579773994760903 0.9874794650177866 0.13720152524394555 -0.5017267153880633 0.2409885380922804 -0.10379658517928991 
-0.6460879505090877 -0.7862929879572587 -0.9096200214047139 0.3202139296016253 -0.33288827923365366 0.9488549676697913 -0.08856469620208011 0.4160712455836379 0.3300849996272559 0.561432874602382 -0.6308526214518606 -0.47850447986281114 -0.025285103821941227 -0.34774215054621294 -0.8710991386004262 -0.9300950265121527 0.597157283227354 0.1954798160635629 -0.180278079097709 -0.7091372566484232 -0.9256278231634704 0.10067735884127771 -0.3556698648516376 -0.4038485027106952 0.20466023394890231 0.2372831867271037 0.7825983774023093 0.8852756203439076 -0.38420334630104114 0.019672622943842623 -0.2337966182769875 -0.5978516015926004 -0.4185397153940158 0.34476204920187303 -0.6158841591452506 0.5047483604817339 -0.8325241295237522 -0.4223654500964266 -0.15565869402386875 -0.36854376221169827 -0.7189619269452026 -0.016227039977055657 0.38301445284477365 -0.2940543646546589 0.3060685532334049 0.396381191205567 0.34927987067823196 0.05723323238142966 -0.24222228321860784 0.7625889166245978 -0.8786937917430655 -0.8208402912427434 -0.6132931643322315 -0.7958141620955838 -0.9439754217202007 -0.9515438048062179 -0.6071017374664031 
-0.5204876090313959 -0.1977037214573516 0.8412181253617093 0.9197420250084066 0.273942566953557 0.536047562105538 0.42675858003421785 0.10077440887415089 0.21699728472976876 0.17218520777438617 -0.813201875214532 0.5405406564528886 0.6827647644039551 0.7064391989659262 -0.9784498864268777 0.8607132625624663 -0.1201309441018299 0.16432980293650323 -0.11052292402112096 0.7059985229309613 -0.6749158882471193 -0.1545643471554898 -0.12003960368880878 0.6853947742011363 0.8887015883328515 -0.22774664179283133 -0.21737580679512702 -0.5812093203851788 0.8560256497903657 -0.6300018981520967 -0.6116898618344534 -0.37776028907254056 -0.9614547861758511 -0.6829711213084757 -0.26130599087994777 0.7413084922304584 -0.35675179072992974 -0.9087663627205655 0.08309522794666438 -0.5117519391892045 -0.16258875915721038 -0.439279606277009 -0.47917946723669713 -0.7032021442031829 0.2944882361052198 -0.28496843698926405 0.4483654510674688 0.8078223800001244 -0.2607405142024195 0.27575908284286244 -0.9072188907990546 -0.733035820265495 0.5728327770251468 -0.8209878026474662 -0.5580430601746132 0.5182000154724465 -0.22638386412403014 
-0.7476310220932059 -0.4709383931652542 0.28855374015521185 -0.2769936572857105 -0.8401434046522969 0.8461354779055975 -0.7316077928534332 0.5477057776930738 0.8299131351270641 0.7952480480205792 0.629123817594216 -0.03576948808058715 -0.5748355085791371 0.07783128092568505 0.03747590260596722 -0.6242122764765002 0.8456080816945151 0.09003390845641568 0.881307920724919 0.3031466774862573 -0.015031466785950553 0.15249438619849506 -0.21466959253708073 0.905085768135248 -0.6185872872613445 -0.43629568820969644 0.7944941599888027 0.32452516614645505 0.18239768246571683 -0.3491003666426199 -0.6439508085519344 0.8224249520896626 0.19948036821104909 0.41654841364079753 -0.049936918850006506 -0.2880270358135016 0.3028898847880338 0.07470856067368706 -0.5330405932851663 0.4394159245322408 -0.5018236897716435 0.0198542864538096 0.8383076175264963 -0.13359094912987668 0.3749669184034124 -0.7912115815819424 -0.6708698655439542 0.21270077497472767 0.11401825431941792 -0.21092296264010812 -0.31105227919902245 1.005173368279934 0.5319684039038222 0.09406081471343906 -0.4974113349650106 -0.5987411208494091 -0.8902546234996217 
-0.9656941280972209 -0.9075826812807863 0.19692312702796233 -0.8506147173040649 0.2671814926690193 -0.9572386640308479 0.5123844693074469 0.03572532259614194 0.5252940677419862 -0.14437455520650722 0.5604290909689271 -0.2648756714359049 -0.09531785592775953 -0.2709120872335446 0.62896795340808 0.09823615334965222 0.4625164811168756 0.4353783704342309 0.14957933763292486 -0.9777616925026099 0.7494375205960819 -0.23195195853076683 0.4398903619075819 -0.8623446626809282 0.06982046254973406 -0.13370269849330407 0.33632404997354737 -0.7045433401566534 0.32503493271406736 -0.036800168880286865 -0.41304746429475486 -0.4352942240486342 0.14224576846907344 -0.07799814426054641 -0.6465616878841038 0.24123250839928895 0.7322249885495664 -0.31315248546402646 0.020214784738448528 -0.3687781446232159 -0.4938832957438799 -0.1034258647702262 -0.7579528547196124 -0.45280869873986634 0.6995780434086473 0.24841074009634817 -0.47107211014781514 -0.8421069981228098 -0.08725067684556653 0.6608470843008201 0.8429117300515461 0.23018509096565726 0.9156754315719362 0.8195953646064954 -0.08548154673175704 0.774990857485526 -0.9237579276534934 
0.9482059820736786 0.27048815320216724 0.1898688797768342 0.2622712884632022 0.5592779070265952 0.25586331993013384 -0.4242008189253163 -0.7124943627267791 0.5976306350253495 0.34053538258010896 0.4968751096324937 0.22756273768512386 0.3819908123038219 -0.6300242546782655 -0.3272411802387362 0.4872057317966049 -0.0510396070522281 0.915153304731926 0.7151609795032383 0.037737458912106336 0.9772923778814382 0.2873846207944152 0.17219216025777478 0.07833526400102869 0.8547167174710337 0.13618206555719325 -0.6397366851041439 0.914093319595617 0.6882898195865488 -0.7044316122838574 -0.23895957091124082 -0.17048139078782648 0.7728542633420863 -0.43530214526767796 -0.37530846785011884 0.7742300491529548 0.9678525678335167 -0.7849508705937485 -0.16784125028642097 -0.13701498452703573 0.17054276385912082 0.06663136574476147 -0.9690528737929913 -0.8689186136958993 -0.41499788512522423 -0.825486422644189 -0.5902566178665786 0.3432030646469488 -0.8491719226707926 0.3375995189236849 -0.053783686084962756 -0.6219223961778797 -0.852372739854725 0.5064201796942689 0.5085425116161628 -0.1696600878674138 -0.5888417460153466 
-0.859699897138428 0.03966397417159051 -0.4723621140037235 -0.24485259047627977 0.9258115252986663 0.04261935095976895 -0.02335276583918224 0.370059678197936 0.30594113607788964 0.19665905696255614 0.3454228533831054 -0.9161616979748237 -0.254193741684891 0.5643209680934631 0.4038167309331897 0.6134575973382853 -0.006660783615651811 0.1486886393161897 0.6815473205073621 0.6506153922057197 0.3593025602755252 -0.8551739943069094 0.7532842995096194 0.9998727085614628 0.9954536649093955 -0.4934006754104221 -0.3993754611547917 -0.5092132683185776 0.3561258772935584 -0.9467392251288389 0.5978460972154492 -0.09978048434006476 -0.2218332834639447 -0.0855199160903648 -0.18665133011785273 -0.49098067452906613 -0.12979932917879128 -0.6190495524254135 0.7053412074980904 -0.6202057540148748 0.416363450201344 0.10079848657734902 -0.4998946655727694 0.6698960912228967 0.49506919079078676 -0.16671476288146564 0.6322597230212555 0.19439296268243858 -0.5322015085996947 0.5344063386446374 -0.88425225280932 -0.6424540480340186 -0.4046636682637923 0.1979720958689864 0.7166311231248147 -0.7545049342290112 -0.6702815151937463 
0.3341362322291135 -0.4286286778788202 0.028237120902975255 -0.5728925612650865 0.9315818908455474 0.13321052564875283 -0.046764445052389164 0.325146048674434 0.7698266196318346 0.7645322291837413 0.3418250830151517 0.5494971637650863 0.5104701608478861 -0.4211324296078937 -0.3454293112136052 -0.47406640823943685 0.5049217197555467 0.10681576762631684 0.19068576242001467 -1.007646903513238 -0.2899531221112248 -0.9143653844896896 0.6479645196643753 0.3538221988133651 -0.6568378819075893 0.5463572065779341 -0.8778034904301131 -0.27804594261525456 -0.3012717149974251 0.9267383253210192 0.47105589111078644 0.04421278138110452 -0.4260934909826899 0.7432748135818699 -0.05581723977266506 -0.3896768354543581 0.170233484851417 0.7318527923693486 -0.7254346191063922 -0.5821509648012984 -0.22489107410201492 0.17536206633667906 -0.6442332899522225 0.3186757822646786 -0.18834513003824307 0.45589183441128706 -0.2710263124717423 -0.21546392579640605 0.852045066546077 0.5781669493244384 -0.45125706012669164 0.29848851538874915 -0.5689251905087669 -0.18354837353462772 -0.33139750724513645 0.37841691240484693 -0.42153133962743855 
0.36054019068235754 0.5719269645699789 -0.4913215482585389 0.7552315631820087 -0.5662124699911846 -0.7037283265923787 -0.43460699865409835 -0.1258597928954177 0.83855211202819 -0.04492813765021331 0.050398435075249104 -0.36824983498220204 0.7596023859104414 0.4364637783030362 -0.8711134750467225 -0.752791463467404 -0.5987135526634557 -0.4335953263324994 -0.1227104865788522 -0.8205477311125912 0.8404886913164973 -0.8155625735242253 -0.398457525132657 0.20735526539953492 -0.9853338785253936 -0.42533450752479207 -0.20979652932292203 0.01299606274151467 -0.3889402170639679 -0.6879628069116157 0.14352651655259774 -0.29814324889503724 -0.677045598845355 -0.36944003863268526 0.07553599500175223 -0.6821884916292629 -0.03717544400549195 0.0030448233302663463 -0.6717827522688533 -0.6142148389375242 0.8208366669641938 -0.4598320639677016 0.9047742775177381 0.9416546369315891 -0.16530847136073812 -0.6947067514085241 0.8722518532619258 0.3882325819313274 -0.7068095689609697 -0.6108492494171345 0.8554161541584551 0.6910557840981691 0.2356446019867661 -0.16018277805554806 -0.11891580840663066 -0.7848558816468513 0.9520481053758858 
-0.7992100378302074 -0.14886350386377645 0.8198933165342326 0.3321917262371076 -0.4395286117629725 -0.043278748430846704 -0.13050739747205617 -0.1666802198228421 -0.4509863519223696 -0.4377325279092301 -0.07929504145271893 0.736305207652626 0.8732929588759806 -0.07841326420553282 0.29627983323637685 -0.5525360312468574 -0.13997804910715095 0.5945393018921805 -0.43430755309418734 0.48960362489942005 -0.5105631116115066 0.9020724699176067 0.4606854507079843 0.5713627551122836 0.9079274174579626 -0.38300301282830373 0.1300618010537602 -0.3263936331588838 -0.008683246382269312 -0.3711914712991744 -0.45070537802849114 0.14817040065824608 -0.7514945998506339 0.6501449687654552 0.28236009053671784 0.08870172207401011 0.0026906017441807838 0.9497835246243062 0.6716117611908854 -0.10289765939140726 0.5667305465131869 -0.8685754229945946 -0.07934980402097014 -0.0035366947522496367 -0.050037077627608076 -0.3910305698049233 -0.7173251271357259 0.8900031517813567 -0.6453764828397484 0.6948099254602709 -0.3584133746951894 0.2176139076440084 0.13569353112231472 0.6701822173967626 0.9518503098515392 -0.5189152996762799 -0.8042883560165468 
0.6904364180264968 -0.06713569805304842 0.922308525289858 0.7255169901778521 -0.16744126021639902 0.02061566320301583 -0.1351388330981905 0.9836595448035319 -0.7785002866337773 0.42877372761056054 -0.02893298056201732 0.4366268271251172 0.08911596521419389 -0.5516986363959705 -0.2906696572898371 0.6057122977505524 -0.3588309203480491 0.5336380253004878 -0.09869711862450603 -0.4028239180786102 -0.4311217172621113 0.13394702421727595 0.46672446020185177 -0.18602685966030524 0.4308785485344253 0.04236974661841475 -0.7406342360137299 -0.256434482635201 -0.34549100857548937 0.6493161846233119 -0.7651253226825416 -0.3667569932561432 0.013632090256841867 0.4419983979440487 0.5889471229264587 0.19228503469514516 0.3526642624968572 0.4347675448763874 -0.181607104426389 0.08622004981582812 -0.3736790701668098 -0.9947556466897147 0.993674610588174 -0.9136536941944524 -0.01563786033873931 0.3312278303082505 -0.9455758163992831 0.8910859657066543 0.06590641338967962 -0.5482480391301916 -0.6970054895831652 0.7343249242186448 0.9432545555659908 0.03628988841537092 0.05528539303101926 -0.9720620008936001 -0.04604936067542084 
-0.9501076291608685 0.4499576374581664 0.0477933844277636 0.5067417051880826 -0.4894641728154466 -0.9726902602963103 0.28922198617699735 0.9807592986261766 0.4197391098207992 -0.19449165225292075 -0.5245784818436516 -0.8762626307932635 -0.528975375245996 0.31989177094590904 -0.20337596260857804 0.3599655268520192 -0.499633454981661 0.07690777768039503 0.8604642697122387 -0.7079712699817912 0.84559172813441 -0.1915105371834702 0.021939590035947896 0.8449955619420053 -0.6938570701121156 -0.19573164202744575 0.5642632136628385 -0.849877936926134 -0.4903912524596647 -0.2577202412385061 0.45141521603530343 -0.6529740892700387 -0.9954081267575365 0.09888172606887635 -0.5761211122642833 -0.9223671895258824 0.3322555032060856 -0.1850046717881411 0.1557628657362405 0.7836457288624844 -0.87244196029937 -0.9436300620080142 -0.37478167410254914 0.9720486093158128 -0.4168456507265108 -0.6217511994407484 -0.2958234833153901 0.17359476602194512 -0.7311737941191803 0.7110242589301206 0.5891331571708973 0.9165945056047811 0.7371863851613758 0.33488264512063076 0.9502224832909028 0.7377205091412775 -0.5069528132202027 
0.8485978176633466 0.07109807524374379 -0.9059958772528502 -0.04541039947128395 -0.5157962691952865 -0.7901636898757479 -0.5054220316929363 0.8588810706923344 -0.5153869887682259 -0.653860364685785 -0.19382709274080057 -0.31992429746766143 0.5601698721381055 -0.14902913805229334 0.40064121692901694 0.026000711596393687 0.8375564587416973 0.9066760494003281 -0.6162137071758631 0.3678857171762998 0.3984511860224161 0.26632235261524306 -0.29000343089726904 1.0143827614131522 -0.9865088323113029 0.7919926185844066 -0.954482195987272 0.4331565737488047 0.18602036359322544 -0.15211066219541297 0.6029322903264535 0.7963027519243521 0.10565684681053389 -0.3516233431310105 0.18520996808863965 0.8052378291556219 -0.06524006394522189 -0.8028676468483414 0.20114925018333338 0.8080810104544959 -0.2367758885637401 -0.9177986953692101 -0.21777628318381104 -0.30543125119166686 -0.40194670482819367 -0.3919382085841509 -0.6526807852609737 -0.25015438527967115 0.07176659273625896 -0.6141040767610995 0.4413866252460159 0.07601572919472263 -0.8874621120043734 -0.8273919064057365 -0.3933851768058801 0.5789566978083449 -0.4116736115214709 
-0.5575730973634578 0.9052859840816998 -0.6621336345982061 -0.16564417890092006 -0.5918543521170168 -0.6708437064253151 -0.5700747485708434 0.9662241110631127 0.301688419658831 -0.8178052288169875 0.6583252450734194 -0.9049946304395997 -0.5397114670917895 -0.21405082377889226 -0.46526559525736755 0.9221711467616646 -0.39315122360217547 -0.13314499472946295 -0.8854807159706635 0.8078827989687686 -0.3885246527858264 -0.20780367289017873 -0.3462685319206681 -0.8087871830706952 -0.40700101083515805 0.6285936253408924 0.23986881398578097 0.6875535744702042 0.5830128266603672 -0.707437052182192 0.7156266846615906 0.860473223738988 -0.5027210373564472 -0.05026297930990853 0.5456103920815745 -0.4469555909240472 0.033474946890195804 0.48657591601789324 0.4037373275402265 0.8851464434247556 -0.8344971908362688 0.4847596543323871 -0.6008998544211472 0.8889850940170575 -0.8750828493979027 0.9971366234742429 -0.546570595014176 0.15663126895872853 -0.17280676386342564 0.5370087299776822 0.5278874948896704 -0.7357073989522475 -0.45173041524119306 -0.12596431348441134 0.564926563151577 -0.6896903729238335 0.8301485534815868 
0.7138051780382926 0.26830009722777115 -0.8134132006362966 -0.8996742198738875 0.7636601336044633 0.7256907592253379 -0.3461074038097657 -0.7923837836043293 -0.877792542777075 -0.44343237976220995 -0.08188181385228921 0.2241947513638225 0.6880336026400182 0.8494801683118552 -0.7682654950577 -0.32056760351714414 -0.31209692097268604 -0.8614034143712617 0.08813498172923273 0.9903394785344236 0.9637562629601952 0.5756935824560121 -0.696092400944752 -0.91460557871815 -0.8289458092017956 -0.05341690884948358 -0.39073162701667585 0.03015015491205518 0.5631872756904525 -0.20116009962074474 0.7069226307616133 0.7302018110541342 0.4000353338569136 -0.030855979786277743 0.4865821087933724 -0.5753299626626722 -0.7429308058471872 -0.2781384815243539 -0.7812439441803863 0.8834412723171529 -0.12411978343781294 0.47228395276933743 0.9202787094457607 -0.09604394933466771 -0.05985667671833519 0.12608033037672045 -0.4708781313811924 1.0510201907187182 0.03650266944873315 -0.6809814032591306 0.43992400906644247 -0.8629373818625975 0.0795040052468387 -0.01162544136721996 -0.977726810219223 -0.5552246589778426 0.7196616090035199 
-0.2661957288302672 -0.10572510577076422 -0.02996481434232412 0.6765500562044872 0.48682226682654384 -0.3666639512248316 0.4912337582048659 0.9682978681761534 0.15354193063955957 0.7855883870437048 0.12887238715252103 -0.9178447891040538 -0.6506665340562825 0.802340397716392 0.04190529566373185 -0.6738390613076228 -0.3421049967869738 -0.03814353830298711 -0.2053545170676272 0.5309622039832768 -0.06392517511723787 -0.060062530641917744 0.2266471894882347 -0.3401515559448526 -0.9261312212314237 -0.3857059475662594 0.19865526082980955 -0.06054250724137843 -0.5962287690116269 -0.25638855164753227 0.00018979352660347733 -0.9336514547884125 -0.11834466406296174 0.5381622381140361 -0.5614216894510067 0.944106278529526 0.12463328556241915 -0.23696485848176774 0.6741554450497954 -0.3853861990866531 -0.6993312364833988 -0.3734993061965013 -0.37431737987401403 -0.24412748689944214 -0.3938619338064005 0.9285398725499118 0.6762321525924475 0.18365219717476738 -0.10917487707343287 0.22415371738167145 0.4732892800555817 0.7622323667445333 -0.7101919048781488 -0.538001213209617 0.601847756901421 -0.8884830734720757 0.11275370351024425 
-0.934794953791831 0.9991424952653201 -0.2724220812229827 -0.1754249181379359 -0.21336300258203328 0.9494273928038989 -0.44401289288964085 -0.0034391177766016365 -0.3968552190320771 -0.7193742905960188 -0.5168998231523252 0.8715956139675501 0.2996106299775165 0.6553098926528287 0.7950886376111103 -0.6712346796311082 0.8723375848681649 -0.7263907351385746 -0.3846096734646032 0.46781999478049746 -0.858453201540631 0.9033594300791983 0.347611730773682 0.49589910565385126 0.7930353774553238 -0.7659478224175271 -0.9978683293343635 -0.35321790464028535 0.25092993166459826 0.07394723165580712 0.49326688929256957 -0.743526123411842 0.11119003821642237 0.16685614605131427 -0.7491965263577918 0.9891476885196948 -0.1350253596002461 0.05371291378933197 -0.01678349233285912 -0.2127672618600731 0.6629922540658562 0.26252634040431255 0.05029943268559767 0.9598143219099647 -0.7175737632671942 0.9281475944909552 -0.8026232359822596 0.4219286620510413 -0.5070323360545395 -0.14029910841954019 -0.636011103718017 -0.14989053051311613 0.18760076753410548 -0.720783318255922 0.38055293178717803 -0.25423168695633713 -0.17444526113370284 
-0.6796079780615307 -0.5681706323526905 -0.005006289622735638 -0.9057533352624351 0.0009418206062371297 0.16407546437354986 0.49289802490456797 0.6875235487393788 -0.6191253712070928 0.8423295494423952 -0.0052862749003474985 0.36071031331014164 -0.6907264874288404 -0.7945616373024598 -0.2695004379249749 0.9047390760383544 -0.9720134127931785 0.981453905128332 -0.9888823939998597 0.673566450512215 0.9472228701506733 -0.694356626341173 -0.69044920499527 0.7875600562182883 -0.7075811770163727 -0.14877747887246295 -0.5880134766907712 -0.4612588145930577 -0.17892388896899422 0.6533711080387539 0.8853665406532569 -0.10345940894318752 0.8924343139919535 0.85229205374512 0.4967393815626149 -0.7706250503830641 0.1712202170493553 0.4997530892417299 -0.7484976963611045 0.47018583165109623 -0.8971162118516196 0.49566841796415906 0.6849918758057356 -0.16370629530468625 -0.9253973122501888 0.9668623663972596 -0.24629819891991728 -0.7339349406563991 -0.0358579893543256 0.8197275355639584 0.5760271832118058 -0.37303252301826934 -0.4683337052218443 -0.42800502916896893 -0.712235912728082 0.124529355494931 -0.5303984476409824 
-0.8752682574025696 0.7047481131797719 -0.5194663597266225 0.7647984031438622 0.21164274330548907 -0.9593826725965208 0.4412248988658743 0.2526446769363695 -0.9521102532207302 -0.5120986041508939 -0.19318635509653248 0.10942360668652208 -0.6493762797069141 0.39374646261380875 -0.014534142986504983 -0.8015760005150572 -0.9405647668598098 -0.44834215152756207 -0.30874428219920746 0.6278868205980285 0.27047088282202736 0.16733085929336006 0.9130099768786062 -0.771502787958121 -0.4120111572397922 -0.950210688016595 0.6585036097962877 0.13784802192230117 -0.5150584729401757 0.0836454962172471 -0.15333507843839891 0.5116787339516696 0.6315551652330307 0.37590193041951236 -0.6821682244966816 0.8561666226275446 -0.5900894598441395 0.9561138734452759 -0.3928753707721005 -0.7703560346302627 -0.32070935856105454 0.26138837266569137 0.4342778599027013 -0.890074327132944 0.07939388023899227 0.45590994210045793 -0.9972102023445869 -0.48270550598827694 -0.40885720035427187 0.21668818200896833 -0.7087546576319967 -0.3393701866344234 0.8399966238358583 0.1794000846734691 -0.8671587739600599 -0.43972887660600923 -0.16529585746353215 
-0.032427973536196086 -0.09643163923463716 0.9631785068964118 0.8828242472643079 -0.5802373217552496 0.8867275344677676 0.12527923739535632 0.9470141573528751 0.36076414098265785 0.18471018101443915 -0.24878991985707555 0.1404472273728184 0.2815737117940597 0.5156645590124641 -0.8322122032941023 0.47855588260290005 0.6676075665089656 0.8292389966026552 -0.240528056625688 0.21543035380741557 0.29218434676090765 0.2907621631328006 0.17604492407797934 -0.924412272629185 0.8314756661944036 0.74080086320362 -0.16343469999944427 0.6978165969088206 0.11071210703784021 0.7303580202367037 0.14011032317983155 -0.5319783360974198 0.055562971872887834 0.3738933558625832 0.05678718827255702 -0.586856395786086 0.15033293527350206 -0.7113103608483319 0.9655013955411519 -0.4340262976149928 0.01683600922510231 0.44223835446634197 0.6477342489233273 0.7057966435996638 0.4638006978546032 -0.4778815809716351 0.49458018304484946 0.810379698950036 0.6790646278802517 0.22792645337549078 0.8919064668514283 -0.6275286695553995 0.30655097410204835 0.6266009664954671 -0.8367281096983167 -0.8090044855293987 0.6863437597787849 
-0.14715022193995342 0.9899543795785222 0.0004026413591744493 -0.5939738015287633 -0.511254980737825 -0.6359318877623424 0.8174346589533468 0.9410766087524457 0.44479252624787446 -0.9659212127433978 0.8230897170217382 0.8594939959126646 -0.02019002329892012 -0.7408950811737428 0.3020544870803825 -0.4942194303309507 0.5285056422708607 -0.9862939141126625 -0.4025905248860724 -0.38817953713749004 0.017565653363063566 0.8497514369487823 -0.425944898505878 0.1425042298698639 0.6132947132331641 -0.9271805838901037 0.61168335938306 0.34700478876813295 -0.7289340611988557 -0.2696513367825204 -0.9647203996878458 -0.7469759524812595 0.8401535414613792 0.7449460711749383 -0.22964521508616698 -0.4208744171822358 0.8243423859575019 0.28379383185161255 0.2795695681375671 0.9066599948486147 0.11130429944132803 0.3110789857887901 -0.2756907909901669 -0.007672689399223319 0.6927056370818693 -0.013618989771851825 0.6706715933267113 0.055671730113630746 0.4621167861166755 0.16257664790866344 0.5535308971330808 -0.3461635422567926 0.7518962545235494 0.6570641545548698 0.4672676726387376 -0.5273293733538473 0.09293908803298205 
-0.10592729914842614 0.4143802456914705 0.9695011389575785 0.6063215955416226 0.1382203557860817 0.22692778849863787 -0.03553295514247418 -0.5839466013310688 0.596542327590944 -0.016402441241559096 -0.19734736320381252 0.2719861314441461 0.9144513034278416 0.0936887077990359 0.3924448843792811 -0.14403212999654116 0.5555719245265884 0.5770803863042315 0.09490171730945351 -0.1435854006836392 0.40347758572534465 0.14037981974924088 -1.0401989084015084 -0.7036290414562071 -0.03910716150482596 0.45227553823936884 -0.7552929375830717 0.32500509590419774 0.11989132949439202 0.5074841582303641 0.7326699116974038 0.9158926350949053 0.9885067746498406 -0.3488335332764958 0.1721154612902649 -0.05228136451609212 0.19596766093863247 -0.8017831961609715 0.2939422267446869 1.0108263700149807 -0.9573636347736507 0.30935264744373425 -0.9381578488640963 -0.46789614942127333 -0.8252507591282869 -0.334868291810356 0.9779891691883896 -0.1784482397413494 -0.6856535602745424 0.535644025572702 -0.7153411481643746 -1.018523788676395 0.3240168303106512 0.3057700274670286 -0.0360216739960837 -0.7185172866160968 0.5628019695099507 
0.3029137482514499 -0.43141782394005235 -0.6235738981273933 0.7867993332875094 0.8335285785436131 0.01784496659914749 0.09151001257026668 -0.675028511230784 0.6669911502502086 0.9332315565438318 -0.1362997413288345 0.7150882878187512 -0.6462069496219742 0.38343197505306675 -0.2954534743655378 -0.48467673144885987 0.6450191144782025 -0.3941529560323964 0.9983106928320344 0.31951932397624666 -0.2514488769367301 -0.692934208991523 0.5567300207882419 0.013695882226808141 0.7248334420091809 0.5648648884362912 -0.6130744639476873 0.45000552344315053 -0.3055312440974215 -0.6262089802711003 -0.8249874446747697 1.0065323194437732 -0.3531365366085317 0.9172737486474349 0.4432690084432156 0.6510452343449725 0.29670217923024095 -0.07566197379883441 0.7272553092663121 -0.3142305668591134 0.8194641501619044 0.5295336735191858 -0.9845380815546516 0.5306933656046112 -0.9936402892020764 -0.4449831350420663 0.8453933817362199 -0.6616542508901587 0.1253703690664092 0.5348866048089267 0.36970518920430884 0.2514103988141545 -0.47684763065763025 0.7158457800830569 -0.5213143114537311 0.5032409006683863 -0.3061616091744082 
-0.49250024667419967 -0.1957986688160942 -0.4817274178170541 -0.4107863640356457 -0.0680228162260784 0.49048889926092565 0.6636675123676863 0.46355813339962015 -0.22058536626079617 0.7070951364596965 -0.3699459605482782 -0.3685944571599655 0.012254346308611863 -0.13349651047838995 -0.8476195149456496 0.1885598812503612 0.01889663425659105 0.8096679868757317 0.6358156384873115 0.2285442508874748 -0.9021235609285185 0.38166185969700617 -0.19302899714125 -0.452276523401237 0.5248203515574459 0.6727252432195692 -0.9412300395900799 -0.4005682067201949 -0.504660902164417 -0.17482608963439095 0.1998836680669597 -0.519415639834798 0.5775871822304648 -0.641963523966276 -0.5548385744172464 0.2756243173055369 -0.8486462496680249 -0.25710119333233816 -0.20240602828114698 -0.026446882914166348 -0.5816871759638704 0.7610240853807457 -0.7615067681737242 0.5693717512933671 -0.8324270515933041 -0.05607143706351531 -0.3907680027766218 -0.5580309484224258 0.2178651849238986 0.17881376198818688 0.5072224272334473 0.5059902836077645 -0.46096771156015576 -0.8828423515076911 0.8143252651789831 0.3533497740442746 0.819520363998729 
0.944647681773725 -0.6522245886972138 -0.5943197728051419 0.2706258659287442 0.7019118074875496 0.5915428577789678 -0.5964064165068929 -0.132849959563791 -0.28515963194343974 -0.6638807672407578 0.5416951332865836 -0.11505898058467022 -0.2634385734803213 -0.8900474404151062 0.13337374709289435 0.6758357190776817 -0.8173720262257052 -0.8370843245898612 0.6721419674501277 -0.5294158983085119 0.5763265225254898 -0.08803426325954262 -0.19709769715994369 -0.09352308128114592 -0.041125476129226124 0.3696772803733095 -0.9309638419569639 0.29937379943835435 0.3695147552091933 -0.07062663360743637 0.8482121364719463 -0.07243782134141309 0.22746449226265386 -0.020211543902703077 0.4092531110375326 0.8711131846254593 0.6080284506036874 0.4962461123722952 -0.8698434171915684 0.08126995062951159 -0.13937591941101024 0.6776846320928132 -0.6036951663444521 0.6677012386524707 -0.9659197331975757 -0.9119777523846566 0.8176483803694438 0.027982382977780478 -0.8949051143900517 0.8130262803357309 -0.8214352479159148 -0.34556795146060226 0.5473723397001902 0.18464472669324014 -0.001410378450922745 -0.1464414226670368 -0.811346610826283 
-0.13101050404775427 0.5669811551443367 -0.07539871981291846 -0.611070295395562 -0.5668764374382782 -0.7496790043170456 -0.7089925448740285 0.9228027788932383 0.17353135033595857 -0.6573758003041061 0.8235039214517745 -0.06344563949180755 0.6807168425012674 -0.6528977314243803 0.43117743829919886 -0.975921602096618 0.8528596457760003 0.7856960078315458 -0.13232979477475415 -0.3648960157319325 0.9390789864364867 -0.1034040405726193 0.6942030890263127 -0.8993037266076902 -0.7278805385926446 -0.9889885534295111 -0.18562063395453543 0.7388489133421315 -0.003991671084927086 0.6322100540262832 -0.16341154584368103 -0.9064147670849299 0.8981260131166591 -0.3454474780171508 0.05718869704038898 -0.615470654012158 -0.2345193608526533 -0.39519918964738665 0.9142409101249137 -0.5118736016477338 0.8706362355121531 0.07192305485987616 -0.11742363280829626 -0.3978317714135567 0.05807999557111836 0.4862585236760945 -0.23572716627179452 -0.5054709216807898 -0.7804313290610909 -0.8434641580819502 0.17273464584086384 -0.32165724815487756 0.15155034701476752 0.9616780828479707 0.684572850628763 0.21293052572104257 -0.6030209255415623 
0.9402782443523343 -0.23877121209952623 -0.30022060339510515 -0.40129989963662577 -0.8474488484696401 -0.8681547756757306 0.8677696218068809 -0.5416097668350455 -0.8521250066506769 0.8515043675545995 0.5251607310914574 -0.022470771281448428 -0.6727431596382072 -0.02388040398273002 0.2393617322816371 -0.5277922651814275 0.06333817038360645 0.06704655281900784 0.0017324035315882114 -0.3554301084131194 0.8700347578950451 0.09699726370824349 0.8151634873722056 -0.05920242946670363 0.30891465330778 -0.12381812417064109 -0.7832920388432254 -0.07935072574426297 0.01634462977506769 -0.5163701579713538 -0.3846613507212931 0.16160026488056697 0.42610732448199706 0.6722298015567703 0.14181145447529064 -0.004545253836129731 -0.2695493369303627 -0.4797526290515419 0.9565720341656531 -0.5718696143897226 -0.7301466715843199 0.6311096147267894 0.43930473219951205 -0.28048662818115655 -0.49630582844494553 0.8717828992068826 -0.8192741184035106 0.05561137840442699 0.968754703704493 0.34405960956846293 -0.12204789370120661 -0.5832219654691796 0.42756133033686 -0.5194105265881293 -0.3195294777490163 -0.4785410297407399 0.3133377583183575 
0.0779643008682338 -0.2874797368805986 0.7850445167610278 0.4802471042256822 0.08318278645530194 0.7077576763668592 -0.24189541485776095 0.36913302681239996 -0.0558255687744873 0.9536729318324006 0.27809304708454174 -0.21182415299044485 -0.656731684723751 0.8875828050422699 0.6558751897490156 0.15144843519506354 -0.41115835268622836 0.47964850214428023 0.9319502915594264 0.8833485853909429 -0.7486766192077057 0.560760013313966 -0.5882323115113041 -0.8760106763348935 0.5255003471426984 0.9843299572052717 -0.46389495833796746 -0.6904065047361265 0.11861034666339433 -0.5289322996429048 0.16491101245075387 -0.12805081665632803 0.9352041004322293 0.743727694525858 0.6813336962201013 0.3593534033916544 -0.6917566046643234 -0.6231680163761492 0.40055157857119356 0.5715024198436163 -0.9887503948375598 -0.7666637579659534 -0.187972974540785 -0.8977175295880222 0.5575296755385379 -0.5309626443321485 0.20072994000801678 0.30519774813111183 0.7549554858526262 -0.43534065356927854 0.925010936501806 -0.10251265272030154 0.11992789371871024 0.2681189230836561 -0.4855675196918199 0.8121246646741224 0.5248241611089414 
0.2352110169681665 0.2881695169949714 -0.6922525657467764 -0.08276945723027081 0.2877772203898865 -0.48058791084525454 0.34646869359906646 -0.8215701957163513 0.6248595201738996 -0.8594545435683427 -0.7161325549830833 -0.6293285398984605 -0.024899970395678282 0.6084261270655571 -0.3787554423379261 -0.3011194712317367 0.48236200729238177 -0.15990201992940634 0.28298324761591864 -0.09598817879078196 -0.12964023250062592 -0.351686890612901 -0.9697432500158992 0.2754291710534925 -0.26830407655503263 0.9489542624324472 -0.3143923366557302 -0.1389595858605973 0.8229007551614768 0.3866469602092316 0.058810650082630034 0.22293314028067177 0.40879287771526074 -0.4080761282778447 -0.5582563010012391 -0.4295255273509879 0.2066471323640043 -0.8303773134256858 0.22031965549375027 0.20807518164613584 0.7227426223024782 0.9240306583979823 0.12702654578018557 -0.15674900591389163 0.5512896973801059 -0.1901458760056369 -0.7676331855540753 0.49103114326555003 0.6408877163763569 0.248362494029311 -0.10175516930818884 0.8361620638687515 0.35890001646626246 0.779091318203008 0.877519648659905 0.8653458709786572 0.8890890773349488 
-0.16334133104437143 -0.6095174030311792 0.7287419749308626 -0.9717361327070496 -0.1997233260486823 0.07522731668860949 0.694647066799851 0.4364503372390799 0.08820537417769247 0.6827010280316059 -0.3131740373929237 0.5893762811699429 0.982222719027763 0.0982522038616693 -0.34245716557509526 0.18537797805124237 0.6310366202202431 -0.6255251835011992 -0.012589679046074664 0.799345657063875 -0.4987184202533245 -0.6246529052425172 0.3958276211778226 0.3679050787007844 -0.38563091071387556 0.6484894687110745 -0.5457644969808453 0.07612320940444971 0.7220999957954436 0.2788836074216642 -0.500593139646847 0.5023697614745489 0.7491524495094393 0.8514984338436864 -0.28985507079447026 -0.05851242753602435 0.46332991889168634 -0.7879909274806934 0.6430004354021891 -0.9245726595872498 0.880370951928936 0.040231265191989385 -0.14829653258126174 -0.22113281680631441 0.6586947470569007 0.9832434436535894 0.618579107092816 0.33419187448407855 0.8422559213108838 -0.4973804530410513 0.6474293258505182 -0.1949015335523921 -0.8624654998166502 0.9480337975965755 -0.24628575352479223 0.7576039638099605 0.38821390050611154 
-0.4973783269577392 -0.5136136373846747 -0.11947880808418021 0.4129561365839145 -0.27728930734458346 0.23637522780164122 0.00793754324045965 0.8505010996050282 0.5077942886693227 0.6996073983211433 -0.5897608643488106 -0.09812455988636959 -0.41997024426690166 -0.15598047165703632 0.25249763441687056 -0.9029744633921948 -0.739464821682764 0.33259022492034385 0.0977657122337432 -0.04807413304175199 -0.6158576760224878 0.5659139836840917 0.7328813535264551 0.9492336758528355 0.6673936263671227 -0.05210232866701903 -0.230980949691443 0.42099163207417134 -0.3365676754403578 0.7005220244526321 -0.0895636054531042 -0.12914349852229343 0.500099353043604 -0.9364128013164976 0.7925493662715513 0.3975607735092253 -0.425583934248233 0.7935976386402966 -0.8041579976373804 -0.3450305117051811 -0.15653409695221288 -0.02349331267586119 -0.6381300218945825 -0.047491731414581614 -0.9389534956721959 0.34847613479587436 0.12941418140542657 -0.294917644835363 0.44801157247891465 -0.11587206799667338 0.30846954177045705 0.7415498810647926 0.1731009393777845 -0.10969235967044813 -0.10144058031207724 -0.9271441386795732 0.8708961197579644 
-0.11922883428609876 -0.6059682353841704 0.4247027027011008 0.32411964067628707 -0.0967444681411013 0.2869294126324283 -0.8712418936484541 0.2406724098728706 0.2257480941977068 0.7613876762030014 0.03924560447705194 0.5817622689629509 -0.8729755896513693 -0.5116504468357814 -0.5644141071961439 0.38328900842958624 0.8725266740737299 0.4681344374223262 0.1095850331953987 0.18988946160594988 -0.4560245311474876 0.8792605688439168 -0.20813275951739146 -0.2585721054921106 0.08801526789610281 -0.757406286313189 -0.4641001129163982 0.5097823841366405 -0.7038984843504308 0.9583806896335102 0.7695966498276137 -0.40365460707388323 -0.2948660084750896 -0.4154899640333929 0.2571950234780169 -0.754735092934043 0.30161474431608065 -0.7296519754816424 -0.6521811028595872 0.5204869198544486 0.04031370929559719 -0.08179761469724478 -0.30347962428367414 -0.34839015456915456 -0.08552942822533745 -0.6750992289534671 -0.3686286932549082 0.5822481818764469 -0.08159719119737119 -0.336615723909631 -0.3313883923444618 0.16307061337432963 0.867065347374365 -0.5800442643755851 -0.4667022178293851 -0.3343575244435049 0.05828399964306044 
-0.1653874491886438 -0.5839556239385051 0.06255861191492151 -0.3977274323003066 0.4398020522933321 0.46099103870645336 0.01852970438762283 0.0010363580450877042 -0.419315474332834 0.10354480810481226 0.3376171727467443 -0.8083309697871779 -0.7227789044218785 0.7842972987128835 0.10976308516926742 0.009652698860767367 -0.38602598276787714 -0.8614902454804954 0.841294998336525 -0.720728893557685 -0.2493738623339564 -0.10024888992262182 0.501407317591172 -0.06400036194612334 0.49855697292806056 -0.5812657771028455 -0.29807698608838296 0.14296754182469035 0.30245939897769053 -0.7188996489804169 -0.8094228989831516 0.7540139846102152 0.27124081422041924 -0.8340243051209106 0.2001019649461615 -0.5540365548164451 0.06852979344820827 -0.656304540635349 -0.44353184234816073 0.08879678128227994 0.23298932684884033 -0.00809013289870486 0.7752314116209122 0.8305575346279058 0.6618059301656657 0.5171180671738204 0.48665465424965093 -0.6662355176752044 0.22134488334780222 -0.9228889281909252 -0.17667630377756582 -1.0297673053251257 -0.7977909772097758 -0.24401918606376988 0.7045398601632245 0.024727581047812704 0.5581197657710395 
-0.297946804237778 0.10637382820624564 0.03383263453612817 0.5315081259873294 0.21956633204930556 -0.10496602178287173 0.46050835614072727 -0.005089213552586488 0.0484815709873645 0.6384773549733507 0.19332737236549535 0.2136534317273361 -0.9367676052897665 -0.09026667216176121 -0.8055115848582662 -0.35083644000870695 -0.11781437452814103 -0.3482303380886467 -0.5274457481574497 0.7452415061765015 -0.10660536241635026 -0.6178894447794843 -0.6044421545769361 0.7806138229908167 0.3930500806950139 -0.986232266686085 0.09672411966937111 0.10016241613865834 -0.2543208650791293 -0.9728902557865439 -0.055482752079618 0.14506664039324207 0.07149334898843973 0.39765990570057275 -0.05295391837221164 -0.4009852112946227 0.43088638736017437 0.4925326569766087 -0.2244166062068896 -0.21361933869872843 -0.4064318221766412 -0.3961100911342166 -0.5848511636787814 0.25682984197983966 -0.40031443039732967 -0.445318188435584 0.15646821120858398 -0.09268887990290779 0.3981354789297771 -0.12417447647426005 -0.26177166558745313 0.5428637988509213 -0.9475938616744527 -0.06601050345389793 -0.9926895691687075 0.8422762488599335 0.16452937140262222 
-0.45371613385271137 0.1988402137627192 -0.6980260870845298 -0.5883272122434798 0.1937171162550743 -0.1501508238158241 -0.2736892926394233 0.3973715107071573 0.6602587219371212 -0.8855781992677041 -0.8526828561367021 -0.021414602214371067 -0.40533996578205733 0.7555308924866523 0.3620848926463956 -0.6699490413816194 -0.9987520781974162 -0.0195457101155454 -0.19204358133370425 0.6176344101884119 -0.11781073446237982 -0.5345993417143655 -0.12545690570885742 -0.4232476526369456 0.06578280093058808 -0.4571333715134469 0.8201480062334239 -0.09450295564912921 0.08322119191041605 -0.6049659030711025 -0.3789247612219151 0.7617435706159166 -0.5942316706787028 0.556172440848703 0.9731865726842657 0.7147073104448332 -0.15490526715741057 0.03128061470406789 0.613542139718848 0.422030475339626 0.36487049088693424 -0.6803688855501067 0.42707900606959637 0.25618195601747396 0.06279976822126652 0.2673728205088478 0.28579470252919814 0.2881354922252152 0.4599411093757151 -0.711423472951435 -0.6097163153609679 -0.11307828802497907 0.10328839887139546 -0.24732958448541645 -0.32094306709223513 0.6078722026452155 -0.8380928570574134 
0.5440900431671742 -0.08238598744853465 0.9772474393434272 -0.2732489207672193 0.8575561041680047 -0.240113059357122 0.8811449341393935 -0.10648248113620179 -0.7375791174118242 -0.022948480095925428 0.39716585905270163 -0.25743939900443435 -0.9157836776147642 -0.7598622703574619 0.05946197833138012 -0.11649508822426481 -0.9855697939836647 0.40546206130398454 0.007791259195680356 0.7030016837908406 -0.16913244069350972 0.7984351719773455 0.45016717597443173 0.7953122154817582 0.29701421845707454 0.4772368451589588 -0.6636433015440348 0.5551147213687417 0.7487844670728782 -0.24333148409246289 -0.4843288544904216 0.24652685654439999 -0.28622451014783445 0.15277283224323912 -0.9109949132327675 -0.7736635283310026 0.17490091463326757 0.9719092905044089 0.08334624151968814 0.9442817505155328 0.01573322952278544 0.6571152400845401 0.5073824414274162 -0.25181880816993785 -0.691231655399711 0.49223846694980217 -0.021809324057538455 0.20570360318159958 -0.7542881331328217 0.9294879113037691 -0.3444487058536101 -0.949371965250114 0.08152052567231464 0.3303117834803819 -0.38031438267982043 0.5615696913408071 0.038050697927289955 
0.7491623559123106 -0.2428847187993839 0.9168158246484979 -0.9240866201752114 -0.8973259038256325 -0.7014805651939305 -0.9917645865312289 0.5260695070011667 -0.3174324798722783 0.7749871760608757 0.19637965396745583 -0.05037576859478225 -0.6040266288715878 0.016399464746789237 0.47916965742125384 0.5482925642438169 -0.6651015665388544 -0.36508178932914825 -0.6218157472210237 0.34880888708916913 0.8609263541787677 0.3571258920810384 -0.18255443220442444 -0.562378087859447 0.8466723128651439 -0.6467445952388193 0.8410871558748612 -0.8992360833634975 0.8723892020128886 -0.17081963554357632 0.7328955217811202 -0.18424289143705413 0.07414286825265926 0.4520074220878927 -0.3324132715437276 -0.8286149363188288 -0.23878843231903796 0.594009565753166 0.5312105615346358 0.03255213912428467 0.3618408684311307 -0.20188018368292115 -0.4698866046288386 0.7718344145269473 -0.766869581253437 -0.5761278433322208 -0.20959536235402923 0.36881265708473304 -0.9320584883070322 -0.47946015960560673 -0.9171129205468207 -0.6689571823974403 -0.9903862621633921 -0.9611874159269804 -0.9840736280202055 -0.18866358930239327 0.8910910428477155 
0.21651546760954066 0.8138837022628118 0.8109189011009044 0.6328019478927742 -0.029797902599583505 -0.2200990554769815 -0.772073847413818 -0.4064710251924282 -0.1583245117487928 -0.2616036317621935 -0.20080534331773836 -0.5548640537303025 0.45983615893157787 -0.8108430733578554 0.7513500106607107 -0.921173314264772 0.9680593984714427 -0.90242106496829 -0.4252377901440494 0.7712170346223757 0.7243303906502937 0.22540165462522171 -0.812789819680944 -0.24114517681858283 -0.9813288245687324 -0.4715035318792353 0.4936498842942605 0.385514812471081 0.2952351671463864 -0.5198001099957044 0.980835674889072 -0.30918194283696543 -0.3415931685734248 -0.19486383555960396 0.8826774288974648 -0.14905048045010696 -0.31384409717234585 0.6748028140427504 -0.6876041004302965 -0.44328542733625764 0.7458777151972353 0.9583426564178508 -0.04839790489048523 -0.3229405195264633 -0.8017230844397022 -0.5300175040238153 0.93115431175309 0.670943839150691 0.49489911183903157 -0.6936323915588447 -0.04877401986157426 0.986843113025437 -0.31960677096374873 0.8121671319629143 -0.3847348330780149 0.8283569146370073 0.209954358077918 
-0.8978920750685724 -0.8887952620661896 0.9644968400708485 0.7637809404572049 -0.8634568008187398 -0.4782861781147276 0.10310570029009529 -0.9930795791273123 -0.5305828439148426 -0.03727738025776506 0.9982381776513629 0.8826960507027369 0.8985053594270022 0.07260792154821441 0.233125436938515 -0.1920630337517073 0.13211628451608481 -0.08580502599420825 0.5013122341530523 -0.709691411746359 0.9849617822027077 0.41830979101359517 0.6130750595981678 -0.7799526466864922 -0.6861355240659648 0.16373653971496838 0.6460956336209671 0.36168293946882996 -0.4710111756923792 -0.21015226370332324 -0.4212608391312906 -0.2711522329358914 -0.7290725142287766 -0.4446671675919718 -0.9853246729712868 0.42917804262380366 -0.07604734671956884 -0.6100853826686738 0.9441132749091907 -0.886320153367773 -0.06268834376974719 -0.9376761127027253 -0.15652947545560636 0.7266815826741603 -0.3319014018293504 -0.1783604400475508 -0.2161675388768819 0.3725799517762285 -0.04182302270590399 -0.5581372041316108 0.6761549968056013 0.07550587344288111 -0.517233594402035 0.4613706311389074 -0.6717258281694701 -0.7222904528377299 0.06251152756877726 
-0.2954045219950632 -0.7608201034404649 0.10952664534919254 -0.21435177602114375 0.6351903385790455 0.7389582505129306 -0.7593034579823528 -0.5101285097165509 0.35088727287435506 0.8223410607865751 0.4002874487420749 -0.873247839251098 0.9348251505582456 0.10527578203399814 -0.23581724406764268 -0.7043742328148898 0.7385128093104731 0.7100661443600755 -0.7053347453086156 -0.5795431068897546 0.36048659707736586 -0.6509200758620136 0.28638498507885224 -0.8771106747064428 -0.16676503390247444 -0.8670823985982881 0.7539441987104181 0.12025001954737777 0.7089013448992597 -0.13573176312899635 -0.6781462412183471 0.3788458953919201 0.37457906190517853 0.435093301595342 -0.638701797171529 -0.3946520479264093 0.21205100576043345 0.28554816043376435 0.6496642628070906 0.9424295865197782 0.33600337437422967 0.7591077812315614 0.4817431004741619 -0.9152751953927567 0.4026231091711986 0.005202508649597613 0.7187760440941148 0.8003619888737812 -0.04334315816013623 -0.3867063015484997 -0.9814309603796663 0.18255109969087 -0.19045663507985985 0.6376283465097063 1.0531418751738135 -0.5459949981827801 -0.3227168498296599 
0.9819200976736093 0.5999554069085105 -0.5974351415126569 -0.0004500673358345064 -0.24229629059262253 -0.7537053160994032 -0.20875391270905655 0.3239838990512179 -0.6497745306774663 -0.9235061016348451 -0.475821752333228 -0.18178331772454379 -0.39919084561658175 0.9433818337298571 0.34211114391157227 -0.7010588381790114 0.9151223682186698 -0.3442076511985821 -0.06136470909920155 -0.7772502963880248 -0.6489275731451454 -0.9702789429877244 0.8905796584999265 0.912152392644589 0.16905013604138563 -0.25433793243339453 0.7324042863014184 0.5811871714684108 -0.7244341382953218 -0.8183932027008447 -0.7741942881297654 -0.4347815705806953 -0.6484254101559492 -0.4821692967089739 -0.06431403282587 0.7530575940393626 -0.7025999418707686 -0.6765115612901544 -0.09639136014282183 -0.23152475549485702 0.8581388630175428 -0.36094287784220747 -0.46391766917557753 0.9421643710915664 -0.3826918800890663 -0.11815613791901818 0.07500290236626482 0.6113658677301957 -0.6245905952672985 0.40006580938618597 0.4055075251910716 0.5056654041669147 0.8590875176516657 -0.18957208117482982 -0.9439503869265243 0.6753204893085994 0.8143700248228954 
0.7584411237313853 0.9645552326022839 -0.732123331474904 -0.8773116297467086 0.8138185634712372 -0.37903369757019795 0.9474702150783197 0.27596201966902845 0.06750573126575343 0.4902670298490521 -0.8195763699505423 -0.40128138281207254 -0.5843221931653698 -0.04499885435991122 -0.7142777110513784 -0.6116871860472803 0.03278794883181613 -0.7368698610753912 -0.032084231008876474 0.8313850415160084 0.32029539018631625 0.598578865884527 -0.3387365629785476 -0.467293701218202 -0.7727150989365776 -0.7897237197951117 -0.0081301753239027 -0.778104758475054 0.4969086285752787 0.5588723983187406 -0.752120589754431 -0.7531256437134409 -0.05187876147014436 0.3344774120637124 -0.14545849764928365 0.7304929051731501 -0.8741326042639966 -0.2180657761723783 -0.5790030183544913 -0.1713930596555251 -0.6957372252482457 0.8447099082529124 0.9356684044478369 -0.5027001506568499 0.3378630968626106 0.12573914434044345 0.927752696765137 -0.23549536082228184 0.12028270439159972 -0.1435988457476376 -0.03925100738176557 0.631827319985237 -0.7835247545101848 0.23110046581618754 0.5460773583938627 0.6231525630315132 0.2661984589618744 
0.3145537547567838 0.3665944194084543 -0.6361889844264728 -0.37305624975333046 -0.3935377436384197 0.3572205852415043 -0.48219591879521867 -0.2735149472629186 -0.3059613523790996 -0.3008988492392659 -0.5058488147057956 -0.44735491302552205 -0.8390116667175856 -0.5800038724515996 0.45420047809144487 -0.24313854314959735 0.07901674282241888 0.9721402115888229 -0.9753732532766846 -0.09185216913815802 0.8795503340259818 0.38505755630096045 0.39028041277518083 -0.9979421133171031 0.5874373039109673 -0.7597660726308577 -0.915953895983062 -0.2908232641916295 -0.06683155904675003 0.11063377291976369 -0.01640996026654631 -0.8002638646618445 0.34276997200648474 -0.22857331874490372 -0.6753449886240386 -0.835872816555261 0.8184247895945151 -0.14645872691027556 -0.5869769958890881 -0.7636914868123346 0.46274782093182587 -0.05740456603680433 -0.047108437521814484 -0.40150432561219207 -0.22594797472845066 -0.5161376569427147 -0.9139791222610787 -0.5439778259906846 -0.05989065510348768 0.22668906290588087 0.9594689003709078 0.04476807012366273 -0.347914239858147 0.9180281538879945 0.333969378702278 0.5854985950102898 -0.339225910282072 
-0.07238278513679752 0.19682994728777015 -0.00849158497152147 0.5061924646481527 0.8420479398939777 -0.9756877455814814 -0.23081202221799588 0.6972516533219525 -0.7155829710596875 0.2611306121469521 0.19816759885309398 -0.5784068143054808 -0.6234984864680595 -0.009233001883301008 0.1676759718975608 0.7440498859327912 0.11476456192476547 -0.9566176347351234 -0.10374570649830273 0.9105248123299117 -0.7566338314413912 0.8016583571952788 0.28059387353982723 -0.4299809155247571 -0.9642704168418696 0.3723544314816931 0.5879206551498268 -0.22890763630948205 -0.6790036903909303 -0.2926743326794968 0.9722789001225625 0.976911751616295 -0.49947921143306706 0.9293742906186975 -0.7933424500503254 -0.9558896387705982 -0.2861618600681749 -0.6497644981302508 0.6268355097310414 -0.9361034938519043 -0.3532447571435784 0.9923932127286277 0.2888057764913974 0.8599154949844705 -0.5756894055907096 0.30276726122642417 -0.2783351344323434 -0.03463819988350469 0.6480680959734084 0.6359663562041082 0.4021348210283848 -0.420838434003215 0.5777254259531154 0.4334119484996357 0.9235481463782538 -0.6881519522921146 0.881125077694639 
-0.5447703676260907 -0.3121500022512611 -0.7720543751574811 -0.6542721642841507 0.9823382969117296 -0.8947019760119641 -0.1613510215295169 0.4755006587733774 -0.007482282402223817 -0.283318400808904 -0.1644705203387764 -0.3276478637492173 0.37396491246391206 -0.7221596114949326 -0.47540604550090965 -0.5274549371319825 -0.03158286277612232 0.6681107250299878 -0.38616135800496076 0.3620703728523063 -0.25865997232149585 -0.607021357297179 0.6645149764240154 -0.7766315212060211 -0.6800716401864602 0.8612423453852465 0.599225401422093 0.14629144575841632 -0.8293370271763856 0.16027568420004454 -0.4084440875950196 -0.8550583800586778 0.8757184394788453 -0.8048640358648311 -0.5307246046471228 0.21947955515037354 0.2874463959337938 0.2216352145760286 0.5258586055166751 0.40900237704343245 -0.07107481853726005 0.09419889300054107 -0.30823429057107354 0.018786776738970803 -0.8240615820643409 -0.28263361080803723 0.08066155728097271 -0.3548777851674234 0.45154180085497475 -0.5931085261334443 -0.336786403785325 0.2387239266313086 0.421071672971321 -0.6024618505351343 0.8981291553505161 -0.045657576156512225 -0.5480295992151036 
0.8998593935024524 -0.6639590953927863 -0.827235601669214 0.5416810485455098 0.4236125247672683 -0.21707604191485683 0.24475929719246076 -0.7510777722235848 -0.5024907153693048 0.6390012574618871 0.8344281379536191 -0.30492942148894575 -0.35527736854522624 -0.35267194814104014 -0.7883679312924597 0.27846849762249226 0.23242405685093326 0.057888424001746985 0.9869724110575271 0.5757980753703441 -0.3918445785681795 -0.4877321182010476 -0.9657556348380428 -0.869577441268117 0.0073924674619276765 -0.43521669988801626 0.473356051135037 -0.4892814091635593 0.5402659315501634 0.5968800071797614 0.6053913386929276 0.37866857897924794 -0.6509624366010083 0.653288494318069 -0.5414454276424714 0.17439171291169323 0.589838582091254 0.7001900838649842 -0.82523573966525 0.8082594744596536 -0.4171197783849525 0.5804166669351312 -0.3264893867435341 -0.4235791180014312 0.42066955530305067 0.42137961930542345 -0.5838450762929362 0.1813482699982693 0.45576093755395775 0.8015714060703245 0.35635027842341893 0.9651333984512038 -0.561791096750596 0.017601724265181303 0.9714125920386982 -0.6492849477982926 0.3024974634093254 
0.8639197912350869 -0.23734897278011213 -0.5995941607290738 0.9221836679669507 0.36944604187247915 0.12427190835532696 -0.1048386292380601 0.05100836703138526 -0.10906373692581295 0.5844294001429777 -0.29141042494484104 -0.32246404151754066 0.31028707925086163 -0.9826356841096495 -0.048115063955086905 -0.749373042076184 0.27077741100516417 0.8283129106892171 -0.7840019569434158 0.16771433583311973 -0.10752773518597128 -0.8415463006115342 -0.6851257643163284 0.7683200292957811 -0.6285999378552689 0.5952870610270573 -0.8227265069031562 0.7487485984030691 0.9564210143266919 -0.40727801326240404 -0.05288132786661793 0.6622705488150838 -0.10265054842239207 0.4841947605946657 0.9600205269843303 -0.7362266344107509 -0.1351694957187193 0.5994850883070422 0.05218012287187058 -0.7265282197805975 -0.029686823373472615 0.5476648149899537 0.4002157172439451 -0.18721527537044771 -0.7907582544971188 0.6035538482596582 0.16818336251227345 -0.8590465905769887 0.15780517471869548 0.17387480963703972 -0.14990537684292704 -0.9325757722890289 -0.5291158334769094 -0.7540591410929316 -0.198084937609057 -0.7063228794655982 0.48766030393349075 
-0.7469986388537495 -0.6112087092079859 0.5638454048113839 0.9190053590453765 -0.10000831430411283 0.9750802774040866 -0.41217091729587263 0.03587134529246384 0.676398324044619 0.7341971771453326 0.10061204295569137 -0.5252782570227762 -0.8226277435007252 0.22882908091248857 -0.8319005033233532 -0.9830010248770416 0.9157927240844541 0.8592445397732726 -0.5668182431005382 -0.2531468137078277 -0.8540987504308667 0.13526239853975655 0.131253741332573 0.6894336414341401 -0.4232614826722507 -0.589400850789161 0.21830705725499944 0.9169907108453561 -0.2870402710974117 -0.4577320701119636 -0.3032625357901101 -0.891415574578589 0.8019182949671368 -0.7785618993105001 -0.18419644282827807 -0.6732256956942049 -0.5913428045776249 0.23389936295789715 0.47028865244601664 0.8660274156151699 0.5173095723636993 0.12488021396976667 -0.9195880610866769 0.3304578482737508 0.20790057274356344 -0.7405052013906407 0.8590499769437515 0.5126350372972284 0.10910435464049706 -0.5172861817709806 -0.0463256213292067 0.4419880076514769 0.6272061079180059 -0.45798811204831025 -0.31107097188291616 0.7438687132303509 0.10431507985958507 
0.21550952934067058 0.7446613593093989 0.5874760176810843 -0.3894373431827674 0.3927881541804656 0.5283300897518803 -0.9165736399850957 -0.8064706095920734 -0.4351235269073168 0.9618602133303884 -0.6256250101645184 0.6811597091603393 -0.637122652744894 0.9782693633543282 0.039542328249816704 -0.04409285921014468 -0.8319083040835726 0.07118341053497024 -0.3827849332149973 -0.6656256288626379 0.3058186001351272 0.16070207723752578 -0.31532739060631293 0.3489643891666189 -0.9002163047625258 -0.17936843276009262 0.7671619390852833 -0.543082958672537 0.30291699267755096 -0.08174358142341823 0.37073613271730693 -0.4566286427663178 -0.15341886273032235 0.3384705915939028 0.16387086036382392 0.7961812870720033 -0.3693699424726417 0.2431850539802464 0.44859720840145145 -0.4528565316942084 0.14915695305364518 0.789250673709242 0.8907659902784726 0.7100651210800071 -0.2320416611999428 -0.9732834283902928 0.6735623262752387 0.05929086117027233 0.1795145278681951 0.21233524948918658 -0.39244584484452316 -0.009963707753190554 0.3845510758816214 -0.7519842378739628 -0.25221346954188806 -0.1621976993579846 -0.589873551535651 
-0.2315368888793743 -0.30052646217280343 0.08190209826516881 -0.3771011801934745 0.3099752668113907 -0.5343054284532767 -0.4179502526593996 -0.4838540695890816 -0.4224133028982704 -0.6589819524082488 0.16993653092554806 0.9130544197819844 0.3804810241453215 -0.029027578718414125 -0.5372589934940566 0.7515387866634582 -0.37650996382030066 0.9748683061916796 0.1386525329993178 -0.056672839381328784 0.9800152786487205 0.09178636993853947 -0.41633558049436103 0.8790720453230944 -0.4226298074119119 0.038620842562108626 -0.963346918528333 0.8951788730614947 0.36115193665121215 0.6144688675491944 -0.7720926087224991 0.05589931446052028 0.29139468251476996 0.9504830684528986 -0.5574937715700277 0.25975304854711545 -0.9165105617222777 0.8281481033424866 -0.3772802954692829 0.6175487081660902 0.18622510249358326 -0.4281254813026296 0.8112294657715524 -0.9806533119488772 0.41428747556228385 0.4148108920392866 0.5940567727696818 0.5388427499930469 -0.7434663902933532 -0.5455297319029526 0.34175234530572296 -0.7965218694169571 0.07906434943365072 -0.39150886546413527 0.05132961063896864 -0.00660246873549199 0.2383158930167013 
0.49624680076114847 -0.7196749733860777 -0.9585019644325194 0.6376562995875148 -0.7034039300524749 0.6663642042301047 -0.6546942811986873 0.07823852524371866 -0.03232745812998883 -0.5385322411052524 -0.6706196034182519 0.05022993799672702 0.6871132146601482 0.09921642032747252 -0.41367392153773375 0.9224048456873866 0.17484246208275822 -0.4308478926403767 -0.18218265458410166 0.3903717607151525 -0.5319181817565954 0.1276001956637457 0.9215804083365756 -0.5241479473385419 0.3868323899920001 0.8659166345495648 0.2018374777932299 -0.4302562268202101 -0.5926537271254024 0.8562600241554659 0.32765209254852445 -0.2612949370532238 -0.5469085835761236 0.2780264773478893 0.003631890806804483 -0.8316737056309212 0.761163404286205 -0.5604041318046761 0.4748707799222059 -0.429475011937855 0.5740091742406292 -0.20297745647459253 0.3363964726815203 0.6417248920738821 -0.41078375100502484 0.8417525490230336 -0.6317301907200894 -0.0531704869990723 -0.9072094208426176 -0.38823877413122077 0.4977595362756466 -0.1731965314396065 -0.5977077947437985 0.6810081682138814 -0.6705742516121155 0.013963250007540626 0.9141649095280026 
-0.9659481585788401 0.94474550349227 0.7835288092357497 -0.367569966950207 -0.06436470030605672 0.08776666032527082 -0.7242041697268917 0.13147934247344542 -0.39293412281246076 -0.06607532125942273 -0.03727215795076666 -0.18701117139397685 0.627191258082649 0.30504539017380533 0.5342892656916653 0.7020110449756686 -0.3944717659873094 0.18983875857456223 0.5063954315837631 -0.3864355306712055 -0.5146422126694408 -0.1636804669391288 0.43560207663321504 -0.06275491819772143 -0.7556242696014932 -0.7609305847225354 0.4616947333896597 -0.36949998645726473 0.90805203017387 -0.20153475567301568 -0.6358104437761694 0.2074428151465885 -0.9866873348664169 -0.3267634015950214 -0.7386167032206519 -0.23223830906239382 0.3293011777287487 -0.7290948168278604 -0.8944035193412541 -0.9162783402742833 -0.9644466282828128 0.7941948194152073 -0.9217179167686591 0.11642134035544766 -0.3600040996196631 0.29898725484659605 0.8184982290599789 -0.6552833733876734 0.46556412119515 0.2554298293881785 -0.715734604620101 0.3253171992673785 0.37948733828448095 -0.02866670416009915 0.13588811688654204 -0.1339941035621383 0.6558738771428478 
-0.646298733828305 0.48000694519625764 0.4177957846611564 0.27501575428474456 0.48216309656115164 -0.33971933058528675 -0.07624280853847744 0.6951059019666788 -0.5621853028105808 0.8256098309136917 -0.7462588261257059 0.23018489098919462 0.3443194057295624 0.299457899519836 -0.0495417580921578 0.7407643803986906 -0.31753060607995853 -0.887290401972525 -0.07256691745564248 -0.6932295065839563 -0.3629224378012571 -0.3511226555516685 -0.15686794809008997 -0.4600158562651477 -0.04364106516954469 -0.9532675511312552 0.6595640739077486 -0.491375103980628 0.09930932778579325 0.01233319958145135 -0.16837748864254376 -0.7245032002631442 0.13427172525812137 0.9135734316794402 -0.2731881363075801 0.878558005413095 1.026708116291692 -0.010750217421916114 -0.6550611235864998 0.2476666351771916 -0.7462856630362209 -0.9054968928966167 -0.5520756818119115 -0.38399580547502415 -0.43280481633544554 0.46729385581096566 -0.938070324090469 -0.9800158841717134 -0.7306201470457476 -0.5685644336869247 -0.5170259511389492 0.24619634314653868 -0.49810605964726806 0.4533621241924286 -0.7551158366252624 0.6728349416451009 -0.5382317613787543 
-0.9001002923463515 -0.33141139916862294 0.8768639379093088 0.3149395474667619 -0.148946532764433 0.8471450366590676 0.37430021297589283 0.7664556992820725 -0.7713988968648782 0.7248056968392722 0.4811180558207455 -0.22674222789084206 0.15378794015127617 0.3116934774382651 0.21731531567435203 -0.06675441135966614 -0.9555913402338172 0.9667879224918827 -0.6047722670056628 -0.8099896352318238 -0.3189018864885851 -0.35468625092497624 -0.5084741341351995 0.4257565970167584 0.38516723897866134 0.4965277222227822 0.5464605655608019 -0.41623663567194585 -0.39778606735071054 0.4454798490228904 -0.5054198590539909 0.48521563635938325 0.9634102415005907 0.91061361663701 0.6002280721603028 0.7812933465299842 0.13212424138583978 0.40728479953293134 -0.5944484382222672 -0.8581964966041183 0.39244061855942247 -0.15530724033021293 -0.29688435450680806 -0.8577869301270689 -0.02632267607646088 -0.003917396945396555 -0.9810914006525302 -0.8895017414962466 -0.7788106491311904 -0.3614808527008526 -0.3619513051203036 0.633987283555766 0.13967757064764103 -0.5471668388345982 0.7707431656523861 0.7508112574464015 -0.3841023690751978 
-0.09223199447577901 0.5786996589526718 0.17895482975883414 0.9325654434923945 -0.7736023127006046 0.7499372811591597 0.8489524492657217 -0.4482694501382715 0.90291757716609 -0.9900328204712179 0.6038836328970723 -0.47886025635389334 0.01814071937834481 -0.6919588320191412 -0.42413884034329985 0.034064630227798036 0.37290842896022336 0.9967055116662777 0.8110023952645264 0.7486799993426038 -0.3985440287819932 -0.7267280530758047 -0.5511227610242503 1.0104355310951278 -0.3826118089101327 -0.5313770077505235 -0.3887266541673098 0.5477534409249352 -0.35966661646115466 0.07284921372674556 0.8253799916600032 -0.2033583575149818 0.06568352335793293 0.3336718089337807 0.914448328985352 0.48649923622709357 -0.0987798424766582 0.639395663172505 -0.11580218935958908 0.10665206882952893 0.19178966672443498 0.024470642678396715 0.062053830092083206 0.7309008984455154 0.11069114475555634 -0.16870939485170236 0.046695249029452525 0.14385964063695725 -0.15995610643537073 -0.6183589509079916 0.5205094747261136 0.8450318899135711 -0.8859656415498139 0.5566007146196965 -0.8797362192733004 0.7017976297106783 -0.5358403853946191 
0.13102626464354983 0.2183238300326933 -0.2939160981707989 0.017282341547289755 -0.23566835149585424 1.0016955473372304 -0.30004497807928804 0.2628044243765534 0.4913656851459427 -0.5312503306732579 0.14026169276633604 -0.32643914000892055 -0.11160533005554155 -0.6714992265366616 0.7056905122194093 -0.6997521733788308 0.4856283164027533 0.6237069770323491 -0.5713053017454834 -0.770122824088151 -0.7847533596387507 0.4996520587368278 0.4749983996058962 0.6115592124838846 -0.7514208098551667 -0.5747152104137576 -0.4934761054464696 -0.2803533120350729 0.9314369963624012 0.8257285843690781 0.5568326373362937 0.8643785436611421 0.8582272117809426 0.5602785607792276 0.6857094999394151 -0.1985938633714664 -0.642556999142393 -0.8991812310146896 -0.15608820248377864 -0.2885667652711512 0.14185983740687846 -0.18089077195215086 -0.8914816064940354 -0.26016305342886953 -0.26852547877202576 -0.7861206038505482 0.9754246783069014 0.42135709887902595 0.8271433138708164 0.13280393930506418 0.9804184646621652 -0.8574117364370487 -0.21474510139480155 -0.11915459914731892 -0.9329287395532742 0.025651108094385335 -0.9336044295628085 
-0.664229991479791 0.14637283384682337 -0.7995247482521379 -0.7836895491218034 1.0439172668535208 -0.4184493940241226 -0.8042892950194662 -0.2269499815034916 -0.6753624994253274 -0.9210234992636046 -0.5463222874944864 0.11911761317432575 0.33230038335655493 0.2861906770818672 -0.5668969905237141 -0.549741214930002 -0.7087643131853137 0.930794142588672 -0.03322785623122322 0.28814821227765525 0.11042150078108312 -0.4918071841524169 0.859419322466196 1.0491260384458836 0.08290561911418792 -0.23465864619316007 -0.16511532021596256 -0.21747868625541192 0.6947592084688894 0.733638160402144 -0.743577041350452 0.07282074747471852 -0.2798129888994024 0.7691104681051552 -0.18997890082652222 0.8039003660939639 -0.0541157402145811 -0.9947173111651771 1.1613787966096392 -1.1722517478790342 0.37980639588710263 0.5297600005394519 0.6496667914738947 -0.3880032918698556 0.11481206763107166 0.7055627907212023 -0.652285390741684 -0.15939480683886842 0.8158914715740201 0.4751452674775218 1.1136714226728581 0.21625649141792938 -0.3166512127561337 0.6048993745498144 -0.001955844686992554 -0.6816375735724255 0.5908907523148914 
-0.43430008759580424 -0.6881563160540465 -0.38803610148794143 -0.30342766034610624 -0.5071029460275852 0.16046940528115702 0.8745508157269978 0.636766833712274 0.6270647433834262 0.28022155533545184 -0.9516100844966817 0.019173939279127594 -0.38244455133173044 -0.38861023993414295 -0.20457954580928098 -0.15329846261181793 -0.9158720303960124 -0.24421981554586714 -0.6664150490116135 -0.7957309668156725 -0.6357385781658441 -0.6634888609673405 -0.4183798279062664 -0.0954439605525433 -0.29710235605503804 -0.45725352672837966 -0.7071873581900654 -0.27050220283529647 0.46701624729985386 1.0252949623913157 0.6012988463479825 -0.5926158643406225 0.9200311022871136 -0.09623818500141575 0.8192365303352196 -0.532193756815444 0.36224962721648446 -0.35506770360689205 0.5784791965062668 -0.39112702687715895 0.3630595388545699 -0.16638571272134173 -0.8926514217218201 0.7587990619685953 -0.6978978843049404 0.27413311996824524 0.9631695720302637 0.1559348530063296 0.9360975891986165 0.4136664848582529 0.7253983435888123 -0.12275224050995391 -0.09965234446168114 0.1517470358845316 -0.5154071114098085 0.47757536080333635 -0.6822373937402404 
0.47909355331997044 0.15216375325368392 0.6370822497089453 -0.5036112331772533 -0.673931616135419 -0.5029529059983544 0.4052589826084861 0.6850971410866932 0.7212597803667684 -0.5724234547045641 -0.45735625945328096 -0.7162332976223786 -1.0935043583520803 -0.861254259009892 -0.4519726122280601 -0.25586614424870563 -0.3068331464600752 -0.6524822541618046 1.0406149883367755 -0.25440907140803365 0.12993682895128958 0.08888737761521714 0.3427195759664053 0.5892958692664299 -0.8186378126044959 0.623667606284011 -0.21599958963184784 0.2701434691722225 -0.5213060708288281 -0.8269787035689533 0.0770132440661525 0.22692430673912115 0.7174770906758218 0.24673729532582964 -0.6201586345250939 0.35969814041870846 -0.001169696261306956 0.4890204754210736 0.24102470759592304 -0.08220328779272311 -0.36824843183751577 0.49939053066591066 -0.8370537352731946 0.33944645183442795 1.0459501732888974 0.034512771490127325 0.5904429364285626 -0.12426774269887325 0.6973474138155469 -0.7411628030492947 0.454607466341947 0.13532807261538907 0.5084477094767775 -0.3647888931121729 0.9489044442107648 0.5646260304106381 0.12889922442285742 
0.22979663303208472 -0.1849002312582139 0.7768476714065474 0.250467061541519 0.753098730449014 -0.09592789526931852 0.9258100497660104 -0.7482497773555765 0.39674731307229927 0.3457632468350982 -0.25084546320342477 0.3832289742591479 -0.0558795073696785 0.10658272420234975 0.6049634627029794 -0.956033110257572 0.5795695650522933 0.3293773139289574 -0.7816403352764489 -1.0040135191809572 -0.3160449356739799 -0.3192003624760735 0.35960240686291844 -0.11912077582100826 0.5209266350811934 0.19422834161558783 -0.8334267454839762 0.7948177233400784 0.20232025554495564 -0.40879805753163373 -0.8656392897690448 0.7600625852219257 -0.14957942776525193 -0.0819494524381083 0.633466785427707 0.6903747574050736 -0.5496264047435541 0.06915550584928848 0.38905481118192115 0.6356578781893415 -0.4440093164306716 -0.9907788609723329 0.8285331160954077 0.8153319968295045 0.3875007140762813 -0.3762925044227311 0.15263168931896207 0.06758800316398221 0.24545403623446893 0.25975303441510744 0.06054304397331652 -0.21821238215777192 -0.04762924035867675 0.41170991433026116 0.014421883675172482 0.6241672397615472 -0.11558943835718195 
0.38688855840960384 -0.5356112551551735 -0.8641136270546375 0.7863434186823398 0.6329120739780549 -0.8487297083926425 0.21883485005704081 -0.45621283119207884 -0.5718983022074389 0.6364952541601182 0.6468264753325902 -0.41249139907846705 0.3289413226229318 0.14076938511745596 -0.057726847025655954 -0.15376938231934126 0.42874945193097613 -0.43411720823738276 0.22299100142091174 -0.372168685480693 0.699159514867305 0.6731677317247925 -0.9691803859339684 0.1816958298433737 -0.7563117175020077 0.5880351215157382 0.9947430317466148 -0.279647055769832 -0.4987073324581374 -0.9017977223562121 0.1797082877678448 -0.7242279971945345 -0.48532511391116206 -0.8690513105147529 -0.21136440910099824 0.2618142436340066 0.5855748781420197 -0.6484287700260561 0.3124274649696239 -0.28256032100925743 0.23258174348691957 -0.9030560752265794 0.9709404095930839 -0.08975054237905021 0.6538834398833656 0.3068987456718021 0.8124089903429517 -0.7696279245712936 -0.1151471942854393 0.10313906129043411 -0.5673644633194248 0.8795976368339202 0.9542890874321505 1.0426769547646877 0.30067277050962243 0.6253666315157949 0.5596059104047794 
0.4018603179655339 0.6664795845529582 0.5030416282021793 -0.13628176030491157 0.3457595393276908 -0.5715509413051482 0.6706030949745438 0.6659893900306836 0.39073885134684333 -0.39373366711491214 0.08256026140573382 0.8266021356777306 0.71104210310713 0.47336320939713034 0.2006951344009279 0.8867411330154209 0.9540503393231988 -0.5197769159351975 -0.5886660750556412 0.3280233410987539 0.09378603830413342 -0.45957484606828275 -0.618651707725093 1.0179183774591039 -0.30310023420171245 0.6268066101407446 -0.16872568928224468 -0.9043831199297458 -0.5243614205393782 -1.0295691261961541 -0.507273142403814 0.5166920859029023 -0.7574952403000424 0.026259865117557082 0.16610773277310859 -1.0055913947552741 0.38658477205978087 0.20650563295754484 0.5455849184531311 0.5225039666592589 0.7628900111141943 -1.0772411152439167 0.12742141107162522 0.152646206800141 -0.8774419233847071 0.29488695949515853 0.7692742269208465 -0.055609098165893996 -0.0009645465297126074 -0.5143756244505658 0.3742334517734591 0.1288512446663684 0.30829321324636005 0.3174887312361276 0.1051369997501191 -0.5091390369208937 0.3094416326393279 
-0.14955091307033658 -0.7282662136782281 -0.7247779060619677 0.4801345746687575 0.8620924623714813 -0.13074309574468657 -0.7968924842500252 -0.3078359057213908 0.23390145780872354 -0.39797109386116153 -0.4275081002843524 -0.3906240266018029 0.6463561255894226 0.4870925625894079 1.0958462211315105 -0.6128261610126275 0.001902460978000688 -0.21653100926867108 -0.7674330192381615 0.6242640690699935 -0.6054802917258072 -0.22868394296828043 0.4178933070072406 0.5577533907557815 0.9490878395815778 -0.42967404249820373 -0.5730372553263736 -0.7777292632176935 -0.6156421088676919 -0.5257248068630785 0.6601684780888565 0.3328999664290695 -0.6699271593396545 0.9214510556794708 0.9028144341046308 -0.9592589403228722 -0.817017858111013 -0.5656726923482014 0.6423561120997693 -0.8984468697829708 0.6964919816954636 -0.20003527294963355 0.02585614942528201 -0.4975284902003051 -0.9286553248681653 0.6110545082925469 0.09226597116962157 0.9457165166551313 -0.12155261507232336 -0.03584953623618165 -0.3826645451224579 -0.6997940505979876 0.8451101319639053 0.4627718637326957 0.04147023854078199 -0.3191936444341444 0.9464131288197866 
0.9419155374476128 0.5453340134578022 -0.48943515530122017 0.8733821080126437 0.8940225144969521 0.09096083010233726 -0.18377001709941118 -0.6615187845858294 0.30052911033104823 0.6201106761520369 0.5658143664321186 -0.24669740989303737 -0.5174009881174157 0.7275325031252988 -0.5267802249856015 0.3069271360865175 0.18922941597440782 -0.6213811184017721 -0.7800277259916584 -0.2689058116010952 -0.04989880587452343 -0.6827846605028232 -0.1804706963196956 0.3870160856761247 0.4544209559511575 1.072548482246042 0.696974889721933 0.07082720696425436 -0.6316811722553675 -0.4938487609568697 -0.5179412079544181 -0.02577758825241321 -0.809913284532725 -0.16251067002123323 0.25933089571039486 -0.24691345478649643 -0.9595633672179716 0.9074886437080316 -0.6164169744250639 -0.6227576814589622 0.5040664403782856 0.5020766669234639 0.03466605856147884 0.0034577862602046716 0.4915095541652382 0.02773872756389751 -0.9860424360729944 -0.34549390073992575 1.0543554224793223 -0.8104396929204405 -0.07307036625521136 -0.17026105482776316 0.6737019061465768 0.24946168521378098 0.22176608718022786 -0.09445106321837914 -0.693555970096677 
0.91597563422375 0.5265088819843324 1.5701864389310758 -0.4543708394256826 0.7342301792355406 -1.897533903901905 -0.3876648364477585 1.8179876528393013 0.08787066031758577 
-1.478749180561178 -0.1269199806816221 -0.20434984669002412 1.0182559885186209 0.3882715466801477 -0.42092446775797715 -1.9701143611703091 0.901508644789735 0.6464604214654233 
-4.2047192459486675 -0.6971771061654338 3.0094951341327287 
0.4588551919982151 -3.2126296819199895 0.4799544172768648 
-2.1743020308966883 -0.29879212547561446 0.704658261092839 
-1.907355456254134 3.4362047295940155 -1.7588577676324215 
2.352052418820772 -4.061203361767656 0.7922041613405685 
-2.4940878505183752 2.593283765396623 -0.04830504973858033 
4.02881710727641 0.9227372940351128 -1.626541416052939 
1.2057923557777999 4.217919943812301 -2.5479025943209406 
1.7212967918937023 0.628969043920415 0.613498783979913 -0.12368426289858322 1.0416445411645645 0.2956384692186086 -1.5437386139736005 -0.5598465225837848 -0.42120445923281385 
0.6973376193917158 0.37633685490524216 1.2776893118480623 1.4755800948499522 -1.8746952543637703 0.9892386194930325 -1.7047785162750668 -1.1816463977344258 -1.541556966850219 
-0.7550811951634214 1.1332580947039161 -0.9170979741310096 -0.472630481545377 0.33892898976489716 -0.43839085161890606 0.47088696402048763 -0.4144948930084865 -1.0569389156550506 
-0.16733867295024385 -0.5413636106933076 0.686548075800364 -1.0060059591826516 2.1620928074438726 -0.4184944055566615 -0.3366611243185819 -1.5067035964490971 0.6234526881016588 
0.40127307628982767 1.4169141807271366 0.6892244700719868 -3.0115857440272222 2.1898212853932066 -0.4816645091037873 1.1705348192804808 -1.7807896947595283 2.160724631622385 
-1.844895214805596 -1.2602112536354395 0.057854757666499765 -1.3619283630713948 0.05004874201293652 0.6569096396765924 1.2450959116602969 -0.6389368070734134 1.348477214690385 
-1.0073178474577533 1.9717808949072602 -0.401398962879751 -0.854947954607771 1.49835257283821 -1.5975730942135944 -2.1566728135504483 -3.23978530871164 0.09019299301888796 
-0.834996084866168 -0.9488036141097214 -0.7434153519814423 -0.6598460054756654 -0.6876727146387718 0.44713530937721 -0.4813267922250322 -0.8625963160897435 -0.5573500264169161 
0.26986498537866377 -0.8894058316047593 -0.03524162456827666 0.185177441581265 -0.829596345390228 -0.5147466348204371 0.17162784681388554 -1.0274381719823766 -0.29080743865739406 
0.6056403420470516 -0.35280707065759354 0.5218744640889372 1.2111599480915485 -3.303212678514332 2.2218251507998934 -0.255249526402679 0.8305397363763363 -1.306878949853015 
0.6636983760605385 -0.36472598479387813 -0.04369995712152895 0.16020556983380935 1.2135385971363524 -0.9021251168386503 -2.5151222417726857 -0.19637920115224358 -0.10562175313388511 
-0.9274714252472643 -0.1897926804132074 -0.028858533975975653 -0.5880857680745782 -0.7607718291957182 0.05340417266763655 0.8025944875865354 1.0878278952886735 -1.0754728530136648 
0.2876107836415578 1.7688455030110612 -0.3816572904632514 -1.1806346576900661 1.6064791957789435 -2.17976108141225 -1.4456362430350032 -2.880056605176217 -0.6111700463383218 
0.5520663885136529 -0.8898370024295902 -0.4550735453014317 -1.008974641716433 -0.058005591217303525 -0.1091542575157208 -0.3894400890606594 -0.08882989746522837 -0.727470958363387 
-2.2648272757164123 1.2217306936732293 -0.05387475429049387 -0.07415282333155264 1.8476476527604289 -1.844296670310993 0.7400292208924923 1.1202944273858395 -0.39179420626592265 
-0.3972794898085587 0.8878433495771867 -0.7053479127287228 -0.4784272554296378 -0.9892366314300515 0.7414320535074262 -1.3152876195904875 0.6612779000890512 0.23604601398702238 
0.7874738188136684 0.6292204169072595 1.8589051107540886 1.169901143114692 -0.22081850248475357 0.8662070799515714 -3.690506399533728 -0.34694073008091686 -1.4292806518756822 
2.6028567016177653 0.6902231035609702 0.23659543961745835 0.6760214497708358 0.7217296696562443 -0.2358092420013466 -2.6309548741542987 -0.9202683833587251 -0.49321043324770636 
-0.247337719777591 0.5909476708505782 1.0606160019927566 -0.7664732348120837 -0.16502532039274187 0.16239630036823607 0.5336699804188142 -1.470297967263637 0.3098282205429692 
-1.075487645028914 0.6281125047089402 -0.9857300245600981 -0.7581109542769728 -0.08553934979054828 0.16149217628565055 0.41788670528928834 0.4454797910497745 -1.1740978429662707 
-0.23085967721628756 0.8199641764852035 -0.4422467615397192 -1.6101989428413344 -0.6272500729878993 -1.0740530669863777 1.1703936911864146 0.36916548968327895 0.7014724628926179 
0.18957533856187037 0.12642936315249861 0.9580883237863815 -0.06310454300224164 0.9864656197955955 -0.6572578446775964 -1.0238868393639016 1.0009403654736202 -0.8828938003777453 
0.8220946618961229 -0.3869335088935086 0.46895790454662023 -0.942608791496728 -1.336831363081989 -0.26556841691086724 -1.1155000085388553 0.11103501680625794 0.21266308897995836 
1.122262288882101 -0.9781317184770473 0.1433146749375842 -1.2225992871531706 -0.6393480234510704 -0.03849475556946695 -0.5400063429197818 -1.8342407682219808 0.2498109000880335 
-1.4224368907422957 0.9493558295737753 -1.1577545689858602 -1.0185942617668517 1.0830710716961771 -1.5372146292927475 -0.4815856397046816 -1.0288929086308352 -0.5621151917473757 
1.7205068520682079 1.3723550067502333 0.6987372479001865 -1.2644531108982624 1.6612287771328615 -1.7106199424722066 -3.188731823134816 -2.106363431982355 -1.0723590774342129 
3.0934107077340456 0.41488463719392127 0.1935795927266251 -0.10631556612107232 0.19439624913473866 0.07080339786129676 -0.2020514162334997 -2.4190448534142117 0.7402840151521181 
-4.223973213711883 -0.9591065447982293 0.03206970497902725 -0.9223271311146899 0.38610662463354034 -1.7204938507376026 1.1856118251964674 2.4548985638902323 -1.3867390169636773 
1.3338201798943372 1.2251393866502764 -0.2529732976532758 -0.40867210652374236 1.0066975993909177 0.31075236113314797 -2.379439794956861 -2.221101913986764 0.19980438412520282 
-0.22421108968221806 -0.20751116877830814 -0.8941398445776986 -0.9904401287804208 -0.38111066961390755 -0.7540429512843456 -0.2715317772939672 0.5716606085370969 0.6954961478674376 
0.02940713257340687 -0.7045408516295774 0.7380212734552815 -0.3146143773367278 -0.8069962432700198 0.3003419304596601 -0.5069285605572371 -1.2784466971282424 -0.005120010784170717 
-2.062983115460924 -0.7534017287440103 0.04633306170065431 -0.9290341568707184 2.106119498164523 -2.057478036032536 0.7633136603900471 0.7464372547973295 -1.3866394695459752 
-0.1505142834025295 -0.7700211178162747 1.1578492254645514 0.23701016442594097 -0.1039320968685978 -0.756371638283157 -1.2093583473763587 1.2967055507244836 -0.635006326481001 
-1.156105239637078 0.05176607910269396 -0.4364577820985818 1.890520799467951 0.1272929506747687 1.177078612428689 -2.1145561920237737 0.23984575621610912 -0.29255325046012376 
0.2553956310764046 -1.166289560846363 0.2592395506812215 -1.6125624996879657 2.0210034016665546 -1.736855642704394 0.47456295920049596 -0.493900319433795 0.049397029401775684 
-3.184146060602593 0.11349606631981217 -1.225644958378048 -1.669811096220055 2.617845236287218 -0.8717125723758082 1.980468098470565 0.6440234358992455 1.4320607558909793 
-1.350293319782615 1.5701687091063168 0.5385157923792756 0.2951354827628202 0.6059253217733063 0.5593134116633134 -0.9148371226345731 -1.7414192639947843 -0.4121217759226225 
0.08925881908603128 0.633925270239675 0.13667409112692527 0.6550197061509276 -0.7504081698112844 -0.9866674807057184 -0.5360556611354684 -0.6690289792637457 -0.821498705813174 
-0.8816467009382581 0.8909904748662979 -0.5371005514610165 0.07445507163489787 0.8084712523320223 -0.7578463636417047 -0.0652311801622922 0.34576750990201105 -0.8787000962575795 
3.1601200083408885 -0.4767869374622922 1.2985138984423106 0.8071511004287757 -1.1890329386702896 1.4867437949583873 -1.2266436458626209 -1.5911740083388286 -1.1498901139182807 
2.0461028541221387 -0.14613417132665982 -0.765476781136242 0.2918615402053777 0.11437253609184912 1.1139797526383963 0.01605544875316782 -0.5054265336694033 -0.8376471471908175 
-2.521276453880862 -0.7123628891517926 -0.9110511610387406 2.476558136440342 -3.186939630679357 0.7973946217416454 0.9610891014162317 1.2153853270981656 -1.2394939239579923 
-1.8004401357911257 1.835033497015547 0.8316385379431188 -1.2437573074821755 2.7988913565500364 -2.387071641334935 -0.30916243406010036 -1.8252162102946596 -0.4272720780066461 
0.1291534538996082 0.7909024358739744 -0.34611932555500147 0.6498703882615031 -0.6000394170423546 -0.9252869978180687 -0.23463685932089387 -1.3910336273134984 0.11893053983984524 
2.187719498314169 1.1342733054787772 1.3152392943897468 -0.5538954788001457 0.7606773962181137 -0.4544290423969598 -2.6392090817061287 -3.4280769415650028 -0.21620831787037487 
0.7355033019084724 -0.5131679640268821 -0.1316706748577 -0.47098140777136216 0.8521742828792715 0.19309482211817855 0.01163438556058757 0.6112694310178342 -0.6528579944054935 
-0.8552993338749354 0.41133179453351426 0.8938736241389763 -1.3663793077381252 0.9248207367795402 -0.05761632709839128 -0.6059619597364306 -0.5774940675672573 -0.29634994529080183 
-0.35229619138291257 -1.5940069628451488 -0.7547764968123583 1.1344830427837556 -2.7900713441728917 0.6835465709964498 1.1817562596634803 2.9887326335944318 -1.343976768745618 
0.05581964203448829 -0.15411503237673826 -0.5694714845264586 0.5273363184250335 0.09828676804257205 0.39858651740566603 -0.06170181155034787 1.2760100998550745 -1.2775653038079835 
0.017406136009104546 1.730967489862861 -0.841134842491731 -0.44679943905256897 2.1565808264125437 -1.86806745319293 -0.6075861865160924 -3.0297762855611676 -0.8730330168679215 
-2.2869000779985282 -0.7450101689740436 -0.9666544141259051 -0.19389160564233315 -0.7453550571201673 0.3544952993320837 1.5759748390575192 2.3621733441135673 -0.9621115012091428 
0.5069190705606388 -0.7636125140387917 0.9896906673233139 -0.23298757468043182 0.03285663084789431 -0.5966095736830771 0.6461697230885922 -0.6380533412527088 -0.35734408503198156 
0.5053053752139215 -0.46056267957936076 0.9776088346628523 0.9069063496786792 -1.2120128413163977 0.40783825279042757 -1.1379055773705706 -1.1339208211897416 -0.645956874230143 
-0.7547382868704803 0.495889762819085 0.895475550944781 -0.15731385234350462 0.17463544704777548 -0.7274778617162411 0.3811625663624805 -0.7777137668700914 -0.7210364601995458 
-1.8923613767861711 -0.012669307358426321 -1.0845336260022709 -1.1236643416655965 2.3321510172758484 -1.985501332671816 0.21269059095574366 -0.7734448335618533 0.30991846304737247 
-1.4924959875901709 0.2016553642632174 -0.7957114557698531 0.4030553212183353 2.554370680965559 -1.6442511962868496 0.09029843895806011 -0.4742511366172337 -0.6024948484627357 
0.1502073420119711 0.6294930503630378 0.7837258264380698 -0.08489983732555689 -0.5673291207284723 -0.811050383278844 0.08609293569150535 -0.7272742625256039 -0.9135142647512029 -1.0546045948812157 0.09452822460260539 0.15898771973004214 -0.3108687816182564 0.4007151926507634 -0.252827156196778 0.8222550492634818 -0.8806227161600145 -0.2000292696025631 -0.08407679417319232 -0.3938887390374508 0.41451209925337473 0.8130469128203303 0.5534356487197731 0.31984264355551284 -0.08319582911242555 -0.050684357948008255 0.3910140681642605 -0.1853292713011828 -1.0571356290991445 -0.08276966021060157 0.7906003134140936 -0.7601714350679674 0.6986003544983662 -1.1807672331814487 0.17703172288127908 -1.0797887793108631 0.2178096251463836 -0.4005615637179102 0.5145570924207122 -1.2660703605571488 -0.999436100844586 -0.6440426577425057 -0.3715606417499778 -0.8051370957356679 -0.016677045853456186 -0.18363718967647624 0.18385329695969824 0.41748969275950154 -0.21454645403170358 0.6494986221725837 -0.24215587813345535 0.6080889669848117 0.5982468930018082 0.8270392958288669 -1.0720278254054514 -0.9773497618909572 -0.26340871099099317 
-0.7609830631920876 -0.3155281849543849 -0.692110517091713 -0.7138721675446624 -0.7341028483518106 0.2329137371660946 -0.33031954304505085 -0.32751483092919276 -0.16026216358124207 -0.9761173272291357 -0.4213226089611704 0.30287592915898637 0.11450901703485723 0.5152811180518012 -0.3607455200349944 0.39442342758729265 0.2751337640631298 0.0029081548688537576 0.10498825169729958 -0.7508745444616863 -1.0312880123971842 -0.48092361145132073 0.6995288425436434 0.6863288390072104 0.6590591130408069 -0.10735199450874991 -0.22110669150642948 -0.550922260484241 -0.44745571143656404 -0.11127927275862659 -0.6653768280470705 0.4445044426089476 0.2593981313639221 -0.957470542658898 0.5413626022797517 -0.42024231503688025 -0.35584404538776004 -0.01107300853648911 0.36781608196727233 -0.08811147672318621 -0.2787318178816597 -0.880008788634037 -0.1422213147647474 -0.8235990041970177 -0.5964237836615771 0.29646920696187284 0.43230235049936583 0.7240731558694123 0.24647229195596035 -0.4726414802195763 -0.8244463240449215 -0.654525576366417 -0.8301345749635171 -0.5491852844688427 0.7301904208494577 0.17601618766232097 -0.5514989274354203 
-0.3639703249432724 -0.9705913066651115 -1.0178391118508545 -0.0744823548709023 -0.7614419221916425 0.135182424962803 -0.48746401626501984 0.9579756318702395 0.4828274743837614 -0.4702604263983781 0.21060378381956602 -0.3688659686528562 0.29482471645741026 0.8777392358204715 0.6765387166055502 -0.418536818488531 0.2948473134005711 0.7610841574487908 0.7015717478969159 -0.81588414569073 -0.8712951653745029 -0.8334158744432923 -0.929968713104186 0.7829034770700446 0.5850400928159966 -0.1995962518388853 -1.1598298071053783 -0.8505106354925911 -0.5574249166321882 0.7010784946692061 0.23860902201757547 0.5944752441339268 0.7161195555103915 0.2002005941719425 -0.8713240007757292 -0.4044689127457702 0.21302623560533673 -0.9556439796291264 0.6352666916399595 -0.022604009238157363 -0.9755373497635934 -0.2808348870979085 -1.0963688874351771 0.7649179230858215 0.6722718164119783 -0.546396445219046 0.8059072214927256 0.0227593095471632 -0.7785191042015488 0.017439211242507194 0.8135711765327427 0.3202526702602302 -0.662751274845738 0.02304405628872835 0.5189164894632559 0.39934781168307115 -1.0627704097749808 
-0.0845677578682183 1.1615796372339857 -0.33596481401886574 -0.3527419265807995 -1.480976868824624 -0.5328830479380605 0.3414763722149584 -0.306023759833519 -0.881030934685423 -0.8766211517921184 0.19829981200463404 -0.8615236845931212 0.44943927516954585 -0.6963173049296408 -1.4151965514802103 0.07417643381876371 0.6325292535055047 1.1028708052769085 -1.0980435405847093 -0.1015993806300672 -1.0601089382068227 0.8701912181621005 0.772456803738246 -0.7338984162298603 0.43957243839411336 0.45260012930024207 0.28515973430521774 0.22772881534616773 0.04746188858965671 -0.8345595057227109 -0.7287197815555571 -0.7039978403706932 -0.021423166026232544 -0.20101535822417568 0.2158940845537457 -0.5357998378864817 -0.11931669320108433 0.07364305906688771 0.1185075554974943 0.9091013379517422 0.1232690927927419 -0.6328443617945748 -0.6401218972814665 -0.4318418083447063 -0.8295754318895117 0.44386850119891086 -0.605939253057829 0.6724051651720705 0.34472927638442397 -1.190468863932304 -1.2380771955008623 -1.0625156445695172 -0.5757472039347069 0.690336044798867 0.34935076205231735 -0.60772285366203 -0.935037391207368 
-1.0769452256873457 1.5346385368148503 0.06014126919312656 0.3213458648529387 -1.548117823782188 -1.6670391986868494 0.607530323891369 -0.8847182645194442 0.7428756399121969 0.2794245981164728 0.07841031520953447 -0.43814151139182883 0.03451890293438995 -0.9251783111817149 -1.205615994958158 -0.6289471409640668 0.8387295297638717 -0.08906024288027964 -1.1926841100133863 -0.4673311418635859 -1.3871326177657004 0.31379275525680805 -0.6789246667597224 -1.2153573158711501 0.5808122506477207 0.23493808634690214 0.6194580388483868 -1.17507711935508 -0.10020845860546015 0.2967130627538096 0.04042030108895371 -0.8126336486816291 0.40313838180420175 0.7755969301691608 -1.269465201604376 -0.8039513484491987 -0.35889542512613387 0.4077481304368041 -0.8742812242490983 0.6556676047967781 0.7154068446240393 0.9273665979746776 -1.0271155649575348 -0.4880218043197986 -0.2118686676050441 0.7055273946820048 0.1708158874825944 0.7301413167778664 0.20361073718893793 -1.2368395920528943 0.21932243751347597 0.07719866313404147 -0.8000720491186478 -0.2646117804048897 -0.06989747159318604 -0.9044108565322978 -1.0078867643200553 
-0.17361485151042474 1.3421262327502825 0.5754269075067957 -0.9374972174689511 -1.6670897195739405 -1.7846294277906356 0.1912289836525539 0.9390419959806653 -0.16766787413320633 0.5982568850573413 -0.49272844639339475 0.5264806501060615 0.0717337842906101 0.21351303771457572 -1.1577961710346363 0.5716318557867064 0.33536993013614924 -0.029623688572171406 -1.3725002115268274 0.8342242804104937 -0.8429488976983024 0.7343621667816935 -0.5785905136238094 -0.8712131075688356 -0.3860115461996873 0.5674979964444637 0.24341912174388086 -0.7630915451925173 0.37035242428676224 0.17586637844769934 -0.1317826579164342 -0.773494030929153 -0.11613696045699898 0.12347262630262508 -0.8449426646113976 -1.8004782463768927 -0.6466864163105666 -1.1464368104803018 0.3521306670304343 0.985721203133337 -0.4195069838885227 1.240432695924069 0.21065122785043136 0.1823260397764798 -0.8284880635270977 0.6178663080641529 0.19634160337503617 0.6068236475639859 -0.6481238536165973 0.0006961559341002863 0.22877294406490242 0.03334886761997765 -0.5258311826798417 0.5698958086799792 -1.141318754063506 -0.9980312114136654 -0.28467548881906296 
0.32515915854659366 1.2874224328832629 0.5580767329567629 -0.4991096783367146 -2.252641527880866 -1.470891829388468 -0.705748340229118 -0.986462780235417 1.0536337852162063 0.44259006022670055 0.5707018162413623 -0.25697242237191353 -0.1897554109424088 -0.1415597373383615 0.2930830838538905 0.4461069184752966 -0.12118910763716198 -0.7060695640860819 -0.5584596442838252 -0.6731477507086459 -1.1892925808851507 -0.536437137174023 -0.4247776570933177 -1.1981659850600193 -1.1921367376779233 0.3624707653036071 -0.16334788433854877 -0.11029742637884828 -0.38605327682892754 -0.19235712641858832 -0.6059030096577065 -0.910410792442427 0.9164211350659014 -0.8603730562485646 -0.637737231845453 -1.5145143589019179 0.19936676257934527 0.4485826559433126 0.5599891667181821 1.326449654812392 0.7270888789338746 0.41905244626414395 -0.5167361668893387 0.024767376682057474 -0.07919328947172707 -0.16506057358135182 -0.4814534593884159 -0.04794300605639838 0.6463591152128655 -0.6932658754043894 0.6179882632888073 -0.6471410684846789 0.24638110855638026 -0.3148230348863792 -0.1781984522866077 0.6533875115903377 -0.009787590888796136 
0.6703284317350484 0.45944612670703133 0.2200908523856157 -0.9991705967490561 0.5446149524351355 0.27007618980976056 0.6249586844910207 0.887972752289198 -0.5569540272831661 0.6615662414925754 0.2153217043132969 -1.0816753155504766 -0.2660214475601325 0.016765610829018392 0.12817192919108122 0.5704211840686026 -0.25807293421463795 0.45554138486771906 0.18037025761077088 0.13382921065360998 -0.6145495998758611 0.6122630612490629 -0.6274520789285699 -1.1673383450393104 -1.022566075041614 -1.3055489293120355 0.36030619116544643 -0.8301478109601433 -0.4689729590640948 -0.9063354269083516 0.28010030827973803 -1.1466491572127004 0.7615974389308772 -0.5678602595440971 -1.038060237971424 -0.9281062331902533 0.060431372766642094 -0.8948660789950382 0.30671719339031084 0.02623183438218673 -0.14265145256686523 -2.643258032455282 -0.21348841353501863 -0.1989499251613775 -3.0968518653224666 0.6172991129528042 -1.1169672564469466 0.6744625679859415 0.3071400224276578 -1.077379304861603 -1.6021612343497116 0.45977924022953365 0.6481675877974464 -0.8307686358651257 -0.8840264781459364 -1.0509650557447874 -0.3711431726853184 
-0.7175411679807789 0.06807910817508678 0.9525866123459402 -0.07483192711594815 -1.028467605786302 -0.4618731212371916 -0.5621558092178238 0.5177199072633669 -0.09450946646760366 -0.41776689793688926 0.6822382039554233 0.22595961936999365 -0.9817779422958783 -0.20707800194604833 0.30527731007649217 0.5984439302438535 -0.4747437116898962 -0.4483252654049095 0.42204469620506047 -0.4339125725229774 -1.0006114198542095 0.1847650635154064 -0.33115241796541933 0.4875881630751922 -0.8314075798505931 -0.31791325326195063 0.3844298811738902 0.5244948685225006 0.6203220976834699 0.28787624123644884 -0.25452168243048695 0.23675071238450549 -0.7610390358195388 -0.7675431953181924 -0.8852115396844573 0.4890813314133208 -0.2874053671179795 0.5568939466541578 -1.0203395391422776 0.028222279575287453 -0.25245927059259826 -0.9224147871694748 -0.4530555298408465 0.22315712367400314 -0.9784035667075777 -0.9261376061057929 -0.4277758960832757 0.43038930080362353 0.08658842076151689 -0.47301379851530895 -1.087716392913497 -0.8561734978888056 0.515949972832058 0.35981985885493106 0.8702979594181134 0.9109773490655233 -0.4043098773163713 
-0.13239739480616988 -0.4927323348627453 -0.7114855938571278 -0.7614726395754554 -0.6082034082257705 -0.5221842314123964 -0.22926838951248915 -0.8260415767472111 -0.11760853496812546 -0.24066311847346758 0.7879421935234965 -0.0404308619375089 0.02746240737133824 0.266639491734976 0.07494295172795706 -0.4641953627243251 -0.48985486119187 0.7583579217691433 0.6183593971430573 -0.6646413316191981 -0.21424970903208737 -0.6289834510105974 0.8395722610867792 -0.8548172085858671 0.15406148816556625 0.5249042718354354 -1.0152290442892862 0.5789510422285925 -0.23591583377883077 -0.5741160242401568 -0.07777862208280145 0.6426229296495465 -0.6884049722760879 -0.09235455496167105 0.18391685935704705 -0.527374357892168 0.5150292328730223 0.09783490282766678 -0.5182621642229133 0.6146668380227076 -1.009521770116821 0.38871481924998713 0.1856700176033956 -0.6044424189442438 -0.8340510511886622 -0.571433220631997 0.38163705614898785 -0.4337315222132367 -0.45091432947639476 0.010027858849530105 -0.5989686878038359 -0.41311519751773224 0.6267232556356754 0.6391489226469343 -0.6100432182520065 -0.03127595655148847 0.14515416868919695 
-0.49493226109997124 -0.19339524515740134 -0.0004862586689664593 0.3809171742848337 0.18715048439907409 -1.1008815591019516 0.3138587031021204 0.6339212568235016 -0.0169379120513525 -1.160051597004248 -0.47256406189246186 0.08372987741166651 -0.41582970660445734 0.7226855448468599 -1.1394498249964635 -0.25545831187955415 0.04881810726109144 -0.05140398459596916 -0.631928121769203 -0.43243775032157195 -0.9683195852315407 -0.03982694394659042 -0.7102660801147553 0.7170988906839244 0.4350341576181954 0.8560553501611083 -0.07524759787879019 0.2757078392353514 0.5917080619322473 0.8609714638219593 0.5096578587279874 0.8513993500650274 -0.07289135082689045 -1.090645898411279 0.5025628150198929 -0.59037940548414 0.02829596858989528 0.22361637771629836 -0.8297863979942915 -1.162431186647497 -0.4965807885420144 -0.6022077404351845 -0.5797116268240206 0.6130269476627733 -1.2983046077073435 0.23601434587865686 0.657531046390863 0.6788499792150767 -0.009901212692253398 -0.3355121012696509 -0.42886566595886694 0.10702440060903987 0.15269079710044786 0.6745243399991488 -0.7449361816682065 -0.04968682157590309 -0.4409493358634427 
0.4607371358853016 0.043370826472178436 0.4527648327711989 -1.7277341089905733 -2.509510462922862 -1.5695742656889784 0.7087082014533929 -0.48008029617916814 0.07120370501711096 0.6855255024814626 0.34881422840668413 -0.34973463484765827 0.1623772610420031 -0.5706714253328391 -0.2302679781769502 -0.07801479384127316 0.3080744109749154 -0.13654833551734266 0.1819700404203285 -0.6592612486002619 -0.9179825731229619 0.055474724099318355 -0.11723524534273445 -0.4814760161899008 -0.8826273260884938 -0.08077241305947085 0.21153287269863918 0.07546360319555197 -1.01409062491617 -1.0339829635974562 0.1012234498217557 -0.01227078015606332 0.8664689073082765 0.9116790560714526 -1.5282873575171638 -0.9385421896207399 -0.9373861239410423 0.6715436160187284 0.10252282812814292 1.1952356675203486 -0.17015539441632144 0.5048213854202768 -0.6445225056093692 -0.39909473190824757 -0.1303532931521097 -0.9453207764784668 -0.3367972886777561 0.43499285298069484 1.2722405917234527 -0.438374153308515 -0.7457885281818442 -0.5646751135408784 0.06588085678320686 0.48017473977746894 -0.7779984015613618 -0.07870301962299367 0.31799411375970194 
1.0434272782603735 0.8541586631151841 -0.0985858338277293 0.4313780644093325 -0.15262772439166988 -0.04723627597756021 2.2039051117539192 0.054304750799369035 -0.4958613037301261 -1.5075386902048002 -1.2939563281686066 -0.21738027891643202 0.7880352664864231 -0.9110998579270998 -0.49247556952763805 0.30349949143221105 1.6749894653626654 -1.3947743480708623 -0.548222356394617 0.7473263388124816 0.5967538154100444 0.2950498422496808 -0.03325168047536684 -0.0303277212936599 0.06481616111373405 -1.9452561285565562 0.4560547551495388 -2.425144219609139 -0.40824917223916374 -0.2515926446618967 -0.5204132494648906 -0.4106536735581859 1.141038267577988 1.652941615025387 1.2664664453200938 0.7449121756326986 1.1486484570352335 -0.3095029916565926 0.20465484272967877 -1.8284956495505993 0.695962243985073 -0.5250272094284022 -2.2949007380560307 -0.08365561377080931 -2.592229945190641 0.26489489335913635 0.13987400949402437 -0.10799277376452447 0.23180741734889407 0.8140745962684531 -1.7537566903648194 -0.9624451749524391 0.7749562093896296 -0.12670236415618658 -0.8497161271145316 -0.6026522637894588 0.09700675313720372 
-0.028680137970605157 -0.39589266187663863 -0.006241011084978986 -0.13049454979021732 -0.028235297482566604 0.12976764698417073 0.29887525969060397 0.6335753064510056 0.3148128059783075 -0.8858476726736787 -0.4525406815570704 -0.4645710499523047 0.6219556328459812 0.03785381897643784 -0.22742977200218623 -0.4054807220187143 -0.744838221865409 -0.5230794629903918 0.08386852958938452 -0.9390410626675482 -0.4557128222379279 0.40588130011426243 -0.6794030444683546 0.615095039615483 1.147496533489998 -1.4244545841922251 -0.23264581831032266 0.376845877730816 -0.9687936278750967 -0.8231866900175584 -0.832514916872985 1.2280539066622504 -0.8249239576437658 -0.5418537095372012 -0.22929681769903973 -1.157432365776932 -0.9407094331436519 0.3407284035652835 0.7720187595378099 -0.8010928047098982 -0.4853340264468397 -2.0930801271190345 1.6550069964695109 -0.20981557751844654 -0.6990392541623828 -0.394210999313669 1.1427971411573181 -1.469836554643128 0.10555396873835912 -0.48941424638874376 0.04778514835689309 -0.8560546727828832 -0.2434364965427436 0.5716279060327087 1.3931902635240616 0.853472722422694 -0.4657386928494578 
-0.3891025214719872 1.0366696784397968 0.672501627181442 0.19083154153090587 -1.0172970489789592 -1.4145856973011677 -1.035223530289456 0.7822523057196334 -0.1815126321393582 0.4138095805316534 -0.5820113894904405 -1.0956061148490681 -1.0292295467201362 0.8392191850924522 -0.8390659677121253 -0.42533813244532137 1.468881945347264 0.9588855534806588 -1.0541551893629377 0.8095918965796763 -1.0165181761208713 0.8726212798269506 0.3859390691153763 -0.8417974576881825 -0.4176792174072209 -0.11656555095379419 0.2906598857976172 -0.2502868306315548 -0.8311567655687224 0.42892750369310434 0.2312436745343293 0.32650061166184013 -0.21814808995682497 1.1363380529483282 -1.1917405854604566 -1.3659353610845206 0.19123599800318708 0.9623001611868124 -0.3944084169909674 -0.6769908023232579 -0.29045844559480616 0.48531874347912357 -1.049487582005991 -0.8951929609373769 -0.4060059444917363 -0.2076593519268715 0.5428856990302082 -0.6046781896141333 -0.06053884562306524 -0.4951370105874426 -0.013701519186433144 -1.1379337333601807 -0.3594318374017745 0.05508204593919014 0.5638533777288769 -0.4340648713452736 -0.34036955538777075 
