Layers weights
0.06381397476618422 -0.4235711136726124 0.8242259209702323 0.7974493328739866 -0.7955147284742599 0.358163392058141 0.860123720710966 0.725781544347029 0.09187885635090966 -0.023202720335142212 0.0180076150909821 -0.268239855283547 0.3072876330993748 -0.9823412769326302 0.24570182572274074 -0.25850467324903426 -0.6016220513323622 -0.47884562864003244 -0.6959407225182258 0.23941966472339596 -0.6377422088302178 -0.2680641548710198 -0.6612649482963185 -0.6223839249469332 0.5909488014756292 -0.2274678417136059 0.7747649678215598 0.9717706230182124 0.3849457572452006 0.037074516874011594 -0.15015838445079407 0.32122352132247434 -0.37020152764446096 -0.9622079228760574 -0.2060179109987732 0.7133035786004778 -0.01888334250572879 0.698450133726915 0.9843562504115931 -0.8695069703826604 -0.9457678474403938 -0.27621055841434905 -0.2654099928652334 0.5766259987396773 -0.3409418673080653 0.795750709981621 0.2823226779990798 -0.04734100466941581 -0.7597335931930269 0.48580392153558827 0.7009429127729503 0.5476710846447037 -0.0335161393784511 -0.033557628694392064 0.20063403530750434 0.7166087261478109 -0.33257752775742466 
0.13221606215144577 -0.1839007095214877 0.7988191007351725 -0.26054033666416604 -0.2732305565125306 -0.5788236461238166 -0.95216461784838 0.7176011949209274 0.6812369641351756 0.2686536298365761 -0.9493704048325348 0.9831850645528741 -0.8446076362417385 -0.4239169139140373 0.6165746241609255 0.12273983196189155 -0.6938172837533187 -0.09999068353292347 0.9625430192879544 -0.32214005153529807 -0.7243180558484349 0.6094904355540118 -1.0019740911426611 -0.6012396704415214 -0.08165763264377131 -0.5689813264061022 0.09566117453980824 0.5390293299151592 0.4830729927709127 -0.652842014741827 -0.7341058686796419 -0.10208138526431941 -0.6410254393332472 -0.18929288799601038 -0.16284649968076784 -0.909548653537616 0.9699067668088875 0.8470114553862553 0.6110725791326725 -0.2764734540299641 -0.9042076004493104 0.9643336930480731 -0.3055239483526267 -0.05121796799329709 0.18121120706109126 -0.44127361312872926 -0.5350806277485678 -0.6717436446408688 -0.8065361283029914 0.18851167535138547 -0.8022493697282382 -0.5328040112037459 0.3366554827720523 0.044232392477326396 0.9198513386024099 -0.1571317032087904 -0.1482508164617414 
-0.4614988686162179 0.37136529524884865 -0.2040007613965143 0.41678568438399094 0.6811991934837889 -0.9649571301756367 0.786089317028251 -0.9083443732134115 -0.4205544604431031 0.5764744321753467 -0.08236133508387723 -0.27656695989856395 -0.021507337077627288 -0.8262363604391875 -0.1843553697622229 0.8406725473440144 -0.6670037040039005 0.44733581823915547 0.2891359361883661 -0.5027967431331894 0.75737357363161 0.9169767658021261 -0.4338091309322825 -0.5082712985951623 -0.7725952250437149 0.7022174445982917 -0.16042589192542606 0.018176184518964373 -0.23287143286545162 -0.4568339344799178 0.057021855798049914 -0.6741505681326918 -0.8609728423882514 -0.95776285132684 -0.5478377390479897 0.28393880102356617 -0.45093377342502317 0.4839994277220145 -0.46135305133174886 0.16118913568318452 -0.6551019846986391 0.33044021811709257 0.019108355802823784 0.5148774797070329 -0.3179962575152794 -0.6716598253926405 0.06109222060676508 -0.6420963599635342 -0.7697117809682932 -0.6102843410904899 -0.7858784670235549 -0.2368519594134529 0.04155074894155719 0.15603836743177232 -0.40293409647564643 0.15348494666165302 0.24955409379177038 
-0.24281659952531984 0.7083137579126477 -0.7621833605122172 -0.12362001587420784 0.2742855825447649 -0.20425433829097217 0.1164441842645607 -0.47044409252636243 0.8313736281084853 -0.21599227801875728 -0.1516386380412547 -0.27765453521978783 0.892447252898216 0.9347138014336006 -0.9944331810350548 -0.15947002903000262 -0.8181247128160704 -0.3134219161731497 -0.9322097429985363 -0.7480457990530833 0.3226123706615991 -0.06808346166915112 0.27176950052519433 0.2808409232328411 -0.8818016619689155 -0.8603667740393822 0.5479281346376317 -0.8511605538592745 -0.7135524949281186 -0.6095392494166428 0.09893717213470007 0.05944936418482259 0.6811168244519875 -0.3669664518301384 0.49899198258372257 0.9021372544097818 -0.21098847788545086 0.05998375587654934 0.678176880697158 0.54925000102976 -0.25166178538195094 0.8597584881822192 -0.78678990980109 -0.7339511468827197 -0.17075778515330214 0.859811998636985 0.6031345735481047 0.8266846576550599 0.6024272273098662 -0.5470925734733986 -0.5782570896187345 -0.41910025299442527 -0.29278103382594917 -0.2435929244410486 -0.17999741980009265 0.7515224757737221 0.7175647199679058 
-0.46312032739325454 0.2547807086028935 0.632637440844864 -0.8616601459529434 -0.9364852360077635 0.6320815942529565 -0.1434543903564942 0.7754612490905356 -0.3411642471382679 -0.3063682640897908 0.3852165311053463 0.8693294671472321 -0.06274180693362577 -0.45511002666278194 -0.07277697266996092 0.4006830261279104 0.1494350852257642 0.8614136171672399 0.5708806298343467 -0.4242453754855149 0.4282469580118226 -0.18281279896333488 -0.8177221167222695 0.36649041500435037 -0.12762160968372308 -0.3022246510925408 0.06919126039747497 -0.9581983610223422 0.14029395819427318 -0.6411931159255433 -0.8619507717227357 0.20336214083355555 -0.4113474903477291 -0.47023685268360615 0.028113051839578622 -0.2789350247864478 0.6991543796540389 0.92720728277139 0.2535000890998285 0.2810985417665759 -0.009294383549564075 -0.7177200817258969 0.46055641116625423 0.5128839017828722 -0.0981486281700932 0.636934437912293 -0.6951052194546719 -0.10097468593466681 -0.5254380612933934 0.48073030792444255 -0.3375728787087451 -0.512227118032734 0.6729258215511345 -0.7074763796559431 -0.86613495794505 -0.679457253108487 -0.530728558956414 
0.5544296234094417 -0.8770446334234223 -0.29244961556723814 0.7887565934217518 0.26732937080018165 0.5946260128988485 0.9642520232576202 -0.6409448210704324 0.25230878348706254 0.7340087146954662 0.6433011393877053 -0.3067781820661737 0.5903805971519199 0.22748092939582598 -0.7021531821906803 0.02916593182290498 -0.9366184759596636 0.8820797571820983 -0.9165682291597482 0.7657550778288489 -0.28211968021909933 0.19199129125392483 -0.4050293808676456 -0.03203102824252937 0.7118009306886403 -0.23619007508779527 -0.7796771633183889 0.999611923906714 0.5021535932147563 -0.666528014966581 0.19251567701775768 0.3044031447899938 -0.5827056479829705 -0.4323537908360458 -0.17289960541244895 0.33477559649508953 0.5492861404570486 -0.648201166097734 0.4075472029789983 0.7730893225966855 0.270814736938969 0.30998335742511807 0.8755377696139847 0.8763615191105519 0.2432549128201483 -0.3031893601514194 -0.041511754200778385 0.21780513806386195 0.40000582471225843 -0.3534216484686437 0.12324280905572144 -0.7965912044388467 -0.25649188836715614 0.2985083993785435 0.40251508508042 0.33423904755021133 0.49265032210020926 
-0.12774922386401383 0.2485984544260671 0.692260961992093 -0.06326985298985514 0.6813910594727903 0.9273396452706156 -0.511417559367863 -0.9795459328658309 0.12206477681407876 0.3638481450275443 -0.9463421701487165 -0.5042279425175484 1.022108876321498 -0.15984742705626975 -0.8904898046269968 -0.01176459395015789 -0.3162263219402379 0.6715653015205802 0.4309988726548126 -0.7549601491008741 0.47305361198378754 -0.1756906016422845 -0.6394300056118298 -0.7264638209138097 0.5923676638661037 -0.20963436565047902 -0.8865932346075877 -0.8804877506716634 0.43301098144534894 0.7349752967488596 0.18364287010527872 -0.32971267546858407 -0.8175809444541846 0.6212888991580829 -0.11528902091376374 0.3662407749139696 -0.08845903966818734 0.7459631504029873 0.11422394976477222 0.40296799274703 0.578763876381374 -0.05710418368057257 0.9006366052864121 -0.29239445820083915 -0.8089070947477174 0.5131452145020163 -0.02661865295311119 0.5553476533058969 -0.5997450889835411 -0.07229044102830309 -0.6527759985253605 0.4696125127411815 -0.12948779184538795 -0.6720494010925385 -0.8370096579325261 0.4369932821160361 0.23113724112676404 
-0.6766911809088031 0.3363441266209381 -0.6999416975890604 0.24402904848696097 0.05034613659923821 0.13144019677790564 0.613680439555862 0.8099401195379592 -0.9914811730962467 -0.976751948841712 0.7063608289282068 -0.9586683863452626 -0.9665233190827454 0.6041821150457861 0.09627006703236275 -0.4496825107120435 0.20598154630525653 0.3660989520999231 0.4609178419840705 0.24725085719011933 0.9561458722788114 -0.18149455005206686 -0.6914367081228634 0.5969092865343149 0.5336370792143559 -0.7482990774748622 -0.7548540959821228 -0.5288783981254859 -0.00019792363481598157 -0.3786548541691046 -0.2671489181469996 0.8387383403524968 0.7137395879843297 0.73772621120988 0.9382173399800157 -0.8034522941637389 0.9432550143739459 0.6611222137915763 0.6153854778748631 0.6576821219281596 -0.7325977313729553 0.09550217286007118 -0.7450629377065078 -0.677543604128295 0.4806499527467803 -0.6163489713756277 0.5455584387467377 -0.6838471224178063 -0.0070210618963273365 -0.027156698667085567 0.7132948755777119 -0.90126716188413 -0.5572267195052992 0.07945678468296334 -0.4825300177468117 0.13448489448157497 0.6647354102811291 
0.18355749966885795 0.4705759358374711 -0.5956816021313975 0.9418518978489839 0.43534925089918886 0.43978871503939265 -0.6417588120241025 0.8599858773600587 -0.24294911440387273 0.13542271653952587 0.9388170979473587 0.44120236043798416 0.19404538963135312 0.16070836184469856 -0.21886352396916292 0.4984376983400899 -0.5624751966442065 -0.6347555416845634 -0.7065085645053196 -0.5707577164220643 -0.4499683969388256 0.3234916739689043 -0.4960580218898494 0.8213599778988867 -0.23029284081549833 -0.330115560241549 -0.2111715022515342 0.14959327447655138 0.3852946198375045 0.37793777476839935 0.8345804165754921 -0.9695008990467445 0.11727586113916057 0.15046163374771535 -0.7050703205203073 -0.09350796881885698 0.9353366604139298 -0.83642203075989 -0.14597212954761046 0.5953293527112646 -0.42413663007325025 0.35790651025553616 0.17614489824673646 0.19612922775873023 -0.2035479703168808 0.6726719230466399 0.10275613397021437 -0.164882109522407 -0.6883059986440289 -0.2777304646348692 0.2575104774299032 -0.14389419433213943 -0.5899768932123051 -0.4629019713689148 0.8105744141303204 -0.8314880904877248 -0.6216010410081517 
0.6342636592315378 -0.7902229927617199 -0.4873941196681678 0.24707231686312123 0.4583350915785586 0.7043543110915284 0.8187266674551053 -0.8339609425343826 0.4321351107437448 0.6863631980441514 -0.11009851238121307 -0.20054728134595687 0.2273515365082358 -0.14412101612205477 0.11649774884054556 0.4549097058908857 -0.07841419383566403 0.14574712036047704 -0.19421857260690903 -0.5657069186518778 -0.17049911634545853 -0.8937970871470584 0.43773826511268027 -0.3313039933688794 0.7270069628241695 0.14236460606671833 0.6446604725970239 0.8687509471015944 0.9277035993699256 -0.4289215669894551 -0.4290670917106266 -0.5836147791859319 -0.11669786163867843 0.7957480944237255 0.9104307230057589 -0.8077549645934238 -0.8181822641385857 -0.5033817167420874 0.7067019752177783 0.3370785113782709 -0.13741434447872347 0.4285200091685378 -0.561119461936257 0.842024828486275 0.870428643417627 -0.9708608930482302 0.8370100100930546 0.6324430410774774 -0.8481370143701378 0.34800087676719804 0.13874685703803552 -0.1778005244074943 0.7956350105346588 0.6153174177261354 -0.9488395463364169 -0.44851697399133794 0.29434599826300534 
-0.07301145500296896 0.4929064346709652 -0.9741059414945339 0.28282816137201744 0.8612351191878894 0.529726144697692 -0.792299212027055 0.4650531622401956 -0.6498309877319907 -0.1617479987015739 0.6143851503602771 -0.35765994621008634 -0.28894645298292393 0.4014711310931054 0.838591072465189 -0.7686323702778834 0.42578061554144286 -0.6253845604449236 0.0903960740469326 0.27534406112335097 0.32023709730384625 0.3324313608927836 -0.476323369703071 0.3068358739897774 -0.9169360117635175 -0.24592090765036703 0.10509671436831053 -0.5481405286946087 0.12184988575073964 -0.02671174829833316 0.9669799608113163 -0.1398578466545545 -0.7077397520809744 -0.5865883309175728 0.869232364151777 -0.7238935860548195 -0.15107606561876785 -0.8206735606148926 -0.19303239611783557 -0.3337610590922743 0.46047442824466966 0.6049170229326414 0.716614323249178 -0.03727091645647499 -0.5677267131306607 0.31985084559113125 -0.18028421017721585 0.6228373256008274 -0.5053585056207501 0.6447181316014284 -0.15822648733101394 -0.44230794698354714 0.6146622168151681 0.20488670767761827 0.5464927303940093 -0.16460661714621083 -0.3386492288089608 
0.36671462052206655 -0.15802824370792162 0.7685211652634432 0.8488985666545459 0.8376490240962196 -0.0789485336281382 0.38270196077203145 0.6436259406817678 0.9075400653350281 -0.36193883607072114 -0.45826902779786066 -0.5870136457415746 -0.19707149632430945 0.0019472573372460809 0.7457629062908766 -0.5844044706688999 -0.622646123615388 -0.17185677005833033 0.051486669496334674 -0.8153909630370001 -0.04674727313708633 0.912744699557515 0.041985383144254054 -0.9389736724153537 -0.9646943780112659 -0.7298921624203092 0.04640431432556509 0.08713714978853876 -0.5938492362559612 -0.687937040452588 -0.7222551677324728 0.9184725340969199 0.5416694314287238 -0.4364141585474956 0.06615782932086302 0.4781506108346727 0.06318475793253436 0.503934796167322 -0.6144988658845787 -0.5873196691238656 0.15246934003952098 -0.7375225340297291 0.5657730487386307 0.8323715247253374 0.49031348369963473 0.9358025131512375 -0.7605481559906854 -0.3089603539035088 0.498565263462918 -0.9857179212529299 -0.01625592879649081 0.3109412379003487 -0.9750572378321569 0.26456973636058667 -0.32246027249913894 -0.3572534713141894 0.39039408212299187 
-0.9081528643571627 0.5346130692663261 -0.4161853383222313 -0.29664791911868754 -0.7314960071061622 -0.1307747420932674 -0.4839928768206052 -0.6310125269527161 0.8543380121131505 0.40996309416492815 0.3313276059082286 0.7513779096512615 0.7357571990994658 -0.4110261337030304 -0.8371298113682315 0.3133547111538251 0.3104106673843297 -0.28411153837418973 0.12008349572739195 -0.2957578369440403 0.07337960918927683 0.008928662976224622 0.9722058535505675 0.8091780794306351 0.6715757989208607 0.41629600456494587 0.5656383731251899 0.32105166589236106 -0.6137639496637289 0.9311238516091384 0.9109993600488331 0.194872597149411 -0.5773510373571796 -0.3168954367676019 0.6965096490753524 0.9129095528595076 0.14238650838022066 -0.17792412618476383 -0.9699486996121921 0.06236954092224873 -0.2516264112546178 0.3749105013973131 -0.8437738902278685 0.12538530122395855 0.3451328128937311 0.8317912778900932 0.4637545604075675 0.823092216408193 -0.7884890575587816 0.36987196455803406 0.3850049399053558 0.05114831133556123 0.20619913059390144 0.9533805371893732 -0.9659073240121601 0.7267376763645089 -0.31987980625740664 
0.5853108544914488 -0.9111546671344122 0.8724254987884613 0.25023175462795233 -0.3483041125928702 0.3532505553888341 0.19075807457527083 -0.6715314605987249 -0.04504334044727939 0.4948999958701307 -0.9663996828097586 0.8817748163421056 -0.25238406661786134 -0.6730879449944484 0.7902091003960527 -0.8032944520616392 -0.882191337930277 0.9115546980526418 -0.801364382720866 0.5281913264902393 -0.9283813609958727 -0.27798341413095984 0.6285196785073959 0.8849601721259523 -0.6704100775870914 0.5031685308794558 -0.21194315446697926 -0.3842533974481807 0.6013551683215874 0.05598988998292581 0.18381273922995586 0.13196549173191718 0.49254155982578884 -0.3158272602104589 -0.7131165876344393 -0.25836551035800737 0.3515855143300073 0.6242245420299034 0.10651850582018484 -0.2454322362444732 0.9386008539416546 0.22353035870640411 -0.34036951241843366 0.9347243576928942 -0.6181900504617311 -0.3553613607364545 -0.9172322284617653 -0.8042343328494039 -0.11332158318211846 0.3137723930649214 -0.6759186105037879 -0.7683393645418035 0.7495234846396637 -0.6406197762123028 0.826650997814978 -0.9258838191023124 -0.41201625518920787 
0.40587525630877047 -0.04556929993472496 0.27629714039887426 -0.848859785084667 -0.09762601587702602 -0.5422320558514974 -0.14296303215218387 -0.8238555271003594 -0.36943068071418844 -0.8246975434441203 0.3529465552199584 -0.16344720051007258 0.06467779780569123 0.7535628392158584 0.8026098364557205 -0.29006421287491346 -0.5793770318291327 -0.5611753391838209 0.7338255408172207 0.37333535793416095 -0.9563859101030098 -0.5044155879724241 -0.25500970416339114 0.702681410313343 0.7980613280432165 -0.4468557566565176 0.8293571639802275 0.17066835469153768 0.9463601775418238 -0.6456007047451838 0.42893411409129306 0.6878998406013775 -0.8430103973368479 -0.4428352123237756 -0.9343289666117873 0.772813611552762 0.5321831350434167 0.6156038663527764 0.2597601047850272 -0.474334950220597 0.0043554100403322485 0.5152590097484174 0.5111273848128053 -0.8618232547957733 -0.2628084981170231 0.8767231163699494 -0.7278959330370779 -0.8048263745317804 0.06483433546474367 -0.43294313280779684 -0.3721422696900302 0.39903536973531334 0.035820936370771585 -0.7661881824014589 -0.11922762413138473 -0.7461525413418393 0.8402201315389497 
0.5460520315399704 0.33651916510919583 -0.6973078134297749 -0.9148220104081655 0.6010905887993822 0.413481272545642 -0.7840190033756799 -0.7025106457234573 -0.45036877466115033 0.5506503029614107 0.8207376440447449 0.679765762456713 -0.8814788509878475 0.4599311639372003 -0.44713871515299586 0.5698550743182498 0.6426216727055527 0.9031313344818886 -0.22567640650415483 0.9412398567418253 0.2501319946026013 0.8102859273014242 0.8678320110979573 -0.7674877586278596 0.4435976955910809 0.9619179183769221 -0.004602998186274927 -0.09132008687090365 0.9407076103355017 0.653119025031813 -0.8790697219755474 -0.5782021058683168 0.23524878852018946 -0.633118624807313 -0.5474725206490482 0.9624086614482928 -0.4895762701078666 -0.03847511016150653 -0.8934640601502845 -0.19669084577278567 -0.6113157863487736 -0.8949297649559461 -0.7035364232897758 -0.23992429558749198 0.46411650731802495 0.458729347694838 0.3799998836211125 0.6987705124632679 0.5318422873874725 -0.7083504156856015 -0.06541174524968116 0.8275265734408538 0.41226454982675836 0.7168084335480969 -0.21911101394589022 0.6886116375405705 0.013642311705998608 
0.7491071365349246 -0.8506708281064076 0.049715919386612066 0.023138954883047742 0.8834874657806292 -0.775515283078204 -0.0053775396180890216 -0.1082408479063892 -0.8765456885946006 -0.23519553161408244 -0.9320712652920004 0.7716320037113911 -0.008441449313922383 -0.21933330105934187 0.3732320040157421 -0.5045886409274779 -0.38483160529858756 0.3726046065509965 0.24977914692875744 -0.2325015331711539 -0.8966579423043408 -0.6626262046247341 -0.5926924823133088 -0.1469595698139408 -0.38677810262182294 -0.10079684768807523 -0.5972211580014859 0.84248360677398 0.5448163766661489 -0.33256294962706257 -0.622051377967212 -0.5326360438637536 -0.2148854042797454 -0.7918442728546307 -0.420075552902376 -0.9388340362176856 -0.3174844735744827 -0.6564428287428755 -0.017282864624263723 0.32368390109598977 0.5550947968470697 0.6820245762144609 -0.7284757896243103 0.45049791094228475 -0.34883687587019213 -0.6979803822811322 -0.16520137426699147 -0.9358119588587999 -0.43874404477306317 0.18260278281047976 0.20539807261569976 -0.5582900756184652 -0.28215708199610934 0.026698252607899445 -0.2649317377678689 0.6335105166076982 0.5032908957288179 
-0.8438740792539666 0.8780651769664395 -0.9464177815924386 -0.39028444951502134 -0.6752665207740565 -0.8891704444087988 -0.0021543084067267475 0.6364453506715176 -0.39186300789783585 0.1371188832434175 0.11191158509338617 0.9394442096896464 -0.6894226109957582 0.5358362845880004 0.4076882348271711 0.5291059046396319 0.8163128277280056 -0.5491546439369578 0.7519656182675561 0.5937618878094068 -0.910691474307582 0.9516375562144879 0.26042298094602717 0.8627388448427826 -0.6327513465970364 0.7643171188798668 0.03951958999710388 -0.6518872604864371 0.3691958932680667 -0.03523889064894451 -0.5855053280193316 0.8822203475352004 -0.9124632533285315 0.9638028540344816 -0.8119330115959008 -0.8527548123456942 -0.3246312447618745 0.9021063672344322 0.36793823701990097 -0.08637090888712749 0.6694679279326929 -0.1175966247483967 0.340353689909697 -0.7171665881611524 0.6975635837545084 -0.6451513371391113 0.10888677542397841 -0.09028512969063487 0.7064144047512384 -0.08313144644127184 -0.5860899924209243 0.9709087516818692 0.4265402656281585 0.11719175206887295 0.9118578075566992 -0.9579409121215897 -0.8312439603513754 
-0.7809020799781065 0.45691174673397505 0.45922205728141613 0.8353309381588291 -0.5757370826353677 0.20992791001284083 -0.7131517339501681 -0.8563940174120886 -0.6212184068579896 -0.9427673945155007 -0.8785995818995548 -0.9259544414018159 -0.8798314880656533 0.7010302662167804 0.30095740484934574 -0.6669930492314246 0.9887469244423511 -0.6794795329089598 0.017363891890405506 0.7445395225658596 -0.30452549579173466 -0.8690409820406493 -0.16329018003989293 -0.576386831500234 -0.016794746440318597 -0.6025636013583212 0.6153034275549227 -0.4843480622778209 -0.4338139354804344 0.3273903823073276 0.23750706448445144 -0.1604025143928943 0.06002411602147871 0.7875715731321226 0.4156893244863798 0.8673805297366716 0.19929724822243203 -0.488865435717103 -0.9620896855391129 0.2137988982658202 -0.5531367170779149 -0.9284795812170337 0.7694244608250264 -0.929883272409093 -0.6109256115927932 -0.18418321848253172 0.7335072466078768 -0.1487832472464935 -0.07402647304551799 -0.07796938818872552 -0.2374740492176388 0.9243726924706069 0.4060982810181261 0.709653183137501 0.007538207506836708 -0.8890786800808084 -0.9137314957615023 
-0.033130275920809596 -0.3140767042044804 -0.28507908198563847 -0.9592183117383639 0.8817525346799346 -0.7655011100523812 0.1713518346401934 -0.4039196528618328 0.456366568742887 0.5561800825496629 0.20887670492183175 -0.8473165783159011 -0.8700970920694565 -0.49052682653871255 -0.335652385595012 0.23291204420306344 0.4683373466987541 -0.7602530556085783 0.5732967593810168 -0.6112654587275352 0.14014008404194558 -0.558503035436062 0.48292099004690187 -0.26450940655023114 0.4277950140786059 -0.2487419440817869 -0.9165255454319321 -0.17428482899141323 0.781140803305068 -0.35886648077569383 0.8035075646956856 0.5839897709308125 -0.7126789563069944 -0.3541379973019912 -0.745282324628365 -0.5625502098497971 -0.6475339432139767 0.3215587379507859 -0.9449208119794346 -0.9712000398815305 -0.5123487173897856 -0.036650810270338424 0.9848074162123994 0.6180956601020651 0.5444983867575605 0.8011684838321319 0.03748827774136601 -0.34309660431341255 -0.3723467229939646 -0.3334461940224392 -0.11599451876215554 0.05108032284896692 -0.533705577026864 0.6792460886090165 0.018333297365530174 0.8713687127147189 -0.15463412692363904 
0.10812602780692238 -0.9530352911345757 -0.0647904973212102 -0.3508574088965717 -0.8705913431361244 0.2401158103894011 0.8527527022615531 0.12063780532421957 -0.6047573650224322 -0.14185036305779633 -0.13393331053414798 0.06881878047290461 -0.6277472925497956 -0.0534335875626476 -0.591794517730516 -0.6167459401250835 0.14511030408011938 0.7979317367611597 0.09767497069394201 -0.4642899815707557 -0.8883916372298409 -0.6814531300365732 -0.9880955234146702 -0.7289200817557375 0.17484310969056852 -0.9580966829573123 0.6306673322272763 0.9380930735108955 -0.021011066976301736 0.546214266511844 0.014166006785329914 0.42244775485086694 0.592131622633267 -0.05390883645304924 -0.5891398105903634 0.74741957623002 -0.9007236493340709 0.4271887717069522 -0.3498299007471104 -0.5271728576736194 0.595228895138071 0.7900797861238802 -0.33092407897768783 0.5836086206308888 0.7088222224190125 -0.7814473152727862 -0.46493682810019876 -0.5277559521209885 -0.10406187026699219 0.36865055488273557 -0.44780147608215753 -0.8401705981780407 -0.27409809302948596 -0.29851059279212544 0.2037703111344205 0.33388879886857514 -0.04855328678652239 
-0.5974098818874319 -0.24525388627640743 0.5378393752281664 0.18840497181250826 0.546934821547578 0.3260870288242261 0.25633781406235084 0.6550851074736117 -0.9885320444566625 -0.17193834237922548 0.7811194651805011 -0.7693738528253775 -0.6210866597315122 -0.10732110150119384 0.6130235321974205 -0.01183076885852292 0.9635484012305086 -0.07933048578888481 0.36464822362692784 -0.9988162386060078 -0.16156732234476123 0.5156428287052871 0.8985847393501398 0.6711739209064282 -0.8502539359480246 0.11832634366940827 -0.39204987778451655 -0.24839551106219016 0.09079601656141556 0.9873559720245229 -0.2700495201880084 0.6893299706541699 0.5032521320091565 0.5041783025401547 0.49922172469923703 -0.05046529759114318 -0.8489402288764446 0.8088795677407895 -0.1333392457843799 0.0030436326396221978 0.11008347554479085 -0.6760617245218572 0.8713658956650426 0.2414510921302723 0.07274486048939346 0.3561081781220605 -0.8307796057587334 -0.6812607756166459 -0.32461971748954394 0.563115791795435 0.9679932958924935 -0.4987380606998955 0.4945540158692116 -0.9373957992291302 -0.9473114233511084 0.8524269505917815 0.3376628866367228 
0.41039957041306513 0.7825926720277179 -0.976777975746706 0.7179949963080725 -0.4526782919411702 -0.5835082388268991 0.5857839523115335 0.8403745485142691 -0.8503115674905131 -0.10808572155101756 -0.518538332194274 0.5007173438174708 0.51314872592281 -0.6944461295939898 -0.9137779161578387 0.4495541976912815 -0.5319374544748049 0.1883804725668965 0.004987671333687553 -0.5224488082297786 0.7401658946685221 -0.7058357790694778 0.683370213036167 -0.5005744960963008 0.5220516476942137 -0.8703641597085195 0.047594960604400084 0.5028822551005783 0.9397256459481353 0.5935689816965147 -0.6935443815728167 0.5169029470336104 -0.24322972956483968 -0.8605066323446686 0.8895297787915804 0.5731829191392583 0.0014757411666150107 0.7836646058290138 0.6540540850218514 -0.1289855231674745 -0.36519660891071215 0.43944974332599906 -0.13983870935163725 0.4428761893718126 -0.6703749999920325 0.18272828664308408 -0.2666878603476862 -0.38234438141192534 -0.7976631043200727 0.49640468101981117 -0.41073637296960364 0.03358982252652337 0.9149290489122524 -0.9009065471509993 -0.2946952701920651 0.6998882829925919 -0.21319937861901603 
-0.9647317517853929 -0.18513802068960186 0.11244780410616036 -0.8165870628556396 -0.7550584160775202 0.48683354713515953 0.2878497029873408 -0.6877040171014565 0.7090626681552057 -0.8712476254468969 0.38603307185200286 -0.8023725368783136 -0.10331122508630859 0.14015675478636655 0.20215527027889474 0.7216153727827586 -0.1229801027782647 0.16138500853689752 0.24612102807730554 -0.19065881648990518 0.5711521379994011 0.49278312173545324 0.24887972998792712 0.19487582906071518 -0.2864230339599316 0.06564253099338807 -0.9139218371024537 0.6761405455074895 -0.7681770793526581 0.6862283667961837 -0.1873266898907735 0.3041899873794696 0.6309189922316233 0.8042263848831832 -0.5595502522126098 -0.9250104178059267 -0.7778805715018452 -0.7101177538025683 0.9737881536634703 -0.2875560884043283 -0.011880660421042875 -0.3008295063431643 0.2963379125140352 -0.3986090261946879 -0.6137288190614861 -0.14217934953176545 -0.17003437570269095 0.4559064398880701 0.7584588997543581 0.28067482862585624 0.6082440600806281 0.2597256337487345 0.4922335578259986 -0.44146470700616613 0.17770464465694322 -0.455479209520287 0.7735221849726382 
-0.833330178093556 -0.4480526368515509 0.8874092026817801 0.49057761193845 -0.5286946859534808 0.834722592561376 -0.39400296686269104 0.09056017703950398 0.06609250259691915 0.14333944935190243 0.6536234599706899 -0.27889300070050554 -0.8319951451247138 0.08169662674556832 -0.6877294489396171 -0.2673334704664421 0.8245659451249119 0.1577850943068114 -0.385093000826505 -0.11473579207171442 -0.10758724023207279 0.4635849491941068 -0.10025892407708355 -0.8131733580023942 -0.960983777060466 -0.9634116247493103 0.640908744825451 0.7645091964125316 0.223996756924363 -0.7760929432498173 0.8859206975974098 -0.751503086541994 -0.30150031446812936 -0.311931851316784 0.901143443277531 0.007785041574631636 0.36294277748114473 0.02868988765221105 0.7114368535737944 0.6942351242134588 0.7821297278797016 -0.6757314866631047 0.5489209882050218 -0.26546593664623575 -0.04808363911171783 0.5122474442499584 0.5949477063498284 0.5625342381404305 -0.7410136558014639 -0.05032897700835678 -0.8443032391453763 0.1795224655739386 -0.9545453721153563 0.4696693162389196 0.9687656356363403 -0.7963238235014286 -0.27554240278669756 
0.26863802367875217 0.24186821873421258 -0.7899563526406426 -0.06382616035114869 -0.21751358944007143 0.2530488371618483 0.5268847671074088 0.9129318120011712 -0.9108951204167482 -0.14922062103054728 -0.9488056185810311 -0.33293635358343737 0.38575769524116915 -0.7274317201507572 -0.44084402726959176 0.08437608018660694 -0.520456188270539 0.6726777351494623 0.9345762305250228 -0.6800975281945435 0.474060840426652 0.2532461700579495 -0.3346460681598236 -0.5065350368688903 0.09636467165252365 -0.32576425135375453 0.6796340939053803 -0.6196599211283423 -0.14781563225690095 0.4631760986377972 -0.939121307758265 0.8752358006146588 0.9750001833445903 -0.32853585691026066 0.5812192080275946 -0.05382340668833833 -0.30153697327377266 -0.058744604240821785 0.6053158994339826 0.734945775377134 0.8141051802100918 -0.013285188060994123 -0.05015116735473227 0.20457397415992898 -1.0188051659621142 0.017709555822365344 0.33423030410048077 0.47002032597970855 -0.9574103169109265 -0.2794426052516598 -0.7392261583340333 0.6550786169593181 -0.325913711962085 0.04967886769496207 0.6828779266195465 -0.877987725914533 0.8532124211704962 
0.36411888879882465 0.4531290381236446 0.6284506399805984 0.07109150822650066 -0.18420841547812558 -0.5648623696769771 0.44164467933945334 0.36352830869463154 -0.44871665663305155 0.5065027906956253 0.9622491183632428 -0.8103894881213265 0.611800618307805 0.5551452075761042 0.18150257634392733 0.007982897874904091 0.7744799490828855 0.00264984237371212 -0.21699456075866852 0.0740431037271593 0.23026216590778528 0.20038825639726152 0.336818626049738 -0.8019193967931381 -0.1711728224385117 0.25094709413383703 -0.7089958024138596 -0.7857077360947645 0.8027083386402625 0.8247603174183729 0.8929154974289912 -0.28993393774426385 -0.8766278999331479 0.7796838115324833 0.28802812535750183 0.11853418249215121 -0.1841211512726923 -0.5720056466644841 -0.8778961646661355 0.11627828076431879 -0.872216143127094 0.6346990993633903 -0.5846924183201075 0.024516244490510847 -0.5950533726056983 0.541309835954502 0.005955075872684023 0.5311073436244143 -0.15556215892882697 -0.3012401968197698 0.6757389670637387 0.5839198800561156 -0.055811014289703836 0.7100515576550543 -0.7515913984097019 0.3824875114249671 -0.30714092327118375 
0.1643655509874487 -0.5456581760885895 -0.7385562798188455 -0.13704547531266478 -0.1381361764023251 0.7771982793094631 -0.3370179245123644 -0.4264238943920125 -0.06484082645344377 -0.9473911051178394 -0.8635722447700489 0.4786886525464227 -0.23572915167517383 -0.024562863497839614 -0.4895133347012266 -0.2798270008843873 0.7973464453074428 -0.20674937965245274 0.28947163001455767 0.6232404938045444 -0.9576723057518635 0.05038685191267266 -0.6571478455039649 0.18588635334899264 -0.28525706213618235 0.14909101510104236 -0.953452815563511 0.39469887971243556 -0.5306541865472585 0.6491771162088781 0.4792184229763804 0.3651899456250243 -0.3069895860005333 0.9348447632321517 -0.41751468813446513 -0.5142144487269152 -0.08810078346369751 0.942893732619141 -0.1904061573984886 -0.4226517447317624 0.7896473430390815 -0.887351953893014 0.26710810584469735 0.40095325969267104 0.5295329855176516 -0.49834382999770144 0.3704382572749962 0.3723134123498797 0.8417804668477402 -0.5711757137868452 -0.9162468297725896 -0.5420173677417214 0.863230545093717 -0.6690958673709287 -0.15303743366757866 -0.5264209207437308 0.4759726581805081 
-0.5639887955140744 -0.7736617786331389 0.8747522774578899 0.4162757167644168 0.16924186951180373 0.6872870268065185 -0.7626160560195723 -0.5494930254329785 0.637210967101444 -0.8621704393040531 0.07793774490674912 0.4697032676589211 -0.8448489011912591 0.3331585029849653 -0.7903647908773249 0.45081483678674866 -0.651085098131627 1.004549445902181 -0.18880868958885527 0.7695468428668327 -0.15237904707541494 0.8682374893193414 1.00251926411067 0.787971060418561 0.7855514595363321 -0.5243802872944014 0.7370543126336221 -0.8697698477831326 -0.12388845837591174 -0.19869238149891175 -0.14927413328078346 -0.24319948408722267 -0.13575968460572455 -0.18658580998836724 -0.082415420525021 0.19664717517021083 -0.49481700492327935 0.6719771752209336 0.05615038516920244 -0.5142365910096725 0.6588006439841645 -0.07819126443386255 0.4744543648933219 0.5218718369078508 -0.952497739191716 -0.6162930043929336 0.15573873585385578 0.3984256806501373 0.6734529025118329 0.19875360625297026 -0.6300221210831443 0.7758991469122745 -0.7207204057974687 0.20222908784301427 -0.45789416298433333 0.3051653416441964 0.9334311598911076 
-0.3282991047548578 0.8826007480794642 0.8689476293065574 0.94998883829447 -0.6120235496851533 -0.6157186675453776 0.5480585179715002 -0.3140467858227718 -0.9268423092666448 0.7344439546483104 0.11746795433097698 0.42351029359098885 -0.5202405202111972 -0.4976705454304888 0.8712570497740086 0.2268013212048725 -0.8169500236072854 0.07590128151632355 -0.8652419891505709 0.8715648600894922 -0.21723162305847557 0.13780964610376764 0.7872418211597013 0.6742373609638375 -0.14244710218278292 -0.3983221615792233 -0.5888378632606895 0.33635134596513067 0.15666758467857167 0.6874326571917024 0.3763962237017673 0.4195754341479911 0.19038746949725965 -0.01890354676215547 0.37311040358628533 -0.4756588210338046 0.7354764938541114 -0.4446953585412283 0.15463697720729128 -0.3033539641223053 0.6332541968175206 0.42181486871222296 0.8377484864476702 -0.38739350931175404 0.9567872504545906 0.34826273611508796 0.6340137059022172 -1.0145590102662123 -0.31250072313556804 -0.17483153588511205 -0.4682220883398131 -0.7831452014100272 -0.1960036460993159 -0.3831270181946612 0.478064220815096 -0.14008576954343085 -0.8081531937625298 
0.9303735402423982 0.6751124609949742 -0.0766099677887996 0.1471685264209589 -0.3029368818276089 0.4155605270572101 -0.6238253380952289 0.8074346159591559 -0.9789195756703354 0.3072259841439542 0.7929863916090126 0.841822303939597 0.9559773513029246 0.3132052448972246 -0.4542406704472494 0.7122144096339178 0.9328759119203962 -0.6411633999970234 -0.9645973895525098 -0.6870033101584522 -0.3775522243074274 0.5039074531901887 0.8466979019724522 0.9844997450331562 -0.2934424452449535 0.2545604036417774 0.7663648753989742 -0.23591089077238483 -0.13919730122145643 0.606476568066188 -0.4567898862228937 -0.2137491520075444 0.7692460761840423 -0.7324699149405556 -0.20001507250537867 -0.2486416463784026 0.5061349906940441 -0.33193754121596963 -0.10277982210055185 0.4547985762213729 -0.6633348127610542 0.13316355953952266 0.7591543176136293 -0.8114695897826881 -0.5698563464448778 0.11909083331260353 -0.04338178619747942 -0.10915358477554203 -0.9639291737205024 0.015244254925944377 0.8748836405171926 -0.15627300932414318 0.5848329137165174 -0.12887037037811494 -0.9823644283103068 0.5859036345826899 -0.6144473559431617 
-0.2208970626646875 0.6583322123844663 -0.4342625879260505 -0.028730414646636983 -0.26781093357676733 -0.3228473019150226 0.35167025069077384 0.5533093466520888 -0.7585076056234827 -0.6484154192400933 -0.3840398904750416 0.8826931237002816 0.7679786634628154 -0.6217785132314457 0.04678963617852715 -0.017940114350076686 -0.856981887346901 0.5373658087130805 0.3964069143024766 -0.6776786664780668 0.23488842530830562 -0.5715378769846823 -0.3759272822893652 -0.4949779225189611 -0.2831814036126513 0.8454202946589976 0.4083145526508927 0.6017969783883901 0.02420459783428394 -0.12783214917314564 0.8128633497469262 -0.7224274568502055 0.5589683021507167 0.77998778116366 0.8606259901069347 0.6747987329906979 -0.6507247429856655 0.12329642206229376 -0.8606911764630663 -0.04118206900232616 0.10811705171183576 0.8616296423573954 -0.3009568278771072 -0.23374144000040353 -0.8637883042779075 0.4165266058400972 0.04037974688369142 0.6093175554863727 -0.591599101751546 -0.698989886721651 0.6140397160443597 -0.03255321023508706 0.5130141547197092 -0.6657730119111922 0.26299503217894676 0.14758311709338498 -0.27526671850637485 
0.6526269212280538 0.8411647258926177 0.5314714852460624 0.1596392860301265 0.1051403648364965 0.656524011259274 0.04108478391376569 -0.8932161398441779 0.17067035886271992 0.27436427152056303 0.6212500983038874 -0.2490636771170778 -0.5054695819421681 -0.7832833665722891 -0.35252619053364714 0.588629901542482 0.9367829123958398 0.6610086725067852 -0.16948308454976785 0.89161332239898 -1.0117773513127155 0.6780943864729265 0.04799425249057429 -0.1077600538909806 0.4077795026094325 -0.5672420990229812 0.1108938279571406 -0.4991673740163052 0.058115309848903805 0.9492674717931235 0.9562606216376005 0.6635236027287543 0.620404869557819 0.3614056732152963 0.2452363017753762 -0.6736653702061653 -0.9354401746273684 0.6344164748808179 0.23378549316216343 -0.014803095245877071 0.0744712259420703 -0.5432981962092427 -0.4053680136217631 -0.6276990742627659 -0.7508521109294222 -0.6556302369745457 -0.22104819169155998 -0.03102611317167877 -0.3348813502886415 -0.3418235500853344 -0.8243748926426077 -0.11973205905652806 -0.6191424069466502 0.5875242058547785 0.09288944009867289 0.4080531375583057 0.07334972980478391 
0.2783896610350214 -0.9219175477933247 0.7250760692431909 -0.2741664335035926 0.03265566603352161 -0.4263301109444855 -0.15952089849835605 -0.35755669818124725 0.305031831061531 0.1581192688305221 0.1858237979680998 -0.12239371165129498 -0.8769306347040453 -0.659579053119906 0.7817430174761998 0.8089787414320617 -0.13052466031286136 0.23244217462221936 -0.9455292070539645 0.11460319678654245 0.6628652826776883 0.015103095685034257 0.9028520255010658 0.28559494443668687 -0.7627046328662219 -0.20025046420991052 -0.8925488632193987 0.5315467271193803 -0.4201807626718946 -0.6322362603784486 -0.4671053721221578 0.06018063856383235 0.9126814957326598 0.5707462920279216 0.04456825344766072 0.6260289096492713 0.46940140290111776 0.2447392468898064 0.1410017585174039 -0.4520150328519241 0.422656001690191 -0.6727381668147012 -0.3188300312580405 0.05540289084615162 0.6391643728084533 0.3134483694297318 -0.5473310038947592 -0.9138266123215985 0.08542132910783967 -0.12133987676078006 -0.3089814677248543 0.44449732994572416 -0.29643208029293144 0.005345190596384013 -0.8961776746083876 0.661373628383524 0.36492247228099867 
0.916570818192506 -0.5121050086799018 0.9944395811559504 0.6175689304963842 0.09994008193350491 0.03503560660851677 -0.49511421425413044 0.9889951199134432 -0.8423878123648872 -0.16042082504165828 0.18509162605593696 0.3167201265842479 0.12385386962322578 0.027387669750780733 -0.2374059674275929 0.3237511792047518 -0.7646897451514783 0.261199279308698 -0.960211139322461 -0.6626263063048863 -0.5099303100781317 -0.5167064505436183 0.4773016781841739 0.7691007867784019 0.30510585959990655 0.36374829728588864 0.6514709475507935 -0.814385684566067 0.43576070660659644 0.4760802047665911 0.7123139978515679 0.16304511712501213 -0.5985599291726844 -0.9162928850614516 -0.4910606336630229 -0.2095533272607374 0.49790929105256465 -0.046719858647865126 0.9395122718591488 0.24829994162336963 -0.6658457968979675 0.8403390034296225 -0.964892362266053 0.04331628636195648 0.6985913755148107 0.2668423834171641 0.6861772636403879 -0.7717489687630086 0.8030691114382955 -0.2826246761730114 0.5347882473749976 0.40059297457100734 -0.652676210459982 -0.13203274339923882 0.745343433339719 0.3174933523079419 -0.9466197238481255 
-0.7670993733575422 0.5649897396397251 -0.9276406427604544 0.13518351596324876 0.3777115646838782 -0.9374686426134098 -0.4292096398079506 -0.13945015813142897 -0.11521266146149726 -0.11027123191552929 0.08382360987044543 -0.30892137441723494 -0.1383354176636577 0.05039102435422545 -0.06558173840851221 0.13543628679453906 0.9698286724468602 -0.08000304616062552 0.3523146089829051 -0.09917589463164123 -0.2348019136568747 0.27754409571219174 -0.02056522005181373 0.09386795645064162 0.9285181365224289 0.17910500191448592 -0.4112582402599063 0.8108551137854646 -0.6477995061973763 0.1471732539138112 -0.26229341183922017 -0.9263204841820614 0.7357690894574528 -0.1577274891047994 0.22643501109660458 0.6816026972911493 0.5723750797032272 -0.14194097261303912 -0.4673794436592873 -0.7173655053651324 -0.6066439756505444 -0.11906347150359137 0.8417377956650763 -0.00902498702967534 0.6188224790452597 0.5359361892165112 0.8570975854180618 0.19129680632611695 0.8283661433587017 -0.9961506604473568 0.3313132710001262 0.8778276005638385 -0.6852935138699772 -0.7575769575953519 -0.5672019089654091 -0.1462689738076027 -0.5108647892249388 
-0.2126221072993214 0.977124377218044 0.6831776587715989 0.1376421195651006 0.8807288476470356 -0.49378552759727573 -0.12303214953486233 -0.9303953255734924 0.8396539069760639 -0.21058155164181896 0.8357528586577807 0.4523688209159324 0.6731810533586766 0.4329803388131687 -0.36780979092719424 0.41050859262537875 0.6355443276320589 -0.9514518316638901 0.19698168041710562 -0.18737761340063896 -0.5363638297569783 -0.4938144553778596 -0.8944141309108166 0.8568322697745004 0.07214818494822132 -0.8163568236897936 -0.49452427546232075 0.1660038302572544 0.5885371192382601 0.01612136606462511 -0.9090325476318841 0.4745890487199123 -0.8287676904696093 0.4320766492060867 -0.21981216671757345 -0.232026855207174 0.9486463247016275 0.36850073625934177 -0.5456413470441465 -0.28000729119702256 -0.4032803143768319 -0.6720057423262339 -0.9532135605352986 0.12942828384691 -0.10029043426969957 -0.23272466277470596 -0.28338089525404003 0.2909783313316894 0.5695546227794573 0.5880641813785882 -0.0010199534427903986 0.10939300846392869 -0.05819235296345297 -0.10834073288844316 0.04332222188559897 -0.8867286966085869 0.9465464575215854 
0.5525133026898994 -0.472536786431464 -0.18862879505846514 0.5061287509786174 0.23310458618634214 0.5485344153018352 0.503759990691601 -0.3154684650690265 0.44762426539015515 -0.6079783422459903 0.8905473612551588 -0.37080419697081984 -0.015966865593361503 -0.5917544221876564 -0.5445592000758578 -0.20683570052426012 -0.21572063936690625 -0.1751224391182187 0.6602495225009766 -0.5253588955777372 -0.5240272178283474 0.9477308813894361 -0.1851232281127157 0.14463871890191035 0.6728369566896438 -0.6585759497387913 -0.2551499455900848 -0.5892569436269207 0.34387414944449674 -0.5422210404306643 -0.5003966007323144 0.7855693723581715 -0.6333876349531405 0.969502643793034 0.15154963449230008 -0.5023908525156273 -0.757160205221987 0.6747533181851714 -0.34240006608112317 0.5028808758170027 -0.17410376429486596 -0.01022330446240813 -0.08944393421007675 0.19952655072048336 0.26582355087101656 -0.7131741511421283 0.1368127307192116 0.701948090745779 0.5899617041195612 -0.8563388669599822 0.5060297529557974 0.9918708524148288 0.3399763252522012 -0.3273228612650349 0.7300439909177403 0.72687837387304 -0.732157954209391 
-0.21021798441410938 0.5300664104800245 -0.7439416346406746 0.8708748008044239 0.9333720811726635 0.9158966302534958 0.5833547852749322 0.0037459451195862954 0.1481084705967673 0.5947814023266339 -0.5309104551777544 0.11094201262737229 -0.5264637605294755 -0.789766989597745 -0.3834128068484817 0.5237202556309726 -0.03338714513283199 0.8966976985911269 0.5915473110989931 -0.4767229990896672 0.6748860382379949 -0.4542843276914174 0.1632168835092249 0.9847220408382906 -0.4332484009762221 -0.4984760072861195 0.3962301997492746 -0.9690709320762211 0.03868143238726168 -0.2901354779858389 0.02858679802234633 0.018840500969441152 -0.5221374254287613 0.9915057354153889 -0.31631341256503803 0.16168932399063718 -0.9669127003841022 0.3689732050596527 -0.9366279337999924 -0.5017886754372463 -0.5202413466304783 -0.14419297171374704 -0.6859709888980186 -0.8494138261778129 -0.5173069961276217 0.7280681614423163 -0.9947437909929773 0.6478313354286428 -0.06649845964523207 -0.18545926817145 -0.7138687613757033 0.20365698942861138 -0.586440451668149 0.8622259954436686 -0.7077629751100035 0.3803648757088391 -0.29090702011862823 
0.9469805378358379 -0.14598222103751066 0.5648119029264806 0.6180687224970615 0.3482540766516417 0.34833781478622716 -0.17635946172674388 0.4897616684130496 -0.3097742108834376 0.6209194611708425 0.3803986122799337 0.40305640743948806 -0.24661807685050113 0.3950453260532116 0.07409265052238354 0.19199939994435164 0.8594808248389519 0.9761129003000735 0.6942420689528769 0.6238598716453905 0.9662112708645756 0.9173374283914019 -0.004349296988234809 -0.5252189897712186 0.6705944515121688 -0.8311871022332049 -0.03285227543972055 0.23029949280988293 0.2853073154634985 -0.577667243804627 -0.45412594176032633 -0.23063900816348792 0.3367012904461528 -0.7177329656716868 -0.18465164600229594 0.8861375138922722 0.721315274893479 0.7099071261637032 -0.8525927377056004 0.2727403230126336 -0.7906966129314735 -0.5433347962731556 -0.4866672199977584 -0.23169839587980492 0.5886812673380875 -0.37776335082165147 -0.17917583622997887 -0.5950203770720084 0.23300352382427233 -0.9864414176271075 -0.2818590004809778 0.733439187644627 -0.250194499368236 -0.8119246623879266 -0.7202181410281789 0.7033438498765656 0.5341386066366618 
-0.3756249927225855 0.8142275746997384 0.6119267342602507 0.5294108439412613 0.9127560253680279 -0.14861072321261645 -0.09114478563517762 0.4261263884382979 0.049282644444795534 -0.4705782178757795 0.7390997449129888 0.09692484674015414 -0.7241697504519692 -0.1525077486717614 -0.4408982673739713 0.7239635241552231 0.3762726942872075 0.18275673606890744 0.5142093374609978 0.033774759788708614 -0.46657490764737963 0.42624912092031075 0.4300974130086593 -0.2792847918144198 0.6816713666183085 -0.16974298046676103 -0.20247481228895495 -0.8867718454421686 -0.13546307942774866 -0.28254577882804355 0.38942197703147424 -0.5674676649870072 0.9772186155758781 -0.11945092034584441 0.5156225520034978 0.13536681820109875 0.7336398379883435 0.387298185486511 -0.8223412154423151 -0.3744665963409814 -0.32818450457796794 0.6315473795953346 0.31267565522988056 0.9359378378202472 -0.49390087135909083 -0.8741342759566714 -0.21631687202493236 -0.28672190294658306 0.06703350313009968 -0.5264490300099822 -0.11985590177505018 0.112436975993499 -0.15932300890690715 -0.34403838227970035 -0.0020821729124179712 0.23967102183400746 0.522799338667887 
-0.06993680616674673 -0.46056960251987805 -0.6741496697311695 0.7495542910489964 0.11906627573162644 -0.44541445125930434 -0.14740676565436658 0.788408209339513 -0.3359479102972628 0.9043141416059332 0.6030462252363376 0.7098026504577072 0.4262061088171214 -0.4803282254881636 0.6780339631618398 0.5435881717133166 -0.07057810027296818 0.3674077372293891 0.7573591693946908 0.8759130978888713 0.3726025465188276 -0.7660362432619242 -0.28101885137190097 -0.9593984461758085 0.3609859821387503 -0.30310724165801123 0.25715153351097214 1.0405430523930748 -0.7578363623310366 0.6160953771915076 0.06409622765704505 -0.4332463584499744 -0.5394135685523943 -0.8204372680023683 -0.769435018811897 0.495422934537698 -0.28584195280567287 0.23361216746447738 0.4270828525671888 -0.546310705695467 -0.5926106717123701 0.6464626461944321 1.004449326051751 -0.5299196749170261 0.2965372765810647 -0.8980665344614689 -0.947081551686192 -0.25030876154375453 -0.4788256978596911 0.6267863065609746 0.8784012737600911 0.5315570698284777 -0.7324034066280335 -0.020614245114934836 0.2225137158072953 0.7205892736940677 -0.5092832403204217 
0.7861354943490826 0.5997205618008099 -0.48669842256590995 0.9237427430637198 -0.9903995649190972 -0.08478825991246072 0.04480120762778158 -0.891192328018649 -0.9732217428529057 -0.036757916036685906 0.7531486755072501 0.6456367362623944 0.45739130022854896 -0.630552657392257 0.9044584335924107 -0.9472063089983568 -0.4932837696359424 0.6482886551340592 -0.03170743523645872 0.840264225035746 -0.5663360285501698 -0.5726365973529435 0.20379814981541847 -0.854545368189074 0.1693465492505086 -0.8635892337560421 0.7149961198870605 0.6970161200594721 0.5945895607341763 0.9750797462313112 -0.8613462725213689 -0.4952972291918648 -0.3094165282622203 -0.05572956800313594 0.6706934210850773 -0.3127739007938414 0.27421461268930736 -0.03988632461550075 -0.5400339562417774 0.23440611607816617 0.9356486494415798 -0.7269787756008856 -0.18006497063417107 -0.2612957054715672 0.46401188731568016 -0.04716515400306191 0.14704103878132074 -0.11233872916175093 -0.8816343675890572 -0.27314112717787714 0.4301344493351875 -0.2174449952827793 -0.1678713825468328 0.7290358315530271 -0.9273168856798362 0.9261764238001715 -0.4276204492367112 
-0.7912053787867057 0.30352402762372743 -0.6169022587878414 -0.4150169911452944 -0.746163422406243 -0.7979257741439257 -0.3080501287922236 0.8676005659334276 -0.7641607623097393 -0.11077334443414798 -0.08160970549558023 -0.4311968663176353 -0.7479156996907836 0.8235262859927597 0.28855425924245065 -0.17105099766693604 -0.05770665463370624 -0.47633228778862224 0.5798896852410692 0.75250325977242 -0.07412545998612641 -0.4805978551144146 0.3180854072568662 0.7917537288034353 0.07572567498940734 -0.7565432974130863 -0.6819336183285539 0.3530996118540677 -0.33327609743593095 0.5603909840574266 -0.8827036210934841 0.7288691613531786 -0.0073369503009160265 -0.4398153516538147 -0.7005221515833094 -0.1543550815094763 -0.6207420989236027 0.3974784723711551 0.9428417749043703 -0.8098123810849103 0.42657089036753687 0.6475574102585281 -0.9055835411437722 -0.41238968180730645 -0.7758394037542029 -0.13833929256842278 -0.0587894590977881 0.3511112120805432 -0.24817349328215166 -0.9684941162868481 -0.17574824555942234 0.7644001777134913 0.5120369916882155 -1.0099485437787485 0.4872118166705707 0.4932771661163222 0.6543722741861726 
-0.7884390068654303 -0.1537954562121572 -0.8214275099813417 0.3894153716940938 0.8577097681560458 0.7800391276923444 -0.1684300091925904 0.661329551657348 0.724152635531125 -0.5541029810163651 0.9364233118905401 0.4187255429688285 -0.5980135302817808 -0.25088668577278417 0.04924701091524572 -0.18737692254679578 0.23634164908339647 -0.8365126094001367 0.8937807301918673 0.6875119678335757 -0.23294675845606488 -0.8946679526512358 0.7329661137463039 -0.5580943116473412 0.27491534922191313 0.06982023294571965 0.20236707597608294 -0.2176269448284585 0.03583320679488318 0.21896857750321147 -0.58128682989399 -0.834679596980354 -0.5899129645089759 -0.8812594181683101 0.1842175845576249 0.6644624277514721 0.7351540275809003 -0.5184238754443816 -0.04593411063052509 0.8200105129115582 0.7583898196970098 0.7998054484651879 0.1281471903813139 -0.3994408321174085 -0.7927359933605409 0.32011402507577863 -0.5987397090453885 -0.5385190474321713 -0.13842563734170538 0.5348234235562073 0.5931978066598393 0.9651115656567835 -0.5273219388826966 -0.8826893696342216 0.5720747492139232 -0.5459061283065731 0.2008194326688635 
-0.5095327860217224 -0.7975978179487975 -0.07958321848611287 -0.2442728374831993 -0.5773497804910975 0.3538133146978478 -0.13148624076048893 0.6316325097882425 0.9784907408790484 0.08619179029015558 -0.39478477130753903 0.9564749438037528 -0.04682991931169855 -0.4733395914011993 0.21694917881644576 0.5657931625251137 0.24487552796891654 0.18467302932737856 0.4573812623856164 -0.6546434980890055 0.23630568222343276 -0.5253022717169324 -0.45955992699502163 0.7510575100530162 -0.4452256093378559 0.29765849655971727 0.7599734593019913 -0.8824382120888667 -0.5742542454816622 0.06357271812625456 -0.13963448529747463 -0.5493669998425447 0.3424817172453373 0.7486120352804388 0.23132487277173888 -0.7158594508520194 0.16491643517147267 -0.8858374887500523 0.026563882698236643 0.9241437650236628 0.8036741075927123 0.6588642661444454 -0.9027395548439271 0.7098441572494153 -0.47986663527032225 0.32807037923186133 0.4421293473750697 -0.35178691669067136 0.8379958420554788 0.35808216210952304 -0.24790708842986386 0.7472137911442511 -0.044219002035688494 0.5955620714998178 0.2132861236383899 -0.16508794535907534 0.27239227335483823 
-0.686823610195809 0.6427435452802652 0.9619575633852898 0.37465761817436205 -0.9088707601053672 0.24710551007053952 0.8853546179544325 0.18241319933947706 -0.7701543139572007 0.7753768116632589 0.6907490630272328 -0.24286737396213093 -0.9344533063056395 0.6382260542914104 -0.51392938383304 0.7500628095825751 0.7475168320243114 -0.8956171314216022 0.6640912850939583 -0.28610729546139724 -0.4520418658259623 0.8654685545567313 0.19852445925103565 0.7524996882193477 -0.20381330906295853 0.10740108384471722 0.3107739529845189 -0.44283272938119267 0.04493481884926137 0.3765216204565849 -0.32240600325937524 -0.8770297759555086 0.17355900973501734 0.4717151445761247 -0.8215168138390155 -0.4379465764291476 0.40468560445676693 -0.6061477908942902 0.03942077879431133 -0.270218503938053 0.36886701920375153 0.3963379577730717 0.04826999996239561 -0.9134425619736979 -0.6778450697128003 -0.5513167841821325 -0.3446024459292524 0.6279985098823492 -0.011041441389555718 -0.6321973699614776 0.204991703754375 -0.3209262791459113 0.058496858291046616 -0.22779997063106716 -0.9696216307295396 -0.03411206924926909 -0.7174754114338114 
0.457112794648053 -0.6676722910628174 0.9937401496433663 -0.520539409543533 -0.3037230262913584 0.8275471474818 -0.563215695856529 0.7595954192818124 0.7825240724743839 -0.41362263937624183 -0.23985533595876213 0.5080932567562487 0.6343955002016868 0.9998500345033079 -0.9591416353929781 -0.2770441642407309 -0.07312863190075142 0.1822038486955233 0.6281559067481437 -0.3543548457484095 0.14007506126818148 0.558301088291414 -0.951291069199042 0.8347691383420803 0.8963629896235138 0.3397923712972885 -0.5392799753757037 0.9478771075249632 -0.5512499531326926 0.19982971930391533 0.010086302974351953 0.5159327679026856 0.613396258540038 0.368669604551218 0.9377696163384395 0.9602036682450544 0.274859301782932 0.3034286000604812 -0.8895244669475492 -0.014839636878124776 -0.28834260079065444 -0.7726321246049314 0.8177742396365295 0.6731232856664766 -0.0030250587048048084 -0.9597700761480091 0.9664240454241526 0.10554739326799265 -0.6929485209618393 0.7666492245875686 0.6776083340211416 -0.9067267983050165 -0.2893426031995887 -0.6266111049490809 0.964402649363284 0.829986886039874 -0.1594273982916565 
-0.3172422016277525 -0.05117464010558968 0.7446010895225129 -0.9956108469252541 0.22230137474626763 0.24401727124523162 -0.12089351372851699 -0.03162606664912847 -0.7559542042268281 0.6501839733271743 -0.30916640989590094 -0.9156889285534758 0.19838574272737766 0.644285567139611 0.03418834513583347 0.35984238955175274 -0.2729511499063053 -0.4444292616356862 -0.8135653502951334 0.6445405913487182 -0.4716473685689337 -0.07360446809490334 -0.5530430682492478 0.935888917398344 -0.9367134075760236 0.4977818350055162 0.46645100058457306 -0.3878225329003332 0.5963379502265885 -0.7059682410825535 -0.25533104660005135 0.7372654301346517 -0.9279888779487658 0.44459016038642735 -0.6656500252627423 0.8881192537021075 -0.835030460785528 -0.6389354360504126 0.5302272126128672 -0.23455121776710597 -0.06945019843277167 -0.13066707407717795 -0.997278569666734 0.9223349422496646 -0.6842845320925419 -0.09121807487916858 0.34664049721567525 0.6990541695586523 0.13680027994971358 -0.6504567315159879 -0.55090996157389 0.6603329632032937 0.7292489066861229 0.7569924950987097 0.18155704138640857 0.46425819886217756 -0.18228633326885033 
0.9481105197518173 -0.07749074993953656 -0.576337727338026 0.37866759826481716 0.10581383253209763 -0.9890070942467458 -0.1937918797680185 -0.13416106844725179 0.3581445060476616 0.420435088282998 0.37735764821806334 0.7096478513057837 -0.5090280933796777 -0.37761844787437016 0.6358502223093639 0.09526809546737383 0.4161058892109504 -0.11207250545590514 0.9269578450316658 0.22701469890442205 0.2520764745045866 0.37216262901093833 -0.15121171142437972 0.8971121633694694 0.45174031672582454 -0.6380395687888295 0.0450660128237255 -0.8328782178127604 -0.22500661072611636 -0.3163137240321611 -0.08449042843730428 0.5282226886248603 -0.8111768235680641 -0.3652756811494069 -0.8846976686095056 -0.8000072486083031 0.8735878852031492 -0.610159200322846 0.1095758071582836 -0.37174186162269257 -0.5512922220832921 -0.07621111924670085 -0.7669481288670157 0.16231336032195928 0.20639845228693243 0.163475767520499 -0.7060881678726229 0.8343056300819938 -0.5078338253852911 -0.6268534717368199 -0.44930365935529604 0.1004108397123546 0.13062356931720626 -0.6516759311315881 0.585102805570395 -0.9339393413887745 0.8963339607124878 
-0.388043285995584 -0.31020821462887793 -0.5418275904927107 0.7629496304176758 -0.9070651264485645 -0.3562347307668497 0.23243260453910664 0.8583008686268945 0.3733300959217063 0.9218481579118766 -0.8557270224704238 0.10078132997894386 0.9091740974254056 0.9698908147429546 -0.7067625652608761 -0.320140150402874 -0.1100088228171102 0.5416220346791544 -0.99513679335328 -0.5113297443033399 0.021291345510659965 0.8740382318840314 0.252442038035673 -0.17949003563878757 -0.636869503227412 0.14280749282090388 0.19059018462625563 0.6542683655286254 0.6118552445347929 -0.7540521402609062 -0.675198800239452 0.8150808932820122 0.026009969401799577 -0.5361896414583087 0.918995036733831 -0.6231267278830551 0.9332871130590573 -0.6026365376554409 0.5982937867402627 -0.19018233774521903 0.013632406799385686 -0.2946545518282787 0.9468712776459532 0.2941868269315269 0.8563939943970512 -0.9306745463971546 0.19650993433504205 -0.335849364221348 -0.2921258306092392 -0.3944245949904734 -0.7330815609091962 -0.7961002691966474 0.11145717339221323 0.2821110164864883 -0.34426481361196865 0.6730575714815978 -0.7835972095878154 
0.98455966418854 0.34036274300771246 0.4665005371222956 -0.5443626200108009 -0.24515148137235795 -0.051074938256870865 0.3263652898929327 -0.7375930113887517 -0.6261016034428435 0.6600539431416231 0.1285847058167464 0.6341426280528637 0.004755261126626576 0.6117715350141062 -0.6434205867550028 -0.32607820671243404 0.6703833151878641 0.17572240318927884 -0.08116181441768014 0.3023635306939169 -0.24836028625166495 -0.5560578572295404 0.7901485581436012 0.8389413484958669 0.7948756009470933 -0.7692270712704401 -0.44619218481833783 -0.3619877694020626 0.13760980672761125 0.2575484876251013 -0.2363156793941391 -0.13535410651563648 0.9033072269623961 0.0606400402354956 -0.17566236979114308 0.7605280779131262 0.38686154483139223 0.1871305413293367 -0.4166827987511661 0.689022458869407 -0.04921169434251608 -0.9008208799131967 0.5604645201434697 0.20122975805077306 -0.082916227622226 0.31575189326348996 0.9668378259218705 0.6709845101799607 -0.800528253509063 0.8733652868665277 -0.7721292023862187 0.5620023052069311 0.4145613460821723 -0.4050762288790077 0.4040119959924054 -0.6824296544492531 0.012530448322170522 
-0.11498700620497468 0.44484661210969073 -0.15324704894941515 0.8285955803774633 0.7446901095374453 0.4521086501740003 0.5183309568310949 -0.6430928021540989 -0.8185533386542553 0.9052610034517722 0.7119130837609643 -0.856285354365052 0.6757669029348848 -0.16288565434861285 0.9027495782292557 0.5500348893778577 0.666250057886494 0.040603526418691145 0.2535007229180351 -0.3181791998986497 -0.15751194843803215 0.44880171978069067 0.22266388321869052 0.5323776763461632 -0.8873092457106188 0.1290399973916788 -0.6426195377358547 -0.7105275639019948 -0.9172645686571429 0.29782601600000613 0.8792048089695701 -0.7466330596235539 0.1702248729151544 0.6527522633151016 0.4140544413973115 -0.012505611895634667 -0.2374158029496479 0.22674490542370068 0.6017302274216499 -0.19935865236064174 -0.9548824537741811 -0.15829796463076257 0.4455269915710573 0.17534036027852598 0.5120608911425377 -0.3944200992564921 0.9601741912596665 0.1440083119587874 -0.7549137998374041 0.059519806021421796 -0.8514585005981161 0.1799690898073919 -0.046508962298711855 -0.8748183060773792 -0.311753175924378 -0.3934071366774893 0.2736464968941932 
-0.7072272285661598 -0.23242167508392872 -0.9971035136398784 0.6722785436486646 0.39577619603334635 -0.17941807762770293 0.13217661641007994 0.7380725084245842 0.10097582063891136 0.4516154061890367 -0.8255676438784693 0.1037746086349606 0.3534445263798622 0.4020592406003062 -0.000484155239983759 -0.030340066112396084 0.888128069591891 0.6384568109170972 -0.03847906254100983 0.5348569360692741 0.21898350976832318 0.9808081019669738 0.8067088495343485 0.7106461494312435 -0.03791303640519675 0.8368043892919532 0.49679879171287866 0.08064056505739386 -0.3466348419724689 -0.244936981027278 -0.5076575747276516 -0.6916998836051623 0.8422470609633814 0.7226234182859769 0.7019183180078687 0.18297467398181122 -0.378644252636721 0.638218092539035 0.5783554820082554 0.2372576570016969 -0.9770031495341116 -0.4652950115889978 0.7422058451406585 -0.9657445514217722 -0.6662128269426145 -0.32385741917941524 -0.44174812276366093 -0.6631782622207401 -0.07747770307134749 0.7089491318448339 -0.540379063624626 0.2995301525853007 -0.8536205041644398 -0.930956263742836 -0.3993340384625283 -0.2842204826411079 0.9547329962531715 
-0.9694347461594918 -0.4158837002788906 0.39937946388090295 -0.9493808430343332 -0.9961655898995829 0.8840749836224027 -0.1852282933100921 -0.2091967892307626 -0.6541323906413776 -0.5911599762461812 -0.36905118107167534 -0.19772334059216576 -0.42737644990514967 0.3632435666345112 -0.6880785094955365 -0.9823443450076377 -0.021892146998659184 0.6085983066952492 0.8757864561171509 0.775116556874557 -0.3792950332283783 -0.06605421940315857 -0.6954596293482989 0.1222990905345439 -0.7531724753918102 0.928156515759589 -0.09755136767819758 0.5744223018611465 0.4761055161002396 0.7792990287862612 -0.6749008319825438 -0.8884430913554441 0.9168011974676015 -0.9318938945271278 -0.9338187893869477 -0.8770599754555783 0.37725855074629405 0.23210955093184651 0.6483798339677297 -0.5209651402594331 0.4052448320187939 -0.3130830108732871 -0.5006321431811195 -0.331624766395052 -0.2276682173304914 -0.288591763935389 0.40871480972531654 -0.06442326593271586 0.9867422289450439 -0.8752893277348336 -0.07820781381735828 1.0237826149299458 0.643280934986164 0.25615749508320873 -0.7473694368774603 0.20102955935980235 0.20365064180982803 
-0.3999332705056978 0.3200010582547625 -0.8095176353779044 -0.5467361204282085 -0.46508111368188015 0.9699780883991833 -0.04508405702484727 -0.6465656244871372 0.23655157187426878 -0.7588446164356967 0.5299031143247235 0.9465085557038332 0.41052857819737976 0.691080061774008 0.7283209113506128 0.6593807787705271 0.7991082439769345 -0.6992285833378752 0.17450370701500542 0.33185287020609366 -0.11634765529870311 -0.4470983740851596 0.6957876675529325 -0.8172262939651382 -0.9932501174367364 -0.6506283397204041 0.522456138600938 -0.6017954547917119 0.2411934207962581 0.8106171936419193 -0.6141815923870141 0.761682038261573 -0.8832473136444366 -0.6142998842151735 0.2748537416725121 -0.8453357591568814 -0.7714849989390156 -0.5774485320964211 0.8692557954701882 0.6113646508158622 -0.7179291857621387 0.32779157181527757 0.7511750621362425 0.630326166152369 -0.48788813042458273 -0.03006641827410201 -0.31643310418055276 0.5444087202372394 0.7188514659339336 0.10130779127396254 -0.8565457882168976 -0.41120442058031575 -0.5692066291084238 0.7342132106115595 -0.16189841607001457 0.08193630143014262 0.06763088792582302 
-0.5291895127897108 0.18067515914279086 0.9610980778130237 -0.5268317469212307 -0.19534427501672294 0.4970693369250793 -0.6139284432789123 0.0030353879925557933 0.8657762782566311 0.4435879508108403 0.7113760122407119 0.347320019151248 0.7716960571012668 0.8396127218451191 0.27836311768338984 0.6503210220703751 -0.5883053195711293 0.032884598407763234 0.23129181636097781 0.2704215985364519 -0.8588319888504127 0.49233952510568973 -0.6981884117602553 0.17085555550012535 -0.5677066529471189 -0.19018340399583147 -0.4925091253264972 0.35618002776450536 -0.12899316088662263 -0.8472542859078228 -0.37619163873065214 0.5502718061699042 0.13582880004695913 0.9865845087224016 -0.5816862959073907 0.17203052791710904 0.5442819042547856 0.8214695414358851 -0.26299834312326115 0.24319266868857362 0.08601267224921962 -0.5059607936439585 0.2333244401958953 0.647088086709774 -0.08622201656806326 -0.7104013157381669 -0.022317581745139436 -0.010400964134615682 0.6524954272351471 -0.09209863983169304 -0.17154247163776307 0.33360404207246036 0.8281419995139984 0.8946902532264934 0.05542459728445033 0.7152714460229322 -0.6433283361531066 
-0.6131644079735972 -0.2945017172862215 -0.14753556850250465 -0.7688078805437758 -0.2516801057986935 0.5071862510900473 0.41470957525925334 -0.4413346580754788 -0.17751028616910036 -0.060660430537894806 0.44864532382200606 0.5758055643447987 0.6181283687861113 0.7410681283735631 -0.18047917467017155 -0.3847282730084229 -0.6771541764495272 0.036848470809888914 -0.8125484216101524 0.11491013081609708 -0.10342736241183863 -0.5739613010451942 0.02917241155492031 -0.8059135771706981 -0.8726255664476384 -0.40836130744827454 0.6816527804591335 0.45372915981413414 -0.19157289297313673 0.9547290419347475 0.021225599009041245 0.12638654480106462 0.6299629315316423 0.5558572317916459 0.3151176478956024 -0.3215849423214512 0.18120373734504325 0.9238884583926672 -0.44743253518132103 0.20273197867307693 0.38288749663777577 0.8903409970549333 0.9191245574547275 0.15890144506140513 -0.44545734571872947 0.744902872840986 -0.41156035483618825 0.48630141075421784 0.007473680402554216 -0.7908326475188034 -0.4028056714014035 0.7911478850606735 -0.8478624677518 0.6537498885806451 -0.5627120675309905 -0.5572665529304006 0.8338506696874219 
-0.2160392383751171 -0.3473713124587707 -0.1012585919246782 -0.4235075205406409 0.625428424264122 0.7637237810759039 -0.37537377210278855 -0.22046388298065217 -0.27186365952973784 0.058152076593601866 0.15291413257585032 -0.9376394132187624 0.7308063784290023 0.6226074950326279 0.3698339788998438 0.8568468541661589 -0.12541970040686423 -0.717944566655815 -0.34914829726444563 -0.4269035885758584 0.8289472020785696 0.3962557846040932 0.865231678485663 0.9000960168276316 -0.48639445799121445 -0.8455603974042936 -0.2150185223629333 -0.3119329748131357 -0.8099919374135673 -0.3601099988064449 1.0210372895197868 -0.6410557729582339 0.742000176019799 -0.7412704042983945 0.7470929279553403 -0.20487566198702903 0.5252998661961957 0.6945678139528877 -0.4080011017909186 -0.06839508928616218 -1.0897109314396993 -0.8743111385975306 -0.7028458709384879 0.22073878856118176 -0.7478827019597816 -0.6203669152809406 -0.8153344016981493 0.18431038700904762 -0.3190532863083928 0.7288417114458284 -0.07857417601583663 -1.0103370427974852 -0.5097913912659396 0.39270264595665366 0.007243604660977514 0.41916125412579436 0.3243027993403026 
-0.2580751459419122 0.8102013739612405 -0.9588506125743969 0.09834757605065975 0.48427478975870103 -0.20346039263179716 -0.06519195911201085 -0.4983747432319522 -0.4288571072170003 0.6724674309395317 -0.3375099656573774 -0.31211316653811694 -0.7082656636963333 0.6052368604033435 0.07550458871966358 -0.5109576338020458 -0.6744977823379507 -0.7070841060632564 0.9136524206611427 0.711754070298984 0.6528224861273231 0.4645940753860582 1.0139759259918733 -0.8265814483833207 0.5729972027247561 0.23415695895028502 0.4045851822441365 -0.7784105876579942 0.8176730219251118 0.7830140317772796 -0.39728605455424704 0.44998613931156023 0.5879154317026114 0.16284787105406393 -0.7005246391181195 0.8857045787383968 -0.2006539281875487 0.922056693043094 -0.2670621827450775 0.8534022324438356 0.7407783540015875 0.9784150670857671 -0.3157080738034916 0.5258416151414351 0.8587787037106045 -0.9042586137149506 0.6365119289046246 0.28112704413532735 -0.13699489451197747 -0.7364351095388109 0.01239989867998082 -0.19016242450480053 1.0298365157537088 -0.5735888523246533 0.8198107341342097 0.14932051308145053 -0.40558064186122417 
-0.4338862713074649 0.062117040044413846 -0.7459421569243206 -0.010390089640948992 -0.38036683407168076 -0.7475774577079768 -0.9227321614004107 -0.24842906456579006 -0.43757566952909455 0.9979573517977895 0.24090327349763804 0.5423539469013932 -0.8164468432623635 -1.0479843265006725 0.7430531375917685 0.6759399939158756 -0.5027950945620749 0.30429330012606465 -0.09571658048369515 -0.2401567984687081 0.7169367289495859 -0.1676780926064293 -0.30445326306290543 -0.01545925715043398 0.20443081131499455 -0.1826397094554695 0.9183981121838026 0.48114178045562395 0.5058545638672941 0.18633856797763176 -0.23185635961544712 -0.08505921102338945 0.9550531289170107 -0.35305622895230654 0.8582935809459442 0.5490069514271684 0.5389758343753964 -0.32176550066845866 0.7392742376558108 -0.7973833144399973 0.944407541134507 -0.2976335163431297 -0.47392628826053085 -0.3755236913132236 0.09017567151549578 0.7696420337065492 0.017483387171747543 0.2870946388123392 0.25305540565757006 0.5505279551606548 -0.8211323547266292 0.30282594568975335 -0.7058511608283843 -0.13332267180584148 -0.7236571048831585 -0.6564979706500041 -0.6489656431473927 
0.2504604412836335 -0.06335489381975344 -0.5834841516042124 -0.14549354593666866 -0.08174904207407796 0.42349971025729055 -0.6578528268340953 0.16810693956207634 -0.796323298257285 0.16414094560349088 0.7620409296723901 -0.6701594914658966 -0.4122372928082506 0.3158404824512722 -0.4295033954082783 0.9138179329659306 -0.08469149147327246 -0.9115556949087145 -0.3532582178689652 -0.736033686401295 0.8214273903712612 0.8937315407514402 -0.6431433153227009 -0.4415316658025783 0.8577321070569323 -0.8886513217117766 -0.042070204796019355 -0.6235997852081343 0.24916867210291718 0.7656820180337301 -0.8946870549582862 -0.3830588686289832 0.07157036750468443 0.784852496218569 0.9526459074748358 -0.4510726380176576 -0.11793150516234677 0.4157385997372476 -0.40374689582771117 -0.6320803064470865 0.635194114631445 0.34046328055168573 -1.03641853925348 0.3432835052131456 0.9758784427939492 -1.0253134351241202 0.5154621435829788 -0.47644231382891017 0.0740588846484472 0.03625852004719481 -0.4302316298320421 0.27888851362162986 -0.9800467140599589 0.3196551643141697 0.17334549443361416 -0.07970911460249025 -0.5898316149825044 
0.4908250864068679 0.9273520042080219 -0.03020032275369884 0.9762975375891695 -0.6012690342864079 -0.9433341108264897 0.2207057269739596 -0.8096595233591971 0.06026302209935953 -0.10061718956031689 -0.6334402786449891 -0.8984367100428546 0.6717911256125657 0.6237894730751699 -0.5727327645096402 -0.07129954827815523 -0.5570357869166663 -0.06962870954830379 0.49112454069917594 -1.02844057273196 0.6083086255619679 0.11987622684260267 -0.965245025396821 0.8970750612237007 -0.38247023281156817 0.7207437032000511 -1.0022829640898343 0.6138686605570505 0.2344678977521467 -0.18866466767667472 0.6691892559550341 0.5707822531214835 -0.470907074904457 0.9182120886660241 -0.8037629300584294 -0.0032491319917671204 0.0024143654379312545 0.8392446361322824 -0.09600718858378654 0.24751798156397697 0.2409108137485669 0.2833269798804019 0.7167627826111609 -0.8863066220875893 -0.9744560223601609 0.28893121293948065 0.13429332022614726 0.7542110975036123 0.81451337926038 -0.723370304063039 0.5171985281759868 -0.015478995335292234 -0.06980433190482062 -0.4663117907671103 -0.9045354663770705 0.7324069274137642 -0.10360049777690478 
-0.08445504225822725 -0.6508608566704809 0.8099958748088678 0.8953991297864776 -0.1530208572210674 0.6581706990741228 0.8652395574881061 1.0494172521806822 -0.5487390485852534 0.7524233190347664 -0.6176343444582395 0.5884227780495876 -0.11202199596797315 -0.3500951819594762 0.2757132023380465 -0.21217904353212413 -0.40874488383923036 0.5747251561419199 0.42667131573646383 -0.8949920742196726 0.34286494157748965 0.7888422839575154 -0.8837773638075348 -0.9472505706039326 -0.0008134309404429896 -0.6723737811039351 -0.3936551134502898 -0.3204758282591805 0.767857799231237 0.4451814064582944 -0.3744077092240827 0.35350275165097567 -0.9248817352756767 0.6978516844024867 0.8016029830201981 -0.7487058722560537 0.7628922487695347 -0.9790922065020231 0.7692547043909888 0.19276293154523194 0.3915053952501001 0.16922590550577332 0.9338072683435156 -0.014008803311414417 0.9689898371788702 -0.6869608622130746 0.5595353172717314 -0.8412531731107572 0.9202610935290803 0.5093375745499205 -0.1375572566120665 -0.755269332541044 -0.4299202873667761 -0.475149280302044 0.66247738424951 0.5159417801673973 0.8036610884289822 
0.5323688345765716 -0.0709842577560933 -0.1350023264207285 -0.44068091615267035 -0.452628322387668 0.029859941060196227 -0.6932962875056777 -0.5471678962390268 -0.8576241670899936 
-0.477663503159554 -0.4446741729396484 0.9277148581953631 -1.026147113709943 -0.9342819103783956 0.21335158467670434 0.23724507461030245 0.011244696992286758 0.22872863187897896 
0.19563595662269448 0.7190807009129875 0.03378222070048765 -0.13223100703377 0.906888479914556 0.31620873025503454 -1.0555048968603158 -0.939643454926254 -0.3442543096767072 
-0.7555378162827667 -0.30388453815365873 0.6646945811863249 -0.11018674723735446 0.7030847781842411 -0.7643362450172398 1.066074620224423 -0.2786896098591311 -0.11017515598279676 
0.30031746025864325 0.5671245230665092 -0.27632772356136753 0.4973002553294655 0.6291722330022719 -0.22576608358722397 -0.5799823055954995 0.8575415719373187 -0.41119364924682844 
-0.24177462490539203 -0.2910753087902611 -0.7365568413084773 0.9606409460455795 0.023097976377577566 0.494167308106613 -0.7275025270183098 0.5889998236043613 0.0718500774317882 
-0.5155664967750687 0.7909078159008942 -0.45908618520504196 -0.3571569280098987 -0.22073902507238585 -0.8037866719911911 -0.8134410446016257 0.3840495947554037 -0.8560278806286945 
0.9076397058118311 0.39194779759436804 0.7790244768128461 0.8304467249386637 0.07286508711305452 -0.6210759593433585 0.738610075592497 -0.9571983849183917 -0.11846940096149153 
0.6225961776790607 -0.5589897873208916 -0.6146221662132109 0.27576383580291186 -0.3399910765870118 0.37678291932267904 -0.050572948810429966 0.5805813349616336 -0.15971105851513365 
-0.8755289703878659 -0.14268062411862562 0.11248494467771418 -0.41154322120049525 0.21345210022817823 0.6068879025562044 -0.6217353023685434 0.4198504476510038 -0.6949679410362815 
-0.5970345948452764 -0.06984842895860656 1.0242245296404902 0.16412136777218414 0.5283388123430647 -0.13067185478500212 0.4962104868923257 0.35924803740471084 -1.212526070568083 
-0.15825533661590221 0.8556334684766468 0.01849501526360323 0.24411700240586195 0.20666805788995526 -0.6424504109139731 0.2570620744647067 -0.6681564540394606 0.3251748442061398 
0.47729563263886093 0.30779249552150223 0.7979373041091017 -1.0049202543104632 0.20826008136162485 -0.2330726050670245 -0.6023293463981049 0.04729323197423706 0.011084999186158117 
0.8823443315099933 -0.8023904482995906 0.2934735399392083 0.6689476540027522 0.2215244868454906 -1.1343213928561486 -0.736331775009517 0.8866069963426689 -0.4478324744962232 
-0.5482239318673671 0.8988427249010703 -0.6771762169755248 -0.09638466391111294 0.21302470221982672 0.2583176079381764 0.620339545311405 -0.03576676418497882 -0.8252808907866428 
0.15076814950027345 -0.7572654715647316 -0.9324362336259896 0.4023614009113803 -0.3578318708892774 0.05213771695263495 0.36743436108893246 0.688507448220964 0.3565160519628011 
-0.17706833438479763 -0.11954091749924946 0.49339959508257536 -0.3297986877989281 0.037559734798777306 0.9934116085348575 0.7657312411800066 0.16249263085686738 -0.5139455269939578 
-0.2691314524660339 0.5362100547245993 0.625788843897478 -0.6662653156246933 -0.7464212526529339 -0.5859396314440828 0.26679821180618823 0.6804408418501495 -0.6838054765531227 
-0.26785142376475074 -0.5649717698807988 -0.9643058703742516 1.0332690740363366 -0.23837385976918946 0.6511289687498488 -0.7090652775908632 0.8905145053756449 0.7455262029350055 
0.10732721551483537 -0.5239566641639641 0.31105944578677197 0.4587852047707594 -0.03356558694266712 0.4915829443232347 -1.1230862853383854 0.010965445904190208 0.24597661914352328 
0.4219225556535475 -0.14380529929333627 -0.8698483311531434 0.5227986121177399 0.4092108698470945 -0.41867914729228783 0.36362678235877055 0.9533594555035045 -0.2288708413018817 
0.1956650156991871 -0.531902343259201 -0.3653089950421165 -0.40939917679065313 -0.5714917356712149 0.5495867494767478 -0.3664426854441889 0.20711070934826722 -0.3491223710398026 
-0.32311619253547874 0.5091724833973622 0.6722225505738267 -1.0386767828544685 0.005326515150254976 -0.3166489073157301 -0.7076240333250444 0.6877502609879855 0.8345807057632573 
0.19969676032458028 -0.1065823168342763 0.9866384778507791 -0.8036417659913954 -0.08504790522361116 0.01977071304545895 0.900134836541681 0.8520326575284652 0.9715580539711309 
-0.3171175808090234 0.7084077605805975 -1.126100635759195 0.3856117375244771 -0.12454911745347354 0.5399372572772687 0.47955392252365286 0.030855343366392205 -0.6086638282660444 
0.7203690603400129 -0.8619898621873716 -0.883961869811986 -0.0327020251987243 0.9466483114952735 -0.05958673684508918 -0.7749645158118846 0.46555108322365635 -0.49698022324100505 
0.8329100232445698 0.9272773881081853 -0.6554652412180532 0.3556954589327072 0.009977063962240103 -0.838270786505715 0.22504566307925677 -0.8087837454006311 -0.9968851173657397 
1.0013065404626822 -0.44350551451815007 -0.32588447874585685 0.3946332251450903 0.113100083542235 -0.41367603198421904 -1.1116215999967742 -0.16539430571625072 0.2108617332735881 
-0.1770017375360615 -0.1288634632424934 -0.5975848475713059 -0.03079590141523822 -0.4101231763958697 0.9109078355341893 -0.617117580665504 -0.15442105739088424 0.6258240976930616 
0.8629538796221742 0.4336625650337703 0.2198154519771604 -0.7944886626166142 0.5497826723012698 -0.8283576467511814 -0.6340126613980782 -0.3782487747112172 0.21536731359049935 
0.43388392952942517 0.23171478338973733 0.36865651125352344 -0.6280649727269081 -0.25271435944281306 0.5666046592154053 0.3104976258808311 0.956757147135427 0.3646537310756746 
-0.8201483448819711 -0.5791649969863107 -0.46342362918458546 -0.3386201947129312 0.32920556854898303 -0.041825361456181556 -0.05138860762456737 0.1466750605264249 0.798334984483364 
-0.7929988527605673 -0.9368439148027593 0.055018070891291376 -0.4257222228501625 -0.9148951394251263 0.6422948051061163 -0.8214880215139847 0.6437097115954884 -0.9385883487299594 
-0.516010539845202 -0.7178638936810453 0.6015005867742872 -0.30019136541685787 0.7784579641440058 0.16027974649314636 -0.36596351171392455 0.15324045055577543 0.04179349705612098 
-0.6217394954888015 0.3871690118305391 -0.7563967833836102 0.20718161589019218 -0.8345703129770133 0.9162835804514725 0.6149847273580877 -0.518550973341083 -0.5337848315148987 
0.533295796128244 -0.5204827919252759 -0.31677895840750764 0.7087766981719904 0.23035029970157037 -0.7426661795410692 0.714646847886092 -0.6625355118183452 -0.31347302894973783 
-0.7221846299241259 -0.4642136805976828 0.4946599083370003 -0.22524941829155948 -0.38507891846215947 0.1234297028645891 -0.6765820316806551 0.062070383812661854 0.27527956393295183 
-0.2576597490674317 0.6143711985991557 -0.18948538741766563 -0.43293059718181237 -0.13990278508540954 0.7818737028542477 -0.11732538560174545 -0.5575853396463605 -0.028403087998566813 
0.21958344436767846 0.6296870714183698 -0.49024886738309686 -0.8320778450929484 -0.9369870343572437 0.28018073600045923 0.9638462775866438 -0.4860187048052824 0.7076058843987454 
0.7865523309327892 0.39770660076530123 0.7518878738218331 -0.36656040247263477 -0.8684274315083049 -0.10957800242545784 -0.3580240560102444 -0.9586340381540012 -1.0723978146717603 
0.733893310975375 0.42627763944649627 -0.8434628558053975 0.0958741719686522 -0.876818260570813 -0.771382283209741 -0.8589812584338172 -0.9177475174391402 -0.20903048566275328 
0.015864582429649426 0.37343027608690843 -0.8710254713689616 -0.7632798945834105 0.9736856062707111 -0.5953132071778614 -0.5762816762742949 1.0615799287584287 -0.15072719913757357 
0.8666796139993392 -0.23516104694563672 0.2749648641099574 0.6966904996556027 0.5261154150648331 -1.062341729230397 -0.6181950542091835 0.6272448233375862 -0.9822147268507965 
0.5062378218812437 0.9606157951436424 -0.9727472465918857 0.2717139093100577 0.0720892844711431 0.8293260073730113 -0.6721271601473047 0.10024663086532551 -0.9579862855885757 
0.3644818789713884 0.6640448741237975 -0.2358202692987326 -0.36347299623392626 -0.980228985249974 0.8501022386555982 -0.43446928380475863 -0.04112818862178169 -0.5161300651492429 
-0.14148167337945952 0.46748112590150753 -0.894120492787459 0.8116262637361257 -0.8471518212326475 0.187841997219909 -0.18676790689208966 -0.24041961848150828 0.3762076110626552 
-0.7474912104362911 0.46348357557792463 -0.09745681095629397 0.6989930127845629 -0.6964828395049394 -0.5036029867618129 0.09696348933351179 0.2822137157560223 -0.6210268559079849 
-0.4018918968497145 0.5488046576667253 -0.6720367947586576 -0.43165147334666204 -1.0037935744854007 0.9160234219137897 -0.3792425808091016 0.4476244587110506 0.2627260761585562 
0.19050666314793366 -0.19426263967662707 0.9346997243949934 -0.8029689198827579 0.8684153669694377 -0.6841445274779034 0.6311672003391524 -0.5208227349235249 0.3264589641186517 
0.21345916521706304 0.34161051122244585 0.48771928505941087 0.4243184707060584 0.8572904047040816 0.09604474482415035 -0.6979641182895538 -1.0352818566862272 -0.5770874414168202 
0.5389000888124721 0.8432850054448227 0.2570989039721623 -0.2279207129739809 0.28186535327911727 0.5709454908694118 -0.721828368534121 -0.9301306217312479 0.8601946739510696 
-0.6563885469332108 -0.4593629195044325 -0.0009340369051958739 -0.9401412523705955 -0.6194584018532141 -0.7093828497620662 -0.9781938428699086 -0.11704111673887822 0.766094527458556 
-0.6334711149896091 -0.4187078028268737 -0.9079050501808663 0.7935074963333503 0.5313761542632617 0.6046090946854107 0.9202026396167929 0.6288771614230829 0.5703160915833537 
-0.6978240183202096 0.8708199577317586 0.6717593552441857 -0.6651858908806824 0.27784448832726233 0.07336505991079778 -0.8154214990258145 -0.6405711985094644 0.6648924743687813 
0.4007789292598055 -0.17764012899434167 0.24503085739752914 -0.2959352891178854 0.033127382694970384 0.1566234866785709 0.5073087645858947 0.1871661591404028 0.669577426949207 
0.6263023325803981 -0.4351482758378354 -0.9891102445087646 -0.31395409916677963 -0.6976112612718696 0.674409326906598 0.8574091236983763 -0.02910522909973572 -0.8548981062482055 
-0.7316725414463496 0.2777285450299518 -0.2535062847733574 0.5915536521431323 0.8083792089258618 0.843377988598082 0.21198080024091775 1.0559087856633855 -0.6407374736967334 
-0.04639018627502621 -0.29051748413181916 0.4800011174941382 -0.8929239283914837 1.009601494058436 -0.9420545176023338 -0.17407902112322338 0.35888908718139606 0.4885255646084573 
-0.2654795827796193 -0.4924316378065324 1.4352852340628999 -0.5908216440816877 -1.0321386759539481 0.057748524492539095 0.5963506503236424 -0.15298968211321826 0.7449949594624239 
0.03446458721934461 -0.7944234453790026 0.8415738420413995 -0.2461004410759528 -1.1774982756527959 -0.7891569311501442 0.376180986921564 -0.8614557172370276 0.6061910725930367 
0.711625702570117 -0.7742507610763816 -0.25212461639622563 0.2033013044285799 0.7647383599430126 0.8964033014264937 0.674752151531973 -1.0452669001603212 0.3537943158257578 
0.04860565464439038 0.44410529074217725 -0.8715995120331982 -0.39178841260268554 1.1960592755262838 0.29492743965049684 0.7373913970885071 -0.8473588148620197 -0.6152644871747778 
0.654489735431543 0.5478050184810885 0.8052892841603458 -0.8538404593555312 0.15819134028525492 -0.562427060371772 0.522064200833615 -0.15346413021785824 0.5577393410220592 
0.3322393165403063 -0.4491601191999334 -1.5518383109446487 0.752375493876095 0.3863561178589929 0.05362348644919704 -0.7287678413505005 0.7348739005069332 -0.0019873316586042143 
-0.6440320527754576 0.6737372675202016 0.3578378066699221 0.689621191328569 0.502177044956956 -0.05074897191148925 -1.0252829124050142 -1.0357330696737161 0.4966965893967367 
0.49057385432287215 0.2964013291409281 -0.9415794316125456 0.5591370196478327 -0.0645733296178493 -0.5357311924103745 -0.1760509373636018 0.06907452110806002 -0.6598771768238398 
0.9370017111319989 -0.6280768921917038 0.3005506335224565 0.8672508678687556 0.2031302384353106 0.32351138440370253 0.806070179429081 0.30842106313578466 -0.5687652514863019 
0.18069941563246147 0.605782709848898 0.8137573349583588 -0.0983021984210973 0.945246483031835 -0.597228846016778 -1.056971406945069 -0.5217257367471451 0.727276340647285 
0.9050405453007517 -0.9111790427679056 0.6681790218387238 -0.4632553478868883 0.9072611317332403 0.7023952157611867 -0.18106388843786833 0.7907796657919106 0.5291762180973357 
-0.6403113957824941 -0.3883935970411217 0.74946824334195 -0.7241563565116365 0.5733521001572452 -0.9550536049852175 -0.2865009804296308 -0.25942217330010436 0.05287408492667345 
0.517991697759714 -0.6443205624997687 -0.857905477496143 -0.18297091396339138 0.5896351890283662 -0.4565575763544816 -0.7766615447121609 -0.0043085378752264055 0.24313897404221463 0.004042654466431946 0.43505351667037767 -0.7722643056506604 0.8961680281743792 -0.8455324270303242 -0.4520033600180456 -0.16148454949427057 -0.42237598959108585 -0.3191212013221171 0.8970688911123894 -0.14410559060107211 -0.12209093934062352 -0.8674929651359083 0.16485215996211525 0.6539350212943569 -0.2897237248136118 -0.40228025475300955 -0.7882039761117554 0.8641073334548887 -0.290321448928344 -0.3315424723669547 0.16050744350519522 -0.9139541600584026 0.16251202967797082 -0.2746143531662767 -0.9239016775208485 -0.16475663571327762 0.9218342144629904 0.48157453164915986 -0.6660317314147887 -0.059012022277070454 0.843883681101258 -0.8537384063421377 -0.2905695523669481 0.08228818436203679 -0.34910897571114163 -0.891335333255933 -0.5205994566424769 -0.5811318871274876 -0.868878481068991 -0.5372059543907635 -0.8238606353296195 -0.7229064697737374 0.43254724945197665 0.6752285806055647 -0.8918932368242717 -0.09066292640025825 0.30219966149316624 -0.17446787971799493 0.4005468929086034 -0.6180452602638979 -0.332512525775845 -0.09812236947019838 -0.48049506407631815 -0.8085964971874674 0.0941422883063336 -0.9782745878991759 -0.3073789246308414 0.5181763913845039 0.39342689028532696 0.36641385149895145 -0.7138807760257143 
0.5274664685420042 0.32022038068530567 -0.8117729717634744 0.8860131614716358 -0.6075939449795354 -1.393807450940649 -0.8655191234638862 -0.2997713736103217 -0.9387126256026159 0.8320815952909522 0.8953186068810364 0.7405218633672246 1.4371638765912882 -0.13377198476503852 -0.13283967491661552 -0.279382605378918 0.4143677126949248 0.36140128045788683 -1.1224852087904535 -0.3887204919127482 0.31510895001279277 0.8454566983485899 1.0614108619067428 -0.6997264521562763 -0.3930007105660129 -0.5333760931930799 0.20679315599151674 -0.04239293062340897 -0.06444851515136814 0.5290496547544953 0.6961160259009983 -0.7371730287481166 -0.03116647206065287 0.9124640698742236 0.6583999493975612 -0.5061638034473919 0.5121257020475746 -0.2627940549164591 0.6262682592127112 -0.5451808532972335 -0.36964408097713797 -0.6770844766961076 -0.484474648703609 -1.0946153836665584 -0.4024020532242417 -1.2344440323043249 0.4162593984832349 -0.6425187946836081 0.8895661958287296 0.16025441095165308 0.04146561853584908 -0.07746063299128031 -0.48708584101023916 1.181825789294616 -0.42596165385773765 0.34396658089144266 0.3985622389387011 1.232642107550322 1.5502016224355069 0.09111233374970237 -0.8241408541947087 -0.0679368026649996 0.34126073668262213 -1.83151030755855 -0.0031580398883907213 -1.187591866983398 -0.09454680601429095 0.02757667217591384 0.6052390347395322 0.26415349090323037 0.2990957343145178 
0.16617352130668944 -0.858618110823009 0.38616536121003975 0.10222529667490039 0.08113517983347161 -0.09643943972100143 -0.3597513848005835 0.3043626280503677 -0.23975387600084816 0.4118588503163429 -0.5458861020707991 -0.7661480727875877 -0.9043120564563636 0.3510855138504362 0.3171295707420916 -0.11852379461904597 -0.9539154099465585 0.9741930829261943 0.1624580694415996 0.6279604653618185 -0.7587556228508816 0.942830407431988 0.4283214985339024 -0.4780247652008111 0.8573431041560018 -0.8989601134685798 -0.6035737845986215 -0.6161447502465788 0.38737117257783166 0.20048425056643218 0.6963374730052613 0.9608203607085405 -0.38379511759120005 0.21648952654178005 0.2118869974036227 0.8455138004561314 0.3490930909382499 -0.73859978117328 -0.9875270438628665 -0.6115541178494691 0.19722346919072997 -0.7896575190878455 -0.3602665726455213 0.7203552468912673 -0.3452988613231371 -0.3440717680342406 -0.7379712280762641 -0.12004542817283977 -0.4830017569138434 -0.30397587709412044 0.5770027287549857 0.958818504201634 0.5464196972779775 -0.6955104100366734 -0.08413272292688632 0.025224185161756753 0.393847945388205 0.4853736716315484 0.0702779780419967 0.7973106067572007 -0.9759734565542697 0.4525006549796529 -0.6353329836725528 -0.7715786842933934 -0.5849853131109825 -0.3940881351585404 -0.8244472641955274 0.5910279103005684 0.576908503036331 0.21001337159820474 0.05143493859648135 
0.6584282610005215 0.45176884496821634 -1.0037578828581601 -0.5739144786182109 0.02871852565691481 -0.5204527158592784 -0.33840448506457566 0.8990458211790002 -0.6054460797288745 0.11171453454778117 -1.0773574194377737 -0.5812652609068999 -0.555301625929756 -1.2177952299363752 0.5487364322860696 -0.7597988481064236 0.9791877211257344 -0.636423605772764 0.857296038531815 0.969711580087802 -0.6585640596430962 0.43102385658668646 -0.43500899532209286 -0.8581414700112606 -0.06516804235375093 -0.9792709741254655 0.23548712864782537 -0.3062764264934086 0.8981345211985315 -1.163190790689843 0.017477133602499313 -0.25308044490369314 -0.9424516863098682 0.5389425207159473 1.2760788013901205 -0.794531481035396 -0.9369816197976168 0.7843474616071382 0.3992635215482883 -0.897483543366195 -0.8123938322903029 -1.1160113664184519 -1.077922481510109 0.34931817168034596 1.0352863463855646 -0.6438650158117907 -0.0666918788860077 1.185183127863701 -0.41470359889983666 0.049644938604627306 -0.5767898457121785 -0.10020507472223773 0.6080092187799332 -0.1609402364029549 0.9442795770006586 0.6922564938924238 -0.36924669789470227 -0.27163107402927417 -0.4589307299940611 0.24217890697740893 -0.1907291315179917 -0.04832990924288004 0.7451500519844063 -0.7941264737828924 0.6894099211534339 0.1329914368944088 -0.14356506427325938 -1.0871631784310722 -0.05255356650173048 -0.7015316908073209 0.3209214396366592 
-0.5336840757623197 -0.6313275240631288 -0.49583421577827974 -0.7874372288992395 -0.173980031340892 -0.13478012130513184 -0.6942080306406795 0.6368130567806959 0.3250506739455742 0.788314873942342 -0.8307388722779636 -0.3437839209369116 0.9448824800175497 0.5925379954565697 -0.6286243341560307 -0.3370132559579614 0.14445626738432096 0.9628577893562443 -0.47137051955140935 -0.4564873443363525 -0.49361571157190104 -0.9507069217648058 -0.275396168103074 -0.037147589545883444 -0.8263248836569591 0.9768334055541777 -0.5810234841074978 0.6984188903095913 0.7763896155124375 0.8450609138142621 -0.7818618203137785 -0.25673643969882826 -0.3347065014576272 0.11656977240938912 0.4118470914441479 -0.20368766534643412 -0.49560771968926054 -0.47920345135753667 -0.8290434015985236 0.433452858116422 0.9025641499985634 -0.13225529689107765 0.7532677020095634 -0.11225078208564525 0.9840580609497671 -0.6311310744944472 0.7542471734730358 -0.024832855071215094 -0.12017497465432346 -0.8798591979594217 -0.7786315240666352 -0.4283062115706522 -0.0053000052428129425 0.8564714748021719 0.333090429746977 0.5879916446625792 0.12802280153684728 -0.7325275849721685 0.8769589325509927 -0.7470197092035479 -0.954817715589247 -0.5340836702330223 -0.8556089101278888 -0.4713351785423988 0.7658640601063013 0.5065209837270778 -0.1992799433578459 0.7746988792094759 0.7734579294191171 0.44060391034284907 0.17425881380969127 
0.013679457192961928 -1.122641500962197 0.49336299682529045 -1.2849095759614242 0.6145654229199742 0.40272422916725076 -0.10038536298235143 0.6118587124506162 0.19330317262214716 -0.22371094174718964 0.20243727425486222 0.5415297342988021 -0.8471257585561568 0.29849631798171705 -0.8053792880945624 0.09368812072525298 -0.594833455492258 0.07286278724272903 1.325828841985539 0.11709179099877913 -0.29759744242958747 -0.16151331807781955 0.5678025112398257 0.5019491093832374 -0.34801026755578357 -0.015085226455428539 -0.17946004927223705 1.2014603655113085 0.3317561220992942 -0.5672510188888323 -0.27838112224654843 -0.8188203717364728 0.6872384660154652 0.8014933966544304 0.8364667639247055 -0.7467747362370719 -0.47955234575830497 -0.5083129484702675 -0.2355588146837878 -1.0726844594829918 -0.6638520947637903 -0.38169894159472334 0.5246430374999751 -0.18099518780303234 0.33864357744512613 0.5377405485807483 0.5221186398857722 0.15137845831577473 -0.680378068796238 -0.586614294966633 -0.2426579034764168 -0.49137789522161757 -0.7689441616322118 0.1099858254926782 0.26171416778773793 0.5319765658283635 0.4474119206601667 -0.9255170554659667 0.4386274053598575 -0.025691489237847316 -0.5019170454416199 -1.5425321305236528 -0.3523610961208537 -0.0828020819886657 0.7212496521582746 -0.5529251791324612 0.7144079378954813 -0.20000604243653458 0.29065441827498806 0.4851695735665373 0.8426283309700617 
-0.06215480167320086 -0.33681311904680195 -1.5333972027896 -0.7730189458904253 0.9803816576376061 -0.8973678067066605 0.34221933110275077 -0.2607999687933169 1.2161914703982266 -0.8199463717361765 -0.5309907816966543 0.8424290911143933 0.07806226321207857 0.5695985818272506 0.8517429667429604 0.9263451077939551 -0.564367568300107 1.3815778280708833 -0.3590893766589599 -0.4131559411927279 0.3007629174011571 -0.5567293747154811 0.228706577337308 0.5175762253276001 1.144626890978592 -0.8688079624710708 0.6817531856271963 -0.29285524160990056 0.1359160429559035 -0.7478276676561466 -0.7791658494137067 -0.29965454251200596 0.1937649692638978 -0.8893322304883968 -0.274948101206323 0.772215924428454 -0.2982202655640629 0.331898994490014 0.06333672216058918 0.7320867564526701 -0.2876376473586901 0.9722652650655824 0.45572032455168343 -0.8088648550182983 0.9664122069539207 1.1246261395249313 0.3740192412649804 0.6089095322104708 -0.40137928150107677 -1.3220417436482397 0.1742536653394692 0.011742305798776753 -0.23988014082807346 -1.3254064970562247 -0.574681170870644 1.2730712877411967 -0.20416030441935956 -0.6683308378325665 -0.20475237970576435 -0.3010715248908364 0.046602725345663856 0.6083232173800782 -0.3636045319130183 -0.2599214521964075 -1.24944386782397 -0.22710428902431118 -0.18945516710330823 0.029610479346006576 0.7805354030019439 -0.601281483233156 0.7798192858101792 
0.17344729882430007 0.2451821365000979 -0.5598927965218735 0.43431960391680147 -0.18052874932311244 -0.699672595181782 -1.0286617556716369 0.7431945770556208 -0.39978000629283483 0.5431188252186665 0.7977824748209856 -0.6840273361875195 0.562094102939364 -0.2992300765610322 -0.9988430834645227 -0.2457605751554424 -0.31302672088811556 0.05732549307051277 -0.018520486225271988 -0.2924930870795689 -0.6592813064253175 0.7707968833348997 -0.6634569071101591 0.10586545076816231 -0.9883776520420507 -0.2640949026236591 -0.6135125712065183 -0.2982627154518508 -0.04514641514322673 -0.19401566904510187 -0.6812337781546985 -0.42923460533478874 -0.10958933905721206 -1.075230223003868 -0.6347488839382699 0.16523199798890476 0.5792351325496249 -0.42016440042554964 -0.20880550010319063 0.654021693282138 0.2652233309760947 -1.2680966299354197 -0.5319925108981434 -1.0441566335186334 -0.28716691688357854 -0.9106469644538848 0.39185125192829934 -0.25795097637095765 -0.08644823656283389 0.21206161196492762 -0.37048808271322414 0.9673068853576223 0.21596878472327974 0.3544500039662364 0.3422744009750717 -0.4927159174563012 -1.4141960533593443 -0.3537823020832066 1.496951287335809 1.676201196223233 -0.3083944242817859 -0.2452478410690467 -0.6908419781413453 -1.5072523038591676 -0.27834983193193213 0.18029786414039428 0.2569641850321989 0.14083500168386118 0.047995641840406 -0.6637435553535591 -0.6367801471791008 
-0.39292793451600655 -1.4929052409217274 -0.9293333333326056 0.3569901140617602 0.11016188693046931 0.6514502687472339 0.343565366574205 -1.258608380743389 -0.5862549146411828 
0.3410476853620935 0.16984956792174455 0.7466329016737345 -0.8971569498560771 0.09215535265522398 -0.7980881343328774 -0.5900358651956159 -0.32023009034919403 -0.47789566871337225 
0.4737926751918474 0.4499958804600424 -0.07819192814578825 0.030961077856609735 0.6451780164326363 0.4977190071926007 -0.9480535679185851 -1.1442876146048668 -0.7722597765820499 
0.00893505359242799 -0.3931933436430721 0.900972295101244 0.36241926057983925 -0.32831217645009314 -0.5187442954752353 -0.7189035492368123 -0.4132463041331423 -0.871623029393996 
-0.43551301864900144 -0.27511920315559707 0.15116157908828817 -0.7359563902885554 0.10618156307793122 -0.13434552700356367 -0.8093330472930386 -0.04413576421293129 0.3870546696203209 
-0.6511485408735511 -0.19855336119572475 0.08251080855524874 -0.6784031300730656 -0.9838590839897403 -0.6323361141777308 -0.47640809925108085 1.4180881182996485 -0.3691883555846554 
-0.18259171979991676 -1.5067577453826704 -0.9447782779434832 -0.5008939751090513 0.5049433758187304 0.19259730399264444 0.4847561435507244 -0.6489499479455104 -0.4051313932096824 
-0.4975129125969084 -1.5024599772282705 0.388196126805366 -0.19716049809477748 0.8642905644275601 0.35856703618673397 -0.3462653136146507 0.7870901553252874 -0.7992102121215223 
0.9600811816374892 -0.795545237909075 0.3646024797415119 -0.03456050886480189 0.8898058602945575 -0.540003519992574 1.0510265285268876 0.2823727724620415 -0.6820993689360535 
-0.44309639494779524 1.2673203861997446 -0.7521599698317486 0.4075328002892634 0.716377997954534 -0.42251709126639014 -0.7638304859654508 0.7671127158024448 0.3600759287153735 
0.2997544046309314 -1.0173278271858959 -0.17341172882376138 -0.529383785702159 -0.06265242878605129 -0.15818474004774494 -0.756960120008032 -0.21144709235666262 0.499412638743776 
0.5217365133178553 -0.4484378928148265 -0.3002109117104212 0.3866580457404705 -0.3186489913603186 -0.6679777489728349 0.2823753330919499 0.2121011582417849 -0.33807772328284796 
0.09493907106072819 -1.0039466562674668 0.7420075577839783 0.36571534877534706 -0.0040122692929419985 -0.17572317925520958 -0.15757695566195193 -1.3507844601503896 0.05995933061963823 
-0.3591837116095243 -1.5014304340740907 -0.7599881177202407 -1.5845842079591739 -0.9440817590582464 -0.20670640605499171 1.0381670062674349 -1.4003562474653446 -0.44658299452148165 
0.7900271131610576 -0.25406114307689814 -0.6336759423261368 1.4628429204601308 0.34006279617218366 0.20808357968354055 -1.8505307697639735 0.379351838499185 0.5770093097107581 
-0.08504705047145326 -0.6810659070678599 0.5922752902481709 1.5790582784021492 -0.381676111677838 -0.7017860758344352 0.3527630476895484 0.702335662839093 -1.1604797402826055 
-0.7323535517693938 -0.6919494209169774 -0.43937567242990166 -1.090745176977112 -0.38723795659016097 -0.22868700559115748 -0.6805404781498792 1.0900267358820055 -0.8830700036473805 
-0.30249287855070867 1.814590532543767 0.7873799497537431 -0.0763987475012699 -0.09390270554178866 -1.421745156477434 0.443653141747648 -0.030023286943557718 0.19774380574464437 
-0.030375764459206242 -0.18189600894817629 -0.7808637895883488 0.7874677144193305 -0.7528908057868395 0.5946060112896611 -0.0247301504438553 -0.64660474480804 -0.41901051585668814 
0.75499487623006 -0.3534736223805483 0.27874735734756145 0.08650793849468257 0.7520959366553361 0.36356692169376253 -1.9121358231559369 -0.780546698241677 0.25575562554811737 
-0.5256882446296335 -0.49484781318976045 0.9661481228591524 -1.05650831434944 -0.03649773773635212 -0.5155547326156432 -1.2664480355186971 -0.27617573832080133 1.0848788333274066 
0.26961037645872 -1.0595787050992558 0.5234475296278768 0.2092068985504026 0.7325871274746555 0.24326009122988995 0.03689972137534046 -1.5165541462225995 -0.8629216272108731 
