Layers weights
0.03280968322918576 -0.4431195175164899 0.011783782803968856 -1.1343849421047247 0.1622217245191035 0.02437200707619958 0.06591111350165763 0.9341636010411216 0.9880166809149391 0.24425269804952054 0.3115240211523429 0.7795277564631579 0.12058596957293898 -0.17607117522291618 0.681188313563665 -0.9818351173927854 -0.6841814699389652 -0.15899378213399817 0.04799236027010023 0.8635660112723141 0.3941037927443171 1.1644793547060717 -0.7915158811612346 0.22274106948692146 -0.8486203465428381 0.826673552670441 0.8367665452821784 -0.2436394994288334 -0.0756363218808859 -0.7008571797988482 0.6044719138856757 0.33387612764805374 0.012775178717889135 -0.5132751329171805 0.47470101983969215 -0.49847183992177985 0.6267016155692747 -0.1819835326445007 0.2553102449102693 1.0529537577286288 -0.2743581267199424 -0.12972880588864744 0.6354332538290044 -0.07470490601765921 -0.5504637811812177 0.17232328081581152 0.5569761601621459 -0.771738213115055 0.48905710007951164 0.6069858560792989 0.4447354148952751 0.30819811159298244 -0.2548513935635546 -0.5375922472025328 0.807311008182496 -0.6063598558861719 -0.2620026300909464 
-0.6820925448044588 -0.24638129578602208 0.23708054221211006 -0.835338982907608 -0.32587450387295824 -0.27679043951608967 -0.1310082814438863 -0.9060849648606837 0.6719988080736703 0.30360637294000004 -0.1098617113934035 0.14297042415457203 -0.40546074588701336 0.7651661602839593 0.880401393165358 0.15837416883930294 0.44012144850761437 -0.26493329498436013 -0.213811284127694 0.1193849153595256 0.7721343745699945 -0.5460052924029899 0.3007328256630531 -0.2098286565373424 0.6084204969044453 -0.6434400765729598 0.4589722664448268 -0.16259568346954226 0.27419313548749785 -0.9252725772424829 0.014775613248007104 0.8979742536646964 0.7821180027630865 -0.623708386422396 -0.6831811055337815 -0.7007370806539855 0.7601495071895559 0.6981532876430271 -0.1510329846125257 0.37739968206592023 -0.9608116060427676 -0.9938435167730688 -0.979120139534509 0.12606248092896327 -0.5467529427074282 -0.22370756074104628 -0.007001020057316112 -0.9113434738094054 0.10890977206489949 0.02472356529956743 -0.20641200559165496 -0.8750169837682432 0.6561415813369157 -0.15797460320167275 -0.2734489655182965 -0.7405857515863756 0.3338751288586783 
0.4734445392081583 0.44305119250926617 -0.21025296828365936 0.2841440358158564 -0.6461988761937805 -0.08302428873591805 0.5147760604210478 0.8005791985253408 0.20179806310907966 -0.13233037179356733 -0.8749995419837473 -0.03613385722705575 0.9633532381214281 0.30814125716696733 -0.26857076604882957 -0.08179204976006023 -0.24524214786479592 0.7553965083067655 0.21392140919220326 -0.6073841325536533 0.674786360742563 -0.513859174645211 -0.44598125762028706 0.99783495553256 0.33570134580874567 -0.02334521702824577 -0.6698038734353968 -0.8679031852361525 -0.1253613460864387 0.22389450214145687 -1.0733865939832405 0.3614806165262265 0.5948050259120232 -0.37936908027380656 0.6366362065425601 -0.3268795302508893 0.8421570646582447 1.0409188958765683 0.9144253787593107 -0.06450610009172587 -0.6701111462982472 -0.40786722758026883 0.4459525893699865 -0.411037625715673 0.8850361081487751 -0.36821551140714603 -0.9048263658272604 -0.020715034995078534 -0.988813173693371 0.6813396869254114 0.6622072647071533 0.1385443591737008 -0.247316933359893 -0.7060899244097558 0.15541114354974142 0.9135384960982534 0.004306439242644569 
-0.1190657271877058 0.7317677062748222 0.9762315812313807 -0.1585760532709559 0.5791339781014841 0.80122727546432 0.8714913926177532 0.7108558007459251 0.6820127707148846 -0.05253705328829539 0.9437106747549522 -0.804525222471696 0.30469581541856927 -0.7457632989275665 1.0160821018128823 -0.21838522038759325 -0.1854387664596906 0.2888476530815769 0.09716110759554275 -0.06875244848559095 -0.5287303858495638 -0.17732747715503291 -0.4397797963698324 0.12624657433280503 0.44026057706358124 0.5040342846491617 -0.2525647391252428 -0.5988084825507236 -0.387942057597446 0.28274256542453924 -0.8744847500148946 -0.0011261483957982464 0.4780685888938787 -0.8136608370379459 -0.7771157930208592 0.31401145886725557 -0.3454702979635001 0.7453964908670516 0.061990389088363 -0.22591206137365946 -0.33518620701741586 0.714179844329331 -0.4349922005481366 -0.7757661316093373 0.7036122801950032 -0.14210439986674067 -0.8556089466667354 -0.9226409580864351 0.3030003164539117 -0.29402732140321297 0.45843089157762207 -0.9556478544999618 -0.010789333546933608 -0.71661381578268 0.07274243615533606 -0.4147581259077228 -0.12507397074978047 
-0.6321215933374731 0.2640301406005039 -0.5429865345571281 -0.8742497461210178 0.32387870070328584 0.18692168720296212 0.05090368283569817 -0.687590313908582 0.3628908766474237 0.7422016457003671 0.1694346225998009 -0.6225858278355546 0.4531950618334886 0.7323724165364601 -0.8539675005474126 0.4254970492933426 -0.9384059295410516 -0.3949624586086631 0.1509146989734882 0.2049095373120202 0.20476023413824457 0.8406904257023369 -0.17262499625550937 0.15748075086852525 -0.25970867729451963 -0.8743599945398144 -0.47670941553930657 0.8188548007465134 -0.18536735171161534 -0.7917481089597818 -0.5292525611754043 0.5946585279951876 -0.12198135559182899 0.10520573693366608 0.8304798380780984 -0.43650379761717406 -0.7951042967563482 -0.5881714429958487 0.8779492078667059 0.31714014522755063 0.9150399378165643 -0.7577014668466422 -0.3032499570525309 0.6860110970224829 -0.8673881596828191 0.8190178468294181 0.5111084230422761 0.8308980169433493 -0.9818523165707336 -0.8005639303497056 0.09735619712205534 0.042212596296448204 -0.3605416206553813 -0.6818411893366098 0.061814182030338845 -0.1108815617801092 -0.07099641279184854 
-0.8021461917091894 0.6941506567106752 0.7067097721567481 0.22742883190616817 -0.4438194352150409 -0.1973973578188188 0.9362424236090487 -0.7002866462808547 0.8697253374363909 0.9415729133796569 -0.274185426955585 -0.3418784940418887 -0.6400718964666571 -0.4458479401447517 0.8031902052476264 -0.6939394254699777 0.3514808766995088 0.4754681015498752 -0.09608739371016872 0.7014732404889525 -0.7651436994715064 -0.3385589077357175 0.09115446029984457 0.8258561749129505 -0.7913463942501153 -0.3325920943959557 0.9759753229911163 0.5592909239494747 -0.18333718970101456 -0.5103633324388209 0.061088005799436455 0.2574077174200645 -0.5552835840957726 -0.8539683746271718 0.22577975362136504 0.7820516041981898 -0.012492426580100911 -0.6996620638604456 0.5966931614773309 0.719593216522368 0.650216627488724 0.3546188814484448 0.28316675261638213 0.09542300421430401 0.17763612861666855 0.018758007081669317 -0.4918016398977694 -0.02299042855689139 -0.6833509286489554 -0.5932260058849625 -0.5891528047481638 -0.3697970847558855 -0.5599812535883554 0.9641086649883499 0.043073916829852635 -0.8773181533404657 -0.40790393042091205 
0.04468972504473423 -0.2751591053392175 0.0019430452543420795 0.8101759582975914 0.39118382368529603 0.7387667702963926 0.4199143119723609 0.8803929676505183 -0.6217717994196839 0.16231473119976325 0.18321452497385327 -0.7760337165934857 0.7684724450790378 -0.1046351453717744 -0.39113858240174765 0.30830109615935625 -0.4176437796298271 -0.9363950885083172 0.785742590158399 0.6367078429967992 -0.8745468629347557 -0.7244736795116453 -0.6656713979624043 -0.02972461311388604 0.17167062120325172 0.9500205094914025 0.8153730191891642 0.8304386480689192 0.3924763759087224 0.2199433166323349 0.5696685698718057 -0.014973945924357298 -0.6789008824990641 0.042639752731053804 -0.5730928973539915 0.9882379743703142 -0.4713492521262115 0.7783682910248587 -0.8799936373982534 -0.029186671644556007 0.10846237214376941 -0.8690472001703538 0.1436326423757004 0.4116252499356809 0.4632166593639055 -0.7486565177668371 0.6291622645256757 0.1405881520716261 0.8023949380246749 -0.24830283182296697 -0.011469793303678477 -0.027677766014651873 -0.4171124937583666 -1.1416842869826842 0.25870611005141586 0.5900685650189764 0.6286082983073399 
-0.25733642209531116 0.6974944651857109 0.023184867270401144 -0.013709598840102834 0.6924620638772928 0.7839869726790958 -0.6234406464033604 0.8007390456631264 -0.14597037657229106 -0.9695394636118906 0.3355983937201037 0.002726165375244665 0.3736868156497598 0.17858491665375825 0.07323980716605293 0.8561691387519919 0.19424702679943207 0.43595366598623353 0.2328396112767417 0.4310700333994427 -0.7899911129157929 0.6174793834602724 -0.8809828437872848 -0.6976575096811715 -0.733774864782256 -0.4100081589827853 0.38660067769272755 0.49886627540587114 0.9634197139048802 0.00747445064623003 0.5386393950128826 -0.9195074072582944 0.03302329209076249 0.7538911300753357 0.3671704027066325 -0.924494896130238 0.5354398254831255 0.356893219490375 -1.0274251691360994 0.757671280160392 0.12128707709683262 0.23753877209034857 0.2275563393102198 0.7196359063084217 -0.6799775719082377 0.6128633220621429 0.21199003632601493 -0.9609775714982709 0.5541231423261415 0.45548527352949475 0.6767947905495297 -0.5322234838315058 -0.9726292711036874 0.333477285929018 -0.3666473562935659 -0.44775747626273954 0.7335240199731008 
0.7879192173015748 -0.356485002613113 -0.8020788405622046 -0.6372053048278342 -0.9435544487736471 0.011067309643767726 0.9355744394415748 -0.6320172281464699 0.010764202872257433 0.9744623745194878 -0.2712237091307852 -0.43344209387591554 -0.31795283996790624 0.19520545753531618 -0.12065090358516782 -0.9247939186749101 -0.3347758506234684 0.13084366541987524 -0.3053176774892017 0.706453082482069 -0.07272058770621562 0.5253533540470131 -0.39203851465232037 -0.639393352163039 0.4631168092141591 -0.6849197892826782 0.09025285272074446 0.027433953810265376 -0.6656104269578135 0.6793523382508846 0.16790496416253078 0.6325967518721425 -0.8193156046329333 -0.8921557989677638 -0.5246673856138719 -0.4115720062544003 0.4842037840938731 0.7179495925250691 -0.5648683124823971 -0.7193432120799491 0.3698712051492874 0.8168351330842056 0.42620880610832956 0.10476317010205026 0.15969912460715607 -0.7435796841227056 0.7891893415593061 -0.06352107444227327 -0.5399410147839279 0.9166514503169425 0.5541279167067736 0.8247081561570241 0.8645678193215318 0.6511076215441921 -1.1227964923854599 0.7690439334674712 -0.6579852695506848 
0.934720549747446 0.6368516509024003 -0.2711286760335563 0.2650292666921874 -0.12526457861141366 -0.19315792588882374 -0.3688423990346148 0.9723486392900169 -0.019099472710703447 0.052315113818660164 -0.6565623373500395 -0.016487003234063533 -0.5202461490489021 0.09755450668371334 -0.04024249265708542 -0.2086813530475254 0.9890136672837726 0.15617468147287683 0.04916743487005126 0.13282506504081523 -0.6969032998212406 -0.20582882521501078 0.4068787872377397 0.11101148198519568 -0.46455325859809227 0.12759678944543662 -0.6750189770340516 -0.4162504522723471 0.3543936959687168 -0.43302533936731313 0.670136818507036 -0.2552601713439133 0.46236776572943983 -0.01891483243899872 -0.43926896861310594 -0.5901464786003385 0.15887758099165278 -0.9404490733526977 0.28323074059185543 0.9848889798138477 0.18802907536258684 -0.17048554861936704 0.9758772675934289 -0.508056579766614 -0.6997372377260438 0.4761709499712727 -0.5245147446905352 0.9327197830115911 -0.8747022361213077 0.47020256860214027 -0.6197219214318679 0.8823934533900164 0.5207222659431402 0.4602783091235082 -0.6622327005716007 0.07558061103351084 -0.7737756476364872 
-0.22166283679520626 0.12449146918035425 -0.519755204598519 -0.740263387972288 0.41241367975241977 -0.5431053550720124 0.8899902902655965 -0.5568369249034787 -0.8147841060177412 -0.12945927775408106 -0.5365811362902162 0.7449063520551855 0.7705831076539114 -1.069865512666122 -0.5964590768346972 0.3088892296469965 -0.4768411648581268 0.5450932895265235 -0.7758891847660558 -0.9036329041659941 -0.044719239860375966 -0.916762165164041 0.855889769523604 0.8210863307604748 0.9633328249906818 0.27978110755679286 -0.3056007619053527 0.6233506716234151 -0.4644124766549816 0.8009066450647677 0.978554744382635 -0.8951897543000666 0.6010548551455115 -0.015567428412077033 -0.07033849319151542 -0.7012193267995587 -0.13986383865873767 -0.7234073670132003 0.1966915733516976 0.4354392535368565 -0.8311993215587121 0.14423778537789644 -0.5146438888938052 -0.40921724702667683 -0.21601790279931857 0.17311173324798612 0.42868535252463197 0.27588988129960024 0.14589495764858684 0.7430287078755464 0.47139477190798607 0.558879395382232 -0.26838184357970407 -0.7831389157976715 -0.4715127708120368 -0.5079545241493392 0.9473270863470611 
-0.8818261814287329 -0.7444299460014545 -0.47124821784023174 0.7758540649257574 -0.40372866733339663 -0.8636014097284913 0.30519780437646893 -0.054419979222701066 0.2469977889305266 -0.08054462013777619 0.9802457026250426 -0.6410359315366707 0.6876180756966587 0.1903070155612748 -0.34453899913603336 0.7522118732348032 0.772972817795289 0.9839203144517408 -0.4153640455601195 -0.8513359360247272 0.024336462522976714 0.6877568637815983 0.2635834116805972 -0.9138805912960881 0.5584564934703637 -0.6775127283321791 -0.5140220027680609 0.48054086144553415 0.3349131580339299 0.5983615572985105 1.0573998594580627 0.8522483973958709 0.4425715177993257 0.748831573258639 0.20326440666890777 -0.513887382651813 0.7934031827582941 -0.14812969950456845 -0.24047726051028423 0.611050416585376 0.5702822990471896 0.7510369484726991 0.35349150354083103 -0.26514342172084027 -0.2169926262895003 -0.11586869204080298 -0.1904728751769654 0.7043553739791503 0.21800091263250643 0.6885033566398695 0.8450592527230045 -0.7341261462753282 -0.09162637048204181 -0.49319456422104613 0.19720430536188516 0.563988994236708 0.019115977307498797 
0.2556193677479579 -0.76215117248815 -0.7169640528963999 -0.572836346259016 0.8978298352083736 -0.35259006189601544 -0.37375181944690955 0.7700179691599014 0.10080794906677815 -0.2633995148703141 -0.33637313260615564 0.24466598864585473 0.7660366936906322 -0.8728069198334855 0.29747889190746135 -0.03433124275209269 -0.5846067664306385 -0.8532549796592468 0.8760521479082832 0.39417953895069185 0.38741524697555235 0.048262599849158 0.8316836722369789 0.495625994029316 -0.7030409113691505 0.8796606385129533 -0.5405247405753062 0.3354268182203307 -0.5495582511096387 -0.7056015006342212 -0.5299611291476138 0.45881601890073315 -0.10653505647483441 0.9447248877873433 0.9053223111465305 0.27799969645124045 0.23127018641457905 0.43318232521987216 -0.028175233205261677 0.9041523740683871 -0.6249685022514795 0.7831669226227527 -0.198838724672733 -0.0738320400170717 -0.9080791778337509 0.7523861412843191 -0.38216219115884315 0.8029262931533856 0.45321120899345146 0.4144821416734914 0.7184221890944202 -0.19361354853791457 -0.4350090119106545 -0.8584201286383542 0.502957880620286 0.42950174679538244 0.040733947812160366 
-0.09590427292605064 0.7227248812053286 -0.18350091930008872 -0.35875936954486704 -0.7823887593781332 0.6306341070842232 -0.5132655604808118 0.8448374104206204 0.6830813720876585 -0.5725490512039744 0.4540005044677091 -0.8310634974191222 0.4900695577816807 0.9255822400748913 -0.26456204090837165 -0.1665709896472256 0.17094909840071626 0.34115620294110793 0.6313472172596435 0.9254764061337231 -0.9035337880005289 -0.07974461067155748 0.5411475993802323 -0.3546758596892654 -0.5875790425167273 0.08919841097798242 -0.03104056315850623 -0.06861378152807407 0.518710175038407 -0.4767002513356541 -0.661979702664078 0.3851172521793385 -0.048791947106640476 -0.38468522188234244 0.10965116764806049 -0.6210120115828075 0.34676843947229885 0.253937681461395 -0.7088028537077012 -0.20365073573280332 -0.8954261537087249 -0.7977162594480651 -0.804386638270395 0.1310560387361748 0.42914399770614947 -0.3664880976358085 0.17102427515520044 -0.18421683349074652 0.5853176000257432 0.8799976120417543 -0.5946585118068166 0.37522730442276275 -0.3075788547941209 -0.8399186901558752 -0.585010270446917 0.024991455772033648 -0.9424008880762119 
-0.8455596074688703 0.5264095225040077 -0.3194464400665957 0.5446998740730788 -0.22909465626973372 0.38603454711445134 -0.6719305832613235 0.6836492099986183 0.6446031001885992 0.8581698448779309 -0.2949196906504672 1.0135783330376815 0.8157059131411454 0.23921470118384774 0.05499035888462923 -0.06115835267604017 -0.9610568709594054 -0.8516923959125402 0.3858973565716677 -0.17627278427175735 0.6520841165433703 -0.047531479653291214 -0.1955840806413658 0.7743076457679874 -0.45488860707415 -0.143591250816963 0.9927022213295182 -0.406795698071506 0.14368880558806768 0.3316989919304299 -0.9892502779895399 -0.4139192850366345 0.6756293075473281 -0.25257870149111805 -0.8193071857732925 -0.17476606684587992 0.8439945019724252 0.15627116603478888 -0.07165000511328 0.3454599885592521 0.833309005100308 0.6310562869915548 0.9088690007554556 -0.5472981568095676 0.7446592656861811 -0.5266580421012688 -0.18956041277313634 -0.4383472233097033 0.29104345340815563 0.6884093318571249 -0.0075443165044219995 -0.4346333956177269 -0.9160709801135734 -0.6095779090201461 -0.3048321869423522 0.36349783467449553 0.3445311529768836 
-0.1199037042997615 -0.5191264777156279 -0.2888401921917092 0.09653671814796222 -0.4198065975211674 -0.6850726711595874 1.0521512104315531 -0.7955072396440689 0.5093047968297357 0.44833339101819436 0.4559381863481049 0.31035887478347857 0.8518299766472144 -0.08396159150254376 -0.5752003468291266 -0.4425736031307384 0.9481105276946962 -0.9984753584816963 0.6837809733375699 0.5054104669559591 0.5068233888659741 -0.07585105691229176 -0.39136568858720683 0.20562503655614792 0.5943654882958271 0.7929100623976275 -0.4305797521865973 0.39799935490020927 -0.5234757643977086 0.5770876346186641 0.7792351117767206 0.15139324279442581 -0.9865723477519233 0.8221565505261066 0.9988627475374892 -0.07580022084084145 0.6684276756624326 -0.8947809826261756 0.4104537233550485 0.4802447927173045 -0.24503558824275995 -0.5301230920947235 -0.27639701505538183 0.30212568223248276 0.3727815600278187 0.3198014756638528 0.6762602856863359 0.07393579984619776 -0.9550931966935916 -0.5178694922769709 -0.19000744174588968 -0.6162755393576325 -0.4438182759334972 0.27804135605461694 0.627269738293069 -1.1478367943049679 -0.5871569649828547 
-0.38482874084811325 0.38691056999005924 -0.8851182019080293 0.7416381946729622 0.23639088892534113 0.8550379992943102 -1.0115401009264873 -0.3865275661949157 0.7957166759341312 0.8803431914243749 0.610605331553709 0.17596647878302282 -0.505802212317675 0.40150737645533746 0.3171942382869705 0.046005919002620105 -0.6250459514652038 -0.7215802947448746 -0.8942007226803468 -0.044294292967941996 -1.0213227144076198 -0.104994518376069 -0.5817771466364406 -0.8421335514229321 -0.6759517657150549 -0.635948858135007 -0.9297804927078195 -0.4735386466251971 -0.15598280238177442 -0.48801629816114106 -0.919739756586356 0.21183846987171343 0.6770130853817022 -0.6323676770282414 -0.6233801122302627 0.2652444690624893 -0.37056144724883217 -0.0759396659294343 0.5262496909113663 -0.33457045855708806 -0.40977184524924093 -0.2390470410383181 -0.7460795732919641 -0.7203454057463476 0.342397638054599 0.9697495550615518 0.330696324727722 -0.588439984302504 -0.3120187006902757 -0.7443659425397762 0.4146122491265565 -0.8642633771516912 -0.23799645741941644 -0.03811318414422871 0.7230797006778205 0.621776147820925 -0.4488193573099578 
-0.9835443391404413 -0.5489379893143222 -0.6670824126214758 -0.5829684746077424 -0.7624209548569532 0.5823599683797972 -0.7812975600811239 -0.33644787914798396 0.7680179427856326 0.39041531219021164 -0.5063587032280044 -0.7406840030943845 -0.8568765415339591 0.6814409504132959 0.24926718903849254 -0.2516888339668639 0.5555491282520879 -0.7764069288049174 0.43207228397547803 -0.3565079815849034 0.8597159406073022 0.6289077808462992 -0.81900427731124 1.0130309473937533 0.2533348903266217 -0.713903155895004 0.5896186454390266 0.16337154079026975 -0.6475045937023519 0.11869643667304335 -0.34256335264781596 0.25273208807700315 -0.653975390889072 -0.9861849502415296 -0.9885204912136099 0.5554875887468657 -0.6655402000620022 0.32178966913842555 0.33137765113270545 0.9217105379445184 -0.9594642136762122 -0.08558770250608871 -0.05371796598509748 -0.2890647441081388 0.5250969870830736 -0.023377967710098837 0.37142060913845587 -0.6895629875547747 -0.39144475814251734 -0.763835844697198 0.2783620393015871 -0.6113850326724235 -0.8445179285457407 -0.13162434551153412 0.7886831711993123 0.7622032257072179 -0.7635888427294772 
0.7541379698542441 0.11359367770735562 0.8924281272857444 -0.09177322222902981 0.8001771168879689 0.5604584869256993 -0.5939575302577291 -0.2911763661430326 -0.8082791828299327 -0.8568204468533447 0.08942263257581784 0.2134580465357797 0.8119416304580395 0.8940262231026604 -0.1276371542151637 -0.548428070486759 0.2804044093883611 0.9119953247884056 -0.2848911187664871 0.3097034742919567 -0.0043011730163871305 -0.174126771511197 -0.4705916042351463 0.8818166889750145 -0.5299958300502161 0.8176880560220141 0.6892680756222433 0.10914826540044802 -1.0050296672913328 -0.04168067842357093 0.3911452820793719 0.5013351169050572 0.15182679746162586 0.2667195076089415 0.8335793613946572 0.3474330631577606 -0.49357812580555477 -0.23265972608983826 -0.6026671575189574 0.40854153351925226 0.7484837441143426 0.39210001620699897 -0.9939497968283648 0.5453622243072689 -0.8657833862124565 0.600402999019774 -0.20411108775232972 0.8311602114301836 0.6049951290549411 -0.4998361915628844 -0.9251736330253593 -0.814615180219969 0.26241476608838094 -0.9321915365874734 -0.687419607795884 0.2609289802551741 0.7075377488653082 
0.7375338950453816 0.14805716511499445 0.6604303232542417 -0.7054453118355988 0.6795048450529292 -0.7079620711257174 -0.7383764395557426 -0.9159020449019964 -0.06944787821460885 0.6668336899285672 -0.9380479821619099 0.16923311628472051 -0.18232039206860579 -0.6614222435816339 0.1221263871342204 -0.8759038617576776 0.34108913260949536 -0.514827956529021 -0.9042299831440332 0.6339226654147222 0.14435699702230312 -0.4673146130185847 0.4588119482997268 -1.1489203519924363 -0.549184185452799 -0.8469985407213829 -0.012784261827565535 0.808492234231377 0.31360889247551943 0.0679887190445331 0.635092445832961 0.5744333811715037 -0.9524380844126916 0.8477855231604292 0.5803567914909584 0.307863924176958 0.08254319789492844 0.3125421390332931 0.6087069788249233 -1.043791990683888 0.45349109993881553 -0.3683160247833659 -0.7500055713862905 -0.34113195276003333 -0.6188049861068493 0.7728071362942096 0.15375912156170585 -0.8801552774420115 -0.8392346967748527 0.0590363105125995 0.9497605714866786 0.5674436927461749 -0.15068984892076973 0.3809134924862524 -0.1467967616160187 -0.5980408720786324 0.7417058961140252 
-0.08500116803170155 0.7831469536443771 0.7885617770719766 0.8913907248692319 -0.4102250088389538 0.43443573005332137 0.2935369345833068 0.6413635361981711 -0.8944708016568204 0.7056210359660067 0.09443854168841392 -0.5170113767550457 0.7044654318101472 -0.4152636660035706 -0.12208722577701535 -0.5860114430788028 0.31133113724421024 0.8423370467082785 -0.811803290307666 0.25746844713607 -0.2637522994644895 -0.9376640038043594 -0.8987347982781703 -0.041533076199491946 0.8506121985586284 0.5174255617981809 0.6777288720466987 -0.8150011881821652 -0.2995817486916019 -0.14144688145902162 0.3376298429753073 -0.18274858096214863 0.32152465045040635 -0.3607885892483478 -0.42609126679118403 -0.26962512882573597 1.0594720408072364 -0.14368280524641816 -0.5954556841531651 0.1030363867996035 0.5623094528399681 -0.0933855807076851 0.653734857845045 0.4635289174149222 -0.577897386503545 -0.24191628452247918 -0.4116135850675518 0.00023462883038434014 0.1923011105021133 0.8579942138948389 -0.7832609858759125 -0.005558565092327001 0.4718046918905757 0.0833984273188789 0.7916640228757231 -0.23450393634511882 0.163955691419255 
-0.5908822335282349 0.040676149536998274 -0.31451664389729483 0.7412447225701179 0.4643540535462283 -0.8872620653834724 -0.39816086928968636 0.2734366246950295 0.8871925191161494 0.9022710632411133 0.6529973035720413 0.1881615350602915 0.9898663780812048 -0.6059589265020568 0.7007520570094323 0.39509147332808603 0.970847680589189 -0.19876635191960168 0.08503891642105521 1.109642475462785 -0.38972221908802224 -0.28595251714402126 -0.5619240987562635 -0.3399673373711931 0.8597449470833731 0.6670063042142222 -0.18634122558710553 -0.7682532586406857 0.041795168328407815 0.6099928551410537 0.478473646136106 -0.3341066281339788 0.957089684315874 -0.037268698978940584 -0.188890481618754 -0.22206594155148793 -0.8524237478763748 0.7418228498681604 0.6309619797152464 0.7544629787349613 -0.32147240371201447 -0.2924308316866482 -0.9143476373063972 0.1633979227199214 -0.27579826545656455 0.9550462122673319 -0.4959784235560817 -1.0899130227680123 -0.603270444452306 -0.8569792447546976 0.8249640174947104 0.4175797759772551 -0.35579413979359964 -0.6509980343518312 0.34108668006938386 0.5907775546114069 -0.6897216608725429 
-0.6141463271947867 -0.38392088097575394 -0.026552278220363323 0.45166658182871167 0.6587957057035272 1.0045953465316195 -0.7091844695766181 0.8342526008728914 0.9833889313037469 0.9370162919312697 -0.6040883848335046 -0.789109890798455 -0.3806210899419473 0.43406534361820204 0.8907278924838425 -0.8476891877109112 -0.16926046863668143 0.9434797623344775 0.7761120641803947 -0.013856349892173726 0.7403387391654784 -0.065581326254908 0.05332479501029131 0.24908832722777643 -0.866180161782272 -0.9679657638757335 0.38463447496617587 -0.31728785686712846 -0.409620360990975 -0.3945510628872879 -0.595263792191003 -0.7880227256319975 0.2690194002185742 0.8472769596586909 0.24627303974225057 0.31764180238196166 0.2762187529212735 0.031086759960036733 -0.7768399373193758 -0.9011341834477142 0.5895349019464511 -0.1454860276750809 0.11755187919560783 0.08405028393443592 -0.4861049354471966 -0.09450293939599698 0.822466276261064 0.3976991572247748 -0.6888699745408398 0.5714863617592072 -0.3197063960023321 0.992289124992895 -0.3824038818328158 0.00860594322401392 0.505329513264091 -0.2781569856250102 -0.42377807640739074 
-0.8581109593042244 -0.6402893377214789 0.8899326356896058 0.2240214247032255 0.5569071109774615 0.37631045752021686 -0.6807809616149901 0.19248259571826346 -0.7550713409425973 -0.28320378522128853 0.25979597142462363 -0.2649274467622965 0.8747282882529938 0.5417168585611687 0.25322385266738173 -1.058189378305747 -0.8005903902914826 -0.5759535274965102 0.2998882249319581 -0.627814348744927 0.9600680868791819 -0.047689561903732546 0.02277482855877017 -0.2421484965441757 -0.3575988237257637 -0.23965802816921178 0.893801396614819 -0.5886893347752099 0.17263627510659682 -0.7433904197949143 -0.5605526264482796 -0.6964797046255158 0.12891155099968987 -0.8048191288494733 0.022352248581916978 -0.009338368164029089 -0.1514709162320297 0.7673716195494111 -0.77210552971072 -0.2057987381155292 -0.6444605295629748 0.2201752868909812 0.37259193490579734 0.06316926399507218 -0.2821787066869947 0.25905977999789315 -0.8389669289657163 -0.4366468083954331 0.8887965457092493 -0.9006761049099485 0.355994038071229 -0.9750691917244029 -0.12312790139828864 0.9925456364161644 0.7737652609313755 -0.2779179429936908 0.8240796569218412 
-0.29849656742727326 -0.6100367625738028 0.7301759549159121 0.21488293112691778 -0.523398684934408 -0.04122040043764568 1.097707878150922 0.3046156959957228 -0.5190571954503149 0.8136483433803512 -0.1375326316538683 1.0017363587688246 0.01646974691528281 -0.5277682074117606 0.07694574323483241 -0.8357029563193514 -0.724471840073293 0.4690442205826926 0.9052114112450844 0.6852316113496325 -0.7703844091116234 0.31029353144758914 1.0866323849790351 -0.5002871527241782 0.9429481951409533 0.5870593049083108 0.3832303733886615 0.6023514455123482 -0.9663952222846168 -0.7177627090138103 0.8413607163965127 -0.7047746860952766 -0.4674860649833541 0.9411277801871427 -0.7289365859954489 -0.41392954791497366 -0.2889889813723363 -0.4046466639774018 -0.5369327069016012 -0.46336031770408725 0.9769663631887955 -0.3010386330047632 0.6386625519015692 -0.3471783466307038 -0.4411593286137098 -0.1318316510113809 0.6350163368291286 -0.9011287778312358 0.8888890610876381 0.1671397880426202 0.8747714040738188 -0.282423513652607 0.5073668040141538 0.5522193253175982 0.36136050676196974 -0.021199822765448566 0.694398002647506 
-0.8910582948203962 -0.237856662938982 -0.4204185012205024 0.11437901868155195 0.11404899291680512 0.6611357661051186 0.6488463960563883 -0.8391738752641223 0.2783523819407481 0.2767962530261854 0.8301220337383479 -0.4520475921257928 0.5633270483921072 -0.412642975043435 -0.09619231146485353 -0.758851402983794 -0.260316759678475 0.3585006340912342 -0.7373993889186643 0.4579368650254665 0.772758509458096 0.39581390576895586 0.15802144818771943 -0.6731203299321996 0.7144638061005313 -0.2568893827221428 0.7510038741346254 -0.23237562643628137 -0.771663594254014 -0.3054692741970957 -0.31218834812524904 -0.27571017602752557 -0.6862650981134846 -0.07014304914971281 0.691705347540146 -0.6771624787907385 0.33669565951019864 0.10467522987390697 0.8294197273008931 -0.9780741842096864 0.8811928142652081 -0.29989381001631843 0.8053679301761407 -0.7297741465807931 0.7912196240239393 -0.03966195267656102 -0.36586329440739895 0.15413411199991245 -0.43398710737123425 -0.38180358564990957 0.13878039767741912 -0.899597786382792 0.6043323775079382 0.5894995089528375 -0.6156491413854347 0.5785289106565972 -0.33828711088490937 
-0.07269658557685199 0.6446690516618836 0.7910468503144514 0.4898722767556787 -0.1387666023172232 0.4922116082737803 0.36888256387822155 0.4041313341454834 -0.25786198816178985 -0.14822122149269767 0.8986316403221912 0.0773235290807761 -0.42877754438360416 -0.24160408380362056 -0.9014225678580162 -0.4662533512109908 0.030191483100936223 0.6460511022234272 -0.6688092147060938 -0.6501118748014455 0.8559239849942675 0.44263383975398074 -0.6465032296051654 0.8078289064009689 0.13529208582023555 0.6084088446543694 -0.2253328467374478 -0.9466631367067605 -0.6735814947664782 0.025591923113979113 0.8647082686642008 -0.9831650812742868 -0.9173528517650948 0.4825690756653196 -0.14787834515738174 -0.5812716490218321 0.14095856948732094 -0.926919675834773 -0.7920073494812188 -0.28779263781638914 -0.52941421335077 0.32893721172055357 -0.05235167970348109 0.7836689132617739 -0.05116284640024319 0.8572446211596277 0.40885984176723955 -0.41844801103713836 -0.0304433255656813 -0.6433777614466745 0.8503833355926078 0.417549542794413 -0.7143116542702047 0.021704076402174786 0.8710394324587563 -0.014419105169967198 0.2769177014208816 
0.7307485062825905 -0.8767995006090603 -0.237702916695532 0.03820383601920145 0.5636551869709955 0.9319454188376762 0.24283941792860855 0.45287189287547186 -0.07675217179603555 0.8636405545248984 0.8099966207301952 -0.34196303339873874 0.7011886416332143 0.5195171712314239 -0.4242073090767764 0.03194841690109069 0.13001883972081774 0.8786386763024048 0.9867184223619696 0.379185723320556 -0.02173920481486711 0.05270641347766206 0.12685709510414864 -0.5597463009998855 -0.9929035666945745 -0.28928358149434463 -0.23634330987696694 -1.0600329523000178 0.786980934709944 0.7224346546703617 0.37519545211367417 -0.37159675950881327 -0.30808229827012834 -0.711092755034229 0.6756930553828013 -0.15063735201568104 -0.8348655654905724 0.44798656476513854 0.6539263521578841 -1.1068622713319203 0.7796138347890047 -0.024411638236362387 -0.9393466850643042 0.5017848474199563 0.2651427662666578 -0.9559316496185946 -0.8640350915287421 0.17146486683268006 -0.6243927977288102 -0.7796983988573338 -0.4170993151727169 -1.1307590548262128 0.33547513632878107 0.2903776306485046 -1.1307410264051707 0.0410879117257041 -0.08595579936140144 
-0.5475241997917342 -0.34760785925827214 0.5105103387757423 -0.379801510131909 0.8779892672074281 -0.7414652821637849 -1.0683172630816475 1.096534649208717 -1.0959481139416642 -0.8453760281230387 0.1204619764707668 -1.1531886067129569 0.473284379743972 0.8049590569359037 -0.39463489418716086 -0.7874828717180621 0.20474125802653037 -0.7289694528332151 0.4274737610214709 0.095035276119678 0.06536183894095003 -0.3556018132074604 0.6866915942886546 0.9002882538173285 -0.9632274333417437 0.01354186517200147 0.6659520355645362 0.5545190627109867 -0.5198823222248068 
-0.5704213229724638 -1.2687312503040071 -0.5220186057160496 -0.3705556474560444 0.5626810013901343 -0.8272493981902419 -0.0486881843865448 0.46775381569961333 -1.1519637048779954 0.34220384797453146 0.29083536387871445 -1.2098069071795754 0.04401069602468197 -1.284265477228716 0.1808745428473066 0.5638542278196146 -0.47293753340189526 -1.1489999382383134 0.7498190645148465 -0.7772199251352637 -0.21317086224640783 0.7837061161924985 0.4031354563790929 -0.7879932514542741 0.6038568915851533 -0.24981176762898427 -0.5462234441046582 0.49170236863549244 -0.1664006381744422 
-0.5818445129292203 0.28891615451116837 0.4801902176212954 -0.15134157955724267 -0.29100660660539895 -0.226438744229151 -0.058220689480227586 -0.4258759235320321 -0.7787450612737654 0.8894060277066166 -0.20511838224548287 -0.6016431100595844 0.25260529231862117 -0.455724421869348 0.17897764784573272 0.541193952854664 0.2809158377270721 1.1568100318040617 -0.6370629482943886 0.4473691087037633 -0.1901369208615845 -0.8394557287677447 -0.5232364926912959 -0.4028163173281676 -0.8170888600779876 -0.20306298320528507 -0.7223480324664857 0.42684741487649175 -0.6532857739988902 
-0.29913897911200577 -0.5614864516511331 -0.6513867097559704 0.740544780144841 -0.15932446866511868 0.3137578511202769 0.4074488333790024 0.27452290837906296 -0.774392583542089 -0.8120235100781834 -0.23892085349369319 -0.006725104709180985 -1.0244909200813719 0.7152206105391371 -0.6810001331665704 -0.5861982551263201 -0.323349037372994 0.7573763684314101 0.5179409714695078 0.09972209952093884 -1.0911180929587427 -0.35518305912119014 0.7864344053551734 -0.5193219905531471 -0.36793624489668125 0.7509355025638405 0.6800039151617074 0.7626163122014576 -1.2288629724106377 
0.5617240074680898 0.4805165274249499 0.26757161253537176 -0.3789896698028669 0.22798339809874946 -0.20430015311553473 -0.1508909694357356 -1.2661292071136458 -1.1870534027508743 -0.4039908276421139 -0.723751037526181 0.4377172543167049 0.2459190955095786 -0.3591260182505747 -0.36432089164189696 0.4438137158102634 -0.40070619401791696 -0.4626315465973152 0.32033019747663105 -0.7957247014032997 -0.7901559139342376 -1.2895848088114255 -0.5098179440319243 -0.3284183552828857 0.44297423412293574 0.055632324427773 0.20156716723558268 0.004832647056327115 0.06752886313040977 
0.7457298112694044 0.2666456730875706 -0.7225849643421935 0.9667571840275588 -0.06374751834890402 -0.5094207325425433 -1.3646008710388908 0.06402650886632014 0.913592647864354 0.37634703622872323 0.6650463271881364 -0.5985535805668919 0.3996836970770573 0.0454063415886113 -1.3982821063290702 -0.2793994177402098 -0.24145898494218343 -0.13144616633621437 0.2473930955461846 -0.1289492024199183 -0.5817154761444104 0.40919033808813254 0.5719022048731788 0.6491329411604422 -0.5372891563204429 1.1820492891233165 0.8248551187589404 -0.0709873170257856 -1.0338378768501912 
0.11920468262664945 -0.7473349807136509 1.0660634307994195 -1.2384798334213964 0.5242924995853399 -0.07956265114327503 -0.7927632417622154 -1.3135608412575954 -0.37530613189882456 -0.6440674131532014 -1.0984230058296742 0.0512845213991273 1.1552830020432199 -0.0260916313225978 -0.05006406073919551 0.5680083327504919 -1.2776983395062596 0.40370247964804384 0.2330258228874816 -0.05961495970538997 -0.47848333232765566 0.7192657623421458 -0.21861992619293535 1.183562193833022 -1.0038168507772889 1.0082418214332287 -0.1684326910249355 0.040879629506189355 -0.5987621036737697 
-0.7082652745575299 -0.6534980150697598 -0.5438356152204178 0.3552011129198206 -0.43451067587953446 -0.38000639520104673 0.4169837950205087 -0.11301177265311334 -0.49452387270315734 -0.42487536586363606 -0.040578505442869 -0.3909054035860416 -0.9219782070642495 -0.21285294502456986 -0.9771644978205696 0.29300757503376307 -0.16133605184036984 0.237340037560645 -1.007665690525 0.4872078153221556 -0.33647223488256633 1.0430456093346376 -0.17902679796660526 -1.0548501877778345 0.5093272721502898 -0.6437439086121008 -0.22503309966537857 0.6275244437355847 0.4655455457040251 
-0.3360507812797894 0.44094256114489566 0.4003627283413794 0.6980032174753497 -0.460506509355331 -0.6052264318164988 -0.20004371578826252 -0.4326065563879429 -0.5801592104325107 -0.7471319450062978 -1.0426764457258513 0.3256282710089474 0.40217624427576154 -1.018066779175778 0.5568584066593653 0.229166670521011 -0.5472774629460211 -0.07985870094569666 0.6714426133662169 -1.0095272875140553 -1.3820623317123548 0.3716734979350631 0.9086164613506632 -0.5315207082085518 -0.4124491113817718 -0.8841749474635191 -1.1115173460305552 -0.8247070495845357 -0.29609632486169585 
0.6747899203761873 0.7130457591042723 -0.5415096910388468 -0.7463166750118343 -0.06602814457508821 0.8770779342669928 0.8180353633448298 0.25249691225194665 -0.39340584789211797 0.48147986109739715 -0.6376709663706431 -0.9419158291994109 1.1382520900686512 0.6733087490387671 0.502133894969087 0.7576108126335246 -0.303260496311892 0.1159310204300269 -0.14543090326688246 -1.3648096433689898 -0.5972025965585722 0.8800120503758116 -0.4489137579072317 -1.0207521593853854 0.1687412550599828 -1.8265401718164922 0.059298875189195126 -0.5421769086762206 0.0856001436959116 
-0.17832460283112736 -1.1705629004122295 0.2888628402502816 -0.4180487097504926 0.6786192879034681 -1.0178347335138744 -0.591809651499633 0.2975384869449654 0.6436856890241694 0.6216949577187054 -0.6517322110463037 0.4484408807543662 -1.055906123625282 0.47624776005806424 0.5525075116847927 -1.0072677378529014 0.7439763047870328 -0.8080391158800102 -1.048773082024436 -0.195180929105477 0.09165843561643701 0.05583208289112958 0.29178512735653916 -0.981121850384873 0.3353003780515189 -0.002519383582843006 -0.6271684666486763 0.5120558513684416 -0.1030593068857742 
0.036571301206740806 -0.9090823419109914 0.40018687643667344 0.915148737150236 -0.5811348149680765 -0.6840938613199052 0.2348566520457103 -0.003285102661086219 0.4125638237725587 0.17961470581074127 0.7669763421577771 -0.5481992694521677 0.5239153237108214 -0.8189837528231565 -0.7901018087392548 0.5684636555925592 -0.9508130892999472 0.5731195035123371 0.14640596174567694 -1.1415542550030253 -0.3651210642572567 -0.14516120574118038 -0.829845006418382 -0.4712924729387349 0.06763683998141874 0.19613629281031653 -0.4572400352062873 0.38993736379471966 -0.9751445169449598 
0.21976113931459193 -0.14430458302290736 -0.46622707572952116 0.657588347915514 -0.8445208802305906 -0.7081483173695355 0.6096968885434565 0.6797500149371045 0.0051855516615584 0.11193589472417749 -0.5109741624886929 -0.22192944721078686 0.535829415207851 0.2117596642009037 -0.892992546808224 0.27304362845916574 -0.2967875305354539 0.592134441236467 -0.9942339738480793 0.41518103405970197 -0.371809720330033 -0.0074443166111796775 0.22236854180977958 -0.7682958181338999 -0.7400525559675127 0.7337987023706318 0.0360443319758079 -0.3403214932281137 -1.060572209201057 
0.8379322783513798 0.5707966879282564 0.05473990769919202 -0.5268451480550972 0.9756164109104754 0.8150633959390481 -0.778685240523656 -0.9386068550053412 -0.0736088036866742 0.17631316012795456 -0.5978059144544166 0.3985320159624811 -0.8809761509171418 0.46522337969409483 -1.1394529508755307 -0.0015440362262871554 0.18602719906801787 -0.24606992493104357 0.11843847626785972 0.6856271031126451 0.27526897524318406 -0.8707368333282024 0.04185398392412198 -0.2864278427508996 0.47630717719270477 0.14354106690754218 -0.8497038605416216 -1.0581347394285079 -0.4990965796601132 
0.0978162988401714 -0.1509694079413754 -1.063786565900258 -0.7471372371397832 -0.7609585886189125 -0.6458379333118075 0.12551650535123385 -0.05250804649366003 0.3625775181181337 0.029170816985378944 0.49257735308340117 -0.6228613480948978 0.15803401202404027 0.6841566829828101 0.16880576728370175 -0.9323908606157668 1.056721135541788 -0.2626420650310596 -0.5623363202434458 0.6832892996106041 -0.8579432861671565 1.323559533388029 0.6932914702962092 -0.5405545726678629 0.9386080201289022 -0.1332362093598982 0.43225010475239417 -0.7178490084959916 -0.6561099205149693 
-1.0647135004487591 0.3034424564326521 0.227048120417641 0.3754696000630174 -0.6618168812512407 -0.8858194114759692 -0.4284462515131779 -0.11107777395168693 -0.5068935931365905 -0.7251951636804654 -0.6763803132607378 -0.9861808451783093 0.048210558951608536 0.6383773536028946 0.43941887796043794 -0.9256938628859027 -0.16865976068111407 -0.37208348311365647 0.8244066141362327 0.6294666131990633 -0.2890591180767506 -0.8588640167781375 -0.7276294076490998 0.6399065644905729 -0.041191704467447215 -0.6705472856092481 -0.7182751630625054 0.7530464935699908 0.5418003401351823 
-0.70276998428734 -3.0056817600783443 0.02639721012664578 -0.6299348590398726 0.059721412229877445 1.3066572575656012 0.6519143853675249 -0.6604077430565544 -0.7589425018112249 -1.1509974535672531 0.13565263762365173 -0.5676036291748083 0.2229268635389228 0.7297917448309114 0.05136663595533055 -0.3461407884009077 0.36209040686027966 
1.4286200049544904 0.07160425350620753 -1.0305689886751268 0.8797385582359923 -0.5109962707516096 0.4956434543272567 -1.545260811814445 0.6439355741456357 -1.3386344605087646 -0.9727599634297651 0.18998374554079786 -0.3820562430576978 0.14799347444797745 -0.27142093972641457 0.7195591311084774 1.3655147040695008 0.5265388953813704 
-0.027378236972769157 -1.170273028998502 -0.8555952651906367 
2.3783967406602464 3.306499299711066 -3.3499438306891367 
0.45644880863585147 -4.5758967361841805 0.4230360785876625 
3.3153196575941335 4.905012774708065 -1.2092215017812062 
-3.345240465649582 -3.378521931877436 1.66598153287882 
0.7500198531927111 7.25354014595186 -1.0298747633801528 
7.164259567222178 1.492226632199828 -5.93506594927455 
-0.08257149064120045 3.5873910564264926 -2.624053358927453 
3.416920176552157 -2.5976867679702766 -0.41088699341384105 
-6.161657433877842 1.1026832162181825 0.5945402454704078 
0.005445555121429482 3.4247399659538122 -1.3058125471202986 
-0.6545410750176781 3.96188335669814 -2.969004929628989 
-2.1725379216448792 0.8928258971227384 -0.23199844093273142 
4.649334308930767 -4.108312936415195 -0.33224206382278776 
-0.15822115870079068 -6.211328481379847 5.229240514572381 
-3.3681812882800584 -0.7313408268264537 1.3432629385486305 
-0.7390206995496764 -2.624551333396291 -2.5608806164105076 -2.008098009348736 0.9412887517196212 -0.18747326354471572 -1.8534323809378102 -0.9555202997265563 -3.321836837103395 4.548729306111105 -1.101810598392022 0.08493445892785416 1.6397151766317417 -4.108947254298871 0.6725631155542169 2.0749951173428887 -1.7120982481584532 
-0.4223280062848188 0.2825959773761789 -1.8057458393425054 -0.6457370277196879 0.39667349284489867 -0.15756026879629592 -1.769417034461889 0.6075713264333356 -0.741805538243455 2.0906599422415235 -1.7412745537702399 0.3028701312537288 1.4292918963923444 -0.4698835618860395 -2.2146032203477772 1.6673472558228466 -0.40238415820942014 
-0.35936074210617314 -0.12180049230793663 1.673020389320977 0.07799761144134688 -0.8388232948815194 -2.512983826096909 1.046570337710927 0.13938373658779363 -0.6843900594893119 -0.9424989684608894 -0.39059446449377166 -0.0006309247793845637 -0.5874707228716419 0.45392975625496296 0.259657610865995 -1.0334707288890836 -0.17178286015903416 
0.10945978146458969 0.9185151513886038 -1.065646812661943 2.3422489412207477 -4.235060654323958 2.310653310852209 3.282520067438675 1.7949928543738287 0.3187905635177379 -0.8902996054945691 1.5882560625658058 1.3476782973622485 -0.5072732552744514 -0.5232126827698401 -1.9195666965258793 -1.2547327560929198 -0.9323553124476606 
-0.6332663828754914 1.0848651416026782 -1.8070853344179802 2.9367649745893645 -3.273715148523935 1.9760342209436939 1.6670686219302955 0.9235907908898111 0.1966163434648405 -1.288415256754439 0.5655088096353499 1.3507017937808017 -0.9659308077573836 1.1771852607407347 0.03798176099189543 -1.9502260829280582 0.4598058708197954 
-0.699260593449952 -1.659156479702914 0.7744316648920014 -1.785182252719562 1.5442817004750606 -0.051282572708605416 3.144700894416648 -1.110965302310073 0.3658531566058251 -1.175649031484215 -1.5775061980611458 -1.1347504294125885 -0.37146075818475394 -0.27481600581800586 -0.0993429911696008 1.4880078268647698 0.03529649549655027 
0.9446130935175653 -2.6318149238902353 -0.7847264223751851 -0.24238746557556604 1.6341371858651095 -0.6606749633218548 -3.826879566213109 0.07283838326985374 -2.193576707640853 4.246625401083337 -0.735288500009457 0.25845070779861273 1.1935287411856454 -0.5703525094105271 0.9825603921250888 3.284025348120255 0.5003100578804105 
0.48202169464327754 0.01861964088589826 2.42593360165024 -2.478832542437993 2.8515145251644927 -4.565226351168967 -1.9396435658544626 -0.8977916611484309 0.29744126249253183 -0.6869051676226351 -1.6002868752078656 -0.296557959343697 -1.065252175916073 1.7648408319068496 -0.1682935458228423 0.132045958390881 -0.8492940256779713 
-0.6104323473926597 2.0894866863450257 -1.6734598845904298 -0.20133656954719883 -1.0394779883126963 -1.5678335669514005 4.105149558622517 1.2697315104176974 0.8978443697336085 -2.206570200062666 -1.2827231131371324 1.3452372147175298 -1.5410768618874788 -0.04800795507483254 -3.465579090705601 -1.9300113686602816 -1.5385938269285473 
-0.8199706229275533 0.11585395701165199 -0.6182377854190029 -1.086105650723676 1.3711169636883265 -0.054651307676514445 4.837570947584746 -1.7292829232899762 -1.1431378345782346 1.8138922774797623 -0.06034299526519892 -1.5047045108861918 -1.2266309766915302 -3.1755405376132178 2.2321684879746697 0.41952740776383834 0.16822366704112313 
0.4536249410009199 -1.4383969978004338 1.5236262475869147 -1.699669176087426 1.7698454281882237 -1.5785161579653877 1.9319325160242533 -2.386366688057566 1.927534008280406 -0.5463289768140219 -1.3847002963817683 -1.172996368268726 -0.3485776020011102 1.817834509473586 2.6156346589105373 0.3107080314251654 0.376111885497055 
-0.8960168182967706 -0.24530724739443252 -0.19131366766479108 -1.6176801835340398 1.896954412923287 -1.3334472375544812 -1.0743907059382878 -0.8354615189619417 0.34148110454660924 -0.8967529534647993 -0.35958698962193497 0.48311733943486057 0.8353150896826426 0.0006636589058576607 -0.18563449269402468 1.3099117914390996 0.35278164502874876 
0.14594798560486644 -0.32786605152758697 -0.14669491530093307 -4.475832475747758 3.377436968753364 -3.3420566953016 -1.946114717700989 -1.22274804470196 -2.1992837076392115 3.4604402264886254 -1.52162131778041 -0.2859369885033614 1.1636511935130296 -3.0568046931530257 -1.042709417767929 2.092176629279023 -2.202835052351141 
-0.17162386888653097 -1.4146916771245461 0.6318185313612706 0.5466569904608354 0.29877046828334713 -0.9457026679894871 -3.5906802831253577 -1.0717987452230884 1.7005512775126688 -2.5961868957401766 -0.9007468911075951 0.4485095488765417 -1.5148375156638165 1.5971433438901874 -0.5748198039831873 -0.9624111035830331 -0.46097160351575733 
0.5344235703777283 -0.9978330036277943 0.07914691845803452 -0.09135172439840489 1.5961896823278678 -0.059284804767209466 0.3428260981984021 -0.7584600300108753 -0.922623150792263 1.0219322776389523 -0.9209620491624123 -0.948640744935942 -0.35969642149228565 -1.1804935065188393 0.9974876093520608 0.3219979755253258 -1.1957961216144735 
1.1656813547055993 -0.7374036254455358 1.571442806188254 -3.123596887456262 1.465872949466264 -2.209118771519383 -0.30600952014945293 -0.8435564983190038 -1.7812460886762091 0.8399201980372162 -0.4554196441863106 0.1316225262987588 -0.9466007796583368 0.24866339798518236 -0.30325419672422266 0.5711246032760248 0.14694720951021026 
0.13305994749311037 -2.031127108833033 3.0166004913279942 -3.104736120408305 3.7946733840795863 -4.530142708911366 0.6943957017462135 -0.6593850814800091 -0.5814164426686116 -0.4958951969038876 -1.7665784374264326 -0.42100109499761074 -0.7855847045062992 0.19351354385531208 2.4224594923299474 2.432428715420151 0.9470431691564467 
-0.8423767971526507 -0.5934141965311229 -0.2792728321275135 0.5438009846810126 0.059424648651143525 -1.2855805971272458 0.3212582122319911 -0.03543947626856973 0.6889423227721033 -0.5199371219380986 0.2207295026321806 -0.7908935623096779 -0.02223100530813964 0.8689764817849028 -0.2154419307450696 -0.5329298337880438 -0.39595075598922347 
-0.6426754685170303 3.0217517529801468 -1.4748341402496463 -2.139231125312004 -2.333313392230143 -0.23219080590291588 3.1385152922975115 2.73523972987804 -1.2799103010574284 2.0748969428833175 -0.9348231784314872 3.528795782911078 -0.08814990017164569 -2.546449678651716 -6.787357473323663 -1.387245076855351 -1.7986153778731002 
-0.520767464186144 1.1961647987314747 -0.5525848874044689 0.6889830205618284 2.0627473708167896 1.0631184787301953 -1.1256001055975096 0.33410306345278146 -0.693068316345493 -2.004631973098868 -1.3471327475565396 1.1393629046467406 -0.5137280957098994 -2.9027196700218574 0.5447453215235077 -1.2263392551463745 0.21964010836331785 
-0.16155915660065331 2.0019476780964127 -2.0044794583531442 -0.7699753926976208 -1.0565836890900377 0.35722292643592607 1.8204096810887251 1.449745477216057 -0.5616348009176668 -1.3493461844886356 0.24869395907106293 1.084538662585918 -0.49152236950818273 -0.3105455023696079 -1.6044958341178066 -2.143139043771746 -1.251809205758525 
0.07867104406935047 3.2854748884322458 -2.470965084581782 1.4446988522310753 -3.3402326411022063 2.1715169232957927 4.392750139741636 2.3889123909429504 -1.0920576979099137 -1.3967642802622 1.2682526321007481 1.2862489639623698 -0.8543482644297924 -0.5563633226798721 -4.028531186429128 -1.439181969553592 -1.5299517073370208 
0.4159795480515921 1.6629678885827763 -0.41934943472283753 -2.2893747786775482 -1.8428404961412164 -0.7038539295164643 6.746391114047677 0.009301894805639999 1.497641885767687 -2.3243761386243165 -1.5634756051923528 -0.7655163786976035 -3.0964177633101064 1.825307816333387 -2.104921379025246 -2.202152545597169 -2.9375519161649737 
1.0592424907120725 0.340333409185148 1.845697176210527 -3.683986315190428 2.336886975257803 -3.643082986949963 -1.2610111099424994 -1.1097422388566123 0.372026594304096 -0.5387933891936736 -2.025912766301856 -0.060242707173748994 -0.6397445004284618 0.11735038774851629 0.01654707182250913 0.9645869306124014 -1.6947488983187016 
-0.4635218105603165 -0.44934199428491955 -0.4330973850119381 0.5693928245572831 -0.8391955607191637 -0.6467548455387058 0.43628006707145467 0.005194446682208747 -0.5093785921361462 -0.6791209597241935 -0.3617581431740195 -0.21925858260157083 -0.7267678574577344 -0.24506175615752732 -0.6266845420657658 -0.3143966101577538 -0.9001967338216368 
0.21852170276530478 -0.3931152967577946 -0.14131129526622613 1.370674132828692 -0.3156871270987978 1.9667713714395585 -2.613240372983419 -1.3440972344967126 -2.435309642149881 -2.0178183279085884 0.4620460753583534 -0.5614556064582316 0.28393698078707774 -2.643772353627117 -0.008857872343571318 0.7623597583779115 -0.7867805419622658 
1.089470881549581 -0.6751817116895609 2.8182695852899244 -0.8409197814412942 0.5205856847012382 -3.087514294517806 2.8465453740764675 -2.15576017097453 1.9181053723827068 -2.3572574676866527 -2.7493238110781766 -0.24022510975866235 -1.4883929246871332 2.9299746654965815 -0.37223236988977726 -1.5474810717013407 -0.9920784119160719 
0.19126267280801468 0.23550444207560953 -0.07685810569976705 0.4284838406279889 -0.5969374807255634 -0.41458757731712675 -1.309651969903809 2.417822112924201 -3.360102302062871 1.1329079574536234 -0.0955615187133654 2.264272260899678 0.5142253399989116 -3.4131782105431996 -3.525244052357837 0.8747650468725756 0.31613551957358577 
0.39437751647055913 -1.1708621352417463 -0.4741000099626374 -1.182473660729896 -1.6036834440290975 -1.0649337274055761 -0.4779629310071747 0.2464961231611141 -0.048221769146388226 -0.47351064683541083 -1.1250360795345569 -0.5997789326804296 -0.7491823538975144 0.9467692158615513 0.13874644388866395 -0.0044457033176798786 -0.15568150627219024 -0.7154879873304734 0.1417929684909321 -0.5185625991140449 -0.5246164272393322 0.28729102265943207 -0.5278569214909339 -0.2567651616273757 0.7553810213073577 0.7536318593492315 -0.734517327711865 0.5663277464928086 -0.5114465049915217 
-0.12037343845706752 -0.9606489785958807 -0.14537693544230967 -0.1522678239165549 -1.4970831961372688 0.20258746782997972 -0.9218239905814964 -0.517321292631509 -0.9922745016082486 -1.247692871157412 -1.4089037952879808 0.4713845868949689 -0.1462597933558006 0.004086828269659409 -0.3561397827731453 -0.2752928123291438 0.2276757270650737 0.29037134170796153 -0.8415460764664646 -1.1666715416850875 0.060661446461490055 -0.004435646813448529 -0.7356426503638535 0.2547780114005938 0.5550080224064667 0.5179346598927996 0.10242755783787827 0.14646583970908245 -0.29066559998485186 
-0.31065962209715464 -1.1279921864372753 -0.8424576789513138 -1.1519012803396356 -0.19405813777580758 -0.23955840290709426 -0.18116750906550383 -0.3239161085646596 0.4538894132636931 -0.07405068167415513 -0.22594973507510344 0.05454579034924626 -0.7983792152474369 -0.23597392769292871 0.6196809545459586 -0.21869979086624505 -0.2520486174342339 -1.4209194943904677 -1.1133586223345084 -0.39166255444757636 -0.9716261722281356 0.12979265232226694 -0.0978762234010484 -0.32483198924412765 0.5696342522040219 0.4721332949143515 0.4268086949186413 -0.6947048374866147 -1.8951986669304917 
2.898422340920385 1.1155140464260334 0.5646878295899805 -1.3863433345919647 0.3327054567614984 0.11928659794924373 1.5538505382973562 1.9494607475612977 -0.4294187250160611 -0.4626002780289847 -3.284317928731302 0.12358976535741396 0.804895669459791 -0.7890896561774643 0.21214047361096225 1.1229195243842933 -2.626832843257728 -0.025224071681625385 -2.5311194616595065 0.22584276325286354 -1.0188459881042533 -1.8981464702445836 -0.8059740616419884 1.2191428483963112 -0.005326407277546945 -0.5463222869686885 -0.9255320467356011 1.434155262352306 -1.7384270205220134 
2.694192423535387 0.7505974315092595 -0.41813593805165095 0.4710701193534875 -1.8001386683634142 -0.8703935344012321 -1.5889874017752361 0.3654544505155113 1.7832317755614011 -2.669336250331079 2.132714328870038 0.5436941919058874 2.941215228420766 -1.1162966935497716 0.7819667491570763 0.2854190042504833 -0.03315567516212261 0.2762033744598385 3.5899889175249178 -2.1108298086746133 -0.4317953943372011 3.4317669848576133 -3.7684795835518483 0.1706850250670244 0.13027150956720887 -1.730306297572505 -0.7538888048144828 -2.3600697510023974 -0.9100103917412556 
-1.2959120190144624 0.4641727680818099 0.28621591677663544 -0.2856775748800749 -2.121257478910456 0.3874718260647642 2.321807199099431 -1.1169211732841084 2.2459348237148267 -0.08720068459334396 -2.8466896116216627 -0.9708152131049814 4.964526733787659 -0.5611350437861454 0.752255606992765 0.8168630550926969 -0.21948066943021113 -0.13461563451502634 1.9096006252899123 3.5408161595612935 0.14851520060641168 3.2139642868808593 -3.2189142813823155 0.010887497767272325 0.07197895169390707 -2.186866491090133 -1.600323827717654 -4.824793837520638 -1.0372247702799835 
1.427116922929293 -1.0934386830708136 -0.9068649358353361 -0.09697164810301183 -0.8746268396275562 1.1116627127166523 -1.6121006385777839 -0.42100308921006485 0.3477819978224606 0.16954918330557495 -3.722263746056286 0.7443121168040949 3.6686431951635274 -1.1826685055311281 0.9769726373748927 -0.11837982400047802 1.3605566514026408 -0.7965572266832263 -3.6108427055113785 0.28887866456622624 -0.10163687788531837 2.8896526969055696 0.23113099992065603 0.3202551823274231 0.524349443094321 -0.5633038747778204 -0.38049077712726376 -2.8838560256601977 -0.24357519598982072 
-3.3327152329940355 -0.9426888808163115 -0.7134021161310717 -0.9380552104015484 -1.3681744172257677 0.09933540529449032 0.6622677376192322 1.2826517863731437 0.8130698603677445 0.6999863086775496 0.4407822693924773 0.6657973255248313 1.865779357449687 -1.7625050005691705 -0.48908791465497015 0.41177531126135963 0.7779975719295371 -0.9849449937955038 -0.3528967306261302 -1.134793994800266 0.2403982314949714 0.24586030722901625 -1.218692384234549 0.2506951758195148 -0.4059962766173437 0.2508923066449184 -3.859045074289754 0.15823257561750112 -1.4010225224346327 
0.09003238320789086 -0.7012932261433579 -0.9638456307464117 0.012049587674039847 -1.01966030316376 0.28159447529172743 -0.2747229242506628 -0.18489821324981814 0.508784597501972 -0.7708369714762491 -1.1469822639661398 -1.0042708853870328 0.7964687854868979 0.4517202077170843 -0.8050155021041286 -0.6190697286597621 -0.6771134486583049 -0.8260307665020928 -0.14255908794455205 -0.34687494230074173 0.5517888565583268 -0.48960644578018797 -1.1468697191649766 -0.26317207219610883 -0.22166482499748355 0.3523645970425546 0.6842767760764892 -1.0048009692295292 -0.9616794926713484 
0.17189088698423355 0.5400190551017768 0.8236677007766521 -0.7013223106653169 -0.660786489108176 -0.722663252967476 -1.154647539465846 0.6801894701331951 0.17112427593025223 -1.4246560536424373 -0.2427292420611468 -0.1593872592122302 0.4094553234685755 -0.1245389861532569 0.7803266683803213 0.06879717562666735 -0.9130540084167933 -0.23243505146579096 -0.16286301983389936 -0.7820433050480381 0.17297107410405851 -1.1422816402572433 -0.8281900530520918 -0.6863720144382818 -0.4508854233243653 0.6579302590785624 -0.06302011693496744 -0.8876728731872495 -0.6144956876432478 
-0.027296691634120792 -1.0248556879537363 0.831944063398377 -0.5728472956268263 -0.708106044059062 -1.0915296109929469 -0.5634915155353223 0.6921188533780225 0.08492917706319535 -1.0664253005403725 -0.3906508008860175 0.7711925679424503 -0.5716286038542802 0.09080849438289189 -0.7340822239239576 -0.9440816760078118 -0.15043717467268464 -1.1572233291016538 -0.8666350125677827 0.4226104725279735 -0.19305890324237104 -0.06656937707566028 -1.1182221410955666 -0.5751652183723629 -0.04035846729738229 0.025567859566068534 0.27334369659664276 -0.05584067968067574 -1.3247168454355276 
4.069365985083876 1.0823311798978996 -0.2926494806931337 0.29658155546962306 -0.12999682546421767 -1.0755683155846254 2.6295970805037183 -0.4651712655529722 0.16507891160614546 0.8335970992596198 -2.6751434542116934 0.10999196870446744 1.6537517620044895 -0.257268542584985 -0.2798333748598695 0.9980473318422125 -1.3503319975567627 -0.733276144156731 0.42681857990080335 -0.45690734443862 -1.0510995928848788 -3.113216757198148 -0.21500346083765012 -0.5155947739434029 0.07046096377006998 -0.6308510450715036 -0.07064082796180489 -0.44002740171473387 -0.8060247765874149 
-0.6489712629590947 -1.7948400874014265 0.8609190632688155 1.762490022220512 -0.6664955266929036 -0.25900766066377673 0.9315843548487719 3.6735635867964405 -2.1320046270046342 0.3901310109087493 -2.7635794092801076 0.1043300448925326 3.7193862225275507 1.3796144907821728 0.22042470513896048 -1.9335040543589896 -0.03526381852618384 0.5090862864369724 -1.5864081433301587 -0.9038251034455551 -0.8704997092572101 2.9606288483774765 -2.329183610521373 -0.7948018088050448 0.04999093884877089 0.4456667912759226 -1.2096944895225084 -5.484813119654133 -0.5996411038244779 
-0.8391584993695865 0.8110528306113866 0.84463919706611 -1.2858047291922248 -1.771322062512497 1.160015776169646 0.10553022788776845 1.3010544105005006 1.0238105764549876 -1.1527424818772873 -1.2809349490168518 0.43808382290166237 1.1691226017393916 0.2705243464370983 -0.20574380801205974 1.1662402321021703 -0.014041335125319312 0.4792282509525234 3.523332421300687 0.8484009042999547 -0.053332953908833775 1.2466176441354104 -2.3692215900521765 2.0632935795567104 0.07364999660276676 -1.1344238299493237 1.215847983137591 2.351023718001387 -2.134178816313541 
-0.05969213639701977 -0.3600152148566205 -0.6189451909949741 -1.6580568268885645 -1.8031831849737958 0.3223756500157552 -0.8536951545231793 2.2662099473690116 -0.5127141063978663 -1.35533704751056 -1.3900206373795738 0.6929144419313061 0.40531944992239166 0.4266431082827247 0.3432110698503166 0.5079122249271146 0.4797887124408698 0.737458429917068 -0.42523098638122314 0.12098448068895602 -0.4683304046417888 -0.8752103743377455 -0.47882690059615274 2.08642488350686 -0.7882287983224749 -0.09333637936771179 0.5765897608379548 -1.170889610994746 -1.287551415662041 
0.8260617576286725 -0.6290747664679498 -0.39573584958830416 -1.369277492526645 -3.0433850022409508 0.4194602285369898 -0.17586048493145187 1.056469819467158 -1.0728347943894192 0.7567685634686797 0.21724354254931036 0.2943987912475362 0.6814429201938329 -1.1321215948571774 0.8108718387267829 0.7427754908045348 1.5979136235211635 -0.9783543893679741 -0.4402189744575855 -0.35603634287874336 0.4305678690761361 -1.4465394535881169 -0.889983016732605 0.6389615821624429 -0.42795158614734097 0.02267462536084581 -1.8881736919195884 0.4869459050443665 -1.2937487838597437 
0.3400295904991506 -0.760928948674742 0.9085558610125517 -0.9619437009724097 -1.5916222863631644 -0.24409734343888406 -0.4887769205846657 -1.0245014650118638 -0.02409024866795977 0.006514145437107309 -0.8663261304809035 -0.38440772602736567 -0.23621753120271216 0.1707717889596686 -0.5986519918080251 -0.6209306634800682 -0.964023472470281 -0.7863065625186972 -1.0534474256497275 -0.23862010653035262 -0.4231149090716348 -0.9032589703520076 -0.9317131164383329 0.42350196279997204 -0.5785155327570495 0.1080845440070755 -0.5692627890388022 0.5576542351643711 -0.2929295546506963 
-0.17831339747871866 -0.7151134181508273 0.30917327365179564 -0.057678500242878926 -1.3709490054640958 0.057032614568692096 -0.5959969606293347 -1.3342459701626603 0.934750191375387 -0.3476277234407406 -0.9364561096478244 0.37039216707658584 0.38396882772355234 -0.022393687285145614 0.22007332750470243 0.35861238656393185 0.0927974656718452 0.03022153797492319 0.05051007340519027 -0.3438745249775308 -0.12907105994497264 -1.0077408671239532 -0.17479469734318132 -0.7442466553250154 -0.28834861882101115 -0.7758427246443184 0.15691635835795176 -1.012810698699275 -0.9097637251881859 
0.609167493715727 0.12274134164907687 0.35022151084738107 -0.7614184952713202 -1.1037805423795757 -0.9766307944411923 -1.2391527427155058 -0.21015081354181214 0.4689393200206819 0.09615474715711587 -0.939798049649285 0.05157980924236479 -0.6821812410554389 -0.8573570624071887 0.19915231284848403 -0.7666024541334597 0.1136560569560174 -0.5700896021196998 -0.5439105205746804 -0.7270695863312202 -0.3281889581774069 0.22099540957848124 -0.4042675311984859 -0.59214603164023 0.734410734892731 0.7282077958593733 0.8116845459571962 -0.4848184995716393 -1.1247707476000715 
1.9278594082041975 -0.7118024795795499 0.5074354881857112 -3.100332388710105 3.7588662297016744 -3.033687274114631 2.5904243548373826 0.33208449409018886 -1.3059455359902064 0.12849438540917493 2.514425899259713 -1.0407283413916202 3.5453174362548476 1.2830975577863546 -0.5712071062203015 -0.2850551120651577 -0.7550631126273422 0.6637586759865345 -4.074586959459643 -1.5881279705882225 -1.061988122354417 0.5305247362233826 0.6814363489571826 -1.2050408279683875 -0.0011738530019737565 0.8138621523921566 -3.050772182260229 0.0947050434177126 -1.791894194191727 
-0.322466366312983 -0.27775754035516004 0.6443818494613265 2.594810774539612 -1.4587346063795348 1.033987063486773 -3.6382478066475468 1.2566713036749397 -3.2312947382640047 1.5642187644674082 -0.5393326874405577 0.7028436191750533 1.5798394488826073 -1.846815899187878 -0.4399090406043889 0.8426147814107333 -0.4361642675586097 -0.5103772959629647 -2.175087620901828 -0.13183448095452202 -1.8675960164152348 2.168053381818627 0.17224628473577971 1.2491345931243127 0.8185513945047285 -1.0663485223359639 2.3935346640959967 -1.9771377765068376 -0.711695888856524 
-0.24481162121811254 -1.9051359925370068 2.366147438757758 1.0063458691079326 0.5723177379844359 0.3652521843948274 -3.2155004567848295 0.6212070686955511 2.792521939962084 2.2189290006116424 4.1405577816544055 -0.8567128720048768 2.110127370777088 0.02745922908582794 -1.5471775325384065 0.5358498888364487 -0.2607066088903546 -0.09619504026828916 -1.8566714424024346 0.23765173404997722 -1.479831284699553 -0.8608045823985376 1.0804226092093763 1.3155991081149563 0.42518471084697124 -2.111032959563739 -4.579295101780304 3.6417779920412463 -2.878324907050741 
-1.0370703058244601 2.4690726770941835 0.6276311756014299 4.578738788514239 -0.8593893573442736 0.061294950244902904 1.513213486460994 -1.3622063523046763 -1.0426578712910242 -0.5598058057009068 0.5940424787023808 -0.7140327438291396 4.305885984479509 -0.07075048127820728 0.27873989057547105 1.4470869781852456 -1.4436498954898729 0.9910548119943504 2.86107083437858 -0.9261772004506282 -0.47042436422133366 -4.15714093562194 4.77202741569679 -0.6201967566297544 -0.8149444358915856 0.023917686923617922 0.30715783820880505 -2.0206338542382056 -1.6258936062622196 
-2.384843509946812 -0.9005478672134867 -0.16696325306955892 -3.4580959069182415 -2.6439833805582342 -0.7177144054355559 2.8423093201692353 1.6213570749506943 -0.3469107646863335 0.04672242692524111 2.482437345795189 0.1997294690914012 1.2297962427927234 1.6248849416871833 0.09640570389156668 0.8257036041990413 0.1783445218320341 -0.09478741121787361 -2.3560664728913365 0.3155182972604229 -0.9898932521937002 4.111918594068207 2.696079358946814 0.7864711791417285 0.4863616960201229 0.8784400647852496 1.3417337493005987 1.2526143061022412 -1.4122043131254904 
0.29664267676090084 -0.9715051206400301 0.2147015763587149 -0.08924406763943131 -1.858566087808205 -0.07400647091333723 -1.139264099109763 0.2949381459309405 0.5370665096661353 -0.9838936040343987 -0.1494663035587477 -0.49407875138196045 -1.1084659684163765 0.685848882273494 0.5437718293032443 0.29247588433704336 -1.026963825182659 -0.194518315049521 -1.027826370885953 0.24935670647332245 0.4815640927082751 -0.8952916331247834 -0.2899528048095232 -0.7054823716495287 -0.7481650272133094 -0.6349707628957373 0.4159522830484114 0.14051414325407624 -0.8491293871997034 
-1.0763911291198114 -1.352250061939258 -0.7372567304253227 -1.002060529573257 -0.18538362902388775 0.280948967052358 0.08964011338382712 -0.7241797934517101 -0.9813442271924216 -1.4367728436423528 -0.8235912532415244 -1.0543288057568159 -0.06869023854336362 -0.6786809936388104 -0.4235306949690598 0.4873234995906876 -0.11263011469445645 -0.0300829189008382 -0.8086947039104136 -0.5937954994169392 -1.0741622632445 -0.4698620480087544 -0.08900356557341337 0.6601527673370243 -0.09307211108111735 0.7833951012816679 -0.9766461659860346 0.5853198805098799 -1.1938479223050162 
-0.8170398741238446 -0.2073441846592535 0.46856615027325227 -1.0253703061981412 -1.241396003305824 -0.2550189822238758 0.06169734326789823 -0.1853223038550597 -0.19690800854816207 -0.7396497279035442 -0.04815224789511721 -0.21764889712936114 0.12344884652115846 -0.69977230004722 -0.016897761830303167 -0.7126435692624445 -0.7013190386974767 -0.5908679674619611 0.12271685577937029 -0.4620672764191529 -0.6185987933692795 0.5536878181271713 -0.47316974179390364 -0.5810951933162802 -0.19032858135898148 -0.2257278854147942 0.4559306789054536 -0.6787225682655835 -0.5703829661774347 
1.2520283626609536 1.9375119370947618 -0.6356856881074661 0.9983772267555076 3.7551893691464597 0.9858490020539995 -0.2699858957430442 -3.28066289836153 -1.5782083058112015 0.24596537108486363 -3.7881476858055643 -0.1296158956053073 -1.5116986661437117 1.139157349804577 -1.216739637083591 -0.5707711743060033 0.2553412003328141 0.1784079074500208 -2.689889676784697 0.3029467755014887 -0.6160224137950848 -3.834128362126266 -0.8834436350585739 -1.3257695579239799 0.43019607284452743 -0.8106457878071516 2.7000373979028858 -2.6805488479551007 0.8088692779798193 
2.5375144736460933 -1.2047207922654966 -1.1278450141807967 0.518856920577742 -2.965802449831984 -0.34575725815588526 -2.4229789034713636 2.660146226127286 -1.116780450520082 -2.8627166644800486 3.6874848014831665 0.015970321502446018 2.480434669739039 1.9350187947046418 0.18430386472956814 0.325903486869251 -1.205896392363189 -0.20376809902158183 -2.3204509807986757 1.8874824558265946 -1.3441965175938362 2.6988613180498278 -3.7979953030798743 2.8838451227845443 -0.14786605861938915 2.5129821020074528 -2.5285963630132295 1.4524931007297774 -0.30704615384227335 
5.260384452872594 -0.36903732820315266 -1.8769438688237203 0.44248404378467143 -4.873779581608361 2.7587709942008165 -3.841202317429401 -0.4606710467021214 0.7892594068447245 -0.19004465368473883 0.14190500601096218 1.7584732034806219 1.1086807373827987 -0.37655669979664336 0.7560355131473588 -3.0078796760892863 -1.5765518697872065 0.4308503629279591 -0.6058674969839832 2.586133229245695 -0.4784576084298541 -0.44056835775669634 -4.322697648105816 -2.7378874299428153 -0.9025274751085781 1.9131329955870946 2.2999634035390764 1.1949763330930467 2.6256833972871214 
-3.0806320215184977 -2.2286731581088906 -0.993801251441484 -2.9209543570272736 -2.3280150306968985 -1.2251560001012498 1.8866458054218458 1.3249875455544409 0.22406059038247092 2.186080506741591 0.8140486858635351 -1.3251496709382384 1.080802640637801 -1.9752449833651267 0.42725461609217275 0.10163659091793774 -1.2826014584759249 0.036692919854247004 -3.622256353748596 0.9906586729597133 1.274385704806689 0.7520298769421982 4.048067515875854 1.5751535695963432 0.77946270483816 3.1162519007649014 -3.8248362287858497 1.6430056927637526 -0.3592730806009311 
-1.1327608691259126 0.08496735179300906 -0.4276538878841638 -0.7432798696646012 0.48689009610315276 0.529675666867841 -1.8573334370959067 -0.0973233427576044 -0.3792214383254727 -0.6839320179248258 2.2222994263188594 -0.35925508639925446 0.09898697910776967 0.13339749389935723 0.8053524686768418 0.592327808695407 2.776040951194867 0.5494774340205716 -1.088571954319231 -0.5116143092823262 0.3631268487679462 -3.157200449100865 -1.7410685121924725 1.1790080518074078 -0.8962516456037855 0.3906179630813855 0.19122063534260167 0.10927840311827465 0.0524203107187412 
-0.8652108355462397 0.4194568789958145 0.38169191180263606 -1.187909218565648 -1.047321809652857 -0.08945207960489876 -0.25646676841955013 -0.9761077900500907 -0.19446814622525038 -0.5882742567342765 0.2516261299588113 -0.5481398523623405 0.08701011141351601 -0.19725311638977366 -0.1841216131167134 -0.6109864420098006 -0.08079609331479817 -0.2865821752390856 -0.8288691844772588 0.4179455335289605 0.19979099547200824 0.277655431699103 0.5059739636158281 -0.7694066824537669 -0.11615103729599176 -0.24887997148004531 0.4836478741099885 -0.7013506003049205 -1.4896044849044696 
-0.015915597812237656 -0.5696201228000678 0.601255278987713 -0.7010660428848309 -0.3920649901852958 0.35109293618945814 -1.166680257659976 0.26977303440984685 0.34416239105935764 0.3425431448282745 -0.6981234168140108 -0.2861799969166623 -0.22591634301846164 -0.049606376956861195 -0.20429350099138524 0.677141482887417 -0.580249115507188 -0.5014310474820037 -0.160034640677212 -1.190555949540393 0.01868467838554918 -0.05100957091434202 -0.6693542666285145 0.3079124483560121 -0.9739770330384637 0.5311080286461028 -0.6115765003382171 -1.2242547285488057 -1.1410608648928617 
-1.0291734040787819 -1.0142138896862267 -0.5191752381818063 -0.5025764493858238 -0.2170917734094026 0.33613224028066807 -0.9309992054309759 -0.20012934070845595 0.3096750672404644 -0.4325040222498185 -0.7996447989751567 0.6543754308245596 0.46051166345668515 -0.8209670854337706 -0.21169838782003225 -0.8048489058680859 0.4848496626618755 -0.11600562907182821 -0.5984197160637552 -0.04247579730551341 -0.5193043023240184 0.025986958159183848 -1.0488510075310369 0.16642123783272386 0.4218795716013353 -0.9233722858022158 0.08035564175827198 -0.3450836770777079 -1.312268321089956 
2.3276062505854638 0.8161183830943539 1.054202396020792 -0.13798299696985875 4.507700815209951 0.0039158859795805365 -2.7475636184320504 2.11112947703378 -0.3495171439331591 -1.1665464753017942 -0.6300896122669181 -0.8361324041101956 2.3474701240699347 1.6936763557146586 -1.1637451108303352 -0.054279649047079645 0.46951496718006175 0.8818588320806865 -2.8822277063792523 -0.22082427646371663 0.02269395308836776 -6.042271936128275 -1.9917081797087886 0.6624561659773064 0.30383632767604185 0.9266865938523747 0.015724417253961558 2.489361307769366 -0.031582785172001776 
0.14664928316380305 -2.3817997658108134 1.5001007138771727 2.2275671365361096 0.9081281098966311 2.453545145531181 -0.910506832210422 1.493727605143332 -3.1273683441054754 3.340626293967366 -3.8503652123588754 -0.3111713471512156 -0.22112821427184118 -4.083990354815711 0.5363174819266544 0.7640894890259364 -0.8748229140515592 -0.5463237322337708 -2.189374587550211 -0.9332020000792576 -3.12869215397906 -0.057467133071821434 -1.912548610506132 0.0793086073186947 -0.4911258661829924 0.023459687017550045 -1.0211694222557246 -3.51382011898792 0.4393105290253715 
-0.5566043612952696 -0.5566723395629266 -0.4467370415703259 -3.266403106588074 -0.004129827141083633 -1.7539823582221958 -4.015559081738497 0.9112979067106305 0.29307258613100473 2.4350917588603873 3.5550629743707547 0.5395484842711027 2.3683155644324456 -1.138476349975806 0.34373617983480503 1.643458266784846 -2.4121142525026524 -0.19258116091376964 2.950954205528967 0.16177950480430947 -0.4318421649125713 -0.05064802265183293 0.7851650664945258 0.8460653623928812 0.8825114144081653 -0.141364151533376 4.209135132197717 4.380690774540461 -2.1210934650965543 
-0.0304759953773265 -0.0021439890228765602 0.3438369656045377 -0.7539870989314439 -2.6223980340130058 1.1205649774124278 -0.5362517074498006 1.7913270947461382 2.4367982163869675 -0.4140890572767012 -1.4624340726888123 0.4866229150607211 0.504400965783306 -0.7584006672030095 0.5178923159967165 0.5054715766103892 -1.6116077452456248 0.2637932422461461 -0.6641032630693537 -0.8746156020920036 1.3900368445441729 -0.7200736156217558 3.788460703606809 2.2670819698162603 -0.8411098462154226 -0.50006959263458 3.6043614363663226 -0.7612158604532069 -0.9867948074712445 
1.7556576549176193 -0.49910703570857307 0.5344787123329473 -2.5780593300108574 -0.16592624301522588 0.8881298111532016 0.47849364111714116 0.6725824815094968 0.5879227225305033 0.6555931653358771 0.9491139019844061 0.8728856248119856 0.960059222521241 1.9308676089768637 -0.4089742391210948 0.6789899629071701 2.483793109577888 -0.11948049360480317 -1.624180606683416 -0.27523481330361776 -0.09568054114621527 -1.9678046700646923 -2.140813122198945 0.865350540467282 -0.9512651647206697 -0.8641314383974327 2.267790608672662 -1.3061948719387164 0.11542959614392238 
-0.2531742910898244 -0.44863788347085265 0.6064060293563817 0.4986098123082231 -0.9435506868583586 0.3995800811099461 -0.12053554701824444 0.30898158719106794 0.14529815314975777 -0.9759328064176673 -1.5667897760389526 -0.3948597952372265 0.2972273650243824 0.25653505769092333 0.1172388125805905 -0.09884857381423455 -0.16486228486035623 0.27637873039064703 -0.6646259082758335 -0.9627403050091845 0.005391883505950056 -0.6114784709716236 -0.6505832431043772 -0.4092280377330854 0.7289193565070475 -0.4500653570262004 0.39232503684047004 -0.7487380916600057 -1.4484416498031096 
0.2513173253625633 0.4347045273098082 0.907214702090947 -0.7418509067108574 -1.2157098041219652 0.43052499824315615 -1.3137023567322386 -0.8381771576740619 -0.6444076713017142 -0.72950328530589 -0.6091859487770707 0.4281373909551204 -1.0892290340191515 -1.0251938243284466 -0.36749154842599363 -0.398124240242146 -0.21944727222185434 -0.2754609020084202 0.09595318456118991 0.356792712153871 0.47426358098334037 -0.033244570936234855 -0.6495331674792739 -0.39393554326875707 -0.14062694513075766 -0.14183913821836258 0.05834182711562492 -0.7863326660166177 -0.5831464926459486 
0.07578260135131452 -0.2050855564886159 -0.8082577127941899 -0.927387288387153 0.15255419943527193 -0.4778355726100453 -0.15930459561561242 0.28027946083566097 -0.4051658612791311 -1.156106822619581 -0.2582538324342574 0.33888364361319895 -1.1645394564474487 -0.04638022270980371 -0.1894737238875281 -0.897057950367625 -0.36889396711962397 -0.28461639335634714 -1.1508424599679077 -0.7026552406177697 -0.2604808090315831 -0.8229057793344275 -0.4402467511347831 0.2310109875673812 0.0013834740214726947 -0.1675366558724116 -0.3152487006670284 0.6638695552362393 -1.4399061713132961 
4.034834926380516 0.5948954291997675 0.7177818265009693 1.0850473397790694 0.737364082489706 -1.9681447535565058 -2.040128950605272 2.811272705088216 0.6600072685950338 -0.9111215489709998 -1.6532196418734006 -1.3665437302879941 1.0605604467339922 2.6092958687058103 -0.41358526959248526 -1.2982410259750865 1.0158226531670524 0.8875622323846291 -3.837320382229792 -0.7352563061077834 2.2401958629940375 -5.19898282124208 1.8702652757552256 1.3899420357917815 -0.9203612825805001 2.5445877766151708 0.4684111893776303 1.26047205171587 0.6192670420702044 
-3.4466943262379046 -1.2542879113426366 -0.9830302725667778 -1.5773890547710914 1.1068205917055103 0.49495223839475366 1.8559004875337586 -0.26797589708967 -2.995845886494205 0.3792927114458774 0.177760107864223 -0.47190112314536203 1.9759897204790262 -0.6497537946972518 -0.5176298864217566 1.2037974065000208 0.7436232759744067 0.14845520245472463 -2.6056964055138896 -0.4170830811837984 -1.8237876516451943 4.8831133665811395 -0.33181775483464104 0.9514883002062787 0.4919953662460763 -1.6877352135119217 -4.6153293461025795 -1.6039793112584255 -1.1384521474902178 
2.7363621313946274 -0.7288617259538882 0.024141526291627826 -1.574398188751662 1.1152594235657847 -0.3973369440337231 -2.9120001349449303 1.5711816698408492 1.9432496239514894 0.19607685155809512 -1.4173022803490327 -1.31864070428842 2.4382270132524426 0.8058803575717456 -0.8933649718298109 0.44306580820072344 1.1585131566856894 -0.15808196359951887 2.3876451723640577 -1.0707902770213351 1.54657819813866 -3.922212380866719 -2.5422712268335874 1.5276512991680977 -0.5372439231786815 0.15114557701877704 0.5385494180114214 3.699943369479131 -0.8002842589828423 
-0.28216502157822376 -0.574214993106051 0.2412456344910581 -1.288289111893295 1.4661579394653736 -0.4830415166300003 4.383812128555043 1.0877125478753304 2.778505957215747 -3.815790823461912 -1.127386659316299 0.060408051494274924 3.92764955576644 0.9827102467955352 -0.4818013179362804 -0.1486462081513464 0.48760486345892445 -0.5548692760225354 -3.892806045787255 -1.4999571575786583 1.4007133403007945 0.6958965660202744 3.448406968085275 0.22693748023778584 -0.8843289479757487 -0.43223368135859763 -1.2540674119870585 0.3541456611753754 -2.100927084405581 
3.8320060427502494 -0.7912923702137437 -0.4756810452644684 -1.8256147766812518 -1.7039890424439421 0.5080075130779145 -2.507621270044692 1.975453273859139 -0.6332281462633643 0.9063684579079337 1.7731479236613208 0.6560842458944964 1.4886750125580257 1.6605962803607526 0.9966558281968876 0.8569550071227668 -1.4496496529893068 0.612339209323048 -0.11201107238984033 -1.7212775726085376 -1.7674452805811212 2.7138605327097025 -4.307512231479758 1.7362955564518774 -0.34436784734532105 -0.2638764727776838 3.039879944272842 -1.7409811556820158 0.7089289407253019 
0.05629071451588325 -0.13317845302924752 -0.08170615846887724 -0.6717274952426021 -0.5895113818243841 -0.9280776390678096 -0.5973558475684075 0.0746961062928287 0.22602402859660525 -0.31842436026164317 -0.12457613617230394 0.16701420199969733 -1.0578852337653428 -0.5975560897962591 -0.9989332765451477 -0.2162484707232967 0.16564963876873787 0.33425676464666515 -0.0893090483886283 -0.9892954454983095 -0.33247366452696864 -0.4614050621545804 0.5123901668305186 0.7414736831197439 -0.39719443163649315 0.3008718029464369 -0.37516466602359916 0.3004762174184906 -1.3834615497006189 
-0.10205429065105866 -0.05373216374718323 -0.7191433869010203 0.07824289538180557 -1.4713947881104408 -0.018899662022808114 -1.4469205984430098 -0.256684237777636 -0.610654437177348 0.037064718956879364 -0.7790944645513319 -1.2216528150860237 -0.7314515252518032 0.19980068685029861 -0.9050347993525878 0.540465328846037 0.21581037723822644 0.31040321193796466 0.4293640710915479 0.27602222144326144 -0.5269129816129847 -0.17721226551996047 -0.37432727922718784 -0.5014124729465099 -0.03282645737078226 0.295819575302046 -0.30002425505092534 -0.9750085546790249 -1.0400959473209692 
0.23091090099853742 0.7908815626175038 -0.7029080865320364 -1.0476334484879275 -1.115213119984628 -0.8793805534771018 -0.8700318027380471 -1.029169184111431 -0.18253367355065386 -0.7061161225822574 0.18830459322428564 0.013074093361455746 -1.0167192925948156 -0.17646886515366636 0.2880475573812411 0.5378195017561612 -1.0599794501609323 0.5686609432616394 -0.9501674677193733 0.9175092972326884 -1.0192161393265688 -0.7054410092741019 -0.42025360823372726 -0.8858233241760775 -0.6596391448859888 -1.0247958620925557 -0.7904977602802787 -0.40188476448496385 -0.29522553886611197 
0.4886333104841557 -0.36755684495670277 -1.1190661162522773 0.9749730550577349 -0.23902117256298794 -2.525843769429696 2.298464614048891 -1.3181600751225664 -0.28359086488968616 0.06510206604080941 2.0882619170492687 0.03165208331920704 0.1730145337654775 1.119040139890095 0.15871171760742794 0.2601359100590919 -5.57727556879809 -0.9067566012295811 -2.9648385462007005 -0.09658228352556669 -1.637197669685956 -1.64411370780791 2.8960393216721068 -0.8362743467748016 -0.23080473078229044 0.9794356049939165 1.404514999520227 1.1445759701088 -1.6170615596801314 
3.8794760214086965 0.5460402548455225 0.7135989921830165 -1.3278356355205678 -0.4371886329142536 0.7802714918957386 -4.372226664575022 0.9346922344688232 -2.112051244199068 -2.33927232076241 -1.2461692014507304 0.6034792101723517 2.3473467258752105 1.050650083808326 -0.07709149075145959 -0.8172862531582401 4.362192566146517 0.5739236226434394 -1.3158904232489184 0.6439480498856053 -0.15506648195749725 2.507490348745299 5.484967930389262 -1.3662610807939788 0.7245676264991462 2.647575842895982 1.21623963824697 0.4808690845760935 -1.0316035237333498 
3.3499069991045145 -1.3859377977877425 -1.1416907257315274 0.10915314577817652 -0.659217648399073 3.0085212384474067 0.15132377356709767 -0.9001220843587221 2.4906309885088884 -1.0753775348556107 1.3452591562980156 1.754070332479132 0.2613564948960154 -0.5770356815488404 -0.3746570509524638 -2.633370459075388 1.9898842832330894 -0.49254586909439546 -2.1868092109542725 -0.8233320217103353 4.98130058594005 2.5555084111742943 4.600190304779137 -2.269613354545649 0.78094888566605 -2.399160635864257 -1.466883784034301 0.9200193739432835 -1.5437887889490207 
2.5538406976053496 -2.5990496391755284 0.2137907981974818 0.15640116727158707 -0.829746200042797 0.3232347662948826 -4.567435041439859 -0.630668178359292 -5.362804598544428 3.285324465148375 -0.10226411085764218 -0.17846301343779578 0.9030169946184295 -0.7580664562906677 -0.22000342555448624 -0.517245251171405 4.0375425844130595 0.916840531251279 -0.5758362162154677 -1.5985500064296445 0.9686494817621965 0.4324912654616588 0.21859160573155345 -1.0335428276826155 -0.9000688708877346 -0.7313391027746893 -1.388502504347653 3.862439320809126 -0.061660161314384 
-1.5950826231848747 -1.5640374571750333 -0.661176772191132 -2.668523011734895 -1.4903345775196861 1.3625741669917635 1.858977235380353 1.2292165251365867 -1.2557348463392617 0.06986968222468616 1.4473290673861807 1.854400480381211 -1.6352921778676164 1.6132111344839026 2.0274231430451315 0.11035934187841234 -6.93216404852529 0.28101940108952533 -1.5960813959033975 0.0013231967089606781 -1.7721254859459052 0.9447527990406367 3.5609581374511015 1.9279799042322912 -0.6099127918350643 0.07891934645198495 2.6892080592948093 2.209117421066505 0.5429073337015953 

Epochs: 2500	Train_dataset_len: 32