Layers weights
-0.2427715108052169 0.4398950945755576 -0.8944549288320778 0.16307914916971805 -0.736380144631193 -0.537863212510131 -0.18566827482150794 -0.12451996628495182 0.05481530640091554 -0.3837641760058621 -0.7065212835583482 -0.3159257141253623 0.6284720910853263 -0.3655384505585725 -0.21641884585736168 -0.853819081851262 0.5239004089595484 -0.5176269260937415 0.2061037925329555 0.6480792769497139 -0.15250096886250208 -0.941993600952431 0.5184125028140965 0.37386557978196205 -0.7221864904048154 0.4324030389545158 0.5303774315885355 0.7704836860833243 0.5374427938941836 -0.5360006109595392 -0.5638099290745145 0.32192058778150956 -0.7959160583095546 -0.329036707599559 -0.7998960567522156 0.2292145021625907 0.4688067810961257 -0.5440305936066903 0.009832693198428328 0.30825419634222057 0.5742417904735575 -0.11443782575023774 -0.98863289298276 0.17468457420838268 0.21417551540510363 0.06021846404543482 -0.9699888851255396 0.034456519310219404 -0.8042843583524483 0.2645094535065074 0.899575900390872 -0.5006569790192886 -0.9126237084379818 -0.7686287280456744 -0.4464592642087284 0.6332846772377992 0.6763937264465897 
-0.6416542274811295 -0.7850239323781211 -0.33418333574880693 0.8538932679040218 -0.1080363937333377 0.5174787539415584 -0.48912266849523867 0.6820838955523433 -0.5151321906454942 0.6224947069813059 0.2815642336906397 -0.5266245100737301 0.33731349058812393 0.738807478000328 -0.5502844880755959 0.4327274385159794 -0.905690126689243 -0.21614495183232404 -0.34065942162767987 -0.6223590480686476 -0.8910565784268341 -0.9324156996284546 -0.08240163461234228 0.733313494136979 -0.4098198070119526 0.4732252672556013 0.2695500817188072 -0.07387166656454988 0.21365406740913995 0.6415066150778429 0.5499725536578645 0.2643946160886578 0.4710485960645645 -0.55375563951788 -0.28300894469722987 -0.1229306163694634 0.9497161462558036 -0.35599545327357474 0.5743604134094042 -0.10568156373361934 -0.5681837258818304 -0.06303342395379494 0.6698997267491003 -0.2826863555343447 -0.24795738676701987 0.13295786584543 0.6318087452892167 -0.07618095085264624 -0.929507531621247 -0.6484519268566417 0.22075926015030878 0.260849074588463 -0.7838075161370367 -0.5795120103198746 -0.03498017305549995 -0.9249871298663307 -0.09995845929772826 
0.48314536031670263 -0.8330952518825466 0.8600193314756925 0.0045762000062366925 -0.3438601869454313 1.0553640132309772 0.5799272986101258 -0.8075103841884521 -0.02728753292684553 0.4485783477877078 0.7023932192912353 -0.4601569204640315 -0.7977839312223296 -0.5147487833831202 -0.7677356773092697 -0.48053380512660726 0.406908109726618 0.165529683765923 -0.5441321060095633 -0.889290419750859 -0.09298306801794604 0.26893129623820555 -0.8989965405428686 0.10989091498808226 0.142142995126576 0.9545698150929174 0.3925888924310947 0.7087030664757459 -0.38760032961687885 0.0761723315527892 -0.11230572949945095 -0.2214269522790332 0.7699124992196297 0.9520171844207008 -0.48645556810115426 -0.26213403825268383 -0.6488037530616652 -0.9435407642164705 0.03753059940426507 -0.5135992430851569 0.9999121645960428 0.3482565587448543 -0.9848074923960083 -0.5533966175938805 -0.0593262102947418 -0.537248318989153 0.12857944646358913 0.9733133435993458 -0.5142192683992951 0.1313463478032544 0.5072682835437586 -0.0921409788518344 0.6498965724810394 1.0226996701192677 0.06515651733633973 -0.21250270321418077 0.22476311064617435 
0.4294209286989236 -0.68596036658793 -0.19227477279140934 0.059204740929160546 -0.823798962159838 -0.15074968634712274 0.20155957744918132 0.21625722164002686 -0.9783622195023706 -0.11154077425492975 0.5158187987576359 0.5625025758210968 -0.6787539757973575 0.03272767225884346 -0.9317116874298588 0.7273700496234259 0.8499983859810065 0.40106255739326546 0.7303839267077257 -0.12203413279708035 -0.45895958654333363 -0.18024103941047276 0.5385010104758379 0.7361653877043262 0.3219050840060226 -0.4905285494084244 0.5434107129647054 0.9333133476302997 -0.2842605716886745 0.14238073327941364 -1.000296723662217 -0.25415706556498435 -0.6357489538472801 -0.08610825893066307 0.36920917076464843 -0.3752179861795096 0.765950600789938 0.23729857247912384 0.2591548463794755 -0.2292820620259677 -0.9026425940830384 0.015101436618627364 -0.19836703415861723 0.23822502482430646 0.16541856920151898 -0.9657631469170597 -0.6700094802437612 0.39650087744933177 -0.4209810015428655 0.5092886944147166 0.7926887786816053 0.5388772251173478 0.5960535199351749 -0.6125567392228229 0.9485901638469132 0.16866547963102194 0.6017158364504839 
0.7542603054820474 0.8748417589316309 0.2892092727286834 -0.35815829840017027 -0.796300884945023 0.5381280793349035 0.1729079728853027 0.32061735585347284 0.12952349402848756 0.10164529893863315 0.06269685270459746 0.3753631812175479 -0.5561341362331014 -0.8602279203405981 -0.8531314887627076 0.6242828954009884 0.9472253700285942 -0.45849051745401975 0.05891642558813265 0.8397794204802691 -0.9484008189014349 -0.4565323163925366 -0.5155480114082257 0.94253833345209 0.20655079996292405 0.5586292837856368 -0.3995591928248024 0.7492075839086177 -0.6295160996059593 0.470823548576519 0.05452959812396616 0.37160242587844045 0.6393583802805085 -0.1895087868140844 -0.14458930070946904 0.048623331004844984 -0.37560214052207846 0.9444773583284669 0.7841688726572938 -0.615414097213342 0.4210990087975691 -0.3577285052515559 0.7961992797991895 0.10464638390466109 0.7147906381207068 0.8958080276279136 -0.9297287024061047 -0.6413660803504224 -0.06150456735833966 -0.5138223651223152 0.7654591971139071 -0.25738561614072253 0.8186399844342115 0.03462742788441167 0.5301311183129154 -0.28723995654258283 0.08531230669672103 
-0.0885189405816977 -0.4224556161608708 -0.19482494861122093 0.04417480995024545 1.0082356377079837 0.8196230055271556 -0.33364910971743994 0.23785546672868466 0.2911792083255561 0.5783681481753253 0.5951614700425656 0.23325717864736908 -0.43603481349042766 -0.6037460040240463 -0.24897736138431165 -0.5750434523442993 -0.338491384698469 0.33760407128453407 -0.9981798785366468 -0.7940181596822152 0.9171066734687171 0.022844611509760346 -0.8709322484807527 -0.6845230713386548 0.7191791296877063 0.0360410239773026 -0.8813811556735489 0.06103349015286288 1.0198243630566641 0.49606683687229625 -0.11757956535324432 0.0010964607844304271 -0.35252381673621974 0.6262863888213696 -0.3224254098059752 0.14747158746208877 -0.5084599781947375 -0.5693393353154397 -0.6845514994275859 -0.5102250841965598 -0.07945319762685046 -0.08742166497546341 -0.0014135491383342935 -0.779252186979339 0.8900854663412388 0.2421228286880267 0.7348943549133086 0.7042231097604502 -0.1186720827666446 0.1872477315681838 -0.8409425367097614 0.9383301621150456 -0.6935441989049125 -0.5599687301922097 -0.6670671848731279 -0.13274643949573428 -0.661347721993395 
0.3149662785778401 0.48599280957540214 -0.10903671954861907 0.8095171077001744 0.408129477241916 0.5824700344683305 -0.575308924908889 0.6489717097207817 0.46774350883138893 0.9028467705903443 -0.31202817171720776 0.5661949409029533 0.5729339268280306 -0.8601175185043639 -0.3547391771010565 0.34510205684552964 0.20635415823280914 -0.032361336826860154 -0.9201426335076105 0.4014583181940845 -0.21031760354558396 0.05545639745699124 -0.9144288654188519 -0.34006539121428253 -0.9082458993534998 0.9189975626718492 -0.40025080410992003 -0.0413247875545431 -0.3528429439923069 -0.2064895617730364 0.21343263861318165 -0.5914789798873802 0.9185628067768908 0.3494092210754518 0.8984816212277417 -0.033632983807822474 0.3259172275781949 -0.3203465377652966 -0.8937739360760301 -0.8519486509006452 0.7113577018059057 0.5037182679734868 -0.7586856595489915 0.48556808587870487 0.751189807134607 -0.6531340224726303 -0.7009132591560729 -0.10939956535505235 -0.07400614558151782 0.0805830123333106 -0.293187344698533 0.8745736100691561 -0.9762649288196429 -0.8271355146144354 0.2108806460418926 0.38934074376240646 -0.631300279671129 
-0.5520670328590171 -0.20176773553555732 -0.5980739777483514 0.5989194893285307 0.32873599517032676 0.634608633951679 0.35851537193013633 -0.24228063279356232 -0.5882474086779513 -0.5677980587664818 -0.980442641648162 0.3187353830823524 -0.8034647136028666 -0.23688511738408705 0.30424225515936126 0.44523365998905035 -0.16095012850007004 -0.7545750190853103 0.10185828247718352 0.8318345434957286 0.4836245177561274 -0.5096202492025707 0.9116884585678496 -0.3579079456328604 0.6107147496373234 -0.6828255266515275 0.29623253018359175 -0.4838864924656489 0.8101609552169325 0.5995844544581621 -0.7141016229611681 -0.10661122144342837 -0.6855348517111967 -0.5962562309041035 -0.8857077667884939 -0.26828596015988376 0.32466647127525994 0.5548330024128334 0.5362164333620284 0.00235989970528477 -0.24357467279504005 -0.805186627230218 0.7477668004339441 -0.7495333703578623 0.49616081800733147 0.1134506088023696 -0.1943709896103778 0.9377734444269389 0.022468337356422716 -0.8381428435443892 0.3353185172839198 0.4926646631115337 0.15969594671238857 0.5873156740050258 -0.22695232438513277 0.3407541394688052 -0.18441518422433362 
-0.840078164277876 0.1405260243625091 -0.6600926703264298 -0.8736502230447016 -0.34486374475950565 -0.09731674947906367 -0.040294408688471124 0.774188720347797 0.8858030200486513 -0.44229259985431085 -0.26284949094994925 -0.4958764264353081 0.543502915315362 0.47544014923786093 -0.27549182407488615 0.0853541111881369 -0.09933083315984531 -0.9037054102524302 -0.8151661606878243 0.25489254218173707 0.20960899940733965 0.9204057028352545 0.5137405572566571 -0.2645525247702045 0.44785943332957256 0.8374328430944771 -0.5257700239823578 -0.5622909573553926 -0.1936424901831335 1.0229170024089842 0.008915926069200282 -0.8488289903674091 -0.4778424043924612 -0.6412918382883392 -0.5046729322311463 -0.5938140111705708 0.2999085416331052 -0.6351702480214998 0.7861340440869975 -0.257617507653828 0.6346082855493255 0.10253069028642954 -0.03052816861836135 -0.8971422847183504 -0.5008345670851428 0.9858536081172093 -0.4617206054905287 0.2759526374045716 -0.9356407752240645 1.0144595507109448 -0.45709490849575685 0.102747966910766 0.38295759701695326 -0.8537911427169506 -0.6691194201245366 -0.3289055442962899 0.12696035679167936 
-0.6989115894112197 0.5146395422135894 0.4037726798052381 -0.5727369954319699 0.17513398163660976 0.37529486914936716 -0.26965736879315066 -0.8983749937227629 0.03321639475569759 0.6829459759349205 -0.5472045606880866 -0.47877662472919486 -0.08080944283100124 -0.12369320635655916 0.6460672313166241 -0.24279628653191027 0.30897630455943187 0.033879172400979166 -0.6115038412416627 -0.15343874784763661 -0.8469256343415396 -0.8598360391188719 -0.24267648815932824 -0.5237206067934972 0.5286775686238343 -0.9131424062690913 0.30751070798557006 0.5752058383704184 -0.5818211196178785 -0.716195337103939 -0.7342363116087455 -0.38617055161404085 0.982552757713351 0.8774870639712385 -0.9698335405767468 0.7006964759063293 0.9052896586000456 0.07742388167560113 0.028301066713798093 -0.8889201134795507 -0.056801323769477906 -0.46928957321284187 -0.5792158179081573 0.030422601164219947 0.4739583406115362 0.05427982963068081 -0.6917356274808277 -0.4542276690859455 0.07680083449750617 0.5409479806889068 0.8857084492782115 0.7470693332950102 0.04055654629343489 -0.9211456773597185 0.9518250880032526 -0.9873203540809458 0.3663113862885882 
0.6239680296957928 -0.8043994425861507 0.627934140818346 0.31259386270257405 -0.6944760477922933 -0.5402215599217308 -1.0099190228900141 0.48782511552215124 0.7008541456521553 0.1359589828861597 -0.5262428676606555 -0.15712181253825966 0.9379022941671723 0.3938289446085046 -0.06272852544792616 -0.1789467751553149 -0.49278310570446904 -0.04698822814352364 -0.6170524296052059 -0.7849906632074746 0.5756218564013134 -0.006249264121950326 0.3330350833563657 0.9090514444530355 -0.41066246665369677 -0.9948834235370791 0.7638095185556456 -0.22538362108875462 -0.6828346869120242 -0.7410051478015957 -0.8080752206262862 0.8335743159891019 -0.8450041638796726 -0.1726265899956594 0.9413300045323245 -0.693693124322163 -0.6654679056037867 0.3614292680309182 0.1072206850351174 0.40011800275706166 -0.5478209400728146 0.8907807375336382 0.8800595833893387 -0.2878168371272528 -0.3336994116484755 0.7781845074276916 -0.4861605006162442 0.8741500206563604 -0.20853779532829148 -0.9605013891737922 -0.40751540192729363 -0.5344172440225088 0.919520859630268 0.3711385790434609 0.10870116389048416 0.35444461576186537 -0.6993958323305852 
0.4774311334337144 0.12195523785189388 -0.4529869946658934 -0.9582648724973482 0.15897447040603369 -0.8408231680901233 -0.259037833158348 0.1387766502102446 0.17556216173391892 0.5857685629611721 0.9244247687442683 -0.2030667235934862 -0.40114914745187735 0.013802393171336193 -0.2607159612979545 -0.5975366828540887 0.30631442808477427 0.27619344198307094 0.48212244210104427 -0.7033846925344815 -0.9645144901687723 -0.019188076005366407 -0.22332087154194283 -0.0658526879474491 -0.6711632762561528 0.3643089193731684 0.3145719206615363 -0.8068035752084033 -0.35426579710824446 -0.8964983577454145 0.2917765985719547 -0.33473659957026236 0.4694296741855753 -0.3125504752774974 -0.48181665775529553 -0.17000612926878497 -0.633212269643778 -0.8237129221030267 0.05624784521310896 -0.316783319421002 0.37388556543617507 -0.9472037963789467 -0.9721381286988756 0.07606995202597995 0.5032037509520083 0.7962143518184825 -0.5068555136607936 0.8165178282572477 -0.9763429032676213 -0.19072066322974385 0.5576182744117874 0.41962349884847594 -0.12786778078068006 -0.7205758276693641 0.5110613282844269 0.566692572658091 0.9494761934321951 
0.7905796094463997 0.8298575965932474 -0.02931752339825825 -0.195852376591861 0.6972387265553376 -0.4351146943266879 0.8423034958022717 0.864048646731419 -0.28246847786012597 -0.44223068864485837 0.5059773578468457 -0.2594507897126692 0.9359207788189793 0.2877630011409385 0.9396401168217186 -0.42645268460542346 -0.39545268753068213 -0.3474984358042561 -0.018667320364606443 -0.4374899836872608 -1.00449030671581 -0.4619829015556481 -0.3374252999439667 0.6180064644416768 0.5714360862818225 0.04553370665517682 -0.6462729595143798 -0.6638785801892608 -0.730352771687647 0.4262885127843962 0.8444769769668676 0.5234400705850298 -0.31953877391993524 0.9987911968991166 0.9948064301365565 -0.36420868932866124 0.3176278222555366 -0.17846058682697785 0.9063227289111091 -0.43101012333141103 -0.15501627425813946 0.05576197623756229 -0.4675354288507978 -0.739890069553009 0.6587276571339407 0.8172733491538002 0.38076313606928425 0.8897591171993635 0.7968553459538054 0.7820946878963763 -0.017318409663673515 -0.8710068622760955 -0.270160883599514 -0.7860822390171393 -0.32074531024830344 0.9557242604441006 -0.7223312324449832 
0.03883534871833575 0.7665605612574602 -0.11544299641657729 0.744899437889548 -0.7409580698487235 -0.11791438957370698 -0.5136831538744772 -0.8711818956444921 -0.5892551948361722 0.9965541311232279 0.5893409904324387 -0.6460684663168716 0.3636628254777451 -0.028892907780164234 0.22857275272614902 -0.6094266911491066 0.7303843085479398 0.5891463513071358 -0.8032691714287271 0.3917139546503058 -0.08775216993228697 -0.5844625268809122 -0.9350669079827342 -0.28950179043421176 -0.661167868429532 -0.7421109891981252 -0.5670796599149335 -0.3061277956261921 0.6069122050746338 0.33780334771442005 -0.643975186184541 -0.11008924471226968 -0.25165323224852465 -0.5625572731588525 -0.8581951912106931 0.4583294822632458 0.040199693952066386 -0.02500034089255885 -0.7554520314396703 0.38055651457302614 -0.8467688428692848 -0.9152580148044459 0.8174178541337833 -0.0534405988371041 -0.20511003317787277 0.28894964019268393 0.2050013433726061 0.3263251886846449 -0.45102430641525515 0.05666713976212917 0.2956440854278143 -0.5792635127502882 -0.7263815258401874 -0.7683515757310035 0.18052353313584268 0.025954843396445628 -0.47894922119464434 
-0.6749777976395044 0.703860285045724 0.6708920758458645 0.4113071712120632 -0.08871608787111347 0.9357155059833431 -0.11376515276732116 0.7247847135503511 -0.8487123369943611 -0.08852680323910853 -0.28700038267261624 0.5233910086713293 -0.9716558980245648 -0.2562196348779547 0.2713946254344024 0.06620356687414139 -0.9156508486319225 0.45654473949781377 -0.5871850673576008 0.8803085534018206 -0.7451803547455118 0.49077915622399315 0.2069794427676827 0.4047726656374863 0.2756412797096436 -0.6047508992485952 0.44691322727354454 -0.06942443933242 -0.964763647132043 0.9680125189856267 -0.9223686786797451 -0.5043372861039083 -0.5624637291720342 -0.3399599821537726 0.34452604084445276 0.8507972215414917 0.6875753523003341 0.9697192137833791 0.9484249958404893 0.16940098436293669 0.9158612727864789 0.13681646903461295 -0.9316475803123727 0.7540795668007098 0.7534494770779566 0.12297037273267376 -0.6603111729140824 -0.6786099540538704 0.32701943816734375 -0.5130706624393905 0.6230051615872535 -0.35625177077074494 0.2646850473963704 0.2427332973424988 -0.5862246748483931 0.718625662640379 -0.9471903447381071 
0.7883179160834853 -0.13987479580348847 -0.17794533397295956 0.14389666871304269 0.7268466129299472 0.6655302007503309 0.2101952632225023 -0.1662592387675607 0.6603866477361264 -0.9373016649511791 -0.04507985367917325 -0.16436825592273896 -0.4621924470236122 -0.37450254803221555 -0.025342830635959764 0.717849886889575 -0.6024459111392059 -0.1991999469214798 -0.4635078983162688 -0.766603851559615 0.5116819003675956 0.6139394775184931 -0.36294520210329523 -0.48380003626080414 -0.5317946376441914 -0.63425998613 0.6609003135817257 -0.9298978373801586 0.8090882102757075 -0.018799714615226615 -0.9803363757165431 0.6758972444603947 0.11997780902815766 0.011569464424446002 0.9586269739641853 -0.22697982793981594 0.5908126270426228 0.8254402833506055 -0.13184810088603427 0.09297901171716703 -0.6499730021441957 -0.6638234068548143 -0.3695662081476572 -0.670624404264785 -0.04275561279491904 0.16678532394975143 0.8904389610645091 0.43130908993956685 0.2043323838919856 -0.6029489046919241 -0.031219948018730907 0.6328056878789609 -0.6515507726927448 0.5619691833844551 -0.45289107120543914 -0.9385271156626863 0.881057263558951 
-0.16696273782372004 -0.3821759348412005 0.6432344690213047 -0.15740483606631103 -0.908754463729118 -0.5067902839005647 1.0062838719413822 -0.3153415247986588 -0.5055547956365607 -0.4567436256861434 -0.9709416494933663 -1.0134267473149985 0.5660896702449278 -0.8020324654049622 0.6191968780390265 -0.2903458890385323 0.8623256848793455 0.1341366895799141 -0.6006969540471422 0.3303080730407628 -0.6826056235217004 0.7048408689084946 -0.15697800835755488 -0.9556997057766135 -0.4192285692971123 0.11828118709696687 -0.19902942350090239 0.8582386675818442 -0.30586009167534467 -0.4913528067620249 0.3681120553106118 0.7259178974094659 -0.3963857525123153 -0.9803796432420302 -0.08984667942761684 0.8032556375950616 0.0797453419021434 0.4509040858666432 0.3840221172365286 -0.7066382669607371 -0.46211320837360514 -0.8026919405681481 0.5960035048559678 -0.8556241301547562 -0.937893461415148 -0.6163534218401734 0.1734302643112286 0.06405512309661529 -0.5168912454123884 0.46431342234115974 0.11802047426677514 -0.39857180481278365 0.16257426663538027 0.777000077844675 1.0494030308893365 -0.9260658811991016 -0.015797060189517095 
0.6093237877248441 -0.9272959142495992 -0.5688940232753227 0.0964630587572269 -0.7602244681461479 -0.9457928447467849 -0.6553479760726498 0.08624044164522889 -0.17996809220396628 0.014360510608304771 -0.6833184134355514 -0.6423353614935516 -0.44450387442742084 -0.4969254375689967 -0.759413817686682 -0.8250183052035297 0.6841660677638092 0.8088681036519805 -0.034852084286187426 0.7659163923514737 -0.46012088551630065 -0.1627061904182347 -0.9685073525590976 0.5351163647353123 0.6659644736992306 0.9546356318703563 0.726391176092424 0.8932887085811944 0.8920452311053558 -0.8741191116246798 -0.6947389105950741 -0.5967375795027715 -0.4307687560238434 0.7872297792556607 0.950002513670415 0.21135118986436854 -0.7513858606079653 -0.5733596481453485 -0.3928328416415541 -0.4702709072890762 -0.26875286306029933 -0.3297437013344993 0.9472896984676338 -0.18135298587996546 -0.971963765211862 -0.27373838630006186 -0.45480739040084356 0.7552507751691239 -0.3978046215784214 -0.8816802077507027 -0.7099218342356717 0.6439078631768681 0.7440563721073565 0.4830950740646191 -0.9387154032875317 -0.19085398412403748 -0.2589562659728529 
0.44683668258052556 -0.7969578099982676 -0.007776023726478256 -0.06299738116840564 -0.8608670830328092 0.688313873288199 -0.012209457751421961 -0.7380156715722729 -0.8278625786713601 0.2506237911880041 0.8856574708680869 -0.10258530198122578 0.16706341289986845 0.015021149450972004 -0.48681679916406 0.9023134157216496 0.26720144397729895 0.8665837759696066 -0.7272326188871642 -0.34496573965128485 -0.9805225665422337 0.2631533141057697 -0.9649106514852771 0.6761066154192131 -0.9089117627683132 0.939754820801563 -0.36061512743418944 0.37175611634653577 0.864684300597032 -0.008091045012333624 0.04077956529540051 -0.24509869429891334 0.07100381698752149 -0.1456987308338972 -0.11526083037404246 0.9438962483115109 0.931888016175856 0.8585221522651311 -0.8786507462101028 0.5264964368040358 0.09606627734869252 0.19608334560740165 0.13149073640313394 0.19869973857019313 0.34336942227371886 0.9932131342602601 -0.818628475102949 0.6394144211174246 0.48085099496691297 0.02621753992133774 -0.9825360018642872 -0.5110714935731107 0.8649615432394967 -0.3535521620778277 0.4122680727345699 -0.34765782988447225 0.8372153891699177 
-0.5124487392687155 0.7104244655932197 0.1646074783413634 -0.6278181960927715 0.6972051135359684 -0.47139206152504515 -0.12963941878999227 0.6298296746353113 0.3703262726507956 0.8907732703239051 0.7537475232120204 -0.021762392276681888 -0.5361496601011824 0.8382335862361245 -0.46397895369866377 0.3792181308562268 0.5670275001561949 0.19308972211069633 0.27484611336120635 -0.23578586138956908 0.04177200281940415 0.40381538418943635 0.5881871778219115 0.6841051507682449 -0.2561406696172379 -0.6900447020833034 -0.2953682618220734 0.8908458978402616 0.7376167304356458 -0.1077442079535866 0.857913023012715 0.9409889001875356 0.7692637364225163 -0.6120803544278376 -0.7388597311053599 -0.3788184809927658 -0.9351056023068623 0.10227323035132778 0.3902632105814452 -0.7466667686416169 -0.8399349665896978 0.027427156029954346 -0.31796910637584574 -0.48734353737994607 -0.31003030920306435 -0.6648967539366929 -0.12360740416049015 0.5866674914083716 0.1803042755224669 0.4425260574011676 -0.9549246052410512 -0.4142084532324609 -0.5257605056313834 -0.017936739377643205 -0.23686240826712676 0.16948340356543723 0.0011500456082328928 
0.6078499272645925 -0.6440669526970461 0.369149181104767 -0.721056986444269 -0.011864402972687003 -0.07953984772396726 -0.9640113150149523 0.6522733344373552 -0.4726926431747766 -0.20430876722409894 0.29153114810254405 0.1409367423746271 0.26439281303601464 -0.017996042204256234 0.06874367469936232 -0.74177922536286 0.028970945802655457 -0.06157401478506648 0.395716087486858 -0.8752014360203207 -0.5180685379592381 -0.04081206100464477 0.09940396703195993 -0.34766611214887555 0.7405989177416236 0.5725699057959998 -0.5121904868586377 0.24533273175014814 -0.6103322074648295 -0.8919925363197836 0.7568812745323271 0.3677145987266708 -0.2162119218946875 0.3973565971711434 0.5212257721782467 -0.6402479143968165 0.967548884861874 -0.9401143107037861 -0.038839849452080605 0.7292952966180161 0.3509951765930367 -0.12805505955344557 0.9090006049444487 0.6765330766806086 0.5915885206036965 -0.7253924202727379 0.18262781523639798 0.26437295476065203 -0.2895132318538149 0.20341837878369162 -0.04591400172347058 0.20986742185977972 0.9025251425908404 -0.4648567269777819 -0.35803000897062826 -0.0035602027273195715 0.7983926389688109 
0.32361164560848926 -0.4290650710902729 0.3616607615440798 -0.9270074432271239 0.9908619079366334 -0.23740756700080773 -0.7903996803886673 0.26618874599188325 0.9594631292741326 -0.2533964962710442 -0.6531127441522698 -0.8804586627387668 -0.5845079781307987 -0.599078302484522 0.6362770902266598 -0.011821968325369197 -0.30641087127511935 0.08565324607186571 -0.9270835668178619 0.3042219440437761 -0.47591744425889637 -0.10433942439570887 0.11832807116014085 -0.8375400275438187 -0.5041734343632432 0.08397162719341938 0.386226677381059 0.011242599111810516 -0.37691161415168667 -0.13603880928491882 -0.3039135309744349 1.0216803077624124 -0.598665696312727 -0.9660853886911851 0.9784812659540257 -0.5315357422192812 0.15075113811843988 -0.2985492847150393 -0.5502444855536391 -0.49002290662276504 0.46533614808992946 0.07640263282599148 -0.03743164149554342 -0.1977853035568915 0.33034739861522716 0.11337333935464039 -0.7433858337103519 -0.5454205655756701 -0.7872581160323805 0.9346012401133732 -0.5247675312220913 -0.5892999810550367 0.6838381078815338 0.9647490087179342 0.5360845667017546 -0.518325443509711 0.190174135286164 
0.6153547159237913 -0.6959624487489021 -0.7927115459162918 0.4648221298993005 0.15099117004500373 0.057198112557156226 0.956731794071333 -0.8777379025764809 0.5597503170332553 0.674438413311428 -0.9737302672489024 0.4373128554185226 -0.2050987087720308 0.9213226245228208 0.06858465833652354 0.07801840425397341 0.6894306778530732 0.9842550505632668 -0.8850271202853524 0.7988725837053055 0.6267155891134715 -0.1590148305572146 0.12008538004521485 0.9550590210698497 0.5098376843960394 0.4904969587313418 0.6245523222409097 0.20216491383550492 0.3708092764264923 0.58752551307642 -0.22427239903491936 -0.3991074507391382 -0.6727371050421173 -0.5256782785735082 -0.34210980181489503 -0.018360165717284584 0.5731623544513801 -0.14840584056172804 -0.080691268463611 0.2754438192166164 -0.0974528093493184 -0.9164133210794849 -0.7172666387310986 -0.9375004343949161 -0.16642557862082344 0.020960699588766257 -0.5107595404675466 0.881611518768095 -0.7106012360895573 0.40848477566466984 0.383841635730583 0.510876633045833 0.0771351053340705 -0.08538574651754485 0.9501624908627365 -0.3314349254690729 -0.3538446967537368 
0.523345039355678 0.9849502137853049 -0.7956760336157513 -0.09190864505038193 -0.10234529384573372 0.7033615831236394 0.7224780281366185 -0.759347339532624 0.7428716644781896 0.14816337996644563 -0.39586576121158845 -0.1950115686612808 0.5219875690865279 -0.7618335798385045 -0.34935991743219963 -0.3941380903624249 0.5632447992335775 -0.6219427857512746 -0.6026763424837241 -0.9719139328883334 -0.9571766056398416 0.13073070654921767 -0.597144544562792 0.8070138792463024 0.7726552559008159 0.35806172902924527 -0.49174230013702924 0.06902726956405959 -0.3443421699327335 0.6684107700811003 -0.5090255590629399 0.11889244668573339 -0.5813866557659901 0.5341217620676708 0.6013838651029729 -0.6428377872048874 -0.9885055323322319 0.48587488766461545 0.0810762849864123 0.7194763580334025 0.45319501203177315 -0.2829052854912075 0.9152826528062236 -0.6625133995937469 -0.8992588099983052 0.08330556561444098 -0.35773211098730384 0.42643026767575243 -0.04519828484297038 0.9203861553134068 -0.5071344962439644 -0.12840988014931584 0.4311341903511021 -0.7235633912154725 0.2829644968718474 0.033421077348730406 0.8657356447444354 
0.9237986404694238 -0.24648854370495796 -0.746032871655633 0.08138660911460385 -0.5012638497673382 -0.9113540019178696 0.31516521832357786 -0.39108071707050857 0.30397832263326285 -0.8667470158993827 0.6118644121747302 -0.62013451852976 0.012187477456863952 -0.6159152163843796 -0.962827350006963 0.9600046804976651 -0.1472666774115833 -0.5680321626461149 0.777658433770667 0.9053384757485605 -0.2734628986101934 0.7281589548143605 1.076898974928333 -0.6730404753418697 -0.6195070801640669 -0.8770097541055358 -0.5899212082697406 -0.6484955406660444 0.6104438651328061 -0.5280337204592166 -0.3377361958511235 -0.23391272534411328 -0.674971974309144 -0.5758639399414737 0.03740743988335944 0.5233994353008705 0.5418996464043475 -0.3244163448500899 -0.20998495189510272 0.3248910258635998 -0.7815218962844601 0.09601195571188549 0.3408565071215126 0.07138815425439812 0.49082391204271647 0.12127080605350499 -0.6674231149941262 -0.511630940819854 -0.5435986050757572 -0.45334322044259795 0.04432689143492559 0.8889970551639107 0.6152198371052394 -0.5780928469373067 -0.2993825497530857 -0.5411487388830326 0.5064804717055801 
0.6524921084107751 -0.1718626802264841 0.5513924041397533 -0.42890487504038294 0.26877886751493923 -0.28047947538812007 -0.565246437655096 0.9606864645329685 0.8468848461429057 -0.5450831281931832 -0.21716344129060083 0.9897513738493446 0.8084167178272683 0.10006794604833426 -0.48352777522144214 0.35604382880177116 -0.9105145348510757 -0.8307086243812892 0.3955171100294624 -0.6399569773682936 -0.4796446452463031 0.9550423616269638 -0.26405543502682105 0.7697573464762616 -0.8620360034027064 0.7141837085501952 0.21608630430915915 0.636174332220532 -0.7803375469951064 -0.27128158111115164 0.9120452614473541 -0.9620076803998557 -0.012828387676215204 0.6059209070485237 -0.8800529696664747 -0.5355570959868547 0.690816070946206 -0.780919816077922 -0.5465962705584971 -0.11813943795155199 0.7912948116937771 -0.24338621125586826 0.8674143334964567 0.01694366701508978 0.022200793142514896 0.1614451913659907 0.4629475260638011 0.05577776807572364 -0.660918069144742 0.7025196866114353 0.8027614720998569 0.9537472983697306 -0.8729990029153155 0.5526639570338964 -0.543886186772903 -0.7776619701591275 -0.7117940157976095 
-0.37290142676130533 -0.5290278734859504 -0.9271818048215129 0.26368383300464027 0.10084634717405228 0.6652242102049856 0.6464557015956252 0.5535772923952219 -0.9749645633411921 0.2885001711156224 0.38726153455011675 0.007704728857121248 0.17660177923363382 -0.9428713006275745 0.599943595597468 -0.39338034057231364 0.5723904885899702 -0.5751925438302287 -0.8762937287888134 -1.0021227079211164 0.6239577876065715 -0.8911856162151667 -0.7361530106772795 -0.21315398375094824 -0.7742724684880092 -0.10026938572578331 -0.1384102816129636 -0.09605425901534198 0.777172166059673 0.14806311022698262 -0.062449405917421076 -0.05515237668968485 0.1665922977071662 0.5983071835538791 -0.4932412159799298 0.5090672220577076 -0.15509125643747437 -0.8622268372708028 0.9351440012163693 -0.5293559136013701 0.19463979661031744 0.883908873187342 -0.4120243932971735 -0.917829895521564 -0.32976475803108785 0.5482872760721262 -0.33463425637650623 0.200994628407255 0.9125296956655855 -0.4025556537867051 0.3523263586320765 -0.6333467773092787 -0.7704733709093405 -0.6045448602354547 0.7051525446968016 -0.1178327357070697 -0.133346812561005 
-0.1812551082594527 0.24093700235767535 0.1743544644266858 0.5990268947108329 0.506279989721491 -0.8683730552358484 0.09245149248495037 0.0782574345515967 -0.8820259689333865 0.9868158746258421 0.0994089226188117 -0.5670327724228151 0.1621272035271618 -0.208708328351019 0.27993087817631035 -0.7475974053469268 0.7157667927605813 0.29325525110841283 -1.0048437866116386 -0.6274632002763172 0.5631548102460107 -0.7625320939461144 0.18144552247356807 -0.6074292505155214 0.3211608165169413 0.9017593399179791 0.2705434086089529 -0.26253981466865856 -0.3635226791820429 0.7749961467309424 -0.8189082060384684 0.7658112318058047 -0.05791174560841343 -0.5834924466728953 -0.13709111823121461 -0.8111283313222574 0.5323037668206043 -0.6879630617505536 0.5972697508559899 0.17553181389173925 -0.75669204306414 -0.8539316131614133 -0.617635141341149 -0.7642806581119528 0.0694746869256563 0.3988066477953043 -0.18804775782003502 0.5079422770002453 -0.8171487827543044 0.6176520126704979 -0.04768560308656044 0.08955419369159492 -0.33655781063307233 -0.7491567860215483 0.7269880918855915 -0.6613804036018371 -0.10173490216752411 
-0.7157434913591746 0.6732662650943716 0.6353090139373239 0.25857096722460066 0.32914412296472784 -0.06269140667492963 -0.2692000020966564 -0.6866721057826382 0.5833420424785486 -0.35709058891042983 -0.3139934753056043 -0.9706984413609622 0.11082415071711908 -0.4034517985394082 0.720165048996363 0.34210351150198315 -0.920743993352383 0.8470731456631009 0.22083733719348578 -0.4849301318508945 -0.6848433425765039 -0.7301390302059687 -0.19237822460813864 -0.5057750714445663 -0.7240435867421476 0.733782289282146 -0.871987309429365 -0.1437830863003771 0.6993449294450482 -0.6915112486757701 0.27852878009017507 0.36670204893691116 -0.4733585305617341 -0.8264263023656084 0.3577580331532686 -0.19580834947169812 0.6997198114520327 0.8644388583707022 -0.7101793688642741 -0.6756877547920019 -0.102578669086727 -0.475271575722158 0.2699901622183974 -0.16651207918432898 0.11412472888940889 0.44573628883213084 0.4695987686490612 -0.3972949545128682 -0.3014541606057097 -0.6754589710894469 -0.0560582742582916 0.15632646748527962 -0.9618084421452289 0.28184987863234734 0.9643864032522527 0.4876887456260655 0.4902642237509625 
-0.15370227446605983 0.08272148117600425 0.49104914205678507 -0.5511816658802249 -0.24220765454162507 -0.9716114026871727 -0.7096956118609097 -0.08670366451226073 0.3918757256157924 -0.14285512907894604 0.596027187243857 0.5113561375129141 -0.8658224196824773 0.08622493678758994 -0.4625115445412309 -0.37928679013994665 0.9088901010627385 0.765361903950972 0.6412062096254608 -0.9368895523805931 0.187022766217269 0.11767834610281801 0.6559967681102321 0.2728227718474978 -0.707228930309737 -0.8387578812531318 -0.7070672863449168 0.6942865906677784 0.38194035819115707 0.04912595238156991 0.24718106759348277 -0.8530229136685978 -0.12780279478024503 -0.8416932724854154 0.4803209546865305 -0.8150266362913461 -0.7013178051915618 -0.03655379267630303 0.6443479236744661 -0.5818217805359389 -0.5128347640296707 0.9549076444245098 -0.48357194516134144 -0.6386214498177148 -0.13514790420435205 -0.9706647370306616 -0.5076855314364981 0.5816364867063635 -0.5052352267628274 -0.48911948226977264 0.8412164340537883 -0.6277484476441418 -1.0084659813059353 -0.3094679513785648 0.4468300119055285 0.508563344709246 0.8783590702990465 
-0.8440771826823237 0.09188116489213635 -0.7367798246828968 -0.9860573740702894 0.8017507302970286 -0.16868003035319432 0.04820780680312529 -0.676130291279407 -0.6438114302365571 0.24723930065685845 0.45297659490668724 0.8856945973824519 0.07322162907301343 -0.7910699886890642 0.20555853815974054 -0.00750943928696684 -0.7637407738692643 -0.023661118413883808 -0.004889457980465052 0.6340096470960984 0.27666067809868594 0.7257417670015704 -0.06385102967344655 -0.889792635849961 -0.20111782429757868 0.34659600849858785 -0.709949107723393 1.0286241583183144 0.2448680871580403 -0.8669341162565378 -0.3196310987417449 0.25901016481231326 0.920270162474759 0.05898021479453307 -0.898517868342091 -0.6745164431762394 0.9289687236337598 -0.21895816957463565 0.4670633555052393 0.19477322101904504 0.17413443774184226 0.01754620820925197 0.9229278083282535 0.9703916368834344 -0.2764353004467569 -0.561293647434498 -0.43692855265868225 0.7724863527409734 -0.2949549356026375 -0.9054691622569906 -0.9699158817865913 -0.4594864955295531 0.6034378438930947 -0.004551328680951873 -0.811888524220434 0.9535219451664628 -0.2654810373435459 
-0.5844458667161258 -0.6852018747232754 0.6666475502216035 -0.9591443757779983 0.8845893580289912 -0.7093969488616847 -0.41223652249896686 -0.40767967414804807 -0.4972918205030825 -0.060291398807311394 -0.8833679398257998 -0.05624309176657062 -0.35410818129157884 -0.7078525766369569 -0.8004289979066433 0.8983883579456217 -0.04061408804021115 0.053251923621825556 0.4266661572634885 -0.12361616546538741 0.4643728911037578 -0.036999554794353955 0.2778555907703146 -0.8838317444057355 -0.726505119908638 0.5709712905850689 0.5065350139264809 0.6521507807141443 0.5839462546266196 -0.5852324651825038 -0.13421873462526457 0.39895712492357116 0.9109440029709208 0.7920302546328428 0.2247447646731702 0.6314191311181234 0.8331933986155599 -0.928006912851359 -0.4493814682979111 0.45750436908160025 -0.5811070073728705 0.9931276924934372 -0.900112775316953 -0.8092133108053422 -0.8241657627154113 -0.19564947942095698 0.473082380953157 0.048954350750907386 0.020578758542616555 0.8006963316346908 -0.261420627706807 0.11903370937428978 0.45324717926838165 0.784815168345356 0.5755975614905932 0.32739525212512116 0.7740311348897474 
-0.6589355771243635 -0.30373572182116604 0.3418549290299062 0.50064888032649 -0.3297924897330004 0.10753863364338649 -0.11012707791124585 -0.9094608666130214 -0.719988608361687 -0.40186767093458325 0.7631448742709787 -0.6673124750978476 0.7561829556483209 -0.5983137239966064 -0.0616683871290668 -0.6362368980971574 0.6567957331121187 -0.6402456367908351 0.4843763365735529 -0.12328860500980984 0.3409808174183825 -0.8022358652655927 -0.638096605192061 0.9211000413026325 0.09000142939027281 -0.23251187315779087 -0.4130869669782649 -0.8291506136409139 0.003878545044882756 0.06408256874844788 -0.17657179980208046 0.7224434291256117 -0.9771774882026856 0.8737047878111338 -0.6275106143763903 -0.561862021843153 -0.9177268251444912 -0.32144861845747835 -0.7648068575622817 -0.9971785902428931 0.8967844333260013 0.7409122963125554 -0.9903553301908528 0.2995279343349993 0.48794187923284116 -0.8324123834030579 -0.6847702053570771 -0.36574421935777596 0.9129192221028632 -0.3168691686888178 0.6216371227155483 -0.7300806325460472 -0.1851579602304603 0.580774058474002 0.5024601573796388 0.5370442224827933 0.256101469150948 
0.39749935318399954 -0.29928008525508465 0.09446627639821885 0.05563247158501219 0.07545265907902242 -0.11157398602314099 -0.9585210947794452 -0.7505040465306023 -0.8118527235972957 -0.867971490652997 -0.6156564369944916 0.24821655281053795 0.8401770096230536 -0.8194245081832908 -0.06450809192005036 -0.1086652566886241 0.5968775598697951 -0.021509512533368663 0.05734472572627807 0.33845523503410546 -0.15182578115198272 0.7454386707410414 -0.9673075578188346 0.14454041739082296 -0.9828407515473314 -0.7521456706122499 -0.12562347058994214 0.3839559816974367 0.24203665710403777 0.4610568727241099 0.7418215215954393 -0.5154547371536476 -0.9895654579706206 0.8497379892837826 0.5145191107559967 -0.5253022175644715 0.856906822174522 0.6696984455021766 0.4705018190249902 0.921367396356453 0.027632566458223505 -0.4367394410526459 0.9297793022264678 -0.758952691760852 0.4474374604244122 0.23405317590166985 -0.3860412829098148 -0.21626665025656486 -0.7239600497200086 0.773895176840601 -0.042502465881327015 -0.3106414454118805 -0.697432393338234 -0.16322039650281558 -0.024134091427160984 -0.4770828202837604 0.5974012285022806 
0.7261189125061207 -0.26005710608660426 -0.7264723564133856 0.45637069884392273 0.9098734511820368 0.04827570924461149 0.1307218146625386 -0.8447209965537461 -0.7585488733132609 0.12968896153697726 0.7692375696865453 -0.7910204032923245 0.3781102075680555 0.08678034093454565 0.8201327099702853 -0.40619008043835353 0.5891801510854504 0.6253672140487004 0.4315227625450134 0.42490638383266904 0.956736656335793 0.9406530042014962 0.7641912030741158 0.0019303637275026465 -0.8808710521182346 0.778828759622449 0.9175122859127808 0.17344735005791906 0.831161575545388 0.19396135031523737 -0.42673146005080986 -0.8452398332658877 -0.20288644809157597 0.037370823177986956 0.8787561034461665 0.26267885614366926 0.8993139481910496 -0.696539953062284 -0.4243615198588838 -0.2942527098460835 0.260016912962175 0.516483045448078 0.3736089512205674 -0.39884104675142085 -0.9565356634756877 -0.3591833380175325 -0.959445509735167 0.811458343123742 0.2775981377151956 0.9378937976905977 0.6401443715041766 0.013931866870266195 0.4614785410178085 -0.10919041459202668 0.7090905207079904 -0.6307158156508612 0.7543531210222354 
0.44854817015799614 0.5221613897985079 -0.6748209443339758 -0.1688404902650883 0.3789112333543886 -0.5589057901188212 -0.6735189062663415 -0.653048090366849 0.8915932019267203 0.2267393962906861 -0.04941679773493106 -0.6415191630946018 -0.45713745704522407 0.2751587241040259 0.15031147694008384 0.5063328887244327 0.3881014477983354 0.709587648722687 0.2518640905352725 0.5162117928935562 0.9547270122319569 -0.7481184013052202 -0.630465844495777 -0.13006698221509197 0.33512292608552924 -0.5503119786399002 0.6764812652342564 -0.16515622725231108 0.9915720007756181 0.39456495193347846 0.1720062372640272 0.46875341939449233 0.6950808755162561 0.9691001438609097 -0.7227306051189404 -0.030510438639287728 0.3116407628006788 -0.6300622978682315 0.4685864495206048 -0.17954575754844823 0.1849544509457451 -0.3068358907098869 0.26212933338843974 0.9878583555591907 -0.04450001051167091 -0.45779585303926 -0.017658991209582378 -0.26357945935062743 0.1725279404349232 0.987902639537437 0.8654226146188113 -0.8109856793771759 0.03739807815346684 0.4233014037938856 -0.4889827141278181 -0.9548274811941208 0.565534935382996 
-0.05029953187714329 0.34215640170547684 0.008005477416876735 0.3193414090474812 -0.4748343910282959 0.3778432342392302 -0.469889146466358 -0.554820720262999 0.4031874413905753 0.8622816658101307 -1.0103694159458305 0.3228420498855535 -0.17027657459942414 -0.05872096368689206 -0.5849242681423515 0.37052489119726734 0.8546427347026173 0.8955040903334508 0.7202649530230539 -0.7181269543122129 -0.4711136844072048 -0.9589105629612591 0.6101381336396836 -0.6922292588920953 0.9659507099833193 -0.30991504978926443 -0.1796338041350713 0.6523961848216646 -0.8628625777620383 0.13595327608576338 -0.16763930595823123 -0.24602128948392454 0.9542345278886999 0.1374081492120636 -0.6257906828855263 -0.08963747396570067 -0.7622742270495086 0.6839792006768599 0.5528396070301461 0.9485052178553339 0.13157869844635933 -1.0030528225559883 -0.41546770849990855 0.891053789782745 0.12950001344618306 -0.30163721591698395 0.8524500979496693 -0.23169619395042396 0.32954424220480544 0.1323672147303696 0.9230044603038838 0.3978240149550839 -0.6432388448382194 0.1169955632104725 -0.7145067682406241 -0.31055900785891244 -0.7941667997231873 
0.6429115015950245 0.7676210097727567 0.07106087203154217 0.38631048155955605 -0.021400256954186462 -0.2627395520278094 0.34363342627359617 0.32933524974341777 -0.20176748192045493 -0.6128150897007149 0.20342613308520932 -0.3563277926142563 0.4575817320678605 0.36068320729443787 0.8547610338579757 -0.507401506901546 -0.5999743342183258 -0.04505649428857079 0.02552978930113591 0.23978438639756536 0.6387004354018677 0.47596712319501494 -0.986405971673902 0.7132077732512805 -0.09802538237149136 0.6639619368542505 0.43089727405618833 -0.1486097626011474 -0.9536755333223861 0.0829727413345977 -0.7706291834851781 0.780564881235696 -0.765845798778816 0.3810235741266139 0.1981893904507425 0.8338524594856327 -0.5128644941000965 0.5341165585287584 0.11337049537888914 -0.426270618823631 0.13749728447250117 -0.8232890545448617 0.7012161187552017 -0.3603527634203044 0.6025830170343993 -0.9188616976078626 -0.7618335290337105 -0.6022520222939917 -0.16436198708096478 -0.09219092373083752 -0.6864273690353409 -0.9778189989199956 0.1771904672806184 0.6557273828870075 -0.6233243641268408 1.0172311750219403 0.7919936854003743 
-0.7591911953839274 -0.4342100752851692 0.7543504078734516 -0.30391565363745887 0.500605626655812 -0.8270851687786054 -0.000223258666412029 -0.9268844173385865 0.6842628642083205 0.6586133130698159 -0.6890238258303288 -0.5124340820391 0.5150357170523305 -0.4997828847822246 -0.3599373353796504 -0.46982169667688484 0.02920843306532167 -0.22080396191464818 -0.46900069989946197 0.370325451410272 -0.5838606932250097 0.6432415577963775 -0.8829067201959202 -0.6282726532804708 -0.41559767856199403 0.9466945090690744 0.7283570166517788 -0.4349176671778565 0.7753239623430292 -0.3344616781938144 -0.45312271238147656 -0.7804081644761829 -0.9816070480804476 0.04995868359901898 0.8124920908992982 0.5200817806354885 -0.7809909576451066 -0.11788706046897052 0.4245439002533729 -0.25547049476392364 -0.923944118852396 -0.647517514073826 0.6654135140882942 0.4581375333259713 0.6193724778056496 -0.6452076785879697 -0.8083507410723902 -0.9474752529386777 0.3295771047164341 -0.7599038909061979 0.9645001839584342 -0.46698047278219634 0.4268777861305323 -0.09689878943593544 -0.9826601834669956 0.12107742496940843 -0.5240781980170485 
-0.3139951118940098 0.577835353881149 0.9053555938017966 0.12952145845975452 0.6225580589774735 -0.9913258495176166 -0.8948869187672323 0.837363148109364 -0.05320110959170408 -0.12007235538205792 -0.46875669474630993 0.4485387747418027 -0.5962127928019524 -0.8954846364166844 -0.3153766502889173 -0.6633623623563807 -1.0121754988286498 -0.6321839109033595 -0.7499444043834146 0.3883342618588675 -0.0049940256635797285 0.29881449928515147 -0.12401037841715183 0.5629626535305705 0.2118519762631759 0.7960076396706557 0.8028391811048234 -0.04746651442023954 0.4943970064842304 0.5163725591409459 -0.8340256932405674 -0.2019106750005133 -0.191369936057155 0.9601951699379876 -0.4592537574499345 0.5678171130479868 0.7193211790307632 0.8469528372571932 -0.9591812313747526 0.7780615931594589 -0.5374684005612936 -0.08781084995220627 -0.37434556786583356 -0.8152257616879882 0.6186815318254263 -0.19972985836876928 -0.5366989877102452 -0.18056463352007657 0.6097930422515903 0.6517170360101654 -0.7104056530736901 0.6100736451271116 -0.16383261936451282 0.36981363762428904 0.4755897702826652 0.9494587241272603 0.32031652409987466 
0.6825713120709199 -0.49614687951325714 0.4594405648686147 -0.5618314232127519 0.599179935916813 -0.8500991213955091 0.512702029138576 0.1411641840762943 0.3654182049648305 -0.4859618632434998 0.26689811372127326 0.9524965313420826 -0.5957415725377154 -0.7019160444800958 0.46760358680696285 0.9698338352553496 0.8625079826647764 -0.3198403081482929 0.16562956115278785 0.25661575338450443 0.8729890605731837 0.2940950805435828 -0.27241372539849545 0.9601916843223519 -0.5761226483179286 -0.37326277101742333 0.3804047438138023 -0.24616375011340014 0.37187907536977954 0.854097863997331 -0.1679890653090912 0.2284169542030833 0.4955487313738719 -0.5255748477511629 -0.8569022340571024 -0.7149971945135201 0.7972922652434645 0.5437657271157517 -0.5497541634683848 -0.1870834601942953 -0.45912922085308894 0.6608984310875482 0.21215944540324747 1.0405125514037692 -0.8698295938107634 -0.7172014895488483 0.9574183296088348 -0.31874435061527717 0.01882379035966681 0.005329932978354926 -0.9927698171988436 -0.7699960543036614 0.10671276297226191 -0.3650688352882926 0.28859029930839225 -0.25431055351425674 -0.6695507764899805 
-0.3281736066028706 -0.7994670386606406 0.08592214234488092 0.5865821332039275 0.780559601680206 0.05882328360419993 -0.8815604400770676 0.11276266738515989 -0.8291846070411185 -0.9072198431075938 0.14832617132635773 -0.29064960427204056 0.03156523812626343 -0.20914330032939996 -0.47402798048385797 0.5758142772692781 0.23694431726060983 0.9601011301453198 -0.5817057227370928 -0.6330002892144121 0.12136280427152348 -0.8694792372196047 -0.039980489112025536 0.5568056506398319 -0.7071718222832376 -0.11977632804914544 0.34615667600270195 0.8825066202475361 0.0435378668600643 0.8116114804722531 -0.24836892984479447 0.5467747327844587 -0.16569591724113816 0.09653923704474585 0.9601727300552161 0.7685889193217337 0.4162357820216906 -0.13916633385517665 0.5183136590734548 0.8200823496696275 0.8586997790644273 0.28667745778208975 0.753684836235752 -0.19809266273512402 -0.1640804269669231 0.7442275918078014 0.7467941207212475 0.21426998120213545 -0.2700006919353619 0.32507084338410974 0.7866632092977294 0.2054924068233459 -0.8910638043321703 0.8738779487155608 0.318862971506188 0.5426094006506901 0.9192102285200164 
0.03574795259418563 0.6242012793876528 -0.6537318840762866 0.7714636193756716 0.5836780072388005 0.6307979410057493 -0.7323878458090698 -0.9025300432181202 -0.9884557454801252 -0.32526900496815836 0.16483881802133651 -0.7896175081023386 0.9991089295484553 -0.9913153981160893 -0.3180381400790841 -0.865519154606868 0.6863516748007675 0.9531014426239097 0.5251779183086495 0.8642955085784584 -0.09848753435442428 0.16263094941205503 0.9253885832723021 -0.4701256231876187 -0.6364331460867201 0.20056386119439107 -0.9078716042041013 -0.920032299427914 -0.4042664085460983 0.13986618498221415 0.2632967827175122 0.8463254622866249 -0.805510722384396 -0.6212703803440556 0.1722726856319917 -0.7052962605423975 -0.7210194082786076 0.3457642234826969 -0.6969182402889328 0.5379044392391626 -0.6718558473523314 -0.9279427373316859 0.40785537395963767 0.023014576767276324 0.6669494785324854 0.3980372734334538 -0.44910604485270406 -0.6217861576176357 -0.10661639820345617 -0.47496202647955865 0.20157994311045813 -0.8952752060647058 0.011851593229695275 0.7980778238706988 -0.5201665552894437 0.9774721696493454 -0.39141368804301974 
-0.44109496594117836 -0.6398630896120499 0.8078606263917743 -0.5030638360813341 0.8302150556817507 -0.6200353521184956 0.4999124962875789 -0.026449160331522562 -0.2479639367246605 -0.02569713453142143 0.9387752087602013 -0.9585678013818749 -0.4561906933118207 -0.25047106917813705 -0.7715952384017237 0.49444972150850425 -0.3844086789426235 0.012398447665438952 0.5925171320225325 0.2603662289801334 -0.6374243082121999 -0.9583502611703999 -0.6837955291092145 0.10319448824740868 -0.21120661026033247 0.23991193434402203 -0.5198004607212638 -0.560648119893089 0.5376728705654109 0.5391774960616649 -0.8485731052832501 -0.9171346786445512 -0.6788149461403636 -0.4079781345862892 -0.15876706132965085 -0.1883892538102264 0.9628709166702243 -0.08106394099832903 0.9771351275434975 0.7529972298193158 0.8922846659291882 0.872018232103521 0.43476578310473335 0.5940519408337969 -0.6162190654861972 -0.4398484368431615 -0.917182434844141 0.42477368344813776 -0.7468801604648608 0.40718677310872736 0.3636382649783365 -0.8272919433959914 0.890029030286881 0.38517888769350334 -0.10190718113158163 0.7150947961884276 -0.07595518097224954 
0.9888800515923238 -0.8964482699490418 -0.92892373190976 0.047798384259352976 0.10853886544604399 -0.6556962443304446 -0.7325443474070972 0.900774446522398 0.7599100888800272 0.49157789566697474 -0.014958964279978067 -0.8917060851453678 0.19102045535634446 0.22871063582302892 0.8956892914527805 0.5266083461363696 -0.4246047283594994 0.6424712750963213 -0.27172722987112385 0.6085263642093902 0.8915397270277282 -0.5527914082829517 0.4798097555987954 -0.338404373282177 0.1612704844908886 -0.9293978019287897 0.12200416482054464 0.872940996211402 0.5632598287000752 -0.6553766704780789 0.8673410858528974 -0.44816790699023873 -0.6684407669168813 0.44569366391675325 0.8896495348644354 0.06949932565560633 -0.5764296914657357 -0.9669528659818161 0.32357225007963375 0.7743426630448037 -0.6361216929856445 0.5365080650501608 0.6943377451993992 0.6409312987995024 0.33612134361730645 0.23161106998791492 -0.2460461370300675 0.07020480615342613 -0.7154764992025383 -0.2058636719972577 0.6313346223477061 0.43536364258665683 0.7461982961767276 0.31859747905836133 -0.3688185008263009 0.9882488326981137 -0.17720794027771253 
-0.2347542304917131 -0.04816759190182532 -0.03450075746304929 -0.1903919199739127 0.033133371516492136 0.8523877115149855 0.23971364509205048 0.10995784213746626 0.6551653352870229 0.6050330872112689 -0.44080489572264 -0.9274962303404357 -0.7745979330467647 0.9000175509865169 0.9686660612643851 0.39823846647560096 -0.8499895331931748 -0.7986894407234726 0.3833839324372577 0.07627807032362482 -0.7899687343750642 0.5983382528240168 0.9942012833616292 0.5605761207543374 -0.894697147888553 0.2739727325902754 -0.47807693977031573 0.9107649941269303 -0.6573390800826341 -0.4346020828176085 0.7905248807074211 0.45828954029702224 -0.6005355629702634 -0.12436906515201883 -0.04220366408719201 0.9804659617016934 0.7142231639750461 -0.7750685358437593 -0.44078154895885896 -0.865723546226515 0.5140604525521437 -0.6449725476943758 -0.8368674144722309 0.6321010734471193 -0.24525715868805414 0.227168090985367 0.23390354652343456 0.18667945716414713 0.25376126532252713 -0.4080039331759848 -0.9672904973550678 -0.7275285265530779 -0.8858856873352763 -0.4252279854596651 0.12463187205791977 -0.2306990770679757 0.18023605999901468 
-0.1764190323917886 -0.7262828898133491 0.14357181996849366 0.6033153069258717 0.8669836354007563 0.18148230625128986 0.75835562909904 0.2915867406736697 0.9031391410360717 -0.12088916543797805 0.5928899570896488 -0.9809607662318435 -0.1795013151032148 0.09754344102491752 0.04837388358180793 0.7521207885175253 -0.3689067705671772 -0.5447056204796631 -0.7673408325068382 0.4750192112775233 0.2361687010236633 -0.5305566889549357 -0.9830296717612955 -0.03990102782668266 -0.386399505477872 -0.4276366495336496 -0.15688875825629647 0.38495486913663346 0.11964949433701982 -0.5839568617097376 0.3561792954923407 0.14079322568538014 -0.08938790329913919 -0.7891337779323843 0.5871722195285065 -0.5003666806377031 0.7668714530625732 0.13468252719532733 0.20307253561973437 -0.2571529500229267 -0.7856130744390507 -0.3405879717396759 0.21135003707453534 -0.6821400618697891 0.9150892194642886 -0.03214458533031107 0.7153460890353917 0.43608742575549125 0.9935563641900068 -0.11921327150879832 -0.5418552263927375 -0.11693246682895339 0.7463717745466975 -0.8240259140622576 -0.01427083104270871 -0.3384153183730613 -0.19412278895537488 
-0.18031250958404077 -0.7121958833982547 0.9935405921518868 0.6562012632604289 -0.44854701181209866 -0.04077804489633905 0.6743268608870645 -0.4949960018934001 0.036738476791185935 -0.6883186813679457 -0.38869995435629884 -0.34399425958313656 0.6351267784800892 0.6758381818871433 -0.952387918716983 0.45964039844077537 0.832603552812101 0.2149092184785007 -0.7103453132947096 0.3436282949841293 0.04338543627025007 -0.17012936664241443 -0.672669570116516 0.17206590582197895 -0.8271166266307308 -0.7127666682101627 -0.4545370456852417 -0.5123125192632516 -0.18176560433075573 0.12222578795486377 0.958760273904926 0.6882336868567094 -0.7886507236750588 0.6293074940358888 0.8233023026180826 -0.7287371211623076 0.47911218101209074 -0.6441454467048324 -0.44877480914863904 -0.6311451303143998 0.6280039240235499 0.594659127538501 0.7818711599428694 0.444362536394707 0.011101081694187703 -0.5185466724121307 -0.3287017207927058 0.5015374513856524 -0.06890305367544398 -0.31007743269607446 0.6307926028000455 -0.4294613797031804 -0.6981284592653104 -0.27856856493808474 -0.11771274865034431 -0.5043472293589213 -0.6152061731090236 
-0.14840028239120728 0.8676754698442156 -0.3398365198235383 0.14692831824630934 -0.5326117707667456 0.7655346115696234 -0.4607052603422496 -0.1828317230830216 -0.498976763077285 0.9490817845641146 -0.7194694941057946 -0.5221571345937011 -0.9233107236053008 -0.6276728685548422 -0.741940273463507 0.26553385965336906 -0.8263534723414857 -0.06252827285303744 -0.024983739639967598 0.7429840254403945 -0.4860060841088207 -0.293350254444695 -0.17428556393822608 0.8975352951431457 0.4706130390638208 -0.21082739253564578 0.6834832970359866 -0.12515257992393905 -0.6446460523325526 -0.07832516505826068 -0.6263160993345763 -0.8494260775654551 -0.6495340915013862 0.3055911947529448 -0.4142199511914552 -0.07007336634833115 -0.28772744793021626 -0.9128976946934938 0.18158053368349644 -0.04368365804657196 -0.9434652930040354 -0.600430786148986 0.5427686137029013 0.7205622357878327 0.45862972220562986 -0.6662485384064161 -0.9255790037761173 0.5994524191883032 -0.06711481717834 0.0295535834117922 0.49384533251217755 0.572805782650203 -0.7009403059062739 0.48100732822497244 0.20553184494386326 -0.712045474302508 0.18209830173332978 
0.7795598596662511 0.19144170453423856 -0.4651705650759505 -0.818840053671451 0.21291027222239917 -0.16417537978776164 0.4967428799454243 0.04767448074148603 0.017228639114780706 -0.8682276028792745 0.9146140763653604 0.7284344647544014 -0.12442846589035708 0.7515677176597273 0.41976313433882084 -0.6609709467145248 -0.6520062793692166 0.7998925028904704 -0.4083362178142205 0.5319378423154825 -0.8754801627200007 -0.4302940826986652 0.24678874278637228 -0.8194521270493088 -0.5927997933044398 -0.07848248974327793 -0.7680823701935359 -0.8436673589829548 0.3268445843693773 -0.8003707110354364 -0.6127049440828628 0.5305543439004092 -0.8369322845049748 0.5428090864168258 0.1710727527433313 0.43928223010942097 -0.5419131827965813 0.04651815997995192 -0.5061657532043254 0.2677279291483585 -0.6772101562120482 0.5977945921240205 0.6398457449751455 -0.3049469211157008 -0.9418560981185709 -0.1801678099577413 0.17140504903699363 -0.17189430361519445 -0.02689065655707304 0.3155477595215153 -0.1566558961835718 -0.9796033129129272 -0.7249141350728544 0.7687419223081776 0.7042947957124644 -0.3825813560608257 -0.1578200696825089 
0.20266141590768555 0.5356838769987309 -0.7807474964883511 -0.022587181596124366 0.26168037520293774 -0.31247147067340214 -0.6100336161857416 0.6606937576226274 -0.6346990302105687 0.7251628770533403 0.16259413862093705 -0.0486890107854477 0.49443854589747294 0.5370627474199448 0.21567483079919927 0.47825258880119276 0.01294652695603284 0.6673134327685609 -0.4355193303626199 0.2977838788585959 -0.8026458733327886 1.33144579290113e-05 0.6809410297435208 0.9004450270332081 0.38273653506490446 -0.29055444516247636 -0.5231480237176469 -0.2593045056062457 -0.7288102145815415 -0.5084915851574906 0.2833379305912899 -0.09570526299979133 0.9803554281860207 0.9998451226959484 0.8278808342673148 0.41534276324214325 0.9450140278643812 -0.15354482889202273 0.2639991004065568 0.8998913788810072 -0.48484312624552256 0.5040135242508027 0.7114887707312358 -0.9176887555897422 0.04101932058320659 0.45678777302345336 0.9589267161768448 0.022863500365718357 -0.7626177832809025 0.39261701432424484 -0.4390769597852748 0.4597312644116645 -0.6809511713438622 0.06551892820245442 -0.924770423534528 -1.0061403955040202 -0.13235006744436215 
0.8981593053892412 0.1594523625858697 0.45665590624760494 0.01717794091279743 0.002277249051276189 -0.5803875586801323 0.5154412226579173 -0.7923413429612521 -0.005918981072786944 -0.5468489820669693 -0.03006006938054445 -0.5809190340810088 0.06657831606062534 0.6394072575566107 0.6955037886322784 0.06503399943415833 0.78833189830129 0.38152856374493666 -0.013905733238575371 -0.3627967371121307 -0.7841144626838271 -0.11479898981049315 0.09453841916867321 0.33599045621232604 -0.30899418485400887 0.1727853224449056 0.10411014985891136 -0.7148659962999921 0.36553697764251086 0.7935557853142483 0.9826783507617588 -0.6206603764610952 0.64281349096386 0.5018235096016386 -0.2721184761014686 -0.23554204284053634 0.255195604800068 0.038694074945832754 0.2694074040327578 -0.2891610508027067 0.42010862704188695 -0.5502207204434598 0.40740937347287687 0.7627437116638273 0.2361578049783713 0.5161754483426889 0.9340828381149356 -0.0032709860982704773 0.22770927648561196 -0.39136956787515426 0.8775361001913814 -0.5890213696691926 -0.6138053783306263 -0.1663791193039039 0.2542372155906332 0.19366762264881696 -0.9030761082089918 
-0.51909998857826 -0.6083742106039457 -0.34914144292515426 -0.7215632282443838 -0.8636322062517375 -0.8619010480357738 -0.9517315020267645 -0.1254799675550815 -0.5738683608578463 0.17581300824483292 0.4261020214382086 -0.22321403670704654 -0.5196949997127517 -0.739120864715379 -0.6210179248272181 0.8004213970530768 0.40814748028643555 0.8639165994389846 -0.5804955500279061 -0.4025903564932807 -0.6008922609680728 -0.4527568075765779 0.4001059049154175 0.30714240888998284 -0.5343853171026286 0.9703950625639534 0.28688122139690997 0.16244176649754322 0.38800055783790305 0.9152111497625697 0.6007968575492796 -0.48542030775983747 -0.5587191634128545 -0.49925331224676045 0.6448132003275409 -0.8564699838900883 0.037655504750851415 -0.94405696710473 -0.12778193827930684 -0.9430095069960065 0.802836239385071 0.9259664138191074 0.4289486824834959 -0.9094285109242891 -0.9667351450219053 0.10688962227436585 0.6604410360478808 -0.021820611455668475 0.8642270778767077 -0.9728036031053185 -0.3812118627747809 -0.7944748377849237 0.6485441755868014 -0.3474283376588693 0.1154126574007649 -0.07419529182456268 0.3835134858413074 
0.887235208383018 -0.6885187208919485 0.6974658203275815 -0.7016696929085083 0.3667499096891906 -0.5856124113180091 -0.6557039633936628 -0.4591739452545356 0.3718477939576634 -0.3547346058316122 -0.5032275963729701 0.041032963490897294 -0.3526887050097523 -0.7540196678811845 0.14313268106303068 -0.07552966630106547 0.021319356630592666 0.8754829497239627 -0.22397473332811788 -0.6063513693421214 -0.7851229197798754 -0.37282890157094084 0.8207909721858849 -0.8644801864733083 -0.1272309907890233 0.9677639057976226 -0.7767638549206923 -0.2703094622172833 -0.4032905429805103 0.8527276125357167 -0.25931403472151426 -0.12486903657688243 0.40751015921729544 0.11352286948216886 0.8077272616112011 0.15700886195641545 -0.15674629020735664 -0.5912331185957275 0.30913974155198876 0.3999880333750863 -0.014083025356635326 0.9325577099807516 0.6814579868166172 -0.34480798410397273 -0.792084265199042 0.7190911569535718 -0.7662631792462995 0.7808074890510205 0.7975651819678212 -0.8450070107700238 -0.9771150677645737 0.9959905915065317 -0.5691623065764975 0.27552442462204507 0.08529917007051292 -0.5187189422821372 -0.9867668689354208 
-0.08806576360379982 0.1972406772134067 -0.5700944721779433 -1.0040961338955885 -0.05806208678386022 -0.7688252805850999 0.027563348771369314 -0.02835949378340033 -0.8114144441513784 -0.9280499422856511 -0.18068647379260933 -0.46054914148186266 -0.07123794737911011 0.8245147140899973 0.8125972239888506 0.8441646015519206 0.7554421341165753 -0.7953627444457806 0.8946225178987836 -0.5217318517683204 0.5470283374556106 0.3889847384978191 -0.8406034906094432 0.5533898922363707 -0.45259850360898185 0.8958751286107121 -0.03841229385996766 0.6839504002014328 0.2702131380824313 0.6341516528056413 -0.4672020348779372 0.38475086407654346 -0.43449302454447486 -0.9567250974373429 0.1332286826824867 -0.7214022524529893 -0.45357100147537854 -0.2690554730926865 0.04747137130214171 0.1469049212678079 0.7350311377741886 0.20910023697451968 0.039743219937466726 0.03882577458893236 0.5165937957550232 -0.9872440577462863 0.5599912594169257 0.03357221201061075 -0.0883054696116421 0.48442448245013436 0.22576829379111407 0.6137034528239178 -0.16371300448585352 0.2024384919416541 0.06813709068342408 0.2313372694206008 0.8628346273809787 
-0.05979112048107308 0.10204000572323994 -0.7881118341059716 -0.5298017955244868 0.09176009229256388 -0.7164318042390638 0.2169633924911336 0.7438645953489654 -0.662273504064369 -0.49472950617877515 0.9342509776496746 -0.6033418899806561 0.4710783655580992 -0.13909261384041638 -0.1278117261360122 -0.008806887555871563 0.6761683320720655 0.1414357935931732 0.005568680447137954 0.17794014461627214 -0.15703876481999487 -0.06735042045573189 -0.030042778127036984 0.7465633662374316 0.1381219666782228 0.8851269780198173 -0.8834989388087757 -0.20128630926324237 -0.6253932557854202 0.5963106376733479 0.8263037000395084 -0.1641049601168856 0.5230275098153954 0.6189995132993341 -0.4284638774396556 0.6882037347772503 0.5829130235704248 -0.1656288151824729 -0.6779535006632587 -0.4426434122545549 -0.4544048157948678 -0.09933773128249988 -0.35849690562296543 0.6109162509706352 0.448457703871932 -0.7115963056659078 0.45043606342292014 -0.8733092962545552 -0.45973840845860814 0.9007360655910848 -0.2819703800768901 -0.16099266951996874 -0.27709788214226366 0.6122333070967748 -0.22040016999007628 -0.5405832383382762 -0.0921840701929447 
-0.5765287985174647 -0.0024412003019831175 -0.4009847017429796 -0.31442054230103744 -0.7832766120137885 0.9019256746670367 -0.08927645105044199 -0.2362952098299115 -0.1475447142633842 -0.32484082846833195 -0.904982072192219 0.7760575637831628 -0.5399993468364397 0.6038893240809873 0.12867644902496964 0.3100232880927898 -0.7613763458803533 0.8213774794107862 -0.7340286420651925 -0.36706645855839326 -0.49324967128899644 0.6098682397237625 0.6049589174536221 -0.49030397249039714 0.9883507452645168 0.14906239660102244 0.5618608178582777 0.4066170864064221 0.778013914545872 -0.25965400327200194 0.23983600846453204 -0.41164649391611996 0.7822474170383443 -0.7091879757274909 0.4876658867170627 0.3203474007079668 -0.9683072061549824 -0.7043939995421642 0.9027497115502475 0.07779973560428415 0.5309175383989135 -0.1007414231996676 0.7552767258299387 -0.8336960099432023 -0.8532746332234424 0.5880970854466206 -0.6297108404150819 -0.47456569459373416 -0.2238544563701798 -0.12230766113689553 -0.19056218080009973 0.30949518084871286 0.59369176441097 -0.0684971865424018 -0.9899602667706842 0.8164419378185737 -0.6894498668372415 
0.10299237052116438 0.2334322668664955 -1.2496817753696146 0.23069994309130837 -0.9589591158188656 -0.8657468251722423 -0.4055139843617353 1.0165325294637138 -0.40999625256947003 -0.812981665437697 0.8439963869238606 -0.24742867680668737 0.29553812103564275 0.4941283513719297 0.6260032799003251 0.3852642639863578 -0.7891187246615087 -0.8194874431873717 -0.2573606555292992 1.1120819994244624 0.19198234815799534 -0.8390057514389965 -0.9311050704753429 -0.28032737204304914 0.9264102748237728 -0.5973964704238646 -0.8275602374792675 -0.45995259726497645 0.3836451280284861 0.5419770211971383 0.07735583762382642 -0.25645587377926393 0.5194961131982652 -0.4467056465648325 0.3620308407773037 -0.006831647845519457 0.3269662904296488 0.76335993452754 -0.30772345688215574 1.0757370622131543 0.8965919492791669 0.31150604631578466 -0.5831324527680707 -0.36069449112154534 0.47631449216073457 -0.2648877080676689 -0.8429681396943831 -0.5508956728786569 0.3137716133644479 0.8700812724857377 -0.23403831228644148 0.049462231701115536 -0.08898746174212517 0.04789878875161243 -0.8085107942438069 -0.9208878758250477 -0.7719509483840477 
-0.29044179715611673 0.8692624945412747 0.4944654422769436 -0.40115099932160486 -0.04587354432217038 -0.4618632535461719 -0.9185202523291138 -0.23277392557796597 -0.9144875863678891 0.9362347686528676 -0.33768091557140795 0.6862384864558645 0.28523008640968156 0.25571960287977885 -0.82035336347596 -0.011636265835410792 -0.1265934980127468 -0.0295171740421951 0.6721886690331283 0.9956151503277499 0.7255297504418716 0.38626515777196213 0.5049183090150277 -0.11929073601687783 -1.0133101213721194 -0.9281927646027974 -0.569112750310521 -0.04181185007806167 0.5092115517990814 -0.28173941848586515 -0.9280553147913575 0.7223018920517174 0.35257726059491734 -0.06457792581932356 0.4782643698327451 -0.030140224856282365 0.62008370630756 0.2178248491568795 0.14291150243415487 -0.6527087130439634 -0.20523207919319178 0.19130068884573756 -0.04678091966587698 -0.2544375914251929 0.14864494769363149 -0.6980482890286924 0.4862624294804999 0.5647039677201433 -0.549400427616971 1.0994635051751687 1.057681600795702 -0.3153192708799012 0.963946570846147 -0.43213324620272586 -0.04449579743757985 -0.7080512287667076 -0.3005921002605527 
0.24846751874087786 0.09362654773509378 0.38284164199414317 0.6091575044664345 -0.13997697294513528 -0.1981380463388913 -0.6856635726682692 0.49344585792048384 -0.2865319569269342 0.4400953886904348 0.6363229450491574 0.6563054911406313 -0.5243559428260488 -0.8821646570668412 0.9571181502913193 0.8750722991111831 0.6570378052482695 -0.43748714709873565 0.6092185845465281 -0.44456209277606096 -0.5998465025198867 0.5705312137533872 0.07206681317940934 -0.422647418090093 -0.34912511483635683 0.20602656393380692 -0.20231298470107908 0.6023799078717574 -0.10754153134221832 -0.31604239456987593 -0.9001831730029658 0.1618769022264597 0.2607698594105956 0.07681830774226894 0.7054414571157472 0.6691008080518319 -0.761389879870887 -0.20380869820744305 0.20988419764196944 0.3124652863484547 -0.73089212367822 -0.9861982364177654 0.6896816707134296 0.32112337513417377 0.9085482641588277 0.37323704135577324 -0.40703687808777334 0.5223049360514406 0.1361429787222937 0.8810887497377954 -0.04827044261426833 -0.04276916052779307 0.2510660561975906 0.18963615958951968 -0.08265774852280511 0.42488626498424015 0.385001689981241 
-0.23384507406977176 0.23926530611567456 0.0406402214557596 -0.3850941418287712 -0.7830480165251793 0.7174545663185834 -0.016322132241751795 0.662718700721988 0.5074227268348003 0.23902709742030895 0.8856997446949263 0.47031406024066513 0.030782634700209578 -0.9054470941637962 0.8536647219420295 -0.14481449797083518 -0.6598795577376074 -0.9033780179653819 -1.0996979031606222 -0.25269218721470954 0.548526612864643 -0.7862572960309697 0.08913934673314601 0.43727891830249005 -0.37907340773979104 -0.41884029062554134 -0.16118139892250277 0.8779636788162447 -0.9114449948186328 0.5608606934502177 0.8461738842038832 0.8838664119390374 0.07794185663752327 -0.0853085759076504 -0.17006710547634218 -0.17062127760301093 1.0625081701632768 -0.9707397624505287 0.5862503112649202 -0.8641256356205186 -0.1076533067622474 0.8891084375654664 -0.48132034639961 -0.5387236923901235 0.06612466187427339 -0.28568686570471313 -0.5235612608656376 0.4870186096369847 -0.6131598859770696 0.26692876131227583 0.5575810201880165 -0.16801741852898971 0.1201529202710924 -0.786711992798262 -0.5396705345084954 0.04274717229449235 0.9876114857392553 
0.7983324802758405 -0.11509517014299697 -0.4672451537688176 -0.02389010413951804 -0.6264510638328766 0.21924500047613216 -0.36546460661438673 0.2415953294666466 -0.8329954484076303 -0.40087768706853527 -0.39277184185890834 -0.23021363932051753 0.25431544241291126 0.9785018509092156 -0.2864856013443438 0.42251817758376276 -0.4118751329811995 -0.027367053634828987 -0.7490607390911537 -0.8697299527876978 0.07209240070993327 0.14968095643254947 -0.6461467594775425 0.2613803015683072 -0.1815412659637451 0.7612798301014937 0.20914620278053686 0.806278139735801 -0.8946670433797027 -0.6802319099680888 0.7626753533928928 -0.14636016762811713 -0.521496298363371 -0.688456090341893 -0.5860931578636424 -0.4129102337156931 0.7361229721579449 -0.979717035401122 0.2824658937417375 -0.37827629138485575 -0.0469864244772507 0.4293528893471185 0.5177091390047863 -0.20868673863456103 0.27916490168170544 0.3348400194626838 0.1986742176455773 0.1740386797502162 -0.012931678638443644 0.5858787878506281 -0.5979719642956218 0.5326615044449755 -0.14366348768360082 0.6877326695124114 -0.7946709877110657 0.8742689819372421 0.4386295418842065 
-0.0024931506631726457 -0.7556620772208972 -0.688501453667924 0.7933564501296138 0.5575494626595316 -0.7778574619914853 -0.5358897075162398 0.8943991931381438 -0.7503665348304811 0.7329166381430918 -0.6302207601954852 -0.41401818875924395 -0.10907253138768608 0.0856217621479729 -0.8526611945335038 0.6842265767231068 0.10081293421280275 -0.8577158396824378 -0.8850839091731422 0.35471219187556813 -0.2413086176549529 0.15431526833056441 0.5121156760853576 -0.6651524540825066 -0.842488145494164 0.7468942157458986 -0.9293538006972386 0.42854260896897256 -0.35768576893201304 -0.17768785047712074 -0.08589487957075817 -0.08060539563113171 0.24358543127976848 -0.3285372991460032 0.848234743257925 -0.522770385105138 -0.26315017096728904 0.5152440231892903 0.5742198081523661 -0.3273599035083586 -0.029374532883909045 0.9586343469092607 -0.987749944414362 -0.651295100645065 0.6602302088662381 0.734163786108553 0.1917144168621559 0.01141541458273337 0.5955990636931338 -0.38709188483452395 -0.21053906748002887 -0.3748319880572208 0.6121189841448208 0.8644292701233587 0.2471402018379072 0.936188010736016 0.4691315904171081 
-0.6059967206534779 -0.3133308860721514 -0.6442590071855558 -0.22186948227361658 0.5455532748217596 0.009400739990526565 -0.34279276192910413 -0.9460808724205083 -1.176051226362244 -0.9954364170124933 0.5950595484208863 -0.6124640789049738 0.4730800453190302 0.763139547026837 0.9308384183681504 -0.18248088960580489 -0.42029291237683125 0.9616579140673148 0.6883820676848754 0.8389624547589809 -0.4720974847837236 0.22021751059892467 0.44548495376182046 0.8917340953476295 -0.9889834514714434 -0.31957533727266424 -0.5658292932144516 0.2940969998598395 0.011545331386969183 -0.4065635156465995 -0.17804346752400252 -0.44111242335817213 -0.6392926338104283 0.10225374575454392 0.453664370008682 -0.36449208311737197 0.4823678179629999 0.4072519380945041 0.792847585599692 0.45207844641948536 0.4306846721341619 -0.1258023356690209 0.5813409999162584 0.208922970644357 -0.29822263261984194 0.0968731732676873 -0.284968136085799 0.14839437183583057 -0.2761278624543038 0.29140126010244877 -0.11345913170911238 0.8627418075091423 0.3059192030952793 0.21547890731163918 0.7196630675799617 0.7571189645424918 -0.6122572857519916 
0.17226269371629763 1.0424002283378389 -0.28642927271823215 -0.6040111972450899 -0.8131069108190778 0.8205651666687753 -0.3417636319456029 0.25982273279935564 0.4312643087030803 
-0.21448155462180776 -0.31209909245806083 0.5928235362550729 0.7531553465413658 0.13246691983264014 -0.893691392797625 0.21911804908588695 0.03283784781578303 0.25632771897571066 
0.365348189389329 -0.8099616298945708 0.2979409373570084 -0.3156707512527218 -0.7570487805886114 -0.2247420259882374 -0.4422443378416315 -0.6731866881848894 -0.7928951103108307 
0.5641449639987909 -0.3607541408857426 -0.02953088549345915 0.004769349746050599 -0.20278621203056924 -0.5455151467487124 -0.385800570166749 -0.826939886063553 0.9088629630232656 
0.3586798635513847 -0.711203127786765 1.1559805321343617 -0.41887352616682694 -0.37638453181948334 -0.5305416409894224 0.48246709966577583 -0.6631118815187977 0.11260304400161064 
-0.571966080943844 0.618782314875064 0.05341014861436211 -1.3110098045659224 1.157532398436983 0.9455624131399344 -0.7363135922018862 1.088180214494385 0.558174166034091 
0.9864862962787089 0.03980985403213322 0.5941098073706786 -0.8110469673085324 -0.7701641288021808 -0.6455720140419826 0.2682661159411451 0.3706938263970544 1.0299746750017833 
0.776702604648903 0.52510576179229 -1.061673815490062 0.48026486509554817 -0.0929099078623871 0.14607376256614074 0.27916630052575164 -0.3399534356738026 -0.20320833245769748 
-0.7125162608089174 -0.7638992199371792 0.18810061099375136 -0.34347010996300226 -0.9409617126291474 0.8770084827034518 0.5228745593734521 0.7423545548357013 -0.3698721739338888 
0.3162088652630436 -0.8203548155164049 -0.9140627722391886 0.5164631784292306 -0.8942927735485768 0.19459867081401339 -0.026117119165914564 -0.025070905982244544 -0.31812325849430345 
-0.5212300257707108 0.6326018491361268 0.9069711060142549 -0.4939412193089445 -0.6566979307298867 0.8670363927688145 -0.22588084425843588 0.12687642439952088 0.35389707694721556 
0.5815919370428237 -0.9003511573099535 -0.5470178069985153 -0.9759200930387644 -0.2585533790106992 0.5120389119297442 0.7518443947430613 0.018258420547859915 0.13279771720089867 
-0.09898672027588898 0.5772960441001428 -0.512133544489158 -0.45650760627663256 0.8896691348614867 -0.4780764589757469 0.6826152180999644 -1.2569421549687687 0.48472956061132505 
0.8381917742650614 0.7882034647278676 0.8498827281038784 -0.14100385447638034 0.7088457018983998 0.39190304083323096 0.273065882860952 0.016978654141911895 0.9725795144242104 
0.30158062954855264 -1.140036169784774 -0.1331694389506094 0.0954957174009864 1.0563278361755248 -0.5805587362836925 5.445098103446411e-05 -1.4180267120211107 0.6342236826343913 
-0.6541484991525545 0.4075158665064522 -0.15483470253286463 0.6832974401265153 0.7808189638384536 0.6391030373265704 0.9538308381226773 0.9475391984884954 0.8553413591372325 
0.6153122746340585 0.804785156574509 0.9010010294469182 -0.41366001386308027 0.7420445905523608 0.5368651513179868 0.3799756188015198 0.8139825225999039 1.0104667797916935 
0.677681471510349 0.1689603540389925 -0.9686443335329117 1.0034448856863087 -1.3793761155307116 0.17316742417079475 -0.39048459120434215 -0.9980561716480739 0.7764798396345527 
-0.5981229367326671 0.6582441396856693 -0.3020583690399368 0.04210441593518022 -1.234558610191089 -0.15340879245468642 -0.5728564811247445 -0.5759758341537256 0.5784994118573962 
0.07695958207952949 0.9279163588975782 -0.0068332553530658525 0.16692505067008337 -0.4525967615973553 -0.10492688278565859 -0.37065519134337244 0.10978615801178009 -0.2616472870671387 
0.06276776311903436 0.839884895112011 -0.18762228399883876 -0.766482095378676 -0.570225440327859 0.39973039207819644 0.14112898126011345 0.6973087416137523 0.3146173397210786 
0.9773187302883133 -0.7935776623099107 -0.6516685094009619 -0.9916806596118873 1.2928639879083217 0.1641333831719797 0.3766269809418896 0.048156658532906585 0.5371838362649358 
0.9918753485196093 -0.3214766185604365 -0.5444779719872571 0.44300924603376246 1.2086372692763925 0.37310428665668743 -0.5850252816144814 -0.7743964536136966 0.23158962049537316 
-0.8070091540794748 1.1014496260139375 0.32903495300808433 -0.8659294713302423 -0.9195140488837589 0.03241547851646921 0.0017261390033201439 1.1596482323835653 -0.14413392845497924 
-0.15055369910890878 0.640822299391375 -0.761057050158788 0.11712053206715983 -0.5955472555982327 -0.19936599408431693 -0.1335579373086004 0.9943256082978646 0.06011426442751683 
0.29775620482642534 -0.2429888829254317 -0.521033142613401 -0.8610856508550319 0.1461083375675005 -0.9818118498603907 -0.508078803842025 0.9421867836670278 -0.14760148464862993 
-0.6963597576520962 0.8860391836793888 -0.3416154870312222 0.749557835950081 0.9852416018093941 0.8538952216343023 -0.7898487487380567 -0.8651001881374693 0.3998925944671858 
0.98196140906496 0.9331898001844552 -0.12454079327136167 0.5349092957500484 -0.21072889357613347 -0.2887980240054935 0.9673685292473535 0.05809809611772997 0.7253701752033797 
0.7453898177980189 -0.3803843977889317 0.22090711413322806 1.1561115310910526 -0.9884357760929606 -0.6867366578609138 -0.17547920004931428 -0.3658829441634242 -0.6339606284554788 
0.9203529986423215 0.40031555466615126 -0.7024683926285151 -0.5975936770200366 0.23956127895284218 0.6929377364126098 -0.3565746816157855 0.5184306323256326 -0.9817281212302615 
-0.7505769266395512 0.8148929495815733 -0.45112515181757323 0.8435854962280214 -0.365854212396253 0.7972800184439345 -0.6254237129845991 1.001759763364141 -0.766656134364127 
-0.636800538192316 -1.291862961558751 0.9057696882015731 -0.0655212571458022 -0.4285395150306156 0.42045790576922387 -0.06220697638676678 0.0620088929276314 0.09690161883861455 
-0.8356972909659678 0.2534279132274182 -0.3839842637298782 0.07960082375718927 -0.0026805502515095353 -0.17001701498325605 0.8618122106495931 0.45618238890228163 -0.38396815351958113 
0.6915777364643217 -0.688666077966542 -0.953935827246159 -0.612337382657186 0.8606856330106142 0.24213753676689645 -0.9786917931002942 0.8088249269513433 0.4155603138411886 
0.45813980118347397 -0.6961272483207296 -0.8027493340545778 -0.1960812261249431 -0.6402354138839499 -0.7361774822730459 0.9235696875168767 0.7516509895004401 0.1996881014812284 
-0.4346131653873074 -0.6087917254523906 0.3084055275351453 -0.11811732353915595 -0.683549925434866 0.31858309368714965 -0.07820160648135499 0.4329189166974228 -0.2247855702693206 
0.4898387420610953 0.0021740967516156004 -0.12570188137448207 -0.5871086882567077 -0.45742052475552114 0.7029407121748239 -0.5146178443228248 0.5740219120463563 0.5709823556071001 
-0.3151717024538493 -0.26495805408144507 0.4013377451874167 0.9421958265361694 -0.26493354273503406 0.3018037151640657 0.7727567341546364 1.0042319787275018 -0.16025223660575336 
0.9127827238789181 -0.19510401181745216 -0.6460180614612006 -0.5242402843569832 0.475653729332726 0.7580590893926762 0.8046379820900758 -0.2605131033532124 -0.8434233191523967 
0.9135629319242191 -0.7089989014673472 -0.09596131966754792 0.1606294447205051 -0.4057620002194898 0.9379666193739785 0.8004416097155816 0.12861924407814596 -0.6941124620858906 
0.7156062813580821 0.9938492653693388 0.5532951247349026 0.43459994225406384 0.47149737139993125 0.31870019061826443 0.47083708501708876 0.22850790544426894 -0.3356357111478577 
0.5116223211103851 -0.7222639052366768 1.021779918658194 0.33557618369101405 -0.2688954726497874 -0.32147459514118276 -0.2750782210572042 0.23482730935595705 0.7158584241600575 
0.7912803714178024 -0.5745716277555128 0.3440695347660853 -0.6083300622143629 -0.3465877608075307 -0.874020201183947 0.7389207808789221 0.32095818191330344 0.12405697945736999 
-0.9754556718354691 1.0109335979719598 0.7697271472200102 0.10443420251212439 0.7401903156297827 -0.5990448735508828 -0.8389667176319205 0.15765351093691327 -0.8000974464972248 
0.7347833829613343 0.49872929156344864 -0.35017560234430717 0.5843480342739298 -0.7661233989676924 0.8103700934368068 0.07842901880269999 -0.8015897138171886 0.001200197143033294 
-0.4904621586423442 0.045228891731730156 0.40444288675014756 -0.28643998217987193 -1.20417635127756 -0.7754550781229147 0.26782854667176315 0.07300257940108787 0.11654982555536123 
-0.34907287402193177 0.3153972629818822 -0.0753101289457802 -0.007389366031105026 0.3773036414933253 -0.627326611858779 0.3821621268227898 -0.39987588154601467 -0.849447324768519 
-0.7697632372088413 1.2508076547304012 -0.7877859000119383 -0.7428975033989188 0.0067857323789258855 0.40557311594083284 0.19602945437751626 0.08006404747978832 0.6643504492184551 
0.4476638822439185 0.32958903273819107 -0.7136436974202823 0.4522528358010172 0.9221402920145236 0.21810637606530262 0.5081970634747386 0.4990725403599185 0.09522983349797118 
0.5060252348241654 0.4952641451479656 0.3291083493598506 -0.06600580780515015 0.778758241527375 -0.06273429586158843 -0.15896890860438495 0.434982559308378 0.11206159901784318 
0.9841667049780003 0.23362321972879782 0.7019530687305372 0.7776861452633946 0.2777211495698904 -0.8147660461031161 0.3142566768200431 0.07421870709006849 -0.7448733284347524 
-0.2182896411693401 0.9030900523800699 -0.8295114539978222 -0.3155353382380107 0.28113592872567056 -0.6927092548598213 0.1363588705069998 0.16714074459753553 0.13160719702610693 
-0.48275017886086413 0.03645036358701398 -0.5021744813540533 -0.7769608706946035 0.3318331119256313 0.327777778278485 0.4889953862893451 -0.6893422805913927 -0.0016540302570039343 
-0.3446985323555745 0.9716346796442233 -0.2881459698382314 0.586988170525441 0.48502097525653304 0.5123507030106345 -0.5206390219454226 0.8932284280811514 0.17909340364470774 
-0.46946449376293053 -0.8868082514149341 0.6435646480884425 -0.6349244861057997 0.49359123856714915 -0.034059610020195155 -0.051162260912295504 0.5469483740051452 0.26270058826667936 
-0.9848180225297807 0.6835561988549587 0.4679987094045496 0.23714078194382887 -0.9844184292029329 0.7773469222419902 -0.5799464321699785 0.3356840579122911 -0.010779248171856118 
0.9804812133016527 0.3097243298376167 0.5714303296397798 0.015997404928716142 -0.5866959917639887 0.19564260977149348 -0.16188036402018158 0.48591011010832913 -0.49535726981754274 
-0.3399417523370046 -0.9131987876807892 -0.1189036296919712 -0.8422529542466899 0.9056697311672837 0.6603017251362324 -0.591166147673575 0.6228617792513931 0.4994723373295194 
0.1954630402617585 0.45894336844666256 -1.0537731035672318 0.5839771849670772 -1.0110830424006272 -0.7234074010644412 0.03496619719315872 0.3323893192832072 -0.6978327090817937 
-0.5565113003426714 -0.4278397683736225 0.6296902923839748 -0.46493323583947993 0.4394397115675791 0.6779314249072209 0.25437510971649047 -1.2267309109486093 0.2805050663516389 
0.9101078451606318 -0.36483572999952807 -0.9535215222259726 0.0749117958681504 0.5741476323740625 0.06281181413133792 -0.5521009561550542 0.09013972422422405 -0.9773913179506674 
-0.05577745473438914 0.2501291189395783 0.8548575234089176 0.8095756848802202 -0.5328327293985764 0.8293952014267847 0.23289738207026045 -0.561875495283886 -1.0006931251487663 
-0.10634471883600086 -0.32034344668030074 0.20538502385916774 0.0884260416916051 -1.3845826279424178 -0.4544987462878147 0.3879548491195192 -0.17961758392514748 -0.2784372013362796 
0.8637998368586923 -0.02878934334039933 0.624241542211483 -0.5066539739734615 -0.24160336049806438 -0.814760646369151 0.2634873053172438 -0.1971253089892222 0.5269333169343199 
0.030413189336261384 -1.0607577611325147 0.45420321604445574 0.4159668487347559 -1.2342907326784462 -0.22937603778310287 -0.061827684545725625 -0.2666125860516085 0.15601282822201834 
0.42887942420676417 -0.05138423335760175 -1.0306267337363817 0.3895463661929399 0.3271207758887343 0.3373159402573761 0.5281316246395206 0.41353057412667266 0.3142781980686023 
0.7819362314535487 -1.261285210623088 -0.638239518594235 -0.1462202993549982 -0.06493881751877015 0.7763063645574435 0.6583560208799613 0.05843092844566685 0.148239161010772 
0.8837303301638996 0.1008481597486821 0.4095785690391972 -0.8911371920837285 -0.9534458475198282 0.8094281169493586 0.035699084682938934 0.22778490236123033 -0.5499940668780634 
-0.3220754072450129 0.18677412384209305 -0.06750517400639466 -0.865809053459006 0.5861881384517524 -0.8952785225825233 -0.1504140395158972 -0.017574793037831663 -0.955026561815443 
-0.3835448425023692 -0.45740740688856707 0.8250057088434848 -0.3375122235817372 -0.35783271619715873 0.8202082513497593 0.04954992053312312 -0.3527445953201152 0.7638711887685717 
-0.8791055437382999 -0.22798315032168576 -0.37919498201984203 -0.5915544801776308 -0.29938429624294144 -1.2087262461099264 -1.0476755095207295 -1.2426939687694227 0.7644583480233867 -0.8774487319605105 -0.7119017579329867 0.394804128906333 0.33974057277773495 -1.158245274119399 -0.6933791709299635 -0.11469124705165847 0.25188616749463727 -0.4645565213825612 0.5055983418172436 -0.4276570297048919 -1.2677079927593256 0.3603380911987177 0.6928691602948047 0.12910847386508867 -0.3585005009820761 -0.11629147331663209 -0.835570471289425 0.4792695282695096 0.9904750557355255 -0.4911600189067665 -0.9200014026089832 0.9420125242844778 0.3332325426702991 0.7427670616274419 0.3072166710217558 0.41331837932132703 -0.5223547122213523 0.43844684556540314 0.864409915783335 0.7911007160482345 -0.4977356027193181 -0.9422235456533854 0.5738027182928822 -1.3663839863748286 -0.9866246474485713 0.7572100773280996 -0.043680647775374296 -1.434027593198425 -0.4552052781551671 -0.8171256834125254 -1.1816585743311325 -0.4682495078070638 0.5100490579548128 -0.3495809576130418 0.5328549489639791 -0.2247746963007827 -0.1028236996816616 1.1035614565575425 0.7527564949478716 -0.5247748260421865 0.41091655186542064 -0.42333493779521364 0.6014622790829501 0.6536952759146792 0.930026992808277 0.5403478341225981 1.0208948037089098 -0.2368163930356266 -0.3541973492603283 -0.526399023257284 0.16681911494240773 
-0.7701205411133752 -0.488914887563349 0.7797241856870231 0.9659489377284155 0.8719513204708226 0.46043813836541964 0.12739820571179575 0.7749999786190049 -0.659063157640282 0.6569448126374197 0.2955001679934651 -0.1418040528218367 1.1668302235641703 -0.0638461334579224 0.9398280887502801 0.8739414853952134 -0.01335310356648226 -0.9182952135275013 -0.5881260672762372 0.33287334392631096 -0.1260414045748278 0.8220984884646748 1.2677677963581606 -1.0326036419166356 -1.2241758448670217 -0.4999972880484158 1.1474054763712733 -0.8916954468990581 -0.5112369390554484 0.7717639405746037 -0.31739410292812614 0.5850887858157916 0.11014880956926662 -0.21763887196184117 -0.20199781538358144 -0.9403609116859925 -0.09320804065144321 -0.935472345922758 -0.09339964651747475 -0.1260040609571173 -1.1195411935883202 -0.3056133700605875 -1.0194590021398193 0.29774617442239254 0.7950060637684636 -1.2846074703642678 0.8493027920563263 -0.4765042179811203 0.2147941000466935 0.10641415667786791 -0.44378436662190024 0.5258606072731128 1.0238884364453769 0.026985000853995796 0.033351950830308494 -1.2245056223077517 -0.748716999837637 -0.6012140178548625 -0.11507207392065666 1.1554823660376246 0.5640737172658843 -0.05393645369731156 -1.0836654313887002 -0.4889699224357505 -1.0052456296282293 -0.6545446830202859 0.4128434781499065 -0.8265039948696163 -0.4638187477275743 0.568590687372753 -0.09522903509017179 
-0.9467041385827257 -0.5259834173893201 0.9644530158652528 0.4869380854172083 -0.11375784464703566 0.1035124729037747 -0.32407264479885634 0.5800437531740726 -0.8256429544621422 0.36029626019176975 -0.35494330918040445 -0.5506853665357763 -0.9426668699987147 0.036675915781174614 0.9153876937231598 0.4410497888273064 -0.0996929704686366 -0.708734478910561 -0.9822762187143487 -0.8211168807834384 -0.6635370912146918 -0.40020636858748254 0.3616990516654813 -0.706769580976098 0.5654357424198779 -0.5049484058915507 -0.6731433731948095 -0.46922772362400045 -0.8582232000485067 -0.5823515930837043 -0.6527866211921692 -0.763868223656106 -0.45797307231380113 0.035639425663486476 -0.9549179729997448 -0.2313288878833792 -0.5053192775796881 -0.4770144129708638 -0.970268053377059 0.10690317048755643 0.8008873087274342 -0.9926154704038006 0.022517246096013865 0.6480339365657437 0.8570077183283911 0.9343025594255677 0.8803560640361396 -0.8172348103448122 0.7241492115416823 -0.7391179094773713 -0.8269147965412635 -0.5433222026879552 0.6929065438408888 -0.7730900239506999 0.5196013203693772 -0.00992086747984783 -0.4324124397362853 0.1928186170127709 0.5743988210017746 -0.5327375382599538 -0.5490888879666032 0.9141961642030695 0.8289712158059658 -0.9144709163028049 -0.3273978348991945 0.2686376462363218 -0.2599869123301182 -0.5424662437722961 -0.3172327837246886 0.3100657493065076 0.8028546441170882 
-0.28922703282118295 0.7639544284935073 -0.7746554316461508 -0.1194402875324621 -0.633712783215807 -0.5097753528159568 0.7169075866183092 0.30401269445973633 0.4537536269316464 0.29059307293150966 -0.11973018301393254 0.334792604784429 -0.45567021811286834 0.21534775851335802 -0.672893056337682 -0.6788073148479636 0.05119265601713312 -0.8380068636044145 0.6867640157935903 -0.7979548346822066 0.5550371645123614 -0.15062711444469695 0.7257972680065156 -0.30719574015606044 -0.6345372309214552 0.9352986661160867 -0.13560299625245986 0.374252263560468 -0.1356436143903762 0.45086997918477417 0.3005533891151611 -0.8623254982700552 0.37956353592816916 0.5678393009101862 0.8588100294965416 -0.41419355889336884 0.9117625115284341 0.08874948239087087 0.6523252987972729 -0.7746777926194187 0.09760559657824083 -0.9648858286051074 -0.6590644460554269 0.7441126162725532 -0.48069014956615636 -0.6180993763786868 0.7742674807421178 -0.5615310575689902 -0.1477695843929819 -0.6971946846629471 -0.31987647509176803 -0.44788196919056916 0.8258135444174214 0.04642593298612499 -0.7025907040602248 0.37935293263870423 -0.8405866890960147 -0.2215394946041135 -0.7164676066770291 -0.24119998144390228 0.2724603067173394 0.26719855835542866 0.7057579597901007 -0.27200936108245033 0.4167678060192677 -0.5474507866271319 0.959047615619187 -0.5291542433199989 0.7644010934316519 0.9664511047181675 0.4042892262661692 
0.2098159302557074 -0.39826643783472215 -0.6143435199689615 0.5749958149116343 -0.8210310774620698 -2.094498541709201 0.21666621572932193 1.2330986603882772 0.08906658813578466 0.42601644446403625 -0.5818775078249219 -0.2107077745910124 0.8702539578071598 -0.09044177946819314 0.6521798466383009 0.35657055872773696 0.8801055736927942 2.517189403513865 1.5418691783742682 0.1755195186462808 -0.02771429246831569 -0.46110467123714427 0.5178926804087445 -0.5025629647486446 -0.2111584441931686 -0.19834818003904114 0.6227750254549157 -0.6783611419602406 0.9658379607223501 0.8831332849034054 0.23992541328992342 -0.7304577941963306 0.057767198726125464 -0.21450653332141026 0.7545726656264365 0.6927705354070628 0.35954424336572827 0.5784154090571482 0.03134791417144934 0.6699178506098574 -0.3127334650050409 -0.1607256965371237 -0.727260957406061 -0.839716209001862 1.4773385715835803 0.17144396703361647 -0.1323592348155078 0.39865604746666633 -0.45423407425698403 -1.2507049456396009 -0.886313705585155 0.043781449228882385 -0.310742143099867 -0.261493262859745 -0.8319342889513982 -0.1510110188259109 -0.3874295024617938 -0.5490743462610967 1.1045993517754118 0.17942788383848685 -0.45441887138490694 -0.6891219937201614 1.0998502647286963 -0.8008457458770176 1.466142548932244 -0.1762243880437922 0.14698687287817747 -0.617711877973318 -0.9179773412230674 -0.6264081168434865 0.7453278745415989 
-0.016178574665993532 0.8348116804969519 0.8521238701415128 0.3425555707613322 0.004232661077610444 0.05059600888527304 0.8186482687583068 -0.6295216103638005 0.7478070163035789 0.2452716328876935 -0.95611726474124 0.47369963847629454 0.4311126316548776 0.8423957237680291 -0.15234301378448792 0.7284489615035715 -0.53832594746978 -0.694791216821056 -0.11221084891639321 0.7089057130577574 -0.17765374663343556 0.6826862167493655 -0.5053656614445006 0.5894583360363096 -0.4890761221811767 0.7713102234551118 -0.25216738730948846 0.23173002849791666 -0.2683899677078149 -0.8502519808901922 -0.24938171019073108 0.6835256535748478 -0.5675440473837491 0.5833820406851092 0.05248351948421749 0.23597955185556546 -0.1852129713730105 -0.15608893764582357 0.602755361412738 -0.49488328798784886 0.7522720431477085 0.6050960458455207 0.6595400336318661 0.6740925864940694 -0.07032834580837288 0.23615498738985868 -0.25464642887550104 0.7736403937771593 -0.04155281097882528 0.45994625544064593 -0.5866051016312175 -0.47343071416392823 -0.7808800611877362 -0.20798731625277314 -0.9310529183082005 -0.20538703064309236 -0.5537917144269819 0.7530829875273977 0.6837118845141319 0.8014959679058257 0.32923155707574864 0.9057521082919359 0.6933484378480271 -0.5158103896930577 -0.9692797971323402 0.4304322574372347 0.08601227667255466 0.9450566669985423 -0.7529235489506855 -0.08179589375065645 -0.7954995680994474 
0.4502516981834045 0.601496181886081 -0.11376181611438856 0.7915639437211819 1.24259152804031 -1.0909883696672953 0.7999202852980235 0.017318534855980523 -0.09749066788961445 0.7077458263085908 0.39429586832437563 -0.4357770283494293 -0.4495941195589103 -0.46451782743009856 0.4271071804392647 -0.41507269594982066 -0.6572022694492948 -0.5226620818029348 -0.6292689504250868 -0.36266721105162175 0.2942308699718565 -0.99616498162297 -0.7785294658152191 -0.5442841128019669 -0.8467333882211144 0.04574829056918776 -0.7056408124173719 -0.36155311704843635 0.9581489161611962 -0.6632455274579266 -0.923308301220887 -0.01494723733832125 -0.8595863867379788 0.0007416447222889245 -0.46543917651449657 0.46872287539951857 -0.37724672779886576 -0.4054067960076143 -0.23386735317913568 0.6781626532639151 0.13888737122348968 0.15669551739973675 0.1285654311403477 -0.3249804200472676 0.7915907584594438 -0.6577795370330362 0.2672574426150931 0.7398393618634541 0.6469623882691797 0.5964391893957084 0.5049535865917146 -0.9450389329960733 -0.4075359804398845 0.5130060830265976 -0.7256367623732399 0.8995621023082031 -0.06417706798500428 0.13462002199121545 -0.48267431532552374 -0.1786834351237191 -0.6844452154850696 1.0086874790889917 -0.4317692897260266 -0.752825880053887 0.0804745578426521 0.0818363556703405 0.5036687197281716 0.03564882924281521 -1.0015353553277948 0.35056649473189927 1.0118926827417947 
1.0370198340063987 0.5366340536237464 -0.8215315110912226 -1.0493607676850585 -0.8039533878026206 0.9549806078323925 -0.2571465793130255 0.06090691449564173 0.1215249771517981 0.512653641869321 0.9806640413665846 -0.3011644289617447 -0.5662530358930338 -0.2065120650193872 -2.228171932710055 0.1523209999661806 -0.2658228012874018 -0.8259743021037788 0.08242207919435847 0.38886589060372684 0.9372683461514508 -1.282785628492453 -1.4127347566758828 1.8406703415450822 0.7433699572331678 -0.5984085654949438 -0.1329854866824724 -0.2973837165015347 0.025468098709516326 -0.7743929535965421 1.3100568664870613 -0.7236436886505595 -0.015896761874528972 0.0176232421751143 1.0669365408872622 0.8161339895156963 0.19077986549857714 0.1046169034530665 -0.8550141594317758 0.34986191453841636 0.3696126229927064 -0.9238805300540222 -0.1957502165707482 0.5930253439077087 -0.08178542580163746 0.048011948616076765 0.4958575897735989 0.8369069329102946 -0.42326064577685907 -0.1986374381367141 -0.8832985570334189 1.1999091200041136 -0.4848980290743294 0.18552814998874087 -0.7079912725663873 0.6197791940197155 0.7913110347293736 0.1007311402141066 0.8950088303437872 -0.9235754686026065 0.42501502584341755 0.6645691532540587 0.7162252915919423 -0.36055052142210886 -0.818762208503813 0.6487791209467515 -1.0316753952795914 0.3735403431543256 0.6983291083183084 -0.7350828156305805 0.648908524120931 
-1.1147731266206484 -1.7200106708148972 -0.7272031542948265 0.378955919164677 -1.0279428613319062 -0.591714683412799 -0.41173514657772203 0.45875997572667443 -0.5515845431025574 
-1.0016431060723776 -1.028599617523006 0.050248989153966625 -0.43273084512156745 -0.4960899945408316 -0.20283800448694733 0.3741986029060419 -0.4277051826488761 -0.32156503383798385 
-0.7017916518407317 -1.1251395021223654 0.7336359494221205 -0.9114033474793001 -0.2550073757186038 -0.6911736668760433 0.5081922985875852 -0.29486843010064745 -0.3711226620801569 
-2.1977650658620997 -1.1791506185173146 0.19755451510996147 0.3165013124108408 0.947475731471808 -0.657914115080192 -1.2347471815029385 1.3803578861709576 -0.5647821181260081 
0.17671555160388475 -0.805887716322696 0.03427348746912184 0.2127163266107848 0.3956024716684955 -0.3640435955401013 0.9518354208878355 0.5854180381134458 -0.9306232128990005 
0.548382951139838 -0.9637284618265163 0.30659928813212334 -0.7602613592323191 1.4141749508601014 -0.295844547319718 0.2117846424481296 -0.8916779241113939 -0.2371863363765937 
-0.9180146813249707 -0.5550100383936484 -0.14108934547783059 -0.7856109057566185 0.7852420713216237 -0.22988613234608143 -0.2843038521640417 0.3910020037084338 -1.0493331494021674 
-0.35007050144826035 -0.4915940381248334 0.20690574677490192 0.6202565901398025 -0.33605052134127344 -0.16884916412017395 0.6001465885242031 -0.39934692296235075 -0.5912522207803083 
-1.751073941019818 -0.4083464810291174 0.15627534634517717 -0.9256215096305337 -1.7647174184690813 -0.6559151868883962 -0.5799044657624675 0.40063610659614746 0.36698918147674653 
-1.6759817635128207 -0.43467014567142503 0.9579194162420684 -0.5656380212094635 1.6584152501303195 -1.2941493262495016 -1.050496023122974 0.6111000854728897 -0.20048493596456363 
-0.6058750037785445 -0.09280506068115865 0.8719484634231635 -0.3380972772241689 0.20238203435345056 -0.8499844529103263 -0.6089197257088198 0.07110473053104631 -0.4045246565692376 
0.003119655651375439 -1.5217869820134924 -0.6579026224509299 -0.19781907968531742 -0.057032003660842386 -0.06781148573340538 0.2804300817349091 0.047965058357664514 -0.6839836274975231 
-0.8110272169581202 0.0854702845190449 0.9519784334971583 0.8795262165261187 -0.7177634697196359 -0.9525046273063684 -0.7279512829019078 0.6056634604353152 -0.9098405273412195 
0.4479273588636269 0.8992547754718299 -0.05271974565028034 0.8200159846150119 0.3934638320972287 0.22793344192975476 -0.937108036078795 -0.6705686452996873 -0.9786791215944719 
0.5779910958307667 0.04169247229245479 0.6208179833195485 -0.8006522091080228 1.022348044962505 -0.6607045577707072 -0.2523806320242927 -1.3406358585472211 0.1544398260785589 
-0.06824803834251486 0.39622136437283 -0.029833328778515612 0.6605299203397036 0.640598607131768 -0.647561740283733 0.8356125828773118 -0.36135994252767045 -0.31304348680530875 
-0.48059830041102264 1.247002959372654 0.7237534771236606 -0.6822987948961479 -1.388195932565501 0.37161001237522046 0.01847815468777821 -1.5777613445705607 -0.6497144526603864 
-0.5783311438901021 0.1928741256973464 -0.8699916118470434 0.3980875018629762 0.7205331439790325 -0.20635334232301972 -0.8945499931190878 0.16584910058030283 -0.6938786230508146 
-1.7174869004585958 1.0732724092048598 -0.32692118387915753 0.8372065241865015 1.6182673144288537 -0.6840342646129806 0.9316022339149123 -1.675808560182981 0.042162757789551746 
0.7715029553152917 -0.5928870499738549 -0.8429495357535028 -0.505984057433166 -1.1094034557692731 -1.1102970263322598 0.5405227573728493 1.0284735958840172 -0.6227993208044316 
-0.929429935998911 -1.4108881242456381 -0.5024896435391389 -0.7630870549518572 0.09533744375561276 -1.0523028410947408 -0.243995075784017 0.7763480344933579 -0.473410571441946 
0.4451832574939462 -0.5123359492849153 -0.634429212068467 0.6862175469912936 0.2672577132486356 -1.0866189439195484 0.18119685026155402 -0.3581033454641476 -0.5250399366235 
