Layers weights
-0.07892945987639499 -0.2439915518291551 0.9541500195939401 0.854161570521409 0.32658934698541686 -0.6653758797272746 0.5770593656547383 0.15939118926805906 -0.796017844376004 -0.5309502374490664 -0.44747485914066387 -0.9434715855663312 -0.20617554797499982 -0.8417348974590662 -0.34506123732366434 0.9402245022210298 -0.5587930713158089 -0.2742679769608931 -0.15988027379227066 -0.7365376563526056 0.2689225808783591 -0.641540846086988 0.28273220713672154 -0.053848217157233425 -0.36040604944095134 0.16046325746867884 0.422018485603852 -0.8721577747358362 -0.6052539743455365 -0.07759607431900917 -0.515274649041501 -0.5319322647850451 0.7454600144907593 -0.2959069836563939 -0.16122347601112175 -0.8287435822749032 0.06867567760705318 0.9932095245068067 0.9408535315511974 0.06537872281363333 -0.783486210336712 0.6351302017208078 0.7887146303968873 0.265164771927886 0.8571757367026871 -0.7823643066856356 -0.12727964800579072 0.2794148536346819 -0.5315283265213206 -0.25793814448759633 0.2893102097049507 -0.5355471380153669 0.4921144529893944 -0.6924434227607177 -0.7041259106909941 0.5837046808934341 0.8654608546057927 
0.2658888713366647 0.5540452879559405 -0.8869406938371212 -0.814845606228978 0.8114027726809265 -0.7620368982214814 0.36778620134372186 -0.8584420424533905 -0.3492872842079382 -0.7806064149541476 0.14447441675128903 -0.730149328245187 -0.614632044104011 -0.4481703532582899 0.34429046733452573 -0.5305197672712973 0.294095668060371 -0.013246199333618147 0.701203901670947 0.6873602851793938 0.8830941013531541 -0.459109879813437 0.8331442016672512 -0.8652432443856755 0.7435787571820136 0.06134461543075731 -0.5411256877533039 -0.04709714679831278 -0.9388797262322328 -0.03416388775040735 -0.8153503787719538 -0.44364902970115905 0.9722337265830903 0.462351385682787 0.08645039439151536 -0.41064875275473933 -0.9130809851620274 -0.9648844261736707 -0.05238876017035787 0.825626380668202 0.4831480395752239 0.7587164791418375 -0.9741161114338384 0.1703510079581969 -0.489179839311052 0.44801771829807335 -0.22765179934147217 -0.0811007763181919 0.7403469663700384 0.41857769646665055 0.674575955558278 -0.021816567841953738 -0.5664435077048156 0.8996531265564951 -0.9505769347036854 0.27817421664230024 -0.9534864033249983 
0.2060154726886585 -0.9419585737194727 -0.3280588013628043 -0.2718194893613328 -0.6423684922923871 0.4999487300683594 0.4732913146512183 0.1777484704518102 0.9583756049405192 -0.2507757522075069 0.515669277011412 0.6140106738360549 0.4787258132690051 0.05077369908602525 0.9678669241612978 0.2768445386638321 -0.047977206847015896 0.027140967954083717 -0.15579249402371742 -0.04040590636052399 -0.2360414316283288 0.04657537074623841 -0.6234604521378406 0.9813531807235141 0.17697513897413342 -0.041623183641655404 0.049396290266158216 -0.7842737120664167 0.18958579668654285 0.578826807020917 -0.19843131193236796 0.3067653982332428 -0.9779624779471501 0.3502518790619715 -0.28016685063195057 0.6085062633765228 -0.7250819341767742 0.5878421263238722 0.31311117317163917 -0.7089875969289086 -0.43351903498529754 0.7307171031724922 0.14247903678100737 -0.3424966505653535 -0.69547030140871 0.3126668905469103 0.17835501299449352 -0.08764257620712534 0.9626762539886975 0.9001699590452912 0.7108279598336968 0.8411675211233813 -0.7328684377425245 -0.4585229371473958 0.28488834629599324 -0.09413342773403355 0.8142152008676715 
-0.800898279610323 0.7179962362757502 0.7864488862568932 0.06595466484385448 0.8339563061378923 0.9790554301879302 -0.4340252494993473 -0.9537825636097834 -0.34644550538605734 0.1603204061820238 0.11815720867340707 0.8232210825153035 -0.5940907719936661 0.3617136244536472 0.03656661467929001 -0.583608515063845 0.41134851940016937 -0.9273892568886879 0.45357578113726515 -0.11134055452065539 0.6930274579867679 -0.44494193907593127 0.6488985839328025 0.39567431125684194 -0.516952814710228 -0.5293088812242395 0.5515792261730859 -0.8350519639756344 0.7315559718132745 -0.39940618956649443 -0.5572226684424064 0.8957495581599118 0.5639008674546226 0.4829720489467362 0.45952876276811305 0.8798040741398268 -0.6590159901068444 0.8583322717406361 0.11187782294650139 0.5480654424554645 0.4119065966341422 -0.6026396573575719 0.04569232300323667 0.15685695391122456 0.6538068411693274 0.7860056543234641 -0.6956504096037932 0.6147074415302336 -0.7565795865673755 -0.04571508819201919 0.5084568747976017 0.48075901282638744 -0.6541098566138 -0.4054933011877744 0.4775159194504226 0.7560306887409383 -0.5298095353616712 
-0.5862575056556207 -0.03811164606797046 0.5948960276560589 -0.9421207399435454 -0.40197537727235555 -0.46339021725781393 -0.318966218290172 0.6102974580994711 0.15100474166299183 0.6567028042470604 -0.801518139819045 -0.0121398015150187 0.6867115672986139 -0.006283653578492476 0.23591138411526758 -0.29523448354798276 0.5057723593705332 0.2799917319307903 0.567980295486278 0.43886332499941116 0.5133188092829479 -0.7177929596363604 -0.9348584556801149 0.46418481894143326 0.2436367455717645 0.225535480781885 0.15539308775816774 0.1227296747471689 -0.7655987997321594 0.04448185396352211 0.8111604547778135 0.2908345185218335 -0.9749634680198438 -0.989485877389541 -0.5033787001664514 0.37072936085050734 -0.8542789091473273 0.6501072865621802 0.24824688675463258 -0.8788369804600542 0.5081982993767549 0.46754112608691556 -0.011320511886745432 0.6828750058777739 -0.7536343393680363 -0.5257369781204977 0.8102445505396243 0.24835336972680477 -0.3844537213157204 -0.567469939643771 -0.7816112375529529 -0.23724507499726055 -0.06869310437813025 0.7050571107014658 0.9793173294179034 -0.2738873248830702 -0.2108811294850177 
-0.842188448000905 0.5887856441029697 0.7266770624023686 -0.49714095611101006 -0.5056806848599495 0.29596880166790296 -0.19050518700422114 -0.8775358129196567 -0.2557543488804077 0.39998934565075617 0.07628117974373927 -0.806085509615615 -0.14362128403532215 0.28947049692952764 -0.5696681468255436 0.850897318715514 -0.09135758594769494 -0.10646522494679012 0.7316502537689251 -0.5345835270450625 0.254494323922674 0.17038508414461595 -0.16189565451985488 -0.8275713751800253 -0.7925221625680889 -0.34643212302618687 -0.6149283175089397 0.3654657834625159 0.23994929117483688 0.22226555489558897 0.8472000623575979 0.06864879038419125 0.7545559344011317 -0.5662498685947055 -0.2842125200580983 0.4882720086425052 -0.37503437442953014 0.13628908695581976 -0.0616736761640555 0.364233859386244 0.7587187182771797 -0.9473105307100325 0.5694650259750027 0.8632013345446747 0.8963011514128503 0.9799863768562904 0.09282009442670902 -0.5813566745349645 -0.33204395250146956 0.3983523064462262 -0.799370212126542 0.6576046139279725 -0.4969711130892722 -0.7593748360864858 0.6836740352599304 -0.8887841814337403 0.3909362426455958 
0.1578074575375008 0.890977033115163 -0.6831584012716789 -0.5921001226638136 0.28205849088069335 -0.11565509497760895 -0.6090582354828449 0.543500125778458 -0.9473234166409317 0.5101019528029231 -0.9407646050385852 0.24409882503430058 -0.8346553475168497 -0.48407702429647625 0.6689556937084669 0.8194526657444137 0.7365892576416282 0.9979504997082584 -0.3971446218723107 0.5999343886561226 -0.2816676929398432 0.10310976067461186 -0.7457114615819094 -0.3402036871187182 0.4969152776430723 0.6963405410070762 -0.6854275763745035 0.5759227148578556 0.919089687130598 -0.3161476563244361 -0.42512664479699147 -0.4899861669479615 -0.9261874844899212 -0.47301263879784616 -0.5258517121985511 0.4481668494727633 -0.867585297370385 -0.8085982271863565 0.06007994833604435 -0.8488696640642655 -0.9402526549796033 0.2543066541599621 -0.9222154531282669 -0.4939153123198925 0.2055664163767641 -0.8381674321243062 -0.2137279820009239 -0.47360469408705286 -0.04288893949937922 0.9958061968008094 -0.990082236655861 -0.893964426793916 0.42698447993496313 -0.32743220230185366 -0.8240269257056245 -0.5005638536439692 0.37311382681793726 
0.5850028630826118 0.9379319869087721 0.5679834269252668 0.7436287855538177 0.6624776282659641 -0.942247737557153 -0.430714129073271 0.2986795871105803 0.9526519509202498 0.3301892877137764 -0.8796216725494244 0.7435374977921276 0.44815498776833906 0.5921580015736869 0.9269711034073145 0.10669022656012173 0.010742281927690778 0.9405088482085051 -0.6321560946122549 0.5557531088068588 -0.7556197371670115 -0.5471636893693312 -0.9032080881271038 -0.16716577536283705 -0.13475133594661015 0.48012754779443867 -0.03906293549865647 0.04996076518024606 -0.0848917083037557 -0.3861088708936007 -0.13332210622992346 -0.12823943508640778 -0.05108639938572579 -0.32507400417843235 0.7809289104059565 0.4819274115129615 0.9568546695816158 -0.24913350650294053 0.6196627432392765 0.6576060978872895 -0.11521589036326096 -0.38513869618397534 -0.03160071117298169 -0.019425064377560863 -0.6503220504287939 0.7841048654471974 -0.09813263035756492 0.6315212099106888 0.16959669596982252 0.06906190848378158 0.646312564875394 0.4639918838231225 0.7911964387410233 0.9122814118926565 -0.4574252428055128 -0.47169901519324053 -0.20554834672476585 
0.6570004236234472 0.8749829850474817 0.4687349150273159 -0.6243549441840635 -0.31824631702041906 -0.9295495861779854 0.2775479078355212 -0.6610733982347954 0.025689069027892142 0.8551896418156923 0.2769280676867414 -0.2336961581576209 0.5352104277698135 -0.6585151846644228 0.8786396857471495 -0.4013089111819612 -0.12007602512578575 -0.014284495901469407 -0.21927824714157818 0.964497517633844 -0.5685903598978768 0.8994969681988607 -0.026002248008299755 0.577064040573501 0.7211961299104988 -0.01781238791431372 0.9408993108518693 0.4639766910267771 0.8543502659775994 0.5013422533146281 -0.40408790892693713 -0.7571964160627103 -0.8195649819123778 -0.09775625401125798 -0.19039231966086634 0.21250303525751058 -0.4530458848158554 -0.6202332279064731 -0.33852054136698806 0.518686099992764 0.6749015280207362 -0.0625398699099502 -0.177626094181506 0.994189589295257 0.35907462107999666 -0.4480354655013066 0.14307257662586426 0.6709484065436744 0.7228367511505256 -0.5753709045476285 0.14259251383138394 -0.2368380963404153 0.6099310558830318 0.03422763537984874 0.4962769791652386 -0.6931864964011634 -0.6567931532023026 
0.0361065455443339 0.7719016161190733 0.588794226396163 0.7417609209587479 0.8901941030454388 -0.7986036659311277 0.41908928639952747 0.8513247696756603 -0.14269080295532066 0.43164838556700635 0.4365632280997147 -0.7377306319058732 -0.5029198058914801 0.5894903245006442 0.5673682341175139 -0.4733156451500862 -0.43963903457826836 0.3891933104885632 0.14863334837809727 -0.43064010269292163 -0.5799918308536707 -0.8219328414600673 -0.7572827032063121 0.204261595842532 -0.09973233490549327 0.34522592060798907 -0.3631265477983501 0.45996139086631893 -0.6250738122430994 -0.5939969973234371 -0.011249498646353162 -0.546003836162986 -0.7964110661250303 -0.665370152154517 0.6898359207262714 -0.6665881665664442 0.37450005396056874 -0.5487160591187703 -0.8553578881428188 0.010044564760882446 0.0698636185578605 -0.03880154189621243 0.3443402556054165 -0.6253314581794507 0.9893071122604651 -0.13730824552407173 0.1570338958716735 0.4737613357523125 0.8616448531509897 0.3711292165479336 0.4980641865903239 0.08303617411496189 -0.09072014958312358 0.2089163573973607 0.6568315598824828 -0.22877118939207874 0.4024375617303484 
0.25571285214942185 -0.6789088092926301 0.78256867778724 0.9540959068822159 0.02926033597065758 0.3219593277793462 0.07499957490290465 0.8672351066517294 0.2649800643996876 0.577666014655736 0.6017318327393566 -0.41329858652644 0.5821387195777823 0.2509239646812129 -0.4610878663708726 -0.27490767527171056 -0.7219970256014123 -0.5184024326516072 0.29309005060326787 0.558525894580316 -0.13511512691449457 -0.8969855466124901 -0.1186461357854176 0.7869198671919149 0.13066289404596065 -0.7781814101342264 -0.04264187481452453 -0.7786983718855289 0.8589317131911587 -0.30606619417047987 -0.4827323089924134 0.004596757375376015 0.5355519118902563 -0.37070907610355786 0.043227662898075225 -0.9347506225527891 0.6942315774599745 0.8587700848127655 -0.2065782864195993 0.5647698922904947 0.12370255533278907 0.13807243955557902 -0.6967445506326682 -0.4472851850238022 0.8365948476919745 0.21938969650870987 0.8488700356039207 0.8302126544595669 -0.25564582007215697 0.7055626121391694 0.7847596364081662 0.6113667051583456 -0.9640916834750657 -0.0932186488832738 0.726358394511025 0.3948996511108156 -0.43801968427206206 
-0.7489855974352968 -0.3488881608119614 0.2161831818501494 0.30004597512396325 0.591357485489709 0.3340170256076549 0.5842706912732492 0.38984579070704783 -0.08857570274409166 0.0843495829744576 -0.5784834439972795 0.7121112655132198 0.10422705489920148 0.8541657153178184 -0.03545685905794915 0.28289287411128483 0.3726141590433747 -0.31261642540302925 0.865616101404389 0.8926426309580626 -0.703864051260283 -0.971133146555772 -0.6078980472168691 0.20619464726645442 0.8613303909043437 -0.8419657270965046 -0.5291609395344137 0.35654596338072997 0.16234055582654916 0.3103807270240002 0.7260204238732824 0.8133330002529393 -0.7736218026874058 -0.1689648446683476 0.6611775680385119 0.5633366190651508 -0.7248204922335586 -0.9734009010794686 -0.11542092175726748 -0.8063994927475107 -0.5694134500794801 0.047293689864781996 0.7578987594156295 -0.6961949346375931 0.691165962733661 0.17551411778679182 -0.33573881593568156 0.16724565859274576 0.5096096828847911 -0.6703963089819012 0.9919849198171649 -0.9666158733056771 0.562642867421322 -0.6847174339889663 -0.36530595741030525 -0.2623908128071226 -0.5486391006613847 
0.9363151396777778 -0.135031487581595 0.6361826442600362 -0.8994592298808544 -0.092155584721892 0.9538845668006477 0.8022631902157713 0.4097703991855204 0.3125669453141502 0.3184810396545188 0.903449573175688 0.8390388899888301 0.2230471142827517 -0.5169822797657031 0.41878027219253533 0.995854995856509 -0.0224614172548101 0.9556883706998107 -0.05131348065982655 0.017256862100550885 0.29496972230451357 -0.2781541026498491 0.4168434481322736 -0.4266155414735653 -0.3745986321964785 -0.777543977681368 -0.18322550015356054 -0.10609108715901083 -0.47688170946157005 -0.2806063758546591 -0.9735616512381562 -0.5493537734578378 -0.26045333686085104 -0.2953929550697143 0.9485558825575766 0.6531366058517787 -0.19296895090046573 0.4217105116434483 0.1921790524084015 0.6901611102359244 -0.264568400604257 -0.6826281330553168 0.4180379407024277 0.047378037990215116 -0.20375919739004678 0.6050971076534062 -0.6061487214187398 -0.9588160504350733 0.8929190454983165 -0.2315750332696498 0.7611736916436715 0.950619820329653 -0.8739191087005753 0.765393214718197 -0.3729978406367358 -0.8556763636078404 -0.5727457518675461 
0.7325466463895829 -0.7860580120859384 0.34510608422991695 -0.1265224548531143 0.3359184529353296 -0.5063028355396888 -0.9683066711562847 -0.3975999734973559 -0.4963810415968566 0.4481866105278627 0.0927251475304538 -0.7007916569462411 -0.2490252248291236 0.05967091838848115 -0.23758512939535237 -0.14784735830752194 -0.4832158732407472 0.8661998536305264 0.6565776987822864 0.8984307625928472 0.8348871632699433 0.4334784402069076 0.22278047422507252 0.6698606151780917 0.5837740638641347 -0.10028861152343471 0.4646190374503478 0.2958048291634272 0.21498482193005497 0.05491144340730325 0.5547936769098265 -0.524251017111159 0.28378272366040447 0.9217630117206153 0.3773303191474453 0.32573399119744484 0.10776764768000935 0.8305688320540077 -0.5995112103715723 -0.364184712713582 -0.5312607354416365 0.28688224597778134 0.15237796074714582 -0.20306608195290043 0.3163950659898682 -0.46445637069276335 -0.5715007872931837 -0.7500832422540145 -0.3287092966757901 -0.7131202629912174 -0.637800427992713 0.47968769330968275 -0.9838266148324202 -0.5261030703297032 -0.8510230426028127 0.7405253540406014 -0.3310832963391368 
0.7149399989639063 -0.6265973495944321 0.8462117919818051 0.15018643660171072 0.12199741779764639 -0.1892420347953736 -0.8364251262368105 -0.44265983562568034 0.42469116876627466 -0.25239353576193047 0.9753176342751952 0.6496684107912523 0.01994587417223581 -0.04376800909856482 -0.9927926135003693 -0.463466546664967 0.49616284203441174 -0.14555010794429446 0.5231111371785131 0.8499057377469608 -0.1912304726766152 0.6749553612486867 -0.5611200401517946 0.19277522877296782 0.7613098819857049 0.28602885376123677 -0.5204959384830656 -0.01039421865317558 -0.08560993933806738 0.18289059082068215 -0.7630637269218361 0.7035138271455887 0.18727850363919774 -0.6434125711993006 -0.42320832969776 0.3782837067913505 0.33183210900595417 -0.13531583752927379 -0.41261980363893014 -0.443155159059589 -0.45174971917824713 -0.06176799407708122 0.5680269741017216 -0.4419912945870026 -0.6890686404397048 0.7845331088056176 -0.06458925531842197 -0.175800859272903 -0.24511631124429045 0.07361383042131964 -0.6177616370377683 -0.25295008178979295 0.5100410809285154 0.07056304429418891 0.724938496184347 -0.10609926693639937 -0.5326678490880963 
0.2583731623027441 -0.3836599925925128 -0.04405881287666147 0.9791798259385736 0.8382264142740683 -0.545420858098639 0.5530585419913661 -0.7966821167742508 0.7152372730952608 0.9743397820926127 -0.7798208014127463 0.5245710887301491 0.6341565060911849 0.7227924642743211 -0.6241531174247119 -0.8362314390562637 -0.08443730593105636 0.1359501248948769 0.30708043037080857 -0.36371413550177834 0.3925132742444455 0.3960983009576384 0.4728765706966984 0.019469846238018063 -0.7662555561018181 -0.055629796192787184 0.4743437940631916 0.22979093380568005 -0.36265803737223723 -0.6193024716531703 -0.26613825325519147 -0.3724837119930202 -0.39677749873421164 -0.38501240084330246 -0.9790134278860991 0.4776832892522833 0.9780378025410816 0.05085778323348955 0.3037660734559935 0.7886892098657852 -0.6161052159180775 -0.8422663850190504 -0.6076788279232219 -0.07876424321919084 0.21822772391068423 0.26429678160737935 -0.3066953510047761 -0.2775957991275215 -0.06868871689298595 0.24370106406967285 -0.6134523937429988 0.4836778026398112 -0.27636402998266263 0.8245569877312946 -0.07564723749237712 0.9631317083816411 0.1538495943460787 
-0.3478727918165936 0.11262376782155714 -0.311084566891638 0.610585398430965 0.6800534479088105 -0.904470280480548 0.40290613809287845 0.5601177879486461 -0.6699714639327685 0.6926039602706693 -0.14783396945491023 0.15747853487984909 0.8157565554865005 0.4842703250715117 -0.6721531937441245 -0.23080135935164625 0.5898941216117659 0.5734371349972591 0.833783167162597 -0.4851618588097921 -0.4334704649209915 -0.6675860763423302 -0.30098839025626134 -0.2860465698197747 0.18363151462915295 0.5565704146082744 0.22021137122316392 -0.7406809120830005 0.11460864033423368 0.5418147443936767 0.3477514339354615 -0.42502294563305276 -0.02167819617618405 -0.2169945600107921 -0.9036301182872155 -0.10092041200689406 0.22043269489995354 -0.14295635961422914 0.2379494362028327 -0.862057734090433 0.34303178932285316 -0.8155754574225287 0.13269317611085496 0.193428151112911 0.47846625362913553 -0.5503786451945365 -0.2117760686012653 -0.7677906596297421 0.01362660653755543 0.17216741210956132 0.5007098294080534 0.3793426004212397 -0.17799351792440432 0.11688200300206919 -0.5187574239981834 -0.8849854073909302 0.779724790396825 
-0.781252850858658 -0.25617648890071454 0.04309675654039746 -0.7038929737435711 0.7913366263194666 -0.904600111160708 -0.6693971866944008 0.5602801022879864 -0.06170319169953098 0.5414001702678519 -0.23399640671037703 0.26988640079390414 -0.9518804157278016 0.7243379468263269 -0.7904251533982289 -0.17429852678063162 -0.860877521946892 0.750430101327932 0.14106725616506277 -0.8472616022027626 0.10035169765916208 -0.7680936244320127 -0.8851952930751499 -0.7764201352424547 -0.4166477860090383 0.9346295814870655 -0.3594575505658413 0.47485498672788196 -0.037296660813698645 0.590766594481537 0.7598651627270379 0.11905039889653479 -0.6684765194114033 0.9004808042270889 0.9381640464610133 -0.7393116392291856 -0.6992084595841612 -0.7711518829092192 -0.47248050506665407 0.6060954689699243 -0.9561856256529626 0.5599870086731862 0.6510695409808664 0.4152681222070802 0.5532666208817756 -0.9044831025075968 0.6948658389559339 -0.6525457237264232 0.17128049300427062 0.594676523158173 0.46810019025054994 0.804899175612978 0.6389254444696972 -0.9228457527968505 0.7687402839505841 0.7052921686379217 -0.15874403230534573 
0.441735388811586 0.9279977048581802 0.5143543928406789 -0.5143310282347893 -0.2625906458637475 0.7026628495798928 -0.3941776726449273 -0.5870134593860663 -0.43020328132370333 0.2610871212565711 -0.812415822491728 -0.9987748595219903 0.458037173433407 -0.024206991268916234 -0.2406754764129857 -0.1325117922617416 0.11882880240997395 0.3108201224691358 0.14599609779510603 -0.9866939995787538 0.8353104936909037 0.7117077397951486 -0.24014200905080152 -0.2837920080491316 -0.9929224839897521 -0.07931419328854838 -0.9173087092274534 -0.18252302687665245 0.5220791524909607 0.075955299383059 -0.7331276417061543 0.17999485470639898 -0.5285809583886969 0.01030628893467811 -0.39067208722770963 0.0640012123115643 -0.7832299335396768 -0.9699817596110198 0.5456842424468145 -0.33611016792046544 0.1293951396176336 0.24032505090781897 0.26268604235273285 -0.506959295898997 0.5519592451205935 -0.5105425815245717 0.12010117665811837 -0.38956416181076836 -0.662486285710008 0.2623202529721498 -0.04993074309928258 0.17291296250931443 -0.17879848597356385 -0.7472753284247382 -0.9642459897042899 0.9513127739521599 0.2421190734303238 
0.013365304836909342 -0.7648340284331219 0.3626907007654976 0.42110173719575683 0.14517738749983766 0.5007448290605561 0.2440860611665301 -0.763128794126501 -0.7020054340544328 -0.02574158466654697 0.6873296006270395 -0.7421303992048873 0.7504711262402568 -0.4067006277172469 -0.5461755146686649 -0.040287555358931915 0.9808433003458024 -0.5712904892346924 -0.3306354910642093 -0.20711517708549332 -0.2710521048520027 0.9251622483696103 0.7601824649090936 -0.8783725428236409 -0.85825110505433 -0.5150886862274044 -0.6231195905909583 0.9013520589677824 -0.5309455608365359 -0.9840676704778664 -0.6292286614610851 -0.6840061886820381 -0.5826488899659201 -0.876650502126278 0.33701249663972876 0.6524827483509639 -0.7736534660712704 -0.37589033473172884 -0.80691294096469 -0.7761534974318332 -0.3729296493707077 -0.7376661114308563 -0.3860314413506212 0.20131021259614212 -0.056618850622810024 0.8204528896160472 0.15868383486435023 -0.7854467807667136 0.45681903332287854 0.8056090758903649 -0.8727698472176273 0.3829212402558817 -0.6389788202852731 0.5716178911084215 -0.5606082457644619 0.09022943984725296 -0.4961124207723322 
0.815181064939845 0.38945799900191314 0.6615151249337237 -0.9984016631580881 -0.43950608470972985 0.24007859600933146 0.6484744905526529 -0.27909886654849503 0.39374360779038287 -0.07210231781547938 0.2707115816156125 -0.12112238116720953 -0.9026014332009995 0.7347578973442987 0.9405586277418199 0.18973901058383658 -0.953888268467791 0.520813018722565 0.9819962653933927 0.4707713971382619 -0.7523296924318561 0.6499336618056539 -0.937801623597369 0.34207700011461784 -0.9015595429399648 0.8495735652614684 0.402501036352642 0.7968832941792809 -0.3915541713484725 -0.7992512017044626 0.14680042879953303 -0.506412088444347 0.2591501563713441 0.1105891243963526 0.7750251807814932 0.9006261570268252 -0.22646164333365082 -0.39811855329437695 -0.48246565168768574 -0.7401637979238962 0.6869028967003215 -0.5274774059371812 -0.05943140441853445 0.18749022495215995 -0.015062369586845037 0.04583571074990722 0.3506401163759387 -0.683156556284666 -0.6009015091637466 0.060325268181084635 -0.3530893118877585 0.29255799301566165 0.824314799061638 -0.9156853954266733 -0.32332684089987396 0.17850520820328897 0.39730011752571914 
0.23713283979803523 -0.16071605534429012 0.03753796555172606 -0.973776511133345 -0.08250601504958466 0.1207869148657188 0.6620990059793364 -0.20975124994676153 0.3115516519946606 0.004494410343101274 0.8638152316804288 0.6951310414670979 -0.9397025963709316 0.37348239208276124 -0.6007697826164042 0.6634678654210455 0.2433740486533078 -0.8520910038911993 0.3322531422655366 0.4728446312465304 -0.7681659682812434 -0.5917933822902381 -0.42177134111888925 -0.8285469579418923 -0.8451076323296418 -0.7348175645166426 0.3755240398783424 -0.6899672319422028 -0.76396267865868 0.7991236555006553 0.4034357531549406 0.8914165447729061 0.028511283416120303 0.14640408440218589 -0.33193109495989104 0.09821151470236833 0.5204554216991941 -0.8841079492933446 -0.8255165625550824 -0.6897366683430712 -0.9835747628615854 0.6424497519613852 0.6935626423181842 0.8374748900357627 -0.6702779175432396 0.2360421414283167 -0.2219881008396709 0.11478505995144661 -0.8976877470432336 -0.7932342432784236 -0.556700365497234 -0.7374376755391849 0.7880222114400448 0.0027099506527126227 -0.7061744923353948 -0.1886098952908306 0.37506023237752406 
-0.6655200990364873 -0.6942851315074632 0.7152287084872313 -0.32217761918457843 0.5093834440248672 0.1423214089508329 0.9703760504759504 0.8935239581625836 -0.7939629443592795 0.65049371437249 -0.27508094430791963 0.7487340493885055 0.39367047297452085 -0.9747229720630552 0.7832058805262712 -0.027925248472146835 -0.3167043399067433 -0.3310907785905064 -0.7411006551771238 0.025278602896814162 -0.46312605789488837 0.6279825712890268 0.4045036501413344 -0.11232050494954415 -0.1957115311435902 -0.5534939574184399 0.2556747758440725 -0.7676666658195574 -0.10306825175212286 0.7171461979846248 0.4368152787390034 -0.5670558021527772 0.1855532709990093 -0.429883824481309 -0.31785930027845444 0.9781836947027263 -0.5681228893194568 -0.35862196094900645 0.9537529489531384 0.012950725105150385 -0.4428243115170625 -0.519092887717634 -0.2785561443692248 -0.03844676942796332 -0.23471228463642269 -0.8721973256608009 0.7363172599228942 0.3087430091681649 0.4387848398202303 0.5360024175312856 0.06709870524659167 -0.04240820036875825 -0.38131618724990646 -0.8533767160598231 -0.15770785091457706 0.8681204042459214 0.8974263064449004 
-0.18769349538951952 -0.3220311006329035 0.7993412102614346 -0.3849619867489127 -0.3260552065037128 -0.6645667790087761 0.041981213823730545 0.43332335717806436 -0.21946688837987494 0.05178895939514794 -0.30424096126517464 0.9418926870267659 0.6117518732454394 -0.9766144603075089 -0.566658600063344 -0.048670796470153155 -0.15529299756417325 0.2502237515108223 -0.5779283402049347 -0.195387719993652 0.6331983118408424 -0.5608793649455834 0.4117215748985925 -0.12565810893158913 -0.6545133432661037 0.5458109881174156 -0.7573568630427829 -0.9570070489288833 0.5993693410269374 -0.9693291420718759 0.07938614317983883 -0.022478106656889985 -0.028729608698819353 0.6931925000284147 -0.8810504699706643 -0.12377272704645459 0.2557463226062515 -0.36934160485992873 0.4130996323308649 -0.17290165685484227 0.6720060247538955 0.6508058969613486 0.271560567845919 -0.3370629700217058 -0.8949740412484324 -0.5486654408941527 0.35776578864714503 -0.33631545833925136 -0.6007885584435504 -0.39024880913289683 0.1515186878818091 -0.9271175478400202 -0.8374730423836834 0.5907384616287104 -0.30061884265149486 -0.2718389771376053 -0.7604143759972157 
-0.8531971673333096 -0.3120355590897219 -0.185435524029689 -0.9650412445908758 0.6592434836012662 -0.07819243568077705 0.2120906725259566 0.14638971453064875 0.14936228734547363 0.35126152592768434 0.7167687386832664 -0.7104245896567014 0.8122602382479016 0.7359315724992053 -0.20920526774988812 0.3369810006564422 -0.8843429642029412 -0.6386341843818595 0.9845547024117471 0.9393991076443884 0.7809096871277095 0.03038175319630887 0.032609312096342435 0.8933104431106147 0.8210662705587433 0.9518966013669794 -0.5590002082101375 0.654591538785944 0.20328413808547086 0.09999138119228057 0.5460763398334287 0.7413786075074 0.5970418945826523 0.9598331882601387 0.5820605030327166 -0.11420409069081994 0.04716170088527294 -0.3727295016861669 -0.08459241515560323 0.05337887064668845 -0.401177389577144 -0.287967631886471 0.002256692210762079 0.4498093949542823 -0.5465554361020932 -0.5111316575512654 -0.2560506169161967 0.4665999778121668 -0.19848106468806748 -0.6166589080967451 -0.9108263631800082 0.19376691061399032 -0.72755158388518 -0.8205269580954355 -0.8552697517558074 -0.8559593909031329 -0.21671353790452108 
-0.7074323938028464 0.9924923298084356 0.30846285171855503 -0.6904877972799655 -0.09911810104878471 0.2851437005373183 0.7441708408901935 0.04829875598637323 -0.6803633455073894 -0.6173204801427616 -0.5587923291134058 0.49812162944811855 0.1566554856237341 0.09862933266118312 -0.8257764396232168 0.6933225468287527 0.2074500895618041 -0.016470605950750672 0.9200561267000389 -0.01718637806577794 -0.43148046149533004 0.32502485166432726 -0.20781753836331207 0.6740762894229029 -0.7448932276969962 -0.21786763308138202 0.032378272025415766 -0.3975508563077612 -0.06424321092580376 -0.32649081378958433 -0.41556268539890184 -0.40684145404523164 0.6680552758096101 -0.39894438411229793 -0.6498260021989524 0.19078750788053878 -0.9213238357520896 -0.5961976222078205 0.4623261601985198 -0.9263040943345044 -0.28922761178935086 0.7588525802244006 0.6541830201646095 0.28101782153219745 -0.228794914815885 -0.1103522356526736 0.46996475102520274 -0.9448683579371622 0.5878656858249802 0.2313365978988866 -0.9786135394992244 -0.0934441025397228 -0.5991947632902692 -0.7601697436599177 -0.9835921532643179 -0.3653311364429861 0.5564415147130601 
0.6203406141394543 0.0689460552509602 -0.9470053431705183 0.1718194972058784 -0.7713743116645764 -0.5448481087472106 0.8045683646634794 -0.6447932682251931 -0.20111844977876858 0.5475101633923971 -0.28588065608353075 -0.5235293830944578 0.25705381459731824 0.969586867514199 -0.16813076640773272 -0.12013999365133876 0.535526152251508 -0.31040842949387226 -0.6554190792409191 -0.9993596722909415 -0.09563373674398412 0.7938855560113107 -0.8060722330275194 0.6512134145322652 0.8035334304071378 0.5817678793470704 0.8348134543385046 0.8271127018470534 0.9149688647843641 0.7251120651527831 0.9585392821785661 -0.0034260256598892536 0.7674396996139647 0.13364945929788963 -0.06658048238315839 0.9465466792015114 0.8161936449305751 -0.34925702594150776 0.46432302173866424 0.36889428264041735 -0.8451386245527714 -0.8625320246686434 0.35621984735893775 0.20803588349756774 0.1894047190696413 0.2817338979476034 -0.7596657208081303 0.4085031281219462 0.34397746756515435 0.8480739333241882 -0.027845497507267503 -0.0406519343870404 -0.3396042765164391 0.3356134049031789 0.41309580727677897 -0.9796846856648764 0.25377348885784734 
0.6790616994397818 -0.944450759868456 -0.49726546450067843 -0.15723037569178744 0.1712832302501599 0.6036145815758345 0.5578244622679867 -0.12160362294535543 -0.802497576661787 0.16258692350936443 0.27932975095408574 0.0942825495468056 0.1155174581667262 0.3091771761388278 -0.7777268962213411 0.9115577833523891 0.5264749596486435 0.3826809011304222 0.041776489358279045 -0.8051088892684233 0.4509550435854224 0.7936834603829261 -0.5048640663020652 0.053278695513256924 0.9415119734815103 -0.015384001855053953 -0.6203529195979203 0.9036036869430852 0.013446509628792347 0.6506412120315848 -0.7163134856975404 -0.9121069770335537 0.19606307555762736 0.8943371360481296 -0.6817890619863565 0.6016100365929009 -0.006868670157937462 -0.8899220637046152 0.7755189558125317 0.2503689496004857 0.6474086423579841 -0.9030272364917586 0.8906973487545824 -0.9499386971430601 -0.012209027094627567 -0.14311188547937848 -0.23084777508791365 0.6280568615940703 0.6969077702699551 -0.5769909429993447 0.840074150390872 -0.6044433057488556 -0.4865588927204383 0.22953046944803956 -0.5170258917124668 -0.7289679985137978 -0.29087618443968943 
-0.5101516681794795 -0.4473345103353341 -0.023907695053713818 -0.6574187257126152 -0.6091740476987917 -0.7404828833569177 0.9576913153020945 -0.268567866938102 0.5107827150895508 -0.04134553508997163 -0.5126179679416227 -0.9829562618875163 0.8681229469491121 0.7580845236698681 0.24610648910736166 -0.5814166667565881 -0.10883559811789811 -0.5005387438409361 0.5549549717328552 -0.4915552420709679 0.6999833455140403 0.331303279950107 0.7355718306180026 -0.6395087283513194 -0.08120868637116008 -0.03922540533249985 -0.3342574033262562 0.8981748764923798 -0.8881330091868114 -0.35070628222864375 0.103404500217261 0.579003703940713 0.004503064988402361 0.6580601591440416 0.5748445808329108 0.1034885940056276 0.7469913586279333 0.7421198260346686 -0.7119544844782391 -0.8642162491982384 -0.7818012655205646 0.22222304762534106 0.7641238810385038 -0.5652350978877885 -0.16823250197561235 0.014796433164382394 0.46490169093400824 -0.6217799735051932 0.8134958138049881 0.9389077486551729 0.1830937591387729 0.06976054568052259 -0.5597414446682734 0.4243622956275812 -0.35590071140886503 -0.2539532976762231 0.034367125656102004 
-0.4817550971530089 -0.3359483464747568 -0.7954974204627203 -0.2862041299080793 -0.2474001441559197 -0.4432980973034699 -0.6301055438693859 -0.01943914992408069 0.6769775199811334 -0.3826725182070445 -0.09634669594582901 -0.8795691554978184 0.9997034579321202 -0.379507430409332 0.3010822079662179 0.7623439889866237 0.4052786377677713 0.305907959127522 -0.29410281155173434 -0.9019839047902491 0.3493130211662896 -0.605927790222262 0.8198713618259872 0.6445218551300003 -0.9032910159001382 -0.6292050627548997 -0.25245183641093494 -0.9161391986465397 0.7599462900868372 0.5009710638712681 -0.5496496896446379 -0.7504064921079052 -0.29541233504706255 -0.7485580536233687 -0.027064625988520996 0.8553131703317771 0.6321784561300443 0.24616069508763516 0.7196658204016535 -0.37435190145698605 0.8810647263642231 0.5312950095424691 -0.3637006358650525 0.6116504706585775 0.21162108897476806 -0.3384514004421064 -0.819626613063037 -0.5188115268732569 -0.8063242800198549 -0.7050073987966559 0.30406432461125443 0.049706217479058123 0.5712666223362373 -0.24545164996825952 0.06961069414532806 -0.6817864408977528 0.625998646639857 
-0.9025316355203474 0.6176972875104578 0.42532912312327786 -0.23759690328017258 0.9771776048218999 0.2806787639221988 -0.324089658011979 -0.6461895849534496 0.2913386058055132 -0.7005361087992399 0.8343625873782428 0.43651584141466016 -0.5320431705075741 -0.5911986626985237 0.34127906023465604 0.7566396983307797 -0.6020164901711913 -0.9994801202909591 -0.4281827100019382 -0.36803842724888214 -0.4914837406575625 0.6365867605160942 0.4261023257364971 0.48333221661556136 -0.451566732089163 -0.2687353156690271 -0.2860803629411235 -0.16613675262153027 -0.622163387827662 -0.535440684049926 -0.5136824489883554 -0.9619763381258568 0.9351655295049368 0.04161903355359131 0.38462061860077124 0.7008373414454763 -0.37451388624201964 -0.9594858196198253 0.29327737491399364 -0.9834101018788375 -0.3394403277422344 -0.46490176816883166 0.31778058773129003 -0.13032464191770332 0.15687934186176333 -0.9182329675909793 0.4970327426202621 -0.3386339933227358 0.017998374665792793 -0.7899118981083006 0.6505126337916523 0.5907931632418699 -0.4683953722379859 -0.660682258455281 -0.763862482713312 -0.1375590831429876 0.3966032002556936 
0.20416573910373903 0.10273268414231373 0.6474625791195692 -0.6713497235721446 0.10020201158240272 0.3035843567219665 0.7133045171896177 0.4250782169256193 -0.799034573136653 0.46083715167614137 0.690435880360071 -0.4857043370749188 0.15803439823087473 0.34343332503640345 -0.08244027821189559 0.553599453400548 -0.5239491885243652 0.1852081676668762 0.8088160683317793 -0.7129653509031944 0.41492579003683194 0.1309540080883982 -0.03053572424900497 -0.009955529602872382 0.06448336929941445 0.4224666007496707 -0.4023915022619775 -0.5137233269238008 0.76145272382803 0.4770697431296147 0.28058576985437145 0.0704726689024946 0.2766257215438237 -0.09456108956143194 0.9195687147165974 0.24344189994489018 0.9085366944113216 0.8808394194494151 0.6532654927021027 -0.4554730318155795 -0.08556354954746515 -0.6161647077770447 -0.32835772474964875 0.11791359195845752 -0.06411970206490536 -0.8450093770390337 0.7176166455486999 -0.21512458617894947 -0.7928027295067188 0.8214102028729944 0.8386739239725893 -0.47472540459447377 -0.012867060322066859 0.3947192912431299 -0.9319587031049636 0.6886497584467235 -0.3388202862512406 
-0.12621654143140293 -0.44914582210854115 -0.22356992473985415 -0.7199410489084417 -0.09159377395143209 0.6102363975670715 0.2714370783683169 0.872841333755942 0.3415342580230729 0.005093475796057012 -0.8225077380478782 0.03853667681281525 0.040483468387861876 -0.10882175430819063 -0.17588854719764213 0.2300431771547633 -0.005572201253345677 0.7219406132772983 -0.022173702649259663 0.35897316896128806 -0.44567273673797425 -0.7006912201736142 0.9773251031510717 -0.04417703576050158 0.8782991972310601 -0.949937776707493 0.5964698569551332 -0.669670002359616 -0.6766733963703526 0.8988344909765642 -0.4956454929695868 -0.47366445026303516 0.14836202953934285 0.6259961586123426 0.8881781708896461 -0.7788257907680507 -0.051004705324819044 -0.9944278481806841 0.7476360513668903 -0.7215587988246608 0.35094595515179305 -0.9598668405142936 0.18019042477716418 0.6591991388000726 0.12899404332103948 0.6500147163143146 -0.0034858985547330246 -0.6942906879050061 -0.15923582024367033 0.7842016342259766 0.6428369056795098 0.4078645616332961 -0.4579078100181959 -0.8059288005836156 0.031857468292961544 -0.6284103942253008 0.5477302925327501 
-0.938838791437377 -0.17282768847855534 0.14118267823044173 -0.5845534399442749 -0.6904143397686167 -0.3192222503649136 -0.7838416495978586 -0.4035426608131294 -0.9803773315794604 -0.14669335250975202 -0.9557464939859661 -0.572691328958528 0.05347353609064709 -0.3629749361417385 0.3986006105823736 -0.7715724536858348 0.7049094581538782 -0.17104422832048138 0.9268450498236758 -0.4019394368687288 0.9155112488272601 0.9689673824394291 0.43171034065187963 -0.2191776281137383 -0.2537378759806288 0.7807698239156673 0.5959009943310765 -0.952357109173104 0.48075334398226266 0.8607349052347175 -0.8770912333875305 -0.13890988794241133 -0.6324684840960773 -0.7584367860200409 -0.580127422160506 0.5731090944635722 0.9343980093666724 -0.729714915381372 -0.9981336863912893 0.6193149252991499 -0.7635063683619505 0.23074569188734273 -0.45933215784360826 -0.8864535953929744 0.5398092553466318 -0.38832848501036876 -0.1596019275882401 0.7017029730412196 0.6197015607441461 -0.8232313163475256 -0.05207103183127648 0.00342225853713507 0.39010726675828167 -0.8783478174673491 0.48312136533830174 -0.11761800462628358 -0.39695743278274476 
-0.856341112927862 0.1679908354321893 0.8941090049172224 -0.014479921286332686 0.5144390246754396 -0.4211284083457849 0.8537283756060698 0.3273135775992835 -0.7704172927954787 -0.4767521622451245 0.8133206201556291 0.24188745019260516 -0.4899045599660756 -0.3290589582672272 0.823175017343134 -0.9228766472502965 0.46493776298957346 -0.8574653437534563 0.07538604059511278 0.6700430000566602 -0.7235289715097966 0.8485427855593943 -0.3910973830576916 -0.2701732703990254 -0.17682282305226438 0.17732598207551797 0.8384461803627434 0.2842111867012047 0.6894878355579099 -0.6321851332315722 -0.0078104950082216185 -0.48599408021941914 -0.9480238979958511 -0.6861324117583141 -0.6155577511403387 0.8438208909334854 -0.7233637620535103 0.776814829230829 -0.16130607432786181 0.5537906225384437 -0.7936593541032202 0.17917081933011114 -0.9678157076107152 -0.6156280497427993 -0.8518895874449082 -0.32211353811505106 0.14064558308089015 -0.3698291478374123 0.6154851261460395 0.5847923850752157 0.098590677722453 0.5826406090022058 -0.5765181918550373 -0.9598681531001003 -0.5513778425110312 -0.5785245788264812 0.000923088495812685 
0.6124978176130789 -0.587104361391789 -0.3959322632518505 -0.29119987195081154 -0.8636036241628646 0.5815975247883669 -0.9530388308441113 -0.960193917765888 -0.14717047107098624 -0.0035929900698976613 0.3426512022341046 -0.909191666299114 0.5118457436178165 -0.4182248262373729 -0.7923175830685354 -0.5954295545699806 -0.9812872477996029 0.8809110416008514 -0.8137207909023665 0.3339048624977321 0.31351334939273934 -0.025893386614919356 0.1718600147840761 -0.29283517743102827 0.6095490731273092 -0.7872367731364247 -0.1738757547487091 0.9542393844909671 -0.23116942498742965 -0.2032276093353571 -0.05229483578027727 -0.6279233853060779 -0.966615122845478 0.0677009253277403 0.017609547814132043 0.07189702703289536 0.9513280045001213 0.9483112189632958 -0.415796461276454 -0.7357394963708539 -0.5044445069958501 -0.05417321343953274 0.3762735560231676 -0.5755588916489438 0.2371904724483247 0.12956261728245178 0.8597093147798809 0.15325495384930665 -0.3828901925740502 0.4163667032871552 0.453131491432609 0.86590870338988 -0.8158521035445481 0.5612054972224665 0.5128736090202604 0.5280545564308559 0.9553632273694519 
0.6841745829384074 0.17242628532109028 -0.5066219589926859 -0.6475732978056188 -0.2103150959763449 -0.5411477819266739 -0.3866818390551032 -0.623091072599302 0.49966410453903776 0.8283116171521674 -0.8335718380398873 -0.2835976518718888 -0.4061488733178249 -0.8256253583280277 0.18606816489089395 -0.04991625839420033 0.11141431954795067 0.7618674861156047 -0.06562846487422314 -0.4933557290731052 0.3952774504685612 -0.4954153236681553 -0.9036621694737701 -0.06811028162342891 0.27297642444955805 -0.28939726540964195 0.7416840906402729 0.8271668615253225 0.32994609998035873 0.4380575526864827 0.14982552532214433 0.6617489618093468 0.95798419435863 -0.4292510271350851 0.19400509994057535 0.22034329955073573 -0.30744261853940213 -0.1695340439265458 0.7591022837509276 -0.14075829819917773 0.051517269705526836 -0.46075535534172696 0.49246506979231874 -0.04212396803981844 -0.8084853606203812 0.2968190906525483 -0.034247122351313886 0.021212300521908256 0.7209874993844128 0.37166844980192826 -0.6915454269235717 -0.7242137585439088 0.32983966336470383 0.3061961709970149 -0.2697619580843378 0.5309646702931745 0.6549683711016918 
0.35384478113886386 0.37371899699405775 0.025008763501156883 -0.18347853035410133 -0.8330209313740413 0.03985766489039211 0.3891243119842802 0.8063576273886157 0.5329310469694573 -0.8214715989043717 0.4035649505295027 0.5003050674718235 -0.9369710655259691 0.5711508758446662 -0.2899754315708376 0.7717624429909704 -0.01638839611555154 -0.9581695641533614 0.49124895058609996 -0.3231312402674986 -0.15734867903044036 -0.8346121268129245 0.02366173645185765 0.5894350713117269 -0.8247354466734931 0.26750136446714445 -0.1989320845447924 -0.5040253190411823 -0.15759524941153868 0.20677956756982985 -0.7446080497721328 0.9627141221176854 -0.7978725174836712 -0.6435314852239438 0.38037441591113086 -0.6574622646796593 -0.7948161121565427 0.32918437177854676 0.49691066860899036 0.2897857386387126 0.23633751183106844 0.017998162122281114 -0.8166291579841634 0.42791936658029384 -0.8821693202044143 -0.5595473345141924 -0.4990489536948248 0.44754800462687827 -0.006852721083977942 -0.8765489516490168 -0.42877678165070265 -0.6129052698787063 0.6916277320040602 -0.3998759368511937 0.3121422321164926 -0.6631692996472611 -0.885587252111774 
-0.33449865196111706 0.5532962216197608 -0.048723348028286484 0.7339613348484293 0.1320324328209579 0.3175145583448107 -0.1496708637461901 -0.4731374662175385 0.07723946500349133 0.3647000405953853 0.4546476252947602 0.4678443700997841 -0.36196676407015693 -0.8647458773265533 0.13384045872892125 0.40027662937282726 -0.16132685693413662 0.018689225643137686 0.5795214879377284 0.6323013144648597 0.666962599850333 -0.22576305061739865 0.16339398359897594 -0.7314796882031269 0.7965602284214284 -0.5344160954020525 0.0677709341531536 0.7377624311141331 0.5068459993722956 0.4262641890026473 0.08112387467298743 -0.6981098625414941 0.6869210142239677 -0.9983471649823299 0.7214160777697858 0.45061262075850217 0.16329713784274746 0.25502382701648507 0.015175158526093746 -0.7004613232178725 -0.19740683344013799 -0.3423270580218598 -0.3231057332652476 0.7197314883477433 -0.05488183674800018 0.40035783845443973 -0.6697279643363194 0.41700786353158215 -0.06516706719655407 -0.52852945215263 0.1403628590636603 0.4093427554682014 -0.1148307152092094 0.7892316777369521 0.4932397118536418 -0.47552561855255493 -0.2989034483624753 
-0.517993376505774 -0.30129490433452566 0.04265331645427883 0.7454276076323354 -0.343704788993918 -0.3843980650817074 0.019653829149844926 0.3673169828275564 -0.46664448681131154 0.7821149482304155 -0.39666717928418604 0.7473954470095914 -0.7964183466175816 -0.9416874091876928 -0.9056298897237798 -0.555738983725564 0.1556607562668677 0.5659953870017433 -0.4507359992817901 0.10825614358423308 -0.39988714789050794 0.9703817080184738 -0.21110775200526688 0.4350342585556908 -0.28852232527525534 -0.5700463426038969 0.43152729699603265 0.2573100421539649 -0.728542900072235 0.1757235955202463 -0.7012146251342763 -0.9539038661861283 -0.10266742306405963 -0.04916155742645856 0.6542843754741905 -0.44470494540054917 0.051457017117339854 0.7011915043948793 -0.32473285709401023 0.7417297066701851 0.13654810710745302 0.14855222105387456 -0.8660822908062935 -0.32424808287467566 -0.888020086550434 0.013838138725467797 -0.914891848005851 -0.31064271941486865 0.6649860779004326 0.30380505742727415 0.4359421038779072 0.18783659968415556 0.7886363271009544 -0.6546238928359716 0.9717390230020055 -0.40098062588045913 -0.11260659905625992 
0.1585877334478496 0.7604034901273697 0.20260733926305252 0.6722897260897931 0.32295269196169385 -0.1374270172032459 0.5828403552800221 -0.47619249223062887 -0.32300705594450574 -0.4919957107147832 0.20034232169701616 -0.3753277377941824 -0.8172545552129515 0.5786265572905636 -0.36023773051238694 0.4206151120397881 -0.15198843158348807 0.9411815686294127 -0.2628060073781746 0.23971050101752578 0.3129172032432732 0.4621394376479766 0.9112060736858583 -0.9874906588324295 -0.519450493373441 0.5067414067136571 0.06720112664278055 0.4596740983305676 0.6137740980742015 0.9464407690614445 0.7895125015867746 -0.5203959926940294 0.8341722820630608 0.3887457711237978 0.6931213432358214 -0.7278083860648576 0.4043264687296788 0.03034299351704073 -0.5897459185621838 0.8855804169373009 0.6557025621925807 0.017133276776075013 0.20001321177319475 0.8729128617846948 -0.5299667026103829 -0.37136031454601826 -0.544285918961372 -0.302624139474599 -0.7767350479065251 -0.8906403445552293 -0.9123924314983631 0.488380292694804 -0.9246850059354312 0.6001931296300738 0.7455553156120662 0.03075444985774478 0.3696610205520403 
-0.24235554975719498 0.9645761963103843 0.30243497858853785 0.4628230768404673 -0.5925344513906587 -0.8597637624436847 0.706777139592141 0.7627384677185933 -0.8463266048578526 0.8702814141032993 0.15234297913230987 -0.6946278502606216 0.9158523678485675 0.6434623114167901 0.19131777423769258 0.5686198366555792 -0.8892004721230533 -0.280106472471368 0.827260467883044 0.23457776674460806 -0.47615823216392483 0.2617881528934154 0.6122356043319057 0.9198980875284799 -0.758904256056703 0.48191616160661743 0.17183186775133974 0.14656019586149371 -0.642506153483984 -0.8245925142872719 0.40187716254984074 0.25105126769943475 0.3418751670973512 -0.8262833494367507 -0.37403103975902363 -0.0019065885459692566 -0.044737361097543005 -0.29228451378882725 -0.35607571174390684 0.5089926337927613 -0.5847443104437839 -0.367572690462582 0.08035184362177805 0.40626865452525207 0.939783266852674 -0.45745218858499226 -0.6737415613318927 -0.1838774958728322 0.6026348739802012 -0.9178105873611577 -0.8978208806844592 -0.7456385931386156 -0.8127908996030531 0.1784223534646816 0.2705818863169962 -0.10778775308784572 0.33399241581053385 
0.2345178348556436 -0.05809416704003523 0.6978248397376672 0.8722026143420927 0.20163059286191576 0.2916825318963465 0.7373832416441977 -0.6568809769976818 -0.4078054613211626 0.6106276639821557 0.7589566804907717 0.38815018232142773 0.6367239433146465 -0.8037810922787252 0.8783192260350643 -0.25282209267050226 0.7868780131062518 -0.15979306266963622 -0.7840768439626222 -0.5244729406544435 -0.2544747804363401 -0.8597793691328841 0.9932916456961216 0.8899201952638183 -0.34891386469859853 0.9209752788102008 0.9478040253070232 -0.793338212761548 0.1453875358387675 -0.2675786117587604 -0.9342017837435457 0.2503066468124753 -0.6225945948048222 0.9916713038359808 -0.5969525330048366 0.31527490945806536 -0.29094298645040495 -0.7469621986009198 -0.7364774976005415 -0.5576050460634894 -0.12434968591787365 -0.6032787567440523 -0.7345743895928811 0.4177068816908387 -0.014401736678017363 -0.9539829789785674 -0.3412135845417643 -0.5013946237874825 0.21401416609691726 -0.4192331780271945 0.3259179647371475 -0.26302188455855413 -0.3697631801704111 0.41425238457454516 0.22655095142650716 0.9778820449016548 0.4551538653542795 
-0.9134713793106499 0.8637614531093569 0.4781461468312891 0.22184153864992906 0.12993555508990395 -0.6752384874445696 -0.13233880045250812 0.15255714267627174 0.5553703933806053 0.17458745170789935 -0.597434510266297 -0.5193794239388514 0.7459094284067875 -0.4947209998462305 -0.9217910239303975 -0.9050247724331777 -0.23792571723056666 0.8322318893637595 0.21199583716511472 -0.9158356069466091 -0.3419096529025838 0.41791081804864416 -0.20308522834933762 0.310190615940775 -0.7928897133287665 -0.6919181186876286 -0.11033457290665094 0.8490543420378776 -0.222995891529157 0.9806829757095477 -0.9195770340380804 0.6097012270093325 0.95509453728155 0.2772791478495569 -0.9062011951943214 0.4488481876644568 0.11898945770500213 -0.6781101148285991 -0.5663977667234281 -0.5281326191339464 0.32390327689539444 -0.8466252222353015 -0.8678600859197272 0.9405038062196187 -0.8863664935429296 0.2865169671317884 0.5432725892405887 0.7706723272615905 -0.9705828500032838 0.5384269464773566 0.9807400573999812 -0.7725150007318715 -0.6157971871283856 -0.36636262429946 -0.008284178939927722 -0.4951828720503424 -0.5967269941689737 
0.22035255588340785 -0.9378266750798532 0.13004326865568938 0.4383611013254127 -0.1277028900656596 0.12112777645328676 0.4291502896203492 0.47765526944945713 -0.6269818658729593 -0.5083186904507697 -0.12138749858625708 0.8239218296133188 0.43826064140405574 0.6599065447711978 0.8455916205732532 -0.05751358781110305 -0.7289939439671287 -0.18726334336935047 -0.6236905815832501 -0.9950650599046813 0.384639514479016 0.7801026416470298 -0.34389559509803824 -0.7544205196246379 -0.7469846557463014 0.4808043185458426 -0.7729116923984982 0.21815895736878455 0.3261700361194988 -0.5468781859758334 -0.18181015715267335 0.46694499063755157 0.6618013243448375 -0.03118974895921256 -0.6965655843205572 -0.5051369235356293 -0.1672006394462262 0.9528130794447602 0.16474230324567318 -0.6801342018300489 -0.5066493894867048 -0.1070968562259964 -0.06978882214239013 -0.503500121285062 0.2384008747170281 0.7765720040743351 0.33186704814585477 0.8660001245204325 0.11076377218881617 0.8032160782890878 0.5962483591624268 -0.6858736514078414 -0.42133173860837814 -0.9600788325069445 0.6971278286869329 -0.6059350832297634 -0.8689704387943415 
0.46082706710903776 -0.06841670035658232 0.2945981965192843 0.8196868407223423 0.6581681744568417 0.46553202413128814 -0.5850476874781472 -0.004362615692290239 -0.832138423511523 -0.5095188562957869 -0.665403920730625 -0.37131891860041355 -0.18177023101756795 -0.9241838598128587 0.05947473907968992 -0.19282473890890883 0.5312993028709563 0.729237585683586 0.2701822113293475 -0.48115308770297727 -0.1745675695064539 0.5837054519734746 -0.06428241951681657 0.15780996447697482 0.8491185529517373 -0.559895036061818 0.23163571082910872 0.13044146847200766 -0.37589653081641883 -0.355355531040221 -0.00573678648464071 -0.6092948479860034 -0.5275667689279944 -0.077953119391593 -0.883260375157388 -0.28885915004822493 -0.638140032791735 -0.8338456043587203 -0.8979358589268043 0.775204891460807 0.1898665957909964 0.18027067757142645 -0.03925317831472497 0.9405157234763759 0.4395713632670095 0.9370239893626724 0.6671433381788883 0.5987941328683977 -0.5078622721417974 0.5190363105836162 -0.09709234217582341 -0.7361267874572734 -0.4882895704707544 0.009879646017796784 -0.6921023967298774 -0.4050381783393333 0.979599052717171 
0.4084971499227683 0.5373965101747895 0.4168207632518637 -0.5969171875624157 -0.14597012398106735 0.8746190255776587 0.8310485408409423 -0.005746203649140469 -0.013381995549303305 0.6922924390098881 -0.8442823385814655 0.15903087303899577 0.7372701926237333 0.136471200189912 -0.9512336092915656 -0.5452038057919462 -0.828081023782034 0.27292191992896053 0.8078169925174439 0.6334192590939136 0.837139433806531 -0.31965140582648144 0.2710693206866259 0.8812425162123099 0.8213537754330522 0.6617456416573966 0.44536021231436074 -0.4735115754085959 -0.7284902582117583 0.10547529748560236 0.9831791846580844 0.44688725190017453 -0.534332970175416 -0.6308820239432193 0.1710322265802935 -0.41326954480687506 -0.9224593693817038 0.826820388984137 0.3850088906687148 -0.6622888833303118 -0.9599348137349921 0.938583346707107 0.7196454667098091 0.6532010713677159 0.16037350209375978 0.7390627706834898 0.6925325688439419 -0.33456458613352646 0.15072552588427834 0.9400643529384285 0.3446889297671436 0.3482270899097779 -0.9020506551840035 0.7290826286286183 0.1376263012911132 0.7039098034492761 -0.7270399693844798 
0.3709182682832337 -0.09571982061770945 -0.20337890976384232 -0.008530563367489918 -0.11368744976421219 -0.9298601667177226 -0.43007980109640753 0.366336851738279 -0.9126324967644293 -0.048158779768832094 0.15310725457134144 0.39828943484631085 0.6059923847414006 0.11302964901887247 -0.43378040802344886 0.20869940292843148 -0.7418227129718464 0.932584954436412 -0.22102933388947377 0.7167500834479266 -0.513060465832879 0.7157742275431904 0.5911544026067774 0.2156010727782447 0.6433227053827619 -0.18153187634350898 -0.7790028999951031 -0.020024043008850523 -0.21252532826264736 0.9275723946102217 0.209332374210337 -0.6059068555949083 0.8652444245830226 0.0963323279763697 0.8732840316216177 0.42263637907796703 -0.23389554428057102 -0.011766690320733852 -0.6190062728974977 -0.8312011438731244 -0.2128155518305319 -0.7083219290058298 -0.644807992099858 -0.3971379565809998 0.3280260433609343 0.22091261694805686 0.7751596498002853 -0.5687909633403667 0.30650266976280993 -0.3472515090121642 0.4383186194881652 -0.2670779095036806 -0.9531693731086446 -0.8556595421403186 -0.1523509804644385 0.5824609791153974 -0.635723859719016 
-0.38159344445382626 -0.5608161342077529 -0.6812995016436261 0.528661235453195 0.38358319266254726 0.20310010322162597 0.3998885102733982 0.7959627840013774 -0.670876482654293 0.17345350826409534 -0.43187003166168014 0.7704591064675799 0.18292921497879133 0.35427592115981255 -0.467723630454945 -0.8113175095198701 0.1722578240383139 -0.9892045723416079 -0.05182092390119819 0.43738465078501054 0.11343024853802985 -0.8376010094672983 0.9420269929066618 0.566525797939647 -0.36680979055368756 -0.7813617528122367 -0.4734055007778266 0.8931410738599879 0.2186446485490583 -0.9584707888667796 0.20290457446238697 0.792194762509874 -0.6596695308377842 -0.4529539333934536 0.31020871785888326 -0.6821357230724763 -0.4400205017916812 -0.029964578593140168 0.9145453010799354 -0.8424508560372359 0.20581848996285013 -0.9268640286821548 0.5888730410609007 -0.8707186415951995 0.0987619654746148 -0.10805019379540859 -0.07384480983686714 -0.8346664609767827 0.022898712663101284 -0.27387887541290423 0.3874963385948429 0.028059862177178374 0.8243268068463314 0.003956733340551688 -0.36657048873804765 -0.006445093218430564 0.24368685589054362 
-0.9158756367791174 0.9183849930660306 -0.0886238694333048 0.3576460109069439 0.6790598815213762 0.08971611451071815 0.19922124246773598 0.9947664684909985 0.6066556882810161 -0.22251606251272005 0.16764241708932937 0.9238020597939187 0.23680255251444482 -0.36564774236413844 -0.49708034760592135 0.6381484551728658 0.37610382605235304 0.8813261489835049 -0.16929461253091893 0.381159059532741 0.332143556240015 0.3816446178380355 -0.16780474093871867 0.22265746227634553 0.09058085837988994 -0.056656507401862344 0.3198028501978216 0.6371957897157481 -0.3454065010021721 -0.1392205160753226 0.6021138533975279 -0.4971386014677037 0.4259940003508935 -0.3627244256459845 -0.2964277900168426 -0.9463918916017569 0.6815633511214769 0.623547007689909 -0.40323495436693935 -0.11744696221362605 -0.012860976437002014 0.4955014425143087 0.23823893935743556 -0.7953468178259913 0.44492628237061815 -0.30718198011146125 0.8015003838563306 0.8440975010981129 -0.17949711778937738 0.9549166623310963 -0.4651259644927024 0.8715332077193687 -0.6228802746616899 -0.5229907456962302 -0.2328660888115559 0.36548514135482635 -0.3818403798453851 
0.4143666774097148 -0.34416624587739664 -0.3412045514214712 0.25068322844949087 0.8483251919852848 -0.798746795142883 0.31290547127234736 0.4603649114060673 -0.8851594125482933 -0.04017130729809115 -0.051752848758017 0.5224266315160497 0.4593662583809208 -0.0438134408527 -0.5374207330405447 -0.5068361736895945 -0.36105626557873993 0.8944857977698899 -0.48508285214544666 -0.5954808257236499 -0.12677588400193995 0.1350884061894153 -0.5772203622322809 0.5219167598154753 0.1791029392391268 0.11539581682081046 0.8723335745594034 0.8336376960663743 0.7281040405150423 0.2202092839224632 -0.6464966846552551 0.9055319850398944 0.4307844682627391 -0.22751988084533026 0.9872134866406252 0.9185819625806768 -0.5867180934743814 0.350497904021019 -0.7146522688284005 0.005018327513633736 0.13528282732735142 -0.140832216355135 0.2270328935329471 0.9014324827811058 -0.5150860364556407 -0.9357966039167829 -0.27721295324656947 0.6791208896454894 0.036781669242980986 -0.05044925717996529 -0.5280546570971194 -0.722114671492573 0.022102523202708335 -0.562236740570784 -0.11831911117140526 -0.044706104316124096 0.5140231874864043 
-0.2539584336445728 -0.18272252292120528 0.5733317744422066 0.0892183036406693 0.044273886234848625 0.8751227729533801 -0.8093660689290714 -0.14647661475817553 0.3899855222774047 -0.74057255636202 0.19167439703732447 0.6318212487928379 -0.34970613080976887 -0.5485274691750195 0.6129279480684526 0.8603405421646648 -0.3296899200456116 0.6044148249065673 -0.3778907589349063 -0.2067416628707357 -0.16583370259441876 -0.7181732299315218 0.6050037920940872 -0.1991685396931051 0.886472081474662 -0.7368981291245162 -0.5760195931913872 0.5592033784536581 -0.7330001347890867 -0.6838351495222328 0.05851875455064226 -0.9471223107547198 0.7653334704653358 0.1648281155891489 -0.3209219346638488 -0.35751820295796377 0.22263512026531296 0.28559465781570026 0.046756371168022115 -0.9395206545268662 -0.6322797661007733 -0.36313143212194054 -0.5180435791153752 0.11123470571746119 0.4001159176713456 -0.21591602012562183 -0.10371400451821122 0.9232452104331099 -0.1419621683586232 -0.15161226833115604 0.1341099438280946 0.15896860779005761 -0.2844347563089753 0.1296673519754883 -0.5924864380596353 -0.07104890427043009 -0.3377606229339494 
-0.44664644147929633 0.2564480782325338 -0.2981416561741743 -0.18924839386191783 0.5681844803114551 0.7153188046164936 -0.8433037506718684 0.3916188359203736 0.8550062880782536 -0.5384418718269242 -0.1494132664525314 -0.9850413147100909 0.9624420560098719 -0.6291083185706725 0.31986185028926206 -0.3609919906915817 -0.6469498358847623 0.9593996220540262 0.4707818998665727 0.6342227789360062 -0.9291481594338449 -0.3403127153862717 0.5772795615262241 0.4948198096589491 0.4944835618666652 -0.3996246309503313 -0.16820058103637847 -0.7102363428488576 0.29914198279733495 0.8727215287153245 -0.4478105933605572 -0.48905801389092907 -0.9858298000882098 0.4342623918938193 0.6967156720739152 0.7079977717690562 0.5848046595109131 -0.14366956391480223 0.04732046800895073 0.09805748571874084 -0.5435884112732716 -0.40090926264798865 -0.17864364293606294 0.6282309115660807 0.6517878179422827 0.7553547234942501 0.15057708630732636 0.4136925778200147 0.6952507829513419 0.4322446645594147 -0.6972412891352819 0.8163302116062547 -0.6106712663256291 -0.46784633540566234 -0.2843067002810633 -0.8133542488344143 0.21376467677971744 
-0.08687496748358381 -0.6425669011807051 -0.3520489217552354 -0.032004690606119546 -0.13972542156149248 -0.6550374171424389 0.4427593732658459 -0.8039098011730201 -0.9861110614010002 -0.5804735463980395 -0.08176645732644117 -0.5574488482950093 -0.008065717545459705 -0.25992458911159355 0.9841939529012484 -0.61441549454309 0.9675552852397098 -0.8058320595942834 -0.1499733680105424 -0.9764039918575471 -0.8529542657373335 -0.7330406389793738 -0.30313506619992814 -0.43376240048515635 0.8131591754741834 -0.626736188554931 0.8327313437520287 0.5465499483082645 -0.706674770502522 -0.4110754914589543 0.9810832785737069 -0.49850062893265035 0.022150615589342948 -0.4380183603697769 0.1179524490382009 0.6312778062707478 -0.21289745101601731 -0.817154163709015 -0.1439607543934791 0.983707669013073 0.5965750162061143 0.6652367945838944 0.8118356703418088 0.21311428710878078 -0.2269839114180361 0.8933158559646264 0.7921785774730561 0.49054079284007757 0.35152624430032375 0.8829851858109465 0.7192251437813597 0.1184419115830615 0.05280350900502162 0.5566355091569926 -0.1475830745436404 -0.6344088098100491 0.6865299469312118 
-0.1454275698474936 -0.8987866402752436 0.6662470389338768 0.2884768009969201 -0.7374116256764038 -0.673483336651016 -0.32891815959809634 -0.3450729564580419 -0.5682047954518261 -0.80168780425355 0.4835078303939848 0.6185182436593484 0.9439184312980735 0.7672814523532463 -0.4511322758105354 0.818327126541393 -0.6550787623867167 0.84579442181106 0.9176018444397314 0.19028332943890214 -0.6377607394377589 0.6369864935869864 -0.7415778811292051 0.2733269012177353 0.34467164853209264 0.7417667928028027 -0.008099341173735564 -0.1690273883092881 0.8671638736626575 -0.34381338658455585 -0.9869392887537327 0.3999956101413866 -0.26884647997375866 -0.7317272950511999 0.5059834514009711 -0.22408422263717953 0.751753632928926 0.5043579803552691 0.34144711382465176 0.25537077254044016 0.04306728333209531 0.10133680007515888 0.2853262829800143 0.7547337982500997 -0.48892253886249293 -0.5628279517997556 -0.5321599141327249 -0.9101185940563492 0.6050086396007335 0.5684663127798011 0.21359823487437857 0.3092704198477412 -0.536262951002022 -0.24747402294662812 -0.28413326735453315 0.8435704159254034 -0.029905860752814428 
0.4274413226696654 -0.4266100670500339 0.7568745732770255 -0.22659994985914755 -0.4768068406940529 0.9163931790190316 0.4724640710843504 -0.08237486326536936 0.1230284320488726 -0.9362789188807596 0.3432644073674962 0.39687031902123726 -0.0671149966198612 0.6627584497354344 -0.5968953395675143 -0.03143179987647593 -0.07353213757796562 0.6263643060374318 -0.1253837473111814 -0.4982082765706577 -0.94426529053884 -0.794796481691094 -0.5101194942876683 -0.6716338157710489 0.9621590608819082 -0.017521400472219506 -0.9339715974941276 0.8545333161902222 0.642983346040142 -0.09538732953147377 0.3101702531278472 -0.8522888288533754 -0.5118284546492291 -0.6046637436676243 0.8980838774297493 0.4954688402583878 0.04068818738645019 0.6555464920672966 -0.6407912557019289 -0.2915595047610833 -0.28228445334281926 0.8814074263629348 -0.7161870730806439 0.1033454279619117 0.6548921519785011 -0.17983869436955358 -0.5692839374968222 -0.39611245364080006 0.5924054832706034 0.07508892716185844 -0.29467082699925373 0.0029141412159445768 -0.7463922201437103 -0.3725369530183793 0.205220545772407 -0.8963228435741069 0.5237184168764046 
-0.7527582241869673 -0.71398043109574 0.7730580492189465 0.7701144356946183 -0.8535259596106692 -0.7848631427511721 0.24167963191897535 -0.1437207185223448 -0.6667330090107217 -0.9876304369806754 -0.5404735207584812 0.34992675401459694 -0.19625073851600927 0.6159985516718571 0.1317362323676814 0.7008860865842907 0.11877901209707353 -0.28398122529331826 0.24616347865170085 -0.1903158616323577 0.15431673892078845 -0.39591987158421227 0.8965788106884796 0.4374982262859588 -0.24699689269222325 0.12082439778369602 0.8325220675363236 -0.31846553712319436 0.7644793161353325 0.6276999328871071 -0.8132245136756022 0.10757687081857936 -0.9548774640790951 -0.3846997769746541 -0.13774097148620323 -0.6224236599031319 0.5780691650383623 -0.3022269609199313 0.8859432794519528 0.20600777360961886 0.6951613975229745 -0.7816318359255723 -0.3357286532929802 0.08066725624764093 0.3547041054667788 -0.8179516848634556 0.35239140872709096 0.583132674341013 -0.4445476422406849 0.7500712953504098 0.3617424250201562 -0.6783448721509571 0.8988073346248693 -0.5388814892643723 0.5227423713081871 0.16091799197469392 0.5151733300247301 
-0.718714000245483 -0.21088481185019803 0.3494038288176968 -0.013622984108634162 -0.49119710754151247 -0.5094474632518113 0.9491691972526295 0.26872202568806136 -0.10083874429365092 0.9862180913612186 0.8205875368881137 -0.1937555538111777 -0.5866820812175917 -0.3379233827299646 0.9280934701227377 0.2500603985575751 -0.05248267292463171 -0.3343781038856197 -0.16884814254812253 -0.47931317956097597 -0.9217004813418874 0.1987896891362806 0.5752859210532824 0.983234970603593 -0.920016331911768 0.4987245248768901 0.5942831334087304 0.9628946183609557 0.41522774163568843 -0.9343769831114481 -0.1491250537356068 0.9362012051251443 0.12381112151688423 -0.6286955500206746 -0.10269472747643671 0.9548244895750646 0.8001390547702947 -0.12590876475421586 0.2869860533555433 0.49979758450216893 -0.08476930084793421 0.31911651589639667 -0.4238186004220321 -0.20815680106597 0.43651788546866666 0.5416295358142045 -0.4251020211404757 0.18751524237818296 0.11504555255437143 0.7968356922701998 -0.6973237669208787 0.25222758203615747 -0.15747847532836 -0.09600991816182458 0.5914312380709468 0.08517475731017266 0.3937318580474405 
-0.44539753120471404 -0.33368297494133237 -0.47909651637462414 -0.8416093556219271 0.9117691684950444 -0.39825050249021365 0.2829751974566619 -0.9109562979505148 0.45354285320742505 -0.07426996400970665 0.6927619354867085 -0.9970066958747978 0.9878891305689255 -0.20803941763744738 0.1864309769318655 -0.11231255939040752 -0.7252012793323785 0.14739212006946523 0.8347093154748959 0.3612222291789291 -0.5119580683209666 0.1858968726764494 -0.5763174109139277 -0.7355666147151343 -0.03215048711295343 0.1540085313548707 -0.8492794290248664 0.2730651218148705 0.3563560029977406 0.5974881375530612 0.3540702748250659 0.3556124124061937 -0.7551911187342879 -0.5872132191164945 -0.45172154233433215 -0.18451507543525114 0.90623652405016 0.9897126790457658 0.07550331288355205 -0.30197197597319625 0.8815429989773373 0.541401135522595 -0.43457913238743884 -0.040648579393957274 0.34943245887437846 0.44741990107782614 0.47233559919650125 0.6150938401131674 -0.13067404268900273 -0.5936916048428658 -0.4498325342200855 -0.8029942134914305 -0.6131906497383353 0.2053223688875645 0.103538562571581 -0.819152406188991 0.5603835335259699 
-0.6730698757897966 0.4277734285127326 -0.6271748170454794 -0.9173613923386932 0.4747609537199895 -0.5179756646145952 0.43732476465431236 -0.8016482453208433 0.433494418468221 0.3256436442157655 -0.5372568503051547 0.8754362086429657 0.6864312784131086 -0.19378407794416597 0.0684619327796212 -0.9429413110912725 0.5669274753401365 -0.6069491705517678 -0.016071310008727746 0.4741300820475076 -0.6629236385956547 -0.22528087804580577 -0.15619247244823065 -0.9664705227312214 0.9807979520260557 -0.23219447782477243 -0.5755842126047199 0.42761639661093165 -0.5584269808337976 0.11059112908479118 0.37662327054765643 0.8065324515301886 0.8721858007128003 -0.37637867587129814 -0.4497985407739218 -0.9982576364398803 -0.03131857934527904 -0.4510888370723214 0.44926723097997256 -0.804792484657405 -0.22662857132628478 -0.03926133338394977 -0.36038686820797006 -0.14911520259980948 -0.23330372478524208 -0.38133052572543336 0.25601462795377317 -0.04208297358715063 0.10368299272659054 -0.8655971721487365 -0.9215605111929075 -0.5069567149646181 0.37313156107789736 0.44844106207827217 0.944848189553503 0.48960234586045903 0.552860344792524 
-0.48581638085367973 0.9398697789568784 -0.5495714770900886 -0.35812128609271254 0.3605898481775689 -0.849563484208836 0.21379605506130517 0.7785576325840393 0.7347133509960986 -0.3269027710276309 -0.5395978901306393 0.7272522942527448 -0.46318084598237985 0.3569692593206859 -0.8227393509463461 0.07345840878723009 -0.5176475938184064 -0.07419289746828084 0.442856616682779 -0.1660196666278262 0.5401312106944547 -0.17373827645135376 0.0700270423269973 0.34740930580032203 -0.7641180913014902 -0.6213150527271503 0.9769564769187589 0.9971275305590475 -0.3907638409366003 -0.9782300002075235 0.10378907085002043 -0.9704932923353315 0.5241573097378578 0.4082618725086802 -0.863601663367404 0.4955508771308972 -0.2594815085565323 0.1324678493917908 -0.17034933807344155 0.03615652274255976 0.12212422842051218 -0.7174900825933379 0.7347483694097166 -0.6858659635242323 -0.306278815917 -0.6346315268710931 -0.18867921035031143 -0.38306324329878616 -0.22077486359516252 0.7302700653616427 -0.8100006009432981 0.5454577299047061 0.41470061231331035 -0.5675065406430118 0.8256435284378674 0.7016188916584256 -0.24540297204627293 
-0.026258067398925444 0.9820693765399255 0.7864757252307386 0.06379958023568943 0.20747683221338709 -0.17640966800103386 -0.6424914934925952 -0.20814917143452827 -0.787730963017605 0.39591563629483395 0.9007892742577028 -0.42082409218256633 0.0073774928395571315 -0.38445847722532545 -0.1999386599458104 0.6729291812140967 -0.6810103112925963 -0.6274936970823437 0.6541222154324604 -0.7516643671972096 0.9240828502043081 0.8421451795223229 0.5360137561489364 0.6936866026677577 0.2439283629203668 -0.534625937749295 0.2467154866427963 -0.1640285088899207 -0.8453548746938209 -0.6882388345476627 0.42599283321621795 0.5743115079451799 0.0740585620500751 0.8660829703882573 0.17757363086979616 0.46077526425553117 -0.9447064790886153 0.6536549930169202 0.3738136208847114 -0.8844136019347937 -0.9692047401277515 -0.42250406890420233 0.7983905489233418 -0.41002244184651104 -0.6451510454501765 -0.5005068780745672 0.2836706140245222 0.4777654350584051 0.9729889608077933 -0.9403174063539337 0.7703573776296877 0.6337598124944734 0.7966678809065955 -0.6186609192865065 0.43010429789564797 -0.24676273000251725 -0.5434773973823936 
-0.46154717033080805 0.030091653286236086 0.5353527492660439 0.9841721931816663 -0.001345455761121217 -0.36282790725799674 0.775165201528474 -0.8459708751202757 -0.4708946566892842 -0.48784056698260136 -0.746610561039464 0.39835458486895425 0.14917641828859285 0.5791853941539635 -0.4406585802456675 0.1636117710285807 -0.5634037869895732 -0.7830721118344985 0.9131310545167024 -0.6656158354296386 -0.804642529022622 0.4096023154312254 -0.0617334541666863 0.14445140783385857 -0.7339558816367804 -0.9855316673547845 0.6038633208694224 0.2774556744237304 -0.6165001045456442 0.03158550952381356 -0.5015683649953628 -0.06802320895285385 -0.5376158647036569 0.18511350624901302 0.6287832636565982 -0.37675126492986544 -0.3012383022767866 0.0812882104917263 0.0853870896902591 -0.0562616922939998 0.5822082770219059 0.13061518516547288 0.7854500534163513 -0.8035829511330781 -0.27386528937421106 -0.6394522197149415 0.30962530016071055 -0.03506217858864513 -0.40475421177433213 -0.4228869943797189 -0.023239388876290068 0.3853515509667076 -0.6678855396273244 0.7382891618847076 0.45739731511045445 0.4436099885367719 0.38248693469049355 
-0.7571131423584687 -0.5081673502692783 -0.005245666008717675 -0.711650077632406 -0.012417122085137011 -0.5671782488620736 0.2807538377794192 -0.6876210264344078 -0.42409262997133546 0.9118680467199585 0.31023573086063716 0.3091119279506258 0.5020937998621915 -0.19988840283749099 0.8973748461070217 0.30865780170343493 -0.723615557769371 -0.2293830029687347 0.8339386747430779 0.9762472270778855 0.9218631119445047 -0.6745097983196076 0.6037834200731735 -0.9201029954178468 -0.3137970824467311 -0.16898834154501463 0.8303189197431289 -0.8673322023969292 0.1345616031428709 -0.8748322784672056 -0.39804301875484494 -0.4090387244158178 0.6206245212196677 -0.4580682794347448 -0.236779229226858 0.48728904461798983 0.5458972097367261 -0.0038793489026711647 -0.6106642262323869 0.7315234089064528 -0.8446498369961808 -0.4063092006260909 0.3539789492910739 0.7231146552895784 -0.3985010268613518 -0.2937141246553072 -0.196565259383088 0.10228111175419152 0.9016121289798495 -0.022265269680308508 -0.8861402572788377 0.12420908895458083 0.6075859160395598 -0.8724136976826378 0.6949239679713621 -0.9725265015212072 0.4911259488123374 
0.059774046556021254 0.5866002991541146 -0.20722618449512242 -0.42360986162161507 0.6903576149250694 -0.5513000447412426 -0.9874338989889786 -0.6311179219190046 0.8092749604905509 
0.5064911461954229 -0.05366577095946812 0.4713402190554443 -0.8615524982797247 -0.43775419949324235 -0.3395659900560748 -0.3986842328702829 0.6564531398700988 -0.7805831174018314 
-0.6991530701884932 -0.35038111951272155 -0.061641929964338704 -0.9545652164885481 -0.14016735093799726 0.6672067651410687 -0.9004054516089901 -0.8470928471085792 -0.9365558165081509 
-0.304689874441441 0.18263390535570312 -0.7861067676713669 -0.3906343018905436 0.746328439043096 0.06292291328703592 -0.9991909913816559 -0.4180993746839472 -0.9311256906961174 
-0.3892521240657316 0.22044752107296484 0.39241080415983887 0.14518844980282286 -0.055226282358781686 -0.3257122726159294 0.6697232235093424 -0.8579374468568073 0.2766189157004071 
0.055877703120541744 -0.7648426994276527 0.6347054186027365 0.7145055471668158 0.645658471533755 0.06605201280270911 -0.7369026066445934 -0.9179156387260428 -0.4200314751406917 
-0.9215699829420678 0.6852935654616259 -9.176714537018071e-05 0.13471903227947313 -0.1782730696753667 0.6607091071297064 -0.9313801372236328 0.5548870777793242 0.4002269902643327 
-0.3728587958046734 -0.33934492237298897 -0.4117466917575401 0.8798089993488867 0.3419067036753958 0.43492406788201343 -0.5420530488643109 0.6823416461425733 0.2455516972631051 
-0.7912908661373561 0.5962850787223335 -0.7885798849669732 -0.9765443293516156 0.5668598034582701 0.7796993116753348 0.5252939781175414 0.8579345689727991 -0.8568754788274251 
-0.2397421806246376 0.5660533532924075 -0.2481622900024436 0.07940125247063734 0.9356227070187533 0.2100100493186472 -0.6531991647914677 -0.6935231749738744 0.9456560639652245 
-0.5717023343002452 0.30233023479837606 0.7960132472700368 -0.00325483600841725 0.7046418272309738 0.6419775719235603 -0.8408108757453177 -0.010291757975309901 -0.006995070870710274 
0.743045263835661 0.6619967625770455 0.7211677566175898 -0.158300691598261 0.2063815840885217 -0.5442023210864562 0.7171315361271395 0.3424750015707403 -0.9936040014781964 
-0.8316541162688278 -0.8409000104405218 0.6842477061357839 0.460465804759719 0.011945044151602469 -0.44188116620147233 -0.15698933057414255 -0.8352397034633741 -0.24636053393265933 
0.9149743310601104 0.9047380243697105 -0.8598259493413547 -0.7709692689627525 -0.820974664845691 -0.628469059295121 -0.4291912565891405 -0.4438626728103521 -0.6002928770453677 
0.2647443526081892 -0.9120924674449558 -0.9869962480121479 0.08450069056182885 -0.3685530371248138 0.08352595543080077 -0.594664961023466 -0.042195233831297196 0.6492249922080489 
0.7325615074280218 0.3607430344174192 0.8389670224800596 0.23865382199701823 -0.11687900664045325 0.771013225316248 0.6223899766606138 -0.7946828922240168 0.7520042143690726 
-0.7483642692258581 0.32765039354518866 0.5830935824434451 0.4285130564013808 -0.16158496747714102 -0.6122735144285507 0.3893429397572017 0.43555803320083397 -0.3747154863591229 
-0.2179036427510579 -0.03515110891331541 0.06146093258412644 -0.5296450176434075 0.5905619256252574 0.3702821201375288 0.2533325728037381 0.3643718929593609 0.7148422069064821 
-0.6568036421265666 -0.09184246746896019 -0.8409139968547032 -0.20414328160060302 0.37126229192441396 0.7062786560202794 0.858265830589801 0.26674584916526056 -0.022044659560986224 
0.9850559601732263 -0.9452914807029014 -0.014947413059394954 0.7765433983081063 0.9619701584205147 0.4911108235189705 -0.004357766246041006 0.630644373871841 0.5265302913514673 
0.403926423960822 0.872192691283544 0.9705798764635147 -0.8222100845655214 -0.7632294987662631 0.4988655900575163 0.8616650289778545 -0.33352172535501223 -0.10930164257085995 
0.3597406561548666 0.2862065167840506 0.20561382884724222 0.881722792127009 -0.9885159966631822 -0.8062885373746529 0.2025263769348018 0.048725902115168696 -0.12022958935083361 
-0.9902888599005617 0.5286707767652008 0.2938556133126833 0.261193935065968 -0.13445364955733452 -0.5833551145462312 0.8232566561902934 -0.6432804909036991 0.033895963491493486 
0.3467051096167828 0.14215764995448055 0.12660001287014988 0.6349913415558945 0.8623359052769606 0.4877367768446401 0.1348283693073713 0.6031747448049121 0.8372242561745642 
-0.4858637823573022 -0.15211966238796348 0.5318055713763088 0.935960626149509 0.31128412310700404 -0.2974634640049616 -0.8081306393157781 -0.11859379025568462 -0.20028815289977242 
-0.6888281463773074 0.9088641183399553 0.7190097882238107 0.9959099587989373 0.22823113108490034 -0.2725156163836613 -0.07266787908014294 0.8888270003434551 0.10326240830904254 
0.2053350851739748 -0.07218503431922185 -0.4131250144817822 0.5901540969596248 0.3876729775040717 -0.533505639279725 0.5110505340962974 -0.2690326077028862 0.5554006130908207 
-0.41415684375614026 -0.9917784341946805 0.6526706031330303 0.7600603243467441 -0.9147745429852212 -0.4951634108782499 0.3367626125942269 -0.6177632197020717 0.7248884611595074 
-0.979257258590265 0.4910985220758739 0.6255113588727923 0.9680342393159584 -0.6430947734559052 0.8731729126248882 -0.242755543710232 -0.6428352104803512 0.9104490032546184 
0.22476561684394358 0.10937620233376699 0.1977921117498087 -0.8489027955714248 -0.016003403026928487 -0.20420450914596144 0.2865897301463336 0.9701004291805639 -0.030820787647670045 
-0.8601121379149823 -0.4520455519086257 -0.2650132497346207 0.020162797557426337 0.43011498270691506 0.40979991175037567 0.9799532036689542 0.7063458311918094 0.2116198006265022 
-0.0009155947971717371 -0.17530648822320138 0.5908226354736446 -0.3625602172812541 -0.9035925127536752 -0.5582805022436423 0.7773543231894615 0.046442196226160304 0.230386896262339 
0.029728424636418005 0.8867432779057449 -0.7831285818784042 -0.17558120608131755 0.2887663423893676 -0.36400947937442507 0.16802868787933312 -0.0413657688526321 0.7663063419233496 
-0.3716750933940911 0.15690641610833822 -0.904844523718175 0.8827340640096499 -0.2728874075401486 0.9597457316542384 0.1352170440474183 -0.5425213293115865 0.9337944986249813 
0.42820589937592723 -0.7645312189380113 -0.8717180287351003 -0.687130477497621 -0.6215226290174005 -0.922226382202846 -0.9710406286153836 -0.7782347828046396 -0.11900541246095853 
0.6694462265646355 0.6239313786463636 0.703917377429983 0.9702447187685705 -0.09049255203328621 0.047961984795899415 -0.08829284662527837 -0.06910332092108074 -0.7802844029436684 
0.7881207071600123 -0.3686284617593243 0.05532941709761974 -0.9597112801697649 0.9127011571571604 0.07069271368355001 0.9124455275362393 -0.7457998360412059 -0.5369557036937458 
-0.7248717976591619 -0.8314573502965761 -0.46152076037334977 0.6572058085523238 -0.503708324620364 -0.42634415639002166 0.383499013326714 -0.17411039760103808 0.12128816055108849 
-0.03660824319378175 0.18391695566686828 -0.7066391262270211 0.5550394826398206 0.8985718937936464 -0.25929860794199655 -0.25473619154638016 0.025420818920302013 -0.2000920626778242 
0.3905332722009427 -0.8491668274239721 -0.10917078895015186 0.8304669913042553 0.26634603124462064 0.7614435255531529 -0.5671209434502136 0.23154190696356203 0.019251280394614545 
-0.8217111213849131 0.7768924268547253 0.8436395281549582 0.12070493566707641 -0.8968518692062815 -0.1990470977599368 0.1943723008470668 0.16687546874892067 -0.10513977648295691 
0.13799729779755454 -0.1362409419394166 0.0723451847110268 -0.8237812999037737 0.3555167445337537 -0.5529441928216616 -0.06826489578802719 -0.3578585810342374 -0.40200397032918866 
0.3882425169891006 -0.6976363438463349 -0.8005519956458536 -0.14096815904839577 -0.25341440364952783 0.9812346765247266 -0.7926729118805638 0.579802989016841 -0.9800321934717964 
0.0327893963695971 0.32976283795404426 0.42233246629868915 0.6226525505630274 0.6881756563428179 -0.03452155740954077 0.9248541255664908 0.01623135144686283 -0.5373947603373141 
-0.8382586604367601 0.6013853997494101 -0.16328622679683447 -0.3974378984495295 0.4762785277832229 0.45072645662522537 -0.4716407015238535 -0.3850170437910361 -0.7880887976519906 
-0.6911062918407922 -0.9046157479429422 -0.12966931444410656 -0.14109178133838607 -0.09527351813403961 -0.2349822506461876 0.06510551767184403 0.09505126423969834 0.34920221528394824 
0.7492893775626575 0.48622927626977064 0.5003082758300661 -0.6911653324075944 0.46037861832565796 -0.788742347915623 -0.16245633625625966 -0.8426160561714078 0.9811265454418241 
-0.3334342220638342 0.4737689250853634 0.5626292834701798 0.7253364643912463 0.8624409435385765 -0.8245768092336112 -0.3371029499308462 -0.6254238617007131 -0.6404258875562481 
-0.33538586090836553 0.9960026042698815 0.341892466898319 -0.34875820673434066 0.0382074798549874 -0.7439090644929214 0.9501093567571464 0.08110374019304545 -0.6530162981457606 
0.10185269611217596 -0.20020310593241586 0.5732869169842421 -0.11834412749953316 0.9436602281593107 -0.09764599674233954 -0.45989578722641133 -0.8442962360909725 -0.7397593704978491 
0.9021441906318035 -0.6703838322945033 0.4481350339511405 -0.7807051932341014 0.07609825569455397 0.8357653637504023 -0.9112167603439922 -0.4070609452704097 -0.313004148052374 
0.6755625733709307 0.6400482000759491 -0.7932712010138827 0.3742401915316922 -0.6052409738558926 0.5635479416805331 0.6323261990430693 -0.544775683677388 -0.6869936344568868 
0.4352658631410853 -0.6311221380543499 -0.18298368863509729 0.3058111129263448 -0.8148309351499268 -0.09681682771574751 0.6512227049221728 0.06689074727942734 0.6892484680833459 
-0.6744007591619385 -0.31571706846057346 -0.539721472404104 -0.7599980034860305 -0.575804894004035 0.6971938528464345 -0.6185735514878936 0.6530789032528566 -0.9973976915681435 
0.11576426427641806 0.8538574907292407 -0.864562155397403 -0.37441729538363977 -0.9313381728119143 -0.09679958015085455 -0.7408364684409374 -0.5184889088720674 -0.0495863919223134 
-0.5745174392569565 -0.3929369066014372 0.27538846074218415 0.3428615004229769 -0.10294263291048011 0.2066820992143623 0.32308888846930817 -0.31791753611371965 -0.7297859135021019 
0.005961916779341214 -0.5083383273915192 -0.2844908345102186 0.04795753622673282 0.6564971885946316 0.8694997422460735 -0.11102016101886569 0.9050051546331017 -0.537782086941405 
-0.47160982009211505 -0.5424007992234419 -0.661065681469819 -0.8994308161582392 0.41889672226611196 -0.963163453428606 0.06691058043900289 0.6646756672338279 -0.7569788829222042 
-0.46171725780264206 -0.718181207017907 -0.6180348788934105 -0.5167022038065778 0.08145882601333132 0.7832786745044349 -0.2473674195310651 -0.07571850035842265 -0.23680772059892852 
0.20302863862843035 -0.13781972858726887 0.9913050502836582 0.0822134839503601 -0.6868477735319638 -0.494721324826882 0.16531943418498996 0.14382575674433173 -0.2428410142527837 
-0.4309275431724413 0.05246175023655719 -0.9523344750387934 -0.4940890358056482 0.6505236324804811 0.7271249255521275 -0.6572406711722696 -0.18684289772555562 -0.2563289441806642 
-0.9529290588678325 -0.025875148731145492 0.21792119939548815 0.8794899025717309 -0.2544290934568114 -0.36430594137303984 -0.9144158088153218 0.2077532667041344 -0.5698781439714358 
0.6701267039817129 -0.9320290502792563 0.8307071594554616 -0.8513495514352258 -0.7608811496789152 -0.48724949329303446 0.10820949916105982 -0.644863285470713 -0.08617533222013929 
-0.16950217693002623 -0.19288637313201118 -0.8422443542882267 -0.21792761087983914 0.9009415169104298 0.5714639455684858 -0.9129610595047635 -0.38180218096394736 0.1989723485298327 
0.4342459702683612 0.2701311633505521 -0.8075487850321654 0.6005981115787697 0.28466820380848135 0.9862046352334684 0.8949683075932195 0.39562258450433396 0.8398529447883756 
0.8482068664837639 0.7440607304931504 -0.5039941711463809 -0.6955425048515445 -0.865835292513391 0.932007838702011 -0.37659995989303585 0.8389212251247911 0.27504508196546396 
-0.531933387212064 -0.4575267156860521 -0.0738760727225769 0.35967906356516033 -0.7538066361946496 0.1260054519665612 0.4848946704064814 0.6501968889982732 0.7430674906482486 
-0.8917588066499642 0.5068862874287188 -0.9408435904638244 -0.2444153906093527 0.17272781530720294 0.4244516003164076 0.4712114982742768 0.783649497162556 0.8127646991848854 
-0.6344931070088042 -0.030725827637048564 0.38400098264618276 -0.9159831859421352 -0.9838888263164829 0.7204137667186328 -0.5169521798281593 -0.5924165158354497 -0.43278108280900107 
0.744553075058036 -0.9726814008954983 0.4721644383761392 -0.556993588289854 0.08338861089127136 0.12984341859367077 -0.7862410754280873 -0.748220807169927 0.21173247590686528 
0.9609695357851009 0.8529154812566322 -0.5352783833047359 0.48778168468647465 -0.13970023796789377 0.42416955601905015 -0.3198659233581107 0.4104591258779018 -0.25224324446364177 -0.8034448374898673 0.4365479475575489 0.8573196997965915 -0.4262083976460955 -0.6967097608211845 -0.65866521923918 0.020868251258035375 0.39319905110362785 0.5247089208543534 -0.08562520733198342 0.3278271814094056 -0.09966307434064703 0.2298295720441983 -0.7652283817933552 0.649633956866217 -0.31669737241657536 0.052277974736492094 -0.7771022620450341 -0.0904560543476911 0.044741324377105096 -0.9524797687269657 0.05959054237760153 -0.47261374190732597 -0.8323127771899994 -0.7275767655652026 0.3631941168843906 0.8141846914312796 -0.3518702173928767 0.5284127961964686 0.8843097487939109 0.11368369753896634 0.07227017330110042 0.19568144934161724 -0.5312084697709107 -0.7351876919945457 -0.41199044991797207 -0.2401377415396 0.3871815464540609 0.45640827657011873 -0.09239461665864979 -0.8616575373105333 0.38184967042805096 -0.4758466471653131 0.45466000465770406 -0.33675954137177166 0.06747435903541565 -0.8311375952579843 -0.15422438771525915 -0.7283803174752355 -0.5307270973433109 -0.9381849505330848 0.5988431955552267 0.7401480194099308 0.612078819215919 0.03282423265994905 0.06735119550961421 -0.36546800537873936 0.5322757037684398 -0.3512538437119752 0.9899639902043365 -0.39313003051851525 -0.9712112613338673 
0.904975775091931 -0.7514214293746644 0.6777927431172208 -0.43458121958104834 -0.40517190960733096 -0.19115795333485175 0.9477839784895361 -0.08509593290852546 0.9383265559663021 0.8926958719324669 0.6781817460139812 0.5150601440007014 -0.6266584550189922 0.9442979164491085 -0.7352010485865175 0.46355433480301356 -0.2171303595942935 -0.8594322375853896 0.42702954531178916 -0.4980466048763439 0.7656700329824779 0.578532279736008 -0.1683366518636571 -0.6214271462396315 0.9706216794909739 0.003441781818125378 0.9522245992100307 0.11415118554887127 0.5525313259284987 -0.8618150151610122 -0.5307466506870484 0.11151597921835221 -0.20082843917231763 -0.25546299018839935 0.4559484657961803 0.6831900322349955 -0.5881424348190774 -0.07238965603578373 0.10144297240410483 -0.9188239276098855 0.5447357608623375 -0.4633105615919684 -0.3749963167629682 -0.46791459793207557 0.18574483888341597 -0.6111832964790349 -0.5988581662996997 -0.408946950014317 0.7723109720202548 0.9150002475639085 0.6562610554967645 0.9269101425045423 -0.08109000735692651 -0.34725409580216726 0.6320168460748308 0.287907870383008 -0.6414507761292478 -0.7666080270809374 -0.13163391812551195 0.3851550275022313 0.6307880455655672 0.09580019258137873 -0.36762950964781327 -0.6417001203943582 -0.6819722480018156 0.5686296037163612 0.16001917556065925 -0.20690423090471688 0.926282937020176 0.5036674687283884 -0.20517838469522265 
0.12590492011552268 -0.19269913452915732 -0.5201263096236988 0.692306012735818 0.7171469773957706 0.8284509978176899 -0.8617321670954357 -0.9950139555548738 0.19835143479515316 -0.5956806852107746 -0.17473167475316953 -0.49224174503534157 0.5491396813716833 -0.5610600222927604 0.9166356847182435 0.9977405498132359 0.16756234658930969 -0.6094957634771645 0.0030718779868585955 -0.4204915240445808 0.47196548608092814 -0.6857983495010278 0.132893695057408 -0.8783242126229946 -0.12074953121674348 0.39578018836536 0.7784928582444035 -0.9134100732700281 0.8076216288072313 -0.7984924787145538 -0.6071612174787946 0.6388697188050165 0.19602691978023112 0.4937423514823698 0.008380119128802654 -0.010591168080860802 0.995600175671179 -0.01911962619329155 0.4231586034205519 0.5915025195722496 0.7172751414578751 0.17540399083964298 -0.5632259184962993 0.5651266103040777 0.400495288784557 0.5400895114724162 0.15710253961007248 -0.7072813747686535 -0.4765000723902113 0.1646697107029811 -0.3898538522425581 0.9562872283565582 0.477135245120373 0.4163201224828226 -0.03663106088994916 -0.5241558474393424 0.40539794485053715 0.9307085058169342 0.25384527857812333 -0.19986619662817984 0.05758871792653664 -0.15409272044247535 0.21661870094228197 -0.5434384683434816 0.9082469979949452 -0.842288047749064 -0.5048867860031281 -0.8458964003574116 -0.010730234103003777 -0.15066396434978313 -0.9085924996903239 
0.8459118168749471 -0.9677259249267913 0.9743871296047628 0.3438565288853688 0.475705351117901 0.4694756028300435 0.0500103786704984 0.296512169170317 0.00832103433868503 -0.2139228707673395 -0.7829804873915978 -0.965209224855212 0.38999845038269054 0.2241892924155633 -0.7112758023272892 -0.25226579748127076 -0.17882373906436078 -0.2964684207646613 -0.3113781122173329 0.6908102999158816 0.9781436576340612 0.17226827865913763 0.9183833573244526 0.7033425730396707 0.5481809617742757 -0.3939983328227299 -0.6549026437553738 0.5627973758528793 0.6012614400701151 -0.28686775031955714 -0.3793268519687514 0.06704424385749164 0.16541194119032676 -0.6510159733157481 0.8990159747939481 0.5010036549734178 0.9152226009395115 0.5591851976046835 0.03450130253762618 -0.13495381276673335 -0.3258124619695524 -0.9017132851050156 -0.7965325143047739 -0.33812751597357193 -0.11789327706496078 -0.45834876704103955 0.07602218345773504 -0.5738085520279332 0.28761235658792295 -0.43987215501125143 -0.2898216562745113 -0.04510071083730849 -0.5390409302877388 -0.7731269296431507 0.26276361166712947 -0.05870375387031346 -0.08101433592746066 0.7253982639919032 -0.9853546884607967 0.5380076890247651 -0.7306078642691798 -0.7939258751740967 -0.7234703156684374 -0.9915409522352321 -0.9256818776024407 0.9086549682371561 -0.33838557684407 0.7979030220741687 -0.5515812089656573 -0.08173599657803465 0.11254473671409437 
-0.7779306592590571 -0.5201970492628973 -0.835569125366503 0.6284654114270452 0.699611096223195 0.790749834202424 0.0475531482290974 0.11298423940928681 -0.9895019421583315 -0.7769410405003743 0.5373516157251139 0.3646655106321115 0.9384841593669282 -0.41880935132736385 -0.35039823669288706 0.47382735007743104 -0.6818808137442991 0.21061699669741007 -0.5012960309450114 0.6224941075403776 0.7359157034863395 0.9343899461430052 -0.6961810210131285 -0.847071923586777 -0.4511464449079412 -0.6988941189971754 -0.13745812751690978 -0.06358741305952198 0.25662222471750096 -0.10633147507550977 -0.8521758585370531 0.34235460341365975 0.8551192381445882 0.9057813475776806 0.050239987592897606 -0.27012825463402224 0.29601350991433906 -0.05125108136813461 0.8286977549858674 0.8911089098791178 0.3560716517580127 -0.38735224463124673 0.6034424465027419 -0.023180375806182818 -0.745838257268153 0.8598453182136085 -0.25376819824047603 -0.9282657375555534 0.553424123710031 -0.11884149321384618 -0.6551531904235184 -0.8160961117889263 0.03562077965237487 0.19709480594359285 0.4165209969408534 0.0011829572262729293 0.7856048389217305 -0.8285616957974582 -0.3172078340553899 0.22590871442554672 -0.3106095889681719 0.715255464819635 0.8277181490112822 -0.2559536578157846 0.061063974956885536 -0.21100801813283288 0.11676340486011294 0.5866477922917437 0.4271641003465245 -0.9534038504868192 -0.35816296580504914 
0.9649185969330445 -0.9533602931079146 -0.5070778041364432 -0.14107055220935227 -0.7761198570495629 0.43860469249930634 -0.9961047876994713 0.5508267461613812 0.1102061833003809 -0.7376987504077279 -0.885232679360352 0.04235886706057501 0.8354939568332105 -0.7836380870845887 -0.8548670497312185 -0.13269381042793138 0.6731119185035488 -0.33623559936231073 0.07434330743261941 0.7360867487458016 0.9079323566041082 -0.9275452171895922 -0.8902474089944312 0.4812509218015548 -0.830102919191539 0.2248178120568678 -0.2710985818686611 -0.9567244224331355 -0.346041763286411 0.6790812733967848 -0.460664836096915 0.044366367558481556 0.9889231770767135 0.9979190989763751 -0.8085214699940606 0.6400296008649375 -0.47396594079160015 -0.42311222843004725 0.5487855596960565 0.31252065962667186 -0.9547616862338892 -0.14004264314607195 0.5433504729285801 -0.8997166863545942 -0.2709274890909401 0.23352128597186317 -0.7671164139344617 0.8759667363875319 0.03613607209073244 0.5114291996555707 -0.7353860228809528 -0.2389295362374826 0.05473125264684442 -0.7025038192378641 -0.3693604351843478 0.9102581543812476 -0.2507705145543677 0.23523737766616115 -0.27419486935699133 0.1367382632476053 -0.21733417349383655 -0.545843277508931 0.3663772578451614 -0.6607951751189072 0.5731287484960685 -0.44006550277298984 0.12079184737398285 -0.09037958987503658 0.5711768037386022 -0.23881345196347126 -0.4918990723385246 
-0.328503024848003 0.952731572388241 -0.7460053832908962 -0.27215210098581344 0.10617594724302015 0.0019069891016789686 -0.9471598439106232 -0.4355175421789004 0.1072612731928011 -0.8489557369732328 -0.9814928597110568 0.7049514425835857 0.4837963268969747 0.3756208095602336 0.010630724542735503 -0.8149457710706538 -0.24928384952339555 0.3638591005834537 0.7933979823530126 -0.6814594515565644 0.9431995089577647 -0.4932913982860805 -0.6544313374143804 0.22186330862673675 0.07335483370666362 0.031011765359528543 -0.21267771770974142 -0.2174737858046889 -0.1870378448747998 0.3797979053319016 -0.6094173766885904 -0.9574118039301243 0.4854329141335463 0.4693027040038962 -0.2683229187638949 0.3178499538083104 0.3072839935925722 0.9685844831043948 -0.26031288635492866 -0.014072839239018586 -0.6941956169512573 -0.6878200344459955 0.36007147467741785 0.7603243900977592 0.6267433068910226 -0.1553972528490548 -0.657874831331348 -0.8272368475980727 0.9105294043703676 0.7292970549893367 -0.988431304738036 0.24738057335781494 -0.6739229364398269 -0.5101359115125457 -0.9295488698614744 0.11902072790700235 0.40622030294057 0.865353645513417 0.9227520899989752 0.9814365229725268 -0.4652121641944251 -0.8538394221746042 -0.23596855591928279 0.9264214143204283 0.6701536120816767 0.1953327757830119 -0.31312405430566903 -0.9521618668490412 -0.5929575655672266 0.8071075030721633 0.051642367784859866 
-0.5090281417619833 0.34156021983558005 0.48564380732860113 0.1558317059771508 0.22274102221869163 0.19866195500768158 0.40820339001868833 -0.8473246601003701 0.4090171353526557 0.19518153766347401 0.23147897192285827 0.19023802416200475 -0.17386100398885485 -0.26402488404216173 0.3363708267020262 0.630665597012467 -0.920234119506552 -0.5132239835288941 -0.896294840148109 -0.0334696222034383 0.6583086863984877 -0.2779521477143936 0.04863427095701245 -0.9900926992919623 -0.9069262634070043 -0.22803443897701037 -0.953808513527634 -0.03484745819237167 -0.9205536557510698 -0.4277958504023325 -0.1389763057986968 -0.48279225570884043 0.7668540883102202 -0.7298551893411689 -0.5778972806720832 -0.995062842774666 -0.9329902712894373 -0.34964870019690153 0.9812121316653988 0.18573442643830207 -0.3055460085656432 -0.661785542739936 0.907456751343565 0.03382774333598082 -0.5590590111347737 -0.09234162451962225 0.1499896160016927 0.6530185114969831 0.34386729771331037 0.16963577382986728 -0.237259137382259 -0.6762221341473396 0.6348799037404029 0.25163421911936856 -0.25429304632441396 -0.021004854738314815 -0.8262002450202344 -0.9857696950620838 0.6840194643461084 -0.8597500184330353 0.10068563620150606 -0.9112743258373743 0.23233405720905198 -0.9295756602689387 0.5207783165125781 -0.7126176746488615 0.5952080926057215 -0.350712664731319 0.6996807215683114 0.1062568601163052 -0.9645834386243746 
-0.3092629873626467 0.045533199291810655 0.2502728733233679 0.39664810268332795 0.7918286824710208 -0.48277915921519554 -0.6093876279436581 -0.23099310694018294 0.43013581517468547 
0.48278256733918035 -0.7377653192643001 -0.7766885280550637 -0.5488714325394117 0.07840920447321009 -0.37017007000647073 0.31616091133909263 -0.8803193685528392 0.9323395236667511 
-0.7125586531842567 -0.47747220861628814 -0.4639961802094408 0.005522092730880335 -0.7867590188192122 -0.8246665617604949 0.7399582303293384 -0.4640586705342722 0.8160947184349328 
0.01408193700196625 0.9824350158313719 0.6065790815525447 -0.4637702857359718 0.251042718129872 -0.2367004625415059 -0.7643745762562582 0.6997770253514002 0.02663044308238649 
0.040413376150716385 0.6945435863110749 -0.9309697413579072 0.7282009717529385 0.15678476476445113 -0.7332561192293137 0.3314339162875213 -0.8788320671329899 -0.847160059119128 
-0.044294157920879096 -0.5847598172246822 -0.429963389769084 -0.5395204593165543 0.4375884036640614 -0.27717213868945345 0.10349804303136745 0.25281659980612115 -0.33852196212289387 
0.2097897877536774 0.8360126475307681 -0.1474078855499361 -0.985720483475317 0.702168883350154 0.1079194363151792 -0.7638422089904449 -0.8539830863427871 0.09121386497411077 
0.4487004875482399 0.35064286397187394 -0.46203034246510377 0.6986637700876464 0.5948535757352684 -0.39681805217196753 0.5999886464084501 -0.39045740097348536 -0.05855099594178692 
0.2840861369046326 0.2900204723387565 0.06860384744885617 -0.6271119033511086 -0.8606930434743307 0.3390761799645048 -0.7660601959043938 -0.5258358766724349 -0.15847031320458593 
-0.003966274360603261 0.7544398666382099 0.3474345563709167 0.5943542509808655 -0.12868034159837416 -0.4774628620024022 -0.5908193848491823 -0.15757083114498216 -0.4914771296694438 
-0.2971320266887465 0.6948289327671793 -0.197680929780516 0.1124176936821355 0.7633532619338963 0.6026029637433636 -0.9096165099844002 -0.2656875611082803 0.32400888802378813 
0.46410218729395747 0.11338658502636378 -0.23430982156053082 0.5862836498300208 -0.833345107066799 0.84403319778912 0.1956433767215766 0.6355887242157212 0.9954418047460525 
0.04076702979843749 -0.3246171123114654 0.8577494000514554 -0.05526083734946563 0.8921347407913818 0.33451179802295994 0.20650583627118335 -0.495179104039863 0.749424026574522 
-0.015177461017694904 -0.7744951501013733 0.5802573707580017 0.005501250404439162 -0.8448083761923864 0.6721754756199765 0.5751265613708048 0.22902236554692568 -0.9203149179076453 
0.4419554033982538 -0.11128392494201944 0.9506728299944305 0.38731112706045345 0.10933833696590267 0.09918717637475893 -0.3957011116044682 -0.09782487461268108 0.027291765481501917 
-0.16240273681578277 -0.8575307601219502 -0.43943879167729394 0.721940564453418 -0.4045105359371757 -0.4465223584912794 -0.8227757460143634 -0.15244863969236389 -0.3866729452055484 
-0.058540646025557086 -0.9769766491826011 0.24098305252143226 0.0992735554947215 -0.5560715196755179 -0.2731123753027125 -0.021947601008944106 -0.36108524573492384 -0.31825963979367966 
0.5802591898069369 0.16248550599891654 0.6078916346366998 -0.023211206348914937 -0.5012182652220614 -0.004044937468733245 0.08337051399653528 0.15539179438075945 0.5145231287975383 
0.8556038763165361 0.18706685305045156 -0.8264809701994256 0.5857476195070044 0.6055657703219206 0.2502043951662136 0.3667460727850309 -0.9917246273487552 -0.4473638590239213 
0.7232067403241038 0.10469386955009874 -0.7548056355641575 -0.506074519680068 -0.23752960739362816 -0.5180181775116695 -0.29300886610078813 -0.37899295952087964 -0.5865433830243678 
0.37956545164332334 -0.2643273835429867 -0.7623859086370111 0.2817782623372689 0.6378329143233983 0.6606515011938494 -0.04132354266697491 -0.049566063114878434 0.19224214609705714 
-0.5586022674079636 0.1678270465653091 -0.9222202125817514 -0.5207300635018322 -0.3248326057610029 0.16108793736874505 0.23684590280411522 -0.4976504952404701 0.31647869300752896 
