Layers weights
0.06824716915097384 0.5590633686945101 0.3915682241834817 0.01704663504013511 0.8096523933123874 0.14208348561818843 0.9510655932477361 0.9444546434610692 0.8048183794169557 -0.8179371984679369 0.09729730164441386 -0.4954722240362511 -0.04943403514653615 0.1153892531494308 -0.6227100680203655 0.30789426696590166 0.35574004633563217 0.5060866420022967 0.8434279390219153 -0.038097940049987455 -0.27317712484255446 0.5010342715697295 0.14928481824867568 -0.319986381895945 -0.869745389634633 0.5111260821190571 0.23445635445192692 0.7869646842267026 0.3690030480222673 0.14518346486087197 -0.9271420467179776 0.6439326114589589 0.3617198503839463 -0.9833200566168745 0.3588656852336307 -0.20846235529335544 0.9735407049756655 -0.4340704301764203 -0.24158337632071775 -0.41234178680409517 -0.15866748684144816 -0.79069742532928 -0.8840355911564581 -0.8128570054552844 0.5114331446532628 0.7093780845754054 0.14617611323610508 0.0007494537818446014 0.6734876467156792 0.7553828872488222 -0.23281385370157914 -0.9168522973351062 -0.8281663633763208 0.954909480410554 0.3168425670042875 0.7569667093889456 0.536621835841992 
-0.029893565372502984 0.3519824175241302 -0.5374505067098307 -0.23816340966240393 0.7097378005854251 0.7162198695198713 -0.5547290774502985 -0.24577922845353214 0.30467424578753377 0.6762461763039267 0.7874775697923866 0.4020012949701441 0.8539280389821908 -0.22374225963497427 0.35714909020758445 -0.3416839047796478 -0.5336467551033299 0.3936541411367136 -0.5653736559757554 0.9883302258929788 -0.22032880386024617 0.403748892136255 -0.009176344054436203 -0.9165169463688352 -0.8157286256389118 -0.431623809227049 -0.2852447114759735 -0.7190361052255961 0.805156620019148 0.6982529499995626 -0.4267213678032655 0.48440346278179996 0.9578927388218585 0.6494848357117067 0.5445189259291163 -0.9655425614341874 -0.8986639076464529 -0.12554737384007655 -0.5168031201205755 -0.08446463927046942 -0.6891553320611121 0.27076563033549594 -0.27521899478903245 0.03107710039869945 0.16464769374776786 -0.8462051280090486 -0.5494819907487347 -0.7339345694611006 0.5456785367248222 0.8769183456698986 0.19750730937235428 -0.027962981857750844 -0.0608501824952395 -0.7941419337888694 -0.06361681164364087 0.10022417007534148 -0.07489654486620988 
-0.964776937359864 0.9834182429424922 0.9952736871372403 0.6635188699674655 0.49734693631396454 -0.5965866498265692 -0.9187627679162609 -0.30046764229543865 0.3957978821661148 0.5574540919872695 0.0725220211479114 0.6560438646878888 -0.12133203349024638 0.9192181138510531 -0.8400112155162148 0.8273097449101975 0.7833977268124364 0.5339248707218811 0.33128371881349383 0.5311598385329463 -0.07284382663207047 -0.8208077027577411 -0.3237597694213708 0.33974276557547806 0.10054615084479002 -0.03502135139103113 -0.4689714127429625 -0.7491175075260772 -0.9330869611152979 0.24526368636510326 0.17776597559097929 0.9859305334503905 0.25970880728395884 0.25307966272776206 -0.818336787554167 0.030967484824920486 0.16436155751010628 -0.4451110947006754 -0.8151538213227972 -0.3112913217953436 -0.9057085951017825 0.6446311157897362 0.030395891547560616 0.556629617053426 -0.6030025830880951 -0.5389460326120136 -0.46206580261252755 0.718589857500669 0.1752891750868144 -0.850183567800987 -0.025983130031287605 -0.9274570545573306 -0.8927306231835657 0.8450844623481965 0.962635726566787 0.48973954591436675 0.49788104207405426 
0.29766457742264074 -0.5448198514096092 -0.23848234847296235 -0.23603552935135022 -0.3890076758726975 0.3666459689594579 0.9879036685049531 0.8448127825133488 -0.3494120098040643 0.21694374579300324 0.5174529905934389 0.42033526164168616 0.10331222854528115 -0.5122910452758694 -0.6354747846833736 -0.8133453575044819 0.8639529820373588 -0.6814136859774387 0.6946899466618834 0.10176848878333661 -0.1260505748606669 -0.43177837572535105 0.37378153580568996 -0.3679344382089114 -0.4744050991556297 -0.33347172613295273 0.8349514168349517 0.24660233644037657 -0.18692831464208162 -0.9099208019214999 0.5850961913467352 0.8452155845596211 -0.9829910399872432 0.708375014476134 0.59457001466823 -0.025408979163860933 0.6225866884651126 0.28604941778480314 0.4453093405465354 0.931895913710148 0.16830609083941517 -0.3547931440316072 -0.7262256544193 0.09748805144002988 0.5340001284198325 -0.4787505245866839 0.6025138354547794 0.03353186565542816 0.7100358270831266 0.8619655029521451 0.33651923083481017 0.7246449898393794 -0.654139759280523 -0.4134226150192851 -0.9940736815589649 -0.18258098890132057 0.4249557303931634 
-0.16912449801271445 0.9733334531120381 -0.0024337814871584484 -0.32047285662283864 0.12549424001423876 -0.7957864781671321 -0.3654908017203189 -0.1927919770919488 0.2772321080325162 0.3815251665978756 -0.103361964570722 -0.22380217647950465 0.4489825915213608 0.5034923037431931 -0.779316909266349 -0.17650819611160282 -0.012740091336644 -0.40574078344002773 0.42159748367168626 -0.21052282908429285 0.739772241718092 0.7827193424451131 0.6906423748971736 0.6058506629189022 0.3234447138569907 0.13757927783649837 -0.7734515010816232 0.380236076089542 0.18611768952914254 0.07372861902064179 0.9356392826269296 0.18714936544088442 -0.6504934746415831 -0.3365936965631533 0.7499318225596783 0.5996471057423353 -0.9952815210837795 0.47926699520385235 -0.498359463199926 0.7501095332378244 -0.3931637801063532 -0.8100715486044392 -0.139941510129866 0.26491424346572817 0.0070722254295097955 -0.256401918077138 -0.027297672785486886 0.9349774202453623 0.6108053597916199 -0.28127579578095663 -0.9972828063619472 -0.34977879337864376 -0.5027112851602238 0.2650701576248992 0.2525394351342603 -0.6482668908620862 -0.5354069602947809 
-0.6651678930058726 -0.882374792962118 0.13624399323342917 -0.2981434157409316 0.42611819654551975 -0.8952574579323044 0.4164708845235964 -0.7326952435879537 -0.2804085458189427 0.902086258596402 -0.612403397368442 0.9886331201382048 -0.5128843641742511 -0.8006905437211489 -0.7679166876330702 -0.7651263422352018 0.1849909604689175 0.028501826932991303 0.9714555602228265 -0.9819744607890145 0.5983801572005183 0.44546107302342036 -0.6663381328085464 0.08432760475576485 -0.3353734338399885 -0.7090615873836459 0.5571442422927799 -0.7343080036786022 0.2938928559551085 0.7639606947586963 0.5165353577697522 -0.9993167717154774 0.03415130852959769 0.8780704595102067 0.10910480713475135 0.7185745388223364 0.9334740469549208 -0.8500630571257085 -0.8590502644088187 0.8368185969405858 0.4848706624966377 -0.29589402988485247 0.29204363976686976 -0.3257135885231835 -0.13003137331581577 0.37421365728692924 0.1890594332076395 -0.22288687918032898 -0.026439480365896717 -0.7652629353002609 0.18159527328200986 -0.034812507749781146 0.9438517138174591 0.01829315249649793 -0.5127052252998022 -0.6450654958600555 -0.37189349204472694 
-0.48792482067969 0.304984914956294 0.31239857609125643 0.3700996343317356 -0.7077920075939073 -0.5759430378841608 -0.6760512850982177 0.1460106235327851 -0.921895285737897 0.22719900824551575 0.6163971067590348 -0.5364851303445382 0.846042850335285 0.6892728109116111 -0.20385037901769726 -0.14136464981299293 -0.6161398808578404 0.8201418079444551 0.05103267175960835 0.7806671627518945 0.20446020541232474 0.9468991538851715 -0.7488260045488357 -0.5459107633076428 0.7393834057917481 0.39692111092161575 0.35018199140057904 0.042700528125997395 -0.9286419441312511 -0.09222671404362881 -0.7936628382308241 -0.7769664116054942 0.9319222736603592 -0.8575932726305631 -0.6948745351048562 -0.5937653525300792 0.9472003129367322 0.42216684601317384 -0.9599709864413495 0.27434723631364394 0.5093614344622199 0.7059865592169337 0.0838557532399482 -0.0453416086345719 -0.14549052562657547 -0.8757661759739889 -0.6533477932497401 -0.26749049312672096 -0.34862029961140806 0.25566004284675214 0.6062200497742198 0.25360651524514183 -0.5382556430906061 0.7031707077117006 -0.2948385490152744 -0.8373215735929281 -0.46266506644909167 
0.4892784123170195 0.8511515419662907 -0.899428922474018 -0.1669807833984897 0.3592184439235095 0.21181121721763876 0.0673788823235172 -0.015740045975690186 0.7243071360106992 -0.30735789464091545 -0.37672476862820603 -0.19235184088343588 0.07914512912789315 -0.48421695406994525 0.34139281174628333 0.05682121711062972 -0.5500208285437 -0.6323764222742743 0.4891544676461008 0.15135818252665664 -0.04214548899337984 -0.3341995070278612 -0.491566680774688 -0.7063742048476972 0.1808411048864409 0.4646590440150078 -0.6523892027313152 -0.9806326961650378 0.041029471289372434 0.4221029219524889 0.02691392972191923 0.22243942320341226 -0.9004277556805547 0.5583408921220643 -0.6926639334725673 0.45080298835598986 0.7361228649334082 0.6261967800213636 0.08475407307147938 -0.5403973327100439 0.7741126155888274 0.4264181471355599 -0.16402409132851292 -0.33700550649807554 0.28281900277599714 -0.3691276847686536 0.8348587438641384 -0.8042296768150168 -0.6884424294174833 0.5017052808340616 -0.005671720406776881 -0.2763873023417301 0.7585606098375162 0.18566036273264444 -0.6437961401940064 0.23505424058631624 0.8858926591517415 
0.7696507444549974 -0.9048514279427797 -0.08067556889726712 0.019934047023824647 0.668765405058335 -0.4530075540077232 -0.5705268767010561 0.7419290601950445 0.8247755043684544 -0.21118865064682457 -0.3585719154626874 -0.7576628478772092 -0.37976046845975575 -0.8081762939672295 0.657110924819826 -0.8275703673417407 0.23698133453281578 -0.2695932314846792 -0.47586602097365405 0.09396256292208657 -0.9927280753643403 0.8438474959461475 0.7007982865345814 0.6089594089568386 0.47326832293810717 0.3796542018701552 -0.3668443548133393 -0.7302020700582683 0.634098787238779 -0.6499517040760778 0.7623862751442407 0.1167672710425667 0.5399196737550176 0.9588675591006979 -0.5925731808608692 0.16205785088087957 -0.5517477518710187 0.8832296269969147 0.7849026718855217 0.3445667645920681 0.36526361832054155 -0.6035849157037478 -0.5428675426705811 0.7311491484001389 0.28247935395086005 -0.39299991399716006 -0.5469152864991326 -0.27998312386686486 0.07803686738887206 -0.1360810544652784 0.5762238942636548 0.4807739482988675 0.9168059273260393 -0.9887337274910073 0.42393012389316476 -0.7651714722337706 -0.004360201936749066 
-0.09831791101158327 -0.26939005575461517 0.2919607545366669 -0.08715648687696664 0.035479517327999574 -0.09464618565837046 0.9809411509281664 -0.3882976097388357 0.29222374541993457 0.5920136104070683 -0.06800404179249453 -0.9814440073479711 -0.1936308194161502 0.04012358045179309 0.023971686799855764 0.5592854873021383 -0.7730447809302199 -0.2775422225369253 -0.14476180834633 -0.4670482873910984 -0.271598314523095 0.7509192578999284 -0.25172662836890436 -0.5011490395916594 0.45605353329502707 -0.7470931246531458 0.4621611965041308 0.580507524348102 0.8349347950819452 -0.1733993059611192 -0.7181697282210152 0.8015258275889523 -0.9874511346118513 -0.2047589720740608 -0.3749823803672303 0.2883956473638865 0.03746985128957124 -0.32564287472652803 0.8223101690439162 0.6585036087494508 0.674306251097454 -0.6080041798028974 0.7954932487846675 -0.8727660473072696 0.6907602918018155 0.15500857582331126 -0.893514438694971 0.62346639972 0.21386842448569654 -0.20743844336314354 -0.05694021595121579 -0.9410086882356571 0.4371094589365929 -0.26768652324773917 -0.3291564554260856 -0.20052925962312618 -0.22902338954727977 
-0.8444972991669508 0.4246392684020175 0.15061779192979285 -0.2203132113584325 -0.45378519351235475 -0.8538018277710239 -0.9862601368173598 -0.26977143825423183 0.14053759231757312 0.9346500586794244 -0.32799222450751264 -0.9633626765904955 0.3237025796386657 0.36317562065857173 0.2704898992301063 -0.848954514909605 0.4514526140459669 -0.38671383423727934 0.2632967691989079 -0.9623744376249194 0.7351022528106299 -0.8743838687393811 0.7243570536794881 -0.22160881082722728 0.8160084006454766 -0.02633731557212249 0.362517033659596 -0.8509701918782869 0.24430880905294017 0.9126201946760766 0.7886126868590715 -0.4268733975166501 0.9082172232331567 0.4809100682931322 -0.643384940427699 0.5026245715144566 -0.5926233388502954 -0.694300875255736 -0.5151560302384076 0.6926493890307416 0.8590996912773028 0.20224699005609925 0.6386826132743524 -0.620882384403823 0.04823755783935411 -0.20948277444766975 0.9350532337544126 0.5116326159041655 -0.47564500534405907 -0.7441314072648142 -0.960082256678445 0.9149060260723835 -0.6944706577664517 0.2977023660776517 0.4514825156991458 0.5764716614017215 0.08729071829838632 
0.6019891379893134 0.8422941844361729 -0.5235385005685951 0.7324514585548183 0.3123655038812425 -0.1952262435978101 -0.5651705886194641 -0.9547254129474506 -0.90047746632075 -0.24130510017825313 -0.48553697638272886 -0.025714873541171534 0.24421043100975542 0.4460525793152524 -0.4206840731717268 0.1305104339254361 0.16567257454960882 0.7380201436270577 0.9397692613968629 0.791175987907272 0.5657358461696685 0.1560078019591038 0.4205262285973737 0.6994232105974774 -0.13544998986748458 0.26219776653895543 0.1548308195556869 -0.7513770274699298 0.8014868820164155 -0.9766214738058626 0.3074255560183788 0.4038812254789483 0.9441916222616169 -0.31469360733757923 0.8075151246437251 -0.18944169188711676 -0.07338624139281813 -0.3217777439888128 0.15374394622244403 0.6433007410434246 0.6029784875301747 -0.873186617435098 -0.6294692392344257 -0.593962555533466 0.8968190411539883 -0.5966942672147876 0.3189832412618633 -0.4142499282712849 0.8655944944130387 -0.4054736201981328 -0.8645533226806019 0.1893334942889045 0.7775162397611421 0.6240524500331558 0.3014337250890925 -0.712059513798362 -0.6153887765285125 
-0.8073525450079311 0.3550966037140466 -0.030097989122415125 0.7028386867994157 0.1136841702035008 0.8873987641420734 -0.7211442363571972 0.289625044782879 -0.465669442971157 0.7610808453127229 -0.4653910394341363 0.3124878226940336 0.2186736058540251 -0.6997512916171538 0.27968457678654485 -0.9485974474337081 0.18611363885416266 -0.9841297903432278 0.7719106188701916 -0.029430961331824622 0.9760354181815151 -0.8484074770760193 0.006275003409958179 -0.4747620096643431 0.04713628550196236 0.6826182994572767 -0.03642408698690924 -0.9544980713277889 -0.49972347263745487 -0.2564167601553837 -0.12799889060327357 0.8197560240805585 -0.5876395726752739 -0.17730546987716056 0.7519701060920547 -0.22557966068550117 0.6518882624366102 -0.6951963620436417 0.0346347349913574 0.3458346292717701 -0.2198105792934668 0.06769082352158673 -0.45609722804060593 -0.8126194533247851 0.35501235702213085 0.09887218506540968 0.905177046606057 0.46299863810849895 -0.9041778856192593 0.8528153098391447 0.9645498729986173 0.27394666392126765 0.579620320074223 0.5643776269617198 0.022843130220265143 -0.9522496165042446 -0.061873511681402225 
0.34831547435441257 -0.5936996583403373 -0.845956974587009 0.7787197578299383 0.45033732379592767 0.6538351365357118 -0.595837438701248 -0.2500782229181907 -0.687999648274441 -0.5047893122417768 -0.04398570355066678 -0.3161294234785046 0.7445937233125971 0.47895403698084643 -0.4038070915166616 -0.7614331651220004 -0.8352433818197307 -0.352055200126999 0.8237024465361338 -0.2790779888800021 0.3054656706227267 0.04207744156041719 -0.23617427421532028 0.15678692883098794 -0.7148617900084524 0.695365586545055 0.34195220637999557 0.9304692649975038 -0.5768683469873003 -0.9073958330718495 -0.10089759376140267 0.8398720520762694 -0.5443109292506734 0.9823617645855034 0.829740555057757 0.3179870022881615 0.1347159243034379 0.016430364193324273 0.15764598157626974 0.5829589522609475 0.9766758962475512 -0.9547837959838683 0.7707736860526382 -0.4285690392432409 0.3990703289976827 -0.6714162070853764 -0.9721745048412525 0.5399490905020814 0.401107857606279 0.26851294916715074 -0.10554928153834653 0.4852441348258305 0.574507959220602 0.5519405341287024 0.341627588252547 0.7847412802985764 -0.1773999250199133 
0.31648281955957214 0.23380126119628408 0.22174148711521502 0.4970958638373643 0.0027159784122386212 -0.4775223851200932 0.06511616158795534 0.4839738781555229 -0.055017349728055276 0.2818054140558517 0.7124504044201552 -0.8320979817899454 0.6753433377810463 0.854432087276139 0.1097003263224615 0.1885380504616578 -0.25039390977866316 0.575285168792399 -0.21061591857955086 -0.04706574594118578 0.31779628717170777 -0.22050012358725626 -0.2491276568112257 -0.22523063474807253 -0.13988446913101327 -0.41169098168277296 -0.2564473797558773 -0.5276095189043336 -0.6518824711630065 -0.12023618994552851 -0.4121190495645992 -0.99908957134864 0.9856954275745133 0.399656697491483 0.7540419502752524 0.5595566773990385 0.0010408565437182618 -0.9551319448516459 -0.2825524772561234 0.0070199932237201244 0.18060263994999937 0.6830158281128611 0.2805814356598444 -0.8110039279859564 0.5579271476782317 0.5488144086729078 0.7196154339973994 0.538601528127643 0.695654884275563 -0.5152161742019581 -0.7975400775958019 0.9830213584648273 0.7836101027612059 0.10828320715301172 -0.9491581592774079 0.47045168892449757 0.7482937129991648 
-0.7530393680174294 0.41731140939298705 0.9982699365568652 -0.4998836263856366 -0.7219604157025787 -0.20722941503446382 -0.24905498249314173 0.48841982907666864 -0.365832814019722 0.7348127899526817 -0.4327618082438449 0.5520592417505102 0.4883944007828547 -0.20159530100565204 -0.29705885166576473 0.22360308077697058 0.32313825606274316 0.5276678997021962 -0.7647826764419179 -0.11345143438403525 -0.5672209074011613 0.3371568288855368 -0.6075054374109432 0.6719297784748318 0.48587800207619236 0.03292057547170657 0.2394279228024001 0.3642657690721273 0.09071347965167685 -0.8835663670824884 -0.31679331332576144 -0.9154880970364547 -0.5135978859067367 0.1477098956233689 0.3571963329717096 -0.51856494802665 -0.7368172892061641 0.972627839936153 0.3397477288881206 0.040239580712797825 -0.16290929031500911 0.03576395605680793 -0.0549541699425371 -0.901169384901713 -0.7948719622147449 -0.3386742316066072 -0.6207159683969197 -0.6814123032484891 0.6862215746682288 -0.9902050347058902 -0.44859642318947457 0.6589305844985475 -0.9539300960220954 -0.5102195060009375 -0.5224371623169494 0.3323137253496164 -0.25281858811779195 
-0.5016337472337922 0.6974575026448633 0.41660826124539985 -0.4429618051332345 0.18258839346344227 -0.09744917598283709 -0.07094258104122932 -0.5888982492718239 -0.7827195458748542 -0.7304323700517803 -0.7818850773224917 0.7448006499977001 -0.6554566299921503 0.2657953737673687 -0.9085896642604749 -0.9907059225242351 -0.3100443473755017 -0.8408746687601958 -0.1442892220733314 0.05264935300061455 -0.3280370045035714 -0.0124700589136816 -0.9514860493224142 0.04866299182863885 -0.1354079583964234 -0.06656075891021551 -0.1255139148879303 -0.3031455181006164 0.22755866574778508 0.5273182886716381 0.5822860295536608 -0.1158705296532755 -0.21338840883626498 0.4537008498434212 0.9920041433297093 0.49958878985525673 0.08312822380725449 -0.32015550933450304 0.16825440945667552 -0.36375290523901505 0.8906637118907761 -0.5599266568798036 -0.1015916364933116 -0.6560947234237322 -0.8058032124023833 0.9254623406836104 -0.06454778282555522 -0.09738261467387042 -0.3521689690831016 0.23999203919359635 -0.7676353137867513 0.8874124183356416 0.5024426566215633 -0.6309133340852606 0.41617733515736555 -0.6462146059683332 -0.11731154054331656 
0.7189949364079327 0.9272099829681095 -0.24543818835548037 -0.10874339010614706 -0.0765328222639526 0.3062881642189113 0.4134519845374143 -0.6182025585551942 -0.9833359704786626 0.05306591705238617 -0.18424769002903751 -0.3669515273067703 0.09164259818724353 -0.6559854647804604 -0.30441875269411783 0.7058547241952747 0.37613994832026987 -0.7320816434880242 0.28343146310482603 -0.8540160078770449 0.7754993666635329 -0.0036958118702008626 -0.1602099086307889 -0.8186211080501057 -0.15781093790297374 0.032398676112133984 -0.5106481584133002 -0.7215026263921956 -0.830351929283692 -0.7772343426514797 0.5588547166650265 -0.9375292780478333 -0.6165234714382817 0.8547306192508868 0.4841359553043314 0.7134704240701888 0.33612178938162585 -0.137158974713307 0.8940418695397057 -0.19602668092949557 0.8510646180493313 -0.23328473755632673 0.29332934420943246 -0.39341903756355523 0.9256427533347062 -0.20524024713754666 -0.007443628329191384 0.8830984732189788 0.4162880639385287 0.8701704229522067 0.3687430347595855 -0.9448072682696887 -0.9537118788123213 -0.8852535520516986 0.4240900612735147 -0.9914131384085332 0.2541299188593374 
0.8485789585699894 -0.7859707684390926 -0.8044384615592102 -0.02556035338080761 0.7826433958271759 0.03170207821931073 -0.34941062171532733 0.7170430240288493 0.3016201164277805 -0.8701139882928073 0.17132698495038778 -0.5613969922161456 0.5773353462925472 0.9488768103486757 -0.2972991832794271 -0.9043203198410193 -0.6642159599779458 -0.11606662005723511 -0.2920547091385888 0.306962921597104 0.7589199675403974 -0.40851389785413333 -0.661932060067454 -0.4705436469780897 -0.6223775606165223 0.008222290582170277 0.05385929206376616 -0.3054305644589773 -0.09684080497322799 0.914356599320538 -0.18198068728626313 0.8329146416853672 -0.2845227933401233 -0.22648600807646613 0.9399380103364292 -0.19259026068848284 -0.05693140023935837 -0.002714693196935452 0.09688978365485412 -0.20327120717826144 -0.2623405744239107 -0.48994064808934934 0.47502800928969546 0.6533624200390208 -0.885097142454066 0.18575999726315803 -0.8287408735362515 -0.5416950101691594 0.890750123700812 0.21433741515098048 0.666872745760831 0.6594323309454226 -0.21613461646272328 -0.6016199457571464 0.011013749600777927 0.7275050465384011 0.928024204460301 
-0.2874722340925888 0.3625538214806856 0.43744557847041254 -0.6619779082752809 -0.10711773936694662 -0.07081944267243444 -0.9286926049458504 -0.5548378367014509 0.6172305369264597 0.24387991225040984 -0.2619084751014591 0.21682755168149856 0.8694617478975666 0.7167792435079493 0.8935680979142544 -0.9141582079412097 0.513166829421255 0.44044259678058895 0.8526737805744458 -0.37473734990386354 0.2657047293569778 -0.7787839890207845 0.13101562821547966 0.2247239033327376 0.2744122918685976 -0.22633786150568125 -0.9715163923764478 0.026732344773553556 -0.6411591844850334 -0.4300259677348299 -0.2535089776203306 -0.3778537584742572 -0.6918910399119889 0.28511723231114017 0.8625240006019472 0.2812400192010996 -0.3993180573182665 0.9535112105389494 0.4533243827408018 0.7730110933454338 -0.657324141548846 -0.3612817739338412 0.7560857724345573 0.03886851269414943 0.9604746768650941 0.784077885655627 -0.42639129789112445 0.34642858011059485 0.5583021208301049 -0.005626121670095019 0.7949429018887602 0.752084498215637 0.8411402497266997 0.5285073548653074 -0.5646799537780087 0.7222869667219137 0.6003217937663602 
0.666694380906885 0.7392539586910787 0.7965062555397653 0.23149195121282404 0.31571539835275775 -0.9193426985342124 -0.9536592738518237 0.16084902874035734 -0.8273874462192563 -0.7073031952303774 0.4192504704353872 0.8107581631747578 0.4959525102351002 0.8229089803356012 -0.8080962786180504 0.7046515344424844 0.18435104353247111 -0.6496073717266155 -0.5998122320665733 0.13919443682605498 -0.22459629777144852 -0.3476447668942034 0.6141607944043699 -0.9757850325512534 -0.9184361647644044 0.46276336372063587 -0.6676031155974191 0.5185667676890529 0.17920045943792928 -0.6694245975152446 -0.0702642729097324 -0.13244036171957987 0.1751452444958761 -0.18929136794740553 0.8759650790290596 0.7316591103020135 -0.375004473563194 0.6127368830330754 0.02945318301306224 -0.09835787256810526 0.16317117038793683 -0.7869565605129243 0.2887782539591994 -0.15635379042371125 0.6353117620810003 0.9685112345949909 -0.14639401576999833 -0.6044864440561607 -0.8676392407258668 -0.7983263856063414 -0.2812276094590689 0.58040492665547 -0.31393564898774773 -0.21465226959675215 -0.23239943957117665 -0.15586183525469388 0.3057037931937275 
0.6229635534421452 -0.8828046251108712 -0.5696049393396754 -0.6973964210903993 -0.8634838889176333 0.02200548451217467 -0.24642989143989613 0.9519607062145058 -0.747278348349171 0.24705583417758636 0.2896228717611391 -0.5722270823393627 -0.8317054552190224 -0.144441798762667 -0.7655948701376829 -0.4183778028256536 0.8068295893949453 0.5721496029169688 -0.2933832766409694 -0.009574477901217042 -0.898674821339181 0.5772450480609279 -0.3945685569563062 -0.5234197842141344 -0.07789744376469931 0.9479023306078886 0.014265418604284985 -0.33914523540705177 0.4419197035438606 0.6025941713373972 0.23613448732019948 0.09501828587321459 0.5000656881593895 -0.03978713625168573 -0.751892360385308 -0.5388142948904407 -0.2199882428045868 -0.014821434739808898 -0.4182603690799936 0.06615524960277326 -0.17812969239176812 0.5636338703451278 -0.8051063632169659 0.9372118227093353 0.8246632753971155 0.956561899196523 0.8096292361171405 0.5546033789944524 0.1109060355635425 0.5552415532643722 0.6022397810445717 0.4094843503140126 -0.4650269675138435 -0.32124101100695984 0.8359400011161219 0.7809358437558452 -0.7290703406344081 
0.6420249766866888 -0.8348766594659256 -0.7269383204771076 0.05799558413315864 0.0247005666153737 0.6985960808384408 0.42826872697814156 -0.6958137488920458 -0.42314117736112267 -0.8428500529767737 0.2958091482623484 -0.5815098661652527 -0.29221801903624106 -0.23808996644105582 -0.4759063141774107 0.8014693062440648 -0.6052965461175266 -0.047182284100414584 -0.5281248162532051 -0.2313431287289038 -0.5311593422976929 0.7804546152371068 0.20768450926704615 -0.8102356792853733 -0.7915334068740674 0.4095393615582459 -0.2501715803773714 0.4014341652901379 -0.994390395394398 0.2562871065718121 -0.06457668212952854 0.5259737135782406 0.5765433979434673 -0.9886866675166393 -0.20146565824478824 -0.14489559820524206 -0.061348969711354825 -0.39838764629234474 0.9849920382273049 -0.14086252359650311 -0.18118514955533205 -0.859108280973869 -0.3587064108519724 0.1929551006210438 -0.8896242123919493 -0.4842403567618468 0.7344305181922534 -0.5663621897119782 0.6654220736272325 0.6155919068045428 -0.8901689366304568 0.5680713019064253 -0.5491864190682448 -0.21669172571312476 0.4453818657909715 0.0849646706248496 0.1817937411329347 
0.41290946559025676 -0.31996092574268253 -0.5001706326452371 -0.003713953704030888 -0.0660707774757422 0.6186784011331963 -0.24883177224891503 -0.6651074612356797 0.5430377606779289 -0.01626272797290751 -0.9765382461206167 0.8055984512152622 -0.09949676386092986 0.8193367074485334 -0.1347140579203101 -0.18779279896853465 -0.8669389070654967 -0.045460470416207155 0.45190601497697336 0.8512720474101378 -0.1819799716871207 0.7429387808891421 0.4261633657624157 0.7258277828206694 0.7503950036513936 -0.5570486892757376 -0.7751359564097311 -0.8388137318271733 -0.6155694941538319 -0.08747654803493894 0.1642350380184352 -0.6170536293067665 -0.18961153742866177 0.7475984199174879 0.8114578300196296 0.6119555405234284 -0.7184449174213478 -0.6394526639519653 0.1094412608539608 -0.8048661972769064 -0.4282634851186984 0.5819713405627291 0.8133654957151208 0.4718396523938057 0.5814451269629493 0.3988715079362806 0.9787915413297104 -0.15176360900784663 0.012284010508824883 -0.2275355152306069 -0.02955174135917593 0.0657354016502247 0.5654758409665152 -0.4271812420323594 0.11473130273338468 0.12096600139232329 -0.03837931428409068 
-0.8489661467787464 -0.5912877100041392 0.49493394614948527 0.6067323753432697 0.4973460723222114 0.46591139541741555 -0.9307818666887107 -0.3361002767110294 0.20804114805389462 -0.31763117276958064 -0.6401356899459025 0.5760392028505001 0.7666347492491448 -0.7479534054821545 -0.4570389705709847 -0.7299451059106667 -0.07651317720517592 0.053316759492233246 -0.4771391883539027 -0.31168965475030874 -0.5705817499166823 0.732159049603622 -0.6868034067205223 0.8767624480838155 -0.9688266398137333 0.09902946599121965 -0.9493290819659801 0.9800992474728275 0.6183310944696253 -0.09618837699979052 0.3329575628303326 -0.6934069092629772 -0.4996620280688313 -0.6906752237329585 -0.8458005156650206 -0.03631962953995459 0.5411933771190921 0.8752036938553784 -0.4472974680903648 -0.2804316909543341 0.9470857502031447 -0.7450300425271377 0.5942776580769 0.3033270224885494 -0.0743272739670671 0.6584829115956974 -0.6806389060882981 0.9277767125054368 0.6787698616799855 -0.728759612648922 0.40061732317509513 -0.03827727752681621 -0.8499843512453106 0.6412854368840574 -0.6531560688478646 0.9715560807266443 0.2491666482035316 
0.5331183470969103 -0.5103426922306911 -0.7346006884971781 0.1674356837069186 -0.8191911390729246 -0.8378777970797799 -0.5352228615193256 0.25647594341587165 -0.048833608551293706 0.931096127309232 0.22841625339972604 0.33872369183978673 -0.21317751113535213 0.3834293908602464 0.6115823640685765 -0.8527611038163045 0.14234367156582084 -0.5763235140234686 -0.6171620508425952 0.24836839508810474 -0.6457435634552171 -0.8280988752913684 -0.9332705356537828 -0.6373979874971054 0.5270859354857986 0.7261266965586763 0.8226531524201559 -0.18369586327913562 0.9480468963633094 0.4886280528496687 -0.48827622351596134 -0.10999039436848597 0.33430452323118054 0.4708283715799708 -0.9512613131719256 -0.16067383014926082 0.9413212426681071 -0.6150429472779729 -0.6481319600514898 -0.3544733772167783 -0.3369726578597678 -0.6359949233064162 -0.7347229342810062 -0.1628559413145365 -0.6420285262920151 0.25866046748261773 0.6326172101847412 -0.5126547748226714 0.242956919830152 0.08285946065332794 -0.27780747240014936 -0.5698287340409889 0.9222772818626124 -0.7480211874717755 -0.13501021704801264 0.5637290180061633 0.42302256030515756 
0.29184115237408137 0.7392391669213467 0.4727633202734396 -0.582285308042969 0.1286129959112305 -0.6965102446181551 0.171067267582374 -0.46764508283348744 0.43667355728992496 0.4851946470867008 0.9012124170857618 0.5631150153604105 -0.6182876225548964 -0.8894730187611933 0.9256347659598336 -0.5447940329862071 0.8776662551764614 0.4054474048829322 0.7003472080010864 0.7295309235915415 -0.9038772206628786 0.033210024323669464 0.6306538505014692 -0.6555648711688028 0.1130639924304857 0.3010588181741487 0.5264630452356205 -0.6058114766096171 0.6745096124447966 -0.9769456193996684 -0.4926752315959067 0.10220953246903923 0.44781958583479997 0.6739109261009677 -0.3537910641435873 -0.5603112197993415 -0.6430460063896563 -0.38492899431525296 -0.3104548124439333 0.15135800486511067 -0.04340760668834509 0.3961946516352586 -0.5754499717251378 0.776629638941777 -0.5760784757005747 0.9437272899608883 -0.6051744330993136 -0.8090213528789126 -0.7445834723510418 -0.4330902892191588 0.5377518878873409 0.32626440259053985 0.9309517614036783 0.441305731607837 -0.8497428398690013 -0.36081708744773205 -0.7356022869562241 
-0.5770613359698191 -0.951230088061094 0.8210425126821645 0.08722440003881886 -0.7086243270796839 0.7935497960920891 0.3290099697057947 -0.8357052746998923 -0.19777052622191826 0.6152974345032813 -0.8420205076874221 -0.41649489605807866 0.35131536539560065 -0.1343586513795316 0.8209371713073763 -0.8998367821373425 0.26047881180987975 0.299469112225512 0.9858819721566072 -0.5606713555378294 0.7491330547525997 -0.6668715999012483 -0.6651194513534598 0.27938665783871236 0.38702154765547814 -0.06957101973051194 -0.05874900802088279 0.17716478379348533 0.22115538906404397 0.34377940189624606 -0.9935806617348172 0.02666663311367348 -0.46353132745909 0.6203397209614325 -0.11807491973162554 -0.7728791477010657 0.3454764906874683 -0.22059084372360202 -0.363601203091439 0.7485756739563194 -0.5081126334380357 0.3460106181888565 -0.023828111263870078 0.44491753035622866 -0.7156998983037706 0.04445948217417536 -0.3221768715496197 -0.7204640768971136 0.19995961710030596 -0.679314470596108 -0.8697095509847554 0.6615396948411105 -0.23563131222293232 -0.7857995001852707 -0.9581798108840002 0.7907603602820171 -0.12092567123624468 
-0.47740609133942913 0.4699380321914524 0.32876566128957546 -0.09715894390484456 0.06359528278464759 -0.15139765170022504 0.8179947626105555 -0.30037509963215436 -0.5350702826642515 -0.8432386110137692 0.052149908277944135 0.020782561051286483 -0.7573916350051154 -0.18469054340417154 -0.19003796165897852 0.06855656653460573 -0.17980547009051068 0.017419732353455102 0.8797320146736812 -0.844733244763104 -0.7060497951483127 0.6691616518539536 0.23803619096612488 -0.8669237994562209 0.9907082968516643 -0.6029984460381109 -0.7224586929662942 -0.6365537712184491 0.608052012623057 
-0.47310635941709955 0.08463264151693467 -0.43081090361676394 -0.7861944201860261 -0.6044411758253173 -0.9487212443371953 -0.07467522811637169 0.018344731481370658 -0.4986047427145573 -0.1018081910516343 0.010810816725288068 0.28678193635256477 0.8480304185046178 0.6476997371460266 0.9702525724385855 0.4973839007180153 0.4616875495748986 0.7528043370489005 0.9674995634848643 0.26541643038760765 -0.936923112728174 0.23831423507649213 0.7879648318210983 0.08682657123378401 -0.6252152566497416 0.9162145956814113 0.3225709589590126 -0.48499376714909087 0.1309416481976831 
0.6233506097643288 -0.15831414833134974 0.3287867830912493 0.04193551381938089 -0.30109848483760626 -0.010296566409549068 -0.7612675762258229 0.16237782612715054 0.8351089135328734 -0.7480159630259553 -0.3623545394659119 -0.11616668008582878 -0.6709792682857454 -0.6520335199612803 0.13983221151686026 -0.5767618483385524 0.08937088959750933 0.227481022341689 0.31182836478278575 0.5967085470389182 0.8293174635692816 -0.7642853477785725 0.374374548328544 0.7672423172103375 0.028592610946326306 0.862623454364351 -0.825222560565202 -0.5367510442564257 -0.45249047260225667 
0.6235426051429173 -0.8099055506388435 0.8780078480915718 0.4734247532293042 0.6472381763300079 0.8813493345644033 0.7900491024471517 -0.9825194332382206 0.05453101695920527 0.9514638569100347 -0.365831350092688 -0.31219137426672183 0.6824241729786799 0.40619830730002027 -0.31504823157011835 -0.5416645955047215 0.8359583445272288 -0.8965770555367586 -0.6264810755704172 -0.5200900826509757 -0.04713632403830953 0.8986205196013133 -0.09673539669951266 -0.40163110887071024 0.9083689023959124 0.8168803124912812 0.243967072591445 -0.12342005737286288 -0.33965303146736175 
0.40331937870412504 -0.9948716502004487 -0.192818096129404 0.9567321531753137 0.6122663853766893 -0.5847301191672207 -0.6433290927084662 -0.33805795898043073 0.16787088943696635 -0.21204855085650542 -0.7593529451300423 0.6270554907718056 0.8317601846256985 -0.5892615721471993 0.9504712808544189 0.31544529070471033 0.23954818139157444 0.4109972003082288 -0.22578735237782474 -0.21374038161766581 -0.17708322465028425 0.2696154838591909 0.02804580297922081 0.2184527526210895 0.5535511053039552 -0.682462334654264 0.17896127892396965 0.16273568758425408 -0.7170363058881102 
-0.1657096199613928 0.3906506426159122 0.5294822448708972 -0.5469646957987522 0.9406927477788161 0.14797188402778683 -0.3490057947100743 0.02579620911585809 0.33665074475474105 0.788329345539023 -0.4440234861494944 -0.07596816711947829 0.42283933771033294 0.8123557165965718 -0.04582951811514139 -0.30651773618484046 -0.36576911227561704 0.4525358259747395 0.33350078810024236 -0.22540194438128666 0.07692505459782428 0.9977489279818513 0.535964829349618 0.20341429943272885 -0.8763469331162634 0.314091220076906 0.8738447953536729 -0.867971741003237 -0.19237639881322982 
-0.7133423927535028 -0.0880037426560479 -0.16373703238916726 -0.8431922585996386 -0.68504091045636 0.9577613713980822 0.929828724298286 -0.381282404794575 0.8551175507256444 0.5553025484325695 -0.9710433151888389 0.13046120759789712 0.34976718482069863 0.1131411954840549 0.6236721804098166 0.401640553488378 -0.3991544356268871 -0.38724950119329205 -0.039773329839922995 0.877763947685268 -0.2676689639321387 0.44182487026564854 0.6240600697834173 0.8112295269537245 0.7727327710428221 -0.3342714976935984 -0.4063066974844309 -0.16398200518344466 -0.22915613594710807 
-0.8826529468935127 -0.05602098082699399 0.5578315307889956 0.5976924660065778 -0.9035210860762096 0.3755982039594114 0.6256078499115695 -0.33345285535489283 0.6435327959407816 -0.20749253106261328 0.47303632392150047 -0.4601427409851805 0.4275829007064154 0.02877164350511956 -0.18690950020191646 -0.25328492355835286 0.04374401417090402 0.009688299799342921 0.18214986833923213 -0.2735053220214589 0.3540288791896104 0.685237745762619 0.003549400568735877 -0.6425226198770402 0.7741988135657203 -0.9815117408406556 -0.1312203529702249 -0.09808092630269884 0.11875873795912512 
-0.22558206416860208 0.5470952509456095 -0.8897296690280445 0.5923995450269616 0.5675474488695363 -0.6675655805747854 -0.256864005792831 0.12760908109372687 -0.1639908828241072 -0.254383693885467 -0.657133145405626 -0.12151811754193795 0.2277967476593374 0.8103358544347903 -0.616387705834826 -0.22626055388001454 -0.3102952250448948 0.8883055644148099 -0.24110712702863069 0.7426921055053974 0.4726523193888774 -0.1458208354388985 -0.956316076767393 0.4656222620264742 -0.019377311461867313 -0.39060522239292567 0.45285249573256464 0.05541091962052579 -0.949282368961037 
0.8433504569872643 0.23062379734041777 -0.9497002584508082 -0.4925788661696488 -0.7673588998802172 0.47546027512366706 -0.12631838652520636 0.985028189308293 -0.41268029693030567 -0.5349410216496885 0.9670661640127388 0.93014613577159 0.3224226058273909 0.6661992326534699 0.8958003265882981 -0.5411262967812306 0.0015299819333720397 -0.027667214748520533 -0.9058788835174109 0.39051758937642717 0.4686876814310337 0.508612880975426 0.9651628544591853 -0.7089589903297568 -0.9746957196572178 0.9290763722718597 0.78772631300916 -0.3047833099544266 0.17210801425713299 
0.057200947280344736 -0.8397168677700039 0.8245236424877874 0.03306504004395218 -0.6796799284237992 -0.5602698595284233 0.9922656217840278 -0.44764824595395925 0.30398853163942413 -0.250922509836004 -0.07560779231679639 0.276371385407822 0.6531441754351514 0.7523778457211371 -0.6491620016142321 0.43770527358406836 0.41438129137429 0.5752584427640718 0.6699632706352726 0.28463697969747714 0.2963547437326341 -0.3839064527931938 0.03380772284260664 -0.757468298365088 0.032189048167916366 0.47785919827550477 -0.349896947662817 -0.7083791180919746 -0.6724365789299692 
0.2522618318474339 0.12763704365325274 -0.2697768044659448 0.6607123760792433 -0.0028934097835393393 -0.22900942371164296 0.050433634230352305 0.6887390386951804 -0.26546342122259775 -0.05324953001779377 -0.45023070164274825 -0.9436578000988017 -0.748911490784996 -0.5900016451798157 -0.5021506300458525 0.6413283356095397 -0.4292382944548028 -0.41669096963818325 -0.4390314783679778 -0.41103694382038924 0.7917480540562247 0.9593321779262908 0.8328258623431066 -0.20026136214394258 0.790768893310706 -0.4738900507730723 0.1622362021943862 0.222415042297289 -0.2781015514680894 
0.5510461174909169 0.002301319745261442 -0.35012248252723155 0.37076791590117203 0.1882192094662941 -0.6742323420707779 -0.7104718874622981 0.7584709522203594 0.7106414426456088 -0.19885233606713396 0.8946207584534334 -0.41112335113005466 -0.9459381721512191 -0.2565764684602754 -0.3863867155746738 -0.3982866027571512 -0.10826994984653128 -0.28959456201857525 0.31290269661120584 -0.8841658708633232 0.4197866993921521 0.5025359551043536 0.2310685025323262 0.30426159232393074 0.023809492043517098 0.20683154752766209 0.4906816087463157 0.03411082670552254 -0.9912291719494195 
0.08610948222248418 -0.3157568655243122 -0.20296475565580413 0.5705367784443891 -0.6676278780412933 0.5975517303334168 -0.9050868526311927 -0.03633016414036619 -0.5205822661321747 -0.7461604787256555 -0.17992352376191373 -0.8517133699956326 -0.41389707884552024 0.30339289032157524 -0.12541758433698547 -0.0071784645631289765 0.6923900273467655 -0.168425447745567 -0.04355774905650063 0.9776366821371877 -0.8469624483916807 -0.34273462003270716 -0.2905797753057683 0.03951268575768882 0.20765698242525807 -0.6795178486116705 -0.1540289466196551 0.12881869452942726 0.8764301864159847 
0.7687465902701985 -0.6567921788134014 -0.3952788493001896 -0.3056660033611338 0.5159987650155148 0.5567033932168133 -0.5191531685832859 -0.18140923584617707 -0.33578778168583556 -0.15883400778564952 0.7776073451331326 0.7794790495310688 -0.5492320367801136 0.47498888452458965 0.6055947211812237 -0.38692440064408656 -0.1507857915288084 0.7838347506126185 -0.04529546725534008 0.18625512287493562 0.34659407575649426 0.8649477520151533 -0.9400926142293992 -0.18907746795304808 -0.5914558736350084 -0.7707894970911194 0.35468945117634126 -0.6333151512842565 0.9585702563507836 
-0.550803281831514 0.4301475738778016 -0.888531436327466 -0.5829673776880802 -0.47161356393142256 -0.41487019878117876 0.17625444622469916 0.48108150134542954 0.8105591415456541 -0.07829791845619515 -0.6374257419498891 0.3745604180402707 0.9388199949561117 0.09094614510302716 -0.4853671467699732 -0.9305601622705405 -0.7490442726424061 0.6242543253317131 0.007038226675772498 0.9269889646458013 -0.2695206402705213 -0.6752610824426125 -0.5742414995041509 0.7112867558061943 0.9576428826136965 -0.014577660418528164 -0.6222483851511281 0.8783688506331763 -0.904573610029494 
-0.7449235937426226 -0.8254343518765991 -0.36849955453939004 -0.5516188862869432 -0.7812880988603584 0.7147040322871774 -0.47446981822639944 -0.29840387598290424 0.9750980694985679 -0.46725752641559964 0.5738217157996286 0.8330027861037579 -0.5483959904312926 0.3465302360569066 -0.9072883145610239 0.3271539752783265 -0.23663328492708688 
-0.5118215753428595 0.3947303014439017 0.8798360748348134 -0.42590127815911777 -0.3032442271583153 -0.25958650289999113 0.5235273531747553 -0.018187568363352086 0.35641056307718644 0.369785001039435 0.026142034825655257 -0.27048170333875204 -0.6688743568421867 0.22600835990291107 0.4394869267791514 0.37082306077473226 0.5981842438281236 
0.7615162627161924 0.6938233769631692 -0.3372345331744855 0.09254053524040258 0.13677145943221214 0.3343800966526992 -0.06300615807028244 -0.7524088728741177 -0.007919915390790512 -0.3606137383978825 0.16801655258908615 -0.9783147288622636 -0.9650991681515262 -0.9610968513480597 0.22449327750867706 -0.08161429375033825 -0.5922840053220189 
0.547133923372873 -0.04317843190635088 -0.5787663649144462 0.07653274129489923 -0.710815972622706 -0.900984144360651 0.1407748190624184 -0.7471874860363237 0.9870433935734849 0.33748113163550536 -0.12234654923879155 0.9459536948713219 -0.2592993842814406 0.8036162143049914 0.1915391492939384 0.36607442231800685 0.6394195016738773 
0.05373519246136094 0.568261824871233 -0.3968555353485381 0.2952557994014615 -0.03514374097728516 0.665286885423307 0.9144613729890024 0.9787231857250651 0.7665063881234956 -0.6062121299035549 0.7131242341103932 -0.1924561146724513 0.042242573922268656 -0.8524960037461232 0.6141454350475534 -0.7887274615607842 -0.418220833724645 
-0.1595335192969447 -0.992036137730099 0.6707345722022402 0.3748277589655998 0.29892120219897245 -0.031433565571013296 0.026503948645792776 0.9157479796384146 -0.5640934465725986 -0.16631745749085558 -0.17858213122474423 -0.9157331655671439 -0.15951685483415035 0.7982705427704515 0.6127818642913445 0.6358682258765047 -0.3462022743657508 
0.14987825362043888 -0.528766100522788 0.012528167270806313 0.2336639767492948 -0.1532355516505155 0.6007019189483542 0.9042194330194102 -0.2978125618048733 0.9928741047245113 -0.9820328010771767 0.22725083224997808 -0.012595515336197497 0.21111672704122092 0.4690933690889051 -0.49927711010724857 -0.16923377757860805 0.8802869951949753 
-0.9060368596170888 -0.6444842003766158 -0.9156595978456006 0.29585879372820384 0.8213869382398713 -0.1388230828648353 0.4213336472586011 -0.2183173222777831 0.6047187453620773 0.9403031004224123 0.5514338531099879 0.5361871864052791 0.09519125522018056 0.22009374842383145 0.624929347795408 -0.29855796067342055 -0.07670259300886832 
0.5629569988590003 -0.5400662862433617 0.27173397131706295 -0.08671134629550993 -0.9945235233199046 0.16981058810975946 0.1636566773830184 -0.1103078052927151 -0.11102908171079481 
0.1425293948931312 -0.502167930527101 0.19738335475603722 0.11670655188744938 0.17500476978529358 0.5787336729227095 0.5981542416928931 -0.5195324034756893 0.6146569043913427 
0.05759826163364202 0.8119619284704827 0.3494115167114537 -0.580313777938444 -0.9091030036696148 -0.4904594104683613 0.6328839382109903 0.7437524432099828 -0.3395563188122038 
-0.9853160904476073 -0.059150963239718045 -0.6093571400012039 0.04386151719524059 -0.6593126342269722 0.9096076163956885 -0.41629750851357317 -0.8175834908851903 -0.10249065801349362 
-0.6600749756579805 0.9847008984942851 0.38933364372103535 -0.38421991168499897 -0.48163009941892765 
0.2337135300318923 0.07210383676239494 -0.06681669688859718 -0.05182696558840565 -0.09892402859559046 
0.5630342847699874 0.13264940699292826 -0.07190798756624342 
-0.482265074483946 -0.9947564196214678 -0.9751446495257062 
-0.6336595479134846 -0.7633083608173837 0.39937841092036475 
0.4455425837035491 0.7046618888333024 -0.3892372634866311 
0.8674525915138058 -0.8791935567385151 0.5776429542396256 -0.7210710790035763 -0.2953112297401769 
-0.2055847220569585 0.0907877899788575 -0.5070964609542242 -0.4112561118467595 0.20037360327891834 
0.4032509294348109 -0.09050386002358152 -0.9837063418688837 0.6754821213535714 0.9472195469900767 
0.9473973315922452 -0.5179416897812 -0.42961041278631723 -0.9081400123496401 0.7771569430768537 
-0.06076946955646016 0.9360716445726796 -0.4743280381319627 -0.0457473269877283 0.10252522046580884 
-0.898440398763027 -0.1890706561058058 -0.9374736503732398 0.8696565071290339 -0.7479509482883999 
-1.02524917358335 -0.3007688436521296 0.0610050326127399 0.8332495105133196 0.2880820832701204 
-0.814593021650124 0.6471870841773638 -0.027491930922076406 0.43801875759028597 0.06521472887882672 
-0.6909954582060333 0.3547716372416036 -0.6300072824030709 -0.09246059931675939 -0.5911500257676784 0.8261605157491337 0.07914406371395828 -0.8451127547432096 0.08036585328739058 
0.8783906432594749 0.17618527973050774 0.5280220120198903 -0.07787810963129696 -0.9209302097351451 -0.9796744682259582 0.595080123852196 -0.0372854948815642 -0.9394579187338697 
0.4101346653055149 -0.8789710345211492 0.5350395596527926 -0.6324070760366686 0.3368902910498452 0.3793727245968091 -0.27107436134448176 -0.6731219316270013 -0.3460883378604123 
-0.46680477239365364 -0.6464920749542958 -0.15678702802360162 -0.9603086127294219 0.8074394984433254 0.6872950555446401 0.4215957505468077 0.24271453298876128 -0.9935760706787626 
0.307427599955413 -1.011942160779627 -0.7371111861002966 0.004384686880888325 -0.5002369810395625 -0.8526946244807817 0.721974620515455 0.34812881810407703 0.11879178888639574 
-0.9003034549311653 -0.1529109351726209 0.09600194902669479 -0.23624492618882165 0.14134509968397993 0.3725838533229224 0.2665169642248626 0.7338845231760046 -0.6519418388497144 
0.03465034647027425 -0.7706682152308536 0.34828037878611007 0.928138757642546 -0.6239936569611843 -0.7036546300192427 -0.15249945617886312 0.6689829688211063 0.7827630749371404 
0.8388136360760053 0.34227395718814635 0.9367524105452949 0.044399654095420515 0.8881523553070527 -0.033230846052020896 -0.9035763497919224 -0.9203422515149072 -0.31529730735560885 
0.6083240276180819 -0.8823119946699186 0.0397936723624025 -0.923855349209982 -0.934484446205251 -0.4183367679157482 0.1755031295385498 0.780985084649705 -0.5302309641002739 
0.49688106436070834 0.9560349360948837 0.22769739052292837 0.288730467847979 0.4336267580164589 -0.5393915580843067 -0.9211042217119598 -0.08523775686618557 0.1689408286802698 
-0.044725339906646545 0.4547713919511846 -0.6766470102453638 -0.4062457376843654 -0.7662479314642336 0.3420505383539193 -0.6731649453620618 -0.6536355161191126 -0.16518232982441536 
0.8177484794088704 -0.3001710005498399 0.20592287348656002 0.6205340179786537 -0.6119818435858526 -0.6345746031203469 -0.20249728686972984 0.24859900961458062 -0.8766407427551357 
0.8300850508907119 -0.4701961441962522 -0.6474783049740646 -0.9264994700398804 -0.4149453005414865 0.5349904387512883 0.2161822030693061 -0.6835295661223584 0.8211580979559177 
-0.20173249499121548 -0.34064542572918743 -0.0005186800713073252 -0.5820467162537181 -0.8475384581702098 -0.5938153782259785 0.136258452483651 0.43814566558481344 -0.1195384405090462 
0.20419173909077423 -0.08099059182500168 -0.9022233090497723 -0.8234169907278612 0.7481378736283466 -0.6951359840921442 -0.9087709038374933 -0.45403742795028407 -0.8136391754868993 
0.40173211485898447 -0.885202545927181 0.9100133803626554 -0.7830959591837371 -0.22397436875786617 0.0877994741170315 0.0038982954222617715 0.9888172174005447 -0.6996691982332214 
-0.7687703164457228 0.042992781719304075 0.38176138097980944 0.5449545923546181 0.4817573650390601 -0.5331964699465263 0.8618505466637907 0.5638468411948022 0.8731129180801891 0.5437870552218358 -0.010074766396878317 -0.2171945867595798 -0.8254537951510601 -0.4536266745863619 -0.6615923606394192 -0.27049072359721527 0.29575764483342726 
0.7365547436226266 -0.7314132590129309 0.7362078942803512 -0.46293508426344004 -0.43226468358638315 0.2679237248583443 -0.1553600570236525 -0.4565007522946364 0.24517114836456047 -0.2330000011190414 0.37280567001308457 0.6543854998932013 -0.9214415988328574 0.3982995239180528 0.10583494175858642 0.07381206953189866 -0.24857723632300635 
-0.012754105291566186 -0.7546369013091403 -0.4770932185439311 0.1693353515697128 -0.9607674439894989 0.09459463580987869 -0.9567468234949543 -0.9558117886837889 -0.05822400062940347 -0.31132691275307744 0.5861337525438451 0.45518420051753244 0.1608247537262468 -0.8418236721532226 0.5187123144065172 0.029198695217376638 -0.8975970707038752 
0.47299970508051403 -0.5252449311671051 0.680551649815448 0.2044320781429937 -0.27660585692775647 0.17419316558849 -0.5819481743657716 -0.3508021704210374 0.6188499368764027 -0.8451205187663186 0.7937638804751441 0.3477951647471965 -0.9204211890016799 -0.16273207805522338 0.21010338674280526 0.5666440206991681 -0.735146509559896 
0.879591760118399 0.5388291748500181 0.10881727652007675 -0.11805682830662098 -0.03683443401111018 -0.2776511926626079 0.3516394217352529 -0.9861061550739703 -0.6499757807082324 0.24243694201896462 0.9464783968183171 0.7093231414163572 0.8557750343302398 -0.7303863983152071 -0.17927583707232495 -0.9131854626657294 0.6935583456820476 
-0.4692159802495735 0.5437004441155546 -0.9926746384256327 -0.6246720163811109 -0.9045517723798587 0.991381972009665 0.691575202805698 -0.18080440114842045 -0.45387895269873685 0.4910313025261297 0.6743877149604819 -0.4674483292727025 -0.9622515602395699 0.017264187702773427 -0.6920768654703235 0.1731831319356115 0.17956089257941202 
-0.0018964189689579664 0.5509307230579491 0.2588551925789298 -0.3476454717549868 0.008164586206062533 0.38996509338841145 -0.15606358648023158 0.35249948811865955 0.11837278917713609 -0.310419899400976 0.3655665504235171 0.37578284465396267 -0.9602653356299914 -0.9255765461996089 -0.763957344945716 -0.09951459539753865 0.1879598239357934 
0.6648725103790009 0.5627798210731483 -0.22990047617702722 0.9091668036250768 -0.6358696256327538 0.12287682253772583 0.01861189003628165 0.17606354416001993 -0.8255661048416313 0.11027470891430369 -0.8702569020963813 0.2188787709076133 0.5515131951603957 0.4673735258289809 0.2739641496217259 0.8936094337983339 -0.2005780080082296 
0.7013786564362172 -0.20283037198898016 -0.48190394498457684 0.47577131420218266 -0.08366871228047551 0.07405970528977499 0.25147917889318816 -0.758718898114444 0.05893797044804145 0.19958211760020322 -0.046673187242320675 0.20068671866829652 0.8678680643585989 -0.14646754651209076 0.9172723007838703 0.7728324831117473 -0.32863604141772007 
-0.767042220996294 0.08444374786655676 -0.7881964224983642 0.7889745361806194 0.23284284062423105 0.013160128528045871 -0.17550360816782667 0.0017497750471724648 0.004319914064877251 0.6570741291062987 0.4722574205188445 -0.11271694463326665 -0.32731055706044576 -1.0132547231994573 -0.4135396998494161 -1.0425823819009898 -0.8294517098876649 
-0.40264103022223785 0.18589055156678733 -0.5071418465489557 0.9141819393355032 -0.711538644023775 0.4666789474474726 0.18136559403408595 -0.5350154338039096 -0.14438057989597602 -0.09052443466105195 -0.6399216286093173 -0.8514497605777556 -0.7954044009697397 -0.2893791817535778 -0.8088535471641443 0.07716409750879905 -0.6384010250763305 
0.5790962310907156 0.29359496421284825 -0.42382251631208817 -0.2852635431620454 -0.6045813977348523 -0.49968384172045177 -0.17261065262621403 -0.971767998976952 0.3250998308481124 -0.49445175433439986 -0.2809264352053509 -0.48604059735267185 -0.9107826646476403 -0.6436324340423192 0.7741206684296366 0.24314645220519526 0.4096814918727296 
-0.9159587939153133 -0.757342740416366 0.1227409800983845 0.7938797637460647 0.7873492167442018 -0.34091412339832794 0.4848144715863998 -0.03803884079887325 -0.29255170920754336 0.2769947233704323 0.9204414657477221 0.07811072725904432 0.19802108284175998 0.15070500370097578 -0.6128365291088743 0.4314343673708634 0.013619882265353723 
-0.1405728674542084 0.3500502120751328 0.813177170696181 0.4330212721812185 0.5738178605165152 0.32625736105209413 0.9186701179161519 0.8073120498208639 0.407208359810471 -0.6381981100295618 0.8210034804879416 0.5823473063957566 -0.46945307301173606 -0.7839005693130303 0.13451766374602092 -0.016092699745394533 0.711270792311813 
0.5217136028131926 0.690700640657322 -0.5822827070767704 0.23583106481170515 0.56517053576965 -1.0008828028138266 0.3176766098598527 -0.3056687924790737 0.3372610510400352 -0.2701877974203735 0.48841877049925997 -0.607871897677115 -0.7811980533908127 -0.5127423843223614 0.9270501061121246 0.7411990470715458 0.8386148508509885 
-0.7352840264965858 0.43796493273196696 0.1936861174451929 -0.605780130522085 0.7149556147607428 0.564109249134761 -0.12280005411475722 0.2548594934346666 -0.616235262574272 0.35896942165256285 0.835851230456071 0.32860056771601337 0.04993899137603258 -0.1621145387652774 -0.9084301471702179 -0.8937816313131366 -0.30662714407653685 
-0.981336173034258 0.40304372132038657 0.12657943466218927 -0.6012967152786913 -0.06916644823944035 0.9117352912038672 0.6014838324349783 0.0834321911695637 0.1673664511088692 -1.0396061185684533 0.6472539014455652 -0.3438295185094457 0.01983110867792 -0.4910283331806089 0.16692511188874198 0.5982397344870465 -1.106518061931081 
0.5196048738193259 -0.7783078932387572 -0.007158224002820308 0.07664163338339072 -0.4904906852905174 0.17015774481693982 0.7363447813389464 -0.709297398166223 0.4228085146852561 0.8312480369566408 0.7926962810301567 0.19703328173570256 0.5798822823659436 -0.6797553260270828 -0.5967009550443422 -0.16081004167535334 0.8389124565667969 
-0.6836515396843328 -0.10826955466646591 0.9455411499637745 0.6540888724913003 0.564097747837735 -0.7833012357992454 -0.06522347549239095 -0.1820294957979716 0.07761940091637697 0.18640620699783386 0.9670905912507725 -0.7613720421884839 -0.8500428938111634 0.5367542269944325 0.3469993102114768 -0.34147881692482984 -0.9427242929066474 
0.548200477325647 0.14100451704580003 -0.4582582928916922 -0.565484281708269 -0.2709980508130795 -0.08574270113179287 0.3266236182107379 -0.8914503981456157 -0.41111041990378366 0.4009912286715147 0.02225479334383085 -0.7504035503791948 0.7404310838074882 -0.07028181725025222 0.44328181295130403 -1.0244871744784836 -0.37169001205730584 
-0.5818824134912912 -0.9954612489988929 -0.24853172389069136 -0.8585170484776252 -0.1577237536598876 0.6717868003844633 0.2492554252790528 -0.8631836681197654 0.8804328588848949 0.7244829069607107 -0.5091227024083643 0.7313339740702682 -0.2961196598354753 -0.042214560374176716 0.001635508587071609 0.01578466627487531 -0.4070542456202512 
0.5070142523100798 -0.18369741342802967 -0.14376989090543524 -0.0774196708102191 0.3548244447561123 -0.1927777608880303 0.011756787571383858 -1.1677556664077156 -0.3861554535571844 0.48721485651018337 0.7094228574424118 -0.28409790483293684 0.23345954416175324 0.5870210717002594 0.6029046417019811 -0.593923085588965 0.18571370195523648 
0.16106774570879318 -0.07859779223021235 0.2824690802678257 -0.2545391910135618 0.4250255511368366 -0.860828838893855 -0.9718570286374022 0.20269233684735058 0.32537624094985096 0.2683198115364616 0.2550146659141505 -0.3664051061161598 -0.6971675773312277 -0.2183643362549788 -0.23259342249658987 0.27185827795319006 -0.5614383074473213 
0.5916363100294888 0.36258314084933446 0.2713659036618273 0.09449074255461476 -0.9051242394976767 -0.2029017779845472 -0.1886084068680546 -0.01311826275119509 0.8785258677353722 -1.2212475622261563 0.7650854229066372 0.14257902216163934 -0.6274048270302726 -0.8416140069876028 0.03290626448012813 -0.041536324784054675 0.05349497725412098 
0.7203313916061233 -0.3143170876770748 0.4895305347788636 0.3093363985440772 0.5594153550642199 -0.6243363261539588 -0.8828981304995347 0.47478246195043716 0.25254588824813257 -0.603609461495954 -0.6187818307195898 0.00258400460816241 -0.24682621849789965 0.5691423837294367 0.7383234351685465 -0.11823515436209266 -0.6340661441582393 
-0.019099336112802002 -0.3304341600865749 0.8877580840231982 0.06943410477459266 0.5388161161668643 -0.4441831308931156 -0.745200321389413 -0.06788344489445626 0.39688149532577766 0.4641469448550776 -0.6090174791576354 -0.3057890218200974 0.3917508910652982 -0.41129431294296154 0.821052711784313 -0.15375987020128876 -0.9919970336330068 
0.25322635711526253 -0.7516423620324842 0.4047809183072814 -0.3588576618792913 0.27190488041219896 -0.9787605391187881 -0.24254898307161366 -0.8997895574686313 0.4288053101513405 -0.5232812278131854 0.5928640289739429 -0.37994942348891514 -0.7802129322922249 -0.440711822429417 -0.9826720371010221 -0.7806405472063432 0.5846183945860712 
-0.6570370699313388 0.09937618572938424 0.9716390168827543 0.7691924766875914 -0.9792212625756089 0.5496689255606619 -0.756218370685225 -0.3041788037698533 -0.8019787026147391 -0.23319612715304075 0.3743815243028575 -0.45958214491911253 -0.7744505280149413 0.6668318382915828 -0.9694305617268749 0.3058747788203056 -0.13918565356705567 
0.08317816935664767 0.2601925864291093 0.872581690107802 -0.1764266431237102 0.5674543827351559 -0.15891976598611593 0.47495209666403726 0.5591236618294342 -0.6034685962870326 -0.4411898337875941 0.6582035274422577 -0.25920992003914384 -1.1100511087747031 -0.43657617750093836 -0.6357591395694848 -0.3512554323067669 0.7338376139684477 0.25333488982767394 0.2768213302202355 -1.0772864123237604 -0.5621344155050679 -1.121424097375486 -0.05188786082790037 0.6523226705196966 0.6631796220849389 -0.834274029673154 0.11893457713402299 0.43613962649819277 -0.6236048574454679 
0.5594232588820992 0.8857790971913776 0.13359017396289924 -0.40732552365294866 0.2803595090641361 0.75441885845142 -0.48533273368658386 -0.8378020615134432 -0.18260454082547264 -0.5130951583363708 0.26985731285219 -0.511872295443164 -0.5191306941803259 -0.961662094117284 -0.7143553674626919 0.7035325909852673 0.4823662026019901 -0.8145419685103582 0.07523014544941906 -0.40924585675375713 -0.7529273574056039 0.17010367421816405 -0.14873320375661053 0.2243409148119552 -0.47083255399054774 0.04612333359024176 -0.959237012367006 0.1210922220955602 -0.33482944604299075 
0.4499571790668469 -0.18281548292827665 -0.7924275029777035 0.31756851313794504 -0.4240540453147759 -0.09867135527701075 -0.3003752006050995 0.16761709715003742 0.46695646406128055 -0.2866600626094392 -0.20938195431025727 -0.44031663263875964 -0.5699969104519744 -0.8043727929591208 -0.611739181530217 -0.6640878600480676 -0.472672177809637 0.5458996127070472 -0.038501303477584466 0.5130119298138002 0.5187843455407725 0.3260513746613598 0.6359343617578116 0.4801424351520416 0.04504398688927042 -0.6033129417374339 0.6126342371886631 -0.9592908748714681 -1.207374957164684 
-0.5823572908331754 -0.1918174996944364 0.17678639015235406 0.9202780386812419 0.13656780641805116 0.4693665137057678 0.2372665035071138 -1.0495114954697073 -1.0527088364344734 0.8360224497604215 0.40442298226088325 0.2579103768525756 0.11880110511217765 0.1066505931422632 0.017729989909129076 -0.6604424288277311 -0.39921787009160775 0.28551105961112355 0.6024733142383357 -0.4332370238926091 0.46766033258554873 -0.585497966127946 0.7297460665201482 0.5404767872914892 0.3794766090317868 -0.9204988964154963 0.3399202180359136 0.07288815316452306 0.13391847354523126 
-0.1224504124822703 0.042732108130927066 -0.10767987444858393 -0.14975244923059522 0.06558102772377838 -0.6072088918831539 -0.879414613190912 -0.4089414377510603 0.5517324968244297 0.5184725282786605 -0.23305760946376716 0.03309496435421448 0.319428107038962 0.052861838117227125 1.0307187425572948 -0.22382779099425668 -0.15503423083093668 0.3683375492104184 0.9732331492102011 0.8857628348569534 -0.8985638171571289 -0.09672364164214312 -0.09932204621133406 0.17184366236307058 0.22300918336127892 0.03352364526270626 0.22232357729112243 0.03438007287783644 -0.8593015522171994 
-0.3683581661672693 -0.2823211401244906 0.7483072671434289 0.9439195981261266 0.7217604998722135 -0.1869909003923925 0.580351036106924 0.7284227259779574 0.7613933561531963 -0.0018379687510844652 0.04848566967253518 -0.5550522101409148 -0.7238935643755153 0.35127656246218786 -0.5122892268137779 -0.4951539832578904 0.6517329852821108 -0.7033737139422469 -0.03507019459367159 0.7202765659371319 -0.8879660130491478 -0.7978276633625455 -0.19387982721393685 0.29016037008625944 -0.4031003170263018 -0.2647034565391729 0.6695563787673247 -0.3307398619997709 0.10119679501001938 
-0.6655532744310949 -0.820211727507315 0.32184572764181185 -0.9461079769274882 0.1716098398087578 0.8532947933556928 0.3970049953057769 0.1727033857436953 0.5986273475077698 0.04112254348928701 0.1106198876335795 -0.2882541237219865 -0.3218548235758178 -0.703169247938703 -0.5244662184461938 0.6338919198677885 -0.8874020585577604 -0.6675783336202538 -0.023297427237684923 0.13961153249290442 -0.03364392445461814 0.5481919089038116 -0.8537598003173728 -0.12790811041606223 0.34086190071753897 0.27058771158742095 -0.9181046698518045 0.45173802375825123 0.03742023366335866 
0.19729303038015392 -0.3363667792026628 -0.14671685047435573 -0.7116086089219243 -0.0772961098844167 -0.1478330396823457 0.35492942725604 -0.6826919527991263 -1.0925267383737984 -1.0073373903897136 -0.24125395778087363 0.684928188525249 -0.7630802146653415 -0.5806243101154263 0.383906049012632 0.7847375017922 0.01529595063240399 0.3795994961593507 -0.929099587851703 -0.009192899390936331 -0.9170045979730351 0.8384390697439706 0.5047548103769537 0.09647228393591714 -0.9977226896921201 0.3730148406495624 -0.9253411330853278 0.7339501892534028 -0.3150971351347681 
0.4071158029871959 0.0790127233347035 -0.3624759295554939 0.3411951968901441 -0.3769629053174201 -1.1267629039873004 -0.9064004267772975 -0.6968541211639705 -0.1013744196300531 0.7189892961901277 -0.161190462591569 0.5415143206158388 -0.5824562298698086 -0.11245848509991213 0.032108894737835625 0.25157753101649455 -0.7079290111335419 -0.22328442873226043 0.002164023897269923 -0.4442596152149825 -0.22134483843769207 0.6514182664652622 0.4551360727925953 0.7816520268355379 -0.9909405704264415 -0.6491283747297901 0.9637398837973751 -0.5493547502432076 0.2978972673607229 
0.11101249846941895 0.4116255559751564 0.6672521975278585 -0.08229168629256571 0.8060676621283129 -0.308795598446277 -0.9716098342577436 -0.35690034961456196 -0.6930191107699923 -1.0176339456764665 -0.3120162179889303 0.870053452238231 -0.8690434741676717 -0.16708899003065364 -0.21691261901720704 -0.6358678931398084 -0.5259633676092569 0.46487113004727665 -0.15773450110148063 -0.1261170189697738 0.1711298216616934 0.2026035778151774 0.1443439758444733 0.0029201868734467827 0.970940986643666 0.6224056692592257 0.8114548835094643 -0.001480298783167966 -0.5482526387625698 
-1.1888197521691248 -1.0386193292196502 -0.7289198753421542 0.4577030337384199 0.5704982977783049 -0.3261739535830642 -0.1782271659834304 0.01108750820803399 0.1496443310124178 0.33226270761991195 -0.11937983892057345 0.17045341471134473 -0.12604021624367423 0.31419505876496595 -0.9081106763284247 -0.6167123942296134 -0.702085123546451 0.3336078145334003 -0.5880836271321052 -0.049389939371813595 0.6857110711851021 -0.14628600370848524 -0.5867316724236755 -0.9745860812121739 0.540987384033297 0.6886387582864462 -0.7993360779309577 -0.6910772710707845 -0.5723237617335566 
-0.3299258942864012 -0.17229600682090498 0.36108488196161453 -0.4285017169205779 -0.2947290143898364 -0.7823493522934345 0.5913886573383591 0.616383876628259 0.2800279987228964 0.5473913353067973 0.10351359938573293 0.1268604455509302 -0.883920988652763 -0.8901218018408031 0.02865327185985827 0.3179321293395474 0.6233221655414947 0.43108974207338163 -0.983370024663622 -0.5599404670225853 -0.19145935359335697 -0.1648639697633127 0.1894122432185428 -0.36701226058844466 -0.09544154792004653 -1.0044746642302866 0.33843141135832006 0.2545568800180803 0.7681381446061567 
-0.4999738118087219 0.10186236149351306 0.9663523288130759 0.48143787514403297 0.6205717223396999 -0.15426573361448512 0.5281568260584594 0.32089140424716833 -0.8989064209482545 0.6188253982990461 -0.29395567891493646 0.49987881996953093 -0.6548984890482158 -0.6273071077401614 -0.3326849238670828 0.2045743403761911 0.2648276257298778 -0.06536681423817821 0.08567373782167455 0.829883794450585 -0.20862745391413132 0.15193808080845458 -0.21385823399258647 0.2216225474562702 0.38052809079621724 0.21172803014530825 -0.8961079591653942 0.2691454889073775 0.3084666187028022 
-0.7212328949245903 -0.7088944544715196 -0.7783713322225074 -0.13110492952020006 0.2985486604421723 0.8002697756002564 0.6422922644335944 0.33059533196615665 -0.3358336391735664 0.7461973807680137 0.8326484571631636 -0.41194452792543845 -0.3409677215773337 -0.8308229503585116 0.1979192465908738 -0.06405911693162711 -0.5018416712691832 0.02528619317453025 0.7488866195431079 0.29109431683217374 0.6854105901448279 -0.17304963050333916 -0.7476420245334588 -0.12051836698469184 -0.279573898015926 0.5269448294753533 -0.8978669251613948 -0.1391476612392835 -0.2460022245745093 
0.4506423645448766 0.20450512693823714 -0.4546838743745115 -0.22890901650289702 0.46426421284818675 0.8692346351394395 -0.6305636131468482 -0.7049385863722661 0.8287110273176094 0.26006708778533427 0.8802828710444871 -0.7152466355352709 -0.16764461482185458 0.7488000240377357 -0.7870409774875146 -0.6506428158632971 -0.343548704793273 -0.1678417423845209 0.5633812754955354 0.1718599631385762 -0.7334719047359218 -0.93919023061444 -0.7924954017054373 0.32593345733807294 -0.21071182286163506 0.3423905491801607 -0.940717124989426 -0.6570192152257686 -0.8338165208310855 
0.6564681187554584 -0.8783361272881935 -0.2936502379250777 0.45459253408733347 -1.0705431879384644 0.360229340874318 0.6251405820843009 -0.5333662995437211 -0.003178072569575459 -0.03488888037340378 0.1450721365325706 0.4582106076833059 -0.1066629077535644 -0.25792589656598186 -0.27556224444888655 0.7094668790782355 -0.7642027885796232 -0.6613075460517399 0.31679619607026477 0.06615524539813437 0.019250373813556945 0.22162875329975532 -0.26913347021739686 -0.5198077728415021 -0.4035105629387082 0.17806842625952132 -0.797464629478909 -0.7544157511810876 0.2753173585042058 
-0.16406922652236125 -0.6636674203533139 -0.22235101162882873 -0.736390512881078 -0.43345172520294917 -0.1641811754649604 -0.35273560378510116 0.6507025185038102 -0.8292365840185212 0.158695973952 -0.08191425611535962 -0.38991226141919577 0.0746810935493185 -0.3849942108675936 0.12807124204331521 0.41901218161559645 0.9071142810755918 -0.3260960531629881 -0.3059771115293071 -0.4906100777692174 -0.3753628117405465 -1.2280446557008695 -0.5003269597401206 -0.24559412950500248 0.9798083560691926 0.0054169799662144 -0.7490329531635631 -0.3216240178689717 -0.4879366258610182 
-0.8515642193330699 0.5632155063337727 -0.7845940639494589 0.5145083387596465 -0.6718739434105309 -0.09855561786168479 0.4434854090901896 0.5754710965381951 -0.18752046198332145 0.5879863415944129 -0.1230696714375469 -1.0125274458933884 0.13950799496523228 -0.1440714677226483 0.04179016128268076 -1.0009462711048176 0.21497589467857153 -0.8870264064141201 0.09867562883047301 -0.5590935802618457 -1.1638649342198553 -0.08104606386049085 -0.19608580176017118 0.056534961894455074 0.35690919593691944 -0.19525027326567354 -0.4192923520057034 -0.05341499517192741 0.5621114409472273 
-0.13385483445423302 0.5600078433025354 -0.5241263367591141 -0.670583499384782 -0.617858653929995 -0.46209985811106297 0.3021698595354912 -0.5688325681620492 -0.9500205758853217 0.04096334203259912 -0.14107407645081135 0.08541313873949506 0.5063648120209667 -0.8214402747975984 -0.2166527071470248 -1.1636503331407615 -0.3590337066770232 -0.08904825891421111 -0.9401078065423546 -0.2377769107489187 0.6948607482471539 0.48753616817115525 -0.14136911062350457 -0.5667368404418139 -0.8741607580475296 0.48560386341483613 -0.6738178252239779 0.04121447169234716 0.7115441272729484 
0.8093906443859614 -0.2310677872896822 -0.927289799772153 0.6012879486231342 0.25990474531773056 -0.2564083736529478 -0.41774604870428056 -1.022029185239714 0.5891083851399727 0.10728823616188016 0.4423664478596611 0.817706876819806 0.35892985704883656 0.19186191391329696 -0.18798913802953726 -0.4567729533530376 -0.3872151635805394 0.15257333534138112 0.29719831137431046 -0.44153208841801317 -0.513998240204456 -1.0012840589290324 0.782094672074685 0.05936397462568065 0.15077727009539696 -0.7301909652470819 0.540640745690461 -0.40675170062322846 0.28178372578633015 
-0.5989142244918351 -0.09612128889072655 -0.1907286536419881 -0.9023995754487678 0.1840373404050298 -0.595700872461039 -0.6531424132687947 -0.9321855394442798 0.06859127398622544 -0.9394617562479926 -0.8504851474990044 0.2354016321060681 0.28121078510790337 0.10335927388229635 0.483592856178313 0.41826051704841155 0.2019679116227254 0.20450451170156117 0.10662232888834065 0.4493820809041027 0.6631091627246214 0.002481469071425088 -0.7821681021355754 0.3458878546573088 0.48643536988107344 0.6130275270888942 -0.5603319686911731 0.2125420700436862 0.15376517111403837 
0.768246133369061 -0.12467093807466444 -0.11057501539543951 0.78192046740581 -0.7516768560454214 0.6980210525693399 -0.5796314468518082 -0.7231795063439979 0.4060493383023264 -0.1214954808720648 0.6178242707502772 -0.1037049745408279 0.48578386339493707 0.21216551535045472 0.8313041499203552 0.19498227889173464 -0.3235977292151418 -0.523924382933432 0.1276754577491997 0.5121292285948756 -0.9929851698795932 0.043232392372854804 -0.515480859150496 0.47221369428129295 0.5623210235429631 -0.09800628263546295 0.3834298554633936 -0.22599316482031728 -0.9222217530392852 
-0.6786534873463111 0.5387715736486873 -0.9958558964242304 0.05265514136345277 -0.10404260913945086 0.5765113108849486 -0.6587734880976872 0.14512268164352304 0.9448798542085902 -0.20014715994760576 0.13214634075452636 0.6782751948792153 0.09298022065794022 0.8737928494491307 -0.4775677664707026 0.7762749222953106 0.853996899258648 0.10702614300334116 0.880762736306779 0.649875871924153 -0.7342655742337814 -0.8275573981341756 0.21069436971977765 -0.3288824938176624 0.49500843561651914 -0.5664968537968532 -0.5840813069021222 -0.7331608105874311 -0.7757190348437734 
-0.3011308676835788 -0.1408209912867915 -0.917520780986917 -0.1445333667816691 0.8848533514906204 -0.2899777509916601 0.8092669776902512 0.7308986608176564 -0.8342258342134966 -0.3345700116368685 -0.6571591095564631 -0.4875775829047753 -0.5949423844592282 -0.48449079813624596 0.4684103097692949 0.8342012862379189 -0.044013262863658024 -0.9407899976144668 0.04378585917913481 -0.5429407935069045 0.937575796508212 -0.37819142210967294 -0.7452441354878 -0.40960802940907753 -0.8307721982277252 0.2628458707512296 0.6150903244518451 0.7680087113164231 -0.16899454240646475 
0.7823526875331405 0.8228324868563749 -0.9008824414542259 -0.5242727540207532 -0.0712327132557812 -0.876598603741144 0.49612738533573336 -0.5619672273202406 0.457273434367044 -0.10711944154968771 -0.9341789708747545 -0.7313428705581237 -0.8695346748045675 -0.907228506616122 -0.2637963784199308 -0.5535795379773545 0.08528968924838344 -0.6515270587215871 0.8779620726182179 0.51315041202261 0.7065286010342302 -0.38195134398625674 0.7913999758839287 0.34148047930424874 0.13271806684035467 0.8087512549185317 -0.7616707009407263 0.9354007702993541 -0.2130993866583391 
0.33238081470407 -0.7579364158373719 0.03555654797849351 0.22254350215353183 0.3582801416022693 -0.658749007325238 -0.6132342540240845 -0.2935219535876969 -0.04933666995777178 -0.7053159291175122 -0.6436116405410842 0.9626359836138676 0.15569723704410918 -0.6824095878929131 -1.1277468125842103 -0.5865966575786191 0.473501686660159 0.22788111011196877 -0.07251349733518198 -0.7796104170006757 -0.22699261710503507 0.2443797891627121 -0.3329469933586802 -0.1701171520191943 0.6739565083611905 -0.40133745349837435 -0.6245054637045148 0.794285332972878 0.20455162312827968 
0.2070866553211618 -0.8389375308429401 -0.12218584783099412 -0.9983408531194576 0.6003553902108356 -0.7367141159010687 -0.7994154457543173 -0.36580181660981964 0.7267955696908798 -0.31956412099090625 0.9713362487904759 -0.28627870459888355 -0.2108886145042838 -0.6990658708733342 0.42712457570589907 0.7362535992350532 -0.9616267863316212 -1.0242999394054007 -0.17413520847741093 0.4409908612401823 -1.1300144128998741 0.15052473821963364 -0.09693543398452922 -0.05770023201055859 -0.9979739018759378 0.5632342549119073 0.4864818031532513 -0.8379100498071191 -0.39739927731679436 
0.5187867618196017 0.06184598661579842 0.7285388596448255 -0.6536223774682518 -0.08441294239330546 -0.7960927788341329 -0.7257226207069698 0.08699731214494162 -0.1261610531396447 0.6346140115149527 0.22802391933576574 -0.7589338564592758 0.6430977970753927 -0.6263770533954752 -0.4160564036692606 0.9841739125172614 0.10252843328737064 0.5523224707175279 -0.9270589877189316 0.7308225510210261 0.5468121449273087 -0.005470216206009293 -0.6078107126750671 -0.7705491897199613 -0.4043574557770284 -0.2368043481901123 0.346768081613012 -0.1820963595931601 -0.183949122044812 
-0.15569254053638978 -0.7296156625829356 -0.8270744331899426 0.9538530937385032 0.7475785752296366 0.02088828178904434 -0.6895151313033138 -0.9734251671057661 0.029422859212523404 0.7057161080609801 0.38376790439081526 -0.5048795720965547 0.33359499116017727 -0.10024886981677972 -0.7861258653325857 0.11459372715109002 0.4492015190522566 0.4364424286454242 -0.49543465070405135 -0.544873788633714 0.7061006178294988 0.1115062721319048 -0.282015424002325 -0.6093490846081211 0.8058725676950147 0.8983067660993229 -0.32967972595969675 0.6831939797577689 0.2861734478152378 
-0.07527420008340971 0.4645771113615745 -0.937231727353485 -0.4655885010922321 0.009844174337997138 -0.358255505203533 -0.7292775244600835 0.2360699421691829 0.5888661756304622 -0.29745732890590265 0.5295368731185468 0.9685305821195868 -0.2709985926538461 0.6857658573556764 -0.9300408731197372 -0.10327567634671642 0.8762312086614297 -0.33363708181154555 -0.5954612657743766 -0.3904493884975636 0.019306048845592824 0.7247991774972502 -0.45017014345868045 -0.09970068296876801 -0.40295363436468773 -0.5698410422544478 -0.5764562635797238 -0.38415428420628683 0.5405854345682076 
-0.633098432007731 -0.45030936674387406 0.6781315285740358 0.8073228069568015 0.6250943910100182 -1.0715129680436526 0.5012208847247702 -0.18490558190825948 -0.7672710444140803 -0.09481980927505658 -0.397187393491398 -0.9091533756728652 -0.5167139155045892 0.6511839153530504 -0.23652137307980306 0.7687456562952418 -0.036871535569297384 -0.550546287563479 -0.29011762707261085 -0.12146451854242835 -0.5073615288760429 0.40348366016695075 0.5060162386291306 0.5967362186215911 0.17242508461975076 0.41540650863201806 -0.3292436400581571 0.2734531215542606 0.6635633382820298 
0.6976447459203444 -0.7651140913215471 -0.47894431645865315 -0.3463459808377247 0.31197723764672813 -0.0920930694881798 0.23458824694389563 -0.20010981557879606 0.34549113706876305 -0.6788440755647388 -0.2618464852472387 -0.04743418000297553 -0.08365826123063966 -0.36506659566185784 -0.6277259978693027 0.12562979849195471 -0.3410845608435109 0.28875731564728474 -0.1867590617289831 -0.34971732183393506 0.6710482192450767 -0.6437788311389044 0.3340958148409802 -0.7604448327680692 -0.6243995605144328 -0.8479057064372916 0.8392111620532161 -0.7629396542495384 -0.036516435154138945 
-0.25825450319410276 0.03011279234321076 -0.41243430805717396 0.9812521182295286 -0.5738286868767349 -0.38862080117554465 0.6363912316266849 -0.7503000447044613 -0.1335340124881585 -0.9217338351309063 0.5573831301867377 -0.2090303574160643 -0.966437549457465 -0.38431366288767976 -0.7095839381670663 0.21987919734066863 -0.6096769587301888 -0.2935676748657411 0.4410649768261588 0.07038434585606704 0.051132875020428174 0.749679306503217 -0.46501291719057963 0.44240438464632426 0.7441776207836449 0.2633796378323914 -0.1985197911932218 0.4725226587225014 0.6387211267487354 
-0.409179214930301 0.7484769406787621 -0.08652845357189567 -0.6453937848380582 -0.5332523320768205 -0.03140624106670059 -0.0178163703816911 -0.9413355605688942 -0.2958211799657509 0.8500453622578887 -0.6918019570043216 0.39627964792370146 0.1465197811858033 0.3018487028609139 -0.38492805730736485 -1.1014586384730198 0.6233534282689771 0.44580522609879875 0.9234143372497681 -0.6355864440823041 0.6417175380240158 -0.37957053027617 -0.6742418526366307 -0.31900203036953234 0.8125123756125857 -0.4727101903303504 0.9429595909531693 -0.023464391846799316 -0.5120831194399812 
-0.4419791050003718 0.812649788390699 0.42576512410106926 -0.4899205919656155 -0.23502082881065764 0.05467446841149026 0.07424668012386847 -0.5798006225351726 -0.1022901560174314 -0.5606137100829871 -0.5502639570967985 0.8133970157198419 -0.04698050930664574 -0.02890163574042096 -0.15318268173258798 -0.1906631389828443 -0.6305012276329824 -0.36256061818335583 0.9322296929733098 0.6300089925159829 -0.6544845825036264 0.2934273384116746 -0.9990117250852303 0.07892380777023504 0.720607529136669 0.7018876677188532 0.36864434371191107 -0.45888245869886374 -0.5695080493668597 
-0.4651978991110305 0.1991523305739941 0.00895542494118004 -0.06061745672160868 -0.6589558029503446 0.22276622492644244 -0.10721915879041394 -0.580791934843975 0.23441193529170246 0.47283157493976125 0.152344767248376 -0.4133962985170763 0.15414339683566355 0.8446917827915498 -0.5212172437132507 0.8270269327530723 0.46992516084093344 0.5749720363021059 -0.785955466260066 -0.7132196154394126 0.16710523517755768 0.5243201102436577 0.054000154463859786 -0.0516268965595674 0.09478226188555816 0.35565781392752405 -0.2571567721800178 0.17234664574064007 -0.5750991026365108 
0.8346014325150414 0.05118863079067514 0.42969508268951395 -0.25864361610994835 0.32690046592330646 0.5094831301373273 -0.7560798334823774 -0.3205121316798764 -0.8941814260275083 -0.4086750189518131 -0.7380277826154201 -0.9241930803623879 0.005483732632751955 0.20663199587177525 -0.8804843991489782 -0.3231897718978375 0.6187759974259971 -0.7626219210137705 -0.30475144866022946 0.3345252939778256 0.06341478612688281 -0.004477122103442631 -0.6109313069580894 0.25219813241433175 -0.3941015288838013 0.7132047315808815 -0.4316859434256276 0.7236298260127262 0.5527517715868372 
-0.6754377512970149 -0.6021962088748273 0.6343565336816609 0.1244583451113002 0.4841625403376251 0.17345104615282161 0.19968845459299453 0.07853594557364126 -0.050946754213187284 0.04061579717570961 0.690777228066729 -0.6249298927224104 -0.615270989153659 -0.12753267096875212 -0.03900297041295178 0.6669544477815023 -0.7667441257939107 -0.6936931006301629 -0.9666059116917282 0.3434377329363265 -0.41252970423669305 -0.058537634891573105 0.1272351845743679 0.06303819680666421 -0.1954435502592259 0.15925813787787385 -0.5586239810270324 -0.43398259783686766 0.9213041874354948 
0.6434564634668017 -0.10648921711831749 -0.8858259175962209 -0.5450261608933135 0.3786373158120068 -1.075546726763127 -1.1578097730679788 -0.01838752181723281 -0.5070376352015752 -0.44205352240773665 0.3955908072401793 -0.5204914312602984 -0.5347131431578955 0.12682222495472087 -0.28602843383872 0.13727021943415738 0.14973354017427976 0.628153777443486 -0.25049852648239945 -0.10556034606168205 -0.07052102494402718 0.15746710503231687 -0.4006964138327999 0.11699598010211837 0.5648707370827853 0.7444947003481499 -0.5711264846470498 -0.23536509178182527 0.16184554339587387 
0.0789604325701964 -0.5946450020682515 0.5521870526601967 0.029296586634588923 0.9102990365983447 -0.5332296801798749 0.40923024997546564 -0.5265298824916517 -0.6722154487714141 0.4129023911864472 0.7753540461570765 0.513121662931976 0.8058317962510294 0.2886179576532323 -0.23277530626074877 -0.11431992979356236 0.7407418202012869 -0.2194711818940298 0.734890158258076 -0.16965228015787784 -1.029291940648799 0.5978383621925673 -0.9144799028876593 0.7140804310797848 0.14040101778574385 0.6642642860167111 0.11131269448974834 -0.45783573680467776 -0.5131481076066768 
0.34088924483503197 -0.5515970766117899 0.8956045118398454 0.3267162623799728 -0.8596662852491737 -0.8661088324294335 -0.92976120580115 -0.8104943106854995 -0.3233005272843157 0.5560960313797362 0.09300566032577189 -0.4978990296743302 -0.30725409643623036 0.2313715300398784 -0.7270521290712263 0.3578297857766339 -0.03201724729794102 0.45993366504481853 0.3688067660748971 -0.3425694017458122 0.40766432512183637 -0.2160364361037065 0.9180772100095325 0.15648965021069014 0.6110681014023412 0.4505152160781718 0.8521852904094921 0.7859856455616188 0.10045030984341084 
0.0731548993172156 -0.4641488934353935 -0.5117101718190368 -0.6658373245192212 -1.1853065903068605 -0.7067431423298026 0.4407779680028305 -1.0738078594394385 0.6021406310441401 0.8732817285549561 0.7864906820204575 0.4896016650197734 -0.0021213584844387732 0.6470378906650841 0.14451436003868162 -0.0820093182347135 -0.8474028669243897 -0.13765421101059153 0.5115066896835821 -0.6659859450313853 0.22639185740359932 0.35334621919202586 0.15673756048235044 0.3678796014997081 0.029786537581369715 -0.11652282430494297 0.015819527708782408 0.21081686875735442 -1.296548383248358 
-0.8219297831507201 -1.1386148384064945 -0.896123245953833 0.7853446592165896 0.3499600712841158 0.07424955342923723 0.3428965599063612 -0.7119408141194791 0.16448298768876643 -0.2871770548057026 0.7478949730757047 0.06795284103792663 -0.9265782353662082 0.1161319344233443 -0.30194684052416143 0.05736615905603357 -0.14457384226204328 -0.03582771360563007 -0.09840127576733812 -0.1798931124509604 0.329793832429178 -0.7621334358262328 0.5343120062335935 -0.4829369441177833 0.8870320999379337 0.6620105952831622 0.9301512314340862 0.0004291989329635525 -0.40736393901954765 
0.13865651809734322 0.7898857830116389 0.4300657873784596 -0.6625371646343898 0.07767593631098167 -0.6211096336286835 -0.6386544898955082 -0.47664201436254894 -0.6679364046830406 0.5054418190182387 -0.17555522647382668 -0.026197313662957515 0.0793250555601701 0.9212917559192614 0.6487028517558397 0.8121684011899033 0.4294695265747558 -0.466951619438312 -0.017977344854186738 0.7275014514142788 0.6006901593282075 0.6345326485751984 0.6588775737719833 -0.8284128613595546 -0.47874790203643297 -0.5115994337740475 -0.2300089825948723 0.6603408952851634 -0.6988159298880506 
0.4812830117922689 0.921568392715598 0.5161253686706696 -0.6070163023140444 -0.7560298308596625 -0.16003497930311433 0.2970968934876174 -0.7003572294882947 0.6910856230467087 -0.7270711496843376 0.49683150948005605 -0.28640606776196664 0.6635622455880157 0.017886359888709204 0.4221376560549612 -0.4922867096598289 0.7561890334737497 -0.9726509383288837 0.8739211221597938 -0.42428883491823577 -0.7702512869576497 -0.42715147589450025 -0.3154686299043207 0.4898005743260675 0.02658370751122457 0.1353823651449087 -0.21025082158628777 0.7504480284261696 0.16615869245797732 
-0.8427194971992084 0.8284913979461985 -0.8085388462945178 -0.8690505414465548 0.8220487945167644 -0.6056174922368157 0.2991799704934 -0.6402159948142812 -0.28703306898765363 0.9369329386864457 0.4128224885826305 0.9833124738468 -0.7426283573614648 0.688393297794146 0.6941028290556889 0.1801335481897404 0.39131116169149105 -1.04939422921882 -0.2960480141678827 -0.6030257906191808 -0.3332619859530533 0.3270299972994871 0.47993888198643414 0.26866366241305184 -0.9983861161100314 -0.654476701869467 0.6022317698266448 0.3642643569895843 0.3974223338983462 
0.0880849892250119 0.18701236038187538 0.2176387690778727 -0.6271350550024933 -0.3002577889426995 -0.9223789150093916 -0.2671196903348671 0.3092545197472286 -0.47800378882849737 0.9205601494522309 0.8383528909125515 0.12495625018456068 -0.5998621152008061 0.21801404225880358 0.3982283779676288 0.05069584122381967 -0.6069312859506955 -0.5775631914857746 0.8199767586104357 -0.6973897746882588 -0.10647195110140288 0.7660942173415783 0.7242466825340559 0.5807196802645437 0.8363363534158212 -0.9084466811487414 0.3763238998591169 0.19866943520098226 0.5796886041409685 
0.2083874185003966 0.13447813483699553 0.5655492016419454 0.13004812934697624 -0.7560021684799947 0.692305540866453 0.15051112198393918 -0.23250641179213635 0.4048643054086965 0.6405185735348614 0.35064614016067286 0.4083218218092552 -0.35688080045216464 0.09587654191593833 0.5931686878330553 0.569982260741408 -0.6890864291432548 -1.1034308205763936 0.9066356424030019 0.3275659594337925 0.639404056389758 -0.06142495413421899 0.9664893868460216 0.5731457384885336 0.824191931677755 0.16909863941252254 0.6595872992522598 0.9143939438661121 -0.36490653073625423 
-0.8307434224548719 -0.5261665644737962 -0.41986456559477714 0.9477040137275357 -0.7854702094019845 0.34118593710733097 -1.1228698907946286 0.28226559743616364 -0.16851591602910093 -0.2438034468571834 0.7106094846576134 0.6349698143368818 -0.20427876462119343 -0.14005067676398633 -0.1262866600437513 0.6527456937018168 -0.7672574031060331 0.2671735221711349 0.047016265999197976 0.4050623015580581 -1.0991365754171458 -1.0426853960861031 -0.21846721083926723 0.36082586663918853 0.8038661926101306 -0.8337786248385759 0.6915815202692805 -0.8284818740796157 0.17996230617889578 
-0.9637368658776366 -1.0110343573167655 0.9046009611663308 0.9404192053844843 -0.46198646096052604 0.08808055645509658 0.13468542385275173 -0.6107084841731371 -0.3071541174960436 0.5428399803226719 -0.3160954525211583 -0.4609831912509153 -0.4354127039592683 -0.04550899827485065 -0.6674009971286863 0.6860802684850688 -0.7972268251888186 -0.1512238916812013 0.3675954730732124 0.7439433763309311 0.41195344666689765 -0.7076029963140622 0.27196720754018144 0.8228138073249642 -0.1927076069167415 -0.3699752247755453 0.047287065497741344 -0.2891129169849436 0.38769787466515654 
-0.5177479359814315 0.3066414158768345 -0.8230867877961161 0.8308508099826465 0.04410003208004564 -0.4922644529903245 -0.782980969006129 0.12409837109872816 0.4043050895389776 0.6856178995830763 -0.12354274723348013 -0.6836420823410304 0.5166686190622961 -0.3341373002913864 -0.06430358485535871 0.23926208705474625 -0.5580878186178312 -0.7114208459414956 0.2072053944567509 0.4450320691719035 -0.25568331693205476 -0.5242321456022133 0.8682541826936367 -0.9666719368054154 0.7258384572516617 0.6449285527234976 0.7236026197087985 0.8597390559440888 -0.7446402738107216 
-0.28976747889454296 -0.2717747395326085 0.5011284903711452 0.8360132005704404 -0.3938331109427541 -0.04097247039630517 0.9854390239165111 0.2409698358517131 0.5258106015788403 0.20257971670423489 0.8216051451573892 0.4732432980646802 0.888678927481489 -0.5264628098171774 -0.30202305093749826 -0.5100995699628668 0.3161966609850754 -0.6815127102515679 -0.26651323338965993 0.10075633297396458 1.071751360295341 -0.042074738004747904 0.038655706414739366 0.9884849900002955 0.7693284947207651 -0.36735304439316324 0.1595081044872769 0.6304039764437622 -0.21722587394437343 
-0.2676298709618258 0.7646933412736782 0.5950713835172412 -0.9518597369609658 -0.44194812554415464 -0.46972684381527424 -0.5440311141959117 0.8088276871435746 0.5425892285002263 0.16406408796115352 0.26741357866317733 -0.6154082128778942 0.44035626791601756 -0.6657140458240748 0.6895314791815038 -0.14734147121282887 0.7069758801519325 0.6779815408361433 -0.04549611417983917 -0.38028190229324615 0.09495252275614759 -0.3402276737270288 -0.7189070537559415 -0.8538650772022791 0.16972982582942572 0.31917706973642873 0.8248429389398234 -0.803065502152677 -0.30901852702960125 
-0.7805260798407286 0.312914586843413 -0.6111939186367142 -0.23416318578429446 0.11378579172304505 -0.4317989735054141 0.02010183653447256 0.6788177400556161 -0.5970342019750908 0.44962760341873576 -0.7546181834949811 0.727630614535303 -0.20282198306853763 -0.5198401029119782 0.485014161310231 1.091840806900533 -0.3105018368143141 0.3428263958792923 0.3128362443551518 -0.47710508242320077 0.17887226779699403 -0.24406033518000791 -0.6865378138545714 0.9399669389766694 0.569771046053109 -0.7268733409126403 -0.5003927771730675 -0.07827633168723451 0.21475294778436987 
-0.8993467344410088 -0.0892830338092128 0.9495128762947229 0.9006684051045013 -0.4945853231950291 -0.605855916702986 0.3938973273205434 -0.2746298028766755 -0.17260185154023905 0.8023298916076907 -0.9037037442596157 0.19825431904979787 1.0340373556709916 0.9709307159311154 -0.3054801979007083 -0.38726925725585004 0.737706962682586 0.8182224195280999 0.19347334301559846 0.8719441376552299 0.49521803312803747 0.0031992818091045776 -0.20068541285193003 -0.4480126614940727 -0.9467006897043515 0.08582326766045108 -0.3199979061553347 -0.47588201539070946 -0.748477203293538 
-0.1995886142818197 -0.7645229932704894 -0.7135073604388359 -0.37139673601522016 -0.3780444764529795 0.38691127024314814 0.43251584003304794 0.6658282057372649 -0.022654569805450487 -0.8287889463675124 -0.7506575812361814 0.7439184778995921 -0.9881512859676833 0.261114063409843 0.21870838553949767 -0.5041549955499351 -0.553668856421167 -0.9153707499518954 0.4484365464057333 0.41922933147621316 -0.823243005678992 0.6356826392082049 -0.5504305667199764 -0.5903253286271876 -0.9431087791925341 0.5286119320439545 0.14147907773538254 -0.388660711814046 0.8877342621025109 

Epochs: 250	Train_dataset_len: 32