Layers weights
0.04643420743288429 -0.6683810261808596 -0.37724912849502257 -0.8790079760752467 0.3842931255528748 0.33441618515592936 0.9162196649431822 -0.7790761352260148 -0.5204997472072916 0.4283027197918925 0.8080144162194485 0.6234901850361412 0.5160370274604037 0.508243187983585 0.33764705401675577 0.4142422549286625 0.2917857581776371 0.1294553849876645 0.21381824740332123 -0.8817685727592144 0.6002794101879906 -0.11765066762835111 0.9641510565936975 0.585430215158248 -0.2501591865631232 0.26089933493370165 -0.015207201811216597 0.8847701934086065 0.04597114415696579 0.18632321452169812 0.06945426821890179 -0.6434569550466503 0.17585574281886096 -0.07991012597144165 0.6114688714810428 0.7945089472597047 0.5616283914033345 0.9360176989551829 -0.02182174954910606 -0.8023180915199764 -0.9954724286680234 0.9919347996714694 -0.0685587023592309 -0.1473675233268617 -0.2583674500829043 -0.1458817682160308 -0.3704662178417866 0.8044775146584769 -0.02891336593825322 0.8122693745607226 0.8927619804999818 0.9150030403185614 -0.47573516523100806 0.8853664902564619 0.25747256888872194 -0.3446213350526097 0.9177663140912119 
0.7848270903043022 -0.9385608372959664 0.9632084476920115 0.8652973139431251 0.014858128437933521 -0.6625026996632217 0.4839700796025792 0.4694506859637763 -0.6979940995301055 0.47431950689044555 -0.980974631788395 -0.001423176034927983 0.07791187164775558 0.4026354270877449 -0.8583668239212677 -0.15006414046316782 -0.4806035736357106 0.030830028139406496 -0.29669780035200133 0.8892690277202138 -0.46757213379729795 -0.466221758071858 0.11230659673622806 -0.42059934610460015 -0.8125771110946458 -0.9777751367828806 0.6452111428271059 -0.9274081021897104 0.2855836843638926 -0.368665227989905 0.5529372240344012 -0.5081988821623036 0.9692864565485264 -0.011120255853193095 0.535668475819252 -0.23867607584435896 0.5916010626209168 -0.36722362770735073 -0.31890315980239686 -0.4360092437193771 -0.35201281337489454 0.045172331382451913 0.5374408224730203 -0.9316971226766568 -0.0842204144742692 -0.9353625478640846 0.4105799471977329 -0.24053728247210251 -0.021678749667236152 0.8291010442489555 -0.4354783871406622 -0.46940549918314883 -0.3571775997706186 0.9348875328139328 0.8756084831357672 -0.3703858737440151 -0.9110033625680215 
0.06252461391549669 -0.06071664014080458 -0.5959076680915674 -0.5770217587447304 -0.8412689549765102 0.5504310602207987 -0.8888366131035601 0.3342078199875696 -0.10548318358578013 0.8716792408408371 -0.2175947774728908 0.06343368802236697 -0.6077985914877697 -0.04019271051440003 -0.44798163138366276 0.28244898607200675 -0.1681682101527806 0.5114938008908563 0.9515628572304857 -0.05160526347950727 -0.03438291328926595 0.2943657039217015 0.8377998730518897 -0.24147984744271989 0.10037629252619151 -0.3186241860046113 0.9495542094719165 -1.018095981837719 -0.28154940086115615 0.8924676697927147 0.296404437005744 0.9908616603333871 0.1967323692390297 -0.881155658185087 -0.5161521010209127 -0.8764837411739802 1.0168809475542098 0.5889339279795168 -0.022240108709407225 -0.6352380054711116 -0.47219608757126297 -0.32516619223692445 -0.5330247573318994 0.7006864325948073 -1.0687350578150971 -0.1442177656042489 -0.33969705171207953 0.010884783403644243 -0.09388921515056925 -0.5695130264694568 -0.3681700277657831 -0.8472750891499594 -0.4794081378460897 0.7467597858883187 -0.7935715316992935 0.08474150797726532 0.6954977315903998 
0.9468247072891189 -0.9628170693146605 -0.10547374300836387 -0.4071726086235405 -0.11138278045643261 -0.8615330901437518 0.21032523018732366 0.008072679183918236 0.31842666649212825 -0.2617429852512545 0.8653399298622471 -0.6244389528306017 -0.8040248938190595 -0.38576495580324055 -0.36101486278767025 -0.06665329310366612 -0.5868634503246302 -0.6719928396854227 0.7870749212523374 0.23423062742126183 0.8613122944076526 0.24454943805191098 -0.7806181838953322 0.6910186395867942 0.4642049591722044 0.843255999316471 0.8713718125909333 -0.9892873941065841 0.6660287182789045 0.081068295146943 -0.14509840703849622 -0.1395753267270104 -0.43609160169821193 -0.5485135121265106 -0.27229768064485604 0.4617351851186827 0.6314099604412342 0.31482053418030465 0.12924758566968234 -0.16038546540852883 0.6875293506075226 -0.582693931972412 -0.5066763699503778 0.6237957888307574 0.6685959989286732 -0.46762693425246565 -0.4111992579317467 0.06422754266843377 -0.2632948942397495 -0.3098279924317988 0.6528269775591125 -0.9053862957824158 -0.8057144218961235 -0.8044170833520673 -0.8601019345684358 -0.3349223153838486 -0.044024476643232016 
-0.29408401839942244 0.4994032737336964 0.4324294020256363 -0.7556130942475803 0.383255597395186 0.5146626036107308 -0.7786493134726917 -0.27082705183360145 0.836928478395925 0.7893919578149282 0.10004730719480759 -0.8394440807622314 -0.8090348425193203 -0.8514035284623802 -0.20168445486599487 -0.36011574723934076 0.19380760404855302 0.8138909196229205 -0.44200096172084713 -0.7636161332928306 -0.006790731297483663 -0.24425626243867438 0.07001965352159842 -0.1685139359046667 0.09541865577721387 0.12403433299913824 -0.8854888205528775 0.5987834035424697 0.6166380594221305 -0.9131732517844479 0.7279649570887087 -0.4495701570246278 0.5637404124655805 0.29501087344319865 -0.5620844654923234 -0.041053936221197 0.19701676855078143 0.3072371059274683 0.8991261964619022 -0.15585210740748595 0.3411636178579627 0.3600571255189706 -0.09661433290915866 -1.0571716974764411 0.020667968436167493 0.17548366843575608 0.7809361997803937 0.28942204536007576 -0.0299171226408097 -0.5219814914088516 0.2758896132394504 0.5072051990310416 0.36007161178711683 0.9558863052975483 0.251195751446768 -0.41971311173213144 -0.3474168443053683 
0.5641349478907125 0.43731867821682036 -0.9679617826549856 0.72866341111851 -0.096326994195645 -0.5119508786251671 0.7546741961228041 -0.8577368240886238 -0.04018671366871507 -0.19792479340015867 0.6860947598160541 0.5828415475643006 -0.8116677165322833 0.13647691597407807 -0.601720592585858 -0.32331267044130785 0.1809286117751978 0.8457024860758975 0.3326248380759509 -0.5044524657026486 -0.8170690705466237 -0.4602286054867706 0.5134185677843461 -0.7567470140455455 0.6141548651228033 0.04612492003972912 -0.5568716904926088 -0.07172377701211183 -0.9648391351905269 0.13145243495881673 0.17805136649482997 0.670940604037516 -0.034144987341581556 -0.8499272842961174 0.26208998658773797 0.8841780930894838 -0.6246641402248347 0.42745842448036503 0.6288414544626395 -0.9108444582807124 0.7368195019890864 0.8901695932058185 -0.5168230200722184 -0.5854018738527275 -0.2388284013924637 0.9331038195268369 -0.28710433349709985 -0.3767960572044302 -0.8018294125396905 -0.42609258176569886 0.8658074067299433 0.12122236042099044 0.7225791672057459 -0.1796644827955882 -0.5778411127353928 -0.9854156487360288 1.014875690972775 
-0.8570891898269537 -0.7691655192871325 0.3649161201905591 -0.09178067468929227 -0.81383042588978 -0.513551890371424 0.10247392561307332 0.016312907887658174 0.3547953004255904 0.4683565293693459 -0.9973412014778902 0.19774228276119454 0.28949783184992384 -0.6921521572963104 0.3955812815536399 -0.0859915852125146 0.2697441239405025 0.4112153451080749 -0.08284375439657565 -0.3437288820885756 -0.32566495603911416 0.955537987317288 -0.49096014148073197 -0.4907278598467278 0.7496002947909726 -0.604433630889212 -0.8056512101907141 0.7472752429556926 -0.5674710022607813 0.05382304369050655 -0.4877504250180572 -0.13543932426416927 -0.318107589377002 -0.15932473403495662 0.8876026101483341 -0.09682000623053393 0.09991386524842737 0.4718858809293903 0.17099991554020827 0.004947706095051595 0.7084199447128379 0.04648692475160243 -0.8832951991123585 -1.015123448673755 -0.6082559886006489 -0.8605650393770231 1.038246630181604 0.7573725100144411 0.33355189945581376 0.2610312648539179 0.5178333877567272 -1.045379568461071 0.030010544994272945 0.4963041558179938 -0.28917279147456093 0.4027811469876733 0.5384242327551942 
0.38606812643889965 0.3543256619388442 -0.8811272126536711 -0.18734716458662823 -0.3098219409240634 0.230844556934346 0.45989553220262497 0.9542727653150253 0.4503913069630825 -0.3222462576344678 0.005760701028673765 1.052375275683421 0.4686524465738172 -0.04899176012410533 0.8687133470138771 -0.38182405600753344 -0.07184633385538164 -0.3485693131520464 -0.19270854287371098 -0.7264751177700758 0.9439166482709015 -0.5650561658100686 0.18402564589245615 0.387781370429567 0.4572445390752613 -0.14219706017794098 -0.5414434296416955 0.34035165611650325 -0.9431508146006068 0.430407196111916 -0.6399077931874793 -0.46640856673705416 -0.12449672256282929 0.40292798165307464 0.02206591830743676 -0.24812368574043706 0.5564989260666874 -0.652951092416554 0.3618273936669673 0.21307152790557252 -0.7985024678671688 0.938390444016143 -0.5551924233372816 0.796689891676106 0.5123236860534244 0.6054161861250655 0.0007274478397902386 -0.24483999607436363 -0.22413227892368304 -0.12835177720810953 -0.009659661025963606 0.1233323851489172 0.48726204081879054 0.8273303006957005 -0.07331794012440146 -0.3435205556599142 0.6239517024298222 
0.9854964723378485 0.735361150811265 -0.20195750828775338 -0.9742857421780524 1.0490180652597285 0.3315872640056894 0.04180090514885726 0.4873373753419528 0.7152344110968214 0.8590144851303634 -0.4962367381798849 0.47800229758953017 -0.4268339454456332 0.730007638020111 0.22145212018182983 -0.6939799093752093 -0.895197140712755 0.5230884087441363 0.19924679746536977 0.2653788312793315 -0.4480108860831644 -0.3541722017460246 -0.5212035901915327 -0.3249298963534514 0.3334438730465259 -0.42881807016604356 0.5470022990447028 -0.1376389312344229 0.37406717554849517 0.06255653379079645 -0.9356874125613751 0.5291658132176691 -0.523923445551874 0.3699192884586484 -0.45300103594310825 -0.4579487123114479 -0.47311256723874573 0.17958026437060895 -0.876202436126104 -0.03728797136965291 0.5249964285252766 -0.049767227041970896 -0.4619823354971475 -0.6871215213814614 0.7769535945921984 0.17372269728565454 -0.29381233287218067 -0.2983760963789814 -0.1405754765889775 -0.45827474729831885 -0.6413852582999373 0.2386214063926174 -0.6382062015250848 0.8160481406117714 -0.4335083634593276 -0.13001537460258406 0.7113060796483958 
0.42982578851552167 -0.6255486800925945 0.7767699299907846 -0.8647347796319471 0.04075875678837903 -1.1731997457949574 0.8333110417418936 0.33360276752300644 -0.00776706227090207 -0.8731470849562613 -0.10736424719676196 -0.266775268240291 0.32060737175075305 0.24195829033370295 0.7878422538236646 1.0516391484332688 -0.3410012315171418 0.06799200995167554 0.33183264492904474 -0.11411374683028813 0.1519563393409201 -0.161301553655948 -0.9927331343902114 0.5642823045462115 0.12961824958270984 -0.7586294333817352 0.27851507908166306 -0.6645310107715977 0.02794007231823106 -0.01773229155746878 0.2523137884365428 0.847093086590436 -0.7852854141568462 -0.5587542416595312 -0.12443847925696594 -0.8979175798124173 -0.6545191697468697 -0.5538556783128795 -0.10333435632061501 0.49498185751055485 0.37075038567462704 -0.6046556007866057 -0.5336679439064369 0.7919122627982594 -0.5529582007794559 0.6422166320717796 0.8460642367696697 -0.9609586915611379 0.8660997194018802 0.3947217991409948 0.45458566543733325 -0.3909303897300634 -0.04272627340390074 -0.044993538660907176 0.32031038220889885 -0.10726579445861345 -0.15598844384347443 
-0.5394891613678814 0.37760206811538155 -0.8305606280248525 0.46895152633319204 0.42697396187461234 -0.7844684029926532 0.7954614083703119 0.5447994110599971 0.4933236747712444 0.8497395359669855 0.015784608963567592 0.480626694348079 -0.577180884419441 -0.8424945203981937 -0.5413909362759082 0.7008599306644935 -0.9783345132951669 -0.5777584414269432 0.7340445342887447 0.1544938198481189 -0.9712146530891017 -0.11387585116634015 -0.8234665275750271 -0.8358115388811106 0.8405560089313588 -0.5296693975354712 -0.8347355028124157 0.9992346561058634 0.04695061362576248 0.2671183689201008 -0.7462181722120288 0.131980873015405 -0.22760954178943504 -0.48932263776963825 -0.7084021996010923 0.9423357663133143 0.04359102812544839 -0.02165884627376424 -0.64471176136764 -0.13227944904936523 -0.16761377022616286 0.3877563399550574 0.5567118669194706 -0.15275783633002446 0.9647579923724814 -0.2460207771490294 0.8175871432972553 -0.48916783596465047 0.6688214342934236 -0.04408814008525175 -0.06553703269836086 -0.9918835165777143 -0.9511280260080837 0.4967922182694704 -0.5894682642491429 0.7370629808874499 -0.39355517973037235 
-0.9282520182975658 -0.6125587026472097 0.1841167830058381 -0.21554187634940544 -0.7719171613057851 -0.24823922347659816 -0.9582628277638671 0.6198443864679034 -0.04341530229296775 -0.6549482563053004 -0.16414243370283055 -0.7699954652290149 -0.9653013761939742 -0.43692076995498336 -0.3279953954899208 -0.39502024140241915 -0.12375714586012276 -0.9114418641308621 0.38854309733025727 0.5904209382326929 0.7705477707593259 -0.5292927082233944 0.4646674796978048 -0.49161879536086794 0.167129801279857 0.022545045369221528 -0.49608103956389327 0.18812536496768667 -0.3548323516736754 -0.10524125230189757 0.964629446716897 0.9522239445600634 -0.4563373799791337 -0.8649633095619063 -0.23306183032444872 -0.3130518903480015 -0.16473148483958555 0.8176830608756875 -1.0484679981563227 0.008222802602216249 -0.8203026383388159 -0.28223616631419235 0.6069437704610852 0.6804834276370142 -0.8468796420769337 -0.6805365664816012 0.37979720850391 -0.3295923531805574 -0.8970020703686903 0.9508183057841848 0.7945383363372012 -0.7818608583857601 0.7121650575365019 -0.7964857076584854 0.02775250228370397 0.5324650022049546 0.669765875283196 
-0.07989118005060836 -0.7946949490024642 -0.10985256075929706 -0.1682726233354357 -0.0671166142213961 0.3420005236961805 0.46563729119914443 -0.20235271998418095 0.5707212964971191 -0.1518973587026966 -0.49290730420390005 -0.19424281274011204 0.43005074231398355 0.882701595458839 -0.8296628652615243 -1.0134998065666823 -0.7440924996664005 0.25784912355628675 0.34999372462279976 0.7029933990627358 -0.03788656522397572 0.710038461521799 0.5913729716245304 0.14649152946212574 -0.1695001403531322 -0.21209519197885918 0.255709055389427 -0.17129148870705524 -0.15309999127148846 -0.8825224618353776 0.4971913998592087 -1.1033759257759341 0.7084066818204797 0.1501336723380413 -0.8520154647912337 -0.798033337075019 -0.48920237691333573 0.08344968624365541 0.7232349554494694 -0.622009668617655 0.7997609137963948 0.5963533468536002 -0.22983608568739955 0.2969688659213175 0.6667216436674744 0.33611198180441065 0.8060771123198972 0.6114690894643939 0.3149030842685838 -0.276850448114933 0.08980417633567472 0.2121076500761175 -0.2905953062467895 -0.19763964799412317 -0.44375518490312 -0.055657312832766585 -0.8224719517480632 
0.8673817079415851 0.09619595168177941 -0.5928900491753437 -0.08541220226168349 -0.5801296453214797 0.21253894266718562 0.5692984169100289 -0.14817026663833413 -0.704749566818843 0.7288993963203545 0.9942666799585369 -0.4060277938226748 0.8294976243048132 0.8487955970190187 -0.48816259470364 -0.53156439365747 0.30994594887193383 -0.7664176370692115 -0.5246639952153125 0.8865129195189455 0.7471344776868486 0.5638992322099373 -0.7216978998161556 0.7913836940763239 0.7619259011183162 -0.5645975874534019 -0.3128018138659727 -0.9617350142228143 0.6933265492098716 0.35523842442965076 -0.22799996717284712 -0.11683662124694855 0.46486399280186963 -0.10322009323848302 0.34150643808870496 0.8936741354239112 -0.543884164919204 -0.399477392005929 0.6494158168543916 0.4677861940920544 -0.24635726041209693 -0.7412235998785743 0.9517659162684933 0.7466973006113815 0.02258275456325353 -0.14909935776333694 0.22043194159986862 0.7399178182751993 0.8761626679358687 -0.5739496580462999 -0.7116911562499741 0.8254298654412701 0.2389711722410837 -0.7853916886850311 -0.32202085277760495 -0.875558365538253 -0.1579752627085544 
0.569247056075822 0.8797104146289236 -0.09773983959044674 -0.703104574551489 0.4841189776168578 -0.11037950264042418 0.17223092775697335 -0.8172340009810343 -0.048469907168509074 -0.2979835210502735 0.5474045477006071 -0.3667002104158937 0.8595233388076124 -0.9918761062936698 -0.29658159782360816 -0.8608430824621863 -0.32677102179005835 -0.8513025490971309 -0.06785458786368825 -0.3376216199061191 0.7611104505181068 0.09260275937572975 -0.9138145214637109 0.6925132990630971 0.3073489786179351 0.1300771036782704 0.7948388581251782 0.10452443575550266 -0.11320489269344695 -0.7354511028831323 -0.8560381940506873 0.01090768526977495 -0.6928008031717412 -0.4376417550530953 0.8530300237840285 0.7878745024156172 0.5319084280385981 0.4944747631135234 0.5993003791588788 0.8649551782021047 0.5918673807540962 -0.8009359882116203 -0.1467363291892545 0.4371632592903311 0.23909077437034998 0.05982647237628188 0.7252227612613389 0.41289762794688833 0.964079429911646 -0.29292412592205097 -0.32006548934884904 -0.3127313771796088 -0.38326972859076 -0.23706157334368053 -0.6862187013248833 0.9585608639705238 0.8177431257694378 
0.2196799337276094 0.5961148935391642 -0.8497903765459542 -0.6875720957834075 0.6529778570594195 0.7496630559343812 0.9931054516540068 0.415516821270175 0.8597316135839554 -0.11559351457873479 0.713142142231328 -0.6968942456397291 0.013556707156368695 -0.16847602255760205 0.01674811024784951 -0.4031801214160391 0.17275525592298235 0.3095766479423534 -0.15980010189805438 0.0683751213677837 -0.944892626028591 0.5731141095785438 -0.14709830644817704 -0.737924387312696 0.3196921910110848 0.7615798179621143 -0.06865876275305594 -0.4637347598205951 1.0733925152983115 0.014649032491642575 0.18648218193617475 -0.7558499129674192 -0.25323814984516346 -0.5676044176007171 -0.6744400709073961 -0.044417086326444796 -0.45503198437122383 0.332646747292304 0.17501096799397872 -0.5191550288388165 0.32467301378111735 -0.643206291837958 -0.6720413472293654 -0.8394255289624184 0.9782886138842763 -0.605346807768676 -0.7534458577312965 0.38588894969221876 -0.9821263082455725 -0.9290420534600634 -0.6222002769398585 -0.04407176178723744 -0.23541776131716322 0.5588809751339405 0.8014946305358869 -0.8276780456628307 -0.1668285441305197 
-0.8472182385350779 -0.5972789847597475 0.9705120660084559 -0.5429707647807864 -0.4488027693930347 0.29760062069081 -0.32064342398391316 -0.11085776918054911 0.21097040818655266 -0.8351906264472335 -0.10248000295359327 -0.16297139094519514 0.06220180042755984 0.22329326839195374 -0.9585468807659023 0.2092282925563842 -0.20105140023231605 0.009102594488234583 0.24406616354932553 0.14439569689425014 0.08143534804666935 0.14836914713547678 0.9992327082389254 -0.6607071124308441 -0.19672345946829117 -0.41163575876897585 0.9150266016990951 -0.5690317821137616 -0.1964868341284884 -0.7498946624833387 -0.6457877707771318 0.3484110655429858 -0.40473293229481166 0.29993798716982667 0.1813185850074166 0.3590319606627289 -0.6212975342299524 -0.12535114497559907 0.03207171332475494 0.4456331053143959 0.44526862291570235 -0.10351080330025564 0.2331816173690353 -0.2892506175067764 -0.23692344652158145 -0.9027450860333578 -0.8606592897775007 -0.3689709895099389 -0.9083867085419028 -0.04148597598755388 -0.3251567744405863 0.4562549646097693 0.5715096797822565 -0.22760916715392387 -0.290967804368964 -0.8443080200708825 -0.8469939104758575 
0.28450897331519553 -0.9127577318499553 -0.7987398259266236 0.08309156299307087 0.20196366096956161 -0.4975056855947793 -0.0874790164838051 0.03927261592608884 -0.5336400714346508 -0.2914425816949453 0.49845851729259216 -0.5197035337447788 -0.61040136924289 0.19702991376250956 -0.7874379044996314 -0.1259480294569975 -0.4524380747701888 -0.2129272395384716 0.11900346186197597 -1.0746909414181443 -0.5637818564707424 0.2379478676976191 0.2966421014375332 -0.9953845619146076 -0.11873940910474778 -0.6662928572328248 0.5683193631302412 0.2957855932907289 0.4948196872157162 0.8953835424670689 -0.26832933494933425 -0.4918592039881159 -0.7478152275253764 -0.5452598028214533 -0.16459559490644526 0.16815001085272574 0.42659834305985767 0.7651509766482371 0.3508743709422294 -0.861336255504074 0.25810961735852533 0.8714077497271393 0.7868996591979953 0.00018573918012455864 -0.17757727397051593 -0.7427162582151665 -1.074709004826539 0.6931638451758038 -0.6637794157274763 -0.9463469268127889 -0.5905116476053585 0.6933454891835775 -0.05862869012910122 0.6517546164742211 0.5123347352692379 -0.7688585325152139 0.026067837214988846 
-0.23370158705840471 0.9671879290477325 -0.9232259995463825 -0.3923981668447806 -0.2296840919090411 -0.11445005778619548 0.8660104165066875 -0.34282385978729624 0.9374926696988377 0.2647550769263307 0.52143392545198 -0.4260826744519058 -0.022772829449044175 0.5331549195301365 0.24535461073540588 0.3605614991608668 0.8854196539933978 0.7079248684040347 -0.2245374328280163 0.16881721549065437 -0.827715972897436 0.9758764362141716 -0.33894592052401 0.033945934472107926 -0.21067264736661406 -0.9259927935424297 -0.4609652242852169 -0.8027353794462907 -0.5905616793284137 -0.7619920332576685 0.20410414240406458 -0.5447810810760959 0.5888921630071575 0.5438658401181944 -0.28983347920472746 -0.8534345074195975 -0.21952808588589967 -0.8403464250607364 0.6242853007026229 0.46677014590452326 0.8130547727494739 -0.2805880335942328 0.8479177475943787 -0.3507239961645399 -0.030057369370713065 0.2512656875550272 0.24525570641249264 0.35088731723769956 0.7291593901361484 -0.9375797363701805 0.9746827869686601 0.5788008477649766 0.6736268688004267 -0.9016423317926682 -0.5547048080280925 -0.8776395900793011 -0.8277904661113401 
-0.2184814851527046 0.655395707124389 -0.026924113036560948 0.7141356087330736 -0.32276348683269795 -0.4115576641432771 0.5453586690056583 0.27416915670132724 -0.7690610634294794 -0.5822393079225674 0.22002460976585492 1.0213504719605477 0.9594058928620544 0.7932916704724927 0.7490069999112033 -0.6748664404848174 -0.9705632043513068 0.3720831520854846 -0.0461034567863845 -0.23406897296068518 0.9541438837455043 0.9302927984293209 -0.943879322145027 0.635502713803409 -0.3526200306886411 0.29540387772369203 0.13392909404318032 0.6516797846533877 0.02663449140480919 0.6742062766797193 -0.25194410492518493 -1.1162893093908268 -0.6810759774720831 0.1711429703099434 0.007830522994500377 -0.6832138111267098 -0.4414513737496601 0.7556927782372852 0.7083163696365643 -0.18210365427418113 0.03514312257259844 0.7105787041645248 -0.4673984715300916 -0.23781794792980748 0.20229914980514555 0.4927980896669426 -0.3429086940643821 0.35753734973174073 0.17386699549124418 -0.558470527613758 -0.244722002765124 0.7327889000663542 0.057946502778665955 -0.34956842824372353 -0.4204722072187876 0.792720733593664 -0.32796627768844444 
0.8910930569810425 0.3877145896250307 0.5658654714545632 0.06453369532829271 -0.3495132430214366 0.24981880649416088 0.5066858074621811 0.2595235258991734 0.8809420448201593 -0.041353760366954484 -0.7306503653707204 -0.514194450294865 0.7009370562590929 -0.8596070290256839 0.09211368679363068 0.7760630635425729 0.743216340779054 -0.8672313979806949 -0.4397192369630123 0.18426559488155933 -0.8718388329514162 -0.8964247910832629 -0.3876872002742178 -0.5321006822614933 0.4609129849318314 -0.2755317428667332 0.669152453082305 0.5569207651608109 0.35510357392048797 0.7811314151521176 0.9044214922790115 -0.5965989412391861 0.4476852886213156 0.126007271966599 -0.6181652696206084 -1.0640025048614108 -0.6277615386529563 0.34373190840992907 -0.038672212793362006 0.2720260053277685 -0.2108386732990839 0.5326464829595166 0.9246599700457785 -0.7387876178446242 -0.7928554209496295 -0.7285420070628658 1.058813863944986 -0.861445619339419 0.8428639769553423 -0.1928501883969489 -0.5748571898282142 0.7595415349140733 0.8516150747591463 -0.4422935114593649 -0.750184383790838 0.022609161472585026 -0.2128470412350269 
0.8554550779412431 0.03784319791079427 0.984967604269261 -0.7456716531885252 -0.7472267014714419 -0.36270585206625033 0.7542337260590447 0.34506496446857304 0.7518756800432562 0.7594879303738449 -0.6573308041670156 0.6244439562001551 0.4366287372629465 -0.0756448845605776 -0.04025643819738236 0.8731634700359922 -0.6766388029982153 0.2052491736794948 0.469983654759373 0.49471723061216455 0.20168652517853303 -0.11646525806878769 0.1746011881074844 0.9212495562868034 -0.889739889248137 0.24361760227991192 0.5177179668312601 0.28881506236129006 -0.2994197902145555 0.5566896181752815 -0.08942681902686866 0.7390285524858564 0.16994383851519745 0.3457254561382903 -0.13282424633130363 0.35858611649919603 0.6355430425116633 -0.06899449026112899 0.5295341956994654 0.38851205189397614 0.2173786207791535 -0.41644369039068674 0.6681129119337457 0.9699999911149613 1.0939862679925836 -0.3509522217571082 0.041250072881791555 -0.36578920065280296 -0.9199002006128947 -0.9503903229515036 0.5562732642777186 -0.29506759050120457 0.06290032763125039 0.20198720279237664 -0.30570328074953895 0.18766847018408206 -0.45060647292403394 
0.34258491141317116 -0.5591859560460677 -0.4075171451468884 -0.03402921617213481 0.8451786426092174 0.8565523207382612 0.8005047765493569 0.6462996718293497 0.003128152145888574 0.3024936744370932 -0.9890776839714774 0.1990070485721807 0.726122092946697 0.26844736123846896 0.13491834263802543 -0.31168214639660763 -0.11176040194656478 -0.605867825840319 -0.5472040018575264 0.8920954991877469 -0.23616200602098608 0.6827485980226499 -0.774135821451752 0.726566498161224 0.34118033710225304 -0.24266784796391883 -0.6885667771042163 -0.6524132465540367 -0.7196033322258459 -0.6344512443800816 0.7708408814723371 0.047439319454935534 0.5368848591325666 -0.6623376455563432 -0.06953144629866959 -0.9077979549651152 1.1940807991837927 -0.7799259701866167 0.8053314663650634 -0.7044584175860307 -0.6998616874310737 -0.9946651682012695 -0.12633613097212426 -0.7262171291295545 -0.24628104542471316 0.09826633318841219 0.9585682785698749 0.27934647153006414 -0.696945023386319 0.6591997371523282 -0.17657489348561328 0.34137876431225217 -0.6945016165483007 -0.185044085003949 -0.5869395769192032 -0.08932457857136061 0.7917833784119612 
-0.31364487797357254 0.32058872843418706 -0.5466754899970354 -0.6228909336569287 -0.8235594972071125 0.5301647339983323 -0.7549062559893158 0.5295658580618038 0.9492953348997324 -0.6250905130903879 -0.09582061299147204 -0.8009072531015419 0.030922746749636115 0.8550039407101062 -0.7762122071710967 0.6077642625502927 -0.2752394267064633 -0.47581595246836605 0.32599447464070574 0.8266654233144761 -0.09211115328043526 -0.0647469063194036 0.9892030880820296 -0.42492384596135413 0.6434166692840544 -0.5894076192628437 -0.5088758000259306 -0.6585097573740759 0.07793134347608244 0.57409095930034 -0.4338015635617388 1.0020010644768274 -0.0915654243146482 -0.4714635248395076 -0.7478257795493184 0.2231865988564095 0.7442042988345136 -1.1010084822169812 -0.9760357919346103 0.4764826836495195 0.14223059690126916 0.5668464888820199 0.5145684477752923 0.8762975461090963 0.08075509802143972 -0.7599251786009784 -0.0707153040244719 -0.4271160241852592 0.414950072973852 -0.6578426453232924 -0.7442144594726732 0.17589463166614883 0.7238463565246744 0.8263898254126184 -0.6298842412722253 0.6927638985484956 -0.49176783834517884 
-0.6206454031008115 0.5807351217407544 -0.3344498157974798 0.6768847766868911 -1.0918805737074473 -0.1349022932460485 -0.23886486037428115 0.8957876361834451 0.9504601484816404 0.8413571087734328 0.4783707455137385 -0.7076906396426731 0.6081351971667415 -0.30997712116237713 -0.31304498981329104 0.7291516284561931 0.604638234892273 -0.5734893022834069 0.4110361556727886 0.29747687619688074 -0.5888041312676255 -0.21235923221209024 0.5157008107355056 -0.8724530463011295 0.641043731397986 -0.4362406795614078 0.044997440973693514 0.7340089014133466 0.47259954196554615 0.3664472023308893 -0.9280096966397802 -0.6537746451069364 -0.15725935750094555 0.9727356500377742 -0.640020422396907 0.8528690809467864 -0.12636068680164853 -0.38419415802476997 -0.6675877760810874 0.39247282802117717 -0.12113859327375875 -0.0730085830125553 -0.4218075188535022 1.0564902778229732 0.8247317074489131 -0.7172775176837454 -0.32189516105801835 -0.21075777801682632 0.02102105327592385 0.7935289105864969 0.7136693587814928 -0.02422823823206824 -0.38461644765807695 -0.472986988693226 -0.8181900445892818 -0.9054775442532429 0.7951504530523028 
0.7167808015102848 0.9740545180904445 0.9024851841674719 0.6775925978373076 0.9424689360268662 0.3255394401703552 -0.3177750446081231 -0.1308983363164826 0.23725742207116984 0.6534420431341508 -0.012277806135100988 -0.5252826693636206 0.3839064672394022 0.2836098568160849 0.6804583347796338 -0.4552450861669233 -0.8497620146513358 -0.3987994883366892 -0.33336925224601544 -0.5532029353968734 -0.37582414392756563 -0.09456165537720718 -0.31948894530084365 0.8490716937687358 -0.8666814484460563 -0.6081107305219167 -0.5194392008114048 0.1636838104688907 -0.7216131669526176 -0.8450355748265407 0.09594290933591419 -0.2185799716941662 -0.1931463908772395 -0.9629038132739536 0.6335612768470626 -0.1100865752518387 0.41058829812522674 0.4447417650155153 0.4388024780542853 -0.5596232077853389 -0.6555701598897345 0.5071831881356468 0.37370855110860735 -0.7377300000189132 0.5588592664883962 0.12906435917445552 0.19046061399639785 -0.9110059455651697 0.6515865541036134 -0.9164730317886383 -0.65185884473972 -0.730717144623877 -0.4102463467742154 -0.5942353630095369 -0.29886165304592777 1.0010055108761537 0.7755159217369938 
0.65187524695884 0.08630487300402012 -0.027220560785483183 -0.8030788090253707 0.08132114884565508 0.07478296093808579 -0.942742336029834 -0.4180184793577234 -0.33924525522581095 -0.296522262884797 -0.38793004632181183 -0.04684047383079274 -0.876636263402629 -0.01511946414361925 -0.5381464959923309 -0.7561071128704219 0.9069541514707387 -0.525298879033721 0.24293560734726216 -0.08105494646129634 -0.8479658893727997 -0.5237799974178151 0.8917232933657475 0.4419622172007507 -0.029355415698986365 0.14625826848920775 0.07506372537637107 -0.050580826507144454 -0.5750303085362629 -0.5727399146060638 0.31078430854848976 -0.662921777149302 -0.16516163718692578 -0.22321430141372045 0.5897392800094436 -0.7007351860886404 -0.6367109120689088 1.1576068647301032 -0.7982780789221204 -0.80964057790951 0.611661391612172 0.6747435079918629 -0.45854996033346174 -0.0965444199081846 0.7448683278439892 0.4337537929787294 0.7707527565485537 0.12143983406762686 0.6439182846178308 -0.8907193590108895 0.9461473919152286 -0.5013349202872504 0.21744767588261432 -0.8550488002374956 0.04116128663707122 -0.11516206101698412 0.9144195840777327 
0.13900445191720667 0.36654499208418745 -0.1112511950256212 -0.4664516306112393 0.5767254520149271 0.16597468131721355 -0.3877171379568572 0.10287348232247391 -0.4190695838048484 -0.5484485819933427 -0.9973836534659881 -0.723535159018528 -0.6386286388460689 -0.9689331460379533 -0.6688848445528162 0.44185343576601327 0.3517698652596766 -0.4584961107002914 -0.054493191386713935 -1.0499226879919152 -0.08187511737549087 0.5361602706318489 -0.8393978441766582 -0.9556324782861597 0.23623937276374463 0.6905812818563664 0.6779109426549221 0.2939255738344448 0.9955937150102351 0.7330694247436546 -0.3392202141107815 -0.06051879573620822 -0.8347018361423499 0.10891921098772506 0.8870158338118539 -0.01681437202155645 0.4117618625265758 0.548589799272862 0.4500203973490776 -0.7317514773046542 -0.3618557578873369 -0.9417402790214302 -0.3786102441229826 0.4704797954202602 0.3242316045582419 0.2489327221578736 -0.4616040804348185 0.20386049403977272 0.7376036727189663 -0.9841330387410125 0.33860418515657287 -0.8581412596018677 -0.19042880768698647 0.20897345259934536 0.3794554659927405 0.7990400361166552 -0.40360988481803567 
-0.6834464598203345 -0.7456551690347104 -0.5145622534764045 -0.2694674038871855 0.7766620588813122 -0.7005036822465347 -0.3197183165481925 0.5431942843762821 -0.01638266899969909 -0.3631697006782151 -0.40851338795161607 0.5709537265624908 -0.1754347846894712 0.3344611780049359 -0.49784869796530173 0.31376860171738485 -0.9456377969702012 -0.2725145481120086 0.30175265756112535 -0.9518756004594892 -1.013865615475416 0.1193328498011143 0.21595592774969852 -0.4514076208284057 -0.2736695164207823 -0.6039553061769247 -0.6593968665055985 -0.15678023885632647 -0.4005739166859415 -0.22766162494224398 0.9639179633108086 -0.7782668083760369 0.10273948891798113 0.3480591558813164 -0.4125402957814035 0.5718826763320608 -0.3342479339382103 0.4377246499106068 0.47066208296370676 0.8791041075913368 -0.651013629550917 0.0834346796539609 -0.8019907339508907 -0.309367455794641 -0.489155529092328 0.2982063902445165 0.7604890161788411 -0.8492849123889579 -0.16391329386960352 0.31597389425504785 -0.18029380097386216 -0.8887425796352626 -0.04153497675303418 0.4516380240277748 -0.6808783553721076 0.015266455794044892 0.9222273778572643 
-0.02253219667891715 0.40232522484061883 0.1843970908210102 0.4459300931326106 -0.4335256696556742 1.0622087672494076 -0.6110664961976999 -0.6517627710313206 0.21035998275285706 0.4886338528272012 -0.904959253951976 0.3390563920447157 -0.6836104655826062 -0.03037788276434541 0.4909984852346494 0.43365342754704167 0.9142748004758776 0.482230603170098 0.9367633320822322 -0.503290299746623 0.802548747613223 0.15254638291776984 -0.14908931704592876 0.3668056497745506 -0.8634930122425373 0.4974632438063762 0.6837804810990382 -0.7785267720827093 -0.6666332836094859 0.8097800686659291 -0.7103637925066257 0.20927682463563366 0.970674724036136 -0.789953254672058 -0.8478018674533971 0.8484074522046443 -0.3701492846197353 -0.10151629124041335 -0.168378781468631 -0.7809118127423864 0.4176256857538061 0.4524124916233765 0.8096762649167148 -0.2938332714931756 0.6092326773106498 0.6781658606791925 0.3579233587384945 -0.5410355338657477 0.16021762934252815 0.6027567252964803 -0.7436909953539774 -0.5454961620244265 0.2816490724657345 -0.6033923055514478 -0.8839795559501196 -0.3889692981205233 -0.37412218638234535 
-0.6472458767571285 -0.8500743843392922 -0.7683420680541713 0.7335419911630882 0.5228785762833793 0.35845789046321874 -0.6871072079347594 -0.1554953695632791 -0.12304455466719233 -0.7333747877687837 0.9725789065313417 -0.05498613010006684 -0.8385119779547299 0.48411002576663853 0.9944783383716855 1.0024441666747959 0.7499081752252461 -0.9194559120621351 -0.6996137693460971 -0.12615907567053927 -0.4940877397282525 0.7702891520792481 0.9569901902799932 -0.4617327150113932 0.8307611279862157 0.25295759892871605 -0.16085449192081502 0.7741602247462127 -0.09194413345394613 0.28308244237980296 -0.2951668361098298 -0.07127187948351614 -0.3234816898291042 0.8518882543192368 -0.02785659631746129 0.4383833715322736 0.03137304890099962 -0.6867299933968796 0.2177457678703749 -0.6805841867472818 -0.9749123544902523 0.2839014596146021 0.1254951832365554 -0.3875363951792601 -0.34484355213662304 -0.45585021453786395 0.5908356665088894 -0.8007068646076011 0.13729521238364595 -0.539976089861044 -0.979150636597643 -0.5393472643269076 0.7180566955622328 0.09518006644321446 0.5008238572353599 0.3596594534203927 -0.5925932649139856 
-0.7662696899344257 -0.41309508704041265 0.4193082750090704 -0.682092726876849 0.6481919465601987 -0.09372055014547363 0.39138138138794587 -0.8861783929865898 0.08842976702325855 -0.35076836557640423 0.446611200952588 -0.3831145648674199 0.24071547005292934 0.12154823790063544 0.8656967305602609 0.7781733228460107 0.9967281850281702 0.752817553578423 -0.3220713556082253 -0.6200134267257394 0.030200583896106258 0.5990515383695278 0.04131481604768915 0.7882446094287646 0.41310555746249156 0.5014956205755186 0.9519132310885625 0.1609354322230737 -0.7644833861408646 0.5379659239533504 -0.3684974151645325 -0.7434311034319124 -0.20917046100783798 0.9020818585741617 0.1704566283866107 -1.2026845739326721 0.3728629985576953 0.23352827308414176 -0.6985257510133097 -0.9263232488314047 0.9688097743109196 0.4152054898113764 -0.3143588061466911 -0.06584702534026528 -0.0323441932969247 -0.19482510482901533 -0.34899917870937947 -1.167332137004268 0.39418678663676765 -0.14916246994845528 -0.002233140703222114 0.265420219390023 0.9761511748734742 0.19831684526225762 0.30872298966674305 0.3357821508369826 -0.4980832508299513 
-0.28624238455630846 -0.48359108277183815 -0.2974923857987377 0.7212423313750316 -0.8449215233163377 0.8292654084429333 -0.33550555807578286 -0.25135882640029605 0.3894096145678836 0.8803762884140396 -0.7083229275060066 0.5111340806859208 -0.789153409524953 -0.07485804629790523 0.5830883768260787 -0.7630140392213902 -0.681891620272512 -0.28128764201616674 -0.1314259121864867 -0.9775143644542852 -0.3394374799691565 0.5723327296475684 0.11126183288446513 -0.8643229511474038 0.6347146298706738 -0.40755275716326134 -0.14623448490391633 0.8523522927617463 -0.6642831227747525 0.9284443948799951 -0.12083398522144732 -0.03335243653902715 -0.7451555494507178 -0.3922519687112307 -0.9609112024271378 0.44053763941405094 -0.6898859970049906 0.44053782776006456 1.0165463655785603 -0.4925767282105703 0.6556264423208817 0.7884132833091031 -0.21548460873392772 0.39794857867048977 -0.2174816488803323 0.23096838466381062 0.22563978493064266 -0.8145316914121633 0.6673840004877607 0.4385877901648012 -0.068565896208306 -1.0629992973368805 -0.43348193204698704 0.4180106071120982 0.6950188897998881 -0.7702553056697544 -0.28393451652252827 
-0.46448183536052645 0.03666497171776539 0.4483529231174579 0.5779145045299825 -0.27554745598800856 -0.7928258331805201 0.07387749219563403 -0.3513498644618347 0.948271230009859 0.8731372082515338 -0.5893861538450751 0.4041162350018312 -0.2692894565401336 0.012340749850714865 0.031191974113290503 -0.36292603856100847 -0.6251350793313164 0.39775353660985324 -0.8059409513166436 0.09658792668897166 0.4732510984112378 0.16410489227285066 0.049297849177086656 -0.8482951646254269 -0.6839597169827198 -0.16679500121004964 -0.7638475281801289 0.47297558791254557 0.16028312224604122 0.7491375790764325 0.02622305527076449 -0.17234406292442694 0.7511765321795112 -0.03592475422327146 -0.37172775025400195 -0.163832637597165 -0.8236163290926143 -0.054901103702599006 0.45322674434586274 -0.6913415882682985 0.2911874447102012 0.26211639289038335 0.6742944431691527 0.6549782903964624 -0.8981438182741593 0.6946776079371877 -0.5313010733449947 0.148384206255929 -0.12392160816496123 -0.4708801510179905 -0.5703941288021412 0.7756745413942393 0.056484689979228495 -0.8058156398363013 -0.8750301543736893 -0.5145041938638506 -0.21017371178230318 
0.04555528219850391 -0.9215658740382546 0.3842026579822937 0.8035964997262706 0.17978008285883176 -0.07631069935129127 0.6318049913955309 -0.8915852786382342 0.9324234382058219 -0.06393009927081139 -0.8405556509004115 0.2630846925747592 -0.13350641924492634 -0.8286122668284412 -0.10118580048954033 -0.425528775955718 -0.6014262179794618 -0.1284742081152881 -0.2307773817312324 -0.4700952627785215 0.11195477116664047 -0.057907905774609386 -0.5908916846901102 -0.08474788815990225 -0.6599429315632241 0.5232643771284682 -0.375859081481529 0.3694093361283051 -0.0873236623088036 0.5471396651221451 0.856496749298731 -0.6591590762577502 -0.1029073485227947 0.47580576162856714 0.5540543656778232 0.06944674816874466 -0.35166911127397216 0.06612278328626227 0.3186562285243962 0.7705345971833502 -0.3594363030764609 -0.6543323013340123 -0.4453597602679613 -0.8901167589703892 0.9623146363947142 0.5343665094535942 0.5882451422651886 -0.08175218167109226 -0.6688875579157716 -0.6242733528914288 -0.7990991198587445 0.2837887012866306 -0.8973633245320806 -0.8198140164111022 -0.42655928341224425 -0.81047474788135 0.551020467408035 
-0.8908350960337184 0.74941414466614 -0.012368918654760419 0.13163314810882026 0.45539153345791383 -0.8963809407788779 0.4480545622599087 1.0135680017646436 -0.8614552233690387 -0.74308562604371 -0.17595621752472246 -0.7735181610717217 0.5781197796639946 -0.5655087276022928 -0.8987111337186596 -0.8223668497676394 -0.21504470134163034 0.3218871895070361 -0.6099044541483742 0.4791198526752943 -0.27502457493541993 -0.07142935681047971 -0.7343826902247185 0.6454700392936902 0.06464122397300676 -0.6747076398174814 0.7485832499607841 0.40358718736677685 -0.1495602319463913 0.47416820024863193 -0.04307326547490909 0.32475296097769735 0.6847662377003831 -0.7967628551845252 0.23403373344038347 0.39277076843536696 1.1977065290193583 -0.13251320481541934 0.5528635727581098 -0.39011892757800665 -0.9305555829392325 -0.22193342261164672 0.7224266093695426 -0.5901266302426487 0.9732049390707711 -0.6387308971960981 0.1961249840032494 -0.3697889558523605 0.4476996147439136 -0.11832045860082463 0.03717565429290626 0.6699455188297563 0.6540281354209365 -0.17033840902101813 1.1958898313647364 -1.035689915143943 -0.7656381040603426 
0.44420762441594386 0.22281029031317923 -0.35182322061217386 0.34272571318662765 0.34520036456371717 0.7726882205000064 -0.5450644183421348 0.6030222047594128 0.03912665722623054 0.33317455313922695 -0.022213453002726702 0.34515201343857804 -0.4609111479909265 -0.012639069080710738 0.8355975004099065 0.37002750322867295 0.7376561184236201 0.6089289520546601 0.8613980410406314 -0.14311381384908853 -0.1603635177007276 -0.02745294216463082 -0.5078335207073881 -1.0123797866973094 -0.9084372207673823 -0.23000980968524054 -0.0481429336060295 0.4155253004060685 0.6545940181902776 0.8259447920335883 -0.09229480352532074 -0.48027007389458454 -0.605506568654453 0.3019688331277326 0.1929632812318567 0.2538825566211203 0.740511929530451 0.18397661784069103 0.0021871912557453565 -0.9232144316809756 0.25447612530716057 -0.38028018826205434 0.2627146403118519 0.6316030449926655 -0.42720387484618094 -0.2255777363649375 0.15952130369550097 -0.25747545615122075 -0.593780949703048 -0.8783581483710121 -0.15583181810852342 0.22973844156340872 -0.8030261614902656 -0.6564066403768867 -0.1926568366603096 -0.4590768088168954 0.7528544703710225 
-0.6521774767656559 -0.9726992606176881 -0.49199271140662204 0.6101801903325202 0.8949608775859857 -0.16578147481241765 0.27445182439423893 -0.9473239362479735 0.7976112317019546 0.46411566519703196 -0.8563324304506199 0.9406821673284711 -0.12510831824188381 -0.5644674616991221 0.4514952975428556 0.31739673114262057 -0.5768263596889747 0.917733138868218 -0.13076748439059993 0.39429423952505877 -0.8495500107641879 0.44568063665929925 0.02563156385093637 0.5695580491095833 0.8256916281849727 0.3292028968748313 -0.5895470280704116 0.7891755417362311 0.15601024603490013 0.20619524653673946 -0.5157986810596138 0.13394658629291872 0.7449513442455067 0.9482500286999511 0.355847151267489 -0.19533898347139164 -0.42743352689732883 0.21936953758644687 -0.2053139045312721 -0.3655261316568409 0.9889463673860148 0.9740768712633137 0.9936199192290258 -0.34766770942317354 -0.7838315982938537 0.6842985790981575 -0.7345904744744527 -0.0023796579788353043 -0.09599007936959181 -0.40506196915704895 -0.5574205306386293 0.7719088158957267 0.24513680736063154 0.714046891543636 -0.49366065120642805 -0.9631241183071882 -0.6104467458568881 
-0.5612321279415862 -0.37403239380456377 0.3996434657726988 -0.060647009396393184 0.4491148651877102 0.16749447268393639 -0.3795797180701215 0.626908360298433 -0.5020330107177919 0.6903331535298889 0.8440802461450436 0.9673123576630954 -0.666202664008785 0.2894263496827523 0.7591801739230777 0.37152851922126545 0.1360355779861937 -0.05425871527506376 0.028523612660621867 -1.0718128446661794 0.17531794113845395 0.9628998553771675 0.2407064653864221 0.14829508234004174 -0.44615842001062567 0.14058322986704552 0.9375994399166909 -0.0038771226549028665 -0.98385875735947 -0.21383638999883908 0.5590747722868423 0.221548188828331 0.7209866921815118 -0.9027234362754677 -0.19187375974908893 -0.18467342896031416 0.36759588057846293 -1.0824637363617782 0.1793293224310935 0.291898355037525 0.24431405181775245 0.2069909816783917 -0.05788882014725183 0.3540921127060251 -0.6225497807415312 0.7449574849170151 -0.7693921753544409 0.305413127260857 0.7633366183006511 0.06958382585272904 0.2720251139406902 0.9685599628710863 -0.28920458263351406 0.17592004722298704 -0.6965799490774665 0.9533095219265084 0.42312148418086876 
0.18308168933692115 -0.3611795218475178 0.21466724342813737 0.5444954677330922 0.8758387085295626 -0.9219192947675382 0.8831150183755475 0.4585918615178545 -0.10567463486926498 -0.08595832562841399 -0.40673010672940246 0.06578173172620207 0.9206401688538955 -0.1424956264529907 0.8594649697528444 0.7469999625293724 0.1729792382445563 -0.5639934725148481 -0.07103001754713478 -0.26360836765016954 -0.5736128477824737 0.9561408355125249 0.8170387311684377 0.28783722814233276 0.393207812919822 -0.9909439439654681 -0.3815283107340832 0.7036174576110129 0.19054954482038716 0.37152682322635544 -0.974698890200975 -0.6640495274910737 -0.6983554835345622 -0.6415262736146843 -0.1603595735603507 0.4019623656715194 -0.6833306656700459 1.055212245670931 0.32748159880796235 -0.41948497520400474 -0.7614940265894463 0.18162262489561587 -0.5772064066398175 0.25909201314611735 -0.0919845352599551 0.6084283114594732 0.8811812247194887 0.30461086133393556 -0.7985467048841082 -0.5759532983621984 0.5325285059069966 -0.008453505077903012 0.13116088809514534 -0.7986151883406016 -0.24426749045711632 0.42066311629195363 0.1601976243418791 
-0.5444299972658888 0.6788484937382078 0.7593554418082162 0.6107569391137879 0.5558647051340115 0.3504287252241927 0.23550374410650768 0.2680635759831062 0.9128927561619229 -0.5689356065048357 -0.4045161531076231 -0.4601224095501336 -0.5636139672118856 0.08568387077169273 0.17132452233121617 0.85518152775644 0.16785115132518502 0.4718543251080376 0.9406131544634402 0.5143438498192868 -0.4728110045813805 -0.5647985963751062 0.07143777354640839 0.6061829667058671 -0.9604000062433729 -0.13306538570646365 0.6655101084696424 0.13820258190218734 0.013538622909841045 -0.4792631336354083 -0.9023174712304145 -0.7620809459558114 0.5988073796156932 -0.913002132070704 -0.9125289131287984 0.303682993484047 -0.8520885013391019 0.49213826853470993 -0.8982627633605517 0.5883987963735146 -0.323848770295186 -0.02251280028380953 -0.5584247985566406 -0.8646442567712987 -0.05083287143311505 0.1979296017244765 0.4620666610652256 0.39429722917377946 -0.7658357359855954 -0.43973413801843075 -0.27450423452063166 0.8935355050407885 0.7775891520932244 0.04872735264535555 -0.025083432528507626 0.63345025950644 -0.981867814253013 
-0.2168102798805478 0.6669485666866828 0.47522411782429264 -0.8426209484590099 -0.3087854617135647 -0.8871245003834235 0.3065185086618832 0.8217043276328361 -0.7809575623337128 -0.3578465411529157 -0.2977949273228222 0.22423915866297514 0.6997691670944228 -0.43818031548126146 -0.5981379391029709 0.9011414430808414 -0.13993641296914783 -0.189011296039451 -0.3003463163518538 -0.13169564026625355 -0.742564515562392 -0.09222302212737274 -0.1535431540008946 -0.8229174058043606 0.9628634192964227 -0.003540642157728424 0.31895934108808377 0.6693190015772738 0.8113761860071788 0.6456320757190791 -0.2355895537799031 0.6831232584677724 0.29780476002443934 -0.827004736986994 0.40754571471964884 -0.6079303909379846 0.1811329487467998 0.33431647511084545 -0.3085832188784601 0.9433914897596906 -0.19826471074934382 0.0996411256685299 0.7914792025910993 0.4104423412785888 0.24086375055984072 0.09506467982004345 -0.23724579712908456 0.16059123576330317 0.3379446939159325 -0.8982022248241921 -0.6167604927756443 -0.651799024687992 0.7575151287391445 -0.7121582106066495 0.2662642705199056 0.3445716245151338 -0.811328494371667 
0.665550455956389 0.8005606316865108 -0.2416139578114025 0.5624079493456121 -0.18540323413128534 -0.019814362253709326 0.7836419811382773 -0.14629157536248916 0.4031813172763048 0.7639401581908332 0.940563759867 0.7207294873453864 0.7259824161099023 -0.32335784707244797 0.002563843054255181 0.3310563249360236 -0.7384880738565556 0.13066257154362249 -0.1729986482307837 -0.29859675830082855 -0.133591570800292 0.8369844167142724 0.02819224513297859 -0.370662272016263 0.0187499581312891 0.6601742394461017 -0.2896270558727443 -1.0166520062697415 -0.9888575967482799 -1.0085062033085384 0.24540298978661954 1.101138363842306 -0.8308505291752981 -0.9634990301896025 0.4468191697682302 0.36075121157017564 0.30176265111540845 0.6756082290198219 -0.22622372891327114 0.8122151132320566 -0.08067918532937757 0.4483030707633866 0.8516526916313614 -0.5180732814216548 -0.019531032612079103 -0.602800499141262 0.5578265523490447 -0.043537354629389735 0.632900756096791 -0.9435633489080562 -0.028973900804650343 -0.9850065675883206 0.44885699919615873 0.8493887323815125 -0.5742727534677136 0.20406833839519503 -0.08665849106986326 
-0.4449128237021267 0.44426669658056284 0.2971890012406926 0.8598788738743947 -0.4100372106520943 0.7237254906386822 -0.07493107125321366 0.13637626601832464 0.6074769639349547 0.10873986639264954 -0.9389958852775568 -0.8874995882843341 -0.5719161003051818 -0.16777591114186377 -0.2876510696401655 0.31940211103816163 -0.09586794212115057 -0.49375248096722646 0.1406304590202554 -0.8906487290135612 0.3171327428163127 -0.8816446097953731 -0.24591097400499795 -0.4597067170462007 -0.25672501924271174 0.5617742553880447 0.10201507410783806 -0.34883288310275595 0.049264795813598834 -0.18261441728260766 -0.17563203464503113 -0.3223147886249015 0.30060630561513224 0.8941749437141278 -0.8814047698066692 0.4793570410699451 -0.7866914771872191 0.8196630632132641 -0.3899023266031982 -0.17141778972231494 0.9730065066777744 0.5095496774030299 0.03409637537998478 -0.4637265665728706 0.45507751873222774 0.04058216395424297 -0.6983293225476502 0.9245543894161843 -0.5034914210894801 -0.21459184177586832 -0.9783469946073577 -0.9847412906940317 0.9841463843823974 -0.5388308641364848 -0.9101885503480078 -0.04861378080229494 0.9680990870942506 
0.1790389118890332 0.7491240696862778 0.5746745162740243 -0.376989017873161 0.8185777993336883 -0.33679819007262596 0.5951037361043867 -0.42710171545896947 -0.7861635417624264 0.6025929863057937 -0.24728442927509664 0.5984438392858848 -0.6244151045684428 -0.8039010666041312 -0.1877320323044863 0.06013656312720484 0.3475004860664821 -0.8332329256520781 -0.4929577712746558 0.5646078211453547 -0.7893133362992416 -0.33140484898306416 0.5126080098077637 -0.5360414119192297 0.32094978167966426 0.18289730020686745 -0.6171212624333362 -0.2933823892013447 -0.46608079438113587 0.5086208947069819 0.26976077089453376 -0.09100366498236108 0.3981602788365559 -0.28848421627572174 0.8032747982255477 -0.896661457112469 0.5030699211292378 -0.4858415496266516 -0.19513374882040344 -0.36742651761844725 -0.30673101797185764 -0.1224087621740706 0.4458455484068824 0.6608368934278174 0.8744003772413741 -0.3357003741202685 -0.1208531215666696 -0.22158625717898234 -0.36732058215541796 0.524121845022415 -0.8186124716195049 0.30955455476141325 0.4443774621409705 0.662066062478569 0.4935144952998889 0.8569706415755798 -0.8034129948333104 
0.3971446905133198 -0.9355898588491212 -0.3674802842934586 0.8408182628410918 -0.9434399220703401 -0.1544136156005043 -0.392931696244436 -0.42169833652898303 0.6797311600840832 -0.4609739362826295 0.4399084194526004 -0.7410898131104501 0.9632898571671455 0.9136179268742142 0.9417825549462352 0.5039217504436636 -0.8474399643937525 -0.13890953879914214 0.5086459073911929 -0.9204486693797668 0.882730028496505 -0.8374888636636024 1.0245925250192385 0.12601307685910929 -0.3215811628284069 -0.006909840071386064 0.4544863057057862 0.6104536083671713 0.24981613467050362 -0.7519484295251742 -0.47641226288256283 -0.17140311224478522 -0.4596923853919992 0.6976321120830387 0.02946815376246059 -0.6042106267574935 -0.19454391830209078 -0.8948853862556032 0.6969849138230795 -0.19271044891074746 0.2640617312292888 -0.11459876156082416 -0.548898447765855 -0.5138937781312892 -0.49325917305942574 -0.2767528313832837 -0.41844090242883475 -0.044806810515237966 -0.3768185333386884 0.5777595943909535 -0.9814839810551199 -0.6862434028873473 0.5410420919794119 0.6898587515098372 -0.17344968927830665 -0.7779109245684095 0.16101220317812875 
0.6434323413358893 -0.05493046669690815 0.6935920904474753 -0.5374180124482041 0.026028530884253474 -0.7451348856464173 -0.947694711509232 0.20264674899075086 0.07794926394611035 -0.5082026427539832 0.9768142169315113 -0.6319551594220456 -0.7453183354398664 -0.6961111069492322 0.21701761237014222 -0.11588306740857234 -0.36743179962463035 -0.7449801647987713 0.3575791914529314 0.8521422886103204 -0.0726014178969011 -0.6231783072076376 0.4025452622446789 0.2101949599881188 -0.23070963138587208 -0.601713573510285 0.4105190386226192 -0.29657595186042746 0.42242656742707757 -0.44559081039160314 -0.3118065916257602 0.46419146595206345 -0.8954904464017404 -0.5480558761671548 -0.8682674565463533 0.7535841734588563 -0.8369895522658585 0.6509005183984332 -0.48756893223921255 -0.6081592722942971 -0.13582391017549011 0.4443992663797558 0.9834669056272707 -0.5631644075912309 0.5563645090761541 0.9683228256532526 -0.5251286658414396 0.7507668368735566 -0.3667938470437566 0.017934177307012522 0.20822285790404949 0.3293290932000484 -0.505193331902851 0.18348209859964532 0.4329133420667714 -0.3302611191828025 0.5573046883859157 
-0.7091614315316834 0.7400665289220312 -0.6895588381747693 -0.309578511578351 -0.08355792772533434 0.48595847428678346 -0.17662265056331913 0.6800187640704055 -0.5115878300710077 0.9254486294477644 0.39940498138488056 0.5010530320423939 0.12724638890149703 0.445234225652177 0.4384111145302672 0.7418577530680232 0.5503671259655785 0.44498256540208625 0.6561306473544803 0.7115304002480118 0.646666710656765 0.7774551995280222 0.7616298647321054 0.061754313229725626 -0.29520093395979474 -0.8897665121482643 -0.3334070130614002 -0.2842378544094867 -0.6227196565158576 0.7419369067393066 -0.685401975586893 0.2226002537527229 0.02803093184952954 0.1845648908467974 -0.6436977468973206 0.7174498358529449 0.6651226702603771 -0.20721110515974314 0.6521467698390162 -0.673409224946895 0.5390126370077972 -0.9834610698606028 -0.5814913668692971 0.774043340598664 0.039906129829694784 -0.5048164802081797 0.6805298319646105 1.1069497013761291 0.8414351835130012 0.2898759871070842 0.80625046362172 0.9267434004586356 -0.2706492101969816 0.8602099958375667 -0.7613950820510909 0.7413643227530351 -0.20962754311001014 
0.5741873891561033 0.1878088766869641 -0.6036344427510354 0.6398890301846231 0.775417527362004 -0.785383054734855 0.7354456190881309 -0.7042594061544499 -0.04441198697171278 0.9399657804408315 -0.6405030726062393 -0.6899219854639714 0.8298657635407698 -0.5358233153653914 -0.07001320116755114 -0.021243454454669446 0.238803079643096 -0.11553037441778247 0.1104583573945972 -0.7973682704473176 -0.5275345797639883 -0.6454064837287808 0.8336821904215576 0.20880820954528537 -0.12974899892578518 0.27769827030789185 -0.15557383918609968 0.18031345717073832 -1.1273320767568145 -0.022412210946754853 0.6814356419020551 0.31893187330905043 -0.32680323560482094 -0.39688658448297054 -0.49229398931875457 -0.15389266245475566 0.29682742365028886 -0.384496573278174 -0.6487109448349033 -0.3481858551548157 0.307791253821458 -0.5255313295014687 0.4456297307572743 0.6553383082498145 -0.30225970504516114 -0.49746292004869974 -0.373641059249612 0.3274389061509775 0.8041187680525674 0.12627900037469897 0.3318213703076671 -0.6982267712443292 -0.08982471345395492 0.7219946086334601 -0.3235277456592139 -0.9074875232454425 -1.2923801920415583 
-0.306489121541321 -0.6241027895321494 -0.07522374989554592 -0.4998773901249513 0.6643121635724148 -0.06775085466519509 -0.95961245317831 -0.046914165103162424 -0.29307161074657206 0.6615599283853981 -0.8314846096586168 -0.0174957307909421 -1.119652879205162 -0.8077728139725837 -0.7700661404585788 0.3580572381151246 -0.06362980416151665 0.4782148495007321 0.08628832755455318 0.403497846955842 0.34690707231444506 -0.02693187183523006 -0.8474509360629455 -0.29256877102080864 0.7515829203750781 0.15475143347989717 -0.5427157250863495 0.2713239190252742 -0.03268669817866543 0.4905202336688036 -0.8051480469863507 -0.35348033274887997 -0.07997256679534082 -0.43577732542160796 0.5717552730649422 0.23445567092031508 0.41909662478461474 0.10648231395854871 -0.5649802806542947 0.3608434687579254 -0.13124343471840838 -0.0665403943714089 0.4740915013653053 -0.21851100784014138 -0.6472404490753199 0.022321198393006315 -0.5045517782339832 0.9343989248748089 0.5898447116835959 0.16627799074021388 -0.8745136640442224 0.7901681902853444 -0.4551292188221312 0.8902620263469361 0.4736000858044655 0.4739615919036922 0.19448791306460067 
-0.39320464946950473 0.5330102493564299 0.7728406057267163 0.23940119765636655 -0.5950507907742064 -0.8446349723332278 -0.7750256761863316 0.7432183742673237 0.056197829760583184 -0.337742627588538 0.4971715567202539 0.5191877815839572 -0.1357282117133328 0.8017199193733977 -0.5405396915534743 0.5115957549007806 0.7192564381320501 0.5116382045817427 -0.2231452956091151 0.9969544719444091 0.6144925054105532 -1.0633082304943124 0.9003650445813147 -0.9104666908660933 -0.924292273930656 0.32104566698429227 -0.6949055025225428 -0.7580984058276189 -0.4923838865690542 0.7677310064004272 -0.4896268780107108 0.03132428630940072 -0.12414386245802822 -0.009269948868561473 -0.938484965594667 -0.5766481785273502 -0.4260160027088756 0.2854896692175483 -0.8087546666159428 0.3613635467357447 0.16000363175674193 -0.9408682471652761 0.6625647207710852 0.21915665968465212 -0.3493505439596634 -0.2839937214729701 -0.481944937409554 0.5120985987980966 0.5832547684058147 0.30921243917688357 0.0916522157791313 -0.5333808428846754 -1.1874050258351159 0.633128816926521 -0.013190861208349931 0.0030114487742412994 -0.693314822152172 
-0.16726915278113874 0.7735925982442728 0.413719087350805 1.1513753778313016 -0.35465618728235127 -0.8105510241373094 -0.479619196802909 0.66834626316032 -0.11116348633527195 0.5090751156393014 0.5936603738683832 -0.3132615862506218 0.17803260424789694 -0.7796458216298676 0.707283772908151 0.05882413336403376 -0.7643069120710797 0.7901265884904036 0.84156823071181 -0.4107913864489327 -0.26913609078435585 -1.0888061111138463 0.35370549040784005 0.9151486079944225 0.10778703261531009 -0.13046624550037622 0.3865932513907788 0.8555521495470091 0.16888905450255354 0.708137405446509 -0.6210170744289493 0.359208401262332 -0.7227256711137393 -0.26482184062947467 0.3884305077926897 -0.483791491105262 0.5263539044292209 0.08700538100552144 0.9878788834839196 -0.7549273991556195 -0.026519349043426788 0.872962896815823 0.41001983467342296 -1.011595339321036 0.12422489923339469 -0.9972855603376414 0.4718331734354642 0.7854692099024696 0.6045460900660742 -0.24719423552712683 -0.33345470168971936 0.7916063571414074 0.8368976311302747 -0.9402558058147439 0.4673531234517266 0.3463264352428155 -0.5970428612368793 
-0.931635215071339 -0.6356509947338573 0.33978368133504433 -0.5794720423573542 -0.8165613246227471 -0.698481576281501 0.8263194653958041 0.7383562128880757 -0.4572396117148436 0.4435788340348439 0.32343018957513703 -0.21676766387707613 -0.6975326037767312 0.08807096446072378 1.016990819169006 0.941616374632628 0.8285101635835768 -0.9678670521783828 0.45884414142601493 0.3334848154543224 -0.4707920994977745 0.8099645772975888 -0.20579200527608 0.7826373432232624 -0.12775916011137767 -0.9981588146172882 -0.5654995521391244 -0.4906788426994147 0.728686520326319 -0.0033761808297102843 -0.8376788481332277 -0.4776164662945154 0.8318610481875446 -0.012736581788291623 -0.5786520341091592 0.29847399786308293 -0.775175927231209 -1.0918627153472182 0.6611569868899302 0.25950199516929584 0.5016306791932144 -0.8236518974657465 -0.6549548427348539 0.6864721255891978 0.6025548088634937 -0.4326054222139084 0.9925866304706956 -0.2152653830245376 -0.08139883484820087 0.2704466415824103 -0.1204434074044558 -0.3630315896069172 -0.0924256950117046 -0.9719017852192907 0.27266621109361916 0.6991734140526914 -0.7152590414546276 
0.838905306463708 -0.5606323134158793 0.2356165313164924 -0.27645000359738897 0.12529637174716118 -0.39635998334122785 -0.7713019491982661 -0.5344225029592591 0.7428760628467346 0.18341897870140356 -0.6180711293646848 -0.30578253449925813 -0.4699442950926288 0.6299060799628079 -0.0015650877753179034 -0.5732461448383713 0.7190958179764748 0.644902501296021 -0.5155012932801 -0.7035487287375665 -0.2132180629170303 -0.6599576138912976 0.9984598777748812 0.3601392720268846 0.8060282507401166 0.2684754108479883 0.7422944938967657 -0.011502512417212406 0.060137390310511504 0.4285436308754197 1.0196625468386942 -0.6000748054141557 -0.13046146771549094 0.7444947674709415 -0.24140457598679976 -0.21593706771139692 -0.3005568685355564 0.1657034802738373 -0.6073042236652093 0.7297298176414331 -0.3437001603077545 0.74200208740026 0.8276310687295994 -0.09593282020532258 -0.00802203139977574 -0.7852432704604082 0.13990328251050368 -0.3290299762520608 0.014401865800593772 0.02129352086022407 0.5518523791836343 -0.3336167645103775 -0.7100520094038425 -0.12972800943503782 -0.4754809706807094 0.8745736701957346 0.3349070020019054 
0.32299597324313223 -0.9529910067562337 0.8186971954029412 0.6069968637934345 -0.812857149597634 0.5702059003869341 -1.077955034786069 -0.7818942129665097 0.5326920039370815 0.6165052404884375 0.2940976301655407 0.8980829424581833 0.031420925833812056 -0.3888875517231859 -0.192282412052848 -1.0973039555058597 -0.22663902312346984 0.9820913126852269 -0.0968317138961372 -0.1769681639362482 0.19950429260964056 -0.7347379962222814 0.2483887441333289 0.4429731346939781 0.44205192768645096 0.6031169972693387 -0.9725254027159638 0.36779776014476634 -0.2439430519540018 0.6227333841749361 -0.3415050204033583 0.2804555282736699 -0.5368252507943405 0.7567193717565461 -0.2614874640795628 -0.5442651930225809 -0.9718411446819386 0.19925103932997296 0.28584597285379904 0.8768616108908788 -0.05829910996066401 -0.17354699703039422 0.5337716489946809 -0.48140527798797517 -0.12688995604494419 0.013394336283636258 -0.6741115045666757 1.0471935839695115 0.4368875850325631 -0.001915494788058636 -0.22298865815845814 -0.7097082587365166 0.030949237872441738 -0.14082520270566645 -0.6634900607000214 0.7266479616616902 -0.47919895001608853 
-0.6746402053270897 -0.5644183070624134 -0.2838942736618173 0.14943382517883874 -0.8019011247409145 -0.794901514527386 -0.9357423169653665 0.11874444637459064 0.12686155135542143 0.7468274137382009 -0.08648510817546207 0.881255930349597 -0.2920478885380902 -0.011245371481129912 -0.11675313468588969 -0.20056299756709028 -0.9098422816426626 0.31072479401903674 0.46753629873633273 0.12693082809071551 -0.462489171042531 -0.6688517523928359 -0.3353961761433651 -0.7832625411886834 0.16834166668046646 -0.10527979498061435 -0.8335516380536157 -0.8739666901298861 0.33354566967090826 0.46523796313745686 0.802680550974584 -1.046672577403276 0.8600501483497891 0.07007973488569297 -0.6314899271813066 -0.22887132094060472 -0.28686088240909074 0.031089924563030974 0.11620305172401149 0.6026329572144551 0.755880972030833 0.1914922926416438 -0.00815632548846712 0.234869375374804 0.38280629172184505 -0.8624998743823037 -0.44693235919665925 -0.21186611098884614 0.10141526227234299 -0.7795569179886308 -0.9161383008052622 -0.5276955913932032 0.21280045431608444 -0.024280407695187852 -0.15925083475007387 -0.07862907118381567 -0.9022034707088833 
-0.935439922887294 -0.2779358190234005 -0.49703535209363414 -0.46747112491025233 0.07355460667937892 0.6844103789872302 0.3483263103780501 0.13654485046620432 -0.6750872402594552 -0.8950103260284685 -0.9784636035319836 -0.6058192124172307 -0.12772500171894338 0.5551334326503711 -0.35954706352969656 0.5215211530652135 0.2649585864094959 -0.05176665262515101 -0.2501485924140445 -0.3310817326260024 0.9855826641858215 -0.5388855420883518 0.6757396869182267 -0.5500864924586688 -0.42853325435553824 0.7879117955754893 0.8953321261046572 0.6169118288835913 -0.8285535285659701 0.5937007639383262 -0.031338195245142614 0.36564093554914634 -0.5480535621099214 0.23143334178892583 -0.1361405041542345 -0.09326018653463385 -0.218690996815123 0.18442993052942552 0.9273735297084347 0.7911245217089106 0.5800884773813992 -0.2588185136682608 -0.8529013347565262 0.3672199131559471 0.6295822619628284 0.7895776518894109 -0.9909285084738036 0.735684500867429 0.49011405809034136 -0.3796957614641061 0.6847280944341814 0.4881315049647847 -0.26825290727935625 -0.013114547772955787 0.1306481473223435 -0.3500767094095285 0.7464905347317077 
-0.5244643521362677 0.2860288397599191 -0.0797812169521066 -0.5383565554665926 0.43553738192541736 0.34297272383409066 -0.5068564170004406 -0.7226698731360734 0.08275095893367235 -0.10202960865978472 -0.4304414774210181 1.0138585378931468 -0.2947631241439571 0.5356693483121089 0.32506217449682734 0.43389792487848905 0.6114290440960806 0.7876166473726098 0.4019561629567394 -0.35718937366187486 -0.653564507457083 0.9113408273730899 0.5547735894336114 -0.05803886811793435 -0.5569403280851015 -0.14228882021160727 0.1567973353758465 0.39973338442463763 0.1963678990392696 -0.27282716965463916 -0.29641655165768316 -0.18857559268017005 0.4729672764288726 -0.2507186904621237 -0.6602809845718294 0.5449338473702188 0.8888469589593652 -0.8137913648320966 0.3853458394781062 -0.005477388076708525 0.06521679384215617 -0.20353434039835183 -0.40174691128997897 -0.1646556688262434 0.9706656873903754 -0.18851100129047305 -0.6897655914724761 0.07154566317113084 -0.9075095777249105 -0.4280637313342821 -0.8820750385820786 0.6579918951273797 0.039170209718157205 0.7475964873275778 0.6780870716360989 -0.7821935053169494 -0.8217429472496327 
0.5707745544199783 0.8753064070461054 -0.5906214770365226 0.6252857922790627 -0.11988221248240898 0.6259972636645986 0.15245756614581155 -0.36866987379873056 -0.5863748190933191 0.9602963764963803 0.5871983113831236 -0.4655283591636093 -0.39973734273325673 0.5829360691333948 0.24151707559897276 0.6264725744457658 0.8857627562490362 0.12796040089334348 0.05709429217177031 0.9487344976726418 0.16275947154171017 -0.004623444371191695 0.8409515016039907 -0.19732681875939476 0.6615913497778707 0.6341824971001564 0.18356761440193026 -0.6129070452130584 -0.8526446182223489 -1.2482650936715978 0.1700905746516375 0.46938796830889074 0.9544756387780773 0.9048098979697095 -0.15728087889143794 0.48764112962560446 -0.20937894626852 0.6371288379327279 0.8546148179181281 0.4339427536147067 0.5268084582407251 -0.764959926608878 0.7283409915803987 -0.13319056728922124 0.0596825145898284 0.024252450933503082 -0.2457470054847993 -0.38749313801148 0.35110162655643573 0.780072213512069 0.9015424594654506 0.8659367431188597 -0.1096787285414624 0.08769920704349603 0.261988524843963 0.7868340086155248 -0.7917336095127844 
0.210041678119828 0.5266243652872156 -0.4651197920048602 -0.7895090046483595 0.7330241722873494 -0.20953321342928155 0.2661326520691454 -0.7674382135990225 0.15127937928300228 -0.28753222949828605 -0.127814918141834 -0.565279554806131 -1.0465374987334493 -0.9949050596400761 0.08204840254955176 -0.562570650682583 0.028967615654846623 -0.3925993413558606 0.9574462957633212 0.14360959443569193 -0.4233946995480203 -0.07910682689972975 0.9731069261107018 0.2053419733565954 0.3115667221792737 -0.5709995136657784 -0.7152334052610434 -0.6696791441036462 -0.43835687768844156 0.7776922655598724 0.04501791844978086 0.30078227300390514 0.7979876563825434 -0.48872967863695216 -0.9047115060939261 0.4932873116740791 -0.6295944102215681 0.8207333115528679 0.8440700233162353 0.23996436427467555 0.5826148721748698 -0.22711516608131443 0.7417233458229797 1.007044451266663 0.5056823079798399 -0.7388984995617932 0.11170702390932694 -0.2722101756590258 -0.7782644881818097 -0.7090315502600728 0.6012513435334468 -0.24333059501244497 -0.15709611901100864 -0.7863185063032692 0.548088714649031 -0.6357547798171875 -0.7761390982723081 
0.003620090562403755 0.8590647409370018 -0.7148602017583539 -0.5659048950961038 0.2713338900481725 -0.6614235649176817 0.3331442984238937 -0.7597826326179339 0.6751376734858654 -0.5074297106775829 0.9528107199453457 0.8855830373375226 0.5225005809466314 0.19420701051848707 0.29885370009948137 -0.8170817871953276 -0.9928014552181375 -0.8431056521298026 0.4793500987320545 -0.3804226669467981 0.6205673471698466 -0.53014085736139 0.06817614495982577 0.5556251398454122 0.3584776534731895 0.718237197746453 -0.7272619396918183 -0.8868334170594645 -1.195705126799342 1.158777722547359 -0.47172583139730206 0.5653255940391388 -0.8719731148529171 -0.3493232822427075 0.7845282947135452 -0.09200170346194515 0.08924354038374205 -0.6050111095562537 0.8459018406920323 0.47568273493347807 -0.19244269343969944 -0.6713377786341315 -0.8940236668222203 -0.12572067353094601 0.39022752167025443 0.1491750315825005 -0.8254165361806478 0.8651311074036733 -0.31962276966490943 0.6627979185490418 0.35792210668405433 0.03987021631210158 -0.03372634849333108 0.44326198115081655 0.12393707322905201 0.3700420912308792 0.1445600883704104 
0.015676976784678276 -0.1694563252678667 0.4288458051099453 -0.6647395466474552 0.2059929034986337 -1.0047353736511626 0.7316803697247192 -0.9884619315446125 -0.04107014217045202 0.09260782729919992 -0.3348007711551877 -0.7802948134153306 -0.26497030872313443 -0.6363665171926735 0.013182198190642357 0.7648706375746915 0.9351490901847421 -0.2143074880094149 -0.11010017154555318 0.02859707850384797 0.27979722235516385 -0.9776555019364835 -0.9577430228873841 0.011760824261362721 -0.45150449450115127 -0.6060367616307165 -0.8276102711561724 0.062113583130910616 -0.7788741280730103 -0.23471941166861635 -0.4237950075663415 0.9891842801152988 0.7913687725197751 -0.4847184005471985 0.8840269627371873 -0.8037778998973945 -0.8448107077790955 0.507924657601993 0.8504484639953991 -0.26625116125897497 0.81232851865978 0.04231395579970387 -0.9454163295795284 0.7914137890151528 -0.3541020713053232 0.661703484837525 -0.08100284513048792 -0.3437654989348156 -0.8325984269898725 -0.27317512802372446 0.32104934035684485 0.8975655310360346 0.17310079575340573 -1.0391916574750184 0.34305008579603036 -0.07331380132982115 -0.09225952089920346 
0.49602454177482413 -0.590728838903644 0.5581345860916804 0.03615921155246646 -0.2875131551694873 0.5778348990927179 -0.5225652111742898 -0.056257300998313414 -0.21750508881371688 0.7723535873705574 0.43486208260933124 -0.5147424579952457 -0.04036516784479879 -0.5033768832819262 0.05942639284305232 -0.728091031078032 0.763293305490079 0.43466298369483525 -0.26297544103067994 0.1511896185190526 0.02650163280273623 -0.3637152807401738 0.043469320652988766 0.8138184559592816 0.6776023746237165 0.7344938181300384 -0.5413619376785179 -0.1721302198962604 -0.42085634594507393 -0.6180036348452832 -0.33605771213299407 0.17507349994254895 -0.5910813000466908 -0.35147406464631725 -0.6615643666416999 -0.839917290304761 -0.6116692595869537 -0.8544302488479453 0.1746897396186725 0.2821924700866237 -0.11781100415238255 -0.17578277544895138 -0.5179031320622167 0.7785979712647053 -0.8798545802108767 -0.14583138781383168 1.1786210486407385 -0.10797877906106361 -0.8926232334084925 0.8445161832645343 0.819352024752704 -0.9485017962715528 -0.495621646561159 0.9923431755481084 -0.6339331007514313 -0.28273296443630025 -0.20099884813462196 
0.18303980669375042 -0.1133797814701909 -0.6225890224678823 0.28124356640788034 -0.7644877226892582 -0.6439461311582347 0.6491667249547418 -0.180808080756813 -0.9078545967355163 -0.5476995400902933 -0.8759056519446671 0.30011056186772417 0.23496261104876623 -0.10729836377206291 -0.8319790139462142 1.0010469660058265 -0.8907678937363808 -0.5569916435269715 -0.5339528870999577 0.06603533983263563 -0.9428301932657653 -1.09640550762557 -0.1210428610763332 0.2674215550051441 0.5988553919920756 -0.8651156698487705 -0.6675762248951336 -0.3087342050450454 0.8703946508146806 -0.8006099556410198 0.8026338699494131 -0.7791484649305628 -0.5421847652718088 -0.13321508412151295 0.4666579267396571 -0.44214634616304366 -0.9727428025784677 0.3188539825998843 0.22027126828127494 0.7770769334469168 0.4558936703707801 -0.11321638880674101 0.1307698430795261 -1.0506335271470513 0.5424852784121624 -0.5574704302428423 0.3471431490402013 0.5734090306824443 -0.4635008791607147 -0.8719000423960048 -0.06615650397368356 -0.32885117214970283 0.6071818107112384 -0.2869710522057848 0.6141849981260182 0.8249834725852874 -0.9922719071835248 
0.5682888135519037 0.9495608628732748 0.2279591652481896 0.49555171691379196 -0.398702097329337 0.36939588895142056 0.8329625736972812 -0.1483954031690097 0.2847936227329686 0.8259205966514345 -0.40566595413330586 0.9015424495644664 0.1344104917244354 0.6343295653157034 0.9327705362033294 0.1067740352462442 0.7218589893507086 -0.5598221657157039 0.4296010047881236 0.05279947363923931 0.4826634094163662 -0.19835508022107987 -0.06752412394571818 0.22295820700327218 0.6018835218936198 0.9595955689950377 -0.3834739707573529 0.9319753690576452 -0.30215144921051734 0.1725012443942355 0.8522859017353358 -0.5124181888121033 0.695827726411387 -0.29377204321512274 0.8034158447732904 -0.4856221194385392 -0.5119167582662439 -0.4817623083281671 0.11997997893184915 0.8700531136145846 0.2182577502882852 -0.8571949285222522 0.819076214670778 -0.028859311447824994 0.0018333573508016391 0.9795014321093344 0.6369396967665564 0.2654123498262157 -0.14476089576531948 0.6898873333766447 0.3017403215669985 0.7569981900761052 0.9180531344972261 0.21388269401339643 -0.3206456307831901 -0.14434993429940418 0.3607833821157117 
-0.4182114386333655 0.5093567321229897 0.45771085346451357 -0.5881261082045702 -0.5131139031362933 -0.825807465841488 0.24667050081276934 -0.3837359856725792 0.9499008903029931 0.94653381869754 -0.6747737753854095 -0.917125722792804 0.738658962301698 -0.39826754610856097 0.6976935183925816 0.8936018936343739 0.9879095090277328 -0.5533159617223 -0.44666403611904104 -0.25153514607741534 -0.8877398718544356 0.6613004221378089 0.07909748603463727 -0.7390060065302846 -0.04275902233213169 -0.24286072790222457 -0.15473954462437178 -0.6543512947886435 -0.30059622102966416 -0.7960096272189532 -0.7363132416467887 -0.8827543098776206 0.787537601686942 -0.33149149293331637 0.6257790479510135 -0.00903464054749539 -0.8888415378378506 -0.006384797839354198 0.30950680856039814 0.6869057261054208 0.7001414612249237 0.18934958585184214 0.79692351818069 0.6539912727319934 0.650283296497728 -0.8388433052650269 0.4761004779590019 -0.7481598672925983 -0.1884995972540815 0.16132470058970272 0.18595546087366088 0.3289580946528406 -0.6763232010428418 -0.2567998556674368 -0.4821404630278386 -0.33958406937294644 -0.11764860546558178 
0.8414640053599958 0.5621956346936323 0.10731300423108081 0.644927705549913 0.35769208382880513 0.7694577441073954 0.4145971765693755 -0.16302331770367198 0.8285271402779035 -0.2811131342675173 0.951692386004025 0.2990928198476593 -0.802094600200999 -0.028437691573775896 0.933591791440841 -0.22423056692224827 -0.09364308432978818 0.2740828896368106 0.30136012764928144 -0.342421986525824 0.20436703316482363 -0.4243406497956752 0.8385832077391326 -1.1436415426734428 0.19431768293964025 0.9992704054275738 0.4082208881013605 0.6865005690368259 0.6478586993190556 0.6188630615005267 -0.4981351639121548 -0.24726704431245614 -0.774500447058968 -0.347537343018947 -0.18129582106212982 -0.7253309036214795 -0.1691805378599738 0.26444948431834714 0.22568791077185313 0.2917042059089125 -0.4312096179458209 -0.40431222893211705 0.9579364753579436 0.8764827759543817 0.3032275038868013 1.0001133123787183 -0.9691637095502371 0.5481102885908494 0.17119119391748638 -0.9429526996627411 0.33369495341686184 0.6043607013715347 0.7680290592535286 -0.7956971211141368 -0.2909828809979913 -0.3544428042380742 0.11821212781700557 
0.7934656721677862 0.8406555472388824 0.191167275040113 0.3166641015755205 0.21321116145329969 -0.3454789073992349 0.569602085378467 -0.8535343136669269 -0.5885975587612422 -0.969075983940658 -0.28559860065389464 0.7780668200099801 -0.903921020846667 0.434163220595336 -0.46333304079804954 -0.37082493780592235 -0.9253282657976571 -0.8898790079284928 -0.9985255448104733 -1.1475394870502016 0.3998349629859579 0.15919558305648449 0.19755079536306233 0.5594442011278744 0.2817938770363828 0.3607573809997795 -0.6073016521485051 1.141315641038128 -0.30441010496567694 0.6335371845098037 0.08657245050112608 0.014082675518008876 0.2089926101918278 0.7333625010885629 0.9500202322605718 -0.20633669161291618 0.9328123495901768 0.5994680230147849 -0.36946762518848686 -0.9626833783685639 0.03616594623388836 0.4557413193499349 0.12327053484839468 -0.13119744337294334 0.5823275906902861 0.04393785581779554 -0.8055737361786106 0.3565628783836868 -0.41857655092450075 -0.5177779931105446 -0.10580925404642927 0.15292738987522098 -0.6003383252548846 0.4274272531893845 0.8391562615200213 0.5147483977590512 -1.0658358128927707 
-0.7582980545984483 0.824611102575171 -0.4128385150330003 -0.47278806244819915 -0.4709935281464891 -0.6116949146251928 -0.5247953868471366 0.7951957935721763 0.5730885700840598 0.8407696655730721 0.448948454043967 0.5876585298713981 -1.0588842645798442 1.0244919355853976 0.6214278187547417 0.3937383784738472 0.7267384131878858 0.020587917435311853 -0.4126993959864429 0.17197764649144615 -0.17964536401196238 0.019330644810087783 -0.1139425436459222 -0.5471119304500182 -0.866112996971315 0.44754613230486817 -0.6749240305711905 -0.09064630862735498 0.6568380835795794 -0.24193388954312325 0.8454777559983946 1.0537499251012883 -0.7524230037492505 0.9566297592390143 0.5275436903670057 -0.32286780811517973 0.4266142978593252 -0.4516657022478375 0.11808072789479523 -0.8179823166673167 -0.883398246810216 0.13638171857806847 0.7542938489852908 0.5690413845030643 0.3607114138077929 -0.8440068670882069 0.7129890759785671 0.7076244559182387 0.14032461518725325 0.8157891668885868 0.05586851861712283 0.579525562569518 0.03647333401544904 0.8997542227625939 -0.20317893957691494 0.3029930261418815 0.05860328601525711 
0.8971838781363715 0.9687014304815533 0.06329983185926369 -0.1403842570301126 0.5237682126192593 0.1230227531955366 0.5157237499278491 -0.012857807862207679 -0.4741389690754658 -0.7773412848587864 0.7150500985954928 -1.0342195617192127 -1.04425940975891 -0.43746449262872084 0.13619404798093104 0.643437869209863 0.3054702501005915 0.9585706611690021 0.6099996433372867 -0.40094794316183385 -0.9577993016569956 -0.475990239341889 -0.20444994318062581 0.8413274795194843 0.06540913375263235 0.9309596452688482 -0.38681533036920634 0.7176200298070522 -0.17209534813600755 0.04558603980534945 -0.6102659583609735 0.1111405837043698 0.5580263124711158 -0.5438651363563922 -0.3901777310854162 0.06561696558218826 -0.11677604102045824 0.46697216232625904 -0.5611147103508647 -0.12171000937581669 -0.29794914516539883 -0.2806862941103987 0.7441214858912026 -0.3436344771539957 0.20285260857597792 -0.764498785105189 -0.25239109203369636 0.31688252781687476 -0.89716536745416 -0.8492462348648462 -0.8775427450022673 -0.24714153980872466 0.7865267005862268 -0.3715194663044657 0.6143440412608541 -0.5445712703186847 -0.6742022444608061 
-0.7048902375282191 0.8577107823706396 -0.6354628959299251 -0.03867706103685412 -0.6687368723009054 -0.6668156620214363 0.4192076482773359 -0.2049392564890023 0.5007313477056181 -0.8580142043374512 0.0660167102749114 -0.16424519784273967 0.04833404280641514 -0.45694996846128916 0.10348085647600201 -1.0182864760686696 -0.6841921073782375 -0.016639323282672702 -0.4474273084085576 -0.31743067558536686 0.41790154111717415 0.5254783258925816 0.19565363099098176 0.6651549947468323 -0.8680149844925171 0.5505809667180623 -0.9768633796228248 -0.7529226806423057 0.6195574728972886 -0.186058594012448 0.38996413891971543 -0.3214088748716055 -0.03575086569775565 -0.5561388458393328 -0.017796257270035643 0.5966124841063757 -0.6387845768340721 0.4150853805081929 0.7142879428667493 0.06690052858567933 -0.8907780082760071 0.6627227522151908 -0.11776121241603477 -0.19371330870768605 -0.7595967727084872 0.7626238091667462 0.4919996933335397 -0.7996187017055967 -0.9177458725130339 -0.09926712009156846 -0.2928888397838205 -0.1707861949940392 0.8035260037693649 -0.8588705329966284 -0.23170037049185838 -0.05677438700983089 0.03145020019177472 
-0.7840355044436449 -0.7156520151530543 -0.6463278549622671 0.0961596413995718 -0.7700190025130881 1.0085857398757458 0.2923388005341618 -0.03363458639626059 0.14144681762156863 -0.897357598611306 -0.5083844389008834 0.06554753161888724 0.37405727272023453 -0.28507126798072485 0.6715705397035944 -0.17135482262329496 0.4541664164373844 -0.3023525249930976 -0.8136696647655564 -0.7925880134173413 -0.713266412002769 -0.880830989158852 -0.8267554299414314 0.8701703810537874 -0.6974424972578941 0.36631224040080523 0.7314704505056657 -0.8112081719184661 -0.6539025691943636 0.5310584840868333 -0.36154037984117987 1.1679202833116316 -0.056621173889561005 0.09254774214204442 -0.05554431185157438 0.2565446609186434 -1.0192597595726476 0.8739717029651632 -0.7450981598262144 0.7423285261248513 -0.3173844592899342 0.39020089589182794 -0.8612885951984379 0.562924978017747 0.1484828756757213 0.39433310346671374 0.024090298894050875 0.11892729051649956 -0.5513923346812029 -0.936764166260897 -0.21140979434773177 -0.8458010415018802 0.37682832958738044 -0.3841725641889463 -0.24350900647625098 -0.029368153252123417 0.2028903214118183 
0.14430469976129445 -0.00834906528836199 -0.38197075222864774 -0.1949366894452643 -0.09724378008975036 -0.8036959119287314 -0.5571417604308855 -0.8814111019916941 -0.8517632947835683 0.43017921889089217 0.1664355518944305 0.1110404009231093 0.056317220581151045 -0.5490322688991344 -0.44668412605653246 0.04343154747141783 -0.8473592261203751 -0.5999898464166071 0.16462499353318272 0.7782342385031359 0.9331302538230127 -0.4568607047739721 0.5835317936551604 -0.19588136935360034 0.28540858233262334 0.19557679652355975 -0.5097762705546784 -0.695438260163066 0.3097513644185923 0.7338280835198772 0.14593972988721746 -0.999732312198372 0.059246326585849385 -0.509762441610841 -0.4342900614567218 -0.2823482510782967 0.6653360856055144 1.0683124456384456 0.42299373950857183 0.11648054591256118 0.8481134242706889 0.3023315240704747 0.8841526663176045 0.6347774514760806 0.9013749612313599 0.3751745928062745 -0.7342130563190853 0.5548325719297088 -0.46640731511600975 0.514440879978092 -0.5304661792397332 -0.4262398477494507 0.7437422308521136 0.7229715254566712 0.3886221236905444 0.19900665931870515 -0.5490241961340946 
-0.21978904025727242 0.39970299386306296 -0.932363156424658 -0.7096540795012233 0.7144361852540508 1.093422182752673 0.5430229668636486 0.8327132165283848 0.5740491874633704 0.16834552089083576 -0.2822214472546245 0.6369075109346021 -0.6191124443028623 0.8840220444993706 -0.8106191902116991 0.07446553850400911 -0.6233788166444776 -0.3264138940795027 -0.3599032881252846 0.8346249551042392 -0.9034405680837051 -0.7805076609880844 0.9521671783997837 0.09001295622618626 0.668121310623079 0.3216899815672476 -0.2285663966598941 -0.6911807548696035 0.12976639446768296 -0.3766601064566849 0.6624800198950721 -0.039883777137988706 0.9617871231191721 -0.20343955198198627 0.3838717930409081 0.2099296596000825 0.9512593543624889 0.5448657675843405 -0.5867299028057162 0.9163686009324987 0.43377924755602226 -0.21139290240344777 0.6193462828675929 0.38279770697915405 0.25108951900097765 0.6294325561317793 0.21030639692490108 0.42639689864516783 -0.9434403782176151 -0.8579926611401845 0.09355897602187602 -0.246358606522726 -0.3580016714973185 0.7844828702524153 0.34047827019884336 -0.47746808182915185 -0.7544756932482368 
0.20127596082745192 0.23525286038549442 0.09300597396532018 0.20467700687178464 -0.4445236101055606 0.3890895090325609 0.8176751360991195 0.5046369152267329 0.6771784747840646 0.3913468990156319 -0.9583207913078942 0.47323546669511546 0.12787248431324813 -0.3819440912735076 0.48594041305873253 1.164999751058711 0.7487431284625337 0.5961541648829118 -0.971552569339261 -1.0801745107198968 0.44027481300830007 0.17982092803182687 0.6592824523921405 1.0974579883545337 -0.7698175158671046 0.8399902582831922 -0.44647793479348374 -0.3946052351304362 -0.6846554227946348 0.1622207717217992 -0.45677323613647713 -0.04540909051847134 -0.008029847248560706 0.7717801279318564 -0.6927181777001665 -1.0350223770340798 1.106773115203448 0.03594335284606398 0.4273329558479653 0.01595057600643334 0.017901791776655518 0.5294205746590013 -0.8195299046495463 0.6193378992826735 -0.5125542893550747 -0.719017140831345 -0.5751435264177803 -0.49916719757786704 0.09814791399169787 0.7821704365190121 -0.7866840845755514 0.655984999069669 -0.02185863545714632 -0.36193173416129404 0.08750420053709923 -0.24975319549937006 -0.5883813505471863 
0.45877410323298706 0.34560231725297585 0.01484301622796047 -0.2555276753815819 -0.24521865757366565 -0.26323932691036406 0.3872491995830134 0.7821317869245621 -0.5950329098765357 -0.6944997956307386 -0.4635565221880871 -0.5927556989288404 -0.02061302192693179 0.024526656823646586 -0.8879619877144169 0.7350446168489977 0.07164582852980095 -0.624087178757756 -0.6075258979342175 -1.0362121051743345 -0.5687531632881458 -0.14577410908399746 0.36496556090890436 0.46997853674258566 0.1685054299800497 0.34313130627478783 -0.6965017361844978 0.27264673251010046 0.9427760316296677 0.4390164472345765 -0.34377788073761345 0.07477120894422348 0.30192644060950546 0.6691254129530113 0.48260050639935925 -0.4576854955771372 -1.0350116169656352 0.5619142807723295 0.12219823559780314 -0.48368939984908527 -0.7142490719726875 -0.3637216580260696 -0.8889934002469086 0.4877295315205415 -0.34156153710364856 0.2200867035317865 0.18554779960552045 0.6187785915687988 0.032203137023057105 -0.5968177466752265 0.19640893239391466 -0.42998344464569704 0.6226981301499649 -0.641208837612267 -0.453841915605582 -0.5779360041924237 0.6706611998355835 
-0.7897783386396682 0.7243906634894774 0.7732978340260308 -0.11165349339086526 -0.9554816382407821 -0.566853576565212 0.5029603553758922 -0.8225173795136278 0.7334610711850822 -0.840551164984721 0.30025184205913535 -0.6387536486356925 0.4184670180678859 -0.7068142283269644 -0.3964958675471379 -0.34235759209334315 0.9972717339660695 0.1726103992366872 0.5517912817293533 0.10395698450236028 0.9238147257860645 0.6762316498408503 0.37735042992705825 -0.544861869803739 -0.5369990200392285 -0.30969799786437635 0.20066454279896284 0.3704788416765994 0.3557748639041724 -0.758623503807774 0.7613477867197312 -0.014375953825141676 0.31465426029069254 -0.2651554645177401 -0.3486014351471891 0.3247779355083915 -0.2585235427600772 -0.25079726767074145 0.10498759367117778 0.47300537635891965 -0.2888305305356078 -0.7498855734489167 0.8766750420895923 -0.1636138989242159 -0.33859056695265893 -0.08427482569086737 0.40485331486946124 0.05440644840836591 0.6120072682878901 0.5471768014790519 -0.4577821149375709 0.16981452921610551 0.5606652526567723 -0.5360928699269211 -0.6703522537649651 -0.46030358265343185 1.3018697839618154 
0.2705934003263599 0.04086563318074776 -0.14717818119742732 0.3822470142678399 -0.2511321394798262 0.8858140440616402 -0.8301924020661836 -0.11414272168626692 0.7439704035848826 0.6839798002789266 -0.3616572568722265 0.843106482671925 -0.6868235624399796 0.5659820602415969 0.4327753930400556 -0.8197520921643188 -0.4441645349580372 0.599328550382779 0.6842745482918065 0.24881547857233718 1.0041561467491762 -0.696792094248748 -0.33195976044787345 0.9045905912438406 0.47123446097471144 0.1018770682057557 0.5033577213250764 -0.33022332841529545 -0.08018838637672306 -0.7119986348541343 0.5528926296487287 0.15572253053223578 -0.5908160268858513 0.49060810096565266 -0.6215771265289021 0.4648790012231611 0.3989513210245013 -0.5777514536760009 0.13758580763986197 -0.052327699376872004 -0.523439160940824 -0.9998283889531971 -0.1274411561908353 0.7362709737202209 -0.5021889951222491 0.030540166543433785 -0.29607639397015684 0.04645442276176958 -0.7416293429327339 -0.15363696905634527 0.2789046057640254 0.18522192981322283 -0.24198980652575688 -0.807555754037846 -0.10347234713815656 -0.21641403428401093 -0.8522771003156111 
-0.22071331281808648 0.9039509958118488 0.0796146741466921 0.5589677335509241 0.8913951999932761 -0.7826595625784976 0.7652943978778958 -0.10418773744901666 0.30755106683607236 -0.9039950367382736 0.76975053140276 0.4057678494003456 -1.013224697905802 0.2488702298188331 0.1407802317753044 0.6086336629899984 -0.9768573763788262 -0.6522524729511099 0.30737356549706973 -0.1491274925303872 0.5227272017677527 0.7754892465757018 0.8340668795048222 0.5889463945156073 -0.48191495942096285 0.7783001467924084 -0.1409525161563625 0.08533873518702174 -0.32975234247928803 0.2550588720351318 0.4510206836004876 -0.18520287228926283 0.7972325852928934 0.8808425857423245 -0.17423356716808946 0.9409661226890734 -0.2924707441711059 0.16822275895047992 0.5144930592989484 0.35512622381967285 0.7756442727173463 -0.8746923057429004 -0.4461874650798099 -0.2478705431416111 0.4156791261470302 0.3477289004100507 -0.4875840900622352 0.9911940804854878 -0.004254756662639858 0.4284908367771767 -0.6995095805740652 -0.9403574231813281 0.37060021376052715 0.7564731619604226 -0.7680033075946769 -0.6285300423870478 -0.5125241793105977 
-0.3613334091379343 -0.16838521211230084 -0.8965035155219774 0.001648432414378357 -0.677257476817988 -0.454899123615234 -0.7711438046671014 -0.8683736606347334 0.114351871013044 0.9731164086118551 -0.94313879805178 0.29385520139548693 -0.5181425544917261 0.7504711980312306 -0.2054108647710774 0.667260549182326 0.7279668119638096 -0.4832475141955992 -0.6147610967029593 -0.17812210315486854 -0.29251663846643144 0.8272272072591529 0.13217055559283095 0.45254930608602323 -0.7064314285003905 -0.9515913196625938 0.4356826190361651 -0.41241684987632005 -0.2900232861472183 0.6642261849600161 -0.8570617125645072 -0.710562575822777 0.8409162873731657 -0.4489272781167377 -0.5352606911339233 -0.2821121226890897 -0.8705773310831455 0.4306727599947801 -0.5559700644500265 0.11413490350347134 0.000382746139806045 -0.9975823015705332 0.32552110661287825 -0.6015021852587259 0.8002440203481546 0.03011408941552482 0.6069911993853244 -0.43646993234090437 -0.01868891581182175 -0.15489698008474861 0.7462199520282147 -0.5109074575434528 -0.7386447972587955 -0.23981175644573735 -0.47231179590739303 0.8403903581518173 0.6957505639558363 
-0.6506242602866736 0.441810508577821 -0.45358724721145416 0.9457272306869395 -0.6811317247411741 0.24701196059069827 -0.9593554277899171 -0.44276484384428627 0.23610682821531714 -0.8210268425652625 0.35502151569678064 -0.2236450100808056 -0.06710193433716626 0.09748560358782214 0.4172224533512851 0.6808890024224376 -0.3595613586537061 -0.44920622177244995 0.6388018152149795 -0.11309079804867753 0.0266336863029385 -0.680102311549683 0.8435445343301888 0.3222821250063108 0.5011029129716262 -0.4955918589625343 -0.16958441004416192 -0.3638755980520311 0.12561949749161494 0.06942858140769088 -0.6774429428152271 -0.7034329859124242 -0.5946468124021507 -0.048182112994062276 0.21559164641874995 0.829131020013202 0.9348862679185038 -1.2845741906915913 0.2033516860575692 0.4631494481303379 0.1370581702934579 -0.6747309622594948 0.36579443101893605 -0.35628160524872 0.023382931139823152 -0.23466392894838 -0.2879220786518251 0.6150209045616758 -0.3490286333998285 0.3776266381241622 0.7284983558504741 0.03393471469722113 -0.08717630006141895 0.12271884501521313 0.1976348932239523 -0.1948694726869357 0.10829359976222888 
0.9599194206957586 -0.6241341425277833 -0.1187748086115703 -0.30485691136843 -0.9537895572918017 0.7044756322177355 0.738416747265614 -0.1621266681719619 -0.3800782871702679 0.4370240903651301 0.8713403163577533 0.310510218155017 -0.7102847498088086 0.289141159396149 -0.915244627625375 -0.5235855924310958 0.15377749464289647 0.8028550704398343 -0.7873137574790088 -0.5771224523688624 -0.31487864736342136 -0.6828846021276284 1.1490191167416859 0.10580944412658277 -0.19300136986500882 0.48050224808597686 -0.9791955286269594 0.8935158398798319 -0.8803716939205203 0.1885002083933103 0.6075487546144477 -0.21830203052489872 -0.6631842475739946 -0.9046532113850272 -0.910279564780829 -0.6786502297256438 0.7052498383331856 -0.696622574423663 0.8785703243204248 0.5318534491666715 -0.42383591319331715 -0.24265819566455527 0.14662858977041293 0.8951077889316227 -0.8739535723649561 -0.5072589968934754 0.2992874188258632 -0.1567910877910034 -0.18770591962724015 0.8530247454679618 0.26250969947038927 0.10241592421281222 0.4410838427747114 -1.1213203572603374 0.5080646239715071 -1.1611633883404053 0.7135679982310017 
-0.31203569078613413 0.8072470080944529 0.49383035545317244 0.33647571029193607 0.8187421837119779 -0.8745785069047426 0.8466755759231182 0.9165246604109281 0.7617714606328463 0.6570049724846838 -0.2255856699411254 0.28698465574534004 -0.7688669244428009 -0.41673876837422746 0.4344878589736836 -0.706157614888941 -0.2834971504980983 0.29304723206079886 -0.2403001738424786 0.8600447707528698 -0.8181605476285969 -0.7120264361964551 0.5082246638827167 -0.0480940249349373 -0.4496091444598651 0.9681780101291646 -0.533044209771369 -0.48775109929029836 0.7746456543561507 -0.12314739151000281 -0.5427687689259407 -0.20067416112990352 0.5487999511956809 0.9818886801316908 0.7745797545149251 -0.13115335475042394 0.06935390390924426 0.6356153041282944 -0.5281124920142782 0.9731891033365266 0.28737498383628735 -0.706131833248197 -0.9104587508596702 0.8706680611909836 0.11339477633204743 0.32635993603176366 0.9035046029669876 0.7127256377846428 0.8418596538800758 -0.5489697619699418 -0.7232370176892886 0.02245774264337131 0.8658953579838736 0.1354298704069674 -0.5080518089996187 0.8099346631064114 0.36729696381780585 
0.07834010632131605 0.8282208936475493 -0.3963077032065587 0.8681078349589499 -0.7230106130238977 -0.2240483941310814 -0.4695130379689493 0.6863445558386041 0.07548714825436553 -0.4912272335754009 0.4784399678504945 -0.8264120630134488 0.4508515379449653 -0.28535079534767166 -0.3986265601466675 -1.0395327399288408 0.6727775269170069 -0.6608904760999539 -0.3114409135543523 0.10181811898428658 0.6173147227532538 -0.8554137977142524 -0.30285287339117256 0.4010343523222905 -0.45582478130144954 -0.8872902306478827 -0.08030085271634357 -0.35326200538497216 -0.6046964479957814 0.5616001102849629 0.9927328194389444 -0.7952701688543956 0.7902774111295512 -0.5505953859770027 0.37892230061257415 0.6269902522955036 -0.5233728438880474 -0.17837457493248574 0.1071352494998044 -0.33717605780448107 0.315650347357193 -0.7038285931206023 0.9243137278182239 0.37290667033205666 -0.6848310516417421 1.1270516667067136 1.0038304107001892 -0.10187600128099973 -0.18108263099725108 0.662505225024764 -0.8931768077238793 0.6836552538657634 0.5615174783137463 0.02139986955370073 -0.4264262781029005 0.21070435703669518 0.4060162110771173 
-0.6183317285655512 -0.8887631254324266 0.8743569532929027 -0.22861654144922763 0.10348751695357135 0.6020284506859688 0.3104183104310424 -0.06394520574275363 0.055222737177042625 0.023217175288352543 0.6571351504299079 0.5360723349087034 0.602445031351682 0.7789192803068541 0.7089061584638925 -0.5127844210588468 0.8190988740670466 0.2942810371246538 -0.7081105142919519 -0.7710835615918213 -0.8482430372052705 0.4975128005371379 0.5836325075071351 -0.9267426742032044 -0.9218699867887079 -0.6271538506818894 0.46982775128689824 0.14743565559988608 -0.43781262084428707 -0.2851181829977287 0.1129272700315965 0.37453069242128034 0.6878158930493277 -0.1970437153659026 -0.9840214817867812 0.18792706542652549 -0.4050673169761867 -0.16596258667916514 -0.7442495461792791 -0.9810743456366892 0.2293085702042188 -0.25216581973961927 -0.8626404608096603 -0.79319215964986 -0.731500662873032 0.08440870688180194 0.40861107227458965 -0.019073564594873298 -0.8362233586489523 -0.64353374115078 0.10895968987310112 0.4552560481553875 0.5745062978762476 -0.8635157977105178 0.342953992159956 -0.5148085578926125 -0.5358849253430732 
-0.42460335567339413 -0.6529110262242868 -0.06848128631830552 0.40032920401246114 -0.18076353007590115 -0.2455918058853629 -0.8360371895596038 0.6754339865095822 -0.671749076821478 -0.2969031497382466 0.37859505456204157 0.6510839910364163 0.8170879502036635 0.3072362103137921 -0.2786454234283626 0.4214353733632214 -0.2449281704229298 0.332562599799344 -0.36116470474562945 0.13085546466536774 0.19780247831986525 0.171469345395846 -0.7040989409742103 0.9441407407898087 0.12897153196595412 0.016420193277470352 -0.6833094084179068 -0.2532557855223007 -0.29943269237178816 -0.40125613066553534 -0.8796675205842907 -0.8469803505525295 -0.5785839193331153 -0.8556781525332828 -0.2418378129483265 -0.29586714535166436 -1.0605005792725766 0.3997202952386961 0.41552608288092957 0.7263436262341488 0.3008573509563932 -0.14266461820151344 -0.2347636718834345 0.049540950813756306 0.38639559061816287 0.42280047888959754 0.08359931761681241 -0.7691364698283483 0.724960026879323 0.1317024648295626 -0.8861673716055556 0.5689211560471146 -0.5859183591133961 0.9239536875941075 0.40330821648146453 -0.7338468783224731 -0.6668594192095895 
0.4284962478755103 -0.24839390259049643 -0.9819362029355903 0.0854217727977755 0.16609828356503203 -0.14617653241187187 -0.9263457437627857 0.6240953254971192 0.41665968238022644 0.4280781417494399 0.26745989119988556 0.4703401811373346 0.877066032009553 0.6609843428799721 0.1062425871007725 -0.5422953678882952 -0.7430578882706207 -0.532710741526969 -0.3884015928324749 -0.5030621973601709 -1.0264820721607635 0.7932446360722288 0.8373366941414759 0.08615320194478826 -0.5302975600062891 0.8042864120612048 0.08552785103908267 -0.24055001992931063 -0.7757848630421432 -0.1054577205974776 0.28029390059071024 0.5361450475022683 -0.2730938378602985 0.9277800465505641 -0.974173924516865 0.627263083421747 0.07029584326006917 -0.0120309987646056 -0.029947100777009593 0.23618639316716397 -0.4282177654582233 -0.8203591100997336 -0.42227833316518026 0.1696543242823594 -0.8517785742189343 -0.8593174101251907 0.2858071634885106 -1.090758485485357 0.09187184311219343 -0.07230664392558128 0.0628429535464563 0.07737001982780431 -0.08142956131937025 -0.7544509132292588 -0.2661084456158227 -0.236238954085707 0.6908764212423301 
0.35748888587488037 -0.5009549260594635 0.2007521863673023 -0.8369742904079656 -0.4852810465538964 0.14957668061491575 -0.18178701454112173 -0.6163606934864372 -0.9713053390197033 0.744273655361243 -0.5147068388073619 0.570279434831558 0.2240205790689377 -0.9416928237069722 -0.5599671951989696 -0.3145505177784871 -0.883980691550686 0.43892393345222747 -0.9604393978873589 0.5723676106338956 -0.6672347140687431 0.3657870311683527 -0.39938869364258156 0.04462032740101686 0.4997952299277908 0.28462325209044637 -0.407595587897323 -0.28155682417939326 0.4770882076549539 -0.9503113259992776 -0.49626223689890814 0.8247750158379471 0.19047871568870045 0.9162225624124078 0.4805039789681327 0.6586756423203015 0.2155025938666027 0.5163094857133752 0.7688207189316025 0.3897116471124333 -0.3442838815591289 -0.71009361310995 -0.11550377680337442 -1.1069744253515879 -0.5041201400560663 -0.5414408317197944 -0.1440396085058714 0.409475394736401 0.04606710815490067 -0.164346527339166 -0.20468586550417833 -0.2997434108264137 0.8679609584615873 0.2708255431646355 -0.06234075038982598 -0.2768900654991545 -0.6584910856768454 
