Layers weights
-0.10765878443468391 0.06890348650584022 0.7083372384320259 0.1905217063968848 -0.36380781717509386 -0.13476960354413095 -0.9384812345094694 0.534875781120693 -0.5981962333240973 -0.3984126902616407 0.8517939863930544 0.38899107281709167 0.294421562952597 0.22746577683014763 0.797507208228173 0.9105157780217995 0.5165345061052822 -0.6705176658947474 0.7319748401478487 -0.3823995775314806 -0.7352525016149769 0.6458325383036225 0.2950248886454575 0.08537717038505713 0.8715757219861457 -0.607300109447068 0.09770877027477165 -0.9319358681808529 -0.24244481996992992 0.8472105328085958 0.06293330770895637 -0.20144050819326367 0.5354855726829555 -0.05136413519949423 0.24835658553920292 -0.23140340249873728 -0.7214301699208525 0.7766654231550975 0.21528203951462863 -0.7559224792147221 0.9023153737804803 -0.7370639043927114 -0.5544104381089996 0.7501431024948985 -0.4402429532869864 0.4082664807554014 0.5067594239085963 -0.19408874019363576 -0.25861495067080575 0.08267934609282701 -0.25561160644311043 0.53275774287848 0.7489249605559432 0.20411302828222552 0.6698131500264153 -0.238581098250628 0.9884191828769736 
0.8335568518105585 0.30863335338072284 -0.6942598287586208 -0.6411767223990061 -0.6641907397529232 -0.37610306176926656 -0.27624551394092167 0.9753464222121199 -0.430607280606798 0.07289655450298138 0.8643552933658163 0.6744513844567613 -0.23822086843962376 -0.055275096156964035 0.36149450915727577 0.27961132127928573 0.24038108633953192 -0.36748796996141553 0.45441658720009515 -0.000499597568369188 -0.9682719466347537 0.04132039566730418 0.35962805064591213 0.22062750007204654 -0.20124683367469443 -0.6604064750487131 0.26102110816405255 0.2486512661879805 0.4685636488567055 -0.4634796838090704 -0.5723144869126614 0.4612117972781628 -0.9685995232549791 -0.9809959350283428 -0.9434466532500352 -0.061306327090863005 -0.25860092649938393 -0.5262255831262844 0.8011411144220557 0.44404372021851113 0.4355017960054637 0.6135848673467061 0.548782469483176 0.5892383826045309 -0.05232249135652017 -0.8336828853499566 0.37553989958241596 -0.4736846242287464 -0.18676002357302401 0.9607517461251656 0.568310982224083 0.33466439046430424 -0.13523374668340377 0.865205884433743 0.06945066254864356 0.18970860314550897 0.9290732640195687 
0.20876765290295252 -0.8064853393843723 -0.9234042406775609 -0.7560186118008871 -0.07534863189045138 0.3773448443196125 -0.12914479003428864 -0.7325857369983085 0.30205213727935143 -0.3852086537199495 0.5192768264007386 0.3997909910587385 -0.9428555501745616 -0.3048083901390202 -0.24179114321980041 0.44216738303371594 0.052184710224566055 -0.7229372559800389 -0.3540874775752456 -0.3860207308348863 0.422510585612066 -0.8372050461016253 0.38659815279677995 -0.7287803929330405 0.7234194922080388 -0.13888625776781627 0.7545394333903181 0.9662406075900772 -0.8821527961380868 0.7080495408091427 -0.16948003845556525 -0.312173462107424 -0.5637202192554887 -0.9278268584955431 -0.24501105427725078 -0.13713207893098528 -0.25858646413954206 0.891792997271462 0.5928590247495681 -0.010175254984415974 -0.4558507521872601 0.4463278477833277 -0.8745808584142014 -0.6138158529423426 0.5128340658633104 -0.24173329329738516 0.4973982189281974 -0.9775779732042923 0.5464190842233023 -0.9258883978584911 0.6486400669111547 0.487037830870411 -0.4958037765027704 -0.7063515302981356 -0.07433221347742039 0.603604217323037 -0.3827950971395387 
-0.037137972972129285 -0.18170257883581264 -0.2786403682728844 -0.5800213273932197 -0.3310605053382984 0.33809451657043227 0.08705520515462464 0.34418965696663856 -0.944478189199647 0.5450149794141859 -0.244957736890834 -0.446281425347927 -0.8396791078504066 0.1490042965616872 0.7948381656329828 0.01664416948071831 0.41211177706401103 -0.061817932449967916 -0.802344345101133 0.08623374736340633 0.7810115850046747 0.9775563803944805 -0.6823160731011703 0.22964276100942313 -0.7863149435195615 0.4857003834268925 0.9865814209935382 -0.7807392806686286 -0.21307636521118686 0.6829235933576109 0.2801054960921124 -0.5108943663333475 -0.9640050683843506 0.13996178889878763 -0.4494060419188459 -0.23869858456462376 0.945657059122497 0.6137545140338702 -0.10313716691103081 0.3110084019239288 0.4848629555929216 -0.4051486396300492 0.6079007702618155 -0.44654394484443133 0.3093247296999672 0.46582656232785163 0.3966778834228801 0.5346237310254705 0.022654834613401675 0.3984122263293597 0.47990722753998605 0.7294894807650778 0.6525475512043568 0.1516474568329576 -0.754972937370874 -0.5666215628796633 0.2645365662207816 
0.8192703622949769 0.7198872120379833 -0.8820006018935047 -0.9995452337180089 0.15535880291497547 -0.2987058653693496 -0.37374151589703797 0.12089368478986103 0.7916351270523982 0.42556731192980823 0.5589520984558913 0.4247480953623541 -0.46004910024583645 -0.42740200426985375 -0.95225760421048 -0.15523621158160222 0.5460790061880132 -0.5031571489980067 -0.41795750624233197 -0.3759562960973837 0.2990623516382998 0.8171209178497673 -0.5236574796543738 0.9410452258885599 -0.0890315338465939 0.9687221283338996 -0.8153139224969121 -0.9791913201436818 0.9247258303955217 -0.9411760965809888 0.7984671125018783 0.6891578145297591 -0.3889660875184042 0.9547342466467943 -0.513147741987912 -0.12601268117222092 0.9406326851004739 -0.296822268750456 0.43908364148893864 0.41288356255367653 0.5623830286432281 -0.7860618405231294 -0.6359554653290185 -0.43134919721105125 -0.7330944525844091 -0.5895796028224773 -0.8158677453132116 -0.49810963756515897 0.8242298267621446 -0.5444591497016609 0.5002088406448026 -0.314975417367815 0.41385003493385236 -0.056463276882065504 -0.15569243836240718 0.21601778862166474 -0.12837044747551918 
-0.1849903175985479 -0.12566120283064341 0.1350099452252067 0.5265808214992516 -0.5182534216625904 0.3175521391778405 0.21259114241436097 0.5916953700380808 -0.5331242234853195 0.22042552924188796 0.28885323609721003 -0.1016788555809651 0.47163009132838474 0.7649907254991122 -0.19739454979240345 -0.6401961819951989 -0.3793932021081914 0.9820503896220356 -0.12400309609737059 -0.6884418624866958 -0.8230091594814903 0.7392701712269149 -0.9226965145674357 0.8163274472213967 -0.721110117944292 -0.06203601783343515 -0.04557777431833587 0.32839983032088615 -0.5385640700452219 0.18777649530382132 0.7709206998116733 0.2068050417818146 -0.6836331360927932 -0.4967525281756364 0.0870283705232393 -0.04258302860521401 -0.7416568197299351 -0.768308732915162 -0.7224749646308444 -0.029126125674596617 0.020104063635038694 -0.8468877550726321 0.4588184358198002 -0.20673635148128763 0.008638044921235283 -0.9158002173186447 -0.8725897270834055 -0.6625939218632754 -0.36726236026090975 0.3148323474751804 0.9462927305887989 0.5566437645939833 -0.8037771169060784 0.5240051685107654 0.43777378373524484 -0.2696179309682695 0.9272730707306494 
-0.6997089948502 -0.8460197152264117 0.4459486537965527 0.8509049695089862 0.6237875031885022 0.35623229238654 0.6948570211731828 0.7873426620199073 0.9965200336318389 0.7211844545356023 -0.5311255128002559 -0.7311694022913837 0.9118425697849679 0.25128968402427193 0.47171426555165125 0.27798869487974986 0.14157993621777964 0.4591221939487602 0.3493803078180284 -0.24345818721254697 0.0922917399846725 -0.3359975557690092 0.5069119018707042 -0.2494269063057914 -0.41573220251811027 0.2721303469048517 0.6580002869316697 0.06355775723310149 -0.14823396178114912 -0.27496531798231866 -0.7121809195306207 0.950544653314605 0.8318257299736482 -0.9821417641193342 0.6936480144863335 -0.01571816475372881 0.7187678863306535 0.8513884327005281 -0.026792732655341222 -0.06443200767623544 -0.289320321446044 0.7777325555542778 -0.4219668197698072 -0.3720353832581703 -0.4734120587255123 -0.014360753671382807 0.49065081766210233 -0.9568034308435855 0.7395600947639676 -0.4814973825650972 0.6084997946010129 0.8848423602312352 -0.8276880755034168 -0.22122866524543272 0.08472484357100464 -0.6452117056524515 -0.921539353976771 
-0.6930605598664357 -0.9554582401667397 -0.2947132403517254 -0.11539041943446028 0.11576303641551186 0.24944954306963069 -0.2876223966387639 0.07226179391160284 0.006762137756014308 0.8649390446854253 0.7439024960497396 0.30831228833645674 -0.6484541393951059 0.7580300674196977 -0.8212812973278105 -0.45185795647311416 -0.8557634099256031 0.9978776409481693 -0.31477480670166824 -0.5209036302949395 -0.009147487040797058 0.7103360217481473 -0.8771758792686595 -0.6770210565547146 -0.030931800187485425 0.9113704093625166 0.4531285741105262 -0.3505549266500309 0.7775641766732604 0.08441552423726884 0.6903988759201802 0.39441901867984497 0.516759137983533 0.9298510866620913 0.3230542947654047 -0.8489516278320738 -0.15849437274098704 0.3437350633271622 0.3959939385323431 -0.7701841412509579 -0.001616087279726397 0.1585096376809283 -0.5462745743796869 0.9733209882311936 -0.18001985561282016 0.2194870305164882 0.6868557336696923 -0.6640344095976178 0.5294404578670708 -0.6753463758565574 0.1664148484600234 -0.6533392670398722 0.9415586793589774 -0.478863594018125 0.050194594295111715 0.03173742720362137 -0.5433800789431764 
-0.6481059266281279 0.9103373854785783 0.7890524197473805 -0.026849569343745786 -0.33996826947083636 -0.12396313801120391 -0.2719035443207341 0.5622571462797522 0.24651151287758055 -0.620934935838942 0.7398668449289354 0.5783053492464422 -0.7251097775993621 0.11880910234076487 -0.04456902755604744 0.9711587236688197 0.8173044638901203 0.6066335508322096 -0.5365867542577212 -0.264414468860958 0.9215614419215438 -0.6408869442283284 0.5928327627444758 -0.03664551686694153 -0.9915646854530136 -0.05622191575833457 0.5446365600081453 -0.6856123587104351 0.7109755668686529 0.07003018296279857 -0.3750544908176564 0.2784354984456783 0.6896973740328367 -0.827773196355204 0.7960230079283985 -0.666730803345279 -0.9586524227421396 0.7045558049491469 0.09256880252309786 0.16672467980401048 0.3424908681669534 -0.7696318807154316 -0.8267198382638581 -0.060845795047222234 -0.6553457841679962 0.20114884268082198 0.9789954112001525 0.7638996710645946 0.5013390386283942 0.6734210673869756 0.10631774438994257 0.28799122897727314 0.960955018278028 -0.31187065725133445 0.2708694508340198 0.29068830787167665 0.5085149252875699 
-0.26799833509562054 0.9443882695785619 -0.29964548115486767 -0.28781650696746425 -0.05932708510268249 0.336335713420864 -0.48162765131564417 0.7328358734152728 -0.3192874106360659 0.9229642329964927 -0.5290981900445022 -0.2897856171906756 -0.5188654289436787 -0.9867329089730119 0.1545467186343615 -0.9659262580652118 -0.06200300991152452 -0.7141153499777961 -0.8369916845703562 0.9616320529089378 0.9429414231883725 -0.6359278414094593 -0.30437031613960774 -0.8912190360725961 0.9557207569211317 -0.9487088407998638 0.3333893855182595 -0.5869223278854621 0.8942578120474103 0.9073978049102522 -0.20002294587648678 0.9293006192828398 0.863333234072678 -0.41292374200345106 0.8729633857939816 -0.037178501841799695 0.3540917264827983 0.1543688348464908 0.6669835294782083 -0.11358465135788913 -0.453846534671404 0.395210818603676 0.3167698511823622 -0.6152965623183465 0.570946687897979 0.9821510684612527 -0.20224212912394346 0.8123596094045925 -0.7320735758389258 -0.5315098826531779 0.47915798202821036 -0.09170810932402208 0.2704719581185659 -0.10296598332510923 0.7727701241135372 -0.9516030701158281 0.3719353944672141 
-0.5761468394283422 -0.7400183356563852 -0.7597104128313381 0.6422788261541357 -0.3620265297093565 -0.4884749020430942 -0.8369698474496026 -0.04781973909817429 -0.9726729536480188 -0.09709599158496007 0.42178983563304695 0.4502986718278539 -0.23774845206406198 0.6041201864708846 -0.8562848274273577 0.9393306953041749 -0.5033279392855112 -0.19683550259466887 0.861218333483103 -0.45841371506617823 0.21334183256686037 0.47552329852011127 0.7955920850651541 0.5223956050962281 -0.49793831526051835 -0.45625199087922663 -0.8998935696634516 -0.7188846356826205 0.46399685097079135 -0.8880176434065526 -0.6877429699489278 -0.5046442722425697 -0.8216767211359728 0.4464866084827579 -0.6546949293159434 -0.5914909262874565 -0.8418075277703941 -0.30976850503362363 0.7770111429659516 0.10485981247368532 -0.2757730490094743 -0.9199098976188667 -0.27369658511337414 0.5792276732290895 0.5660448004750948 0.03021511710218425 0.6112819427001449 -0.8234394776195295 0.9004731459782038 -0.38798697021896 0.9277619662846839 0.825385788249629 -0.26081475630285017 -0.8301490267606911 0.9581507633481604 0.5409069689845158 0.6237214461111615 
0.7847811352828931 0.0798735372706787 0.2260245672762069 -0.2747415473790252 -0.18091884674176079 0.6440862171568453 -0.12769356320498004 -0.6291242868734334 -0.7643577308389309 -0.3376560275311038 0.5551029605111135 -0.1479961953118143 -0.2650789886924492 0.9137169865504443 0.8367841891958314 0.2918176947167534 0.34311518807375374 0.11947555355723272 -0.5637555392055977 -0.1493819197775646 -0.3966615848623395 0.9495425410943895 -0.39103859087914566 0.35079195784557754 -0.9009627364806767 0.44305035434726614 0.021958290275722048 -0.10976856413836164 -0.030293606359751684 -0.46139035073818796 -0.8788069613259385 0.13923295994943793 -0.7694902494748646 -0.74164448893921 -0.2770945365519337 0.020996106302053254 0.35786990445244465 -0.5613546642457317 -0.8987028834438963 -0.024694750849701647 0.45074879195948814 -0.2132804274180935 0.6331829033565084 0.5126784367996426 0.8998500805831322 0.30987797809973255 -0.0762769350361745 -0.7998214203708933 0.4639198463394072 0.621604673991915 0.9339263112630674 0.6200801523690666 0.4687598455637071 0.13735186465581428 -0.4535368517332051 0.6705980498213826 -0.9055826556393333 
-0.2123646197781619 0.14808988486171892 0.9484160963243997 0.9287223950311734 0.33194752087538704 0.6742717723165476 -0.820103532346723 -0.5027000390125994 -0.006498045544788056 -0.5289260109122 -0.6952009557560512 -0.8322800889299944 0.1391574638419761 -0.28589384883240143 0.6779614907278889 -0.19970724336701803 0.717277454088352 0.661279118377559 -0.6141448717951881 -0.6906735408971544 0.5879560288431673 0.7845778726919633 0.9393612726915114 -0.24160038097711364 -0.09858349194932226 0.2977008939730166 0.7123034539539743 -0.5189702183884339 0.3251534320190634 -0.5286121827056884 0.7855837515645789 0.023586452955494643 0.043138069908157384 0.28890464645940095 0.06499224231607204 0.7316955002914705 -0.6633241116339056 -0.3543602145466557 -0.5068189707906118 0.44893945107948857 -0.9972242394578592 -0.6574302955748923 -0.33512686841105555 -0.9529835906923836 -0.16767159707626303 0.4715047233699533 -0.7963283788198464 -0.4737488521554592 0.0926895829624379 0.23069345251984474 0.9435360770002557 -0.8623512082829318 -0.4282606292733365 -0.8681518589729791 -0.5625705845302187 0.34808142513598445 0.5248494366867402 
-0.22923995631237637 -0.2806073478183504 0.031715468397727875 -0.4673467166339634 -0.43467886176800236 -0.7198872178088024 0.20136471786440965 -0.9474784779474882 -0.5052977414028359 -0.297735556562885 0.1970837826607421 0.11453924779557144 -0.6492404271530621 0.5448588597026375 -0.4905316682687124 -0.04202683340387305 0.19493231465123717 0.5457936687391094 0.7975383286392255 0.8311520021979673 0.1022382837177141 0.6322907336354783 0.8862562835779183 0.7141478536912258 -0.019148441813062744 -0.7377063470601422 -0.41009639625336325 0.21285102735393632 0.009798930918714206 0.4259915572494317 0.28452413617084493 0.2487678539536791 -0.4874459844008605 0.3449270206403132 0.5546725350504886 0.28580850133562746 -0.9558482051934989 -0.3851432768910004 -0.4855590969209944 -0.4524469805452785 -0.8930886109032028 0.17028593254824442 -0.9967541469715211 0.21746048161397513 0.49462868780457203 -0.0151912624373126 0.0025785128691795324 -0.8693811409754235 -0.4452886181023463 0.8324939448461093 0.7377878679236423 0.726341157087899 -0.9009308940944892 -0.3148334706405839 0.2589091991457837 0.5305188616213552 -0.33325250024918857 
-0.6771451661441008 0.7048070217844138 -0.599937862503013 0.5106380761531571 0.9332570568315275 -0.9828304169208624 -0.14963252622861592 0.5830793268806477 0.9088580348634061 -0.35556919943556653 -0.0549036326779635 0.3931299147763859 -0.3461722867767401 0.3923958732774652 0.541218252533251 0.04690550782398551 -0.9980931059521765 0.9313186396122013 0.7244187989622857 0.11863910092060638 -0.9459533037186261 -0.6819346736704724 -0.2645822248368444 0.9966762478565175 -0.07007394609236117 -0.551037882910163 0.20975046330428082 0.3202823393342285 0.5287844812008099 -0.4256922352189058 -0.7491688342260308 0.8482776730733864 0.5796188340915742 0.8021203589019394 0.07740770413938303 0.14547192638300557 0.13557239478471866 -0.9282533824018133 -0.07143710949160548 -0.5698727657543852 0.2363227265553549 0.3314471068528786 -0.03145309959040965 0.8554766719933753 0.7394629219315901 0.3955549328914579 0.09634318204612509 0.18675344621736942 0.13505149534116345 -0.5769147568904165 -0.6935466228497678 0.17383645109139523 0.7095138491982814 -0.09812514338111036 0.9845594609823968 0.3697151118465656 -0.7973220623472562 
0.48688458585275396 -0.8875434214373421 0.7687984105387873 -0.745775775142443 -0.4736185718507297 0.3686831008319373 -0.02096527192949883 0.6779350697485766 0.5905112387695157 -0.6189371790915301 -0.797742917529102 -0.9621323579210134 -0.12772306191435348 -0.5222257584836125 0.07820139223192832 -0.41178728715606466 -0.41828428158605124 0.8670299739297849 0.628536326366274 -0.4672914785122068 0.0579019729049724 0.2554465564951139 -0.4553571927850936 0.11469356022892098 -0.5919686871058529 0.1378493738626061 0.675170353875723 0.5892502568575596 0.8613779658283911 -0.5332107453395358 -0.7440564897499157 0.9317635714555552 0.4095929052065226 0.9680095103183266 -0.6645970596200408 -0.08264778710470153 -0.9728409777770799 -0.20678933341826702 -0.41292696679145496 0.8416482250803291 0.6080305959444738 0.5320551955595798 -0.9050089010052518 0.05188884963880654 0.7148635463764934 0.00014688630470217803 0.2059495705342994 -0.8421834729865814 0.810243790681241 0.9672484928937866 -0.9264133717158314 -0.7223187015037305 0.028515945931482323 0.5227781843625833 -0.4858621425139845 -0.979457918833418 -0.361358980743902 
0.6169387998213616 0.1251996761354468 0.6167506926322812 -0.8474245530321506 0.256806917962644 -0.950082424269371 0.16932221464197322 -0.13980188396117765 -0.932107765925011 -0.9057997194273888 0.37645470507160805 0.13757498042464997 -0.9187965932624179 0.7306861803026391 0.3010878249013997 -0.9133514526858497 -0.6445837602440441 -0.30692443364601263 -0.6489617530677623 -0.093328362548578 -0.5359187879714832 0.3012883405090742 0.7184267084882118 -0.3043529686922088 -0.8930116838626414 0.6934536251889794 0.862514413887401 0.969627282168983 0.828146801337442 0.20975357076213041 0.16805415517436667 0.6026811994349605 -0.88096221802725 -0.7284540315840864 -0.060971930686013476 0.986361603001077 0.10496723655364369 0.5949174542215996 0.7661599027444234 -0.4713231275597113 -0.31736790976417195 0.42948902633421704 -0.7822585190276425 0.8130135036742535 0.5236203947943455 0.39930439422065056 0.5837736060620128 -0.5434649926426496 0.21506102175070718 -0.7712607565921656 -0.11281691130077243 0.6244729096931635 -0.3833729765161493 0.773623200585615 -0.8123847370217641 -0.0357263023440397 0.30738641367694924 
-0.011042791485250003 -0.6018704897373051 -0.3144362225141877 -0.8294213903941793 0.7998807621557465 0.032901616942173535 -0.8029028800571363 0.6655670446143099 0.48902609061763447 0.26222075405607836 0.07310815758292066 0.07863624946588207 -0.8071367096990613 -0.1672717305805105 0.5667466949953469 -0.06966730509696148 0.5212115663768131 -0.9039167457093378 0.13442355218626467 0.674347183676517 0.8359192200823853 0.9729426598052321 -0.5201404793388783 -0.42843828403684403 0.18663665276856412 0.6344882525377631 0.9997342867056054 0.9258662470136736 -0.8575948819799959 -0.028685769082762824 0.043063639897362685 0.6455433557215461 0.4571763312972037 -0.7280724899594067 0.03358244178576797 -0.8834118557827693 0.8416787994395318 0.8916598790814266 -0.5503863517869951 -0.7773276327206533 -0.32018791078792597 -0.1453614094567275 -0.2081283077694418 0.4144224695856326 0.6463917126163771 0.30263741149381934 0.3805895916153567 0.7434897531823106 -0.36055337464608606 0.0510530282985282 0.2047861723128206 -0.7155185772108862 0.2385533678776031 0.9952526801810874 0.5374455000914506 -0.3942548099691014 -0.15903123249098366 
0.18653985344966673 0.4355175211548641 0.3826864634258549 -0.18339140643842924 0.5009679432990897 0.6648586769383416 0.7004665997443663 -0.9381180255981134 0.8068725347675456 -0.21402903110537297 -0.6776256371435676 -0.32927467242793973 0.8847031578899505 0.37883840807047736 -0.7036138121335338 -0.5710762718166071 0.6347975624269346 -0.3443462488345834 0.3165902767439803 0.12037237283794326 -0.18419818805851088 -0.2017430030375561 -0.2909305524307227 0.870003735572918 0.2453507119457874 0.45671899317402853 -0.3130026502758978 0.49832319139430253 0.14809464282657073 -0.23782017724359306 -0.5134625281904498 -0.14659589472081894 -0.11342614284421071 0.9182176690567638 -0.09265093550082737 0.24058934479299243 0.7972951556484758 0.5387847495772046 -0.16294960017172977 -0.25151186081598725 0.9911148646979289 0.16243669158992424 0.2678830117311257 -0.21839524902572058 0.8030177132093105 0.8429480657304819 0.9802612039052354 -0.7996831380144829 0.4749794311081348 -0.7732862336897408 -0.8015790847110495 -0.6322782411859859 0.4504744981181346 -0.540465604002282 -0.9274906680166087 0.378339613374677 0.3785140856990736 
-0.0812904396950056 0.5416919033964211 0.22832491841787994 -0.24951603334313446 0.13104792176298277 -0.7092602120616635 0.8486457521559593 -0.01489451941310085 0.19352004749229512 0.8215235099315048 0.5641450035705029 0.7764473074671525 0.9829627342453154 -0.4244062005794702 0.47828841187441073 0.5510999048178001 0.6185978799836851 0.7905214552738105 -0.868328346362284 -0.489399137678961 0.41702747491091563 0.346660607377406 -0.03690875990914475 -0.161324998027868 0.26695585182182713 -0.5770472023556259 0.8146073858372787 0.040446053411878825 0.43686870697002383 0.015826503794771164 -0.16754177225542524 -0.620563883623418 0.6297363803029146 -0.8339873691097528 0.237982166319735 0.03377093760176661 0.8808246477381881 0.29680942223576423 -0.48108157664506035 -0.7084343902534088 0.6262607758535514 0.8778683879115834 0.5350278778564104 -0.17986206016618914 0.8269507582540261 0.1302211047687345 0.5504888277945639 -0.5895920059077119 -0.762037080144093 0.20457276753924525 0.46490785225688636 -0.31354398987209803 0.08402407128513828 -0.21149066274683312 0.5253228973496777 -0.11729537327620651 -0.2417239965021759 
0.15106618670127858 0.12978883550050013 -0.2368807135164155 0.878453927079919 -0.3811555415225856 0.32952341607131913 -0.7355927045105183 -0.21177671330131229 0.15045935835036972 0.5167976081219805 0.4332994356836479 -0.29960958295902845 0.8619815856656927 0.8121771623668491 0.6032102399813193 0.5494051043998788 -0.990519803813386 -0.9154251008754704 -0.5098846425272359 -0.3467811065852958 -0.14951595185457728 -0.6271251885600508 -0.10596053018359226 0.8931285825692532 -0.786493546981462 0.08283870703981044 0.12132166317071058 -0.4027360457020169 0.7741284391026299 -0.7699417876488586 0.24995118638833866 -0.41563690695240557 -0.4197515894441619 0.44694627840428747 -0.9912653293414762 -0.7218764065566504 0.513394643889598 -0.6981560588120806 -0.8224486298816106 0.19630169080650403 -0.7597146406484214 0.7827529882958237 -0.4534585302349987 -0.9613768641509374 -0.44293870938501817 0.3617226363952724 0.07814299883760624 0.9490490450445109 0.6582087674764177 0.8537906458068865 0.060969454509364196 -0.9993037356741213 -0.9323260095787758 0.9092070374843895 0.7417847368649809 -0.7143302099989176 -0.6524626987983935 
-0.43552367871556585 -0.6456568234166984 0.701190362142335 0.5398250387932898 0.538932795643564 -0.8033559851225021 -0.13116232335941175 -0.006531329210793304 0.8598853771387034 -0.9287856751491987 0.11591238903753909 -0.8327259345700888 -0.880578181141637 -0.16250178605947066 -0.7747952295097346 0.9467135335373477 0.4640464869070531 -0.6302520542457388 0.966755727667119 0.6448607406148946 -0.2729831987767204 -0.42432171985660233 -0.8092335438703994 -0.026328520883057847 -0.0953990700723073 0.026734597465578602 0.32812697270923685 0.4448677612271205 0.001273733380807383 -0.743416854812268 0.9238064849164962 0.9179509183221952 -0.5932738178708228 -0.3958691274606261 -0.9251018408875249 -0.641769354061099 0.46088881512405466 0.7041238560438002 0.5307808727929358 -0.7622055119367621 0.9208918729890685 -0.9009239373603597 -0.7667714376305452 0.43708969668473413 0.16921380446906553 0.2578272003103836 -0.3040741884418703 -0.7205027591721356 0.5501801036967169 -0.8357965216215673 0.9011822411362318 0.7831402230526896 0.6933815200403259 -0.017308584436500688 -0.44653205422538755 0.8767391270880927 0.10321058198261811 
-0.6751796355982072 0.10093482967782297 0.5597384938505563 0.5518052166846765 -0.3253691296035922 0.32366160868590416 -0.6369605353688803 0.6814934836737402 -0.8344431650239064 0.7332206970860009 0.11583153054857731 0.14987599058573775 0.43941875949644194 -0.2127925999232591 0.380535708121085 0.7574326921033769 0.4519152055547575 0.40058147097480945 -0.22095956566797126 -0.38873072230144873 0.3501426971537268 0.15871800280186035 -0.505117562258295 -0.13199924465715893 -0.4991989738204541 -0.14488038943030035 -0.7090024615606232 -0.3439023754432011 -0.5030328236541752 -0.11678606452396925 0.17906132076012637 -0.8864429487429222 -0.19545352636186064 -0.9679974672692473 0.9427663587215136 -0.06682390225489927 -0.8425165355176327 -0.3346494828905318 0.4555915318002259 -0.3718732157595636 0.7525978827719642 0.20815647054684927 -0.2538312569379919 -0.41328943814410274 -0.8994873273263566 -0.8144380443745796 -0.9946141718694325 -0.24330751803844516 -0.28352333424143383 0.6224220054370622 0.9614823248308351 0.03993919242799843 0.7746940680895474 0.28448834463745093 -0.37459265123961927 -0.24081824850348932 0.07521079493826344 
0.3463477584062209 0.2001868832893121 0.05486781548784836 -0.5201042923235576 -0.5226296607981227 -0.13538847266399864 -0.018299359224202446 -0.7005563355258858 0.9295055309689169 -0.0748964768163558 0.7891138800010209 -0.5585691152433094 0.5831943051023213 0.09423560761421915 0.030055077007919012 0.5917467182246631 0.39650466175555965 -0.2648436084935524 0.4350305788244502 0.8753360416527024 0.9474175075869584 0.35619415260637033 -0.25147410580898516 -0.7129504462605489 0.762491109792433 -0.6062418932315319 -0.40215631758182346 -0.4555997206734044 -0.903425195011798 -0.7118103063969258 0.5693445827168144 0.5879820852775589 -0.29317696762736234 -0.7708516015218558 0.20389688135385753 -0.48522912363977433 -0.35063782100672053 -0.8933079638954413 0.9353595213275854 -0.23923289437786907 -0.9230256276565254 -0.24102056275249484 -0.18601185752793015 0.42106858179012074 0.8572940752149649 -0.8252662411355899 0.9418580883202872 -0.1771194929929092 -0.1346814588665297 -0.4108020560010446 0.2146324642493922 0.061399135734283135 -0.8571769613789703 0.5419920426914311 -0.797805962628956 0.7728559354817365 0.8866971169410716 
-0.7576286618835266 -0.5398988560523335 -0.08106115324018459 0.23801347422780386 -0.6903053215950323 -0.38754959330709143 0.07587303561331055 0.3544052979594539 0.7423335035602341 0.660685631458894 0.316469850209248 0.5231612524611374 -0.47201298312464585 0.31812170007710233 -0.3750388657591367 0.5578954553812392 0.7341924807500968 0.6190544891787784 -0.9350304180162008 0.6507593978981978 -0.33730117608448185 0.6666786603725078 -0.1433992976010271 0.05115808397280382 -0.9979206190307353 0.6389483659629278 0.544467961311087 0.80040893325879 0.5965757727911504 0.5625230305905101 0.8950183177962469 -0.6340710230421678 0.7086644875866948 -0.49425190371976524 -0.014432668208864463 0.5629330318802825 -0.19422476088512905 0.9002162226063289 0.8896110059229473 0.04169994020684746 -0.028643473223201044 0.7754243804834804 0.39427936753282244 0.9608474355526939 -0.5981066014941147 0.9744495070305825 0.7640364164919979 0.3573402210313127 -0.6694602711253166 -0.19211610093584786 -0.049001000330668454 0.9266923050130148 -0.5179515106936009 -0.6036036846612793 -0.2111614785300118 0.8796235979728808 -0.784861329287243 
0.22479510633109245 -0.7424287219227554 -0.291379844616654 -0.8203203643253694 0.44522130172107616 -0.4491364615304106 0.6940765805386724 -0.9975164004761229 0.007889629626526284 -0.7673322288146436 -0.9271612651569086 0.43878218285313003 0.07489339568859768 -0.31494036401140846 -0.32175564008432017 -0.3520141065693276 -0.5652316043648884 -0.2907562951772331 0.03248992409811424 -0.4033358095582079 0.6409787170934951 0.6960685455621235 0.8266058236078163 0.9639788222908969 0.820290554499091 -0.5752898326715861 0.6539409848189082 -0.43950614703717156 0.2681828700629422 -0.3020296862432909 0.48102788693540627 -0.4026305004152094 0.31057263971506766 0.945148457889764 -0.6464185160994387 -0.9119702272290647 0.7505626391115847 -0.013013662593104212 0.9011742728672656 -0.5567249046312985 0.9178321046442055 -0.16967875691213474 0.9465428218647993 0.680132738880851 -0.09899514092283747 -0.29936964623501316 0.416640705201442 -0.42036132901264306 0.03911435508393879 0.6576380382382001 -0.29908395845511593 -0.03553597374430319 -0.8332033022874805 0.04925977094187382 0.1794388379758395 -0.2071148044158862 -0.7613568693051899 
-0.5152997885572739 -0.2616493941669067 -0.5487274474427373 -0.6058050012271805 0.03603196127211429 -0.439889205423241 0.313618704210462 0.8598066347937534 -0.9982920069566639 0.972148895001929 0.300068917248548 -0.43600420832847814 0.8680913958132529 0.12275514866628423 -0.7772524400059005 -0.6177957490067684 -0.4112913045385618 -0.827755101112664 -0.34347686490785323 0.5641533251804963 0.4698821346092266 -0.6397253569616227 -0.5936118430668212 0.4916877993348393 -0.3045427630531543 0.12010802303577006 -0.00792056582031675 -0.6430607301961757 -0.15874525867943567 -0.6834418898394072 -0.6534323695541386 0.6655245056351614 0.8450533744080928 -0.7824690242329395 0.8682025503107873 -0.5575086036437714 0.22457228199232376 0.43990143423531547 -0.5227336550888605 -0.2556720931497331 -0.45546459646427895 -0.8635155405535411 -0.6220298929921533 -0.7010538256654572 0.024024168352034317 -0.0019099064929352279 0.7041866954780622 -0.608810945769512 -0.9195392640358024 -0.2427161128788391 -0.90717469595145 -0.16223148945468222 -0.7411132597310243 0.8482925425621254 -0.28345698178955664 0.9105673412613926 0.36189407331877804 
-0.12648405905126703 0.7599384233875373 -0.8943624031605115 0.44574884205989146 0.2607031422838099 0.6356084690334509 0.40175305086240365 -0.7740356435061562 -0.22931090145133592 0.9310951947828494 0.9260012458155276 -0.5494920485356917 0.7104427627127049 0.02599618896247244 0.5542191249682231 -0.42065874284299193 -0.5279021585393984 0.7585219589165144 0.12989908426324548 -0.7421441741299085 -0.34823523635837195 0.4412594032305825 0.08370637565338149 0.6171220381066523 -0.4342746579581511 0.8235691922586548 0.2620512620153448 -0.3276118859748838 -0.8000329045338376 0.26596501081646146 -0.07085545779889067 0.7114063447292401 -0.14079410332973152 0.41252495788902044 -0.9493607819071435 0.07742691288168732 -0.7665128881785369 0.1507218511984155 -0.5226732467717576 -0.09016873694889045 0.2922739167365611 -0.6431102786990732 0.8700437431559425 0.07622724848334772 0.21716786581409267 -0.5320751064170767 -0.08309178622203728 0.6007390425535822 0.678541143866296 -0.37653911092210746 0.4465043101333419 -0.4913528513968139 0.7415406131077534 0.8170994620202515 -0.06964818737827663 -0.31583404654838826 -0.6423135114358443 
0.7579276390799567 -0.40900294218394473 -0.444274156461963 0.7069535104344833 0.11322035132557272 0.9426602915835172 0.9054400973382746 0.4857770700984602 0.2326405559751974 -0.11689797899909937 0.2364353847022116 -0.5896180285599016 -0.2542903697758732 0.1970332476093822 -0.08885094732418836 -0.8057897558450152 0.179226069436905 -0.030774952641504205 -0.8565593004517247 -0.9887660736781166 0.48066535313869446 -0.9914867678454584 -0.8283251524564954 -0.6708828821826872 -0.06335087698001018 0.037226811128613146 0.3805645138473335 0.9791452238465412 -0.7468227057107905 0.583652333207855 0.8309551318052849 -0.9744204662712704 0.5766926266595307 -0.1407630559622921 -0.7912116890640046 -0.9907628205252317 -0.40996473209017625 -0.27368318952342036 -0.8202829102372988 0.7168081123997315 -0.9164911125456574 -0.9251592260234813 -0.848919760145397 -0.25873044936108136 -0.5470656471165729 0.04507415836784581 0.3141107098333721 -0.5609095153723832 0.034206400429971806 -0.14349027948110504 -0.3934892777956829 0.14745797782755043 0.8650273247896036 0.3459212197493728 -0.9083242182883546 0.9155163805023012 -0.44593132873936997 
-0.7896059047844228 0.44702062715638546 -0.9445745647388155 0.4633543547568103 -0.37752855314918565 -0.5948964493180302 0.8482469566735551 0.8376194359063767 -0.45470061193040934 0.5329177152658622 -0.6913447577320446 -0.5766585897680594 0.6414284608820502 -0.5970662678562516 -0.9192030527474169 0.5059294185964764 0.06538342604334835 0.5629161347384517 -0.4869415826582828 -0.12435172613070329 0.8210276697568419 0.702778680067371 0.09101191607701092 0.27396066959915183 -0.5044797825893153 0.8650458175668645 0.21664316423467178 -0.7012057326582799 -0.031035678581823094 -0.4660155635625426 0.050728007389659054 0.08354484342008911 0.21426716574335525 -0.13856969862635005 -0.9191647488155952 -0.6807351609110989 0.1811573774823957 0.32646466523765794 0.4756223377059679 -0.5884923210486736 0.7478668485829734 -0.6350180224838466 0.39333056708200864 0.4873992762041926 0.2512121956549283 0.5419157575957402 -0.756193789031181 0.19180692823049555 -0.0008834369403665221 -0.8932946025937121 0.3781428859607707 0.6338164326058731 0.137526238375058 0.857280916874489 0.03471979071493698 0.04676734836440768 0.37894272219673625 
0.33022508432562936 -0.08775913148614145 0.8996410404235606 -0.4800034873526495 0.49443662022316925 -0.36713223713039767 0.25945917756880504 -0.05215986104939555 0.42481621028286853 -0.07574663924247638 0.06951305081701364 0.5719397355001891 0.8898415768675872 -0.6719142230459715 -0.8077066188490593 -0.9676926222458021 -0.6933841995456471 0.4838103717263944 -0.42850538317729425 -0.8774264922315321 0.48364259696723727 0.5929173668526377 0.5750555173835927 -0.3814599128463052 -0.6686648917460023 0.8996209099636432 0.7871681147007936 0.2834979023312977 -0.06684206164545332 0.5616305740754236 -0.6180252841394376 -0.6374200021922314 -0.46805489458876415 -0.9380807330401635 -0.5960443706099949 -0.011404279261097399 -0.9008951561744252 -0.23073464850778647 0.9196306128322019 0.9358552106613239 0.20017949152164372 0.8347940668350915 0.35534122684633784 0.13817627420583045 -0.45248948640471276 0.1875930406311146 0.8115475634258432 0.4786340456994502 -0.45395517682163233 -0.8210251409698597 -0.4588728633302597 -0.5645062411010398 0.19263945174192496 -0.8927957082831289 0.8330008667957236 -0.7041729753248372 -0.8172712330862922 
-0.28460390603447894 -0.9858485518809756 -0.244894666193201 -0.46639899199600326 -0.9807902217646166 -0.2342114246807375 0.17984063111846876 -0.14783708904709109 0.9689828215510357 -0.24239404648164342 0.763290927414173 -0.1878631612400473 -0.6016010061877197 -0.13849068572302614 -0.0777752933633671 0.10884613419406669 0.4676927726264055 0.030854423523485552 -0.9327847301231067 -0.3007160838794323 -0.20990602773971268 0.30801695498486786 0.29903201677491725 -0.22597181754946274 0.6377667229024289 -0.006906466547887957 -0.32208939625363175 0.7766706999858763 0.5430038715195274 -0.45607333528732297 0.039926933701981755 -0.8652803450719383 -0.5149369916505224 -0.34431815827354106 0.3322634175515493 -0.6715495368318524 0.971361619140502 -0.6317144459702103 -0.9217566538764235 0.5148558819609034 -0.002786422502141228 0.48347636961883067 -0.25455880598377156 -0.12927253565705113 -0.7661175810378797 -0.30811902620115433 -0.6695921410719301 0.36567237530437374 -0.8440494015347004 -0.31346891153851386 0.25474380743144587 0.5758158858686534 0.3587737287344619 0.07824792904820312 0.9763625537729221 -0.06129545067808028 -0.30690559306777393 
-0.49645276175299924 0.6273015955975685 -0.44070786196785816 0.0007198919482707545 -0.9744002353914089 0.8956645959197124 -0.5310809482911764 -0.8380204243260834 -0.5618153432189801 0.9170221226192712 0.36693446194901713 0.8075035104833649 -0.5240239383858403 -0.5783256497042524 -0.215290523276638 -0.9691604913448021 -0.4575143255485532 -0.8807602784424249 0.5960661034528631 0.1377201664217796 0.8761118937167216 -0.12151386567225393 0.007316981740902416 0.1125100746941978 -0.0463681753415095 0.9190911055657611 0.9394982935878831 0.35354090274167055 0.1707576029442603 -0.1468501906876053 -0.976314075933061 0.6510940918115915 0.9303365493124038 -0.962540182028431 -0.668248539078347 0.862535244835136 0.31275338259061836 0.5383781143491967 -0.26235670869722594 0.2624565250045443 0.4289148897130777 0.2532203517252256 0.06125973155311115 0.4286806604216386 0.09241030590031084 -0.2187031615200437 0.5075124002310337 0.14020169403966842 -0.36758386281917743 -0.7940920637242768 -0.24367842542663554 0.3321303461857554 -0.24332946608792044 0.592878404208729 0.18177488841705053 0.5195981371128489 -0.17370254192869844 
-0.10812534206503344 -0.2933790814849093 -0.19957037438251635 -0.2575749252828544 -0.7876010884228418 -0.23908718811165278 -0.3315460044032515 0.6703741223409461 0.6882563423080357 0.6470516605975625 -0.35413026241437073 0.03173142117369858 0.7410442905911988 -0.16487602293457107 0.2353856375763153 0.7226308399308832 0.7372684251475157 -0.605186527718047 -0.9223118504598404 0.28281560969632413 -0.2872043255130332 0.671147054828148 0.8097504147336458 0.41165910093249763 0.40321181455501254 -0.40710513737619913 0.1837056468143412 0.2906363891343422 0.6772006375415853 -0.6067402199504185 0.012555710382444737 -0.8887347921354339 -0.7170673056656836 -0.6663947006998341 0.10537807908990882 0.7915198489131866 -0.10123728154486411 0.2780305299568893 0.7572261741274294 0.9034741356002849 0.5200090864440672 -0.6984066180925503 -0.672664415613264 -0.9779661043610197 0.5458568646267381 -0.365824816840552 0.4780852079116049 0.6899169459404487 0.9339837168552318 -0.07950018010378423 0.1309328873445461 0.24778862936998303 -0.28819276264778687 0.3484424212362709 0.8342069969719578 -0.8860343674751444 0.6167844827531446 
-0.8034588565176133 0.42275593012943347 -0.6364594833837962 -0.6820824509031783 -0.822494112163068 -0.6641566428299412 0.8883168136834488 0.6326668239567561 0.7437594092535362 0.057596917572950046 -0.5757338558658072 -0.15537315024591553 0.7104620043182555 -0.5778992539309348 -0.07254313661213006 0.5786740588194341 0.276512137430204 0.9346605735836906 0.13222484997694162 0.4431680020526094 -0.3386516455376476 0.6344560345241567 -0.7239423509393591 -0.862539407696584 -0.11023392568545543 -0.38916694103976823 0.6121131164501017 -0.6549254239150395 0.22705991277980894 -0.561015231626692 -0.8954091497554699 0.5611609295813031 -0.4813680393133959 -0.4711056393302644 0.3860923571026136 0.3188201409794876 0.1936054416278644 0.5060949056444001 -0.1386721807183296 0.6453831595277908 -0.5321298161009473 0.5128136823301037 0.3419729201562307 -0.17207209254388253 -0.855452068092208 0.17895418688921455 0.7957942887589311 -0.45880632179477426 0.5439948209024643 -0.7688985531847268 0.01936737134834776 0.05191153338043354 0.4457653140572875 0.3818918538885666 0.5904196578762501 -0.4562358719732764 0.5779170114701299 
0.3882081831151445 0.7725068441603502 0.4548057766098299 0.7049689710178829 0.12370643083792933 -0.314003462644786 0.38263933814650963 -0.005832318173290555 -0.11660901696003068 -0.4703500874655193 -0.13146003327192268 0.3665369857337129 0.0009558920864250218 0.6159613785995289 0.38171127576106123 0.07316397549696599 0.17637160673384256 0.7775935378142935 0.9393234632536149 0.7676542213330987 -0.7562223545159897 -0.7478557284903397 0.08610192550464935 -0.06388710639769439 -0.6634659418490263 -0.35147706122737565 -0.9749819159526167 0.8922491525031884 -0.6344199348083123 0.8742356356036934 0.9328163836514486 0.37343163044035943 -0.36622500333238306 0.25713475790196205 0.6653307915235049 -0.7479176602684949 -0.7561487824952026 0.4763451540264687 -0.12550834093766616 -0.4883519438009281 -0.8671233475735551 0.9143050641333688 0.570725953019853 -0.6429259000906481 -0.6424449349340507 -0.5472862244256793 0.012039151702228093 -0.27282047451919983 -0.758406508705304 0.28640077276947773 -0.06387810115774695 0.6731310858285812 -0.42565300432723285 -0.8573120619770406 0.1605805288267179 -0.4694581214491963 0.6983956430652211 
-0.9514074586570851 0.15413030393314897 -0.30950381121577375 0.890886736302971 -0.9054452656009492 0.7954681714975577 0.08734702116575795 0.8154888396665463 0.12398119286140963 -0.7040694362494002 -0.5037800434001212 0.39699392380550785 -0.06402548378883653 0.8964240410034316 -0.6766318665912896 0.8177714089903094 -0.63374988311825 0.5585790517966738 0.2025542727027767 -0.8758488970980801 -0.3211073628223158 -0.2634226864362677 0.17735903783252446 -0.9939069583580117 -0.10377166403363414 -0.07451628603459426 0.7301361383183189 -0.507600216529987 -0.11845032424098555 0.40891780634042724 0.5402398178825513 -0.31663041414560666 -0.99522634101911 0.41554487687371733 -0.6625194000700769 -0.7144473305612822 -0.16069115376248153 -0.7050248745923058 -0.10798243742656842 0.3375244756209415 0.8616760810503803 0.5318658670509482 0.9238543131926618 0.7128454836848654 0.9330631358754086 0.2318154702236815 -0.22870585696224596 0.589605314068209 0.7844702318272403 0.5039273987396347 -0.3035461996404547 -0.5650674450032354 -0.40601539134214887 0.08306413901638217 0.2498006166041795 0.39592946427699044 -0.3282277769342372 
-0.4804420373438003 -0.7732842226699839 0.9654383939371569 -0.24678006907075054 -0.656553113006194 0.0795948369200538 -0.8853746877653529 0.03719269611205991 -0.3218599232728834 0.4281289188090489 0.0952263800869475 0.28995429546462276 0.5782104909113802 0.6107125794204914 0.224515637060654 0.5550076591062763 -0.6698487461936546 -0.9524349759172035 0.5479733132128781 -0.3497771462555658 -0.601459292094133 0.6043704522016131 -0.20106020117719864 -0.5528857338008945 0.5996028854472188 -0.7416482856284865 -0.9546017271330338 0.5385641414478054 -0.44585995547711915 0.3371756279864886 -0.5027834531551734 0.8250777357243093 0.10703402246961002 0.27326781172119663 -0.48821013357704035 0.40939426937789125 -0.8902632552208988 0.2989194584651021 -0.7742851222516814 -0.09685609528608997 -0.9865910164957892 -0.36319261801460034 -0.417830020675664 0.5737494605778478 0.7845452495538928 0.12449998882408102 -0.9127846628898789 0.8438135516641895 -0.7291733971559984 0.2394772620048533 -0.07377364925791885 -0.9068415460786118 0.2103823066319766 0.44879950476974023 -0.813740066811121 0.5216991985902619 0.270677091566414 
0.7163296424543646 -0.8951876897681448 -0.28899538610984177 0.40286417541293496 -0.1737692887614719 -0.2745640759033733 0.8378081511769557 0.6765600094008983 -0.6344356038738186 0.9772735260080248 -0.7115766299822359 0.011589495015450296 0.8461815123598985 -0.5596008890326178 0.13486380204546428 -0.9176453983405669 -0.9144403764795734 0.6213678567178875 -0.14094889051262327 -0.43100256675070975 0.7062792743732732 -0.6129249118977774 -0.853496632587878 0.44684389068442004 0.7133400623182589 -0.6075431723857712 0.8840731578232652 -0.8670251786876904 -0.9834487162700865 0.2697052892397762 0.45126772431988105 -0.060768493332468976 0.40699405949968437 0.17905697012789656 0.3556864041491501 0.3591703765952166 0.2831848786573351 0.644027784705252 0.8542419884659673 0.2751962790497549 0.4477867378730118 0.778637025491439 0.24235473514540495 0.692929116794634 0.8039331480422486 0.09582497009474251 0.3576274567922668 0.5944375883634564 -0.6397837044249421 -0.6942060729464108 0.873223150202616 0.17961814732850348 0.3537430410592413 0.9952967699620366 0.9031128698995301 0.46476013276934874 0.9100892190907653 
-0.4869430206372536 0.09409332028671691 -0.5802862367053196 0.1736789492640411 -0.2748625085853506 -0.9657359517405365 0.7955176256299556 -0.6880805110582139 -0.08786523266893909 -0.13629734605330857 -0.3317793695916378 0.4387951094175429 -0.8247232331269243 -0.5277181841716243 -0.1758151989709777 -0.5152725773816687 0.0773364847058009 -0.916258421497427 -0.29733305363779894 -0.6993894201194872 0.3093462850805881 -0.5180971793267231 -0.26202167655290276 -0.891373498042727 0.6317112692290827 -0.11753781248444328 -0.00296558037936534 0.8063051706132601 0.2237758249364841 0.26042849211975494 0.3967495854058073 -0.1548691988199526 0.4644920878873864 0.1972634396474895 -0.5276091013836333 0.498837470225105 0.3639213527277527 0.05937771807292578 -0.25036418982025915 0.7459060120905993 0.3458490505318208 0.698567324957934 -0.18260834866775033 0.4897310949939966 -0.6309068273485057 -0.012250462427617742 0.7017136320125262 0.5676998910501343 0.1647863467631958 0.0670188626607553 0.4654844902751156 -0.2382791243512005 -0.7579489018121639 0.48602806221421196 0.31363564556158835 0.47984115087008894 0.4840419807546776 
0.03774881342230452 -0.8550070564969483 0.830235052316806 0.5027208861481371 -0.8662370871005131 0.2624068815801813 0.09361113611540585 0.7818690734491809 -0.7060195701469525 0.594381819595627 0.422796869737615 -0.5138018353658458 -0.19954575412869754 0.7739710166209023 -0.997137783599529 -0.05007645742356103 -0.11317866908939878 -0.022027190753172388 0.02634581605829278 0.9710441899119852 0.5946046642366067 -0.8591456713637586 -0.00810954694123359 -0.6829048962558582 0.44122632083510305 0.13797938406392762 0.12443472943441436 0.6616842944419619 0.19054836989894747 0.714168925231743 0.5716176425986081 0.9231503957960316 0.8795408268613483 0.5610413898144073 0.3569279263142382 0.6691544146178874 -0.0004343587573838227 0.37408417820033424 0.18430945894133444 -0.6100632179494802 0.6309482572178864 0.29596077320624126 -0.1388138056440582 0.32787576783849004 0.06634167837934365 -0.15495975229786788 0.2937639742499977 0.3018595485224372 0.7319941047728642 0.1301461395534247 -0.19985922328817907 -0.8157366583661247 -0.9566290081008214 0.6834124407568497 -0.35868035709006507 0.23590139536960364 0.9113641071388854 
-0.4741399243413773 0.9213203092669546 0.82624736965372 0.08151218195410968 -0.0460243332677963 -0.7979801867790935 -0.5730362161480483 -0.21272110961665047 -0.7742146944805681 0.2782440175280214 -0.22696812233171215 0.49235160178344123 -0.712604932404387 -0.1963286441628919 -0.2852537234391506 0.901301992903264 0.22942533310532753 -0.34726790465031 0.40498342083498495 -0.7542725934882316 -0.7713119372718944 0.1528664219183952 0.38770238938346896 -0.018138794182344358 0.766062667822698 -0.056769630928187986 0.1442157664566841 0.018115802543017402 -0.37766653054769245 0.3826041496479338 -0.5116478652319508 -0.19661430364337085 0.8204617144771775 -0.3263482756155689 -0.09191364174461669 -0.40942956663028046 -0.1988240059008999 0.2561015194173465 0.10623397478648862 0.12017712417348052 -0.14650358693477528 0.9943181988565133 -0.9553726657024431 0.8654429796029137 0.4933651417779302 -0.9719670836092608 0.7651148036169554 -0.7179710840347229 -0.9048949528208776 0.3871943117691603 -0.6951977230885895 -0.49892013258012996 0.7040136079609138 -0.12113114710656966 0.5470019096898611 0.952236555510722 -0.9517381631861526 
-0.2743555062883205 -0.55698700203814 -0.8999170417399351 -0.1939653648044317 -0.07742174051120453 -0.05633768181726627 0.3542805464310915 0.8446655505018409 -0.6316755195790289 -0.31007093676435105 -0.024812199792238143 0.7217658930927613 -0.37850047171960727 -0.7390097164042669 -0.05662826363421233 0.1350456700046598 -0.31436540321409145 0.9876736196762155 0.8825516484021358 0.29337318295787296 -0.7651333066718407 -0.019502423554660784 0.48204938023506966 0.40534711918183175 -0.4505225046935384 -0.9950465095387993 0.7970214151502246 0.8244018542727696 -0.15299739244660157 0.7387499734930457 0.2700760847365687 0.7086412076845273 -0.6775017885665162 0.17416680290273368 0.7106345579373696 0.3973528804751014 -0.17465039357919263 -0.9493746568278787 -0.42352784717502673 -0.08538182189639901 0.21847340504133883 0.5572709607848292 0.5339268737396599 0.08246786007481842 -0.29583234184651996 0.8063931011379806 -0.1175370750645888 0.19210223158809145 -0.8352075467958104 0.6572058851191198 0.6922472679584581 0.07969034829754063 -0.8876245031093942 0.6547701803730535 -0.6084116218109596 0.39828405984132637 0.3029318576443919 
-0.3253498421519654 -0.16339311249142785 -0.788353884620544 0.8977168579236859 0.2740170171531664 0.9872872611295821 -0.9127514552054485 -0.4856919240420076 -0.14386774400693403 0.8341105973707141 0.4999395209592976 -0.28619483603156 -0.11131606517728648 0.1331727873340706 -0.8980047256714668 -0.6000349601404793 -0.8127268942472559 -0.09713499757768318 0.9215161057731536 -0.29000688223551535 -0.7157845895776137 0.22580955995739865 0.32679872865649034 -0.39689581782698496 -0.5312483130930077 -0.0026114104631456136 0.9738425335199161 -0.7870679430328382 -0.3609908358212092 -0.22842731446131959 0.20007467513364846 -0.43539515192134015 -0.4776895863830224 -0.003255761528070833 0.8483430088764918 -0.6278527605975106 0.566071105842226 0.3795300398589538 0.7419533439142559 0.8058832478980472 0.22380579083923346 -0.035429595120916035 -0.1469342882775897 -0.7902606109201749 -0.2644260559707302 0.6319334756979502 0.4716396844554156 -0.16212491524813663 0.806559018617012 0.04729671495421739 0.29827975675447616 0.1921592818499072 -0.372251903780044 -0.20977980230456827 0.7958784783416297 -0.9314720731056948 0.762358035880292 
0.7332280656129282 0.183030509604039 -0.8343671335840666 -0.5102321237783529 0.3914925992151048 -0.657599131433096 0.4437750297063903 -0.691017580333958 -0.7215742771810354 -0.9676089338175011 0.9989229070895893 -0.4514348081758311 -0.13841450261276564 -0.7521535203168057 0.2893650533468461 -0.026155432903346935 0.25757287440025367 0.9155763726965507 -0.7754339678225068 -0.7633051089785982 -0.4477587073223114 0.7582834249938769 0.7281765322597552 0.1765059844020568 0.8978623312164682 0.7262969458918744 -0.6039799402879351 0.682660164487617 0.13995365810588123 -0.6771800812755462 0.9863464179031257 -0.9657082984304823 0.5196936146930449 0.37087727810692517 -0.4425416245477418 -0.17718697247149484 -0.14717490972283342 0.3278653993425514 -0.4650996542430009 0.38111182367016805 0.436790257343759 -0.4401579342101889 -0.10359441096136202 0.25929356643849943 -0.9740377446729346 -0.22066766684645878 0.42923987743163056 0.3222865332817776 0.5393167596989192 0.15790935749466017 -0.6408059208679724 0.8977051786379858 0.3815571687732012 0.2763522751023933 0.2866907073748181 -0.9886464190338211 -0.16571982852167133 
-0.07778639791566588 0.7765784508826492 -0.025420231192712972 0.6259843655457217 -0.7371668393590527 0.7749010029326333 -0.521233117731518 -0.4438620234719029 -0.34481155145244125 0.6941624509600202 0.201043285231993 -0.8088142839036573 -0.5235610333447882 0.5931523248823636 -0.5368094492367523 -0.8438967123902613 0.3959550320358185 0.2574032965216113 -0.5622689805440144 0.39735636304551153 0.9073295591110566 -0.5016440554578822 -0.28962713247848804 -0.21806432287207717 0.9428769227214697 0.7321393364272166 -0.7481207436977559 -0.726693919616772 -0.3755682365882282 0.3363768159055778 -0.318341004517969 0.20371016107438455 -0.5009353264951539 -0.03276177006874037 0.6134564459646226 0.46046750347777954 -0.7005416591466556 0.5808188071215051 -0.07795290955829581 -0.6195842214368814 -0.9376283317246472 0.3864615141398966 -0.2815227407315666 -0.05035882105171515 0.8438005559865126 -0.2927039869091104 0.05907937499240719 0.4887435901803975 0.27110211777506654 0.5512986893131679 0.15273665324562802 0.6585980095205928 0.14722749537345217 0.937054653671367 -0.9064285371478016 -0.357645596321867 -0.6569572189100629 
0.586820794949654 0.7770631488416961 0.6064861341291294 0.8447143688073047 0.7551130381000042 0.07293267852182486 0.7044687573416389 -0.0973123285990699 -0.43547904935472026 -0.1642929186542843 -0.23586883778741075 -0.8369213644191592 -0.5932862100257577 -0.07211993799689695 0.5503200165180218 0.8636139967873316 0.6764972446677062 -0.27555686630412657 0.9682704180784543 -0.05070604593243306 -0.8564132065071596 0.017959763129631 0.9683126731428766 -0.4744704490638589 0.27342541386769126 -0.5253626585209874 0.7096566130844522 0.20798065384547393 -0.8072980443329847 0.37723152858571873 0.5060996702433651 -0.8474398761139025 0.9401907571536152 -0.29291299725816367 0.5727582403104678 -0.8352098597001159 0.5592954918391609 0.7274374855854496 -0.39352641723305637 -0.21511898045249445 -0.14183455500198305 -0.6971187959602141 -0.30246631705339566 0.14734415576332077 -0.9669847994163226 0.833759815589902 0.6323739408160309 0.2575932704360056 -0.5153269023804199 -0.6081532955177524 -0.30569736093281885 -0.5300553673449157 -0.8913704583928734 -0.5877908665263869 0.4218076024406115 -0.2427859207455287 -0.43285350078511325 
0.11421242941895615 0.2612354851731067 -0.1683944127408128 -0.01206360899739671 0.6459001689804389 -0.007983181214175945 -0.38782186524734075 -0.7641799221242098 0.3141092291472305 0.8401330493843904 0.6203465104413504 0.47593200637369115 -0.6503196264799046 0.6796147530249965 0.4049173680641624 -0.2968189885056205 -0.1285295692047912 0.8777623008431328 -0.037072967946645496 -0.37726384807628244 -0.6220400712989433 -0.022235420083718583 -0.7029799403160963 0.803908635931653 0.8041725525304055 -0.4957805965879696 0.5113095940904397 0.24852616672202782 0.1311820130517576 0.31031030506958074 0.7291526480881451 -0.5699997286299806 -0.5131950287002829 0.30944684082857554 0.9318925185751257 -0.8838417200468554 -0.8515579688392759 -0.48013778359624226 0.9521609673238925 -0.7385217135276984 0.45706197260502024 0.9329983973385869 0.5037776851893712 0.9363342056273786 -0.885752967687947 -0.21939023663748486 0.7814601858089042 0.2008823031094053 -0.718270826058699 0.5180077599999022 0.21160868286228807 -0.4095398585480151 -0.3241730673036112 0.8054968573961748 -0.47093690810649597 -0.7360149953026267 0.879706570956272 
-0.47190726120642945 -0.4019522011513432 0.4895388100751621 0.7053378782933609 -0.5797495394725392 0.4832720754299983 0.46773657734153745 -0.5477726343118281 0.669186690825553 0.8427190080861207 0.8158208270501179 -0.07731630819308831 0.7827375173897024 0.1642557409239442 -0.6675412093961948 0.6015314727918221 0.5858568744165487 -0.9501210649710716 -0.6225939878786522 -0.0918720455438365 0.054185320886722704 0.3207533076822912 -0.6586733582568222 0.695102437535187 -0.2058513456045481 0.18653400772553907 0.5567675198270854 0.9492416651565166 0.43091864060274054 -0.3156728739775959 -0.3474957403599605 0.9749439710651808 0.20891849194234324 0.9075542412800306 0.6617090183033185 -0.9707003250781091 -0.5945820929097689 -0.9619128203236577 -0.432743616466007 -0.16835916759779443 -0.42072288218558374 0.9877927300245775 0.4667760484645216 0.509543511226944 -0.655328192563224 -0.6219208673585298 0.39027912771754497 -0.8443935796221982 -0.08893303259027907 -0.07841438717216276 -0.1614159826914714 0.24454969009702424 -0.8678378835985421 -0.11640375643190556 0.9215158333317618 -0.2752027521545734 0.026325560484316845 
0.01633518793913824 -0.9369674268155108 -0.6470569709944458 0.5482460675318076 -0.6906006956967552 0.19103111192789696 -0.9097634532112223 -0.4061174437525357 0.7869692824207126 0.48459363726162663 0.6252249342727716 -0.5837486653343577 -0.364410326382536 0.26364096903387807 -0.8241194270155134 0.959769814057269 -0.2120618090662827 -0.30198138233701055 0.6737764488521067 -0.08312772841108133 0.2287049776104959 -0.43903332400822337 -0.5953056238162393 -0.11673535919641456 -0.7882454207916105 -0.8269232365163033 -0.18833122425665172 0.10110582184259914 -0.8162758848883843 -0.5434102212946649 -0.8554884701540291 -0.9384390564088302 0.8677763049031193 -0.3281397721754751 0.6542183365877223 0.22740904270549261 0.04063569168764687 -0.28899238694046514 0.9394839211929096 -0.17820017302942895 -0.894630892779291 0.4112116237430725 0.0770387952510283 0.4406288764885757 -0.4093986879419767 0.23395388427508 0.5275762682116194 0.4884536507474785 -0.5060255478877782 -0.8597555817171982 -0.42460889840679994 0.48221628917899406 -0.13494856223079657 -0.9499016840771843 0.520241706831713 -0.7449008163696151 0.23598527540587041 
0.6203495776345591 -0.7471053960701899 0.6314755672911085 -0.9863270345258421 -0.1895719348554912 -0.8808892855135342 -0.38685763788963234 -0.7212313022696608 0.27670914350581755 -0.14058584521921058 0.12913716961295751 -0.19260424167379256 -0.7330773104202652 -0.8722623664527213 0.16491708513816564 0.33953396031931266 -0.40419121767287236 -0.295686177839239 -0.32272701029498774 0.5489151880722252 -0.5570146093399593 -0.016295809486383993 -0.41070955644913004 0.005150361491342643 -0.870282845164069 -0.8731564701580272 -0.37890527736935 0.8249387399840046 0.8046194166905203 0.9018308746510317 -0.547492797694745 0.8091463679774555 -0.510836743534882 -0.603311059338093 0.8114944799929003 -0.8558072526876219 0.5093959958968753 -0.4267399310971831 -0.1128461805520726 -0.8233772238906283 0.16468786536755808 0.5559756290266207 -0.7354577627650456 0.6266030854404976 -0.6426862574157622 -0.07438833978738686 0.18011341009071546 0.5118986341785395 0.503921834065858 0.17544899341825593 -0.0991600493192133 -0.762764449480487 -0.1733545523047379 -0.675371087802281 -0.9212076457287184 0.18123794358865106 0.1073315101959669 
-0.9058535196701416 -0.893178119376149 -0.7805040797713061 0.034912140760903355 -0.5320309947354617 -0.7646230290487634 0.30303633217779746 0.3450353576091067 0.29435443304751074 0.39791845548749505 -0.842010762333276 0.6159457762839646 -0.14852879028661925 -0.33088157427700027 0.3341403160618435 -0.6900774769983413 -0.812033312727668 -0.6441940525647316 -0.14816246409238798 -0.2297990353909511 -0.37719297610754937 0.041261861922701995 0.2513479538968986 0.3059558627799476 -0.1761021644394145 0.25876268377377176 0.45871312661692754 -0.5283938270403759 -0.6848688473918603 -0.14007559181216364 -0.3586124925030768 -0.7819429212299579 0.11899002740947728 -0.562735220127673 0.3804290329908804 -0.29567284861719906 0.9490355603609897 0.33772277127582834 0.11384009115604522 -0.3110972159539498 -0.15751942656274087 -0.389725166749316 0.8414487698533133 -0.6760861001061679 -0.46344918334857094 0.0994720439383926 0.7103001964553568 0.057859655879873316 0.5943490083270164 -0.028725301658359292 0.27461882732715415 -0.1831444421738518 0.5109388065121476 0.07271363301206683 -0.09777250676435156 0.05756862923247397 0.5947883884937265 
0.8436755631256934 -0.07627109868676474 0.4587093612084714 -0.022104687118691884 -0.7322129050278298 -0.08537521829981311 0.8975332508677875 0.06248962420794095 -0.9593400044499967 0.6869420782178353 0.8204653365582846 -0.18290048801025854 -0.847629980605947 0.6152558469916047 -0.7777720098363152 -0.7904411452145893 -0.4852993557270955 0.40534790634788864 0.3826060970016334 -0.6296016631677182 -0.3986353427929893 0.841588542354124 -0.5983418835433706 -0.5441812129992616 -0.008256080337172289 -0.28392744701678363 -0.06537850923737132 0.9303313151333864 -0.4910690480019552 0.8078751824592901 -0.1752970654570524 0.8408079535972192 0.3930967469895992 -0.0021234394749913843 0.10033017618263251 -0.11604721481677936 0.9989838443915202 -0.9135874618315747 0.7744861454106216 -0.0019881652936050947 -0.2262727464336598 -0.41244148813393 -0.18693733659509615 -0.5277289740196378 -0.4114644035959425 -0.17619335735951477 -0.5086135238198999 0.10841749291557509 0.8305065864114205 0.035952611638958354 0.7139792556285367 -0.33708479035496414 -0.8500327332086042 0.41176505130457686 0.3729248482625908 0.6165774070531366 -0.03246395888561649 
-0.8341697392014886 -0.4429370711318319 -0.1955307015327874 0.7340502442570338 0.32147413808806224 -0.29646852919103733 0.07205200204682224 -0.025928741752658996 0.22559856323812078 0.7936957907593782 -0.5782536574762993 0.6714572155288936 0.01757336016524025 0.33146254445468026 0.7150722422783442 0.04900323264517191 -0.22233469533961991 0.23238167710110935 0.6290062584181044 -0.37378227467136405 0.6250806158132418 -0.6310071322597869 0.98448229773625 -0.9165092755161067 -0.7238073579587594 -0.03228352877822549 0.40205070916988994 -0.9289904122590468 -0.19374614396372705 0.8166388452878439 0.40934840657546706 0.21094513485018188 0.9433133049522129 0.7790807008593927 -0.3251262556752361 0.3542373705990454 0.04772618840395346 0.686477577568697 -0.22956537475443536 0.008174913605107494 -0.270971628335398 -0.396115933628572 0.6585542723540794 0.11705829752272215 -0.91132368905543 0.3445053947326415 -0.44280256528302026 0.760983607559864 -0.5938499555031727 -0.0009691759956862445 0.1744619575209363 0.8428085632447528 0.5823731263628686 0.39427682084282545 -0.33830300449273426 0.31711404239066576 0.7477524230095831 
-0.1369565909058037 -0.6836837554744124 -0.5454951893515696 -0.5190440844344815 0.9981930124822566 0.9372459282811184 -0.22206744764228312 -0.629375392872601 0.23894478171721456 0.8659382405701266 -0.7838346042099762 0.9294334099722402 -0.08986862317809637 -0.46153404893676503 -0.6442775393857376 0.3470689988201473 0.44115975654996653 -0.4589850389460892 0.700609384088096 -0.742141973899106 0.7970522718900185 -0.2488035064391719 -0.7508296783763709 0.5494651280103171 -0.839141930507175 -0.9744654432956699 -0.8968059932295456 -0.592957222819089 -0.26468502461245846 -0.4585807273466229 -0.5469979545509406 -0.8157998447600595 0.1089850055231063 0.958750793712627 0.7878701064058029 0.1894466914752162 0.9088239371366456 0.052648224325515684 -0.19901583254602878 0.42168661191025975 0.027424961439159956 0.781835899227854 -0.6005417873884507 -0.45239076077867113 -0.7430370169689291 0.9526979535985718 -0.39311029492118466 -0.6968759390453776 -0.053536387693845944 0.7219121993864925 0.960114437055634 -0.3980195226668676 -0.4229226118132271 -0.7153987062235725 -0.7336592395470816 -0.08066632212299482 -0.0003060280849409545 
-0.7968993131507882 -0.748366804441801 0.6157753237185242 -0.571836810801209 -0.38739913926820985 -0.3760144322118357 0.9321032962714051 0.9868341698713735 0.7006681563739536 -0.38139147348279545 0.251853130735044 0.14910042199289567 0.0017337590638529699 -0.492852520650153 -0.31601627379767755 -0.3731456262944589 0.6373853250544135 -0.8355789364812514 0.17160340536261898 0.2488397915006589 0.05544425351823444 0.9706165003514461 -0.6258258704227879 -0.9229618859723387 0.7238391634724637 -0.6521161524218408 -0.17501754119102952 -0.5195534724118483 -0.7283189542909673 -0.736982333972427 0.838044541792491 -0.30811859652743473 0.7360082787466802 -0.4891990080827502 -0.2393677032720638 0.4717682928055286 -0.8545834312414373 -0.7094863491016133 0.41489999869876404 -0.08986362149624288 -0.5333903230210775 -0.451281286257873 -0.7490585215795835 -0.7472516468416153 -0.46190830381216036 0.9120109736879206 -0.7760597507287952 -0.11082689593391255 -0.7704732937342682 -0.7936933850344163 0.894185217798638 0.08654556719810286 -0.9765595236966045 -0.8977628853633197 -0.1599742191010236 0.3532686144370235 -0.44797478684085024 
0.7748146032140046 -0.10201862550587355 -0.098326732493677 -0.3443097758389227 0.4434439396599629 -0.8209403877903445 0.5675551628527189 -0.2751195511035011 -0.42348228938520877 -0.8256577591272861 -0.5037735822718079 0.4163741341076821 -0.10620848356016781 0.1610393092822237 0.27801948589979564 0.577591565650214 -0.1387267879240712 0.37071006486013125 0.48650731624612986 0.5329292189510562 0.36524346742050806 -0.42091845067426675 0.0397217114340866 -0.5648756003186185 0.491241008899029 -0.12140944177094051 0.48179313504586324 0.6071222023662451 0.6371969348906024 0.19566782023937065 -0.9695838668934622 0.6748410920519672 0.24029887454072513 -0.6112663956620162 0.752868846658431 0.8672724019405204 0.570331202022142 0.38063776621243295 -0.2855254436585881 0.34084076614981673 -0.712405596865556 0.4549029815789851 -0.35008704495656506 0.44921806438405637 -0.34298029418862086 -0.9426318267383931 -0.2714014117009138 0.12650368997825848 0.9121500762362589 0.2900582721815552 -0.594754024941483 -0.9710325172486637 -0.4084115380049136 -0.7458257848129207 -0.013080657666983964 -0.3191864798477107 -0.6436626041100085 
0.873161035115313 -0.18633407704988628 0.19989842066863034 -0.44094085650357323 -0.8138664940589958 -0.3662892338771999 -0.4160230704632967 0.11852502998487406 0.20264190256270653 -0.2572022239609883 0.3896412832671642 -0.9278021193415941 -0.8796447248811823 -0.4080531695884671 -0.6896185320941749 -0.2949103383791862 -0.2715505369651878 -0.8909106957968608 -0.9010273639287448 0.4233400509670866 -0.43155543087212933 -0.7923409095516556 -0.998337070123952 -0.18642184654589294 0.2510348250869747 0.08788681667004057 0.47433957274263294 -0.021224582827942956 -0.5423789608699747 0.40549006606537313 0.30155891255771805 0.061742275269303815 -0.4188164989070463 0.38605891975980766 0.33977102962655137 -0.6099277877683059 -0.7048978658084146 -0.5510582093117089 -0.5209594575319157 0.46244403974791876 0.7624070911664805 0.4344399506886001 0.3039988877972691 -0.7258922140823397 0.8023026596894547 0.6979372447832823 -0.1604581635026217 -0.14160348445558063 0.048767569430706814 0.38507519173672733 0.3746709761730706 0.5147544248819983 -0.24065507076854206 -0.9727169174483897 -0.8350087474837233 0.5776088898310799 -0.461985076048527 
-0.024457309533108724 0.8051295151391299 -0.3759234749715289 0.3666365230448236 0.9949713995917141 0.6555930906989902 0.25137442781866787 -0.08832786140932829 0.8154124083109798 0.2994608884629441 -0.41148136252498485 -0.6529800913355409 0.1374591342774694 0.17236963371760353 0.9392295227036344 -0.2872698412033928 0.2805954723228143 -0.2245004327411798 -0.4837493733859109 -0.8401981021370797 -0.9443609188469388 -0.6411354131320318 -0.8683756200253311 0.7250886623105975 0.23913569224418943 -0.39127256617936346 0.8195393909892129 -0.8246220296849703 -0.6688942708934013 -0.6205512019754331 -0.3611191957532573 -0.16922303035237884 -0.4231450115874719 -0.4777875641704829 -0.7985088896088547 -0.7361213581365679 0.14306382755014013 -0.8546547558710378 -0.48364502710880153 0.7151878002555186 -0.9315126548692325 -0.9360966849687326 0.35118736071990164 -0.6262053369055053 0.15590482969357625 0.5200725840180902 0.011917095437525933 -0.3254230514001061 -0.08105600544776904 -0.25428498946152983 -0.053578410692716134 0.8392283415831133 0.7045093710381715 0.36046379921817534 -0.5011238451263391 -0.1513177881247312 0.8141141164546359 
0.0051730089552178464 0.6134962480332561 0.9050782075581185 0.7669753022101702 -0.01597872568626726 -0.37223117142812023 0.5726043873462445 0.756150273749927 -0.03720497579647992 -0.6354604213845853 0.4231974865334512 -0.029044035288776485 0.5284119098983228 -0.6349832655934383 0.4175366409689746 -0.926275963339531 0.15355033969928664 -0.18288588985454082 -0.5271491565876917 0.6278974468143972 -0.3157490282061952 0.2238704228121097 0.6761173067065629 -0.044943964578109764 0.02943648551571036 0.8917483649249347 0.6673335518330598 0.04157273399983866 -0.4741084320647162 -0.7068660745950365 -0.3104047479088673 0.05573674743207067 0.4344403568441931 -0.65972861274514 0.437828607446686 0.6811930190298898 0.4440237005987072 -0.4268563344646526 -0.3678311513744276 -0.8011194133954559 0.9233074978945225 -0.2787778785262686 0.07606234701671918 0.1879920714761657 0.44773899114013277 -0.5071131831574239 0.636180842335199 -0.9487626617168732 -0.6393023755222573 0.0003148903569847474 -0.9553789079876149 -0.36122822535912097 -0.13607292477631802 -0.3824245089808523 -0.3812535344329066 0.8823289308754194 0.7805648075294124 
-0.7282421238854967 -0.6849585311112767 -0.5994370039761017 -0.7181416107312394 -0.9942405177556903 0.7903052256692387 0.7045410857374123 0.708539627518689 0.2576582919653905 0.6671942868104164 0.4852950874819391 -0.461180332144314 -0.3651069281941825 0.4727615263759129 -0.40798016578464275 -0.364761769273952 -0.17231073918742548 -0.2012082878819349 -0.8898961720403493 -0.3977262904606814 -0.09669985170472988 -0.15296690169575577 -0.11085891534998632 0.7675455822034605 0.808314250486564 -0.6468205425949277 -0.09040289793397958 0.6066481290761189 -0.8260784847736776 0.39775704526392375 0.17228897628934617 0.469985951343538 0.6209484398296593 0.057579914574206956 0.5828335728140538 -0.7017336164757332 -0.18966527054337606 0.673497677004061 -0.9302378306050345 -0.4280363905800616 -0.09271735052733646 0.36869336492358074 0.6492207952843088 0.9820838391077684 0.9480705673447494 -0.9816363638207846 -0.1813377460666164 0.5808660219932258 0.24933465762098656 -0.4799668173822511 0.5668623892557172 0.13736416259638903 0.7274753834571557 -0.800773287691051 -0.4435919890669509 0.6692553742140013 0.982561666614993 
-0.9210868542351888 0.4834695462039875 -0.9664370730989185 -0.3544350808778069 -0.6208714986022417 0.6747756679936874 0.4670143242332127 0.39901627686667734 -0.31786967975540187 -0.5533160579456508 -0.8443141750731302 -0.744929842310254 0.5047261107333627 -0.7819590167466749 -0.3981036864016675 0.07504598257983315 -0.00452260941978727 0.6730519518159571 -0.20966717597340603 -0.6048638260622788 0.5205249447455251 -0.4145735975898607 0.6736846701873851 -0.4195836306907046 0.97318393153283 0.6243341470204158 -0.27640310820673997 -0.04965099975140822 -0.839246758803791 -0.6692724524596296 0.14548078358843072 -0.2307538138779516 -0.6019457017498948 -0.07188338534733354 -0.5733837769042293 0.30215940311165346 -0.3174069491390251 -0.4251363193622226 0.09430142073163349 -0.32063477074222885 0.00741922584581489 -0.6114806586156242 0.594216330142847 0.28017415585025207 0.4978160611932232 0.38810333955506976 0.1598859812002137 0.8382705281155604 0.7918603847979578 -0.4118374782903522 0.9461305330281734 -0.06747097546446314 0.6163795489452205 -0.6127731413005991 -0.27927930259156153 -0.539572820643153 -0.0019148684317198197 
0.7661028054022346 0.4196807233458584 -0.8736436735445435 0.7946042475405943 -0.05732295500401348 -0.11147972303522477 0.13072890143581206 -0.6247048073878263 0.9200733817789825 -0.9862947236955347 -0.5749408405263957 0.5351549019499128 -0.5169174466220896 0.046688030929405336 -0.546719939260539 0.13961973683079967 -0.5721133917264731 -0.2702035414120533 0.5945072993429317 -0.6895950028284941 0.734715857125463 -0.1851196511838684 -0.9599675765948515 -0.4217853288010358 0.32669194023162923 0.8698057192205613 -0.3816150175999516 0.17728854325124546 -0.03593345465058594 -0.4237224198704645 -0.5029841825317293 -0.6584457155141619 -0.850391731452763 0.040023785754617965 0.6679429744447889 -0.9999001808210282 -0.11114344321959796 0.8632672441436965 -0.6555028335484733 -0.37104912328962913 -0.42684021557625607 -0.6616266790059598 0.2919501456175551 0.7020422258087697 -0.5075591550103571 0.7318048814466734 0.7106082718454491 -0.2503046756301963 -0.7953663737087405 -0.7993242039839201 0.47926495194270996 0.3081744656699537 -0.2916937691913238 0.2146898994637202 -0.9499193233571415 0.8053184487180862 0.39608364141260705 
-0.328155412713663 0.7978104594181197 -0.9436162493850532 -0.7440782025772441 -0.13336639631079486 0.6394850026418772 -0.29473236197350283 0.4740512284976762 0.5503193880531818 0.27669336099663766 0.8593837722684721 0.7636638040048137 0.6254264022828753 -0.2827340804555293 0.3545147421394636 -0.9020685498070032 -0.4668336252212809 0.20297149966058192 -0.5324369251686696 -0.8149731528248154 0.8169816823787351 -0.03929803651653212 -0.3892634566977695 -0.6676056831106914 0.7371317261073327 -0.5476804570743107 -0.33284474431488553 -0.04840910911799318 0.0705998668772337 -0.30779689758662926 0.09735117192886662 -0.24180550356693495 0.6282127019305028 -0.6600218357874398 0.32716804003904637 0.09315441937748455 -0.10982378093790664 -0.3464498232067879 -0.2230023222051895 0.7239876930523135 0.14170009950282697 0.7504835627926448 0.97565590893788 0.6709793864863639 0.9856722683049921 0.3532227253345428 -0.4535345018726323 -0.7850067278296947 0.3393809372141954 0.060606042626184284 0.3635419252686007 -0.8358059950562882 -0.4358139204393191 -0.2331338851280841 -0.4040399974721613 0.3333712797499066 0.9529718747021715 
-0.5425183003732568 0.31500777754437215 -0.035110506784550265 0.9103339983291638 -0.933754160206081 -0.7020742371147592 0.014403237460643353 -0.6886184797255966 -0.573744128202622 0.4485825186513979 -0.6275290655537581 -0.5325398586970105 -0.7737122127062869 -0.562625596598963 0.5175920900180965 -0.9404175004374381 -0.18510045941508035 -0.4747436865369777 -0.4639684097832992 -0.03632769094869493 0.9980189750311866 0.3065188500051687 0.3851432043217233 0.4020715392863082 0.4377083475626791 -0.2289379736141315 -0.5819624311696853 -0.7458458597258392 0.7682887440462312 0.6510873802689967 0.317537568362474 0.5793684165587044 0.08792396136940699 0.764946149617294 -0.4086994188585807 0.06267180489595486 -0.9992987816384207 -0.8758552472951718 -0.6466985183041968 -0.018743007005402906 -0.2913729806535904 -0.01675960947050173 -0.6151219680603879 -0.44338618010739916 -0.08944104269782424 -0.5819858223594354 -0.5335181723876792 0.34538086114460653 0.10282301981543189 -0.8250259126899864 -0.24026377196217574 -0.4653345283486011 0.288334561474553 0.5501418220835983 -0.02620271772661934 0.07399852913522242 -0.10388606238782841 
-0.6166489076828843 -0.8701245738713291 -0.3645286872153809 0.24527658144964104 0.9110073332422307 -0.549123387882123 -0.28568230952822926 -0.07772793228911683 -0.11774414942584904 0.8727518272235382 -0.7847136002087145 -0.320876479198862 0.919169783071943 0.7102353595964611 0.12259978344028334 0.3501367475813743 -0.43706857868576066 -0.6588818117719335 -0.36152716651648936 0.7352512949331377 -0.17335417872818085 -0.06590632118663267 -0.5092920724678681 0.41529058888535175 0.3925244721071622 -0.5050322204080067 -0.40758169069085626 -0.539971948859362 -0.05111692763540993 -0.9538896901918177 0.3697537310400051 0.6292016587653358 0.25561969310083843 -0.6481291618917975 -0.5437370844440187 -0.6166590454530015 -0.8710336273568625 0.38601645631871595 -0.31516533147307785 -0.9481633255433288 -0.45406426489519425 -0.9823566113508859 0.6143500198436364 -0.9971355612117182 -0.49826057987734457 -0.9206315200478722 -0.22331219832337396 0.8137365229411145 -0.169777316934842 0.05351592270671423 -0.09257347363515563 0.9490065168597217 -0.7843137468167937 -0.29454956994667064 0.7116729565942347 -0.19504529314008 -0.4892558519442506 
-0.40219273635026703 0.9384391163602924 -0.9162650406890986 -0.09758120656030218 0.49628662784839755 0.13656136499613453 -0.5120184297014791 0.7748154192755886 -0.4527617940924694 0.24396666438387513 -0.5195363571747577 -0.7401986352343555 -0.6182011266137454 -0.7693751943082463 -0.5504057797261152 -0.9306903286961278 -0.17576716428875971 0.6628795318737929 -0.4301837397367416 0.6642451665438643 0.8048305547022903 -0.0025801558147561282 -0.5200079685772838 -0.03489418709189588 0.7278554501639131 0.9135010043121837 -0.5983891209568301 -0.038683755472058795 0.5310937846082013 -0.23262798556512235 -0.27587817513839624 -0.8941666895403366 -0.2234043094744939 -0.7944803246839016 0.3624378019373711 -0.5357904107988937 -0.8463195936717881 -0.443941864738124 0.595746257283039 -0.869718077783986 -0.5498409603861248 -0.9245422100309404 0.5997291092976653 -0.14660861194725147 -0.9855934049798963 0.3280274332023842 0.7104442572214292 -0.0040055301414356195 -0.15898655266074682 -0.7905180759606157 -0.3648804901576958 -0.8628533688614258 0.8154060871038951 -0.49065461135834737 0.31697447059225525 -0.20664654613539593 0.7164869407360165 
-0.5157186907166704 0.21411490492123103 -0.8729422768059462 0.44270597170444714 0.5657159606529821 -0.8705059009731159 -0.09361851837356026 -0.21211275652906164 0.4395810396252771 0.8980976974050143 -0.468943467238912 -0.619655492232193 -0.4348652864663757 0.2978919470905004 -0.7274636592081622 -0.2079980528851846 0.13824882698528576 -0.9222464771590948 -0.1818364721925216 -0.6736112231453695 0.503539248670035 -0.20694280693932296 -0.6219452336120821 -0.7387386256781613 0.7769532275249386 0.39736160216246813 -0.7305912221004361 -0.4043916966552742 0.49368515784590894 0.5545150562745116 -0.020282742040644668 0.2118407049263415 0.03988765239076888 0.8877061800498255 0.6707264354195076 -0.22910859214600987 0.012271071234384022 0.007876926162600066 -0.5794360608338862 -0.41373740250894175 0.7652490426817552 0.4406244473977089 0.7291432549870283 -0.25598516964233975 0.2653067505807414 0.46178444022401377 0.28415354447261926 -0.549069644406718 -0.8198471345144495 -0.6535346324633521 0.5882346623151221 0.8687317028192831 0.6443827698216705 -0.8465901994555969 -0.6417162934870418 0.6131707887457868 -0.8413289620983438 
0.4500981052516668 -0.5427696815666442 0.5333321605506912 0.19085697456235579 -0.9038176290042166 0.008340352046455342 -0.4744756569093422 -0.12285692961958303 0.028002277359595457 -0.10501590182940405 -0.7169031992638654 -0.1970545320425608 -0.33522602107235433 0.5275466616572502 -0.23034011933590307 0.4071674755345657 -0.5647695718301566 0.17257706670487727 -0.1500948515825862 0.6558547157138928 -0.6091921972704458 0.4002590903691784 -0.6855696086171141 -0.7366268271736086 0.03442351826212834 -0.662660914723837 -0.4237377114520529 -0.48072079550034735 0.12690352974250654 0.5673540424459781 -0.461368464040711 -0.16249367598848322 -0.11497091376084904 0.3751598073476893 0.16197997264898373 0.4075208229349556 -0.9516473682837825 -0.31255993525528586 0.855505494288867 0.485525619774963 0.2963351709420223 0.8336956157112747 -0.14895280543819173 0.17172141671556052 -0.93086644784257 -0.04688935851364522 -0.6965441583930664 0.09664836719571622 0.2284185904019714 -0.7091141850482463 -0.4937072499105442 0.4839686171352169 0.07382561408194176 -0.960574643002889 -0.4364603468126156 0.7703825514626685 0.08450356991451707 
-0.028623018837887006 -0.8457401011472041 -0.11874760546434318 -0.9712631166801395 -0.4492443116318875 0.1294098179801726 -0.46175289108922046 -0.5684867343013245 0.26782214382942027 0.14055692991985982 0.1957685920447456 -0.21536437075677092 -0.12463407787808867 0.8014494972063122 0.43570307296443755 -0.08242077493816187 0.46805935383472963 0.9997448913494605 -0.8085522403525794 0.3449312612000244 0.5288170714717276 -0.851876891175915 0.041612569103468715 -0.9836945114225262 -0.06941438309930659 -0.43840873243317396 0.294869766468554 0.0938044309349468 0.25790047821422746 0.6411272934039752 0.04143609184141537 -0.9576598649985201 0.6607970191299399 -0.4473052079518862 -0.16090056151280538 -0.1641096350422627 0.5748803028031387 0.14469024724345983 -0.3400489341801535 0.4632998285504878 -0.8976510409905253 0.12688497593749248 0.3062043247789268 -0.536640704463812 0.8970179479943929 0.6548854002217965 0.4616556857285077 -0.4604335715973196 0.7623411782186856 0.11963942739497137 -0.06044122851931425 0.6764407512798261 0.5200778326824738 0.3603881446189717 -0.24090308239933217 -0.696569877576265 -0.6728376945290402 
-0.14715761367876332 -0.8815138733174723 0.22266538077939493 -0.053280485075635105 -0.9131893429271867 -0.8107182607481922 -0.8127762471759361 -0.1638883117150451 -0.394904896046159 0.864345584460798 0.8895833897838806 -0.336597443664415 0.05186768475618996 0.01158012791937098 0.040982862975866036 -0.41598075664282463 0.9684807309452075 0.5771283064982903 -0.7632402812875114 0.8794053879130547 0.1479487795246943 0.400516001500149 0.9477568841186205 -0.7010630666744013 0.36470588771417406 0.37335734659662395 -0.4659573708081369 -0.7358195427780586 -0.3495531315301793 0.3395194541935666 0.9815901565356122 -0.5040191736137826 -0.49625506966912414 -0.43175985321642846 0.9669130419903414 0.9964349884402391 0.48720707293619725 -0.18805653558806507 0.40870187430731114 -0.2536296716626524 0.16981865699678195 -0.4686297743349816 0.04479446200505123 -0.06113258162711946 -0.6451691411455157 0.1331833184291747 -0.604415356040321 0.8426645085590752 0.7638190876081823 -0.5414206986746061 0.3452972254499361 0.5012209370653579 -0.7136409926155941 0.8807093235183595 0.3342634480872811 0.49618409769829136 -0.18859047855451702 
-0.2394437909001586 0.7140992922271866 0.6628982412105289 -0.10665935154629325 -0.9724594870663272 -0.12809729360103614 -0.2435602203257136 -0.8657872474445361 0.4048557454963959 0.6091045963630142 -0.31356201714982906 0.3800272422760031 0.5625323005218651 -0.6965714850257047 0.1410752177105451 -0.5941251266654364 -0.8755439505551798 0.437253870388162 -0.5039388639990442 0.6407435653711054 -0.6435686244124095 -0.04966601106315021 -0.7044483690647817 -0.8153757887189216 0.9488057556585084 0.09811489996169055 0.16297896147251173 -0.548608740745703 -0.5506728097686513 -0.11189829945258507 0.3439645671379559 -0.5413257625385511 -0.23139364921786362 0.6823307327691132 0.13497620446935632 -0.33396292818362144 -0.26127661755908077 -0.5058363471216197 -0.10348384155568187 -0.6508181444482198 -0.09130209838146777 -0.7495300568389573 0.031460061779384624 -0.4829461183948585 0.1819396349913496 -0.8726787149938824 -0.3203219694856246 0.1848482522513945 0.7049907226959481 -0.4169908820562956 0.5608621658974479 -0.21412033334918365 0.974909085938799 0.8610102181931832 0.3193710293796361 -0.916749603653328 0.46750483477019983 
0.8534847172573032 0.493697439289606 -0.14224416673534696 -0.10585776849025551 -0.923217011390843 -0.3566180743495566 0.02007051318884697 -0.43476754331295553 -0.05621748543334178 0.22381190419105984 -0.6940625515762967 0.025971146406155114 -0.72777815777214 0.20877575532068673 -0.26164345247385723 -0.3032805485030524 0.47114669957152594 
0.4394761101350819 0.26419674785267744 -0.5526277176664077 0.7330038809897726 -0.13613938107003073 0.12397521534460965 0.9757095377315752 -0.010383125949934383 0.3161864264927797 0.7645858417691698 -0.3320124299193935 0.13433538839286324 -0.9649279850963611 -0.537080525419533 -0.7953002587808815 0.98325394257909 -0.029611532682586067 
-0.10443344614420424 -0.5305457203778253 0.3311930680132568 -0.3304954872623308 0.1036762629462719 0.8041431688281158 -0.9254197075472762 0.49417858672827175 -0.7614281472658715 0.8934204862099521 -0.23526726404408388 0.4142372311582489 -0.22727418446734365 0.36309279119691346 -0.7831413694393615 -0.2572164459438689 -0.8582006113360314 
-0.3634115823413501 0.0415214874963172 -0.7138007161770223 0.6542220958432939 -0.27190034690929415 -0.9030830805286508 -0.5399588662560959 -0.7976478522220443 -0.5587386316557016 0.5631125111069915 -0.5546709100961063 -0.6492145944764647 0.04882443604000549 0.33506261699867074 0.6937392794138846 -0.3652448535931373 -0.8713920513651601 
-0.7113491843377677 -0.3629979048877582 0.4271037189492254 0.6059885855587459 -0.9456997502291722 -0.3801496369994289 -0.11934620117234734 -0.9743761233430482 0.05075502982194324 0.015735763974202597 -0.8808831466665715 -0.6288607455859161 0.10951094674438115 0.5160411696117065 -0.8324491631926739 -0.9260621532444338 0.8403368297546415 
-0.33360431467306834 -0.6899499678604063 0.30001739529330984 -0.39320533023306314 -0.5243037777140189 -0.1150121936766926 -0.3871934309755824 -0.6787620353963264 0.7212415950547651 0.4171485015253828 -0.9043321345413214 0.9527920152416564 -0.9684172690564583 -0.22111579533989112 -0.1548063034660933 -0.2609650682227202 -0.9356616978956114 
-0.13542584985452832 -0.9048022656225521 0.5823310400102683 -0.7123170149590828 0.018805187881451624 0.4923128814010367 -0.6426199008466285 0.6161289733468854 0.6033080692200106 0.7892336258679239 0.0737564550227067 0.09664855352393843 0.4274100661627709 0.961486903711899 0.45081796917441147 -0.8194545465160732 -0.5187654389717604 
0.014753569646360418 0.33088617661643077 -0.3524609038250768 -0.5789293675333298 0.23873697482748826 -0.1701552227928862 0.5737960820752036 0.22146334680437965 0.03592438917279732 -0.8493021517062951 0.978854792403336 -0.6938902180781557 0.19622253496837735 0.5978159129718436 0.38141597942218414 0.21307223727519878 0.4660802938122388 
-0.965085280654248 -0.34018522964283715 -0.4213902780545449 0.8589034733888995 -0.6921272130225881 0.9444179015851153 0.88342963529919 -0.07877411631806733 -0.49839521522213975 
0.45171055237593766 0.6891500341032812 0.46455386220751815 0.8665734791083068 -0.7510010268062074 0.7768720433714811 -0.5991512840667881 0.9042604093008981 -0.7744510607263978 
-0.7293830711834016 0.1926346061812329 0.4931813716037746 0.041592141342817496 0.021162150971277615 -0.1817581437217703 -0.1500023292331909 -0.48796906262909967 -0.6118625135151097 
-0.5015016626085311 0.7615769873210523 0.82513456699219 -0.8767871448736689 -0.8391529950218646 -0.9891413538038644 0.8334266155137418 0.022154353077238204 -0.2117181650483934 
0.32090544339694715 0.9780462402631629 -0.3247879692012692 0.009738913087363011 0.21264250330918094 
-0.6221497592918727 -0.33061708479749774 0.8126409689301153 0.49272017053835243 -0.12770544317759228 
-0.14963684118507567 -0.01792033442792259 0.6155611997579692 
-0.7822164494699999 -0.6792451085258024 0.8833296052209598 
0.023342797487777473 0.9143739075383749 -0.15104703349857063 
0.6356997110360686 0.9174689561151617 -0.9274974668332504 
-0.34150229862514614 -0.17139317975802168 0.7939830545558235 -0.33564221290429236 0.9588966145409351 
-0.11870838759455586 -0.6482253337713622 0.5390302182996711 -0.21696563039446756 0.46754417685754934 
0.561441115156905 -0.6111103800364782 -0.1671358713104298 -0.20136529654468477 -0.0893844653994815 
0.10506255574316208 0.08873074567187603 -0.6053855475055631 -0.8997508100203959 0.15956423693437555 
-0.9720693163387853 0.5970131220148014 0.7052269809209538 0.9530886641267928 -0.0684536344457826 
-0.164452661261148 -0.26455718374824067 0.7622046476888579 0.09037868644918266 0.7764550787302518 
0.4008021523320355 0.06630858133397995 -0.8167861429267456 -0.11440658634661703 0.6871332870308428 
0.5598579487428176 -0.2844284160407006 0.20958199896355414 0.8667525441957483 -0.3327322215885008 
-0.8947050855401971 -0.5385199521119184 0.38022252261825584 -0.04347171193392024 0.8010184845502542 -0.29996183436080276 -0.7067788716228685 0.3039397398995208 0.26102476616900755 
-0.2807707447184506 -0.04246471733531904 0.32459686388517084 -0.8446658912979421 0.5154715406057517 -0.08608387251643113 0.5475854953333661 -0.7708091931657876 -0.09583575200644649 
-0.2653486786522058 -0.7520668268606379 0.3419411571865084 0.076872614275548 0.8578619470258763 0.09486333674042781 0.3166374594381985 0.9776891636967708 0.07237371889188186 
-1.0150421140230164 -0.3028830997400694 0.44652876579336004 0.9190461153409637 0.16539664358409495 0.6630514672544003 0.4811005107575323 0.8671022100292789 0.2842980495521361 
-0.15184125259272874 0.0995574069543313 -0.24236887709104912 -0.16477681070884 -0.06994447255149588 0.7242372161288655 0.6961685975397433 0.3666281208976651 0.8496539982619975 
-0.04617805284549836 -0.49278720818158184 0.9444253807929576 0.05222034122008856 0.10806585126430693 -0.2729556051988082 0.271385217845209 0.0006638233302178008 0.6638775496502656 
-0.6736971973646906 -0.9488934826186162 0.048299335911438146 0.07044173673464237 -0.8275174940677182 0.45908526293808416 -0.5024483849037533 0.5471373593592344 0.6990323555145695 
0.2958306373532078 -0.9116328945256736 -0.6035001144748295 -0.35200421602189597 0.6590744051246464 0.38612414667020667 -0.14237389456698976 -0.1621779179325514 -0.11650874959011512 
-0.13551066230482 -0.9687465027184244 0.6698944066535983 -0.1804319787358043 0.0059227259458295885 0.5322674440265055 -0.9302367874016073 0.11420869922320645 -0.9886482622967488 
0.2979240143899393 0.07817276048732869 0.2931898313562552 0.07696053789677611 0.43642783139499536 0.7928893164373354 -0.4366197397395245 -0.42926759773378326 -0.7219836856701337 
-0.4404254596136695 -0.8534270967169489 -0.35561884292460144 0.7651650326398387 0.010409849215847594 0.7000655676127288 -0.25223122798079123 -0.05824950288433573 -0.7879839384093633 
-1.0029829496634723 0.4288813514871187 -0.32632964995032115 -0.40098264985291826 -0.07064992138343622 -0.3412711370355579 -0.24271995678659544 0.06827957189818824 0.3889003035527027 
-1.0525777137094119 -0.8418919744412547 0.3701931542803415 0.539511331794644 0.9069249124531535 0.30779090458832103 0.8824751113566187 -0.6474492498595235 0.6850233769504767 
-0.6831638241597867 -0.6960999758228802 0.9872601418378487 -0.8049119841495215 0.47780886390222216 0.3721832473053218 0.2936279387463442 -0.044202466700267465 0.010273945711527833 
-0.4594615385519591 0.8744941685949238 0.47904379807262104 -0.6063311466266107 0.5043193309304315 -0.28496306670407046 -0.5333459424202268 0.1627920669270933 -0.7532238530200153 
-0.32782535723275397 0.9630850925630197 0.983444279963401 0.2368174376795225 -0.49768328378093707 0.04932057990246154 -0.410082201392537 -0.8809681188576453 -0.9406820591341701 
0.4634036207593206 0.21782194465799123 -1.1502420020758608 0.692894665788581 0.11259305107581578 0.21231416832642613 0.032474931277616845 -0.18906087915404093 0.13299238869488758 -0.036216032476510424 0.5069039982769803 -0.9070724208446562 0.7423279987491542 0.1516870855962641 0.29996062131628465 0.08360551021316343 -0.15707962713032306 
-0.7056877248780428 0.20559783895831 -1.1206680750351716 0.27531625831380946 -0.6948232764062282 0.13760935515801706 0.2388403075764234 -0.46694991284266474 0.874253061096247 -0.07749615891640783 0.5718121069174789 -0.4846496075033767 -0.5754305572359297 0.34203487268459565 -0.8858562614025275 0.49126751298136023 0.501071265696679 
0.6330340416555126 -0.8925652445440196 -0.9142430345527468 0.20823758250606364 -0.4845415846791925 -0.6748350931609649 -0.6495441199727413 -0.920808951725874 -0.2988707961575474 -0.3747624288552836 0.051747732592137045 0.30185588141394687 -0.8702348296065601 -0.4800752917663731 0.6947482007023636 -0.6317944530067514 0.6139951642513592 
-0.6896421821893808 -0.5394472345464072 -0.2265053404531087 0.6279945468198223 -1.1018459638085152 0.3541012031952197 0.0758783454724842 -0.389329470395554 -0.23737712025505783 0.16239876731599442 0.7943675341954417 -0.3082077098018942 -0.3483783581708186 0.1148593190387687 -0.9471465385018872 -0.5016902375618366 -0.10661785022746695 
-0.549867940253744 -0.9246991452325874 -0.7415943630273721 0.6467558609425096 0.46945415202839486 -0.9650804476361049 0.19534925357224994 0.14567080842053626 0.7942219815337216 -0.1737952808088396 0.6881306590151258 0.5498578593972542 -0.7104051202889075 -0.1629029738034617 0.4212018944052925 -0.5410887270199678 0.6312481545879965 
0.3290419166205348 0.026006217818472167 -0.43373378027954407 -0.29960900963550874 0.2687009602122544 -0.7353517822667094 0.7728618519155802 -0.17836896932533405 0.9352047550006238 -0.65983043234548 -0.5526628199314626 -0.41776499740543743 0.7257940366517612 0.3133924544245214 -0.3688380455588934 0.09435972309670845 -0.5994795783294442 
0.4196789180116737 0.4427214182100488 -0.380448996709458 0.2198999810201399 0.723110381624292 -0.03338128146186343 -0.30295676129868443 -0.4082354423167912 -0.448586220184548 -0.9170355003834965 -0.7287654770520542 -0.1581837161838169 -0.7154255529077108 -0.12752822106949635 -0.24643267844567301 0.4835283734542712 -0.6090880398738172 
-0.7257676789892652 -0.6442481305046663 -0.5746113932618153 -0.048210943863179305 0.6105827814524617 0.6315236497961134 -0.7303200649258159 -0.0827102258888366 -0.5681719605319505 -0.8025471744839585 -0.9927113103084537 0.49820442424128375 0.48610899628567256 -0.5095247536784845 -0.7672715860181927 -0.15878235822068335 0.6112873559451941 
-0.09552628324288502 -0.5810225037350668 0.37839737931065714 -0.7581752935756417 0.19412534040885593 -0.8862162721640937 0.9083733442713463 0.32821267428099854 0.0038569562550810426 0.9387838432672111 -0.504515093664481 0.30480986044012304 -0.6108048580294663 -0.21073058223481975 0.5872726656829814 0.4567691494400463 -0.9711782963105443 
-0.7694735456842221 0.2853087732049304 0.10936801118631974 -0.5845437442663544 -0.95479924694882 -0.29834781800870047 0.7004117508331977 0.26625119186735874 -0.2858595703605804 -0.10409103214829074 -0.27648905746796254 0.33150474473025254 -0.37089645020130774 -0.7906448443686304 -0.08504312917224645 -0.32814297668183195 -0.779200900765566 
-0.8033769592243597 0.34403933499673495 -0.939594052164583 -0.8868245826618305 0.21304865079099927 0.8089458696261469 -0.7191458218255882 0.6332414780646509 -0.4734057447122226 -0.8903404786467033 -0.4462198702898871 0.3634598548875029 -0.9267902518024338 0.7621165989521013 -0.7631460327519705 -0.8882971647958874 0.18187640130970906 
-0.7349780360421195 0.802606846176346 0.6254344809528928 0.5996433104511437 0.03330038869540714 0.7484799900620691 -0.14787376143383227 -0.02610993681659511 -0.380847165697582 0.02825594272789615 0.5899736484021699 0.06828205261387767 0.9317752678777125 0.7960692512290257 -0.028622680255754852 0.5914101158128916 0.12644535830798936 
0.3572771136567725 -0.6596442793011417 -0.9196813452442008 -0.7735953352357546 0.10795346749182844 -0.501319262824467 0.6838993213495475 0.19024656410648305 -0.8934849800971052 -0.17395610842394205 -0.6798424100506969 0.8928341194962442 -0.22446243428937823 -0.7784494052734015 0.9293256723735244 0.982983421075061 -0.39888599389028623 
0.04455527671131978 -0.752647498419629 0.01079951623784735 -0.28387921275788064 -1.1462705445670605 0.3093262788437736 0.8876435800654433 -0.44922609023895227 0.7015267631415029 -0.030342839664424522 0.4758270980587874 0.7086374079726067 0.7193748378431499 -0.5721214021861185 -0.41449206852062304 -0.29359866096625364 -0.06197301995482076 
0.45393145849856015 -0.7243847708096361 -0.8945929675261849 -0.7481863053527884 0.9446185463857125 -0.645807219338476 0.9236097562776693 0.06763675029628671 0.1411565112569614 0.8732731357845711 -0.749764202785843 -0.6178198960902296 -0.2809850227389702 -0.685053792655326 -0.13840918143244516 0.17834045064031126 -0.5327564078290219 
-0.8360053375195983 -0.5116490180539287 -0.8365448126885685 0.040794092892828225 -0.12063330620808436 0.5024116665542087 0.6321918531990676 -0.4162612585102587 0.1352004111694714 0.17006532736136346 -0.00951442274620326 -0.08068399938662178 -0.014136301332929431 0.11931340254492309 -0.8386118455593007 0.9044961349544457 0.8041109855286281 
0.6172066006233898 -0.30045216588464574 0.7569625574395743 -0.5109913617534668 0.1501416810630423 0.6648406221779866 -0.5227282584629732 -0.6118839920464848 0.3901302304665176 -0.6374403516441298 -0.12203202830210226 0.423599077479257 -0.18302455499888926 -0.32657373923414285 -1.0231160147815332 0.44951792061299783 0.053289958351837426 
-0.47035499570059036 -0.7562781759046793 -0.9677968316366407 -0.5327754066705843 0.567225533443176 -0.23976312482029816 -0.592144877325805 -0.5217380093227226 0.29191063714675264 0.21211931885579524 -0.44326571086288297 -0.7698973670108089 -0.6401313950093069 0.8438230992408 0.3945478398792126 -0.6197751884167726 -0.8764274411726062 
-0.2512991137433574 -0.1291012806907025 -0.503260609977855 -0.7443201764707924 -0.5682087571644465 -0.8926952377931078 0.026803449607048967 0.9275916337538974 0.8121297713324033 0.49008503533998005 0.4586293308390228 -0.27947664884377416 -0.5896353479414272 -0.6413097350289002 -0.4920563131983691 0.13706511207735225 0.16419075163250602 
0.10943275264456812 -0.13812545877926602 0.10394615893310387 0.07204195462468142 0.1545254529758129 0.5423248929962383 -0.9268044150239284 0.1575100664302897 -0.9244793358046056 0.011556101998912119 0.1929585606851801 0.36676658496841935 -0.5523448765603122 -0.565541235750383 0.22460117702396556 -0.07515350351460429 -0.26898624643876723 
0.5854354870215767 0.3185816764704001 -0.22702912805513842 0.5017010474372979 -0.5828866753315268 -0.10119270884721199 0.30950553663608216 -0.8959852007418858 0.006302384795605312 -0.6043609555429906 0.7195976766967317 0.8594880672698166 0.05420401584858396 0.7942621494574991 -1.0066311650577051 0.4266057499808384 0.2261957784309285 
0.4555031683547844 0.12992301234489717 -0.634369908009363 -1.0448299303684105 -0.0495935233210905 -0.8831745761655756 -0.07369784109362472 0.9049458555280923 0.7040597783604773 -0.2949710688012187 -0.7187537214842489 0.14721391064903566 0.2201662924435255 -0.16238375805381886 0.7946010575575423 -0.047937296955277174 0.3017427519053878 
0.5287750620637384 -0.548540342973868 -0.5567504664566693 -0.6240238904062401 0.010365376391686288 0.5268734740881987 -0.648882569223003 -0.07671978730171146 0.07395552505672469 -0.4071262777252154 0.1633763835102569 0.07125445042320917 0.5373417758375301 -0.16096713386427514 -0.574853651786756 -0.3164973520032609 0.7572325683527598 
0.8835025810894042 -0.37807622693335063 0.0926648615832368 -0.5643066471930377 -0.8438810918490862 0.5984798613535907 0.3803837761656026 0.24895188227953766 0.7864431189592986 0.6769423369533342 0.46934583496203836 0.28005974752214363 0.16439610447672476 -0.4763738707365241 0.9612825627952646 -0.1550602131071583 -0.1299264166089846 
-0.4082202690470529 -0.8808809746224959 0.3636673227926625 -1.0067038557530668 0.6535236154514065 -0.8011543867802075 0.3244715273263652 0.7589261728676355 0.19436697979614515 0.1189761856828889 -0.08065285172804514 -0.8456742166259137 0.38622515055512846 -0.8361933152620753 0.9113899243933309 -0.9175140593452275 -0.6641684191202595 
0.003707699676393605 -0.6954647934787299 -0.7847646818873856 0.00872101467666735 0.2661351871328293 0.43189153028930677 -0.4956916440592143 0.136977819428297 0.2764991232075983 -0.5861831054401894 -0.9420598820807999 0.5842672764084585 -0.30553543199029987 0.06735272188512666 0.36912730629052093 -0.9195207283764796 -0.6707547243861105 
0.12007465648605932 -0.07144937326198812 -0.41031153192024983 0.3319900969045326 0.3965993197410209 -0.5082449689610903 -0.6257377088207408 0.30762066802510446 0.5865143455485401 -0.21963159950368377 0.7463109454106652 0.16014282374297212 -0.9101020749404771 -0.8635196340638607 -0.44301771079742397 -0.2866596409036418 0.07219641623468004 
0.5686804357940373 0.358302004844634 0.1529090307085801 -0.9513420620637563 0.5849779647534591 -0.8311218110337141 0.8536343334346791 -0.47570442222559955 0.5189886337560072 -0.7775758970651917 0.37176480536851797 0.14093349662529978 0.6979180507040359 0.34282019327549945 0.6916623108115972 -0.04491004344212614 -1.2129751817067356 
0.8505954903151492 0.04548068335155329 0.54589593798897 0.24561042722334842 0.6991226152453053 -1.0819160266241887 0.3849537455691726 -0.5098035260653904 0.04718215552894017 0.15381899746600963 -0.23778464767792265 0.30113844396813183 0.15350704222615424 -0.9032808189576492 -1.0287181813700492 -0.8196994567294072 -0.6878136456267097 
-0.8197284050102347 -0.49269871340985133 -0.8248225424781632 0.9869414019545925 -0.7143094146754203 -0.230346514720477 -0.2089849316481518 0.7906406829441243 -0.7523695745960428 -0.24435156658560356 -0.2644887668889597 -0.8780494802934365 0.15139777496152426 -0.9351153789472691 0.6442476279871138 -0.6010012130719545 -0.3097537456768563 
-0.4164631435144206 0.8650876960788103 0.15555321486770357 -0.44937792603927473 -0.20861703036046306 -0.31483523419051856 0.2625745700895693 0.5101256098085104 -0.6055180465640356 0.319924943623332 -0.9107871943288712 -0.4431484615812351 -0.09408224180801061 -0.8346002589254264 -0.5947923218106691 -0.8422552238755159 -0.25953410148013084 
0.44982546447574445 0.949842005313582 -0.6919955649426673 -0.6193446646370002 0.17679234413937348 0.2384121984128086 -0.20475173093843196 0.00034627318817301625 0.16732569633948052 -0.6233840105869748 0.21665645660314173 0.8280097471729774 -0.7905010772977059 -0.07138066548778627 0.46081261539406554 -0.205132490526608 -0.31862694817710435 
0.17972089963080976 -0.1624534562701739 -0.6947998130180596 0.569698049567129 -0.1927376685501713 -0.7162976938914253 -0.1452170360211371 0.5424170784152922 0.5640296127965673 0.5194238625470263 -0.6713397553886251 0.8193240938291902 0.189318758126676 0.7910695465976765 -0.44777304958771724 -0.9762874772735628 -0.9637832945008387 
